%YAML:1.0
my_svm: !!opencv-ml-svm
   svm_type: C_SVC
   kernel: { type:RBF, gamma:1. }
   C: 1.
   term_criteria: { epsilon:1.1920928955078125e-007, iterations:1000 }
   var_all: 600
   var_count: 600
   class_count: 2
   class_labels: !!opencv-matrix
      rows: 1
      cols: 2
      dt: i
      data: [ 0, 1 ]
   sv_total: 44
   support_vectors:
      - [ 0., 0., 0., 0., 0., 0., 0., 0., 0., 0., 0., 0., 0., 0., 0., 0.,
          0., 0., 0., 1.63934417e-002, 0., 0., 0., 0., 0., 0., 0., 0.,
          0., 0., 0., 0., 0., 0., 0., 0., 0., 0., 0., 0., 0., 0.,
          1.63934417e-002, 0., 0., 0., 0., 0., 0., 1.63934417e-002, 0.,
          0., 8.19672085e-003, 0., 0., 0., 0., 0., 0., 0., 0., 0., 0.,
          0., 0., 0., 0., 0., 0., 0., 0., 0., 0., 0., 0., 0., 0., 0., 0.,
          0., 0., 0., 0., 2.86885239e-002, 0., 0., 0., 0., 0., 0., 0.,
          0., 0., 0., 0., 0., 0., 0., 0., 0., 0., 0., 0., 0., 0., 0., 0.,
          0., 1.72131136e-001, 0., 0., 0., 0., 0., 0., 0., 0., 0., 0.,
          0., 0., 0., 0., 0., 0., 0., 0., 0., 5.32786846e-002, 0., 0.,
          1.27049178e-001, 0., 0., 0., 0., 0., 0., 0., 0., 0., 0., 0.,
          0., 0., 0., 0., 0., 0., 0., 0., 0., 0., 0., 0., 0., 0., 0., 0.,
          0., 0., 0., 0., 0., 0., 0., 0., 0., 0., 0., 0., 0., 0., 0., 0.,
          0., 0., 0., 0., 0., 0., 0., 0., 0., 0., 0., 0., 0., 0., 0., 0.,
          0., 0., 0., 0., 0., 0., 0., 0., 0., 0., 0., 4.50819656e-002,
          0., 0., 0., 0., 0., 0., 0., 0., 0., 0., 0., 0., 0., 0., 0., 0.,
          0., 0., 0., 0., 0., 0., 0., 0., 0., 0., 0., 0., 0., 0., 0., 0.,
          0., 0., 0., 0., 0., 0., 0., 0., 0., 0., 0., 0., 0., 0., 0., 0.,
          0., 0., 0., 0., 0., 0., 0., 0., 0., 0., 0., 0., 0., 0., 0., 0.,
          0., 0., 0., 0., 0., 0., 0., 0., 0., 0., 1.63934417e-002, 0.,
          0., 0., 0., 0., 0., 0., 0., 0., 0., 0., 0., 0., 0., 0.,
          2.86885239e-002, 0., 0., 0., 0., 0., 0., 0., 2.09016383e-001,
          0., 0., 0., 0., 0., 0., 0., 4.09836043e-003, 0., 0., 0., 0.,
          0., 0., 4.09836043e-003, 0., 0., 2.86885239e-002, 0., 0., 0.,
          0., 0., 0., 0., 0., 0., 0., 0., 0., 0., 0., 0., 0., 0., 0., 0.,
          0., 0., 0., 0., 3.27868834e-002, 0., 0., 0., 0., 0., 0., 0.,
          0., 0., 0., 0., 1.72131136e-001, 0., 0., 0., 0., 0., 0., 0.,
          0., 0., 0., 0., 0., 0., 0., 0., 0., 0., 0., 0., 0., 0., 0., 0.,
          0., 0., 0., 0., 0., 0., 0., 0., 0., 0., 0., 0., 0., 0., 0., 0.,
          0., 0., 0., 0., 0., 0., 0., 0., 0., 0., 0., 0., 0., 0., 0., 0.,
          0., 0., 0., 0., 0., 0., 0., 0., 0., 0., 4.09836043e-003, 0.,
          0., 0., 0., 0., 0., 0., 0., 0., 0., 8.19672085e-003, 0., 0.,
          0., 0., 0., 0., 0., 0., 0., 0., 0., 0., 0., 0., 0., 0., 0., 0.,
          0., 0., 0., 0., 0., 0., 0., 0., 0., 0., 0., 0., 0., 0., 0., 0.,
          0., 0., 0., 0., 0., 0., 8.19672085e-003, 0., 0., 0., 0., 0.,
          0., 0., 0., 0., 0., 0., 0., 0., 0., 0., 0., 0., 0., 0., 0., 0.,
          0., 0., 0., 0., 0., 0., 0., 0., 0., 0., 0., 0., 0., 0., 0., 0.,
          0., 0., 0., 0., 0., 0., 0., 0., 0., 0., 0., 0., 0., 0., 0., 0.,
          0., 0., 0., 0., 0., 0., 0., 0., 0., 0., 0., 0., 0., 0., 0., 0.,
          0., 0., 0., 0., 0., 0., 0., 0., 0., 0., 0., 0., 0., 0., 0., 0.,
          0., 0., 0., 0., 0., 0., 0., 0., 0., 0., 0., 0., 0., 0., 0., 0.,
          0., 0., 0., 0., 0., 0., 0., 0., 0., 0., 0., 0., 0., 0., 0., 0.,
          0., 0., 0., 0., 0., 0., 0., 0., 0. ]
      - [ 0., 0., 1.04529615e-002, 0., 3.48432059e-003, 0., 0., 0., 0.,
          0., 6.96864119e-003, 0., 0., 0., 0., 0., 0., 0.,
          3.48432059e-003, 3.48432059e-003, 0., 0., 0., 0., 0., 0., 0.,
          1.39372824e-002, 0., 3.48432059e-003, 0., 6.96864119e-003, 0.,
          0., 1.04529615e-002, 0., 0., 3.48432059e-003, 0., 0., 0.,
          6.96864119e-003, 3.48432059e-003, 0., 0., 0., 0., 0., 0.,
          6.96864119e-003, 3.48432059e-003, 0., 3.48432059e-003, 0.,
          1.04529615e-002, 6.96864119e-003, 0., 0., 0., 0., 0.,
          3.48432059e-003, 0., 0., 1.39372824e-002, 6.96864119e-003, 0.,
          0., 6.96864119e-003, 0., 0., 0., 0., 0., 0., 0.,
          3.48432059e-003, 0., 6.96864119e-003, 0., 0., 0., 0., 0., 0.,
          0., 0., 3.48432059e-003, 3.48432059e-003, 0., 0., 0.,
          3.48432059e-003, 0., 0., 3.48432059e-003, 0., 0.,
          1.04529615e-002, 0., 0., 0., 0., 0., 0., 0., 0.,
          2.09059231e-002, 0., 0., 0., 0., 0., 0., 0., 0., 0., 0.,
          3.48432059e-003, 0., 0., 0., 0., 3.48432059e-003, 0., 0., 0.,
          0., 0., 0., 0., 0., 3.83275263e-002, 0., 3.48432059e-003, 0.,
          6.96864119e-003, 0., 0., 0., 0., 0., 0., 1.04529615e-002, 0.,
          0., 0., 0., 0., 0., 0., 1.04529615e-002, 0., 0.,
          6.96864119e-003, 2.43902449e-002, 0., 0., 0., 0., 0., 0., 0.,
          0., 0., 0., 0., 3.48432059e-003, 0., 0., 0., 3.48432059e-003,
          0., 0., 0., 0., 6.96864119e-003, 3.48432059e-003, 0., 0., 0.,
          0., 0., 3.48432059e-003, 0., 0., 3.48432059e-003, 0., 0.,
          3.48432059e-003, 3.48432059e-003, 3.48432059e-003,
          6.96864119e-003, 0., 0., 0., 0., 0., 0., 0., 0., 0., 0., 0.,
          0., 1.04529615e-002, 6.96864119e-003, 0., 0., 0., 0., 0., 0.,
          0., 0., 6.96864119e-003, 3.48432059e-003, 3.48432059e-003,
          3.48432059e-003, 0., 0., 2.43902449e-002, 0., 0., 0., 0., 0.,
          2.43902449e-002, 0., 0., 0., 0., 0., 6.96864119e-003,
          3.48432059e-003, 0., 0., 0., 0., 6.96864119e-003,
          3.48432059e-003, 6.96864119e-003, 3.48432059e-003, 0., 0., 0.,
          0., 0., 0., 0., 3.48432059e-003, 0., 0., 0., 0., 0., 0., 0.,
          0., 0., 0., 0., 6.96864119e-003, 0., 0., 0., 0.,
          3.48432059e-003, 0., 0., 3.48432059e-003, 0., 0., 0., 0.,
          3.48432059e-003, 0., 0., 0., 0., 0., 1.04529615e-002, 0., 0.,
          0., 0., 6.96864119e-003, 0., 0., 3.48432059e-003, 0., 0., 0.,
          0., 0., 6.96864119e-003, 0., 3.48432059e-003, 0., 0., 0., 0.,
          0., 0., 0., 0., 0., 0., 0., 3.48432059e-003, 0., 0., 0.,
          6.96864119e-003, 0., 0., 1.04529615e-002, 0., 0., 0., 0., 0.,
          0., 0., 6.96864119e-003, 0., 0., 0., 3.48432059e-003, 0., 0.,
          0., 0., 3.48432059e-003, 0., 0., 0., 0., 0., 0., 0.,
          3.48432059e-003, 6.96864119e-003, 3.48432059e-003, 0., 0., 0.,
          0., 0., 0., 0., 3.48432059e-003, 0., 0., 3.48432059e-003,
          1.04529615e-002, 6.96864119e-003, 0., 0., 0., 3.48432059e-003,
          0., 0., 0., 0., 0., 0., 3.48432059e-003, 3.48432059e-003, 0.,
          3.48432059e-003, 0., 6.96864119e-003, 0., 0., 0., 0., 0., 0.,
          0., 0., 1.04529615e-002, 0., 0., 0., 0., 3.48432059e-003, 0.,
          1.04529615e-002, 3.48432059e-003, 0., 3.48432059e-003, 0., 0.,
          0., 0., 0., 0., 0., 0., 0., 3.48432059e-003, 0., 0., 0., 0.,
          3.48432059e-003, 0., 3.48432059e-003, 0., 3.48432059e-003,
          3.13588865e-002, 0., 1.04529615e-002, 0., 0., 0., 0., 0., 0.,
          0., 1.04529615e-002, 0., 0., 0., 0., 0., 0., 3.48432059e-003,
          0., 0., 0., 0., 0., 0., 0., 0., 0., 0., 0., 0.,
          3.48432059e-003, 3.48432059e-003, 0., 0., 3.48432059e-003, 0.,
          0., 0., 0., 0., 2.09059231e-002, 0., 0., 0., 0., 0., 0.,
          1.04529615e-002, 0., 0., 0., 6.96864119e-003, 0.,
          1.04529615e-002, 0., 0., 0., 0., 0., 3.48432059e-003,
          3.48432059e-003, 0., 6.96864119e-003, 0., 0., 3.48432059e-003,
          0., 0., 0., 0., 0., 0., 0., 1.74216032e-002, 0.,
          3.48432059e-003, 0., 0., 0., 1.39372824e-002, 0., 0.,
          6.96864119e-003, 0., 0., 0., 0., 0., 3.48432059e-003, 0., 0.,
          0., 0., 0., 0., 3.48432059e-003, 0., 0., 0., 0., 0., 0., 0.,
          0., 0., 1.04529615e-002, 0., 0., 3.48432059e-003, 0.,
          1.04529615e-002, 0., 0., 0., 0., 0., 3.48432059e-003, 0., 0.,
          0., 0., 0., 0., 0., 0., 3.48432059e-003, 0., 3.48432059e-003,
          0., 0., 3.48432059e-003, 3.48432059e-003, 0., 0.,
          3.48432059e-003, 1.74216032e-002, 0., 0., 0., 0.,
          3.48432059e-003, 0., 0., 0., 1.74216032e-002, 0., 0., 0., 0.,
          0., 0., 6.96864119e-003, 0., 1.39372824e-002, 0., 0., 0., 0.,
          6.96864119e-003, 6.96864119e-003, 0., 2.09059231e-002, 0.,
          3.48432059e-003, 0., 0., 0., 0., 0., 0., 0., 0., 0., 0.,
          3.48432059e-003, 0., 3.48432059e-003, 0., 3.48432059e-003, 0.,
          6.96864119e-003, 0., 0., 0., 0., 0., 6.96864119e-003, 0., 0. ]
      - [ 0., 0., 1.45772600e-003, 0., 1.45772600e-003, 8.74635577e-003,
          2.91545200e-003, 0., 0., 4.37317789e-003, 2.91545200e-003, 0.,
          0., 0., 0., 4.37317789e-003, 0., 1.45772600e-003, 0., 0., 0.,
          4.37317789e-003, 0., 0., 0., 1.45772600e-003, 0.,
          1.45772600e-003, 0., 0., 1.45772600e-003, 0., 0.,
          8.74635577e-003, 4.37317789e-003, 0., 1.45772600e-003, 0.,
          1.45772600e-003, 1.45772600e-003, 0., 0., 0., 2.91545200e-003,
          5.83090400e-003, 1.45772600e-003, 5.83090400e-003,
          2.91545200e-003, 2.91545200e-003, 0., 0., 0., 0.,
          1.45772600e-003, 4.37317789e-003, 2.47813426e-002, 0.,
          1.45772600e-003, 0., 0., 0., 2.91545200e-003, 0., 0.,
          1.45772600e-003, 1.45772600e-003, 1.45772600e-003,
          4.37317789e-003, 1.45772600e-003, 0., 1.45772600e-003, 0.,
          1.45772600e-003, 0., 2.91545200e-003, 1.45772600e-003,
          2.91545200e-003, 1.45772600e-003, 0., 0., 1.45772600e-003,
          1.45772600e-003, 0., 0., 2.91545200e-003, 0., 0., 0., 0.,
          1.45772600e-003, 0., 5.83090400e-003, 0., 0., 0., 0.,
          7.28863012e-003, 2.91545200e-003, 1.45772600e-003, 0., 0., 0.,
          0., 1.45772600e-003, 0., 0., 0., 0., 1.45772600e-003, 0.,
          1.45772600e-003, 0., 4.37317789e-003, 0., 1.45772600e-003, 0.,
          1.45772600e-003, 1.45772600e-003, 0., 0., 0., 2.91545200e-003,
          1.45772600e-003, 4.37317789e-003, 2.91545200e-003, 0., 0.,
          2.91545200e-003, 0., 2.91545200e-003, 7.28863012e-003,
          1.45772600e-003, 4.37317789e-003, 2.91545200e-003,
          7.28863012e-003, 1.45772600e-003, 0., 4.37317789e-003, 0., 0.,
          2.91545200e-003, 8.74635577e-003, 2.91545200e-003,
          1.45772600e-003, 0., 0., 2.91545200e-003, 0., 0., 0., 0.,
          4.37317789e-003, 0., 0., 7.28863012e-003, 2.91545200e-003, 0.,
          0., 0., 1.45772600e-003, 1.45772600e-003, 1.45772600e-003,
          1.45772600e-003, 0., 0., 2.91545200e-003, 0., 4.37317789e-003,
          0., 0., 1.45772600e-003, 0., 1.45772600e-003, 1.45772600e-003,
          0., 0., 1.45772600e-003, 2.91545200e-003, 0., 0.,
          1.45772600e-003, 0., 0., 2.91545200e-003, 4.37317789e-003,
          2.91545200e-003, 1.45772600e-003, 2.91545200e-003, 0., 0.,
          1.45772600e-003, 0., 2.91545200e-003, 0., 0., 0.,
          2.91545200e-003, 0., 0., 1.45772600e-003, 0., 1.45772600e-003,
          0., 0., 1.45772600e-003, 2.91545200e-003, 1.45772600e-003,
          2.91545200e-003, 1.45772600e-003, 0., 0., 4.37317789e-003, 0.,
          0., 0., 2.91545200e-003, 2.91545200e-003, 0., 0., 0., 0.,
          1.60349868e-002, 1.45772600e-003, 0., 0., 1.45772600e-003,
          2.91545200e-003, 0., 8.74635577e-003, 0., 0., 2.91545200e-003,
          0., 4.37317789e-003, 2.91545200e-003, 0., 1.45772600e-003, 0.,
          1.45772600e-003, 2.91545200e-003, 0., 4.37317789e-003, 0., 0.,
          4.37317789e-003, 0., 0., 5.83090400e-003, 0., 7.28863012e-003,
          4.37317789e-003, 1.45772600e-003, 1.45772600e-003,
          5.83090400e-003, 1.45772600e-003, 0., 0., 2.91545200e-003, 0.,
          0., 0., 2.91545200e-003, 0., 0., 0., 0., 4.37317789e-003, 0.,
          0., 1.45772600e-003, 1.45772600e-003, 0., 4.37317789e-003, 0.,
          1.45772600e-003, 0., 1.45772600e-003, 1.45772600e-003,
          4.37317789e-003, 2.91545200e-003, 1.45772600e-003,
          4.37317789e-003, 0., 7.28863012e-003, 0., 2.91545200e-003,
          1.45772600e-003, 4.37317789e-003, 2.91545200e-003, 0.,
          1.45772600e-003, 5.83090400e-003, 1.45772600e-003,
          2.91545200e-003, 1.45772600e-003, 0., 0., 4.37317789e-003, 0.,
          2.91545200e-003, 0., 0., 0., 0., 0., 1.45772600e-003, 0.,
          1.45772600e-003, 0., 0., 5.83090400e-003, 0., 0.,
          5.83090400e-003, 1.45772600e-003, 0., 0., 0., 7.28863012e-003,
          1.45772600e-003, 4.37317789e-003, 0., 2.91545200e-003,
          1.45772600e-003, 0., 0., 0., 0., 0., 1.45772600e-003,
          1.45772600e-003, 0., 0., 4.37317789e-003, 0., 0.,
          4.37317789e-003, 4.37317789e-003, 0., 0., 1.45772600e-003,
          4.37317789e-003, 5.83090400e-003, 0., 0., 1.45772600e-003, 0.,
          5.83090400e-003, 0., 1.45772600e-003, 1.45772600e-003,
          2.91545200e-003, 1.45772600e-003, 0., 0., 2.91545200e-003,
          1.45772600e-003, 1.45772600e-003, 0., 1.45772600e-003,
          2.91545200e-003, 2.91545200e-003, 0., 0., 1.45772600e-003, 0.,
          0., 0., 1.45772600e-003, 2.91545200e-003, 0., 1.45772600e-003,
          1.45772600e-003, 1.45772600e-003, 2.91545200e-003,
          1.45772600e-003, 0., 1.45772600e-003, 0., 0., 0.,
          4.37317789e-003, 0., 0., 0., 2.91545200e-003, 1.45772600e-003,
          0., 8.74635577e-003, 2.91545200e-003, 2.91545200e-003, 0., 0.,
          0., 0., 0., 0., 2.91545200e-003, 1.45772600e-003, 0., 0.,
          1.45772600e-003, 0., 0., 2.91545200e-003, 5.83090400e-003,
          1.45772600e-003, 0., 1.45772600e-003, 1.45772600e-003,
          1.45772600e-003, 7.28863012e-003, 4.37317789e-003,
          1.45772600e-003, 0., 0., 0., 0., 0., 5.83090400e-003,
          8.74635577e-003, 1.45772600e-003, 2.91545200e-003,
          1.45772600e-003, 1.45772600e-003, 0., 0., 0., 0.,
          1.45772600e-003, 1.45772600e-003, 0., 0., 0., 1.45772600e-003,
          0., 0., 0., 0., 1.45772600e-003, 0., 1.45772600e-003, 0.,
          2.91545200e-003, 1.02040824e-002, 0., 1.45772600e-003, 0.,
          1.31195337e-002, 0., 1.45772600e-003, 2.76967939e-002, 0.,
          1.45772600e-003, 0., 0., 4.37317789e-003, 0., 2.91545200e-003,
          2.91545200e-003, 5.83090400e-003, 0., 1.45772600e-003,
          1.45772600e-003, 0., 0., 0., 2.91545200e-003, 0.,
          5.83090400e-003, 0., 2.91545200e-003, 0., 0., 0., 0.,
          2.91545200e-003, 2.91545200e-003, 2.91545200e-003, 0., 0., 0.,
          1.45772600e-003, 0., 2.91545200e-003, 0., 0., 0.,
          2.91545200e-003, 4.37317789e-003, 0., 0., 0., 4.37317789e-003,
          8.74635577e-003, 0., 1.45772600e-003, 0., 0., 1.16618080e-002,
          1.45772600e-003, 2.91545200e-003, 2.91545200e-003, 0.,
          2.91545200e-003, 0., 1.45772600e-003, 7.28863012e-003,
          4.37317789e-003, 2.91545200e-003, 7.28863012e-003,
          4.37317789e-003, 0., 1.45772600e-003, 2.91545200e-003,
          1.45772600e-003, 2.04081647e-002, 2.91545200e-003, 0.,
          2.91545200e-003, 1.45772600e-003, 5.83090400e-003,
          4.37317789e-003, 0., 4.37317789e-003, 0., 0., 0., 0.,
          1.45772602e-002, 1.45772600e-003, 2.91545200e-003, 0.,
          2.91545200e-003, 0., 0., 1.45772600e-003, 0., 2.91545200e-003,
          1.45772600e-003, 1.45772600e-003, 0., 0., 0., 2.91545200e-003,
          1.45772600e-003, 2.18658894e-002, 0., 1.45772600e-003, 0.,
          1.45772600e-003, 1.45772600e-003, 0., 0., 0., 0., 0., 0.,
          1.45772600e-003, 0., 0., 1.45772600e-003, 0., 0.,
          1.45772600e-003, 2.91545200e-003, 0., 2.91545200e-003, 0., 0.,
          0., 0., 1.45772600e-003, 1.02040824e-002, 2.91545200e-003, 0.,
          1.45772600e-003, 1.45772600e-003, 1.45772600e-003, 0., 0., 0.,
          0., 1.45772600e-003, 0., 0., 2.91545200e-003, 0.,
          2.91545200e-003, 1.45772600e-003, 0., 2.91545200e-003,
          4.37317789e-003, 0., 0., 1.45772600e-003, 1.45772600e-003,
          1.45772600e-003, 1.45772600e-003, 0. ]
      - [ 3.02419346e-003, 2.01612897e-003, 0., 0., 1.00806449e-003, 0.,
          2.01612897e-003, 4.03225794e-003, 0., 1.00806449e-003, 0.,
          6.04838692e-003, 0., 0., 3.02419346e-003, 1.00806449e-003,
          4.03225794e-003, 3.02419346e-003, 7.05645140e-003, 0., 0.,
          1.00806449e-003, 0., 6.04838692e-003, 0., 1.00806449e-003,
          2.01612897e-003, 0., 0., 0., 2.01612897e-003, 0.,
          1.00806449e-003, 1.00806449e-003, 0., 0., 5.04032243e-003, 0.,
          0., 1.00806449e-003, 0., 3.02419346e-003, 0., 0.,
          2.01612897e-003, 2.01612897e-003, 2.01612897e-003,
          2.01612897e-003, 0., 0., 0., 4.03225794e-003, 0., 0., 0., 0.,
          6.04838692e-003, 2.41935477e-002, 0., 1.00806449e-003,
          1.61290318e-002, 2.01612897e-003, 2.01612897e-003, 0., 0., 0.,
          8.06451589e-003, 0., 0., 2.01612897e-003, 0., 0.,
          5.04032243e-003, 0., 3.02419346e-003, 0., 0., 0.,
          1.00806449e-003, 1.00806449e-003, 1.00806449e-003, 0., 0., 0.,
          1.00806449e-003, 2.01612897e-003, 3.02419346e-003,
          4.03225794e-003, 0., 1.00806449e-003, 4.03225794e-003,
          2.01612897e-003, 0., 0., 0., 2.01612897e-003, 4.03225794e-003,
          0., 0., 1.00806449e-003, 6.04838692e-003, 5.04032243e-003,
          4.03225794e-003, 0., 1.00806449e-003, 1.00806449e-003, 0.,
          2.01612897e-003, 0., 0., 3.02419346e-003, 0., 0.,
          2.01612897e-003, 0., 0., 0., 5.04032243e-003, 0.,
          7.05645140e-003, 0., 1.00806449e-003, 1.00806449e-003, 0.,
          4.03225794e-003, 0., 1.00806449e-003, 0., 0., 0.,
          1.00806449e-003, 0., 0., 1.00806449e-003, 0., 1.00806449e-003,
          2.01612897e-003, 0., 0., 3.02419346e-003, 1.00806449e-003,
          1.00806449e-003, 5.04032243e-003, 2.01612897e-003,
          4.03225794e-003, 6.04838692e-003, 0., 0., 3.02419346e-003,
          1.00806449e-003, 0., 0., 2.01612897e-003, 3.02419346e-003,
          1.00806449e-003, 0., 0., 0., 7.05645140e-003, 0.,
          1.00806449e-003, 1.00806449e-003, 0., 0., 0., 0., 0.,
          3.02419346e-003, 4.03225794e-003, 0., 2.01612897e-003, 0.,
          3.02419346e-003, 0., 4.03225794e-003, 5.04032243e-003,
          3.02419346e-003, 2.01612897e-003, 0., 4.03225794e-003,
          1.00806449e-003, 1.00806449e-002, 0., 3.02419346e-003,
          2.01612897e-003, 0., 0., 5.04032243e-003, 1.00806449e-003, 0.,
          2.01612897e-003, 0., 0., 5.04032243e-003, 2.01612897e-003,
          5.04032243e-003, 0., 1.00806449e-002, 1.00806449e-003, 0.,
          1.00806449e-003, 0., 0., 1.00806449e-003, 2.01612897e-003, 0.,
          0., 4.03225794e-003, 0., 4.03225794e-003, 0., 5.04032243e-003,
          3.02419346e-003, 2.01612897e-003, 0., 0., 0., 3.02419346e-003,
          1.00806449e-003, 1.00806449e-003, 0., 0., 0., 0., 0., 0., 0.,
          0., 1.00806449e-003, 0., 1.00806449e-003, 0., 0., 0., 0.,
          3.02419346e-003, 0., 1.00806449e-003, 2.01612897e-003,
          1.00806449e-003, 0., 0., 0., 4.03225794e-003, 2.01612897e-003,
          1.00806449e-003, 1.00806449e-003, 1.00806449e-003,
          5.04032243e-003, 2.01612897e-003, 0., 0., 0., 1.00806449e-003,
          1.00806449e-003, 0., 5.04032243e-003, 1.00806449e-003,
          1.00806449e-003, 0., 1.00806449e-003, 1.00806449e-003, 0.,
          3.02419346e-003, 0., 1.00806449e-002, 0., 0., 3.02419346e-003,
          0., 3.02419346e-003, 3.02419346e-003, 5.04032243e-003, 0., 0.,
          1.00806449e-003, 2.01612897e-003, 0., 0., 1.00806449e-003,
          4.03225794e-003, 1.00806449e-003, 0., 1.00806449e-003,
          2.01612897e-003, 4.03225794e-003, 0., 4.03225794e-003,
          2.01612897e-003, 4.03225794e-003, 0., 0., 3.02419346e-003, 0.,
          2.01612897e-003, 1.00806449e-002, 0., 0., 0., 0., 0., 0.,
          3.02419346e-003, 2.01612897e-003, 1.00806449e-003, 0., 0.,
          3.02419346e-003, 5.04032243e-003, 0., 0., 0., 2.01612897e-003,
          1.00806449e-003, 1.00806449e-003, 4.03225794e-003, 0.,
          1.00806449e-003, 0., 0., 1.00806449e-003, 2.01612897e-003, 0.,
          8.06451589e-003, 0., 1.00806449e-003, 2.01612897e-003,
          7.05645140e-003, 3.02419346e-003, 7.05645140e-003,
          1.00806449e-003, 1.00806449e-003, 1.00806449e-003, 0., 0.,
          2.01612897e-003, 1.00806449e-003, 0., 0., 2.01612897e-003,
          5.04032243e-003, 0., 0., 0., 0., 0., 2.01612897e-003, 0., 0.,
          2.01612897e-003, 0., 0., 2.01612897e-003, 2.11693533e-002, 0.,
          0., 0., 4.03225794e-003, 1.00806449e-003, 3.02419346e-003, 0.,
          1.00806449e-003, 3.02419346e-003, 1.00806449e-003, 0., 0.,
          2.21774187e-002, 0., 0., 3.02419346e-003, 0., 0.,
          2.01612897e-003, 4.03225794e-003, 5.04032243e-003,
          3.02419346e-003, 4.03225794e-003, 0., 1.00806449e-003,
          3.02419346e-003, 3.02419346e-003, 0., 0., 0., 1.00806449e-003,
          1.00806449e-003, 0., 1.00806449e-003, 0., 1.00806449e-003,
          1.00806449e-003, 0., 2.01612897e-003, 1.41129028e-002, 0.,
          5.04032243e-003, 1.00806449e-003, 0., 4.03225794e-003,
          1.00806449e-003, 2.01612897e-003, 5.04032243e-003,
          5.04032243e-003, 0., 1.00806449e-003, 0., 1.00806449e-003, 0.,
          0., 0., 0., 0., 1.00806449e-003, 0., 7.05645140e-003,
          2.01612897e-003, 0., 2.01612897e-003, 9.07258037e-003, 0., 0.,
          0., 2.01612897e-003, 2.01612897e-003, 4.03225794e-003, 0.,
          2.01612897e-003, 5.04032243e-003, 4.03225794e-003, 0.,
          2.01612897e-003, 0., 0., 2.01612897e-003, 0., 3.02419346e-003,
          3.02419346e-003, 1.61290318e-002, 1.00806449e-002,
          3.02419346e-003, 0., 1.00806449e-003, 1.00806449e-003, 0., 0.,
          5.04032243e-003, 1.00806449e-003, 1.00806449e-003, 0.,
          3.02419346e-003, 0., 0., 1.00806449e-003, 3.02419346e-003,
          5.04032243e-003, 0., 0., 0., 0., 1.00806449e-003, 0.,
          4.03225794e-003, 1.00806449e-003, 1.00806449e-003, 0.,
          1.00806449e-003, 1.00806449e-003, 0., 2.01612897e-003, 0.,
          1.00806449e-003, 0., 3.02419346e-003, 0., 9.07258037e-003,
          2.01612897e-003, 4.03225794e-003, 0., 1.00806449e-003, 0.,
          2.01612897e-003, 0., 3.02419346e-003, 5.04032243e-003, 0.,
          9.07258037e-003, 0., 0., 1.00806449e-003, 0., 0.,
          2.01612897e-003, 0., 0., 3.02419346e-003, 1.00806449e-003, 0.,
          0., 2.01612897e-003, 0., 1.00806449e-003, 0., 0.,
          7.05645140e-003, 0., 1.00806449e-003, 4.03225794e-003, 0.,
          3.02419346e-003, 0., 0., 2.01612897e-003, 7.05645140e-003,
          1.00806449e-003, 0., 9.07258037e-003, 0., 0., 0., 0.,
          2.01612897e-003, 2.01612897e-003, 1.00806449e-003,
          1.00806449e-003, 0., 0., 0., 0., 0., 0., 2.01612897e-003,
          1.00806449e-003, 2.01612897e-003, 2.01612897e-003,
          3.02419346e-003, 0., 0., 0., 0., 1.00806449e-003,
          3.02419346e-003, 1.00806449e-003, 0., 0., 1.00806449e-003,
          1.00806449e-003, 0., 1.00806449e-003, 1.00806449e-003,
          1.71370953e-002, 1.00806449e-003, 0., 2.72177421e-002,
          1.00806449e-003, 3.02419346e-003, 0., 0., 2.01612897e-003,
          2.01612897e-003, 2.01612897e-003, 0., 1.00806449e-003,
          1.00806449e-003, 2.01612897e-003, 0., 0., 0., 6.04838692e-003,
          0., 1.00806449e-003, 0., 0., 0., 0., 2.01612897e-003, 0.,
          1.00806449e-003, 4.03225794e-003, 0., 4.03225794e-003,
          3.02419346e-003, 0., 1.00806449e-003, 0., 0., 0.,
          1.00806449e-003, 0., 3.02419346e-003, 2.01612897e-003,
          4.03225794e-003, 0., 0., 1.00806449e-003, 7.05645140e-003, 0.,
          3.02419346e-003, 1.00806449e-003, 2.01612897e-003, 0. ]
      - [ 0., 1.09529030e-003, 0., 0., 0., 0., 0., 0., 0., 0., 0.,
          4.38116118e-003, 0., 0., 1.09529030e-003, 0., 4.38116118e-003,
          0., 1.09529030e-003, 0., 0., 0., 0., 0., 0., 0., 0.,
          1.09529030e-003, 0., 0., 1.09529030e-003, 0., 3.28587089e-003,
          0., 0., 0., 0., 0., 0., 0., 0., 0., 0., 0., 1.09529030e-003,
          4.38116118e-003, 0., 0., 0., 0., 0., 0., 0., 2.19058059e-003,
          0., 0., 0., 0., 0., 0., 4.38116118e-003, 6.57174177e-003, 0.,
          1.09529030e-003, 0., 0., 0., 0., 0., 0., 0., 6.57174177e-003,
          1.09529030e-003, 0., 0., 5.47645148e-003, 0., 0., 0.,
          2.19058059e-003, 0., 1.09529030e-003, 1.09529030e-003, 0., 0.,
          0., 1.09529030e-003, 5.47645148e-003, 0., 1.09529030e-003, 0.,
          0., 0., 0., 0., 1.09529030e-003, 1.09529030e-003, 0., 0., 0.,
          9.85761266e-003, 7.66703207e-003, 0., 0., 0., 0., 0., 0.,
          2.73822583e-002, 6.57174177e-003, 0., 0., 0., 0., 0., 0., 0.,
          5.47645148e-003, 0., 5.47645148e-003, 0., 0., 0., 0.,
          1.09529030e-003, 0., 2.19058059e-003, 0., 0., 0., 0., 0.,
          1.53340641e-002, 0., 0., 0., 0., 0., 0., 0., 0., 0., 0., 0.,
          0., 0., 0., 0., 7.66703207e-003, 0., 0., 0., 0., 0., 0., 0.,
          0., 0., 0., 0., 2.19058059e-003, 0., 0., 0., 5.47645148e-003,
          0., 0., 0., 0., 0., 6.57174177e-003, 0., 3.28587089e-003, 0.,
          0., 2.19058059e-003, 0., 0., 0., 0., 0., 3.17634195e-002, 0.,
          0., 0., 0., 0., 0., 1.09529030e-003, 0., 3.28587089e-003, 0.,
          1.09529030e-003, 1.09529030e-003, 0., 0., 0., 3.28587089e-003,
          2.19058059e-003, 0., 3.28587089e-003, 0., 0., 0.,
          6.57174177e-003, 0., 0., 0., 0., 0., 4.38116118e-003, 0., 0.,
          0., 3.28587089e-003, 0., 0., 0., 0., 1.09529030e-003, 0., 0.,
          0., 0., 0., 0., 0., 0., 2.19058059e-003, 0., 0., 0., 0., 0.,
          0., 0., 0., 1.09529030e-003, 0., 0., 0., 0., 0., 0., 0., 0.,
          0., 0., 1.53340641e-002, 0., 0., 0., 0., 1.09529030e-003, 0.,
          3.28587089e-003, 0., 0., 0., 0., 0., 0., 0., 1.42387738e-002,
          0., 6.57174177e-003, 0., 0., 0., 0., 0., 0., 0., 0., 0., 0.,
          1.09529030e-003, 0., 0., 0., 3.28587089e-003, 4.38116118e-003,
          0., 0., 2.19058059e-003, 0., 0., 0., 1.09529030e-003, 0.,
          1.09529030e-003, 0., 0., 0., 1.09529030e-003, 1.64293535e-002,
          0., 1.09529030e-003, 0., 0., 0., 0., 1.09529030e-003,
          9.85761266e-003, 1.09529030e-003, 0., 0., 8.76232237e-003, 0.,
          0., 0., 0., 0., 0., 0., 0., 0., 0., 0., 0., 1.09529030e-003,
          0., 0., 0., 0., 0., 0., 1.20481933e-002, 1.09529030e-003, 0.,
          2.19058059e-003, 6.57174177e-003, 0., 0., 0., 7.66703207e-003,
          6.57174177e-003, 0., 0., 3.28587089e-003, 0., 0., 0., 0., 0.,
          0., 1.09529030e-003, 6.57174177e-003, 0., 0., 0., 0., 0.,
          4.38116118e-003, 0., 1.31434835e-002, 0., 1.09529030e-003, 0.,
          0., 0., 1.09529030e-003, 1.31434835e-002, 0., 0., 0.,
          5.47645148e-003, 0., 0., 0., 0., 0., 0., 1.09529030e-003, 0.,
          0., 0., 0., 0., 0., 3.94304506e-002, 0., 0., 0.,
          1.09529030e-003, 2.19058059e-003, 0., 0., 0., 0., 0., 0., 0.,
          5.69550954e-002, 0., 0., 0., 0., 0., 0., 0., 0.,
          2.19058059e-003, 1.09529030e-003, 9.85761266e-003,
          2.19058059e-003, 0., 0., 0., 0., 0., 3.28587089e-003, 0., 0.,
          9.85761266e-003, 7.66703207e-003, 1.09529030e-003, 0., 0., 0.,
          0., 0., 1.31434835e-002, 2.19058059e-003, 0., 0.,
          4.38116118e-003, 2.19058059e-003, 1.09529030e-003, 0., 0., 0.,
          0., 0., 0., 4.38116118e-003, 0., 8.76232237e-003,
          8.76232237e-002, 1.09529030e-003, 0., 0., 1.09529030e-003, 0.,
          0., 3.28587089e-003, 0., 0., 0., 0., 0., 2.19058059e-003,
          1.09529030e-003, 1.09529030e-003, 7.66703207e-003,
          1.09529030e-003, 0., 0., 0., 0., 3.28587089e-003,
          1.09529030e-003, 0., 0., 0., 0., 1.09529030e-003, 0.,
          1.09529030e-003, 0., 0., 0., 1.09529030e-003, 0.,
          8.76232237e-003, 1.09529030e-003, 0., 0., 0., 0.,
          4.38116118e-003, 0., 3.28587089e-003, 1.09529030e-003, 0.,
          1.09529030e-002, 1.09529030e-003, 0., 0., 0., 0., 0., 0., 0.,
          6.57174177e-003, 0., 0., 0., 0., 0., 0., 0., 0.,
          2.40963865e-002, 2.19058059e-003, 1.09529030e-003, 0.,
          2.19058059e-003, 0., 0., 0., 5.47645148e-003, 0., 0., 0., 0.,
          0., 1.09529030e-003, 0., 0., 0., 0., 1.09529030e-003, 0., 0.,
          0., 0., 0., 0., 0., 4.38116118e-003, 0., 0., 0., 0., 0.,
          7.66703207e-003, 1.09529030e-003, 0., 1.09529030e-003, 0.,
          1.09529030e-003, 0., 0., 2.19058059e-003, 0., 0., 0., 0.,
          9.96714160e-002, 0., 0., 6.90032914e-002, 0., 3.28587089e-003,
          0., 0., 6.57174177e-003, 1.09529030e-003, 4.38116118e-003, 0.,
          0., 0., 0., 1.09529030e-003, 0., 0., 0., 0., 0., 0., 0., 0.,
          0., 0., 0., 3.28587089e-003, 0., 0., 2.19058059e-003,
          2.19058059e-003, 0., 0., 0., 0., 0., 1.09529030e-003, 0.,
          1.09529030e-003, 0., 4.38116118e-003, 0., 0., 0.,
          1.09529030e-003, 0., 0., 0., 1.09529030e-003, 0. ]
      - [ 2.51572323e-003, 0., 1.25786162e-003, 0., 0., 0., 0.,
          1.25786162e-003, 0., 0., 0., 0., 0., 0., 0., 5.03144646e-003,
          0., 0., 3.77358496e-002, 0., 0., 1.25786162e-003,
          2.51572323e-003, 2.51572323e-003, 0., 0., 0., 6.28930796e-003,
          1.25786162e-003, 0., 1.25786162e-003, 6.28930796e-003, 0.,
          2.13836469e-002, 1.25786162e-003, 1.25786162e-003, 0., 0., 0.,
          0., 0., 2.51572323e-003, 0., 0., 1.25786162e-003,
          1.00628929e-002, 0., 1.25786162e-003, 0., 0., 0.,
          5.03144646e-003, 0., 0., 2.51572323e-003, 0., 0., 0.,
          1.25786159e-002, 1.25786162e-003, 0., 0., 0., 0., 0.,
          1.25786162e-003, 0., 0., 1.25786162e-003, 0., 0.,
          1.25786162e-003, 1.25786162e-003, 0., 0., 0., 5.03144646e-003,
          2.51572323e-003, 2.51572323e-003, 0., 0., 0., 0., 0., 0.,
          5.03144646e-003, 0., 1.25786162e-003, 0., 0., 0.,
          2.51572323e-003, 0., 0., 1.25786162e-003, 0., 5.03144646e-003,
          0., 5.03144646e-003, 0., 1.25786159e-002, 3.01886797e-002, 0.,
          0., 7.54716992e-003, 0., 0., 0., 0., 1.25786162e-003, 0., 0.,
          1.25786162e-003, 0., 0., 1.25786162e-003, 1.25786162e-003,
          1.25786162e-003, 0., 0., 1.25786162e-003, 0., 0.,
          2.38993708e-002, 0., 0., 0., 0., 0., 0., 1.25786162e-003, 0.,
          0., 2.51572323e-003, 1.25786162e-003, 0., 0., 0., 0.,
          2.51572323e-003, 0., 0., 0., 1.25786162e-003, 7.54716992e-003,
          0., 0., 2.51572323e-003, 0., 0., 0., 0., 1.25786162e-003,
          2.51572323e-003, 0., 5.03144646e-003, 1.25786162e-003,
          5.03144646e-003, 1.25786162e-003, 0., 0., 0., 2.51572323e-003,
          5.03144646e-003, 7.54716992e-003, 0., 0., 2.51572323e-003, 0.,
          2.51572323e-003, 1.25786162e-003, 3.77358496e-003,
          5.03144646e-003, 0., 0., 1.25786162e-003, 2.51572323e-003,
          2.51572323e-003, 0., 1.25786162e-003, 0., 2.51572323e-003, 0.,
          5.03144646e-003, 0., 1.25786162e-003, 0., 1.00628929e-002, 0.,
          0., 0., 0., 1.25786162e-003, 1.25786162e-003, 0., 0., 0.,
          2.51572323e-003, 2.64150947e-002, 0., 0., 1.25786162e-003, 0.,
          2.51572323e-003, 2.51572323e-003, 0., 0., 0., 0.,
          1.25786162e-003, 0., 0., 2.76729558e-002, 0., 1.25786162e-003,
          1.25786162e-003, 8.80503096e-003, 3.77358496e-003,
          1.25786162e-003, 0., 0., 3.77358496e-003, 3.77358496e-003, 0.,
          0., 1.25786162e-003, 0., 1.00628929e-002, 1.25786162e-003, 0.,
          2.38993708e-002, 0., 0., 1.25786162e-003, 0., 0.,
          3.77358496e-003, 0., 0., 0., 1.00628929e-002, 3.77358496e-003,
          0., 0., 3.77358496e-003, 0., 0., 0., 2.51572323e-003, 0., 0.,
          0., 2.51572323e-003, 1.25786162e-003, 0., 1.25786162e-003, 0.,
          0., 0., 1.25786162e-003, 0., 0., 0., 8.80503096e-003, 0., 0.,
          0., 2.51572323e-003, 1.25786162e-003, 6.28930796e-003,
          1.25786162e-003, 1.25786159e-002, 0., 0., 0., 0., 0., 0.,
          2.51572323e-003, 0., 0., 0., 0., 0., 2.26415098e-002,
          1.25786162e-003, 0., 2.51572323e-003, 1.25786162e-003,
          1.25786162e-003, 0., 1.25786162e-003, 0., 0., 6.28930796e-003,
          1.25786162e-003, 0., 1.25786162e-003, 1.25786162e-003, 0., 0.,
          0., 2.51572323e-003, 3.77358496e-003, 0., 1.25786162e-003,
          1.25786162e-003, 0., 0., 0., 1.25786162e-003, 0.,
          1.13207549e-002, 3.77358496e-003, 2.51572323e-003, 0., 0., 0.,
          0., 0., 0., 1.25786162e-003, 0., 2.51572323e-003, 0.,
          1.25786162e-003, 0., 0., 1.25786162e-003, 0., 0.,
          2.51572323e-003, 0., 1.25786162e-003, 0., 0., 2.51572323e-003,
          0., 0., 0., 7.54716992e-003, 1.25786162e-003, 1.25786162e-003,
          0., 0., 2.51572323e-003, 0., 2.51572323e-003, 0., 0.,
          1.25786162e-003, 0., 0., 2.51572323e-003, 0., 0.,
          1.25786162e-003, 3.77358496e-003, 3.77358496e-003,
          1.25786162e-003, 0., 3.77358496e-003, 2.51572323e-003, 0., 0.,
          6.28930796e-003, 0., 0., 5.03144646e-003, 0., 0., 0.,
          8.80503096e-003, 0., 3.77358496e-003, 1.25786162e-003,
          1.25786162e-003, 1.25786162e-003, 1.25786162e-003,
          1.25786162e-003, 0., 2.13836469e-002, 0., 1.25786162e-003,
          1.25786162e-003, 2.51572323e-003, 2.51572323e-003,
          1.25786162e-003, 1.25786162e-003, 0., 0., 1.25786162e-003, 0.,
          0., 0., 1.25786162e-003, 0., 0., 0., 0., 1.25786162e-003,
          1.25786162e-003, 7.54716992e-003, 0., 0., 1.25786162e-003,
          2.51572323e-003, 0., 0., 0., 0., 2.51572323e-003, 0.,
          1.25786162e-003, 6.28930796e-003, 2.51572323e-003, 0., 0.,
          1.25786162e-003, 0., 1.25786162e-003, 0., 0., 0., 0., 0.,
          1.00628929e-002, 0., 1.25786162e-003, 0., 1.25786162e-003, 0.,
          0., 8.80503096e-003, 0., 3.77358496e-003, 0., 3.77358496e-003,
          1.25786162e-003, 0., 0., 2.51572323e-003, 2.51572323e-003,
          1.25786162e-003, 1.25786162e-003, 0., 0., 0., 0., 0., 0., 0.,
          0., 2.51572323e-003, 1.38364779e-002, 0., 0., 1.25786162e-003,
          0., 0., 0., 0., 0., 0., 0., 0., 2.51572323e-003, 0.,
          3.77358496e-003, 0., 0., 0., 0., 0., 0., 0., 0.,
          3.77358496e-003, 1.25786162e-003, 0., 2.89308168e-002, 0.,
          1.25786162e-003, 1.25786162e-003, 0., 0., 0., 0., 0.,
          1.25786162e-003, 8.80503096e-003, 2.51572323e-003, 0.,
          1.25786162e-003, 2.51572323e-003, 0., 0., 0., 0., 0., 0., 0.,
          2.51572323e-003, 0., 1.25786162e-003, 0., 1.25786162e-003,
          1.25786162e-003, 1.25786162e-003, 0., 2.51572323e-003,
          2.51572323e-003, 1.38364779e-002, 0., 1.25786162e-003,
          1.25786162e-003, 0., 0., 0., 0., 0., 3.77358496e-003, 0., 0.,
          0., 0., 1.25786162e-003, 0., 0., 0., 0., 0., 0., 0.,
          7.54716992e-003, 0., 0., 0., 0., 0., 0., 1.25786162e-003, 0.,
          1.25786162e-003, 2.51572323e-003, 0., 1.25786162e-003, 0., 0.,
          0., 0., 0., 5.03144646e-003, 0., 1.63522009e-002,
          1.25786162e-003, 0., 0., 6.28930796e-003, 0., 1.25786162e-003,
          1.25786162e-003, 0., 1.25786162e-003, 1.25786162e-003,
          1.25786162e-003, 0., 5.03144646e-003, 0., 1.25786162e-003, 0.,
          0., 0., 0., 2.51572323e-003, 0., 0., 1.25786162e-003,
          1.25786162e-003, 0., 1.25786162e-003, 2.51572318e-002,
          7.54716992e-003, 0., 1.25786162e-003, 0., 0., 0.,
          2.51572323e-003, 5.03144646e-003, 0., 3.77358496e-003, 0., 0.,
          0., 2.51572323e-003, 0., 1.25786162e-003, 0., 0. ]
      - [ 0., 0., 0., 0., 0., 0., 0., 0., 0., 0., 0., 0., 0., 0., 0., 0.,
          0., 0., 0., 6.02094233e-002, 2.35602092e-002, 0., 0., 0., 0.,
          0., 0., 0., 0., 9.16230399e-003, 0., 9.16230399e-003, 0., 0.,
          0., 0., 0., 4.05759178e-002, 0., 0., 0., 0., 1.30890049e-002,
          0., 0., 0., 0., 0., 0., 4.31937166e-002, 5.23560215e-003, 0.,
          1.83246080e-002, 0., 0., 0., 0., 0., 0., 0., 0., 0., 0., 0.,
          0., 0., 0., 0., 0., 0., 0., 0., 0., 0., 0., 0., 0., 0., 0., 0.,
          0., 0., 0., 8.24607313e-002, 0., 0., 0., 0., 0., 0., 0., 0.,
          0., 0., 0., 0., 0., 0., 0., 0., 0., 0., 0., 0., 0., 0., 0., 0.,
          3.53403129e-002, 0., 0., 0., 0., 0., 0., 0., 0., 0., 0., 0.,
          0., 0., 0., 0., 0., 0., 0., 0., 3.53403129e-002, 0., 0.,
          1.30890049e-002, 0., 0., 0., 0., 0., 0., 0., 0., 0., 0., 0.,
          0., 0., 0., 0., 0., 0., 0., 0., 0., 0., 0., 0., 0., 0., 0., 0.,
          0., 0., 0., 0., 0., 0., 0., 0., 0., 0., 0., 0., 0., 0., 0., 0.,
          0., 0., 0., 1.30890054e-003, 0., 0., 0., 0., 0., 0., 0., 0.,
          0., 0., 0., 0., 0., 0., 0., 0., 0., 0., 0., 0., 0., 0., 0.,
          2.22513098e-002, 0., 0., 0., 0., 0., 0., 0., 0., 0., 0., 0.,
          0., 0., 0., 0., 0., 0., 0., 0., 0., 0., 0., 0., 0., 0., 0., 0.,
          0., 0., 0., 0., 0., 0., 0., 0., 0., 0., 0., 0., 0., 0., 0., 0.,
          0., 0., 0., 0., 0., 0., 0., 0., 0., 0., 0., 0., 0., 0., 0., 0.,
          0., 0., 0., 0., 0., 0., 0., 0., 0., 0., 0., 0., 0., 0., 0.,
          5.23560215e-003, 0., 0., 0., 0., 1.96335074e-002, 0., 0., 0.,
          0., 0., 0., 0., 0., 0., 0., 8.90052393e-002, 0., 0., 0., 0.,
          0., 0., 0., 6.54450245e-003, 0., 0., 0., 0., 0., 0., 0.,
          6.67539239e-002, 0., 0., 0., 0., 0., 0., 2.22513098e-002, 0.,
          0., 2.48691104e-002, 0., 0., 0., 0., 0., 0., 0., 0., 0., 0.,
          0., 0., 0., 0., 0., 0., 0., 0., 0., 0., 0., 0., 0.,
          2.09424086e-002, 0., 0., 0., 0., 0., 0., 0., 0., 0., 0.,
          2.61780098e-002, 8.11518356e-002, 0., 0., 0., 0., 0., 0., 0.,
          0., 0., 0., 0., 0., 0., 0., 4.97382209e-002, 0., 0., 0., 0.,
          0., 0., 0., 0., 0., 0., 0., 0., 0., 0., 0., 0., 0., 0., 0., 0.,
          0., 0., 0., 0., 0., 0., 0., 0., 0., 0., 0., 0., 0., 0., 0., 0.,
          0., 0., 0., 0., 0., 0., 0., 0., 0., 0., 0., 0., 0., 0.,
          2.22513098e-002, 0., 0., 0., 0., 0., 0., 0., 0., 0., 0.,
          1.04712043e-002, 0., 0., 0., 0., 0., 0., 0., 0., 0., 0., 0.,
          0., 0., 0., 0., 0., 0., 0., 0., 0., 0., 0., 0.,
          4.31937166e-002, 0., 5.23560215e-003, 0., 0., 0., 0., 0., 0.,
          0., 0., 0., 0., 0., 0., 0., 0., 7.85340369e-003, 0., 0., 0.,
          0., 0., 0., 0., 0., 0., 0., 0., 0., 0., 0., 0., 0., 0., 0.,
          1.43979061e-002, 0., 0., 0., 0., 4.97382209e-002, 0., 0., 0.,
          0., 0., 0., 0., 0., 0., 0., 0., 0., 0., 0., 0., 0., 0., 0., 0.,
          0., 0., 0., 0., 0., 0., 0., 0., 0., 0., 0., 0., 0., 0., 0., 0.,
          0., 0., 0., 0., 0., 0., 0., 0., 0., 0., 0., 0., 0., 0., 0., 0.,
          0., 0., 0., 0., 0., 0., 0., 1.04712043e-002, 0., 0., 0., 0.,
          0., 0., 0., 0., 0., 0., 0., 0., 0., 3.92670184e-003, 0., 0.,
          0., 0., 1.30890054e-003, 0., 0., 0., 0., 0., 0., 0., 0., 0.,
          0., 0., 6.54450245e-003, 0., 0., 0., 0., 0., 0., 0., 0., 0.,
          0., 0., 0. ]
      - [ 0., 1.45348837e-003, 3.63372080e-003, 0., 7.26744183e-004,
          3.63372080e-003, 3.63372080e-003, 5.08720940e-003,
          1.45348837e-003, 0., 2.18023267e-003, 2.90697673e-003,
          1.45348837e-003, 2.18023267e-003, 5.81395347e-003,
          2.18023267e-003, 7.26744183e-004, 0., 7.26744183e-004,
          7.26744183e-004, 7.26744183e-004, 0., 5.81395347e-003,
          2.18023267e-003, 7.26744183e-004, 7.26744183e-004, 0.,
          5.81395347e-003, 7.26744183e-004, 0., 2.18023267e-003,
          1.45348837e-003, 0., 7.26744183e-004, 7.26744183e-004, 0., 0.,
          0., 7.26744183e-004, 7.26744183e-004, 1.45348837e-003, 0.,
          7.26744183e-004, 0., 7.26744183e-004, 2.18023267e-003, 0., 0.,
          1.45348837e-003, 0., 7.26744183e-004, 5.81395347e-003,
          7.26744183e-004, 7.26744183e-004, 5.81395347e-003,
          1.45348837e-003, 4.36046533e-003, 7.26744183e-004,
          1.59883723e-002, 0., 2.18023267e-003, 2.90697673e-003,
          2.90697673e-003, 6.54069753e-003, 4.36046533e-003,
          2.90697673e-003, 2.90697673e-003, 1.45348837e-003, 0., 0.,
          2.18023267e-003, 0., 2.18023267e-003, 5.81395347e-003,
          5.08720940e-003, 7.26744183e-004, 1.45348837e-003,
          2.18023267e-003, 7.26744183e-004, 0., 1.45348837e-003,
          2.18023267e-003, 2.18023267e-003, 7.26744183e-004, 0.,
          1.45348837e-003, 7.26744183e-004, 7.26744183e-004, 0.,
          1.45348837e-003, 0., 2.18023267e-003, 0., 0., 7.26744183e-004,
          2.90697673e-003, 0., 7.26744183e-004, 0., 2.18023267e-003, 0.,
          7.26744183e-004, 2.90697673e-003, 0., 0., 0., 7.26744183e-004,
          7.26744160e-003, 4.36046533e-003, 0., 2.90697673e-003,
          7.26744183e-004, 0., 1.45348837e-003, 7.26744183e-004,
          7.26744183e-004, 7.26744183e-004, 9.44767427e-003,
          7.26744183e-004, 2.18023267e-003, 4.36046533e-003, 0.,
          7.26744183e-004, 1.45348837e-003, 0., 3.63372080e-003,
          4.36046533e-003, 0., 7.26744183e-004, 0., 0., 7.26744183e-004,
          7.26744183e-004, 3.63372080e-003, 7.26744183e-004,
          2.18023267e-003, 1.45348837e-003, 1.45348837e-003,
          7.26744183e-004, 5.08720940e-003, 1.45348837e-003,
          1.45348837e-003, 2.90697673e-003, 5.81395347e-003,
          1.45348837e-003, 7.26744183e-004, 0., 7.26744183e-004,
          2.90697673e-003, 0., 0., 3.63372080e-003, 1.45348837e-003,
          1.09011624e-002, 0., 7.99418613e-003, 5.08720940e-003, 0.,
          7.26744183e-004, 0., 3.63372080e-003, 5.81395347e-003,
          2.90697673e-003, 0., 0., 1.45348837e-003, 0., 0., 0., 0.,
          1.45348837e-003, 4.36046533e-003, 0., 1.45348837e-003,
          1.45348837e-003, 6.54069753e-003, 1.45348837e-003,
          2.18023267e-003, 0., 1.45348837e-003, 1.45348837e-003,
          7.26744183e-004, 7.26744183e-004, 1.45348837e-003,
          7.26744183e-004, 7.26744183e-004, 7.26744183e-004,
          7.26744183e-004, 4.36046533e-003, 7.26744183e-004,
          3.63372080e-003, 7.26744183e-004, 2.90697673e-003,
          3.63372080e-003, 0., 7.26744183e-004, 2.18023267e-003, 0., 0.,
          0., 7.26744183e-004, 0., 0., 1.45348837e-003, 1.45348837e-003,
          4.36046533e-003, 7.26744160e-003, 4.36046533e-003,
          2.90697673e-003, 0., 2.90697673e-003, 0., 0., 7.26744183e-004,
          1.45348837e-003, 1.45348837e-003, 1.09011624e-002,
          7.26744183e-004, 0., 2.18023267e-003, 7.26744183e-004,
          5.08720940e-003, 0., 0., 7.26744183e-004, 7.26744183e-004,
          2.18023267e-003, 5.08720940e-003, 1.45348837e-003, 0., 0., 0.,
          5.81395347e-003, 5.81395347e-003, 7.26744183e-004,
          2.18023267e-003, 7.26744183e-004, 0., 1.45348837e-003,
          2.18023267e-003, 0., 9.44767427e-003, 0., 5.08720940e-003, 0.,
          7.26744183e-004, 7.26744183e-004, 7.26744183e-004, 0.,
          1.45348837e-003, 4.36046533e-003, 7.26744183e-004,
          1.45348837e-003, 1.45348837e-003, 2.18023267e-003,
          7.26744183e-004, 0., 7.26744183e-004, 0., 7.26744183e-004,
          7.26744183e-004, 0., 2.90697673e-003, 0., 1.45348837e-003, 0.,
          1.45348837e-003, 4.36046533e-003, 0., 7.26744183e-004, 0., 0.,
          0., 0., 1.45348837e-003, 2.18023267e-003, 7.26744183e-004, 0.,
          2.18023267e-003, 2.18023267e-003, 7.26744183e-004,
          7.26744183e-004, 0., 7.26744183e-004, 0., 0., 2.18023267e-003,
          1.45348837e-003, 7.26744183e-004, 1.45348837e-003,
          2.18023267e-003, 1.45348837e-003, 7.26744183e-004, 0., 0., 0.,
          1.45348837e-003, 2.18023267e-003, 3.63372080e-003, 0., 0., 0.,
          2.18023267e-003, 7.26744183e-004, 7.26744183e-004,
          2.18023267e-003, 7.26744183e-004, 0., 2.18023267e-003, 0.,
          4.36046533e-003, 7.26744183e-004, 0., 1.45348837e-003,
          2.18023267e-003, 0., 0., 7.26744183e-004, 1.45348837e-003,
          7.26744183e-004, 1.45348837e-003, 0., 4.36046533e-003,
          1.45348837e-003, 3.63372080e-003, 7.26744183e-004, 0.,
          1.45348837e-003, 2.18023267e-003, 7.26744183e-004,
          7.26744183e-004, 2.18023267e-003, 0., 1.45348837e-003,
          3.63372080e-003, 7.26744183e-004, 5.08720940e-003,
          7.26744160e-003, 7.26744183e-004, 0., 7.26744183e-004,
          3.63372080e-003, 7.26744160e-003, 1.45348837e-003,
          7.26744183e-004, 7.26744160e-003, 7.26744183e-004, 0., 0.,
          7.26744183e-004, 1.45348837e-003, 7.99418613e-003,
          6.54069753e-003, 0., 2.18023267e-003, 2.18023267e-003,
          1.09011624e-002, 0., 7.26744183e-004, 0., 5.08720940e-003,
          2.18023267e-003, 0., 1.45348837e-003, 7.26744183e-004,
          1.52616277e-002, 0., 0., 1.09011624e-002, 7.26744183e-004,
          7.26744183e-004, 6.54069753e-003, 0., 3.63372080e-003,
          5.81395347e-003, 1.45348837e-003, 0., 0., 4.36046533e-003, 0.,
          5.08720940e-003, 2.18023267e-003, 7.26744183e-004,
          6.54069753e-003, 0., 0., 5.08720940e-003, 2.18023267e-003,
          4.36046533e-003, 7.26744183e-004, 7.26744183e-004,
          2.18023267e-003, 2.18023267e-003, 7.26744183e-004,
          1.45348837e-003, 0., 7.26744183e-004, 0., 1.45348837e-003,
          7.26744183e-004, 7.26744183e-004, 7.26744183e-004,
          2.18023267e-003, 5.08720940e-003, 3.63372080e-003,
          1.45348837e-003, 2.90697673e-003, 2.18023267e-003,
          1.45348837e-003, 0., 1.45348837e-003, 2.18023267e-003,
          7.26744183e-004, 1.45348837e-003, 7.26744183e-004,
          1.45348837e-003, 7.26744183e-004, 7.26744160e-003,
          7.26744183e-004, 0., 0., 0., 8.72093067e-003, 1.45348837e-003,
          1.45348837e-003, 0., 0., 7.26744183e-004, 7.26744183e-004, 0.,
          7.26744183e-004, 4.36046533e-003, 7.26744183e-004, 0., 0.,
          1.45348837e-003, 0., 7.26744183e-004, 7.26744183e-004, 0.,
          1.45348837e-003, 0., 5.08720940e-003, 7.26744183e-004, 0., 0.,
          1.45348837e-003, 7.26744183e-004, 0., 0., 2.18023267e-003,
          2.90697673e-003, 0., 5.08720940e-003, 0., 7.26744183e-004,
          7.26744183e-004, 1.45348837e-003, 0., 0., 1.45348837e-003, 0.,
          5.08720940e-003, 8.72093067e-003, 1.45348837e-003, 0.,
          2.18023267e-003, 7.26744183e-004, 5.08720940e-003, 0., 0.,
          1.45348837e-003, 0., 0., 5.08720940e-003, 0., 0.,
          5.81395347e-003, 5.81395347e-003, 7.26744183e-004, 0., 0.,
          7.26744183e-004, 4.36046533e-003, 1.45348837e-003,
          4.36046533e-003, 7.26744183e-004, 1.45348837e-003,
          1.45348837e-003, 2.90697673e-003, 2.90697673e-003,
          1.45348837e-003, 0., 7.26744183e-004, 7.26744183e-004, 0.,
          7.26744183e-004, 0., 1.45348837e-003, 7.26744183e-004,
          7.26744183e-004, 7.26744183e-004, 7.26744183e-004,
          7.26744183e-004, 2.90697673e-003, 3.63372080e-003,
          1.45348837e-003, 1.45348837e-003, 2.18023267e-003,
          2.90697673e-003, 2.18023267e-003, 0., 1.45348837e-003, 0.,
          7.26744183e-004, 1.45348837e-003, 1.45348837e-003,
          7.26744183e-004, 2.18023267e-003, 5.08720940e-003,
          7.26744183e-004, 7.26744183e-004, 2.18023267e-003, 0., 0.,
          3.63372080e-003, 0., 2.90697673e-003, 7.26744183e-004,
          2.18023267e-003, 0., 0., 2.18023267e-003, 7.26744183e-004, 0.,
          2.18023267e-003, 2.18023267e-003, 7.26744183e-004, 0., 0.,
          1.45348837e-003, 7.26744183e-004, 2.18023267e-003, 0.,
          2.18023267e-003, 0., 2.90697673e-003, 2.18023267e-003,
          2.90697673e-003, 0., 0., 7.26744183e-004, 1.45348837e-003, 0.,
          7.26744183e-004, 5.81395347e-003, 0., 0., 4.36046533e-003,
          3.63372080e-003, 7.26744183e-004, 0., 5.08720940e-003,
          7.26744183e-004, 3.63372080e-003, 0., 1.45348837e-003, 0.,
          7.26744183e-004, 2.18023267e-003, 0., 0., 7.26744183e-004,
          1.45348837e-003, 1.45348837e-003, 2.18023267e-003,
          7.26744183e-004, 2.18023267e-003, 7.26744183e-004, 0.,
          1.30813951e-002, 2.18023267e-003, 0., 2.18023267e-003,
          2.90697673e-003, 7.26744183e-004, 0., 0., 7.26744183e-004, 0.,
          0., 2.90697673e-003, 7.26744183e-004, 8.72093067e-003,
          7.26744183e-004, 7.26744183e-004, 0., 7.26744183e-004,
          7.26744183e-004, 0. ]
      - [ 0., 0., 0., 0., 0., 0., 0., 0., 0., 0., 0., 0., 0., 0., 0.,
          7.29927002e-003, 2.18978096e-002, 0., 2.91970801e-002, 0., 0.,
          0., 0., 0., 0., 0., 0., 0., 0., 0., 0., 0., 0., 0., 0., 0., 0.,
          0., 0., 0., 0., 0., 0., 0., 0., 7.29926974e-002, 0., 0., 0.,
          0., 0., 0., 0., 7.29927002e-003, 0., 0., 0., 0., 0., 0., 0.,
          0., 0., 0., 0., 0., 0., 0., 0., 0., 0., 0., 7.29927002e-003,
          0., 0., 1.45985400e-002, 0., 0., 0., 3.64963487e-002, 0., 0.,
          0., 0., 0., 0., 0., 0., 0., 0., 0., 0., 0., 0.,
          7.29927002e-003, 0., 0., 0., 0., 0., 2.91970801e-002,
          3.64963487e-002, 0., 0., 7.29927002e-003, 0., 0., 0., 0.,
          2.18978096e-002, 0., 0., 0., 0., 0., 0., 0., 0., 0., 0.,
          7.29927002e-003, 0., 0., 0., 0., 0., 0., 0., 0., 0., 0., 0.,
          0., 0., 7.29927002e-003, 0., 0., 0., 0., 0., 0., 0., 0., 0.,
          7.29927002e-003, 0., 0., 0., 0., 0., 0., 0., 0., 0., 0., 0.,
          0., 0., 0., 0., 0., 0., 0., 0., 0., 0., 0., 0., 0., 0., 0., 0.,
          0., 0., 0., 0., 0., 2.18978096e-002, 2.91970801e-002, 0., 0.,
          0., 0., 0., 0., 7.29927002e-003, 0., 0., 0., 0., 0., 0., 0.,
          0., 0., 0., 0., 0., 5.10948896e-002, 0., 0., 0., 0., 0., 0.,
          0., 0., 0., 0., 0., 0., 0., 3.64963487e-002, 0., 0., 0., 0.,
          0., 0., 1.45985400e-002, 0., 0., 0., 0., 0., 0.,
          7.29927002e-003, 0., 0., 0., 2.18978096e-002, 0.,
          7.29927002e-003, 0., 0., 0., 0., 0., 0., 0., 2.91970801e-002,
          7.29927002e-003, 0., 0., 0., 0., 0., 0., 0., 0., 0.,
          1.45985400e-002, 0., 0., 0., 0., 0., 0., 7.29927002e-003, 0.,
          0., 0., 0., 2.91970801e-002, 0., 0., 0., 0., 0., 0., 0.,
          1.45985400e-002, 0., 0., 0., 0., 0., 0., 0., 0.,
          1.45985400e-002, 0., 0., 0., 3.64963487e-002, 0., 0., 0., 0.,
          0., 0., 0., 0., 0., 0., 7.29927002e-003, 0., 0., 0., 0., 0.,
          0., 0., 0., 0., 0., 0., 0., 0., 0., 0., 0., 7.29927002e-003,
          0., 0., 0., 0., 0., 0., 0., 0., 0., 0., 7.29927002e-003, 0.,
          0., 0., 0., 0., 0., 0., 0., 0., 0., 0., 0., 0., 0., 0.,
          7.29927002e-003, 7.29927002e-003, 0., 0., 0., 0., 0., 0., 0.,
          0., 0., 0., 0., 0., 0., 0., 0., 0., 0., 0., 0., 0., 0., 0., 0.,
          0., 0., 0., 0., 0., 0., 0., 0., 0., 0., 0., 0., 0., 0., 0., 0.,
          0., 0., 0., 0., 0., 0., 0., 0., 7.29927002e-003, 0., 0., 0.,
          0., 2.18978096e-002, 0., 0., 0., 0., 0., 0., 0., 0.,
          7.29927002e-003, 0., 0., 0., 0., 0., 0., 1.45985400e-002, 0.,
          0., 0., 0., 0., 0., 0., 0., 0., 7.29927002e-003, 0., 0., 0.,
          0., 0., 0., 0., 0., 0., 0., 0., 0., 0., 7.29927002e-003, 0.,
          0., 0., 0., 0., 0., 0., 0., 0., 0., 7.29927002e-003,
          2.91970801e-002, 0., 0., 0., 0., 0., 0., 0., 0.,
          6.56934306e-002, 0., 0., 0., 0., 0., 0., 0., 7.29927002e-003,
          0., 0., 0., 0., 0., 0., 0., 0., 0., 0., 0., 0., 0., 0., 0., 0.,
          0., 7.29927002e-003, 7.29927002e-003, 0., 0., 0., 0., 0., 0.,
          0., 0., 0., 0., 0., 0., 0., 0., 0., 0., 0., 0., 0., 0., 0., 0.,
          0., 0., 0., 0., 0., 0., 0., 0., 7.29927002e-003, 0., 0., 0.,
          0., 0., 0., 0., 0., 0., 0., 2.18978096e-002, 0., 0., 0., 0.,
          0., 0., 0., 0., 0., 0., 1.45985400e-002, 0., 0., 0., 0., 0.,
          0., 0., 0., 0., 0., 0., 0., 0., 0., 0., 7.29927002e-003, 0.,
          0., 0., 1.45985400e-002, 0., 0., 0., 0., 0., 0., 0., 0., 0.,
          0., 0., 0., 0., 0., 0., 0., 0., 0., 0., 0., 0., 0., 0., 0., 0.,
          0., 2.91970801e-002, 0., 0., 0., 0., 0., 0., 7.29927002e-003,
          0., 0., 0., 0., 0., 0., 0., 0., 0., 0., 0. ]
      - [ 7.57002272e-004, 2.27100682e-003, 7.57002272e-004,
          1.51400454e-003, 7.57002272e-004, 1.51400454e-003,
          7.57002272e-004, 2.27100682e-003, 2.27100682e-003,
          6.05601817e-003, 7.57002272e-004, 0., 7.57002272e-004,
          2.27100682e-003, 7.57002272e-004, 1.51400454e-003, 0.,
          2.27100682e-003, 7.57002272e-004, 0., 0., 9.08402726e-003,
          5.29901590e-003, 1.51400454e-003, 1.51400454e-003,
          4.54201363e-003, 3.78501136e-003, 0., 0., 0., 7.57002272e-004,
          0., 0., 7.57002272e-004, 7.57002272e-004, 7.57002272e-004,
          1.51400454e-003, 0., 7.57002272e-004, 1.51400454e-003,
          7.57002272e-004, 3.02800909e-003, 0., 7.57002272e-004,
          2.27100682e-003, 2.27100682e-003, 1.51400454e-003,
          4.54201363e-003, 7.57002272e-004, 0., 7.57002272e-004,
          2.27100682e-003, 0., 2.27100682e-003, 1.51400454e-003,
          2.04390623e-002, 3.02800909e-003, 0., 3.02800909e-003,
          2.27100682e-003, 7.57002272e-004, 1.51400454e-003,
          7.57002272e-004, 2.27100682e-003, 1.51400454e-003,
          3.78501136e-003, 0., 0., 3.02800909e-003, 0., 1.51400454e-003,
          0., 3.78501136e-003, 7.57002272e-004, 0., 7.57002272e-004,
          4.54201363e-003, 1.51400454e-003, 5.29901590e-003, 0.,
          7.57002272e-004, 1.51400454e-003, 2.27100682e-003,
          7.57002272e-004, 7.57002272e-004, 3.02800909e-003,
          7.57002272e-004, 3.78501136e-003, 7.57002272e-004,
          1.51400454e-003, 0., 5.29901590e-003, 1.51400454e-003, 0.,
          1.51400454e-003, 3.02800909e-003, 0., 2.27100682e-003, 0.,
          3.02800909e-003, 0., 7.57002272e-004, 1.51400454e-003,
          5.29901590e-003, 7.57002272e-004, 0., 3.78501136e-003,
          7.57002272e-004, 0., 0., 7.57002272e-004, 1.51400454e-003,
          3.02800909e-003, 0., 7.57002272e-004, 1.51400454e-003, 0.,
          7.57002272e-004, 0., 7.57002272e-004, 1.51400454e-003,
          3.02800909e-003, 3.78501136e-003, 1.51400454e-003,
          7.57002272e-004, 3.02800909e-003, 0., 4.54201363e-003, 0.,
          1.51400454e-003, 2.27100682e-003, 0., 0., 4.54201363e-003,
          3.78501136e-003, 4.54201363e-003, 1.51400454e-003,
          2.27100682e-003, 7.57002272e-004, 4.54201363e-003,
          1.51400454e-003, 7.57002272e-004, 4.54201363e-003,
          1.51400454e-003, 1.51400454e-003, 2.27100682e-003,
          1.51400454e-003, 2.27100682e-003, 2.27100682e-003, 0.,
          3.02800909e-003, 7.57002272e-004, 2.27100682e-003, 0.,
          4.54201363e-003, 2.27100682e-003, 5.29901590e-003,
          2.27100682e-003, 7.57002272e-004, 0., 3.02800909e-003,
          1.51400454e-003, 3.02800909e-003, 1.51400454e-003, 0.,
          3.78501136e-003, 7.57002272e-004, 4.54201363e-003,
          7.57002272e-004, 7.57002272e-004, 3.78501136e-003,
          4.54201363e-003, 1.51400454e-003, 7.57002272e-004, 0.,
          5.29901590e-003, 7.57002272e-004, 3.78501136e-003, 0.,
          4.54201363e-003, 1.51400454e-003, 7.57002272e-004, 0.,
          1.51400454e-003, 2.27100682e-003, 7.57002272e-004,
          2.27100682e-003, 7.57002272e-004, 2.27100682e-003,
          7.57002272e-004, 3.02800909e-003, 3.02800909e-003,
          1.51400454e-003, 7.57002272e-004, 1.51400454e-003,
          7.57002272e-004, 7.57002272e-004, 0., 0., 0., 0., 0.,
          2.27100682e-003, 2.27100682e-003, 7.57002272e-004,
          7.57002272e-004, 0., 3.78501136e-003, 7.57002272e-004, 0.,
          7.57002272e-004, 2.27100682e-003, 0., 1.51400454e-003,
          2.27100682e-003, 1.51400454e-003, 2.27100682e-003,
          3.02800909e-003, 1.51400454e-003, 0., 7.57002272e-004,
          4.54201363e-003, 1.51400454e-003, 0., 1.51400454e-003,
          1.51400454e-003, 5.29901590e-003, 0., 2.27100682e-003,
          1.51400454e-003, 0., 0., 7.57002272e-004, 7.57002272e-004,
          7.57002272e-004, 7.57002272e-004, 7.57002272e-004,
          7.57002272e-004, 7.57002272e-004, 2.27100682e-003,
          1.51400454e-003, 0., 2.27100682e-003, 7.57002272e-004,
          1.51400454e-003, 7.57002272e-004, 1.51400454e-003,
          2.27100682e-003, 1.51400454e-003, 3.02800909e-003,
          5.29901590e-003, 1.51400454e-003, 3.78501136e-003,
          3.78501136e-003, 1.51400454e-003, 1.51400454e-003,
          7.57002272e-004, 0., 7.57002272e-004, 2.27100682e-003,
          1.51400454e-003, 3.78501136e-003, 2.27100682e-003, 0.,
          7.57002272e-004, 7.57002272e-004, 1.51400454e-003,
          5.29901590e-003, 7.57002272e-004, 2.27100682e-003,
          2.27100682e-003, 0., 6.05601817e-003, 0., 7.57002272e-004,
          1.51400454e-003, 1.51400454e-003, 0., 1.51400454e-003,
          7.57002272e-004, 1.51400454e-003, 4.54201363e-003, 0.,
          7.57002272e-004, 1.51400454e-003, 7.57002272e-004,
          3.02800909e-003, 2.27100682e-003, 1.51400454e-003,
          7.57002272e-004, 0., 0., 3.02800909e-003, 0., 2.27100682e-003,
          7.57002272e-004, 1.51400454e-003, 1.51400454e-003,
          5.29901590e-003, 1.51400454e-003, 1.51400454e-003,
          1.51400454e-003, 2.27100682e-003, 0., 2.27100682e-003, 0., 0.,
          0., 1.51400454e-003, 0., 2.27100682e-003, 1.51400454e-003, 0.,
          7.57002272e-004, 3.78501136e-003, 0., 0., 3.78501136e-003,
          1.05980318e-002, 7.57002272e-004, 1.51400454e-003,
          3.02800909e-003, 7.57002272e-004, 0., 2.27100682e-003,
          3.02800909e-003, 4.54201363e-003, 7.57002272e-004,
          7.57002272e-004, 4.54201363e-003, 2.27100682e-003,
          1.51400454e-003, 7.57002272e-004, 7.57002272e-004,
          6.81302045e-003, 1.51400454e-003, 0., 0., 2.27100682e-003,
          1.51400454e-003, 2.27100682e-003, 0., 8.32702499e-003, 0.,
          1.51400454e-003, 2.27100682e-003, 1.51400454e-003,
          3.78501136e-003, 0., 7.57002272e-004, 1.51400454e-003,
          2.27100682e-003, 7.57002272e-004, 0., 0., 0., 6.81302045e-003,
          1.51400454e-003, 3.02800909e-003, 7.57002272e-004,
          1.51400454e-003, 0., 3.78501136e-003, 0., 3.02800909e-003, 0.,
          0., 7.57002272e-004, 0., 0., 0., 1.51400454e-003,
          1.51400454e-003, 5.29901590e-003, 3.78501136e-003,
          3.02800909e-003, 2.27100682e-003, 3.02800909e-003,
          4.54201363e-003, 7.57002272e-004, 0., 0., 0., 2.27100682e-003,
          7.57002272e-004, 1.51400454e-003, 3.78501136e-003,
          5.29901590e-003, 1.51400454e-003, 1.51400454e-003, 0.,
          7.57002272e-004, 0., 2.27100682e-003, 0., 0., 1.51400454e-003,
          2.27100682e-003, 3.02800909e-003, 7.57002272e-004,
          7.57002272e-004, 3.02800909e-003, 0., 7.57002272e-004, 0.,
          4.54201363e-003, 3.02800909e-003, 5.29901590e-003, 0., 0.,
          2.27100682e-003, 1.51400454e-003, 3.78501136e-003,
          1.51400454e-003, 0., 1.51400454e-003, 7.57002272e-004,
          1.51400454e-003, 0., 3.02800909e-003, 9.84102953e-003, 0., 0.,
          1.51400454e-003, 2.27100682e-003, 3.02800909e-003, 0.,
          1.51400454e-003, 1.51400454e-003, 7.57002272e-004,
          7.57002272e-004, 3.02800909e-003, 7.57002272e-004,
          7.57002272e-004, 3.02800909e-003, 1.51400454e-003,
          7.57002272e-004, 0., 0., 4.54201363e-003, 7.57002272e-004, 0.,
          0., 0., 7.57002272e-004, 0., 7.57002272e-004, 2.27100682e-003,
          0., 7.57002272e-004, 7.57002272e-004, 2.27100682e-003,
          7.57002272e-004, 3.02800909e-003, 0., 4.54201363e-003,
          7.57002272e-004, 2.27100682e-003, 7.57002272e-004,
          7.57002272e-004, 7.57002272e-004, 1.51400454e-003,
          1.51400454e-003, 7.57002272e-004, 4.54201363e-003, 0.,
          7.57002272e-004, 3.02800909e-003, 0., 7.57002272e-004,
          7.57002272e-004, 7.57002272e-004, 7.57002272e-004,
          7.57002272e-004, 1.51400454e-003, 7.57002272e-004,
          1.51400454e-003, 4.54201363e-003, 3.78501136e-003,
          3.78501136e-003, 2.27100682e-003, 1.51400454e-003,
          1.51400454e-003, 3.02800909e-003, 7.57002272e-004,
          7.57002272e-004, 7.57002272e-004, 7.57002272e-004,
          7.57002272e-004, 0., 7.57002272e-004, 4.54201363e-003, 0.,
          1.51400454e-003, 7.57002272e-004, 1.51400454e-003,
          7.57002272e-004, 0., 1.51400454e-003, 6.05601817e-003,
          1.51400454e-003, 2.27100682e-003, 3.78501136e-003, 0.,
          1.51400454e-003, 7.57002272e-004, 3.78501136e-003,
          1.51400454e-003, 3.02800909e-003, 3.02800909e-003, 0., 0.,
          7.57002272e-004, 2.27100682e-003, 4.54201363e-003, 0.,
          1.05980318e-002, 7.57002272e-004, 1.51400454e-003,
          3.02800909e-003, 2.27100682e-003, 2.27100682e-003,
          2.27100682e-003, 0., 1.51400454e-003, 0., 7.57002272e-004,
          1.51400454e-003, 1.51400454e-003, 5.29901590e-003,
          3.02800909e-003, 2.27100682e-003, 0., 2.27100682e-003, 0.,
          3.02800909e-003, 7.57002272e-004, 2.27100682e-003,
          7.57002272e-004, 7.57002272e-004, 2.27100682e-003,
          1.51400454e-003, 2.27100682e-003, 2.27100682e-003,
          7.57002272e-004, 7.57002272e-004, 1.05980318e-002,
          2.27100682e-003, 1.51400454e-003, 0., 7.57002272e-004,
          1.51400454e-003, 0., 7.57002272e-004, 0., 2.27100682e-003, 0.,
          0., 1.51400454e-003, 2.27100682e-003, 2.27100682e-003,
          3.02800909e-003, 1.51400454e-003, 1.51400454e-003,
          7.57002272e-004, 2.27100682e-003, 0., 1.51400454e-003,
          1.51400454e-003, 7.57002272e-004, 7.57002272e-004,
          1.51400454e-003, 3.02800909e-003, 1.51400454e-003,
          3.78501136e-003, 2.27100682e-003, 1.51400454e-003,
          7.57002272e-004, 2.27100682e-003, 7.57002272e-004,
          1.51400454e-003, 0., 7.57002272e-004, 0., 2.27100682e-003, 0.,
          3.02800909e-003, 0., 3.78501136e-003, 3.02800909e-003, 0.,
          1.51400454e-003, 7.57002272e-004, 2.27100682e-003, 0.,
          3.78501136e-003, 1.51400454e-003, 1.51400454e-003,
          1.51400454e-003, 1.51400454e-003 ]
      - [ 3.63856880e-003, 6.06428133e-004, 0., 6.06428133e-004,
          6.06428133e-004, 0., 1.81928440e-003, 1.81928440e-003, 0.,
          6.06428133e-004, 0., 0., 6.06428133e-004, 6.06428133e-004,
          3.03214067e-003, 0., 1.09157059e-002, 0., 7.27713760e-003, 0.,
          0., 3.63856880e-003, 0., 1.81928440e-003, 1.21285627e-003,
          2.42571253e-003, 4.24499717e-003, 0., 6.06428133e-004, 0.,
          6.06428133e-004, 0., 1.21285627e-003, 0., 1.21285627e-003,
          1.21285627e-003, 0., 0., 0., 6.06428133e-004, 6.06428133e-004,
          1.63735598e-002, 0., 0., 2.42571253e-003, 3.63856880e-003,
          1.81928440e-003, 6.06428133e-004, 3.03214067e-003, 0., 0.,
          1.21285627e-003, 0., 4.24499717e-003, 0., 0., 6.06428133e-004,
          3.63856880e-003, 0., 1.81928440e-003, 4.85142507e-003,
          2.42571253e-003, 6.06428133e-004, 0., 0., 6.06428133e-004,
          1.21285627e-003, 6.06428133e-004, 6.06428133e-004,
          6.06428133e-004, 0., 0., 4.24499717e-003, 7.27713760e-003,
          1.81928440e-003, 2.42571253e-003, 0., 3.63856880e-003,
          1.21285627e-003, 8.48999433e-003, 6.06428133e-003, 0.,
          6.06428133e-004, 0., 1.81928440e-003, 3.03214067e-003,
          6.06428133e-004, 2.42571253e-003, 1.81928440e-003,
          3.63856880e-003, 0., 7.88356550e-003, 6.06428133e-004,
          1.81928440e-003, 1.21285627e-003, 2.42571253e-003,
          1.21285627e-003, 0., 6.06428133e-004, 1.21285627e-003,
          2.97149792e-002, 6.06428133e-003, 1.81928440e-003,
          6.06428133e-004, 9.70285013e-003, 1.21285627e-003, 0., 0., 0.,
          1.21285627e-003, 6.06428133e-004, 0., 3.63856880e-003,
          1.21285627e-003, 0., 1.21285627e-003, 6.06428133e-004,
          1.81928440e-003, 0., 0., 0., 0., 4.85142507e-003, 0.,
          6.06428133e-004, 6.06428133e-004, 1.81928440e-003,
          6.06428133e-004, 0., 0., 1.21285627e-003, 0., 0.,
          1.21285627e-003, 0., 6.06428133e-004, 0., 6.06428133e-004,
          6.06428133e-004, 1.21285627e-003, 1.81928440e-003,
          1.21285627e-003, 3.03214067e-003, 3.03214067e-003,
          3.63856880e-003, 2.42571253e-003, 1.21285627e-003, 0.,
          1.21285627e-003, 4.24499717e-003, 0., 6.06428133e-004,
          2.42571253e-003, 0., 0., 6.06428133e-004, 1.21285627e-003,
          3.03214067e-003, 1.81928440e-003, 6.06428133e-004,
          2.42571253e-003, 6.06428133e-004, 0., 2.42571253e-003,
          4.24499717e-003, 3.63856880e-003, 6.67070970e-003, 0.,
          1.21285627e-003, 6.06428133e-004, 6.06428133e-004, 0.,
          1.81928440e-003, 6.06428133e-004, 0., 6.06428133e-004, 0.,
          7.88356550e-003, 1.21285627e-003, 7.27713760e-003, 0.,
          6.67070970e-003, 0., 1.09157059e-002, 6.06428133e-004,
          6.67070970e-003, 6.06428133e-004, 5.45785297e-003,
          3.03214067e-003, 0., 1.81928440e-003, 6.06428133e-004, 0.,
          4.85142507e-003, 2.42571253e-003, 3.03214067e-003, 0.,
          6.06428133e-004, 6.67070970e-003, 0., 4.85142507e-003,
          4.24499717e-003, 0., 3.63856880e-003, 0., 0., 0.,
          5.45785297e-003, 0., 1.81928440e-003, 6.06428133e-004,
          4.24499717e-003, 2.66828388e-002, 0., 1.21285627e-003, 0., 0.,
          5.45785297e-003, 6.06428133e-004, 6.06428133e-003, 0.,
          6.06428133e-004, 1.81928440e-003, 0., 0., 0., 0., 0., 0.,
          6.06428133e-004, 4.24499717e-003, 0., 1.81928440e-003,
          6.06428133e-004, 1.21285627e-003, 0., 6.06428133e-004,
          6.06428133e-004, 4.24499717e-003, 1.81928440e-003,
          6.67070970e-003, 0., 0., 6.06428133e-004, 1.81928440e-003,
          6.06428133e-004, 1.21285627e-003, 0., 9.70285013e-003,
          1.81928440e-003, 0., 3.63856880e-003, 0., 5.45785297e-003,
          6.06428133e-004, 2.42571253e-003, 1.21285627e-003,
          6.06428133e-004, 6.06428133e-004, 1.21285627e-003,
          3.03214067e-003, 6.06428133e-004, 0., 4.85142507e-003, 0.,
          2.42571253e-003, 0., 0., 1.81928440e-003, 1.81928440e-003,
          1.81928440e-003, 3.03214067e-003, 4.24499717e-003, 0., 0., 0.,
          1.21285627e-003, 0., 0., 6.06428133e-004, 6.06428133e-003,
          6.06428133e-004, 0., 1.81928440e-003, 1.21285627e-002,
          3.03214067e-003, 6.06428133e-004, 1.21285627e-003,
          6.06428133e-004, 2.42571253e-003, 0., 6.06428133e-004, 0., 0.,
          6.06428133e-004, 1.21285627e-003, 1.21285627e-003,
          2.42571253e-003, 0., 2.42571253e-003, 6.06428133e-004, 0.,
          6.06428133e-004, 4.24499717e-003, 5.45785297e-003,
          1.81928440e-003, 0., 4.24499717e-003, 3.03214067e-003, 0.,
          1.21285627e-003, 0., 7.27713760e-003, 0., 0., 1.21285627e-003,
          0., 0., 0., 0., 6.06428133e-004, 4.85142507e-003, 0.,
          2.42571253e-003, 0., 6.06428133e-004, 1.21285627e-003,
          2.42571253e-003, 4.24499717e-003, 1.81928440e-003,
          1.81928440e-003, 2.42571253e-003, 6.06428133e-004,
          1.21285627e-003, 6.06428133e-004, 4.24499717e-003,
          3.63856880e-003, 1.81928440e-003, 0., 4.24499717e-003,
          6.06428133e-003, 6.06428133e-004, 6.06428133e-004, 0.,
          1.21285627e-003, 0., 5.45785297e-003, 0., 0., 1.81928440e-003,
          0., 0., 0., 6.06428133e-004, 0., 0., 0., 3.63856880e-003,
          2.42571253e-003, 6.06428133e-004, 0., 0., 2.42571253e-003,
          3.03214067e-003, 1.81928440e-003, 0., 3.03214067e-003, 0., 0.,
          6.06428133e-004, 0., 6.06428133e-004, 1.21285627e-003, 0.,
          6.06428133e-004, 6.06428133e-004, 2.42571253e-003, 0.,
          3.03214067e-003, 1.81928440e-003, 4.85142507e-003, 0.,
          6.06428133e-004, 6.06428133e-004, 6.06428133e-004,
          6.06428133e-004, 6.06428133e-004, 1.21285627e-003, 0., 0., 0.,
          1.81928440e-003, 6.06428133e-004, 9.09642223e-003,
          6.06428133e-004, 2.42571253e-003, 6.06428133e-004,
          3.63856880e-003, 6.06428133e-004, 3.03214067e-003,
          1.21285627e-003, 8.48999433e-003, 4.85142507e-003, 0.,
          1.21285627e-003, 0., 0., 6.06428133e-004, 0., 1.81928440e-003,
          0., 0., 0., 0., 4.24499717e-003, 1.81928440e-003, 0.,
          6.06428133e-004, 4.85142507e-003, 3.03214067e-003, 0., 0.,
          6.06428133e-004, 6.06428133e-004, 2.42571253e-003,
          1.81928440e-003, 6.06428133e-004, 1.21285627e-003,
          7.88356550e-003, 6.06428133e-004, 2.42571253e-003,
          6.06428133e-004, 0., 1.81928440e-003, 0., 7.88356550e-003,
          1.09157059e-002, 1.81928440e-003, 1.21285627e-003,
          3.03214067e-003, 6.06428133e-004, 6.06428133e-004, 0.,
          1.21285627e-003, 0., 2.42571253e-003, 3.63856880e-003, 0., 0.,
          2.42571253e-003, 0., 0., 1.81928440e-003, 0., 1.33414194e-002,
          1.21285627e-003, 0., 0., 0., 0., 6.06428133e-004,
          6.06428133e-004, 0., 0., 6.06428133e-004, 1.21285627e-003,
          1.81928440e-003, 6.06428133e-004, 0., 6.06428133e-004,
          6.06428133e-004, 0., 2.42571253e-003, 0., 1.21285627e-003,
          3.63856880e-003, 6.06428133e-004, 0., 0., 0., 1.21285627e-003,
          1.81928440e-003, 1.21285627e-003, 1.81928440e-003, 0.,
          1.81928440e-003, 3.63856880e-003, 6.06428133e-004,
          6.06428133e-004, 6.06428133e-004, 0., 3.03214067e-003, 0.,
          6.06428133e-004, 1.81928440e-003, 1.21285627e-003, 0., 0.,
          1.21285627e-003, 6.06428133e-004, 1.21285627e-003,
          1.21285627e-003, 1.21285627e-003, 0., 0., 6.06428133e-004,
          4.24499717e-003, 0., 4.85142507e-003, 0., 0., 5.45785297e-003,
          8.48999433e-003, 1.21285627e-003, 2.42571253e-003,
          3.03214067e-003, 0., 0., 0., 0., 2.42571253e-003, 0.,
          3.03214067e-003, 5.45785297e-003, 0., 6.06428133e-004,
          6.06428133e-004, 0., 1.21285627e-003, 0., 6.06428133e-004,
          6.06428133e-004, 6.06428133e-004, 6.06428133e-004,
          8.48999433e-003, 0., 0., 0., 0., 6.06428133e-004,
          1.81928440e-003, 7.27713760e-003, 6.06428133e-004, 0.,
          1.81928440e-003, 0., 6.06428133e-004, 0., 1.81928440e-003,
          1.81928440e-003, 3.63856880e-003, 0., 2.42571253e-003, 0.,
          6.67070970e-003, 0., 0., 6.06428133e-004, 1.21285627e-003,
          6.06428133e-004, 0., 6.67070970e-003, 0., 0., 0., 0., 0.,
          1.51607031e-002, 0., 3.63856880e-003, 0., 0., 0.,
          6.06428133e-004, 1.21285627e-003, 0., 1.81928440e-003,
          4.24499717e-003, 1.81928440e-003, 0., 0., 9.09642223e-003,
          1.81928440e-003, 0., 0., 6.06428133e-004, 8.48999433e-003, 0.,
          1.21285627e-003, 9.70285013e-003, 1.21285627e-003, 0.,
          1.21285627e-003, 0., 0., 0., 1.21285627e-003, 0., 0.,
          6.06428133e-004 ]
      - [ 2.91970791e-003, 0., 0., 0., 0., 0., 0., 1.45985396e-003,
          1.45985396e-003, 2.91970791e-003, 0., 1.45985396e-003,
          1.45985396e-003, 4.37956210e-003, 2.91970791e-003,
          2.91970791e-003, 0., 4.37956210e-003, 0., 0., 0., 0.,
          8.75912420e-003, 1.45985396e-003, 0., 1.45985396e-003,
          1.45985396e-003, 4.37956210e-003, 1.45985396e-003, 0., 0., 0.,
          0., 0., 4.37956210e-003, 5.83941583e-003, 0., 0., 0.,
          1.45985396e-003, 0., 0., 0., 1.45985396e-003, 1.45985396e-003,
          2.91970791e-003, 0., 2.91970791e-003, 1.45985396e-003, 0., 0.,
          1.45985396e-003, 0., 4.37956210e-003, 4.37956210e-003, 0., 0.,
          1.45985396e-003, 1.45985396e-003, 1.45985396e-003,
          1.45985391e-002, 2.91970791e-003, 0., 2.91970791e-003,
          8.75912420e-003, 2.91970791e-003, 0., 4.37956210e-003, 0., 0.,
          0., 0., 2.91970791e-003, 2.91970791e-003, 4.37956210e-003, 0.,
          5.83941583e-003, 1.45985396e-003, 2.91970791e-003, 0.,
          2.91970791e-003, 1.45985396e-003, 1.45985396e-003, 0.,
          2.91970791e-003, 8.75912420e-003, 2.91970791e-003, 0.,
          2.91970791e-003, 0., 8.75912420e-003, 1.45985396e-003, 0.,
          1.45985396e-003, 1.45985396e-003, 4.37956210e-003, 0., 0., 0.,
          2.91970791e-003, 0., 1.45985396e-003, 0., 2.91970791e-003,
          1.45985396e-003, 1.45985396e-003, 0., 2.91970791e-003, 0., 0.,
          5.83941583e-003, 0., 1.45985396e-003, 0., 0., 0., 0., 0., 0.,
          2.91970791e-003, 1.45985396e-003, 0., 4.37956210e-003,
          1.45985396e-003, 0., 0., 1.45985396e-003, 0., 0.,
          1.45985396e-003, 1.45985396e-003, 0., 0., 1.02189779e-002, 0.,
          2.91970791e-003, 4.37956210e-003, 0., 0., 0., 1.45985396e-003,
          0., 0., 2.91970791e-003, 4.37956210e-003, 5.83941583e-003, 0.,
          1.45985396e-003, 1.45985396e-003, 1.45985396e-003, 0.,
          2.91970791e-003, 0., 0., 0., 0., 1.45985396e-003,
          4.37956210e-003, 1.02189779e-002, 0., 2.91970791e-003,
          2.91970791e-003, 0., 0., 0., 0., 0., 2.91970791e-003, 0.,
          1.45985396e-003, 2.91970791e-003, 2.91970791e-003,
          1.45985396e-003, 4.37956210e-003, 1.45985396e-003,
          1.45985396e-003, 1.45985396e-003, 0., 2.91970791e-003,
          1.45985396e-003, 1.45985396e-003, 0., 4.37956210e-003,
          1.45985396e-003, 0., 0., 2.91970791e-003, 1.45985396e-003, 0.,
          8.75912420e-003, 4.37956210e-003, 2.91970791e-003,
          1.45985396e-003, 4.37956210e-003, 0., 0., 4.37956210e-003, 0.,
          0., 1.45985396e-003, 0., 0., 0., 0., 2.91970791e-003,
          2.91970791e-003, 2.91970791e-003, 4.37956210e-003, 0.,
          1.45985396e-003, 1.45985396e-003, 0., 0., 1.45985396e-003,
          2.91970791e-003, 0., 4.37956210e-003, 2.91970791e-003, 0.,
          1.45985396e-003, 0., 0., 1.45985396e-003, 4.37956210e-003,
          5.83941583e-003, 1.45985396e-003, 1.45985396e-003,
          2.91970791e-003, 4.37956210e-003, 1.45985396e-003,
          2.91970791e-003, 8.75912420e-003, 1.45985396e-003, 0.,
          1.45985396e-003, 0., 2.91970791e-003, 0., 1.45985396e-003,
          1.45985396e-003, 1.45985396e-003, 1.45985396e-003,
          1.45985396e-003, 0., 0., 0., 4.37956210e-003, 1.45985396e-003,
          4.37956210e-003, 0., 4.37956210e-003, 4.37956210e-003,
          1.45985396e-003, 0., 2.91970791e-003, 0., 7.29926955e-003,
          2.91970791e-003, 1.45985396e-003, 0., 0., 2.91970791e-003, 0.,
          1.45985396e-003, 2.91970791e-003, 4.37956210e-003, 0.,
          2.91970791e-003, 2.91970791e-003, 0., 1.45985396e-003, 0., 0.,
          0., 1.45985396e-003, 1.45985396e-003, 2.91970791e-003, 0.,
          2.91970791e-003, 0., 2.91970791e-003, 2.91970791e-003, 0.,
          4.37956210e-003, 5.83941583e-003, 5.83941583e-003,
          1.45985396e-003, 0., 0., 2.91970791e-003, 1.45985396e-003,
          1.45985396e-003, 7.29926955e-003, 0., 0., 2.91970791e-003, 0.,
          2.91970791e-003, 0., 2.91970791e-003, 0., 0., 0., 0., 0.,
          1.45985396e-003, 1.45985396e-003, 2.91970791e-003,
          2.91970791e-003, 0., 1.45985396e-003, 2.91970791e-003,
          2.91970791e-003, 1.45985396e-003, 0., 1.45985396e-003, 0.,
          4.37956210e-003, 0., 0., 1.45985396e-003, 0., 1.45985396e-003,
          2.91970791e-003, 1.45985396e-003, 1.45985396e-003,
          1.45985396e-003, 5.83941583e-003, 1.45985396e-003, 0.,
          1.45985396e-003, 0., 0., 0., 1.45985396e-003, 0.,
          4.37956210e-003, 1.45985396e-003, 1.45985396e-003, 0., 0.,
          4.37956210e-003, 0., 0., 4.37956210e-003, 4.37956210e-003,
          2.91970791e-003, 0., 0., 0., 2.91970791e-003, 0., 0.,
          1.16788317e-002, 0., 0., 0., 0., 0., 0., 0., 0.,
          1.45985396e-003, 0., 2.91970791e-003, 2.91970791e-003,
          4.37956210e-003, 0., 5.83941583e-003, 2.91970791e-003, 0.,
          2.91970791e-003, 1.45985396e-003, 1.45985396e-003,
          1.45985396e-003, 1.45985396e-003, 1.45985396e-003, 0., 0.,
          1.45985396e-003, 1.45985396e-003, 0., 0., 1.45985396e-003,
          4.37956210e-003, 4.37956210e-003, 1.45985396e-003,
          1.45985396e-003, 1.45985396e-003, 0., 0., 0., 2.91970791e-003,
          4.37956210e-003, 2.91970791e-003, 1.45985396e-003,
          1.45985396e-003, 2.91970791e-003, 0., 2.91970791e-003,
          5.83941583e-003, 0., 1.45985396e-003, 0., 0., 0.,
          1.45985396e-003, 5.83941583e-003, 7.29926955e-003, 0.,
          1.45985396e-003, 0., 0., 0., 0., 0., 1.45985396e-003, 0., 0.,
          2.91970791e-003, 2.91970791e-003, 0., 0., 7.29926955e-003,
          1.45985396e-003, 1.45985396e-003, 1.45985396e-003,
          2.91970791e-003, 1.45985396e-003, 0., 1.45985396e-003,
          1.45985396e-003, 0., 1.45985396e-003, 0., 0., 0.,
          5.83941583e-003, 0., 2.91970791e-003, 0., 1.45985396e-003,
          5.83941583e-003, 1.45985396e-003, 0., 0., 0., 0., 0.,
          1.45985396e-003, 1.45985396e-003, 0., 4.37956210e-003,
          4.37956210e-003, 0., 1.45985396e-003, 0., 4.37956210e-003, 0.,
          1.45985396e-003, 0., 0., 0., 0., 1.45985396e-003,
          4.37956210e-003, 4.37956210e-003, 0., 1.45985396e-003,
          4.37956210e-003, 2.91970791e-003, 2.91970791e-003,
          2.91970791e-003, 0., 0., 1.45985396e-003, 1.45985396e-003, 0.,
          2.91970791e-003, 2.91970791e-003, 2.91970791e-003, 0., 0.,
          2.91970791e-003, 1.45985396e-003, 5.83941583e-003, 0.,
          1.45985396e-003, 1.45985396e-003, 1.45985396e-003, 0.,
          1.45985396e-003, 0., 1.45985396e-003, 0., 1.45985396e-003,
          7.29926955e-003, 0., 1.45985396e-003, 1.45985396e-003,
          1.45985396e-003, 8.75912420e-003, 1.45985396e-003,
          1.45985396e-003, 1.45985396e-003, 2.91970791e-003, 0.,
          5.83941583e-003, 1.45985396e-003, 1.45985396e-003, 0., 0.,
          1.45985396e-003, 0., 1.45985396e-003, 4.37956210e-003, 0.,
          1.45985396e-003, 1.45985396e-003, 1.45985396e-003, 0., 0.,
          2.91970791e-003, 1.45985396e-003, 2.91970791e-003,
          1.45985396e-003, 4.37956210e-003, 5.83941583e-003, 0., 0.,
          1.45985396e-003, 0., 1.45985396e-003, 4.37956210e-003,
          1.45985396e-003, 0., 0., 4.37956210e-003, 2.91970791e-003,
          5.83941583e-003, 0., 0., 0., 0., 0., 1.45985396e-003,
          1.45985396e-003, 2.91970791e-003, 1.45985396e-003,
          1.45985396e-003, 1.45985396e-003, 0., 5.83941583e-003,
          1.45985396e-003, 0., 1.45985396e-003, 0., 1.45985396e-003,
          1.45985396e-003, 0., 0., 2.91970791e-003, 1.45985396e-003,
          2.91970791e-003, 0., 5.83941583e-003, 0., 2.91970791e-003,
          2.91970791e-003, 1.45985396e-003, 0., 0., 5.83941583e-003, 0.,
          0., 0., 4.37956210e-003, 4.37956210e-003, 1.45985396e-003,
          2.91970791e-003, 5.83941583e-003, 1.45985396e-003, 0.,
          1.45985396e-003, 0., 2.91970791e-003, 4.37956210e-003, 0., 0.,
          1.45985396e-003, 1.45985396e-003, 4.37956210e-003,
          1.45985396e-003, 4.37956210e-003, 1.45985396e-003, 0., 0.,
          1.45985396e-003, 0., 0. ]
      - [ 0., 0., 0., 0., 0., 0., 0., 0., 0., 1.56250000e-002, 0., 0.,
          0., 3.90625000e-003, 3.90625000e-003, 0., 3.90625000e-003, 0.,
          3.90625000e-003, 0., 0., 0., 0., 0., 0., 7.81250000e-003, 0.,
          0., 0., 0., 0., 0., 3.90625000e-003, 0., 0., 3.90625000e-003,
          3.90625000e-003, 0., 0., 0., 0., 0., 0., 0., 3.90625000e-003,
          3.90625000e-003, 0., 0., 3.90625000e-003, 0., 0., 0., 0., 0.,
          0., 0., 0., 3.90625000e-003, 0., 3.90625000e-003,
          3.90625000e-002, 3.90625000e-003, 7.81250000e-003, 0., 0., 0.,
          3.90625000e-003, 0., 0., 3.90625000e-003, 0., 0.,
          7.81250000e-003, 1.56250000e-002, 3.90625000e-003, 0., 0.,
          1.17187500e-002, 3.90625000e-003, 0., 0., 0., 0., 0., 0., 0.,
          0., 0., 0., 0., 1.17187500e-002, 3.90625000e-003, 0., 0.,
          7.81250000e-003, 0., 0., 0., 0., 7.81250000e-003,
          3.90625000e-003, 3.90625000e-003, 0., 3.90625000e-003, 0., 0.,
          0., 0., 0., 3.90625000e-003, 3.90625000e-003, 3.90625000e-003,
          0., 3.90625000e-003, 0., 3.90625000e-003, 0., 0., 0., 0., 0.,
          0., 0., 0., 0., 0., 1.17187500e-002, 7.81250000e-003, 0., 0.,
          0., 0., 0., 7.81250000e-003, 0., 3.90625000e-003, 0., 0., 0.,
          0., 0., 0., 3.90625000e-003, 0., 3.90625000e-003, 0., 0., 0.,
          0., 7.81250000e-003, 3.90625000e-003, 0., 3.90625000e-003, 0.,
          0., 0., 0., 0., 0., 0., 7.81250000e-003, 7.81250000e-003,
          3.90625000e-003, 0., 0., 0., 7.81250000e-003, 0., 0.,
          3.90625000e-003, 3.90625000e-003, 0., 0., 0., 0., 0.,
          3.90625000e-003, 7.81250000e-003, 0., 3.90625000e-003, 0., 0.,
          0., 0., 0., 0., 0., 3.90625000e-003, 7.81250000e-003, 0., 0.,
          3.90625000e-003, 0., 7.81250000e-003, 0., 0., 0., 0.,
          3.90625000e-003, 0., 0., 0., 0., 0., 3.90625000e-003, 0., 0.,
          0., 0., 0., 0., 0., 3.90625000e-003, 0., 0., 0., 0., 0., 0.,
          3.90625000e-003, 0., 0., 1.17187500e-002, 0., 0., 0., 0., 0.,
          0., 0., 0., 7.81250000e-003, 0., 0., 0., 3.90625000e-003,
          3.90625000e-003, 7.81250000e-003, 0., 3.90625000e-003,
          7.81250000e-003, 0., 0., 3.90625000e-003, 3.90625000e-003, 0.,
          0., 0., 3.90625000e-003, 0., 0., 3.90625000e-003, 0., 0., 0.,
          0., 1.95312500e-002, 3.90625000e-003, 7.81250000e-003,
          7.81250000e-003, 3.90625000e-003, 3.90625000e-003, 0., 0.,
          3.90625000e-003, 1.17187500e-002, 0., 0., 0., 3.90625000e-003,
          3.90625000e-003, 0., 0., 3.90625000e-003, 0., 0.,
          3.90625000e-003, 0., 0., 0., 7.81250000e-003, 0., 0., 0., 0.,
          7.81250000e-003, 0., 0., 0., 0., 0., 0., 0., 0., 0.,
          3.90625000e-003, 0., 0., 3.90625000e-003, 0., 0., 0.,
          3.90625000e-003, 0., 0., 3.90625000e-003, 0., 3.90625000e-003,
          0., 0., 0., 0., 0., 0., 0., 0., 0., 3.90625000e-003, 0., 0.,
          7.81250000e-003, 0., 0., 1.17187500e-002, 0., 7.81250000e-003,
          0., 0., 3.90625000e-003, 0., 0., 7.81250000e-003, 0., 0., 0.,
          3.90625000e-003, 0., 0., 0., 3.90625000e-003, 0., 0., 0., 0.,
          0., 0., 0., 3.90625000e-003, 0., 0., 0., 0., 0.,
          3.12500000e-002, 0., 0., 0., 0., 3.90625000e-003, 0., 0., 0.,
          0., 0., 0., 0., 0., 0., 0., 7.81250000e-003, 0., 0., 0., 0.,
          1.56250000e-002, 0., 3.90625000e-003, 0., 0., 0., 0., 0.,
          7.81250000e-003, 0., 3.90625000e-003, 0., 0., 0., 0., 0., 0.,
          0., 0., 0., 3.90625000e-003, 0., 0., 7.81250000e-003, 0., 0.,
          0., 0., 7.81250000e-003, 3.90625000e-003, 3.90625000e-003,
          3.90625000e-003, 0., 3.90625000e-003, 0., 0., 0., 0., 0., 0.,
          3.90625000e-003, 1.17187500e-002, 0., 0., 3.90625000e-003, 0.,
          0., 0., 3.90625000e-003, 1.95312500e-002, 3.90625000e-003, 0.,
          7.81250000e-003, 0., 0., 0., 0., 0., 0., 0., 3.90625000e-003,
          7.81250000e-003, 7.81250000e-003, 7.81250000e-003, 0.,
          1.17187500e-002, 0., 0., 0., 0., 0., 3.90625000e-003,
          3.90625000e-003, 0., 0., 3.90625000e-003, 0., 0.,
          3.90625000e-003, 0., 3.90625000e-003, 0., 0., 3.90625000e-003,
          0., 0., 0., 0., 0., 0., 0., 0., 0., 0., 0., 3.90625000e-003,
          0., 0., 0., 0., 0., 0., 0., 0., 0., 0., 3.90625000e-003, 0.,
          1.17187500e-002, 0., 0., 0., 0., 3.90625000e-003, 0., 0., 0.,
          0., 0., 0., 3.90625000e-003, 3.90625000e-003, 0., 0., 0., 0.,
          3.90625000e-003, 0., 0., 3.90625000e-003, 0., 0., 0., 0., 0.,
          7.81250000e-003, 0., 0., 1.17187500e-002, 3.90625000e-003, 0.,
          0., 0., 0., 0., 0., 0., 0., 0., 3.90625000e-003, 0., 0., 0.,
          0., 3.90625000e-003, 0., 0., 0., 3.90625000e-003, 0.,
          3.90625000e-003, 0., 0., 3.90625000e-003, 0., 0., 0., 0., 0.,
          3.90625000e-003, 0., 0., 0., 3.90625000e-003, 0., 0.,
          3.90625000e-003, 0., 0., 0., 3.90625000e-003, 0., 0., 0., 0.,
          3.90625000e-003, 0., 3.90625000e-003, 0., 0., 0., 0., 0., 0.,
          0., 0., 0., 0., 0., 0., 0., 0., 7.81250000e-003, 0., 0., 0.,
          1.17187500e-002, 1.17187500e-002, 7.81250000e-003, 0., 0., 0.,
          1.17187500e-002, 0., 0., 0., 3.90625000e-003, 0., 0.,
          3.90625000e-003, 0., 0., 0., 0., 0., 0. ]
      - [ 3.42465751e-003, 3.42465751e-003, 0., 1.71232875e-003,
          1.71232875e-003, 0., 0., 1.71232875e-003, 5.13698626e-003,
          1.71232875e-003, 0., 0., 0., 0., 5.13698626e-003,
          3.42465751e-003, 3.42465751e-003, 0., 5.13698626e-003, 0., 0.,
          0., 0., 0., 0., 3.42465751e-003, 1.71232875e-003,
          1.71232875e-003, 0., 0., 3.42465751e-003, 0., 1.71232875e-003,
          1.71232875e-003, 3.42465751e-003, 3.42465751e-003, 0., 0., 0.,
          1.71232875e-003, 0., 0., 0., 0., 0., 5.13698626e-003,
          1.71232875e-003, 1.71232875e-003, 1.71232875e-003, 0., 0., 0.,
          0., 1.71232875e-003, 1.71232875e-003, 0., 0., 3.42465751e-003,
          1.71232875e-003, 0., 3.42465751e-003, 5.13698626e-003, 0., 0.,
          3.42465751e-003, 6.84931502e-003, 0., 1.71232875e-003,
          6.84931502e-003, 0., 0., 0., 3.42465751e-003, 1.71232875e-003,
          3.42465751e-003, 1.71232875e-003, 0., 0., 1.71232875e-003,
          1.71232875e-003, 0., 1.71232875e-003, 0., 0., 1.71232875e-003,
          3.42465751e-003, 0., 6.84931502e-003, 3.42465751e-003, 0.,
          1.71232875e-003, 0., 0., 0., 6.84931502e-003, 0.,
          3.42465751e-003, 1.71232875e-003, 0., 1.71232875e-003,
          1.02739725e-002, 0., 0., 1.71232875e-003, 0., 6.84931502e-003,
          3.42465751e-003, 3.42465751e-003, 0., 0., 0., 0.,
          1.71232875e-003, 0., 0., 0., 5.13698626e-003, 1.71232875e-003,
          0., 1.71232875e-003, 1.71232875e-003, 1.71232875e-003, 0.,
          1.71232875e-003, 0., 0., 0., 1.71232875e-003, 0., 0., 0., 0.,
          0., 0., 0., 1.71232875e-003, 1.71232875e-003, 0., 0.,
          5.13698626e-003, 1.71232875e-003, 1.71232875e-003, 0., 0.,
          5.13698626e-003, 0., 1.71232875e-003, 0., 1.71232875e-003,
          1.71232875e-003, 1.71232875e-003, 1.02739725e-002,
          3.42465751e-003, 0., 0., 6.84931502e-003, 1.71232875e-003,
          1.71232875e-003, 1.71232875e-003, 3.42465751e-003,
          3.42465751e-003, 0., 0., 5.13698626e-003, 1.71232875e-003,
          6.84931502e-003, 3.42465751e-003, 0., 0., 0., 3.42465751e-003,
          1.71232875e-003, 1.71232875e-003, 0., 0., 0., 0.,
          1.71232875e-003, 0., 1.71232875e-003, 0., 1.71232875e-003, 0.,
          1.71232875e-003, 0., 0., 8.56164377e-003, 6.84931502e-003,
          3.42465751e-003, 1.71232875e-003, 1.71232875e-003,
          1.71232875e-003, 0., 3.42465751e-003, 5.13698626e-003, 0.,
          3.42465751e-003, 0., 3.42465751e-003, 3.42465751e-003, 0., 0.,
          0., 0., 3.42465751e-003, 1.02739725e-002, 1.36986300e-002,
          3.42465751e-003, 0., 1.71232875e-003, 0., 3.42465751e-003,
          1.36986300e-002, 0., 0., 6.84931502e-003, 0., 1.71232875e-003,
          1.71232875e-003, 5.13698626e-003, 0., 1.71232875e-003,
          1.71232875e-003, 1.71232875e-003, 1.71232875e-003,
          3.42465751e-003, 0., 1.02739725e-002, 5.13698626e-003, 0.,
          3.42465751e-003, 1.71232875e-003, 0., 0., 0., 5.13698626e-003,
          6.84931502e-003, 0., 0., 1.71232875e-003, 5.13698626e-003, 0.,
          1.71232875e-003, 0., 0., 0., 1.71232875e-003, 0., 0., 0.,
          3.42465751e-003, 1.71232875e-003, 1.71232875e-003,
          1.71232875e-003, 5.13698626e-003, 3.42465751e-003,
          1.71232875e-003, 3.42465751e-003, 0., 3.42465751e-003, 0., 0.,
          0., 1.71232875e-003, 0., 0., 0., 0., 1.71232875e-003,
          5.13698626e-003, 0., 0., 0., 0., 1.71232875e-003, 0., 0., 0.,
          1.71232875e-003, 0., 3.42465751e-003, 0., 0., 3.42465751e-003,
          0., 0., 0., 1.71232875e-003, 0., 0., 0., 0., 0., 0.,
          1.71232875e-003, 1.71232875e-003, 0., 0., 1.71232875e-003,
          3.42465751e-003, 0., 0., 1.71232875e-003, 3.42465751e-003, 0.,
          6.84931502e-003, 0., 1.71232875e-003, 1.71232875e-003, 0.,
          3.42465751e-003, 3.42465751e-003, 0., 1.71232875e-003, 0.,
          3.42465751e-003, 0., 3.42465751e-003, 1.71232875e-003, 0., 0.,
          1.71232875e-003, 1.71232875e-003, 6.84931502e-003, 0.,
          1.71232875e-003, 0., 1.71232875e-003, 6.84931502e-003,
          1.71232875e-003, 1.71232875e-003, 1.71232875e-003,
          1.71232875e-003, 0., 1.71232875e-003, 5.13698626e-003,
          3.42465751e-003, 1.02739725e-002, 1.71232875e-003,
          1.71232875e-003, 1.71232875e-003, 1.71232875e-003,
          3.42465751e-003, 0., 1.71232875e-003, 0., 0., 1.71232875e-003,
          0., 1.71232875e-003, 0., 1.19863013e-002, 0., 0., 0., 0.,
          1.71232875e-003, 3.42465751e-003, 0., 0., 0., 3.42465751e-003,
          0., 3.42465751e-003, 0., 6.84931502e-003, 3.42465751e-003,
          1.71232875e-003, 1.02739725e-002, 1.71232875e-003, 0., 0.,
          3.42465751e-003, 0., 0., 0., 1.71232875e-003, 0., 0., 0.,
          1.71232875e-003, 0., 0., 0., 0., 3.42465751e-003, 0., 0.,
          6.84931502e-003, 1.71232875e-003, 0., 0., 0., 3.42465751e-003,
          0., 0., 3.42465751e-003, 5.13698626e-003, 1.71232875e-003, 0.,
          0., 1.71232875e-003, 1.71232875e-003, 0., 3.42465751e-003,
          1.71232875e-003, 1.71232875e-003, 1.71232875e-003, 0.,
          1.71232875e-003, 0., 1.71232875e-003, 0., 5.13698626e-003,
          1.71232875e-003, 0., 1.71232875e-003, 0., 0., 1.71232875e-003,
          1.71232875e-003, 0., 0., 1.71232875e-003, 3.42465751e-003,
          3.42465751e-003, 1.71232875e-003, 1.71232875e-003,
          1.71232875e-003, 0., 5.13698626e-003, 0., 0., 1.71232875e-003,
          0., 1.71232875e-003, 1.71232875e-003, 0., 0., 0., 0., 0., 0.,
          0., 0., 0., 0., 0., 0., 5.13698626e-003, 5.13698626e-003, 0.,
          6.84931502e-003, 0., 1.71232875e-003, 0., 0., 5.13698626e-003,
          0., 6.84931502e-003, 0., 0., 1.71232875e-003, 0.,
          3.42465751e-003, 0., 3.42465751e-003, 8.56164377e-003, 0.,
          1.71232875e-003, 3.42465751e-003, 0., 0., 0., 1.71232875e-003,
          3.42465751e-003, 1.71232875e-003, 1.71232875e-003,
          1.71232875e-003, 1.71232875e-003, 1.02739725e-002,
          1.71232875e-003, 8.56164377e-003, 0., 1.71232875e-003, 0.,
          3.42465751e-003, 3.42465751e-003, 1.71232875e-003,
          1.71232875e-003, 1.71232875e-003, 5.13698626e-003, 0., 0.,
          5.13698626e-003, 3.42465751e-003, 0., 0., 0., 1.71232875e-003,
          1.71232875e-003, 0., 0., 0., 0., 1.71232875e-003,
          1.71232875e-003, 1.71232875e-003, 0., 0., 0., 0.,
          1.71232875e-002, 0., 3.42465751e-003, 1.71232875e-003, 0., 0.,
          0., 5.13698626e-003, 0., 0., 6.84931502e-003, 0.,
          3.42465751e-003, 0., 3.42465751e-003, 0., 1.71232875e-003, 0.,
          0., 0., 0., 1.71232875e-003, 1.71232875e-003, 0., 0., 0.,
          5.13698626e-003, 1.71232875e-003, 0., 6.84931502e-003,
          1.71232875e-003, 1.71232875e-003, 0., 1.71232875e-003,
          5.13698626e-003, 0., 1.71232875e-003, 0., 0., 1.71232875e-003,
          1.71232875e-003, 0., 0., 5.13698626e-003, 0., 0.,
          1.71232875e-003, 0., 0., 1.71232875e-003, 3.42465751e-003, 0.,
          0., 3.42465751e-003, 0., 5.13698626e-003, 0., 3.42465751e-003,
          0., 0., 5.13698626e-003, 0., 1.71232875e-003, 0.,
          1.71232875e-003, 3.42465751e-003, 5.13698626e-003,
          1.71232875e-003, 1.71232875e-003, 1.02739725e-002,
          6.84931502e-003, 1.71232875e-003, 0., 8.56164377e-003,
          1.71232875e-003, 0., 1.71232875e-003, 0., 0., 0., 0., 0., 0.,
          0., 0., 0., 3.42465751e-003, 0. ]
      - [ 0., 7.69230770e-003, 0., 0., 0., 0., 0., 7.69230770e-003,
          7.69230770e-003, 0., 7.69230770e-003, 0., 0., 7.69230770e-003,
          0., 0., 0., 0., 0., 0., 0., 0., 0., 0., 0., 0., 0., 0., 0., 0.,
          0., 0., 0., 0., 0., 0., 0., 0., 0., 0., 0., 0., 0., 0., 0., 0.,
          0., 0., 0., 0., 0., 0., 0., 0., 0., 0., 7.69230770e-003, 0.,
          0., 0., 0., 0., 0., 0., 0., 0., 0., 0., 0., 0., 0., 0., 0., 0.,
          0., 0., 7.69230770e-003, 0., 0., 0., 0., 1.53846154e-002, 0.,
          7.69230770e-003, 0., 0., 7.69230770e-003, 7.69230770e-003, 0.,
          0., 0., 0., 0., 1.53846154e-002, 0., 1.53846154e-002, 0.,
          7.69230770e-003, 0., 0., 0., 0., 7.69230770e-003,
          1.53846154e-002, 0., 0., 0., 0., 3.84615399e-002, 0., 0.,
          1.53846154e-002, 0., 0., 0., 0., 0., 0., 0., 1.53846154e-002,
          7.69230770e-003, 0., 0., 0., 0., 0., 0., 0., 0., 0., 0., 0.,
          0., 0., 0., 7.69230770e-003, 0., 0., 0., 0., 0., 0., 0., 0.,
          0., 0., 0., 0., 0., 0., 0., 0., 0., 0., 0., 0., 0., 0., 0., 0.,
          0., 0., 0., 0., 0., 0., 0., 7.69230770e-003, 7.69230770e-003,
          0., 7.69230770e-003, 0., 0., 0., 0., 2.30769236e-002, 0., 0.,
          0., 0., 0., 0., 0., 0., 0., 0., 0., 0., 1.53846154e-002,
          7.69230770e-003, 1.53846154e-002, 0., 0., 0., 0., 0., 0., 0.,
          0., 0., 0., 0., 0., 0., 0., 0., 0., 0., 0., 0., 0., 0., 0., 0.,
          0., 2.30769236e-002, 0., 0., 7.69230770e-003, 0.,
          7.69230770e-003, 0., 0., 1.53846154e-002, 0., 0., 0., 0., 0.,
          0., 0., 0., 0., 0., 0., 0., 0., 0., 0., 0., 0.,
          7.69230770e-003, 0., 7.69230770e-003, 0., 0., 1.53846154e-002,
          0., 0., 0., 0., 0., 0., 0., 0., 0., 0., 0., 0., 0., 0., 0., 0.,
          0., 7.69230770e-003, 7.69230770e-003, 0., 2.30769236e-002, 0.,
          0., 0., 0., 0., 0., 0., 0., 0., 0., 7.69230770e-003, 0., 0.,
          0., 0., 7.69230770e-003, 0., 0., 0., 0., 0., 0., 0., 0., 0.,
          0., 0., 0., 0., 0., 0., 0., 0., 1.53846154e-002,
          1.53846154e-002, 0., 0., 0., 0., 0., 0., 7.69230770e-003, 0.,
          0., 0., 0., 0., 0., 0., 0., 0., 0., 0., 0., 0., 0., 0., 0., 0.,
          0., 0., 7.69230770e-003, 0., 0., 0., 7.69230770e-003, 0., 0.,
          0., 0., 0., 0., 0., 0., 0., 0., 1.53846154e-002, 0.,
          7.69230770e-003, 0., 0., 7.69230770e-003, 2.30769236e-002, 0.,
          7.69230770e-003, 3.07692308e-002, 7.69230770e-003,
          3.84615399e-002, 0., 0., 0., 0., 0., 7.69230770e-003, 0., 0.,
          0., 0., 0., 0., 0., 0., 0., 0., 0., 0., 2.30769236e-002, 0.,
          0., 0., 7.69230770e-003, 0., 0., 0., 0., 0., 0., 0., 0., 0.,
          0., 0., 7.69230770e-003, 0., 0., 0., 0., 7.69230770e-003, 0.,
          0., 0., 0., 0., 0., 0., 0., 0., 1.53846154e-002, 0., 0., 0.,
          0., 0., 1.53846154e-002, 0., 0., 0., 0., 0., 0., 0., 0., 0.,
          0., 0., 0., 7.69230770e-003, 0., 0., 0., 0., 0., 0., 0., 0.,
          0., 0., 0., 0., 0., 0., 0., 0., 0., 0., 0., 0., 0., 0., 0., 0.,
          7.69230770e-003, 1.53846154e-002, 0., 0., 1.53846154e-002, 0.,
          3.84615399e-002, 0., 0., 0., 0., 0., 0., 0., 1.53846154e-002,
          0., 0., 0., 0., 7.69230770e-003, 0., 7.69230770e-003,
          7.69230770e-003, 0., 0., 3.07692308e-002, 0., 0., 0., 0., 0.,
          0., 0., 0., 0., 0., 7.69230770e-003, 0., 0., 0., 0., 0., 0.,
          0., 0., 0., 0., 0., 0., 0., 0., 0., 0., 0., 0.,
          7.69230770e-003, 0., 0., 0., 0., 0., 0., 0., 0., 0., 0., 0.,
          0., 0., 0., 7.69230770e-003, 0., 0., 0., 0., 0., 0., 0., 0.,
          7.69230770e-003, 0., 0., 0., 0., 0., 0., 0., 0., 0., 0., 0.,
          0., 0., 0., 0., 7.69230770e-003, 0., 0., 0., 0., 0., 0., 0.,
          0., 0., 0., 0., 0., 0., 0., 0., 0., 0., 0., 0.,
          3.07692308e-002, 0., 0., 0., 0., 0., 0., 0., 0., 0., 0., 0.,
          0., 0., 0., 0., 7.69230770e-003, 0., 0., 0., 0.,
          1.53846154e-002, 0., 0., 7.69230770e-003, 0., 0., 0., 0., 0.,
          0., 0., 0., 7.69230770e-003, 0., 0. ]
      - [ 1.11982087e-003, 2.23964173e-003, 0., 0., 6.71892520e-003, 0.,
          0., 2.79955212e-002, 0., 5.59910433e-003, 0., 0.,
          2.23964173e-003, 4.47928347e-003, 1.23180300e-002, 0.,
          2.23964173e-003, 2.23964173e-003, 0., 0., 0., 0.,
          2.23964173e-003, 0., 0., 1.11982087e-003, 1.11982087e-003,
          3.35946260e-003, 5.59910433e-003, 0., 0., 0., 0., 0.,
          2.23964173e-003, 1.11982087e-003, 4.47928347e-003, 0.,
          2.23964173e-003, 0., 3.35946260e-003, 2.23964173e-003, 0., 0.,
          0., 0., 2.23964173e-003, 0., 0., 0., 0., 3.35946260e-003, 0.,
          3.35946260e-003, 0., 0., 4.47928347e-003, 5.59910433e-003,
          1.11982087e-003, 0., 1.11982087e-002, 0., 0., 0.,
          1.11982087e-003, 1.11982087e-003, 4.47928347e-003,
          3.35946260e-003, 3.35946260e-003, 1.11982087e-003, 0., 0.,
          1.11982087e-003, 2.23964173e-003, 7.83874653e-003,
          1.11982087e-003, 0., 0., 2.23964173e-003, 0., 0., 0.,
          1.11982087e-003, 0., 2.23964173e-003, 4.47928347e-003,
          3.35946260e-003, 0., 1.11982087e-003, 1.11982087e-003,
          5.59910433e-003, 1.11982087e-003, 0., 1.11982087e-003, 0.,
          4.47928347e-003, 1.11982087e-003, 4.47928347e-003,
          8.95856693e-003, 0., 0., 0., 1.11982087e-003, 1.11982087e-003,
          0., 1.11982087e-003, 0., 6.71892520e-003, 0., 0.,
          5.59910433e-003, 2.23964173e-003, 2.23964173e-003,
          5.59910433e-003, 0., 0., 2.23964173e-003, 0., 0.,
          2.23964173e-003, 0., 2.23964173e-003, 0., 0., 1.11982087e-003,
          6.71892520e-003, 2.23964173e-003, 3.35946260e-003, 0., 0.,
          1.11982087e-003, 0., 0., 6.71892520e-003, 0., 2.23964173e-003,
          1.11982087e-003, 0., 0., 0., 2.23964173e-003, 0.,
          1.11982087e-003, 2.23964173e-003, 5.59910433e-003,
          2.23964173e-003, 1.11982087e-003, 1.11982087e-003,
          3.35946260e-003, 4.47928347e-003, 1.11982087e-003,
          6.71892520e-003, 3.35946260e-003, 1.11982087e-003,
          3.35946260e-003, 0., 3.35946260e-003, 3.35946260e-003,
          1.11982087e-002, 3.35946260e-003, 1.00783873e-002,
          1.11982087e-003, 1.11982087e-003, 1.11982087e-003, 0., 0.,
          2.23964173e-003, 4.47928347e-003, 3.35946260e-003,
          1.11982087e-003, 1.11982087e-003, 0., 1.11982087e-003,
          1.11982087e-003, 1.11982087e-003, 0., 4.47928347e-003,
          1.11982087e-003, 0., 1.11982087e-003, 1.11982087e-003, 0.,
          1.11982087e-003, 0., 1.11982087e-003, 0., 3.35946260e-003, 0.,
          3.35946260e-003, 0., 2.23964173e-003, 0., 4.47928347e-003,
          1.11982087e-003, 1.11982087e-003, 1.11982087e-003, 0.,
          2.23964173e-003, 1.11982087e-003, 0., 0., 0., 0., 0., 0., 0.,
          4.47928347e-003, 0., 1.11982087e-003, 1.11982087e-003,
          2.23964173e-003, 3.35946260e-003, 2.23964173e-003,
          5.59910433e-003, 2.23964173e-003, 0., 2.23964173e-003, 0.,
          1.11982087e-003, 0., 0., 1.11982087e-003, 1.11982087e-003,
          2.23964173e-003, 6.71892520e-003, 4.47928347e-003,
          1.11982087e-003, 0., 1.11982087e-003, 1.11982087e-003,
          2.23964173e-003, 3.35946260e-003, 1.11982087e-003, 0.,
          6.71892520e-003, 1.11982087e-003, 0., 3.35946260e-003, 0.,
          5.59910433e-003, 0., 0., 4.47928347e-003, 3.35946260e-003,
          1.11982087e-003, 0., 1.11982087e-003, 8.95856693e-003,
          4.47928347e-003, 0., 2.23964173e-003, 0., 0., 0.,
          1.11982087e-003, 1.11982087e-003, 0., 2.23964173e-003,
          1.11982087e-003, 0., 0., 4.47928347e-003, 0., 0., 0.,
          3.35946260e-003, 0., 0., 0., 2.23964173e-003, 2.23964173e-003,
          0., 0., 0., 0., 2.23964173e-003, 6.71892520e-003, 0., 0., 0.,
          0., 2.23964173e-003, 0., 0., 0., 1.00783873e-002,
          2.23964173e-003, 0., 2.23964173e-003, 6.71892520e-003, 0.,
          1.11982087e-003, 1.67973135e-002, 0., 1.11982087e-003,
          1.11982087e-003, 0., 0., 0., 3.35946260e-003, 0., 0.,
          1.11982087e-003, 1.11982087e-003, 2.23964173e-003, 0.,
          1.11982087e-003, 1.11982087e-003, 2.23964173e-003, 0.,
          2.23964173e-003, 1.11982087e-003, 2.23964173e-003, 0., 0.,
          3.35946260e-003, 0., 1.11982087e-003, 2.35162377e-002, 0.,
          4.47928347e-003, 1.11982087e-003, 0., 3.35946260e-003, 0.,
          1.11982087e-003, 7.83874653e-003, 1.11982087e-002, 0.,
          3.35946260e-003, 0., 0., 0., 2.23964173e-003, 1.11982087e-003,
          0., 2.23964173e-003, 2.23964173e-003, 3.35946260e-003, 0.,
          1.11982087e-003, 2.23964173e-003, 1.11982087e-003, 0.,
          2.23964173e-003, 3.35946260e-003, 0., 0., 0., 4.47928347e-003,
          0., 1.11982087e-003, 0., 6.71892520e-003, 0., 0., 0., 0.,
          1.11982087e-003, 1.11982087e-003, 1.11982087e-003,
          2.23964173e-003, 0., 2.23964173e-003, 1.11982087e-003, 0.,
          2.23964173e-003, 0., 0., 1.11982087e-002, 0., 0., 0., 0.,
