%YAML:1.0
my_svm: !!opencv-ml-svm
   svm_type: C_SVC
   kernel: { type:RBF, gamma:1. }
   C: 1.
   term_criteria: { epsilon:1.1920928955078125e-007, iterations:1000 }
   var_all: 600
   var_count: 600
   class_count: 2
   class_labels: !!opencv-matrix
      rows: 1
      cols: 2
      dt: i
      data: [ 0, 1 ]
   sv_total: 49
   support_vectors:
      - [ 1.12499995e-002, 0., 3.12499981e-003, 0., 6.24999986e-004, 0.,
          3.74999992e-003, 6.24999963e-003, 1.87499996e-003,
          1.24999997e-003, 6.24999986e-004, 6.24999986e-004, 0.,
          1.24999997e-003, 1.87499996e-003, 0., 1.24999997e-003,
          1.87499996e-003, 2.49999994e-003, 2.49999994e-003,
          1.24999997e-003, 0., 0., 1.24999997e-003, 0., 0.,
          6.24999986e-004, 0., 0., 3.74999992e-003, 1.87499996e-003, 0.,
          0., 6.24999986e-004, 2.49999994e-003, 0., 3.12499981e-003,
          3.74999992e-003, 0., 0., 2.49999994e-003, 1.87499996e-003, 0.,
          0., 1.87499996e-003, 1.24999997e-003, 6.24999986e-004, 0.,
          1.87499996e-003, 3.74999992e-003, 0., 1.24999997e-003,
          1.24999997e-003, 0., 2.49999994e-003, 0., 6.24999986e-004,
          1.24999997e-003, 1.87499996e-003, 0., 1.62499994e-002,
          3.12499981e-003, 0., 0., 2.49999994e-003, 4.99999989e-003,
          2.49999994e-003, 0., 1.87499996e-003, 0., 0., 0.,
          4.99999989e-003, 3.74999992e-003, 6.24999963e-003,
          6.24999986e-004, 1.24999997e-003, 1.24999997e-003,
          3.74999992e-003, 6.24999986e-004, 1.24999997e-003,
          1.24999997e-003, 1.24999997e-003, 0., 0., 6.24999986e-004,
          1.87499996e-003, 3.12499981e-003, 2.49999994e-003, 0.,
          3.74999992e-003, 6.24999986e-004, 0., 1.24999997e-003,
          6.24999986e-004, 1.24999997e-003, 8.12499970e-003,
          1.24999997e-003, 2.49999994e-003, 0., 4.99999989e-003,
          6.24999986e-004, 2.49999994e-003, 6.24999986e-004,
          6.24999986e-004, 6.24999986e-004, 1.24999997e-003,
          4.99999989e-003, 0., 0., 0., 0., 0., 0., 0., 1.24999997e-003,
          1.24999997e-003, 6.24999986e-004, 1.24999997e-003,
          1.24999997e-003, 2.49999994e-003, 1.24999997e-003, 0.,
          5.62499976e-003, 4.37500002e-003, 0., 1.24999997e-003,
          6.24999986e-004, 3.12499981e-003, 0., 6.24999986e-004, 0.,
          6.24999986e-004, 3.12499981e-003, 6.24999986e-004,
          6.24999986e-004, 2.49999994e-003, 0., 4.99999989e-003,
          6.24999986e-004, 0., 6.24999986e-004, 0., 0., 6.24999986e-004,
          1.24999997e-003, 6.24999986e-004, 0., 6.24999986e-004, 0.,
          6.24999986e-004, 6.24999986e-004, 3.12499981e-003,
          6.24999986e-004, 1.87499996e-003, 4.99999989e-003,
          1.24999997e-003, 4.37500002e-003, 6.24999963e-003,
          1.24999997e-003, 1.87499996e-003, 1.24999997e-003,
          1.24999997e-003, 6.24999986e-004, 1.24999997e-003,
          6.24999986e-004, 1.24999997e-003, 5.62499976e-003,
          3.74999992e-003, 0., 6.24999986e-004, 5.62499976e-003,
          1.24999997e-003, 1.24999997e-003, 6.24999986e-004,
          6.24999986e-004, 0., 1.87499996e-003, 0., 6.24999986e-004,
          6.24999986e-004, 4.99999989e-003, 6.24999986e-004,
          2.49999994e-003, 6.24999986e-004, 3.12499981e-003, 0.,
          3.74999992e-003, 3.12499981e-003, 0., 2.49999994e-003,
          6.24999986e-004, 6.24999986e-004, 3.74999992e-003,
          6.24999986e-004, 3.74999992e-003, 1.87499996e-003,
          6.24999986e-004, 0., 0., 0., 6.24999986e-004, 0.,
          2.49999994e-003, 4.37500002e-003, 3.74999992e-003,
          9.37499944e-003, 3.12499981e-003, 0., 1.87499996e-003,
          1.24999997e-003, 3.12499981e-003, 6.24999986e-004,
          6.24999986e-004, 0., 1.87499996e-003, 2.49999994e-003,
          3.74999992e-003, 6.24999986e-004, 6.24999986e-004,
          6.24999986e-004, 1.24999997e-003, 0., 0., 0., 6.24999986e-004,
          6.24999986e-004, 1.12499995e-002, 1.87499996e-003,
          1.87499996e-003, 6.24999986e-004, 0., 0., 1.87499996e-003,
          1.87499996e-003, 6.24999986e-004, 1.24999997e-003,
          6.24999986e-004, 1.24999997e-003, 2.49999994e-003,
          6.24999986e-004, 4.37500002e-003, 6.24999986e-004, 0., 0.,
          6.24999986e-004, 1.24999997e-003, 0., 1.87499996e-003,
          6.24999986e-004, 1.87499996e-003, 3.12499981e-003,
          4.99999989e-003, 1.87499996e-003, 3.74999992e-003,
          2.49999994e-003, 3.74999992e-003, 6.24999986e-004,
          1.24999997e-003, 6.24999986e-004, 1.87499996e-003,
          1.24999997e-003, 1.24999997e-003, 1.24999997e-003,
          1.87499996e-003, 6.87499996e-003, 0., 0., 1.24999997e-003,
          1.24999997e-003, 1.24999997e-003, 6.24999986e-004,
          1.24999997e-003, 6.24999986e-004, 3.74999992e-003,
          6.24999986e-004, 0., 0., 6.24999986e-004, 6.24999986e-004, 0.,
          6.24999986e-004, 0., 2.49999994e-003, 2.49999994e-003,
          1.24999997e-003, 3.74999992e-003, 3.12499981e-003,
          6.24999986e-004, 0., 0., 6.24999986e-004, 6.24999986e-004,
          6.24999986e-004, 1.24999997e-003, 3.12499981e-003,
          1.87499996e-003, 1.87499996e-003, 1.24999997e-003,
          2.49999994e-003, 1.87499996e-003, 0., 1.24999997e-003,
          1.24999997e-003, 6.24999986e-004, 6.24999986e-004, 0.,
          6.24999986e-004, 1.87499996e-003, 2.49999994e-003,
          6.24999986e-004, 1.87499996e-003, 3.12499981e-003,
          1.24999997e-003, 1.24999997e-003, 6.24999986e-004,
          2.49999994e-003, 6.24999986e-004, 4.37500002e-003, 0.,
          1.24999997e-003, 1.87499996e-003, 3.12499981e-003,
          1.24999997e-003, 1.87499996e-003, 6.24999986e-004,
          6.24999986e-004, 6.87499996e-003, 4.99999989e-003,
          3.12499981e-003, 2.49999994e-003, 6.24999986e-004, 0.,
          1.87499996e-003, 0., 4.99999989e-003, 1.87499996e-003,
          1.12499995e-002, 0., 0., 6.24999963e-003, 6.24999986e-004,
          3.12499981e-003, 2.49999994e-003, 1.24999997e-003,
          3.74999992e-003, 6.24999986e-004, 1.87499996e-003,
          6.24999986e-004, 6.24999986e-004, 6.24999986e-004,
          3.74999992e-003, 0., 4.37500002e-003, 0., 0., 6.24999986e-004,
          1.12499995e-002, 1.87499996e-003, 1.87499996e-003,
          1.87499996e-003, 1.87499996e-003, 4.37500002e-003,
          6.24999986e-004, 6.24999986e-004, 0., 4.37500002e-003, 0.,
          6.87499996e-003, 2.49999994e-003, 1.24999997e-003,
          3.12499981e-003, 6.24999986e-004, 0., 1.87499996e-003,
          1.24999997e-003, 6.87499996e-003, 6.24999986e-004, 0.,
          2.49999994e-003, 3.74999992e-003, 1.87499996e-003, 0.,
          1.24999997e-003, 0., 1.87499996e-003, 1.87499996e-003,
          2.49999994e-003, 4.37500002e-003, 2.49999994e-003, 0.,
          1.87499996e-003, 1.24999997e-003, 2.49999994e-003, 0.,
          1.24999997e-003, 0., 6.24999986e-004, 1.87499996e-003,
          1.24999997e-003, 1.24999997e-003, 4.37500002e-003,
          1.24999997e-003, 0., 3.12499981e-003, 0., 3.12499981e-003,
          1.24999997e-003, 6.24999986e-004, 0., 1.87499996e-003,
          1.24999997e-003, 1.24999997e-003, 1.87499996e-003,
          1.06250001e-002, 1.24999997e-003, 0., 1.87499996e-003,
          2.49999994e-003, 6.24999986e-004, 4.37500002e-003,
          6.24999986e-004, 1.24999997e-003, 0., 4.37500002e-003, 0.,
          1.24999997e-003, 0., 3.74999992e-003, 0., 1.24999997e-003,
          6.24999986e-004, 0., 0., 1.24999997e-003, 4.37500002e-003,
          2.49999994e-003, 1.49999997e-002, 1.87499996e-003, 0.,
          6.24999986e-004, 3.12499981e-003, 3.12499981e-003,
          1.87499996e-003, 6.24999986e-004, 3.74999992e-003,
          1.87499996e-003, 2.49999994e-003, 0., 3.12499981e-003, 0.,
          6.24999986e-004, 6.24999986e-004, 6.24999986e-004, 0., 0.,
          6.24999986e-004, 1.87499996e-003, 0., 6.24999986e-004, 0.,
          2.49999994e-003, 1.24999997e-003, 1.87499996e-003,
          2.49999994e-003, 0., 1.24999997e-003, 1.24999997e-003, 0.,
          6.24999986e-004, 1.24999997e-003, 1.24999997e-003, 0., 0.,
          1.87499996e-003, 1.87499996e-003, 6.24999986e-004,
          1.87499996e-003, 0., 1.24999997e-003, 9.37499944e-003,
          6.24999986e-004, 1.87499996e-003, 6.24999986e-004,
          2.49999994e-003, 3.74999992e-003, 1.87499996e-003,
          1.87499996e-003, 6.24999986e-004, 2.49999994e-003,
          5.62499976e-003, 3.12499981e-003, 4.37500002e-003,
          3.12499981e-003, 3.12499981e-003, 1.24999997e-003,
          1.24999997e-003, 3.12499981e-003, 3.74999992e-003,
          1.87499996e-003, 1.24999997e-003, 2.49999994e-003,
          1.87499996e-003, 1.87499996e-003, 1.24999997e-003,
          1.24999997e-003, 1.87499996e-003, 2.49999994e-003,
          1.87499996e-003, 6.24999986e-004, 6.24999986e-004,
          5.62499976e-003, 1.87499996e-003, 1.87499996e-003,
          1.87499996e-003, 4.99999989e-003, 0., 6.24999986e-004,
          1.24999997e-003, 4.99999989e-003, 6.24999986e-004,
          6.24999986e-004, 6.24999986e-004, 0., 6.24999986e-004,
          1.24999997e-003, 1.24999997e-003, 1.87499996e-003,
          6.24999986e-004, 0., 0., 1.87499996e-003, 0., 2.49999994e-003,
          6.24999986e-004, 0., 0., 0., 6.24999986e-004, 0.,
          3.12499981e-003, 6.87499996e-003, 1.24999997e-003, 0.,
          1.87499996e-003, 0., 6.24999986e-004, 3.12499981e-003,
          1.87499996e-003, 3.74999992e-003, 0., 0., 6.87499996e-003, 0.,
          1.24999997e-003, 6.87499996e-003, 6.24999986e-004, 0.,
          1.24999997e-003, 0., 1.87499996e-003, 6.24999986e-004,
          3.74999992e-003, 6.24999986e-004, 6.24999986e-004,
          6.24999986e-004, 6.24999986e-004, 8.12499970e-003, 0.,
          1.87499996e-003, 0., 6.24999986e-004, 5.62499976e-003,
          1.24999997e-003, 2.49999994e-003, 6.24999986e-004,
          1.87499996e-003, 1.24999997e-003, 6.24999986e-004, 0.,
          3.12499981e-003, 1.87499996e-003, 1.24999997e-003,
          6.24999986e-004, 1.24999997e-003, 1.87499996e-003,
          6.24999986e-004, 1.87499996e-003, 4.99999989e-003,
          1.24999997e-003, 0., 6.24999986e-004, 0., 1.87499996e-003, 0.,
          1.24999997e-003, 0., 1.24999997e-003, 1.24999997e-003, 0. ]
      - [ 4.83870972e-003, 0., 0., 0., 0., 0., 0., 0., 1.61290320e-003,
          3.22580640e-003, 0., 0., 0., 1.61290320e-003, 0., 0.,
          1.61290320e-003, 1.61290320e-003, 9.67741944e-003, 0., 0., 0.,
          0., 0., 1.61290320e-003, 0., 1.61290320e-003, 0., 0., 0., 0.,
          0., 4.83870972e-003, 0., 4.83870972e-003, 0., 0., 0., 0., 0.,
          3.22580640e-003, 3.22580640e-003, 0., 3.22580640e-003, 0.,
          3.22580640e-003, 3.22580640e-003, 3.22580640e-003, 0., 0., 0.,
          0., 0., 0., 0., 0., 0., 3.22580640e-003, 0., 0., 0.,
          4.83870972e-003, 0., 0., 0., 3.22580640e-003, 0., 0.,
          1.61290320e-003, 0., 0., 0., 0., 0., 4.83870972e-003, 0., 0.,
          1.61290320e-003, 1.61290320e-003, 0., 1.61290320e-003,
          3.22580640e-003, 0., 0., 1.61290320e-003, 1.45161292e-002, 0.,
          1.61290320e-003, 0., 0., 0., 6.45161280e-003, 0., 0.,
          1.61290320e-003, 0., 1.61290320e-003, 1.61290320e-003, 0.,
          1.61290320e-003, 6.45161280e-003, 1.61290318e-002,
          3.22580640e-003, 0., 0., 0., 0., 0., 0., 1.61290320e-003, 0.,
          0., 3.22580640e-003, 0., 0., 3.22580640e-003, 1.61290320e-003,
          0., 3.22580640e-003, 0., 3.22580640e-003, 3.22580640e-003, 0.,
          0., 1.61290320e-003, 0., 0., 3.22580640e-003, 0., 0.,
          6.45161280e-003, 0., 0., 3.22580640e-003, 0., 3.22580640e-003,
          1.61290320e-003, 0., 1.61290320e-003, 0., 6.45161280e-003,
          6.45161280e-003, 6.45161280e-003, 1.61290320e-003, 0., 0.,
          3.22580640e-003, 0., 1.61290320e-003, 1.61290320e-003,
          1.61290320e-003, 0., 1.61290320e-003, 0., 3.22580640e-003, 0.,
          0., 4.83870972e-003, 0., 0., 0., 0., 1.61290320e-003, 0.,
          3.22580640e-003, 6.45161280e-003, 0., 0., 1.61290320e-003,
          3.22580640e-003, 1.61290320e-003, 1.61290320e-003, 0., 0.,
          1.61290320e-003, 0., 0., 3.22580640e-003, 0., 3.22580640e-003,
          1.61290320e-003, 0., 0., 4.83870972e-003, 1.61290320e-003,
          1.61290320e-003, 0., 9.67741944e-003, 0., 0., 0.,
          1.61290320e-003, 0., 4.83870972e-003, 0., 1.61290320e-003,
          6.45161280e-003, 1.61290320e-003, 2.90322583e-002,
          1.61290320e-003, 0., 4.83870972e-003, 0., 1.61290320e-003, 0.,
          1.61290320e-003, 0., 1.29032256e-002, 0., 3.22580640e-003, 0.,
          3.22580640e-003, 3.38709690e-002, 3.22580640e-003, 0.,
          1.61290320e-003, 0., 8.06451589e-003, 1.61290320e-003,
          3.22580640e-003, 0., 1.61290320e-003, 3.22580640e-003, 0.,
          1.61290320e-003, 4.83870972e-003, 4.83870972e-003,
          3.22580640e-003, 0., 0., 0., 0., 0., 1.61290320e-003, 0., 0.,
          1.61290320e-003, 0., 3.22580640e-003, 4.83870972e-003,
          6.45161280e-003, 3.22580640e-003, 1.61290320e-003, 0., 0., 0.,
          0., 0., 0., 4.83870972e-003, 0., 0., 0., 3.22580640e-003, 0.,
          0., 0., 3.22580640e-003, 1.61290320e-003, 3.22580640e-003,
          1.61290320e-003, 1.61290320e-003, 0., 6.45161280e-003,
          6.45161280e-003, 0., 0., 1.61290320e-003, 3.22580640e-003, 0.,
          3.22580640e-003, 0., 1.61290320e-003, 0., 0., 0.,
          1.61290320e-003, 0., 0., 0., 6.45161280e-003, 1.61290320e-003,
          0., 0., 1.29032256e-002, 0., 0., 6.45161280e-003, 0., 0., 0.,
          0., 3.22580640e-003, 0., 1.61290320e-003, 1.29032256e-002,
          1.61290320e-003, 0., 0., 1.61290320e-003, 3.22580640e-003, 0.,
          0., 6.45161280e-003, 0., 0., 0., 0., 4.83870972e-003, 0., 0.,
          0., 3.22580640e-003, 0., 1.61290320e-003, 1.61290320e-003, 0.,
          1.61290320e-003, 0., 0., 1.61290320e-003, 3.22580640e-003,
          1.61290320e-003, 1.61290320e-003, 1.61290320e-003, 0.,
          1.61290320e-003, 0., 1.61290320e-003, 1.61290320e-003,
          6.45161280e-003, 0., 1.61290320e-003, 0., 0., 0.,
          1.61290320e-003, 0., 6.45161280e-003, 0., 1.45161292e-002, 0.,
          0., 0., 1.61290320e-003, 0., 1.61290320e-003, 1.61290320e-003,
          0., 0., 0., 1.61290320e-003, 0., 0., 0., 0., 1.61290320e-003,
          1.61290320e-003, 1.61290320e-003, 0., 0., 8.06451589e-003, 0.,
          0., 0., 0., 1.61290320e-003, 1.61290320e-003, 0.,
          1.61290320e-003, 0., 1.61290320e-003, 4.83870972e-003, 0.,
          1.61290320e-003, 4.83870972e-003, 0., 0., 1.61290320e-003,
          3.22580640e-003, 0., 0., 0., 0., 0., 3.22580640e-003,
          1.61290320e-003, 1.61290320e-003, 1.61290320e-003, 0., 0.,
          1.61290320e-003, 3.22580640e-003, 9.67741944e-003,
          1.61290320e-003, 6.45161280e-003, 0., 1.61290320e-003, 0., 0.,
          0., 3.22580640e-003, 1.61290320e-003, 0., 1.61290320e-003, 0.,
          0., 3.22580640e-003, 4.83870972e-003, 0., 0., 1.61290320e-003,
          6.45161280e-003, 0., 0., 0., 0., 0., 6.45161280e-003,
          1.61290320e-003, 1.61290320e-003, 0., 0., 0., 1.61290320e-003,
          0., 0., 0., 1.61290320e-003, 0., 6.45161280e-003, 0., 0., 0.,
          0., 1.29032256e-002, 0., 1.61290320e-003, 0., 0., 0.,
          1.61290320e-003, 0., 3.22580640e-003, 0., 3.22580640e-003,
          1.61290320e-003, 0., 0., 1.61290320e-003, 4.83870972e-003,
          1.61290320e-003, 1.61290320e-003, 0., 4.83870972e-003, 0., 0.,
          3.22580640e-003, 0., 0., 0., 4.83870972e-003, 3.22580640e-003,
          1.61290320e-003, 0., 0., 3.22580640e-003, 1.61290320e-003, 0.,
          0., 1.61290320e-003, 0., 3.22580640e-003, 0., 0., 0.,
          4.83870972e-003, 4.83870972e-003, 0., 0., 1.29032256e-002, 0.,
          6.45161280e-003, 0., 0., 1.61290320e-003, 1.61290320e-003,
          4.83870972e-003, 0., 0., 1.61290320e-003, 4.83870972e-003, 0.,
          3.22580640e-003, 0., 3.22580640e-003, 0., 0., 3.22580640e-003,
          1.61290320e-003, 3.22580640e-003, 3.22580640e-003,
          1.61290320e-003, 0., 0., 1.61290320e-003, 4.83870972e-003, 0.,
          6.45161280e-003, 0., 0., 6.45161280e-003, 3.22580640e-003, 0.,
          0., 3.22580640e-003, 0., 0., 0., 0., 0., 0., 0., 0.,
          1.61290320e-003, 0., 1.61290320e-003, 0., 0., 0.,
          1.61290320e-003, 1.61290320e-003, 0., 3.22580640e-003,
          1.61290320e-003, 0., 0., 0., 0., 0., 8.06451589e-003,
          1.29032256e-002, 1.61290320e-003, 0., 0., 0., 1.61290320e-003,
          1.61290320e-003, 4.83870972e-003, 0., 3.22580640e-003, 0.,
          6.45161280e-003, 0., 1.12903221e-002, 0., 0., 0.,
          3.22580640e-003, 0., 0., 0., 0., 1.61290320e-003,
          1.61290320e-003, 0., 3.22580640e-003, 6.45161280e-003, 0., 0.,
          0., 0., 1.61290320e-003, 0., 4.83870972e-003, 0.,
          3.22580640e-003, 1.61290320e-003, 1.61290320e-003, 0., 0.,
          3.38709690e-002, 3.22580640e-003, 0., 0., 0., 0., 0.,
          1.61290320e-003, 6.45161280e-003, 1.61290320e-003, 0.,
          1.61290320e-003, 0., 0., 0., 0., 0., 1.61290320e-003, 0. ]
      - [ 0., 0., 0., 5.52486209e-003, 0., 2.76243105e-003, 0., 0., 0.,
          0., 0., 2.76243105e-003, 0., 0., 2.76243105e-003,
          1.10497242e-002, 0., 0., 2.76243105e-003, 0., 0., 0.,
          1.38121555e-002, 2.76243105e-003, 0., 2.76243105e-003, 0.,
          2.76243105e-003, 0., 0., 2.76243105e-003, 0., 0.,
          5.52486209e-003, 0., 0., 2.76243105e-003, 0., 1.10497242e-002,
          0., 0., 0., 0., 2.76243105e-003, 0., 1.10497242e-002, 0., 0.,
          0., 0., 0., 2.76243105e-003, 0., 5.52486209e-003,
          2.76243105e-003, 0., 0., 0., 1.38121555e-002, 0.,
          2.76243105e-003, 0., 0., 1.10497242e-002, 0., 0., 0., 0.,
          2.76243105e-003, 0., 0., 0., 5.52486209e-003, 0., 0., 0.,
          2.76243105e-003, 0., 1.10497242e-002, 0., 0., 0., 0., 0.,
          2.76243105e-003, 2.76243105e-003, 0., 0., 0., 0., 0.,
          5.52486209e-003, 0., 0., 0., 0., 2.48618796e-002,
          2.76243105e-003, 0., 2.76243105e-003, 2.76243105e-003,
          2.76243105e-003, 2.76243105e-003, 0., 0., 0., 2.76243105e-003,
          0., 0., 0., 2.76243105e-003, 0., 2.76243105e-003, 0., 0., 0.,
          0., 2.76243105e-003, 0., 0., 0., 0., 0., 2.76243105e-003, 0.,
          0., 0., 0., 0., 0., 0., 0., 2.76243105e-003, 0., 0., 0.,
          2.76243105e-003, 0., 0., 0., 2.76243105e-003, 2.76243105e-003,
          0., 0., 2.20994484e-002, 5.52486209e-003, 0., 0., 0.,
          2.76243105e-003, 0., 0., 0., 2.76243105e-003, 5.52486209e-003,
          2.48618796e-002, 0., 2.76243105e-003, 0., 0., 0.,
          8.28729291e-003, 0., 2.76243105e-003, 2.76243105e-003, 0.,
          2.76243105e-003, 5.52486209e-003, 0., 0., 5.52486209e-003,
          1.10497242e-002, 2.76243105e-003, 0., 0., 0., 0.,
          2.76243105e-003, 2.76243105e-003, 0., 2.76243105e-003,
          5.52486209e-003, 0., 0., 2.76243105e-003, 0., 0., 0.,
          2.76243105e-003, 2.76243105e-003, 2.76243105e-003, 0., 0.,
          2.76243105e-003, 0., 2.76243105e-003, 0., 2.76243105e-003, 0.,
          0., 0., 0., 0., 0., 8.28729291e-003, 2.76243105e-003,
          2.76243105e-003, 0., 5.52486209e-003, 0., 0., 0.,
          2.76243105e-003, 0., 5.52486209e-003, 0., 1.93370171e-002,
          2.76243105e-003, 5.52486209e-003, 5.52486209e-003, 0.,
          2.76243105e-003, 0., 0., 0., 0., 0., 5.52486209e-003, 0., 0.,
          2.76243105e-003, 0., 0., 0., 0., 0., 0., 2.76243105e-003, 0.,
          2.76243105e-003, 0., 0., 2.76243105e-003, 0., 5.52486209e-003,
          2.76243105e-003, 0., 0., 2.76243105e-003, 8.28729291e-003, 0.,
          0., 0., 2.76243105e-003, 0., 1.10497242e-002, 0., 0., 0., 0.,
          0., 0., 0., 5.52486209e-003, 0., 2.76243105e-003, 0., 0., 0.,
          2.76243105e-003, 0., 1.38121555e-002, 0., 0., 0., 0., 0., 0.,
          0., 0., 2.76243105e-003, 5.52486209e-003, 0., 2.76243105e-003,
          1.65745858e-002, 0., 8.28729291e-003, 0., 0., 2.76243105e-003,
          0., 0., 0., 0., 0., 2.76243105e-003, 0., 0., 0., 0., 0., 0.,
          2.76243105e-003, 8.28729291e-003, 2.76243105e-003, 0.,
          2.76243105e-003, 0., 0., 0., 0., 2.76243105e-003, 0.,
          5.52486209e-003, 0., 2.76243105e-003, 0., 0., 0., 0.,
          2.76243105e-003, 0., 0., 2.76243105e-003, 2.76243105e-003,
          2.76243105e-003, 2.76243105e-003, 2.76243105e-003, 0., 0., 0.,
          0., 0., 0., 0., 8.28729291e-003, 0., 2.76243105e-003, 0., 0.,
          0., 0., 0., 0., 2.76243105e-003, 0., 0., 0., 0., 0., 0., 0.,
          0., 0., 0., 0., 0., 0., 5.52486209e-003, 2.76243105e-003,
          1.38121555e-002, 1.10497242e-002, 0., 0., 5.52486209e-003,
          5.52486209e-003, 2.76243105e-003, 0., 3.59116048e-002, 0., 0.,
          0., 0., 0., 8.28729291e-003, 0., 0., 0., 2.76243105e-003, 0.,
          0., 0., 0., 0., 5.52486209e-003, 0., 0., 0., 5.52486209e-003,
          0., 2.76243105e-003, 0., 0., 2.76243105e-003, 0., 0.,
          2.76243105e-003, 8.28729291e-003, 0., 2.76243105e-003, 0., 0.,
          0., 0., 0., 0., 0., 0., 0., 5.52486209e-003, 0., 0., 0.,
          2.76243105e-003, 0., 0., 0., 2.76243105e-003, 2.76243105e-003,
          0., 0., 0., 0., 2.76243105e-003, 2.76243105e-003,
          2.76243105e-003, 5.52486209e-003, 8.28729291e-003,
          5.52486209e-003, 2.76243105e-003, 0., 0., 0., 5.52486209e-003,
          0., 0., 2.76243105e-003, 0., 0., 0., 2.76243105e-003,
          1.38121555e-002, 0., 0., 0., 0., 2.76243105e-003,
          2.76243105e-003, 0., 1.10497242e-002, 2.76243105e-003,
          5.52486209e-003, 5.52486209e-003, 0., 2.76243105e-003,
          8.28729291e-003, 0., 2.76243105e-003, 0., 0., 0., 0., 0.,
          2.76243105e-003, 0., 0., 2.76243105e-003, 5.52486209e-003,
          2.76243105e-003, 2.76243105e-003, 2.76243105e-003,
          2.76243105e-003, 0., 0., 0., 2.76243105e-003, 0., 0., 0., 0.,
          2.76243105e-003, 0., 0., 0., 0., 0., 0., 0., 0., 0.,
          2.76243105e-003, 0., 0., 0., 0., 8.28729291e-003, 0., 0., 0.,
          0., 0., 0., 0., 5.52486209e-003, 5.52486209e-003, 0., 0., 0.,
          0., 0., 0., 0., 1.10497242e-002, 0., 0., 5.52486209e-003, 0.,
          0., 0., 0., 0., 0., 0., 5.52486209e-003, 2.76243105e-003, 0.,
          0., 0., 2.76243105e-003, 0., 5.52486209e-003, 0., 0., 0.,
          5.52486209e-003, 0., 0., 0., 0., 0., 0., 0., 0., 0.,
          2.76243105e-003, 0., 5.52486209e-003, 0., 0., 0.,
          2.76243105e-003, 0., 0., 0., 0., 5.52486209e-003, 0., 0., 0.,
          0., 0., 2.76243105e-003, 0., 0., 0., 0., 0., 0.,
          2.76243105e-003, 5.52486209e-003, 0., 0., 0., 2.76243105e-003,
          2.76243105e-003, 0., 0., 8.28729291e-003, 5.52486209e-003, 0.,
          0., 0., 1.38121555e-002, 0., 0., 0., 0., 0., 0., 0., 0., 0.,
          0., 1.10497242e-002, 0., 0., 0., 0., 2.76243105e-003, 0. ]
      - [ 6.68896316e-003, 0., 0., 0., 0., 0., 1.67224079e-003, 0., 0.,
          0., 0., 1.67224079e-003, 0., 0., 5.01672225e-003,
          5.01672225e-003, 1.67224079e-003, 1.67224079e-003,
          3.34448158e-003, 0., 0., 0., 1.67224079e-003, 3.34448158e-003,
          1.67224079e-003, 0., 0., 0., 0., 0., 3.34448158e-003, 0., 0.,
          1.67224079e-003, 0., 3.34448158e-003, 3.34448158e-003, 0., 0.,
          1.67224079e-003, 0., 1.67224079e-003, 0., 0., 1.67224079e-003,
          1.67224079e-003, 0., 0., 0., 0., 0., 1.67224079e-003, 0.,
          6.68896316e-003, 0., 0., 0., 6.68896316e-003, 0., 0.,
          3.34448158e-003, 0., 0., 1.67224079e-003, 1.67224079e-003,
          6.68896316e-003, 3.34448158e-003, 0., 0., 0., 0., 0., 0.,
          3.34448158e-003, 3.34448158e-003, 1.67224079e-003, 0., 0.,
          5.01672225e-003, 0., 0., 0., 0., 0., 0., 1.67224079e-003,
          1.67224079e-003, 5.01672225e-003, 0., 0., 0., 0., 0., 0., 0.,
          1.67224079e-003, 3.34448158e-003, 0., 1.67224079e-003, 0.,
          1.67224079e-003, 0., 0., 0., 0., 1.67224079e-003, 0., 0., 0.,
          0., 3.34448158e-003, 0., 0., 0., 0., 0., 0., 1.67224079e-003,
          0., 0., 0., 0., 3.34448158e-003, 1.67224079e-003, 0., 0., 0.,
          0., 0., 0., 0., 0., 0., 1.67224079e-003, 0., 0.,
          1.67224079e-003, 0., 0., 1.67224079e-003, 0., 1.67224079e-003,
          1.67224079e-003, 0., 3.34448158e-003, 3.34448158e-003, 0.,
          3.34448158e-003, 1.67224079e-003, 1.67224079e-003, 0., 0., 0.,
          0., 0., 1.67224079e-003, 1.67224079e-003, 0., 0., 0., 0., 0.,
          6.68896316e-003, 1.67224079e-003, 1.67224079e-003, 0., 0., 0.,
          6.68896316e-003, 0., 6.68896316e-003, 1.00334445e-002, 0., 0.,
          0., 0., 0., 0., 0., 1.67224079e-003, 0., 2.00668890e-002, 0.,
          0., 1.67224079e-003, 0., 0., 1.83946490e-002, 0., 0., 0., 0.,
          1.67224079e-003, 3.34448158e-003, 1.67224079e-003,
          1.67224079e-003, 0., 5.01672225e-003, 0., 1.67224079e-003, 0.,
          1.67224079e-003, 0., 0., 1.67224072e-002, 0., 0.,
          3.34448158e-003, 0., 0., 0., 0., 5.01672225e-003, 0.,
          1.67224079e-003, 3.34448158e-003, 8.36120360e-003, 0., 0.,
          3.34448158e-003, 0., 1.67224079e-003, 1.67224079e-003, 0.,
          1.67224079e-003, 0., 0., 1.67224079e-003, 0., 3.34448158e-003,
          1.67224079e-003, 3.34448158e-003, 0., 0., 0., 1.67224079e-003,
          3.34448158e-003, 1.67224079e-003, 3.34448158e-003, 0.,
          1.67224079e-003, 5.01672225e-003, 0., 0., 0., 6.68896316e-003,
          0., 0., 8.36120360e-003, 1.67224079e-003, 1.67224079e-003,
          3.34448158e-003, 1.67224079e-003, 0., 0., 8.36120360e-003,
          1.67224079e-003, 1.67224079e-003, 5.01672225e-003,
          3.34448158e-003, 0., 0., 0., 5.01672225e-003, 0., 0., 0.,
          1.67224079e-003, 5.01672225e-003, 0., 3.34448158e-003,
          6.68896316e-003, 0., 0., 1.67224079e-003, 0., 3.34448158e-003,
          0., 0., 0., 1.00334445e-002, 0., 0., 1.67224079e-003,
          5.01672225e-003, 3.34448158e-003, 1.67224079e-003, 0., 0., 0.,
          0., 0., 0., 0., 0., 3.34448158e-003, 0., 5.01672225e-003,
          1.67224079e-003, 0., 1.67224079e-003, 0., 0., 0.,
          1.67224079e-003, 0., 1.67224079e-003, 0., 1.67224079e-003, 0.,
          5.01672225e-003, 0., 3.34448158e-003, 3.34448158e-003, 0., 0.,
          0., 0., 1.67224079e-003, 0., 0., 0., 1.67224079e-003,
          1.50501672e-002, 3.34448158e-003, 0., 1.67224079e-003,
          5.01672225e-003, 1.67224079e-003, 5.01672225e-003,
          5.01672225e-003, 0., 0., 0., 5.01672225e-003, 1.00334445e-002,
          6.68896316e-003, 0., 1.67224079e-003, 0., 0., 3.34448158e-003,
          0., 0., 1.67224079e-003, 3.34448158e-003, 5.01672225e-003,
          1.67224079e-003, 0., 0., 0., 1.67224079e-003, 1.67224079e-003,
          1.67224079e-003, 0., 0., 0., 5.01672225e-003, 3.34448158e-003,
          6.68896316e-003, 1.67224079e-003, 0., 1.67224079e-003,
          3.34448158e-003, 0., 3.34448158e-003, 0., 0., 0., 0., 0.,
          3.34448158e-003, 0., 0., 1.67224079e-003, 1.67224079e-003,
          3.34448158e-003, 0., 0., 1.67224079e-003, 0., 1.67224079e-003,
          0., 0., 0., 1.67224079e-003, 0., 0., 6.68896316e-003, 0., 0.,
          1.67224079e-003, 0., 0., 0., 1.67224079e-003, 1.67224079e-003,
          3.34448158e-003, 0., 0., 1.67224079e-003, 0., 5.01672225e-003,
          0., 5.01672225e-003, 0., 0., 1.67224079e-003, 0., 0.,
          1.67224079e-003, 0., 0., 0., 4.01337780e-002, 4.34782617e-002,
          0., 0., 1.67224079e-003, 0., 0., 0., 0., 5.01672225e-003,
          1.67224079e-003, 0., 3.17725763e-002, 1.67224079e-003,
          3.34448158e-003, 0., 0., 0., 0., 1.67224079e-003, 0., 0.,
          1.67224079e-003, 1.67224072e-002, 0., 3.34448158e-003, 0.,
          3.34448158e-003, 0., 0., 0., 3.34448158e-003, 0., 0., 0.,
          3.34448158e-003, 0., 1.67224079e-003, 0., 3.34448158e-003,
          3.34448158e-003, 0., 0., 8.36120360e-003, 0., 1.67224079e-003,
          0., 0., 1.67224079e-003, 0., 1.67224079e-003, 0.,
          3.34448158e-003, 0., 0., 1.67224079e-003, 0., 0., 0., 0., 0.,
          3.34448158e-003, 0., 3.34448158e-003, 1.67224079e-003,
          1.67224079e-003, 6.68896316e-003, 0., 1.67224079e-003,
          1.67224079e-003, 0., 1.67224079e-003, 3.34448158e-003,
          3.34448158e-003, 1.67224079e-003, 1.67224079e-003,
          2.34113708e-002, 0., 0., 1.67224079e-003, 3.34448158e-003, 0.,
          0., 0., 1.67224079e-003, 0., 0., 0., 0., 8.36120360e-003, 0.,
          1.67224079e-003, 0., 1.67224079e-003, 0., 0., 0.,
          1.67224079e-003, 1.33779263e-002, 0., 0., 6.68896316e-003, 0.,
          0., 0., 8.36120360e-003, 0., 0., 1.67224079e-003,
          1.67224079e-003, 0., 0., 0., 0., 1.67224079e-003, 0., 0., 0.,
          1.67224079e-003, 0., 8.36120360e-003, 1.67224079e-003, 0.,
          5.01672225e-003, 0., 3.34448158e-003, 1.67224079e-003,
          6.68896316e-003, 0., 1.67224079e-003, 0., 5.01672225e-003, 0.,
          1.67224079e-003, 0., 0., 0., 0., 6.68896316e-003, 0.,
          3.34448158e-003, 0., 0., 1.67224079e-003, 3.34448158e-003,
          1.67224079e-003, 0., 8.36120360e-003, 1.67224079e-003,
          1.67224079e-003, 0., 0., 0., 0., 0., 1.67224079e-003, 0., 0.,
          0., 1.67224079e-003, 6.68896316e-003, 0., 5.01672225e-003,
          1.67224079e-003, 5.01672225e-003, 0., 0., 0., 1.00334445e-002,
          1.67224079e-003, 0., 0., 0., 0., 1.67224079e-003,
          1.67224079e-003, 1.67224079e-003, 1.67224079e-003, 0., 0., 0.,
          3.34448158e-003, 0., 0., 3.34448158e-003, 0. ]
      - [ 0., 0., 3.58851673e-003, 2.39234441e-003, 0., 1.19617220e-003,
          0., 3.58851673e-003, 3.58851673e-003, 3.58851673e-003,
          2.63157878e-002, 0., 1.19617220e-003, 0., 1.19617220e-003,
          1.19617220e-003, 0., 1.19617220e-003, 2.39234441e-003, 0., 0.,
          7.17703346e-003, 4.78468882e-003, 2.39234441e-003, 0., 0., 0.,
          7.17703346e-003, 0., 0., 1.19617220e-003, 0., 0.,
          1.19617220e-003, 2.39234441e-003, 0., 0., 1.19617220e-003, 0.,
          0., 0., 0., 2.39234441e-003, 1.19617220e-003, 0.,
          1.19617220e-003, 0., 1.19617220e-003, 0., 1.55502390e-002, 0.,
          0., 3.58851673e-003, 1.19617220e-003, 2.39234441e-003,
          5.98086091e-003, 0., 0., 0., 0., 5.98086091e-003, 0., 0., 0.,
          3.58851673e-003, 9.56937764e-003, 0., 0., 4.78468882e-003, 0.,
          0., 1.19617220e-003, 0., 1.19617220e-003, 5.98086091e-003, 0.,
          0., 0., 4.78468882e-003, 0., 0., 5.98086091e-003, 0.,
          1.19617220e-003, 0., 2.39234441e-003, 0., 0., 4.78468882e-003,
          1.19617220e-003, 0., 0., 1.19617220e-003, 0., 0., 0.,
          1.19617220e-003, 5.98086091e-003, 0., 1.19617220e-003, 0.,
          1.19617220e-003, 0., 1.19617220e-003, 1.19617220e-003,
          1.19617220e-003, 0., 8.37320555e-003, 0., 1.19617220e-003, 0.,
          1.19617220e-003, 4.78468882e-003, 0., 0., 0., 2.39234441e-003,
          0., 7.17703346e-003, 0., 2.39234441e-003, 1.19617220e-003,
          3.58851673e-003, 0., 0., 0., 1.19617220e-003, 1.19617220e-003,
          2.39234441e-003, 1.19617220e-003, 1.19617220e-003, 0.,
          4.78468882e-003, 0., 4.78468882e-003, 0., 4.78468882e-003,
          1.19617220e-003, 0., 1.19617220e-003, 1.19617220e-003, 0., 0.,
          1.19617220e-003, 5.98086091e-003, 0., 0., 3.58851673e-003, 0.,
          1.19617220e-003, 2.39234441e-003, 9.56937764e-003, 0., 0.,
          4.78468882e-003, 0., 1.19617220e-003, 1.19617220e-003,
          2.39234441e-003, 1.19617220e-003, 3.58851673e-003,
          1.19617220e-003, 0., 5.98086091e-003, 1.19617220e-003, 0., 0.,
          0., 0., 7.17703346e-003, 1.19617220e-003, 0., 0.,
          2.39234441e-003, 0., 1.19617220e-003, 0., 1.19617220e-003,
          8.37320555e-003, 2.39234441e-003, 1.19617220e-003, 0.,
          1.19617220e-003, 0., 3.58851673e-003, 1.19617220e-003,
          3.58851673e-003, 0., 0., 2.39234441e-003, 1.19617220e-003,
          2.39234441e-003, 2.39234441e-003, 1.19617220e-003, 0., 0., 0.,
          0., 1.19617220e-003, 1.19617220e-003, 0., 0., 1.31578939e-002,
          0., 2.39234441e-003, 1.19617220e-003, 5.98086091e-003, 0.,
          7.17703346e-003, 1.19617220e-003, 0., 2.39234441e-003, 0.,
          1.19617220e-003, 4.78468882e-003, 2.39234441e-003,
          7.17703346e-003, 2.39234441e-003, 2.39234441e-003,
          2.39234441e-003, 1.19617220e-003, 2.39234441e-003,
          2.39234441e-003, 0., 0., 2.39234441e-003, 1.19617220e-003,
          1.19617220e-003, 1.19617220e-003, 2.39234441e-003,
          2.39234441e-003, 1.19617220e-003, 0., 3.58851673e-003, 0.,
          3.58851673e-003, 0., 0., 0., 1.19617220e-003, 3.58851673e-003,
          2.39234441e-003, 2.39234441e-003, 0., 1.19617220e-003,
          1.19617220e-003, 0., 1.19617220e-003, 0., 1.19617220e-003,
          2.39234441e-003, 0., 3.58851673e-003, 2.39234441e-003,
          7.17703346e-003, 2.39234441e-003, 1.19617220e-003,
          2.39234441e-003, 2.39234441e-003, 0., 1.19617220e-003, 0.,
          4.78468882e-003, 0., 5.98086091e-003, 0., 0., 1.19617220e-003,
          0., 8.37320555e-003, 0., 0., 1.19617220e-003, 3.58851673e-003,
          0., 2.39234441e-003, 0., 8.37320555e-003, 2.39234441e-003,
          4.78468882e-003, 0., 2.39234441e-003, 5.98086091e-003,
          1.19617220e-003, 0., 0., 2.39234441e-003, 0., 0.,
          1.19617220e-003, 0., 1.19617220e-003, 2.39234441e-003, 0., 0.,
          1.19617220e-003, 1.19617220e-003, 3.58851673e-003,
          1.19617220e-003, 0., 0., 0., 0., 0., 3.58851673e-003, 0.,
          1.19617220e-003, 1.19617220e-003, 1.19617220e-003,
          1.07655497e-002, 7.17703346e-003, 1.19617220e-003,
          1.19617220e-003, 2.39234441e-003, 0., 1.19617220e-003, 0.,
          1.19617220e-003, 4.78468882e-003, 4.78468882e-003,
          3.58851673e-003, 1.19617220e-003, 1.19617220e-003, 0.,
          4.78468882e-003, 2.39234441e-003, 0., 1.19617220e-003, 0., 0.,
          0., 1.19617220e-003, 2.39234441e-003, 1.19617220e-003,
          3.58851673e-003, 0., 2.39234441e-003, 2.39234441e-003,
          2.39234441e-003, 0., 0., 0., 3.58851673e-003, 1.19617220e-003,
          0., 2.39234441e-003, 2.39234441e-003, 2.39234441e-003, 0., 0.,
          4.78468882e-003, 1.19617220e-003, 0., 4.78468882e-003, 0.,
          4.78468882e-003, 1.19617220e-003, 0., 1.19617220e-003,
          2.39234441e-003, 5.98086091e-003, 7.17703346e-003, 0., 0., 0.,
          2.39234441e-003, 0., 1.19617220e-003, 0., 1.19617220e-003,
          4.78468882e-003, 1.19617220e-003, 0., 0., 0., 0., 0.,
          1.19617220e-003, 0., 1.19617220e-003, 0., 0., 1.19617220e-003,
          2.39234441e-003, 1.19617220e-003, 0., 0., 4.78468882e-003,
          1.19617218e-002, 5.98086091e-003, 1.79425832e-002,
          1.19617220e-003, 0., 0., 0., 0., 1.19617220e-003,
          4.78468882e-003, 0., 1.19617220e-003, 0., 0., 2.39234441e-003,
          0., 0., 0., 0., 0., 2.39234441e-003, 1.19617220e-003,
          2.39234441e-003, 7.17703346e-003, 0., 3.58851673e-003,
          2.39234441e-003, 0., 1.19617220e-003, 0., 0., 2.39234441e-003,
          0., 1.19617220e-003, 2.39234441e-003, 1.19617220e-003,
          1.19617220e-003, 0., 3.58851673e-003, 0., 0., 3.58851673e-003,
          0., 0., 2.39234441e-003, 0., 2.39234441e-003, 0., 0., 0., 0.,
          0., 5.98086091e-003, 0., 2.39234441e-003, 2.39234441e-003,
          2.39234441e-003, 0., 0., 0., 0., 1.19617220e-003, 0.,
          1.43540669e-002, 5.98086091e-003, 7.17703346e-003, 0., 0., 0.,
          1.19617220e-003, 0., 3.58851673e-003, 0., 0., 1.19617220e-003,
          0., 1.19617220e-003, 0., 1.19617220e-003, 3.58851673e-003, 0.,
          0., 7.17703346e-003, 1.07655497e-002, 0., 0., 1.19617220e-003,
          0., 1.19617220e-003, 2.39234441e-003, 0., 0., 0.,
          1.19617220e-003, 0., 0., 1.19617220e-003, 0., 2.39234441e-003,
          0., 0., 1.19617220e-003, 0., 0., 0., 1.19617220e-003, 0.,
          3.58851673e-003, 1.19617220e-003, 1.19617220e-003, 0.,
          4.78468882e-003, 0., 0., 0., 1.19617220e-003, 0., 0.,
          1.19617220e-003, 0., 0., 5.98086091e-003, 0., 0.,
          2.39234441e-003, 0., 0., 0., 2.39234441e-003, 1.19617220e-003,
          1.19617220e-003, 2.39234441e-003, 0., 0., 1.19617220e-003,
          2.39234441e-003, 0., 0., 1.19617220e-003, 1.19617220e-003,
          2.39234441e-003, 4.78468882e-003, 3.58851673e-003, 0., 0.,
          1.19617220e-003, 0., 0., 0., 0., 5.98086091e-003,
          1.19617220e-003, 1.19617220e-003, 0., 0., 1.19617220e-003,
          3.58851673e-003, 0., 5.98086091e-003, 1.19617220e-003, 0., 0.,
          3.58851673e-003, 1.79425832e-002, 1.19617220e-003,
          2.39234441e-003, 0., 1.19617220e-003, 0., 0., 1.19617220e-003,
          0., 0., 0., 7.17703346e-003, 0., 1.07655497e-002,
          2.39234441e-003, 1.19617220e-003, 0., 0., 5.98086091e-003, 0.,
          1.19617220e-003, 0., 1.19617220e-003, 0., 0., 0.,
          2.39234441e-003, 0., 1.19617220e-003, 1.19617220e-003, 0.,
          1.19617220e-003, 1.19617220e-003, 0., 2.03349274e-002,
          2.39234441e-003, 2.39234441e-003, 0., 3.58851673e-003, 0.,
          3.58851673e-003, 0., 0., 0., 0., 0., 3.58851673e-003,
          2.39234441e-003, 0. ]
      - [ 0., 2.51256279e-003, 0., 0., 1.25628139e-003, 1.25628139e-003,
          0., 2.51256279e-003, 1.25628139e-003, 1.25628139e-003,
          1.25628139e-003, 1.25628139e-003, 1.25628139e-003, 0.,
          3.76884406e-003, 0., 1.25628139e-003, 0., 1.25628142e-002, 0.,
          0., 0., 0., 2.51256279e-003, 0., 0., 1.25628139e-003, 0., 0.,
          0., 0., 0., 1.00502511e-002, 0., 0., 2.51256279e-003,
          1.25628139e-003, 0., 0., 0., 2.51256279e-003, 1.25628139e-003,
          0., 1.25628139e-003, 3.76884406e-003, 3.76884406e-003, 0., 0.,
          0., 0., 0., 0., 0., 1.25628139e-003, 1.25628139e-003, 0.,
          1.25628139e-003, 1.25628139e-003, 0., 0., 3.51758786e-002,
          2.51256279e-003, 0., 1.25628139e-003, 0., 0., 0., 0., 0., 0.,
          0., 2.51256279e-003, 3.76884406e-003, 0., 3.76884406e-003,
          2.51256279e-003, 1.25628139e-003, 1.25628139e-003,
          5.02512557e-003, 0., 0., 0., 0., 0., 0., 2.51256279e-003,
          1.25628139e-003, 0., 0., 0., 2.51256279e-003, 2.51256279e-003,
          0., 0., 2.51256279e-003, 0., 2.51256279e-003, 2.51256279e-003,
          0., 1.25628139e-003, 1.00502511e-002, 5.02512557e-003, 0., 0.,
          2.51256279e-003, 3.76884406e-003, 0., 0., 0., 2.51256279e-003,
          2.51256279e-003, 0., 0., 3.76884406e-003, 0., 7.53768813e-003,
          1.25628139e-003, 0., 0., 3.76884406e-003, 0., 0.,
          1.25628139e-003, 1.25628139e-003, 1.25628139e-003, 0.,
          6.28140708e-003, 1.25628139e-003, 0., 2.26130653e-002, 0., 0.,
          0., 2.51256279e-003, 1.25628139e-003, 1.25628139e-003, 0.,
          1.25628139e-003, 0., 2.51256279e-003, 1.25628139e-003,
          1.25628139e-003, 0., 0., 2.51256279e-003, 1.25628139e-003,
          1.25628139e-003, 0., 0., 0., 1.25628139e-003, 0., 0.,
          1.25628139e-003, 0., 1.25628139e-003, 0., 2.51256279e-003,
          1.38190957e-002, 0., 0., 0., 1.25628139e-003, 0.,
          2.51256279e-003, 2.51256279e-003, 2.51256279e-003, 0., 0.,
          2.51256279e-003, 1.25628139e-003, 1.25628139e-003, 0., 0., 0.,
          0., 0., 0., 3.76884406e-003, 2.51256279e-003, 1.25628142e-002,
          2.51256279e-003, 2.26130653e-002, 1.25628139e-003, 0.,
          2.51256279e-003, 1.25628139e-003, 3.76884406e-003,
          1.25628139e-003, 1.25628139e-003, 1.25628139e-003, 0.,
          1.25628139e-003, 3.76884406e-003, 0., 0., 2.51256279e-003,
          1.25628139e-003, 6.28140708e-003, 0., 2.51256279e-003,
          1.25628139e-003, 0., 2.51256279e-003, 2.51256279e-003,
          1.25628139e-003, 0., 0., 1.25628142e-002, 0., 0., 0.,
          2.63819098e-002, 0., 3.76884406e-003, 1.25628139e-003, 0.,
          2.51256279e-003, 0., 1.25628139e-003, 0., 2.51256279e-003,
          6.28140708e-003, 5.02512557e-003, 0., 0., 0., 7.53768813e-003,
          1.25628139e-003, 0., 0., 0., 0., 0., 1.25628139e-003, 0., 0.,
          6.28140708e-003, 2.51256279e-003, 0., 5.02512557e-003,
          1.25628139e-003, 0., 0., 1.25628139e-003, 0., 0., 0.,
          7.53768813e-003, 1.25628139e-003, 0., 2.51256279e-003, 0., 0.,
          0., 0., 2.51256279e-003, 1.25628139e-003, 1.25628139e-003,
          1.25628139e-003, 1.25628139e-003, 0., 0., 5.02512557e-003, 0.,
          3.76884406e-003, 0., 0., 0., 0., 1.25628139e-003,
          1.25628139e-003, 0., 0., 0., 1.25628139e-003, 0., 0., 0., 0.,
          1.25628142e-002, 0., 0., 0., 3.76884406e-003, 5.02512557e-003,
          3.76884406e-003, 0., 0., 0., 3.76884406e-003, 0.,
          5.02512557e-003, 0., 0., 5.02512557e-003, 0., 0.,
          3.76884406e-003, 0., 0., 0., 1.25628139e-003, 7.53768813e-003,
          0., 0., 7.53768813e-003, 1.00502511e-002, 0., 0., 0.,
          1.25628139e-003, 0., 2.51256279e-003, 0., 1.25628139e-003, 0.,
          3.76884406e-003, 1.25628139e-003, 0., 0., 1.25628139e-003, 0.,
          2.51256279e-003, 0., 3.76884406e-003, 1.25628139e-003,
          1.25628139e-003, 3.76884406e-003, 1.25628139e-003,
          5.02512557e-003, 1.25628139e-003, 1.25628139e-003,
          2.51256279e-003, 0., 1.25628139e-003, 0., 0., 0.,
          2.51256279e-003, 3.76884406e-003, 2.51256279e-003,
          3.76884406e-003, 0., 1.25628139e-003, 0., 1.25628139e-003,
          1.25628139e-003, 0., 0., 1.25628139e-003, 0., 1.25628139e-003,
          2.38693468e-002, 0., 0., 0., 2.51256279e-003, 0.,
          1.25628139e-003, 1.25628139e-003, 0., 0., 0., 0.,
          1.25628139e-003, 6.28140708e-003, 0., 0., 0., 0., 0.,
          1.25628139e-003, 0., 1.25628139e-003, 1.25628139e-003, 0., 0.,
          1.25628139e-003, 0., 1.25628139e-003, 0., 0., 1.25628139e-003,
          3.76884406e-003, 3.76884406e-003, 0., 0., 0., 0.,
          3.76884406e-003, 0., 5.02512557e-003, 1.25628142e-002,
          1.25628139e-003, 1.25628139e-003, 1.25628139e-003,
          1.25628139e-003, 0., 1.25628139e-003, 0., 1.25628139e-003,
          2.51256279e-003, 0., 0., 1.25628139e-003, 1.25628139e-003,
          2.51256279e-003, 1.25628139e-003, 0., 0., 0., 0.,
          1.25628139e-003, 2.51256279e-003, 0., 3.76884406e-003, 0.,
          1.25628139e-003, 3.76884406e-003, 0., 0., 0., 1.13065327e-002,
          3.76884406e-003, 2.51256279e-003, 1.25628139e-003,
          2.51256279e-003, 6.28140708e-003, 0., 3.76884406e-003, 0., 0.,
          2.51256279e-003, 1.25628139e-003, 1.25628139e-003, 0., 0., 0.,
          1.25628139e-003, 0., 0., 1.25628139e-003, 1.25628139e-003, 0.,
          7.53768813e-003, 1.25628139e-003, 0., 0., 2.51256279e-003, 0.,
          0., 3.76884406e-003, 0., 7.53768813e-003, 0., 0.,
          1.25628139e-003, 0., 1.25628139e-003, 2.51256279e-003, 0.,
          1.25628139e-003, 0., 0., 0., 0., 1.25628139e-003, 0., 0., 0.,
          0., 0., 0., 0., 0., 1.25628139e-003, 2.51256279e-003,
          1.25628139e-003, 2.51256279e-003, 2.51256279e-003, 0.,
          3.76884406e-003, 7.53768813e-003, 1.25628139e-003, 0., 0., 0.,
          0., 0., 2.51256279e-003, 0., 0., 0., 1.25628139e-003, 0., 0.,
          0., 0., 2.51256279e-003, 0., 0., 0., 0., 0., 1.25628139e-003,
          2.51256279e-003, 3.76884406e-003, 1.25628139e-003,
          1.25628139e-003, 2.51256279e-003, 1.25628139e-003,
          6.28140708e-003, 0., 6.28140708e-003, 1.25628139e-003, 0.,
          1.25628139e-003, 0., 0., 1.25628139e-003, 0., 2.51256279e-003,
          2.51256279e-003, 5.02512557e-003, 0., 0., 0., 1.25628139e-003,
          0., 2.51256279e-003, 0., 0., 0., 3.76884406e-003,
          2.88944729e-002, 0., 2.51256279e-003, 0., 1.88442208e-002,
          3.76884406e-003, 0., 1.25628139e-003, 0., 0., 0.,
          2.51256279e-003, 0., 0., 1.25628139e-003, 3.76884406e-003, 0.,
          2.51256279e-003, 2.51256279e-003, 2.51256279e-003, 0., 0., 0.,
          6.28140708e-003, 0., 0., 2.51256279e-003, 0., 0., 0., 0.,
          2.51256279e-003, 5.02512557e-003, 2.51256279e-003,
          1.25628139e-003, 0., 3.26633155e-002, 3.76884406e-003,
          5.02512557e-003, 1.25628139e-003, 0., 0., 0., 2.51256279e-003,
          7.53768813e-003, 0., 1.25628139e-003, 2.51256279e-003, 0., 0.,
          0., 1.25628139e-003, 0., 1.25628139e-003, 0., 3.76884406e-003,
          0., 0., 0., 0., 1.25628139e-003, 1.25628139e-003, 0., 0., 0. ]
      - [ 1.93986425e-003, 0., 0., 9.69932124e-004, 4.84966062e-004, 0.,
          4.84966062e-004, 4.84966062e-004, 0., 1.45489816e-003,
          4.84966062e-004, 0., 4.84966062e-004, 3.39476252e-003,
          1.45489816e-003, 0., 4.84966062e-004, 3.87972849e-003,
          4.84966062e-004, 0., 0., 9.69932124e-004, 0., 1.93986425e-003,
          9.69932124e-004, 1.93986425e-003, 1.45489816e-003,
          9.69932124e-004, 1.93986425e-003, 0., 3.87972849e-003, 0.,
          4.84966062e-004, 0., 3.39476252e-003, 4.84966062e-004,
          1.45489816e-003, 0., 1.45489816e-003, 4.84966062e-004,
          1.45489816e-003, 3.39476252e-003, 0., 1.93986425e-003,
          1.93986425e-003, 4.84966062e-004, 2.42483034e-003,
          1.93986425e-003, 2.90979631e-003, 0., 0., 4.84966062e-004, 0.,
          4.36469447e-003, 0., 0., 1.45489816e-003, 1.93986425e-003, 0.,
          9.69932124e-004, 1.93986425e-003, 1.45489816e-003, 0., 0.,
          5.81959262e-003, 6.78952504e-003, 1.93986425e-003,
          4.84966062e-004, 1.45489816e-003, 0., 0., 4.84966062e-004,
          4.84966068e-003, 1.45489816e-003, 1.93986425e-003,
          4.36469447e-003, 4.84966062e-004, 2.42483034e-003,
          7.75945699e-003, 9.69932124e-004, 1.93986425e-003,
          4.84966062e-004, 9.69932124e-004, 0., 1.93986425e-003,
          9.69932124e-004, 1.45489816e-003, 1.93986425e-003,
          1.45489816e-003, 3.39476252e-003, 1.93986425e-003,
          1.45489816e-003, 1.93986425e-003, 0., 1.93986425e-003,
          1.93986425e-003, 1.45489816e-003, 4.36469447e-003,
          4.84966062e-004, 1.45489816e-003, 9.69932124e-004,
          1.45489816e-003, 1.45489816e-003, 2.42483034e-003,
          1.93986425e-003, 1.45489816e-003, 5.81959262e-003,
          2.42483034e-003, 0., 4.84966062e-004, 1.93986425e-003,
          2.42483034e-003, 4.84966062e-004, 4.84966062e-004, 0.,
          2.90979631e-003, 1.93986425e-003, 4.84966062e-004,
          4.84966062e-004, 0., 4.84966062e-004, 1.45489816e-003,
          4.84966062e-004, 3.87972849e-003, 4.36469447e-003,
          1.45489816e-003, 1.45489816e-003, 9.69932124e-004, 0.,
          1.45489816e-003, 2.42483034e-003, 0., 0., 1.93986425e-003,
          4.84966062e-004, 1.45489816e-003, 2.42483034e-003,
          9.69932124e-004, 0., 9.69932124e-004, 2.90979631e-003,
          2.90979631e-003, 4.84966068e-003, 1.93986425e-003,
          1.45489816e-003, 1.45489816e-003, 1.45489816e-003,
          3.39476252e-003, 9.69932124e-004, 4.84966062e-004,
          4.84966062e-004, 2.42483034e-003, 1.45489816e-003,
          4.84966062e-004, 0., 9.69932124e-004, 1.45489816e-003,
          5.33462688e-003, 1.45489816e-003, 9.69932124e-004,
          2.42483034e-003, 0., 1.45489816e-003, 2.42483034e-003,
          9.69932124e-004, 3.87972849e-003, 1.45489816e-003,
          1.93986425e-003, 9.69932124e-004, 1.93986425e-003,
          4.84966068e-003, 0., 2.90979631e-003, 2.90979631e-003,
          9.69932124e-004, 0., 0., 2.90979631e-003, 1.45489816e-003,
          2.90979631e-003, 2.90979631e-003, 3.39476252e-003,
          6.30455883e-003, 3.87972849e-003, 0., 9.69932124e-004,
          1.93986425e-003, 3.87972849e-003, 1.45489816e-003,
          2.42483034e-003, 9.69932124e-004, 1.45489816e-003,
          1.93986425e-003, 7.27449078e-003, 4.36469447e-003, 0.,
          4.36469447e-003, 4.84966062e-004, 2.90979631e-003,
          4.84966062e-004, 9.69932124e-004, 2.90979631e-003, 0.,
          1.45489816e-003, 4.84966062e-004, 4.84966068e-003,
          9.69932135e-003, 3.87972849e-003, 6.30455883e-003,
          1.45489816e-003, 0., 2.42483034e-003, 1.45489816e-003,
          4.84966062e-004, 1.45489816e-003, 1.45489816e-003, 0.,
          1.45489816e-003, 4.84966062e-004, 2.42483034e-003,
          9.69932124e-004, 4.84966062e-004, 4.84966062e-004, 0., 0.,
          4.84966062e-004, 9.69932124e-004, 3.39476252e-003, 0.,
          2.90979631e-003, 4.84966062e-004, 9.69932124e-004,
          4.84966062e-004, 2.90979631e-003, 9.69932124e-004,
          4.84966068e-003, 4.84966062e-004, 1.93986425e-003,
          1.45489816e-003, 3.39476252e-003, 4.84966062e-004,
          9.69932124e-004, 4.84966062e-004, 0., 2.90979631e-003,
          4.84966062e-004, 2.90979631e-003, 1.45489816e-003,
          2.42483034e-003, 9.69932124e-004, 4.84966062e-004,
          4.36469447e-003, 9.69932124e-004, 2.90979631e-003, 0.,
          4.84966062e-004, 3.87972849e-003, 1.93986425e-003,
          2.42483034e-003, 1.93986425e-003, 0., 2.90979631e-003,
          1.45489816e-003, 4.84966062e-004, 0., 9.69932124e-004,
          9.69932124e-004, 4.84966062e-004, 4.36469447e-003,
          4.36469447e-003, 3.39476252e-003, 0., 9.69932124e-004,
          1.93986425e-003, 0., 4.36469447e-003, 1.45489816e-003, 0., 0.,
          2.90979631e-003, 3.39476252e-003, 4.84966062e-004, 0.,
          4.84966062e-004, 1.45489816e-003, 0., 2.42483034e-003,
          1.93986425e-003, 4.84966062e-004, 4.84966062e-004,
          9.69932124e-004, 1.93986425e-003, 9.69932124e-004, 0.,
          4.84966068e-003, 2.90979631e-003, 1.93986425e-003,
          1.93986425e-003, 0., 5.33462688e-003, 1.93986425e-003, 0.,
          4.84966062e-004, 3.87972849e-003, 1.93986425e-003,
          1.93986425e-003, 0., 4.84966062e-004, 5.33462688e-003, 0.,
          4.84966062e-004, 3.87972849e-003, 0., 1.45489816e-003,
          9.69932124e-004, 2.42483034e-003, 0., 2.42483034e-003,
          2.42483034e-003, 0., 9.69932124e-004, 2.42483034e-003,
          1.45489816e-003, 4.84966062e-004, 1.45489816e-003,
          1.93986425e-003, 1.93986425e-003, 4.84966062e-004,
          5.81959262e-003, 2.90979631e-003, 2.90979631e-003,
          2.90979631e-003, 9.69932124e-004, 5.33462688e-003,
          4.84966062e-004, 3.87972849e-003, 2.90979631e-003,
          2.90979631e-003, 1.45489816e-003, 1.93986425e-003,
          4.36469447e-003, 9.69932124e-004, 4.84966062e-004, 0.,
          2.42483034e-003, 4.84966062e-004, 2.90979631e-003,
          2.42483034e-003, 0., 4.36469447e-003, 0., 5.33462688e-003,
          4.84966062e-004, 3.39476252e-003, 0., 0., 4.84966062e-004,
          2.42483034e-003, 1.45489816e-003, 4.84966062e-004, 0.,
          1.45489816e-003, 5.81959262e-003, 2.90979631e-003,
          1.45489816e-003, 0., 4.84966062e-004, 1.45489816e-003,
          3.39476252e-003, 4.84966062e-004, 0., 1.93986425e-003,
          4.84966062e-004, 4.84966062e-004, 4.84966062e-004,
          1.93986425e-003, 2.42483034e-003, 9.69932124e-004,
          4.36469447e-003, 1.93986425e-003, 1.45489816e-003,
          4.84966062e-004, 0., 4.84966062e-004, 3.87972849e-003,
          4.84966062e-004, 0., 1.93986425e-003, 1.93986425e-003,
          4.84966068e-003, 4.84966062e-004, 9.69932124e-004,
          1.93986425e-003, 3.39476252e-003, 4.84966062e-004,
          4.36469447e-003, 9.69932124e-004, 3.39476252e-003,
          3.87972849e-003, 2.42483034e-003, 9.69932124e-004,
          4.84966062e-004, 2.42483034e-003, 0., 1.93986425e-003, 0.,
          4.84966062e-004, 2.42483034e-003, 2.42483034e-003,
          1.45489816e-003, 0., 0., 4.84966062e-004, 3.39476252e-003,
          4.84966062e-004, 1.45489816e-003, 0., 0., 4.36469447e-003,
          4.84966068e-003, 2.90979631e-003, 0., 0., 1.93986425e-003,
          1.45489816e-003, 9.69932124e-004, 1.93986425e-003,
          4.84966062e-004, 1.93986425e-003, 4.84966062e-004,
          2.90979631e-003, 1.45489816e-003, 0., 4.84966062e-004,
          4.84966062e-004, 6.30455883e-003, 1.93986425e-003,
          2.42483034e-003, 4.84966062e-004, 2.90979631e-003,
          4.84966062e-004, 1.93986425e-003, 7.27449078e-003,
          2.42483034e-003, 0., 2.42483034e-003, 1.93986425e-003, 0.,
          4.84966062e-004, 3.39476252e-003, 9.69932124e-004, 0.,
          1.45489816e-003, 4.84966062e-004, 0., 1.93986425e-003, 0.,
          9.69932124e-004, 0., 9.69932124e-004, 9.69932124e-004,
          2.42483034e-003, 3.39476252e-003, 0., 2.90979631e-003, 0.,
          6.30455883e-003, 4.36469447e-003, 4.84966062e-004,
          4.84966062e-004, 4.84966062e-004, 4.84966062e-004,
          4.84966062e-004, 0., 9.69932124e-004, 3.39476252e-003,
          4.36469447e-003, 9.69932124e-004, 0., 1.45489816e-003,
          3.87972849e-003, 1.45489816e-003, 2.42483034e-003,
          1.45489816e-003, 2.90979631e-003, 1.93986425e-003,
          2.42483034e-003, 1.93986425e-003, 0., 4.84966062e-004,
          9.69932124e-004, 1.45489816e-003, 0., 9.69932124e-004,
          6.78952504e-003, 3.39476252e-003, 1.93986425e-003, 0.,
          9.69932124e-004, 1.45489816e-003, 3.87972849e-003,
          2.90979631e-003, 1.45489816e-003, 9.69932124e-004,
          4.84966062e-004, 9.69932124e-004, 3.87972849e-003, 0.,
          2.90979631e-003, 9.69932124e-004, 0., 4.84966068e-003, 0.,
          3.39476252e-003, 2.42483034e-003, 6.78952504e-003, 0., 0.,
          1.93986425e-003, 0., 3.39476252e-003, 0., 1.11542195e-002,
          9.69932124e-004, 2.42483034e-003, 0., 1.45489816e-003,
          1.45489816e-003, 3.39476252e-003, 0., 1.93986425e-003,
          4.84966062e-004, 1.93986425e-003, 4.36469447e-003,
          2.90979631e-003, 2.42483034e-003, 0., 4.84966062e-004,
          9.69932124e-004, 1.45489816e-003, 9.69932124e-004,
          4.84966068e-003, 9.69932124e-004, 2.42483034e-003, 0.,
          1.93986425e-003, 1.93986425e-003, 2.90979631e-003,
          1.93986425e-003, 0., 1.93986425e-003, 3.39476252e-003,
          9.69932124e-004, 4.84966062e-004, 9.69932124e-004,
          4.84966062e-004, 0., 0., 8.72938894e-003, 4.84966062e-004,
          4.84966062e-004, 4.84966068e-003, 1.45489816e-003,
          2.42483034e-003, 0., 3.87972849e-003, 1.45489816e-003,
          1.93986425e-003, 0., 2.42483034e-003, 0., 1.45489816e-003,
          8.72938894e-003, 1.45489816e-003, 3.39476252e-003, 0.,
          6.30455883e-003, 1.93986425e-003, 1.93986425e-003, 0.,
          4.84966062e-004, 0., 0., 2.42483034e-003, 0., 1.93986425e-003,
          1.93986425e-003, 0., 1.93986425e-003, 2.42483034e-003,
          9.69932124e-004, 4.84966062e-004, 9.69932124e-004, 0., 0.,
          9.69932124e-004, 1.93986425e-003, 9.69932124e-004,
          4.84966062e-004, 0. ]
      - [ 0., 1.09529030e-003, 0., 0., 0., 0., 0., 0., 0., 0., 0.,
          4.38116118e-003, 0., 0., 1.09529030e-003, 0., 4.38116118e-003,
          0., 1.09529030e-003, 0., 0., 0., 0., 0., 0., 0., 0.,
          1.09529030e-003, 0., 0., 1.09529030e-003, 0., 3.28587089e-003,
          0., 0., 0., 0., 0., 0., 0., 0., 0., 0., 0., 1.09529030e-003,
          4.38116118e-003, 0., 0., 0., 0., 0., 0., 0., 2.19058059e-003,
          0., 0., 0., 0., 0., 0., 4.38116118e-003, 6.57174177e-003, 0.,
          1.09529030e-003, 0., 0., 0., 0., 0., 0., 0., 6.57174177e-003,
          1.09529030e-003, 0., 0., 5.47645148e-003, 0., 0., 0.,
          2.19058059e-003, 0., 1.09529030e-003, 1.09529030e-003, 0., 0.,
          0., 1.09529030e-003, 5.47645148e-003, 0., 1.09529030e-003, 0.,
          0., 0., 0., 0., 1.09529030e-003, 1.09529030e-003, 0., 0., 0.,
          9.85761266e-003, 7.66703207e-003, 0., 0., 0., 0., 0., 0.,
          2.73822583e-002, 6.57174177e-003, 0., 0., 0., 0., 0., 0., 0.,
          5.47645148e-003, 0., 5.47645148e-003, 0., 0., 0., 0.,
          1.09529030e-003, 0., 2.19058059e-003, 0., 0., 0., 0., 0.,
          1.53340641e-002, 0., 0., 0., 0., 0., 0., 0., 0., 0., 0., 0.,
          0., 0., 0., 0., 7.66703207e-003, 0., 0., 0., 0., 0., 0., 0.,
          0., 0., 0., 0., 2.19058059e-003, 0., 0., 0., 5.47645148e-003,
          0., 0., 0., 0., 0., 6.57174177e-003, 0., 3.28587089e-003, 0.,
          0., 2.19058059e-003, 0., 0., 0., 0., 0., 3.17634195e-002, 0.,
          0., 0., 0., 0., 0., 1.09529030e-003, 0., 3.28587089e-003, 0.,
          1.09529030e-003, 1.09529030e-003, 0., 0., 0., 3.28587089e-003,
          2.19058059e-003, 0., 3.28587089e-003, 0., 0., 0.,
          6.57174177e-003, 0., 0., 0., 0., 0., 4.38116118e-003, 0., 0.,
          0., 3.28587089e-003, 0., 0., 0., 0., 1.09529030e-003, 0., 0.,
          0., 0., 0., 0., 0., 0., 2.19058059e-003, 0., 0., 0., 0., 0.,
          0., 0., 0., 1.09529030e-003, 0., 0., 0., 0., 0., 0., 0., 0.,
          0., 0., 1.53340641e-002, 0., 0., 0., 0., 1.09529030e-003, 0.,
          3.28587089e-003, 0., 0., 0., 0., 0., 0., 0., 1.42387738e-002,
          0., 6.57174177e-003, 0., 0., 0., 0., 0., 0., 0., 0., 0., 0.,
          1.09529030e-003, 0., 0., 0., 3.28587089e-003, 4.38116118e-003,
          0., 0., 2.19058059e-003, 0., 0., 0., 1.09529030e-003, 0.,
          1.09529030e-003, 0., 0., 0., 1.09529030e-003, 1.64293535e-002,
          0., 1.09529030e-003, 0., 0., 0., 0., 1.09529030e-003,
          9.85761266e-003, 1.09529030e-003, 0., 0., 8.76232237e-003, 0.,
          0., 0., 0., 0., 0., 0., 0., 0., 0., 0., 0., 1.09529030e-003,
          0., 0., 0., 0., 0., 0., 1.20481933e-002, 1.09529030e-003, 0.,
          2.19058059e-003, 6.57174177e-003, 0., 0., 0., 7.66703207e-003,
          6.57174177e-003, 0., 0., 3.28587089e-003, 0., 0., 0., 0., 0.,
          0., 1.09529030e-003, 6.57174177e-003, 0., 0., 0., 0., 0.,
          4.38116118e-003, 0., 1.31434835e-002, 0., 1.09529030e-003, 0.,
          0., 0., 1.09529030e-003, 1.31434835e-002, 0., 0., 0.,
          5.47645148e-003, 0., 0., 0., 0., 0., 0., 1.09529030e-003, 0.,
          0., 0., 0., 0., 0., 3.94304506e-002, 0., 0., 0.,
          1.09529030e-003, 2.19058059e-003, 0., 0., 0., 0., 0., 0., 0.,
          5.69550954e-002, 0., 0., 0., 0., 0., 0., 0., 0.,
          2.19058059e-003, 1.09529030e-003, 9.85761266e-003,
          2.19058059e-003, 0., 0., 0., 0., 0., 3.28587089e-003, 0., 0.,
          9.85761266e-003, 7.66703207e-003, 1.09529030e-003, 0., 0., 0.,
          0., 0., 1.31434835e-002, 2.19058059e-003, 0., 0.,
          4.38116118e-003, 2.19058059e-003, 1.09529030e-003, 0., 0., 0.,
          0., 0., 0., 4.38116118e-003, 0., 8.76232237e-003,
          8.76232237e-002, 1.09529030e-003, 0., 0., 1.09529030e-003, 0.,
          0., 3.28587089e-003, 0., 0., 0., 0., 0., 2.19058059e-003,
          1.09529030e-003, 1.09529030e-003, 7.66703207e-003,
          1.09529030e-003, 0., 0., 0., 0., 3.28587089e-003,
          1.09529030e-003, 0., 0., 0., 0., 1.09529030e-003, 0.,
          1.09529030e-003, 0., 0., 0., 1.09529030e-003, 0.,
          8.76232237e-003, 1.09529030e-003, 0., 0., 0., 0.,
          4.38116118e-003, 0., 3.28587089e-003, 1.09529030e-003, 0.,
          1.09529030e-002, 1.09529030e-003, 0., 0., 0., 0., 0., 0., 0.,
          6.57174177e-003, 0., 0., 0., 0., 0., 0., 0., 0.,
          2.40963865e-002, 2.19058059e-003, 1.09529030e-003, 0.,
          2.19058059e-003, 0., 0., 0., 5.47645148e-003, 0., 0., 0., 0.,
          0., 1.09529030e-003, 0., 0., 0., 0., 1.09529030e-003, 0., 0.,
          0., 0., 0., 0., 0., 4.38116118e-003, 0., 0., 0., 0., 0.,
          7.66703207e-003, 1.09529030e-003, 0., 1.09529030e-003, 0.,
          1.09529030e-003, 0., 0., 2.19058059e-003, 0., 0., 0., 0.,
          9.96714160e-002, 0., 0., 6.90032914e-002, 0., 3.28587089e-003,
          0., 0., 6.57174177e-003, 1.09529030e-003, 4.38116118e-003, 0.,
          0., 0., 0., 1.09529030e-003, 0., 0., 0., 0., 0., 0., 0., 0.,
          0., 0., 0., 3.28587089e-003, 0., 0., 2.19058059e-003,
          2.19058059e-003, 0., 0., 0., 0., 0., 1.09529030e-003, 0.,
          1.09529030e-003, 0., 4.38116118e-003, 0., 0., 0.,
          1.09529030e-003, 0., 0., 0., 1.09529030e-003, 0. ]
      - [ 2.51572323e-003, 0., 1.25786162e-003, 0., 0., 0., 0.,
          1.25786162e-003, 0., 0., 0., 0., 0., 0., 0., 5.03144646e-003,
          0., 0., 3.77358496e-002, 0., 0., 1.25786162e-003,
          2.51572323e-003, 2.51572323e-003, 0., 0., 0., 6.28930796e-003,
          1.25786162e-003, 0., 1.25786162e-003, 6.28930796e-003, 0.,
          2.13836469e-002, 1.25786162e-003, 1.25786162e-003, 0., 0., 0.,
          0., 0., 2.51572323e-003, 0., 0., 1.25786162e-003,
          1.00628929e-002, 0., 1.25786162e-003, 0., 0., 0.,
          5.03144646e-003, 0., 0., 2.51572323e-003, 0., 0., 0.,
          1.25786159e-002, 1.25786162e-003, 0., 0., 0., 0., 0.,
          1.25786162e-003, 0., 0., 1.25786162e-003, 0., 0.,
          1.25786162e-003, 1.25786162e-003, 0., 0., 0., 5.03144646e-003,
          2.51572323e-003, 2.51572323e-003, 0., 0., 0., 0., 0., 0.,
          5.03144646e-003, 0., 1.25786162e-003, 0., 0., 0.,
          2.51572323e-003, 0., 0., 1.25786162e-003, 0., 5.03144646e-003,
          0., 5.03144646e-003, 0., 1.25786159e-002, 3.01886797e-002, 0.,
          0., 7.54716992e-003, 0., 0., 0., 0., 1.25786162e-003, 0., 0.,
          1.25786162e-003, 0., 0., 1.25786162e-003, 1.25786162e-003,
          1.25786162e-003, 0., 0., 1.25786162e-003, 0., 0.,
          2.38993708e-002, 0., 0., 0., 0., 0., 0., 1.25786162e-003, 0.,
          0., 2.51572323e-003, 1.25786162e-003, 0., 0., 0., 0.,
          2.51572323e-003, 0., 0., 0., 1.25786162e-003, 7.54716992e-003,
          0., 0., 2.51572323e-003, 0., 0., 0., 0., 1.25786162e-003,
          2.51572323e-003, 0., 5.03144646e-003, 1.25786162e-003,
          5.03144646e-003, 1.25786162e-003, 0., 0., 0., 2.51572323e-003,
          5.03144646e-003, 7.54716992e-003, 0., 0., 2.51572323e-003, 0.,
          2.51572323e-003, 1.25786162e-003, 3.77358496e-003,
          5.03144646e-003, 0., 0., 1.25786162e-003, 2.51572323e-003,
          2.51572323e-003, 0., 1.25786162e-003, 0., 2.51572323e-003, 0.,
          5.03144646e-003, 0., 1.25786162e-003, 0., 1.00628929e-002, 0.,
          0., 0., 0., 1.25786162e-003, 1.25786162e-003, 0., 0., 0.,
          2.51572323e-003, 2.64150947e-002, 0., 0., 1.25786162e-003, 0.,
          2.51572323e-003, 2.51572323e-003, 0., 0., 0., 0.,
          1.25786162e-003, 0., 0., 2.76729558e-002, 0., 1.25786162e-003,
          1.25786162e-003, 8.80503096e-003, 3.77358496e-003,
          1.25786162e-003, 0., 0., 3.77358496e-003, 3.77358496e-003, 0.,
          0., 1.25786162e-003, 0., 1.00628929e-002, 1.25786162e-003, 0.,
          2.38993708e-002, 0., 0., 1.25786162e-003, 0., 0.,
          3.77358496e-003, 0., 0., 0., 1.00628929e-002, 3.77358496e-003,
          0., 0., 3.77358496e-003, 0., 0., 0., 2.51572323e-003, 0., 0.,
          0., 2.51572323e-003, 1.25786162e-003, 0., 1.25786162e-003, 0.,
          0., 0., 1.25786162e-003, 0., 0., 0., 8.80503096e-003, 0., 0.,
          0., 2.51572323e-003, 1.25786162e-003, 6.28930796e-003,
          1.25786162e-003, 1.25786159e-002, 0., 0., 0., 0., 0., 0.,
          2.51572323e-003, 0., 0., 0., 0., 0., 2.26415098e-002,
          1.25786162e-003, 0., 2.51572323e-003, 1.25786162e-003,
          1.25786162e-003, 0., 1.25786162e-003, 0., 0., 6.28930796e-003,
          1.25786162e-003, 0., 1.25786162e-003, 1.25786162e-003, 0., 0.,
          0., 2.51572323e-003, 3.77358496e-003, 0., 1.25786162e-003,
          1.25786162e-003, 0., 0., 0., 1.25786162e-003, 0.,
          1.13207549e-002, 3.77358496e-003, 2.51572323e-003, 0., 0., 0.,
          0., 0., 0., 1.25786162e-003, 0., 2.51572323e-003, 0.,
          1.25786162e-003, 0., 0., 1.25786162e-003, 0., 0.,
          2.51572323e-003, 0., 1.25786162e-003, 0., 0., 2.51572323e-003,
          0., 0., 0., 7.54716992e-003, 1.25786162e-003, 1.25786162e-003,
          0., 0., 2.51572323e-003, 0., 2.51572323e-003, 0., 0.,
          1.25786162e-003, 0., 0., 2.51572323e-003, 0., 0.,
          1.25786162e-003, 3.77358496e-003, 3.77358496e-003,
          1.25786162e-003, 0., 3.77358496e-003, 2.51572323e-003, 0., 0.,
          6.28930796e-003, 0., 0., 5.03144646e-003, 0., 0., 0.,
          8.80503096e-003, 0., 3.77358496e-003, 1.25786162e-003,
          1.25786162e-003, 1.25786162e-003, 1.25786162e-003,
          1.25786162e-003, 0., 2.13836469e-002, 0., 1.25786162e-003,
          1.25786162e-003, 2.51572323e-003, 2.51572323e-003,
          1.25786162e-003, 1.25786162e-003, 0., 0., 1.25786162e-003, 0.,
          0., 0., 1.25786162e-003, 0., 0., 0., 0., 1.25786162e-003,
          1.25786162e-003, 7.54716992e-003, 0., 0., 1.25786162e-003,
          2.51572323e-003, 0., 0., 0., 0., 2.51572323e-003, 0.,
          1.25786162e-003, 6.28930796e-003, 2.51572323e-003, 0., 0.,
          1.25786162e-003, 0., 1.25786162e-003, 0., 0., 0., 0., 0.,
          1.00628929e-002, 0., 1.25786162e-003, 0., 1.25786162e-003, 0.,
          0., 8.80503096e-003, 0., 3.77358496e-003, 0., 3.77358496e-003,
          1.25786162e-003, 0., 0., 2.51572323e-003, 2.51572323e-003,
          1.25786162e-003, 1.25786162e-003, 0., 0., 0., 0., 0., 0., 0.,
          0., 2.51572323e-003, 1.38364779e-002, 0., 0., 1.25786162e-003,
          0., 0., 0., 0., 0., 0., 0., 0., 2.51572323e-003, 0.,
          3.77358496e-003, 0., 0., 0., 0., 0., 0., 0., 0.,
          3.77358496e-003, 1.25786162e-003, 0., 2.89308168e-002, 0.,
          1.25786162e-003, 1.25786162e-003, 0., 0., 0., 0., 0.,
          1.25786162e-003, 8.80503096e-003, 2.51572323e-003, 0.,
          1.25786162e-003, 2.51572323e-003, 0., 0., 0., 0., 0., 0., 0.,
          2.51572323e-003, 0., 1.25786162e-003, 0., 1.25786162e-003,
          1.25786162e-003, 1.25786162e-003, 0., 2.51572323e-003,
          2.51572323e-003, 1.38364779e-002, 0., 1.25786162e-003,
          1.25786162e-003, 0., 0., 0., 0., 0., 3.77358496e-003, 0., 0.,
          0., 0., 1.25786162e-003, 0., 0., 0., 0., 0., 0., 0.,
          7.54716992e-003, 0., 0., 0., 0., 0., 0., 1.25786162e-003, 0.,
          1.25786162e-003, 2.51572323e-003, 0., 1.25786162e-003, 0., 0.,
          0., 0., 0., 5.03144646e-003, 0., 1.63522009e-002,
          1.25786162e-003, 0., 0., 6.28930796e-003, 0., 1.25786162e-003,
          1.25786162e-003, 0., 1.25786162e-003, 1.25786162e-003,
          1.25786162e-003, 0., 5.03144646e-003, 0., 1.25786162e-003, 0.,
          0., 0., 0., 2.51572323e-003, 0., 0., 1.25786162e-003,
          1.25786162e-003, 0., 1.25786162e-003, 2.51572318e-002,
          7.54716992e-003, 0., 1.25786162e-003, 0., 0., 0.,
          2.51572323e-003, 5.03144646e-003, 0., 3.77358496e-003, 0., 0.,
          0., 2.51572323e-003, 0., 1.25786162e-003, 0., 0. ]
      - [ 0., 0., 0., 0., 1.45137880e-003, 0., 0., 1.45137880e-003, 0.,
          2.90275761e-003, 0., 0., 0., 0., 2.90275761e-003, 0.,
          2.90275761e-003, 0., 1.59651674e-002, 0., 0., 0., 0.,
          1.45137880e-003, 0., 1.45137880e-003, 0., 1.30624091e-002,
          7.25689391e-003, 0., 2.90275761e-003, 0., 5.80551522e-003, 0.,
          0., 0., 0., 0., 1.45137880e-003, 0., 0., 4.35413653e-003, 0.,
          0., 0., 1.01596517e-002, 0., 0., 1.45137880e-003, 0., 0.,
          2.90275761e-003, 0., 0., 0., 2.90275761e-003, 0., 0., 0., 0.,
          5.80551522e-003, 0., 0., 0., 0., 0., 1.45137880e-003,
          1.45137880e-003, 0., 0., 0., 0., 0., 1.45137880e-003,
          2.90275761e-003, 2.90275761e-003, 0., 0., 0., 1.74165461e-002,
          1.45137880e-003, 0., 0., 0., 0., 5.80551522e-003, 0.,
          1.45137880e-003, 0., 0., 2.90275761e-003, 5.80551522e-003,
          4.35413653e-003, 2.90275761e-003, 1.45137880e-003, 0., 0.,
          1.45137880e-003, 0., 1.45137880e-003, 4.35413644e-002,
          5.80551522e-003, 0., 0., 0., 0., 0., 0., 0., 4.35413653e-003,
          1.45137880e-003, 0., 0., 0., 0., 0., 0., 1.45137880e-003, 0.,
          0., 0., 0., 5.80551522e-003, 1.45137880e-003, 4.35413653e-003,
          1.45137880e-003, 2.90275761e-003, 1.45137880e-003, 0., 0., 0.,
          0., 0., 0., 0., 0., 0., 0., 0., 0., 0., 1.45137880e-003,
          1.45137880e-003, 2.90275761e-003, 2.03193035e-002, 0., 0., 0.,
          0., 2.90275761e-003, 0., 0., 1.45137880e-003, 0.,
          7.25689391e-003, 0., 1.45137880e-003, 2.90275761e-003,
          4.35413653e-003, 0., 0., 1.45137880e-003, 0., 0.,
          7.25689391e-003, 0., 5.80551522e-003, 4.35413653e-003, 0.,
          1.45137880e-003, 2.90275761e-003, 0., 2.90275761e-003, 0., 0.,
          0., 2.90275761e-003, 1.30624091e-002, 1.45137880e-003,
          2.90275761e-003, 0., 5.80551522e-003, 0., 5.80551522e-003,
          1.45137880e-003, 1.88679248e-002, 0., 2.90275761e-003, 0.,
          1.45137880e-003, 1.45137880e-003, 0., 0., 2.90275761e-003,
          1.45137880e-003, 0., 1.45137880e-003, 0., 4.35413653e-003, 0.,
          4.35413653e-003, 1.45137880e-003, 0., 4.35413653e-003,
          2.90275761e-003, 0., 0., 0., 0., 0., 0., 0., 1.59651674e-002,
          0., 0., 0., 0., 0., 1.45137880e-003, 4.35413653e-003, 0., 0.,
          2.90275761e-003, 0., 0., 2.90275761e-003, 2.90275761e-003, 0.,
          0., 0., 1.59651674e-002, 0., 0., 0., 0., 1.45137880e-003, 0.,
          2.90275761e-003, 7.25689391e-003, 1.45137880e-003,
          7.25689391e-003, 0., 0., 0., 0., 0., 4.35413653e-003, 0.,
          1.59651674e-002, 2.90275761e-003, 0., 1.45137880e-003, 0., 0.,
          0., 2.90275761e-003, 8.70827306e-003, 2.90275761e-003, 0.,
          1.45137880e-003, 0., 0., 0., 1.74165461e-002, 0., 0.,
          1.45137880e-003, 0., 0., 0., 4.35413653e-003, 1.30624091e-002,
          1.45137880e-003, 0., 0., 0., 0., 0., 0., 0., 1.45137880e-003,
          1.45137880e-003, 0., 0., 5.80551522e-003, 0., 0., 0.,
          1.45137880e-003, 1.45137880e-003, 0., 0., 1.45137880e-003, 0.,
          4.35413653e-003, 8.70827306e-003, 1.45137880e-003,
          1.45137880e-003, 1.45137880e-003, 0., 0., 0., 0.,
          1.16110304e-002, 0., 0., 0., 0., 1.45137880e-003, 0., 0.,
          2.90275761e-003, 4.35413653e-003, 1.45137880e-003, 0., 0., 0.,
          1.45137880e-003, 0., 0., 0., 1.45137880e-003, 0.,
          1.45137880e-003, 0., 1.45137880e-003, 0., 0., 2.90275761e-003,
          0., 0., 2.90275761e-003, 0., 0., 0., 4.35413653e-003,
          2.90275761e-003, 0., 0., 5.80551522e-003, 1.45137880e-003, 0.,
          0., 0., 0., 0., 5.80551522e-003, 1.45137880e-003,
          1.45137880e-003, 0., 0., 0., 0., 0., 0., 0., 0.,
          2.90275761e-003, 0., 8.70827306e-003, 0., 1.88679248e-002, 0.,
          1.45137880e-003, 0., 0., 1.45137880e-003, 0., 0., 0., 0., 0.,
          0., 0., 0., 0., 0., 0., 1.45137880e-003, 0., 0.,
          1.45137880e-003, 0., 0., 0., 1.45137880e-003, 0., 0., 0., 0.,
          2.90275761e-003, 0., 0., 1.45137880e-003, 0., 1.45137880e-003,
          1.45137880e-003, 1.45137880e-003, 0., 0., 0., 4.35413653e-003,
          2.17706822e-002, 0., 0., 0., 0., 0., 2.90275761e-003,
          8.70827306e-003, 0., 0., 0., 0., 1.01596517e-002,
          8.70827306e-003, 0., 0., 4.35413653e-003, 0., 0., 0., 0., 0.,
          4.35413653e-003, 0., 0., 0., 4.35413653e-003, 0., 0.,
          1.45137880e-003, 0., 1.16110304e-002, 0., 2.90275761e-003,
          2.90275761e-003, 2.90275761e-003, 0., 0., 0., 1.45137880e-003,
          8.70827306e-003, 0., 4.35413653e-003, 7.25689391e-003,
          1.45137880e-003, 0., 0., 2.90275761e-003, 1.45137880e-003, 0.,
          0., 0., 2.61248183e-002, 0., 0., 0., 0., 5.80551522e-003, 0.,
          1.45137880e-003, 0., 0., 0., 0., 2.90275761e-003, 0., 0.,
          2.90275761e-003, 0., 0., 7.25689391e-003, 0., 0.,
          2.90275761e-003, 1.45137880e-003, 0., 0., 0., 0.,
          2.90275761e-003, 1.45137880e-003, 0., 0., 1.45137880e-003,
          1.45137880e-003, 0., 0., 0., 0., 0., 0., 0., 4.35413653e-003,
          1.45137880e-003, 0., 0., 0., 0., 1.45137880e-003, 0., 0., 0.,
          0., 0., 4.35413653e-003, 0., 0., 0., 0., 2.90275761e-003,
          1.16110304e-002, 0., 0., 5.80551522e-003, 0., 0., 0., 0.,
          1.45137880e-003, 1.45137880e-003, 2.90275761e-003,
          1.45137880e-003, 0., 0., 0., 0., 8.70827306e-003,
          1.45137880e-003, 5.80551522e-003, 0., 0., 0., 2.90275756e-002,
          0., 0., 0., 0., 7.25689391e-003, 1.45137880e-003, 0.,
          1.45137880e-003, 0., 1.45137880e-003, 0., 0., 0., 0., 0.,
          5.80551522e-003, 0., 1.45137880e-003, 0., 5.80551522e-003, 0.,
          0., 0., 0., 0., 1.45137880e-003, 4.35413653e-003, 0., 0., 0.,
          0., 0., 4.35413653e-003, 0., 4.35413653e-003, 0.,
          1.45137880e-003, 0., 0., 4.35413653e-003, 0., 1.45137880e-003,
          2.90275761e-003, 0., 0., 0., 5.80551522e-003, 8.70827306e-003,
          0., 0., 0., 1.45137880e-003, 0., 4.35413653e-003,
          7.25689391e-003, 7.25689391e-003, 0., 0., 0., 0.,
          1.45137880e-003, 1.45137880e-003, 0., 0., 0. ]
      - [ 1.41442718e-003, 0., 0., 0., 1.41442718e-003, 0.,
          4.24328167e-003, 1.41442718e-003, 0., 1.41442718e-003,
          7.07213581e-003, 2.82885437e-003, 0., 0., 4.24328167e-003, 0.,
          2.82885437e-003, 0., 2.82885437e-003, 0., 0., 4.24328167e-003,
          0., 2.82885437e-003, 0., 2.82885437e-003, 2.82885437e-003, 0.,
          0., 0., 1.41442718e-003, 0., 2.82885437e-003, 0.,
          4.24328167e-003, 0., 0., 0., 1.41442718e-003, 0.,
          1.41442718e-003, 1.41442718e-003, 0., 0., 8.48656334e-003,
          2.82885437e-003, 2.82885437e-003, 0., 0., 0., 0.,
          2.82885437e-003, 0., 1.41442718e-003, 4.24328167e-003, 0., 0.,
          0., 0., 0., 2.82885437e-003, 2.82885437e-003, 1.41442718e-003,
          1.41442718e-003, 0., 0., 5.65770874e-003, 1.41442718e-003,
          1.41442718e-003, 0., 0., 0., 1.41442718e-003, 9.90098994e-003,
          1.41442718e-003, 0., 1.41442718e-003, 5.65770874e-003,
          4.24328167e-003, 1.41442718e-003, 4.24328167e-003, 0., 0., 0.,
          2.82885437e-003, 0., 5.65770874e-003, 2.82885437e-003,
          1.41442718e-003, 1.41442718e-003, 1.41442718e-003, 0.,
          2.82885437e-003, 0., 5.65770874e-003, 2.82885437e-003, 0.,
          1.41442718e-003, 5.65770874e-003, 0., 0., 1.41442718e-003, 0.,
          1.41442718e-003, 0., 0., 2.82885437e-003, 1.41442718e-003, 0.,
          0., 1.41442718e-003, 0., 0., 0., 0., 1.41442718e-003, 0., 0.,
          0., 1.41442718e-003, 0., 2.82885437e-003, 0., 0.,
          1.41442718e-003, 0., 2.82885437e-003, 0., 0., 0.,
          5.65770874e-003, 0., 0., 2.82885437e-003, 1.41442718e-003,
          2.82885437e-003, 0., 1.41442718e-003, 1.41442718e-003,
          2.82885437e-003, 5.65770874e-003, 2.82885437e-003,
          2.82885437e-003, 4.24328167e-003, 4.24328167e-003, 0., 0., 0.,
          5.65770874e-003, 0., 0., 9.90098994e-003, 8.48656334e-003,
          5.65770874e-003, 0., 0., 0., 4.24328167e-003, 4.24328167e-003,
          0., 0., 4.24328167e-003, 0., 1.41442718e-003, 7.07213581e-003,
          2.82885437e-003, 0., 4.24328167e-003, 1.41442718e-003,
          2.82885437e-003, 1.41442718e-003, 0., 2.82885437e-003, 0.,
          2.82885437e-003, 2.82885437e-003, 2.82885437e-003,
          2.82885437e-003, 4.24328167e-003, 5.65770874e-003,
          2.82885437e-003, 0., 0., 2.82885437e-003, 2.82885437e-003, 0.,
          0., 1.41442718e-003, 2.82885437e-003, 0., 7.07213581e-003,
          1.41442718e-003, 0., 7.07213581e-003, 7.07213581e-003, 0., 0.,
          2.82885437e-003, 1.41442718e-003, 1.41442718e-003,
          1.41442718e-003, 0., 0., 1.41442718e-003, 4.24328167e-003, 0.,
          0., 1.13154175e-002, 0., 0., 2.82885437e-003, 0.,
          1.41442718e-003, 0., 5.65770874e-003, 1.41442718e-003,
          2.82885437e-003, 1.41442718e-003, 4.24328167e-003,
          2.82885437e-003, 0., 0., 0., 0., 5.65770874e-003, 0.,
          4.24328167e-003, 0., 1.41442718e-003, 0., 1.41442718e-003, 0.,
          2.82885437e-003, 1.41442718e-003, 0., 8.48656334e-003,
          2.82885437e-003, 4.24328167e-003, 0., 0., 2.82885437e-003, 0.,
          1.41442718e-003, 7.07213581e-003, 1.41442718e-003,
          2.82885437e-003, 0., 0., 1.41442718e-003, 5.65770874e-003, 0.,
          2.82885437e-003, 0., 2.82885437e-003, 0., 2.82885437e-003,
          1.41442718e-003, 0., 0., 0., 1.41442718e-003, 0.,
          1.41442718e-003, 2.82885437e-003, 0., 2.82885437e-003, 0.,
          1.41442718e-003, 0., 2.82885437e-003, 0., 2.82885437e-003, 0.,
          0., 1.41442718e-003, 1.41442718e-003, 1.41442718e-003, 0., 0.,
          0., 0., 0., 0., 4.24328167e-003, 2.82885437e-003,
          1.41442718e-003, 0., 1.41442718e-003, 0., 4.24328167e-003,
          2.82885437e-003, 2.82885437e-003, 0., 0., 1.41442718e-003,
          2.82885437e-003, 2.82885437e-003, 0., 2.82885437e-003,
          1.41442718e-003, 0., 0., 1.41442718e-003, 0., 9.90098994e-003,
          1.41442718e-003, 1.41442718e-003, 1.41442718e-003,
          1.41442718e-003, 0., 1.41442718e-003, 0., 2.82885437e-003,
          1.41442718e-003, 0., 1.41442718e-003, 0., 0., 0., 0.,
          5.65770874e-003, 0., 0., 4.24328167e-003, 0., 7.07213581e-003,
          0., 4.24328167e-003, 0., 2.82885437e-003, 2.82885437e-003,
          4.24328167e-003, 1.41442718e-003, 1.41442718e-003, 0.,
          2.82885437e-003, 5.65770874e-003, 1.41442718e-003,
          1.41442718e-003, 0., 4.24328167e-003, 1.41442718e-003, 0., 0.,
          1.41442718e-003, 1.41442718e-003, 2.82885437e-003,
          2.82885437e-003, 0., 4.24328167e-003, 0., 0., 1.41442718e-003,
          2.82885437e-003, 0., 0., 0., 2.82885437e-003, 5.65770874e-003,
          2.82885437e-003, 0., 2.82885437e-003, 2.82885437e-003, 0.,
          1.13154175e-002, 0., 0., 4.24328167e-003, 0., 0., 0., 0.,
          1.41442718e-003, 2.82885437e-003, 1.41442718e-003,
          2.82885437e-003, 0., 0., 1.41442718e-003, 0., 9.90098994e-003,
          4.24328167e-003, 0., 0., 4.24328167e-003, 0., 0., 0., 0., 0.,
          1.41442718e-003, 2.82885437e-003, 4.24328167e-003, 0., 0.,
          1.41442718e-003, 0., 1.41442718e-003, 0., 0., 2.82885437e-003,
          5.65770874e-003, 4.24328167e-003, 0., 5.65770874e-003, 0., 0.,
          1.41442718e-003, 0., 2.82885437e-003, 0., 0., 0., 0., 0., 0.,
          0., 8.48656334e-003, 2.82885437e-003, 0., 0., 0.,
          4.24328167e-003, 4.24328167e-003, 1.41442718e-003,
          1.41442718e-003, 4.24328167e-003, 1.41442718e-003,
          4.24328167e-003, 0., 1.41442718e-003, 2.82885437e-003, 0.,
          1.41442718e-003, 0., 5.65770874e-003, 1.41442718e-003, 0.,
          1.41442718e-003, 0., 4.24328167e-003, 2.82885437e-003, 0., 0.,
          0., 2.82885437e-003, 2.82885437e-003, 2.82885437e-003, 0.,
          1.41442718e-003, 0., 0., 0., 0., 1.41442718e-003,
          2.82885437e-003, 0., 0., 0., 1.41442718e-003, 0., 0.,
          1.41442718e-003, 0., 0., 0., 7.07213581e-003, 2.82885437e-003,
          2.82885437e-003, 2.82885437e-003, 4.24328167e-003, 0., 0., 0.,
          1.41442718e-003, 2.82885437e-003, 2.82885437e-003, 0.,
          1.41442718e-003, 0., 4.24328167e-003, 2.82885437e-003,
          4.24328167e-003, 5.65770874e-003, 0., 7.07213581e-003,
          2.82885437e-003, 0., 2.82885437e-003, 0., 1.41442718e-003, 0.,
          0., 0., 1.41442718e-003, 1.41442718e-003, 1.41442718e-003, 0.,
          0., 4.24328167e-003, 0., 0., 0., 0., 0., 1.41442718e-003,
          4.24328167e-003, 0., 2.82885437e-003, 0., 2.82885437e-003,
          1.41442718e-003, 1.41442718e-003, 0., 0., 2.82885437e-003, 0.,
          2.82885437e-003, 0., 2.82885437e-003, 0., 1.41442718e-003, 0.,
          5.65770874e-003, 2.82885437e-003, 0., 1.41442718e-003, 0., 0.,
          0., 7.07213581e-003, 1.41442718e-003, 4.24328167e-003,
          7.07213581e-003, 4.24328167e-003, 0., 0., 0., 0., 0.,
          1.41442718e-003, 1.41442718e-003, 5.65770874e-003, 0.,
          9.90098994e-003, 0., 1.41442718e-003, 4.24328167e-003,
          1.41442718e-003, 0., 1.41442718e-003, 4.24328167e-003,
          4.24328167e-003, 4.24328167e-003, 7.07213581e-003, 0., 0., 0.,
          2.82885437e-003, 1.41442716e-002, 0., 1.41442718e-003, 0.,
          1.41442718e-003, 0., 1.41442718e-003, 0., 1.41442718e-003,
          1.41442718e-003, 5.65770874e-003, 0., 0., 0., 0.,
          2.82885437e-003, 0., 4.24328167e-003, 1.41442718e-003,
          2.82885437e-003, 0., 2.82885437e-003, 5.65770874e-003,
          2.82885437e-003, 1.41442718e-003, 0., 2.82885437e-003,
          4.24328167e-003, 0., 2.82885437e-003, 0., 0., 0., 0.,
          1.41442718e-003, 0., 0., 0., 1.41442718e-003, 1.41442718e-003,
          1.41442718e-003 ]
      - [ 0., 0., 0., 0., 0., 0., 0., 0., 0., 0., 4.69483575e-003, 0.,
          0., 0., 0., 0., 4.69483575e-003, 0., 9.38967150e-003, 0., 0.,
          0., 4.69483575e-003, 0., 0., 0., 0., 0., 0., 0., 0., 0., 0.,
          0., 0., 0., 0., 0., 0., 0., 0., 0., 0., 0., 4.69483575e-003,
          0., 0., 0., 0., 0., 0., 0., 0., 0., 4.69483575e-003, 0., 0.,
          0., 0., 0., 0., 0., 0., 4.69483575e-003, 4.69483575e-003,
          1.87793430e-002, 0., 0., 0., 0., 0., 0., 0., 0., 0., 0., 0.,
          4.69483575e-003, 4.69483575e-003, 0., 4.69483575e-003, 0., 0.,
          0., 0., 0., 0., 0., 3.75586860e-002, 0., 0., 0., 0., 0.,
          4.69483575e-003, 0., 0., 9.38967150e-003, 0., 0., 0., 0., 0.,
          0., 0., 0., 4.69483575e-003, 0., 0., 0., 0., 0., 0., 0., 0.,
          0., 1.40845068e-002, 0., 1.40845068e-002, 0., 0., 0., 0., 0.,
          0., 0., 0., 0., 0., 0., 0., 0., 0., 0., 4.69483575e-003, 0.,
          4.69483575e-003, 0., 0., 0., 4.69483575e-003, 9.38967150e-003,
          0., 0., 0., 0., 0., 4.69483575e-003, 0., 4.69483575e-003, 0.,
          0., 0., 0., 0., 4.69483575e-003, 0., 4.69483575e-003, 0., 0.,
          0., 0., 4.69483575e-003, 0., 4.69483575e-003, 0., 0., 0., 0.,
          4.69483575e-003, 0., 4.69483575e-003, 0., 0., 4.69483575e-003,
          0., 0., 4.69483575e-003, 0., 0., 4.69483575e-003, 0., 0.,
          4.69483575e-003, 0., 0., 0., 0., 4.69483575e-003,
          9.38967150e-003, 4.69483575e-003, 0., 0., 4.69483575e-003, 0.,
          0., 0., 0., 0., 9.38967150e-003, 0., 4.69483575e-003, 0., 0.,
          0., 1.87793430e-002, 2.81690136e-002, 0., 0., 0.,
          4.69483575e-003, 9.38967150e-003, 0., 0., 0., 4.69483575e-003,
          0., 0., 4.69483575e-003, 4.69483575e-003, 4.69483575e-003, 0.,
          4.69483575e-003, 0., 0., 0., 0., 0., 0., 0., 0.,
          4.69483575e-003, 1.40845068e-002, 4.69483575e-003, 0., 0., 0.,
          0., 0., 0., 9.38967150e-003, 0., 0., 0., 0., 4.69483575e-003,
          9.38967150e-003, 0., 0., 1.40845068e-002, 0., 0., 0., 0., 0.,
          0., 1.40845068e-002, 0., 0., 0., 0., 0., 0., 0.,
          9.38967150e-003, 0., 0., 0., 0., 0., 9.38967150e-003, 0.,
          4.69483575e-003, 0., 4.69483575e-003, 0., 0., 0., 0., 0.,
          1.40845068e-002, 0., 0., 0., 9.38967150e-003, 0.,
          4.69483575e-003, 0., 0., 0., 4.69483575e-003, 0., 0., 0., 0.,
          0., 0., 0., 0., 0., 0., 0., 4.69483575e-003, 0., 0., 0., 0.,
          0., 0., 0., 0., 0., 0., 9.38967150e-003, 4.69483575e-003, 0.,
          0., 0., 0., 0., 4.69483575e-003, 0., 0., 0., 0., 0.,
          4.69483575e-003, 0., 0., 0., 0., 9.38967150e-003, 0., 0., 0.,
          4.69483575e-003, 4.69483575e-003, 0., 0., 9.38967150e-003, 0.,
          0., 0., 0., 0., 4.69483575e-003, 4.69483575e-003, 0., 0., 0.,
          1.87793430e-002, 3.28638516e-002, 0., 0., 0., 0., 0.,
          4.69483575e-003, 0., 0., 4.69483575e-003, 0., 1.40845068e-002,
          4.69483575e-003, 1.87793430e-002, 4.69483584e-002, 0., 0.,
          4.69483575e-003, 0., 0., 0., 0., 0., 0., 0., 0., 0.,
          3.28638516e-002, 0., 0., 0., 0., 0., 0., 0., 0., 0.,
          9.38967150e-003, 0., 0., 4.69483575e-003, 0., 4.69483575e-003,
          0., 0., 0., 0., 0., 0., 0., 0., 4.69483575e-003, 0., 0., 0.,
          0., 0., 1.40845068e-002, 0., 4.69483575e-003, 0., 0.,
          4.69483575e-003, 0., 0., 0., 4.69483575e-003, 0., 0., 0., 0.,
          0., 0., 0., 0., 4.69483575e-003, 4.69483575e-003, 0., 0., 0.,
          0., 0., 0., 0., 0., 0., 4.69483575e-003, 0., 4.69483575e-003,
          0., 0., 0., 0., 0., 0., 0., 0., 0., 0., 0., 0., 0., 0., 0.,
          9.38967150e-003, 0., 0., 0., 4.69483575e-003, 0., 0.,
          4.69483575e-003, 0., 0., 0., 0., 4.69483575e-003,
          4.69483575e-003, 0., 9.38967150e-003, 4.69483575e-003, 0., 0.,
          0., 0., 4.69483575e-003, 0., 0., 0., 0., 0., 0., 0., 0., 0.,
          0., 0., 0., 0., 0., 0., 0., 0., 4.69483575e-003, 0., 0., 0.,
          0., 0., 0., 0., 4.69483575e-003, 0., 0., 0., 0.,
          4.69483575e-003, 0., 0., 0., 0., 4.69483575e-003,
          4.69483575e-003, 0., 0., 0., 0., 0., 9.38967150e-003, 0., 0.,
          0., 0., 0., 0., 4.69483575e-003, 0., 4.69483575e-003, 0., 0.,
          4.69483575e-003, 0., 0., 4.69483575e-003, 0., 0., 0., 0., 0.,
          0., 0., 0., 0., 0., 0., 0., 0., 0., 0., 4.69483575e-003,
          4.69483575e-003, 0., 4.69483575e-003, 0., 4.69483575e-003, 0.,
          0., 0., 0., 0., 4.69483575e-003, 4.69483575e-003, 0., 0., 0.,
          0., 0., 0., 4.69483575e-003, 0., 0., 4.69483575e-003, 0.,
          4.69483575e-003, 0., 4.69483575e-003, 0., 0., 0., 0., 0., 0.,
          0., 0., 0., 4.69483575e-003, 0., 9.38967150e-003, 0., 0.,
          1.87793430e-002, 0., 0., 0., 0., 0., 0., 4.69483575e-003, 0. ]
      - [ 3.72208422e-003, 0., 1.24069478e-003, 0., 0., 1.24069478e-003,
          1.11662531e-002, 4.96277912e-003, 0., 8.68486334e-003, 0.,
          1.24069478e-003, 2.48138956e-003, 4.96277912e-003,
          1.11662531e-002, 0., 0., 0., 0., 0., 0., 2.48138956e-003, 0.,
          2.48138956e-003, 1.24069478e-003, 1.24069478e-003,
          1.24069478e-003, 0., 0., 0., 6.20347401e-003, 0.,
          1.24069478e-003, 1.24069478e-003, 0., 1.24069478e-003,
          1.24069478e-003, 0., 0., 1.24069478e-003, 0., 2.48138956e-003,
          0., 0., 4.96277912e-003, 1.24069478e-003, 1.24069478e-003,
          1.24069478e-003, 2.48138956e-003, 0., 0., 7.44416844e-003, 0.,
          1.24069478e-003, 0., 0., 6.20347401e-003, 0., 0., 0.,
          1.61290318e-002, 2.48138956e-003, 0., 0., 1.24069478e-003, 0.,
          0., 2.48138956e-003, 0., 0., 0., 0., 2.48138956e-003,
          9.92555823e-003, 3.72208422e-003, 1.24069478e-003,
          9.92555823e-003, 2.48138956e-003, 6.20347401e-003, 0.,
          1.24069478e-003, 0., 1.24069478e-003, 0., 2.48138956e-003,
          2.48138956e-003, 6.20347401e-003, 3.72208422e-003, 0.,
          6.20347401e-003, 2.48138956e-003, 4.96277912e-003,
          1.24069478e-003, 0., 3.72208422e-003, 0., 1.24069478e-003, 0.,
          3.72208422e-003, 0., 0., 0., 1.24069478e-003, 0.,
          1.24069478e-003, 0., 1.24069478e-003, 1.24069478e-003, 0., 0.,
          4.96277912e-003, 0., 1.24069478e-003, 3.72208422e-003, 0.,
          2.48138956e-003, 0., 3.72208422e-003, 0., 2.48138956e-003, 0.,
          0., 1.24069478e-003, 1.24069478e-003, 0., 3.72208422e-003, 0.,
          0., 0., 2.48138956e-003, 0., 0., 0., 4.96277912e-003, 0.,
          6.20347401e-003, 0., 2.48138956e-003, 1.24069478e-003,
          1.24069478e-003, 1.24069478e-003, 3.72208422e-003,
          4.96277912e-003, 6.20347401e-003, 3.72208422e-003,
          1.24069478e-003, 1.24069478e-003, 0., 0., 3.72208422e-003,
          1.24069478e-003, 0., 1.24069478e-003, 0., 2.48138956e-003, 0.,
          3.72208422e-003, 0., 9.92555823e-003, 0., 2.48138956e-003,
          1.24069478e-003, 0., 1.24069478e-003, 2.48138956e-003,
          1.24069478e-003, 0., 1.24069478e-003, 1.24069478e-003, 0.,
          3.72208422e-003, 0., 0., 0., 3.72208422e-003, 6.20347401e-003,
          0., 2.48138956e-003, 0., 1.24069478e-003, 2.48138956e-003,
          1.24069478e-003, 2.48138956e-003, 3.72208422e-003, 0.,
          1.24069478e-003, 0., 3.72208422e-003, 2.48138956e-003, 0.,
          6.20347401e-003, 7.44416844e-003, 0., 2.48138956e-003,
          3.72208422e-003, 0., 3.72208422e-003, 3.72208422e-003, 0., 0.,
          0., 1.24069478e-003, 0., 1.24069478e-003, 1.24069478e-003, 0.,
          0., 2.48138956e-003, 0., 2.48138956e-003, 4.96277912e-003,
          3.72208422e-003, 0., 2.48138956e-003, 3.72208422e-003, 0., 0.,
          0., 0., 1.24069478e-003, 0., 0., 0., 1.24069478e-003, 0., 0.,
          1.24069478e-003, 0., 6.20347401e-003, 0., 1.24069478e-003, 0.,
          0., 1.24069478e-003, 1.24069478e-003, 1.24069478e-003,
          2.48138956e-003, 0., 0., 1.24069478e-003, 2.48138956e-003, 0.,
          0., 2.48138956e-003, 1.24069478e-003, 4.96277912e-003,
          1.24069478e-003, 1.24069478e-003, 2.48138956e-003,
          6.20347401e-003, 0., 1.24069478e-003, 0., 0., 0., 0.,
          2.48138956e-003, 1.24069478e-003, 2.48138956e-003,
          1.24069478e-003, 1.24069478e-003, 1.24069478e-003, 0., 0., 0.,
          0., 4.96277912e-003, 2.48138956e-003, 1.24069478e-003,
          1.24069478e-003, 3.72208422e-003, 0., 3.72208422e-003, 0.,
          1.24069478e-003, 4.96277912e-003, 1.11662531e-002, 0.,
          1.24069478e-003, 0., 1.24069478e-003, 1.24069478e-003, 0.,
          2.48138956e-003, 1.24069478e-003, 0., 0., 1.24069478e-003,
          3.72208422e-003, 0., 0., 0., 0., 0., 1.24069478e-003,
          1.24069478e-003, 4.96277912e-003, 2.48138956e-003,
          8.68486334e-003, 2.48138956e-003, 1.24069478e-003, 0.,
          4.96277912e-003, 0., 8.68486334e-003, 0., 0., 0.,
          3.72208422e-003, 0., 4.96277912e-003, 1.24069478e-003, 0.,
          1.24069478e-003, 0., 2.48138956e-003, 0., 0., 6.20347401e-003,
          0., 4.96277912e-003, 3.72208422e-003, 0., 9.92555823e-003, 0.,
          0., 1.36476429e-002, 9.92555823e-003, 2.48138956e-003,
          3.72208422e-003, 3.72208422e-003, 0., 2.48138956e-003,
          1.24069478e-003, 0., 4.96277912e-003, 4.96277912e-003, 0.,
          1.24069478e-003, 0., 0., 7.44416844e-003, 0., 0., 0., 0.,
          3.72208422e-003, 3.72208422e-003, 0., 3.72208422e-003, 0., 0.,
          4.96277912e-003, 4.96277912e-003, 0., 0., 1.24069478e-003, 0.,
          0., 2.48138956e-003, 0., 0., 2.48138956e-003, 1.24069478e-003,
          1.24069478e-003, 0., 2.48138956e-003, 0., 0., 0., 0., 0.,
          3.72208422e-003, 0., 2.48138956e-003, 3.72208422e-003,
          1.24069478e-003, 0., 3.72208422e-003, 0., 1.24069478e-003,
          1.24069478e-003, 0., 0., 0., 2.48138956e-003, 2.48138956e-003,
          1.24069478e-003, 0., 0., 1.24069478e-003, 0., 3.72208422e-003,
          1.24069478e-003, 1.24069478e-003, 2.48138956e-003,
          8.68486334e-003, 4.96277912e-003, 0., 1.24069478e-003,
          6.20347401e-003, 1.24069478e-003, 4.96277912e-003, 0.,
          2.48138956e-003, 1.24069478e-003, 2.48138956e-003, 0.,
          2.48138956e-003, 0., 0., 0., 1.24069478e-003, 0.,
          2.48138956e-003, 8.68486334e-003, 0., 7.44416844e-003,
          1.24069478e-003, 0., 0., 0., 4.96277912e-003, 6.20347401e-003,
          1.24069478e-003, 0., 3.72208422e-003, 6.20347401e-003,
          2.48138956e-003, 0., 0., 0., 0., 1.24069478e-003, 0., 0.,
          7.44416844e-003, 1.24069478e-003, 3.72208422e-003,
          7.44416844e-003, 0., 0., 2.48138956e-003, 3.72208422e-003,
          1.24069478e-003, 0., 1.24069478e-003, 0., 0., 4.96277912e-003,
          0., 2.48138956e-003, 0., 3.72208422e-003, 0., 1.24069478e-003,
          0., 1.24069478e-003, 0., 0., 2.48138956e-003, 1.24069478e-003,
          0., 0., 0., 0., 9.92555823e-003, 0., 0., 3.72208422e-003, 0.,
          0., 0., 0., 8.68486334e-003, 0., 3.72208422e-003, 0.,
          6.20347401e-003, 0., 0., 2.48138956e-003, 4.96277912e-003,
          3.72208422e-003, 0., 3.72208422e-003, 7.44416844e-003, 0.,
          1.24069478e-003, 1.24069478e-003, 0., 1.24069478e-003, 0.,
          2.48138956e-003, 1.24069478e-003, 2.48138956e-003, 0., 0., 0.,
          0., 0., 0., 0., 0., 2.48138956e-003, 2.48138956e-003,
          2.48138956e-003, 1.24069478e-003, 0., 2.48138956e-003,
          2.48138956e-003, 0., 1.24069478e-003, 1.24069478e-003, 0.,
          3.72208422e-003, 0., 0., 2.48138956e-003, 0., 1.24069478e-003,
          1.24069478e-003, 3.72208422e-003, 1.24069478e-003, 0., 0., 0.,
          0., 2.48138956e-003, 0., 1.24069478e-003, 3.72208422e-003,
          3.72208422e-003, 2.48138956e-003, 0., 0., 0., 1.24069478e-003,
          0., 2.48138956e-003, 2.48138956e-003, 2.48138956e-003,
          1.24069478e-003, 0., 1.24069478e-003, 1.24069478e-003, 0.,
          1.24069478e-003, 2.48138956e-003, 0., 1.24069478e-003, 0.,
          1.24069478e-003, 4.96277912e-003, 0., 0., 0., 0.,
          3.72208422e-003, 3.72208422e-003, 0., 1.24069478e-003, 0.,
          3.72208422e-003, 0., 0., 1.24069478e-003, 3.72208422e-003,
          1.24069478e-003, 4.96277912e-003, 0., 1.24069478e-003, 0.,
          1.24069478e-003, 6.20347401e-003, 0., 6.20347401e-003,
          1.24069478e-003, 1.24069478e-003, 0., 2.48138956e-003, 0., 0.,
          1.24069478e-003, 0., 0., 2.48138956e-003, 0., 1.24069478e-003,
          0., 0., 0., 0., 0., 0., 6.20347401e-003, 0., 0., 0., 0. ]
      - [ 0., 0., 0., 0., 0., 0., 3.12500005e-003, 0., 0., 0., 0., 0.,
          0., 0., 0., 6.25000009e-003, 0., 0., 3.12500005e-003, 0., 0.,
          3.12500005e-003, 0., 0., 0., 0., 6.25000009e-003, 0., 0., 0.,
          0., 0., 3.12500005e-003, 3.12500005e-003, 0., 3.12500005e-003,
          0., 0., 3.12500005e-003, 0., 6.25000009e-003, 6.25000009e-003,
          0., 3.12500005e-003, 0., 3.12500005e-003, 3.12500005e-003, 0.,
          6.25000009e-003, 0., 0., 0., 0., 1.25000002e-002, 0., 0.,
          9.37500037e-003, 0., 0., 0., 3.12500005e-003, 6.25000009e-003,
          0., 0., 0., 0., 6.25000009e-003, 6.25000009e-003, 0., 0., 0.,
          0., 0., 9.37500037e-003, 0., 0., 3.12500005e-003,
          1.56250000e-002, 3.12500005e-003, 3.12500005e-003,
          3.12500005e-003, 0., 0., 0., 3.12500005e-003, 3.12500005e-003,
          3.12500005e-003, 0., 1.25000002e-002, 0., 0., 0., 0., 0.,
          1.25000002e-002, 1.25000002e-002, 3.12500005e-003,
          6.25000009e-003, 0., 3.12500005e-003, 3.12500005e-003,
          9.37500037e-003, 0., 0., 0., 0., 0., 0., 0., 6.25000009e-003,
          6.25000009e-003, 0., 3.12500005e-003, 0., 0., 3.12500005e-003,
          0., 9.37500037e-003, 0., 0., 0., 0., 0., 0., 0.,
          6.25000009e-003, 0., 0., 0., 3.12500005e-003, 0., 0., 0., 0.,
          0., 6.25000009e-003, 0., 0., 0., 0., 0., 0., 9.37500037e-003,
          0., 6.25000009e-003, 0., 0., 0., 0., 0., 0., 3.12500005e-003,
          0., 9.37500037e-003, 0., 0., 3.12500005e-003, 9.37500037e-003,
          0., 0., 0., 0., 0., 0., 0., 3.12500005e-003, 3.12500005e-003,
          0., 6.25000009e-003, 0., 0., 0., 0., 0., 3.12500005e-003,
          3.12500005e-003, 0., 0., 0., 0., 3.12500005e-003, 0., 0.,
          6.25000009e-003, 3.12500005e-003, 3.12500005e-003, 0.,
          3.12500005e-003, 0., 0., 0., 0., 9.37500037e-003,
          3.12500005e-003, 1.25000002e-002, 0., 0., 0., 0., 0.,
          3.12500005e-003, 3.12500005e-003, 0., 3.12500005e-003, 0., 0.,
          3.12500005e-003, 3.12500005e-003, 3.12500005e-003,
          1.87500007e-002, 0., 3.12500005e-003, 3.12500005e-003, 0.,
          3.12500005e-003, 0., 0., 6.25000009e-003, 0., 3.12500005e-003,
          0., 3.12500005e-003, 6.25000009e-003, 0., 0., 0., 0., 0., 0.,
          0., 3.12500005e-003, 0., 6.25000009e-003, 3.12500005e-003,
          3.12500005e-003, 3.12500005e-003, 3.12500005e-003, 0., 0., 0.,
          0., 0., 0., 0., 0., 0., 1.25000002e-002, 0., 0., 0., 0.,
          3.12500005e-003, 0., 0., 0., 0., 3.12500005e-003, 0., 0., 0.,
          0., 3.12500005e-003, 0., 0., 0., 0., 0., 0., 3.12500005e-003,
          3.12500005e-003, 3.12500005e-003, 0., 0., 0., 0.,
          6.25000009e-003, 0., 0., 0., 0., 3.12500005e-003, 0., 0., 0.,
          6.25000009e-003, 0., 0., 3.12500005e-003, 0., 6.25000009e-003,
          0., 0., 0., 0., 0., 3.12500005e-003, 0., 0., 0.,
          3.12500005e-003, 0., 0., 0., 0., 1.25000002e-002,
          3.12500005e-003, 0., 0., 9.37500037e-003, 0., 0., 0., 0.,
          3.12500005e-003, 0., 3.12500005e-003, 0., 0., 6.25000009e-003,
          0., 3.12500005e-003, 0., 0., 3.12500005e-003, 0.,
          6.25000009e-003, 3.12500005e-003, 3.12500005e-003,
          6.25000009e-003, 0., 3.12500005e-003, 0., 3.12500005e-003,
          3.12500005e-003, 0., 0., 3.12500005e-003, 6.25000009e-003, 0.,
          6.25000009e-003, 0., 0., 0., 0., 0., 0., 3.12500005e-003, 0.,
          0., 3.12500005e-003, 0., 0., 3.12500005e-003, 0., 0., 0., 0.,
          9.37500037e-003, 0., 9.37500037e-003, 0., 0., 0., 0.,
          3.12500005e-003, 0., 0., 0., 0., 0., 0., 0., 0., 0., 0., 0.,
          3.12500005e-003, 0., 0., 0., 9.37500037e-003, 0., 0., 0.,
          6.25000009e-003, 0., 3.12500005e-003, 0., 0., 3.12500005e-003,
          0., 0., 0., 1.25000002e-002, 0., 0., 6.25000009e-003,
          3.12500005e-003, 6.25000009e-003, 0., 2.18749996e-002,
          3.12500005e-003, 6.25000009e-003, 0., 0., 0., 0., 0.,
          3.12500005e-003, 1.25000002e-002, 0., 0., 3.12500005e-003, 0.,
          0., 0., 0., 3.12500005e-003, 6.25000009e-003, 6.25000009e-003,
          0., 0., 0., 0., 0., 0., 3.12500005e-003, 3.12500005e-003, 0.,
          3.12500005e-003, 0., 0., 0., 0., 0., 0., 0., 0., 0., 0., 0.,
          0., 0., 0., 0., 3.12500005e-003, 0., 0., 0., 0., 0., 0.,
          3.12500005e-003, 0., 3.12500005e-003, 3.12500005e-003, 0., 0.,
          0., 6.25000009e-003, 3.12500005e-003, 3.12500005e-003, 0., 0.,
          0., 0., 6.25000009e-003, 0., 0., 0., 6.25000009e-003, 0.,
          6.25000009e-003, 0., 0., 3.12500005e-003, 0., 0., 0.,
          3.12500005e-003, 0., 6.25000009e-003, 6.25000009e-003, 0., 0.,
          6.25000009e-003, 0., 0., 0., 0., 0., 1.25000002e-002, 0.,
          3.12500005e-003, 0., 0., 1.25000002e-002, 0., 0., 0., 0., 0.,
          0., 0., 0., 0., 6.25000009e-003, 0., 0., 0., 0.,
          3.12500005e-003, 6.25000009e-003, 0., 0., 0., 0., 0., 0., 0.,
          0., 0., 3.12500005e-003, 0., 6.25000009e-003, 0., 0., 0., 0.,
          0., 1.25000002e-002, 0., 0., 0., 2.50000004e-002, 0., 0., 0.,
          0., 0., 0., 3.12500005e-003, 0., 0., 0., 3.12500005e-003, 0.,
          3.12500005e-003, 0., 3.12500005e-003, 6.25000009e-003, 0., 0.,
          6.25000009e-003, 3.12500005e-003, 0., 0., 0., 6.25000009e-003,
          0., 0., 0., 0., 0., 0., 0., 0., 3.12500005e-003,
          3.12500005e-003, 0., 0., 0., 0., 0., 0., 0., 0., 0., 0., 0.,
          1.25000002e-002, 3.12500005e-003, 0., 3.12500005e-003, 0.,
          3.12500005e-003, 3.12500005e-003, 0., 0., 9.37500037e-003,
          3.12500005e-003, 0., 0., 0., 0., 0., 0., 0., 0.,
          3.12500005e-003 ]
      - [ 1.53139362e-003, 4.59418073e-003, 0., 0., 0., 0.,
          1.53139362e-003, 1.53139362e-003, 1.53139362e-003,
          1.53139362e-003, 0., 4.59418073e-003, 4.59418073e-003,
          1.53139362e-003, 1.07197557e-002, 0., 0., 0., 0., 0., 0., 0.,
          0., 3.06278723e-003, 3.06278723e-003, 0., 0., 1.53139362e-003,
          0., 0., 3.06278723e-003, 0., 0., 0., 1.53139362e-003, 0., 0.,
          0., 0., 3.06278723e-003, 3.06278723e-003, 1.53139362e-003, 0.,
          0., 1.53139362e-003, 0., 1.53139362e-003, 0., 0., 0., 0.,
          3.06278723e-003, 0., 1.53139362e-003, 0., 0., 7.65696820e-003,
          1.53139362e-003, 0., 3.06278723e-003, 2.14395113e-002, 0.,
          3.06278723e-003, 4.59418073e-003, 0., 0., 1.53139362e-003,
          3.06278723e-003, 0., 0., 0., 1.53139362e-003, 0.,
          1.68453306e-002, 3.06278723e-003, 1.53139362e-003, 0., 0.,
          4.59418073e-003, 0., 1.53139362e-003, 0., 1.53139362e-003, 0.,
          1.53139362e-003, 3.06278723e-003, 9.18836147e-003,
          4.59418073e-003, 0., 1.53139362e-003, 1.37825422e-002,
          1.53139362e-003, 1.53139362e-003, 0., 0., 4.59418073e-003,
          1.53139362e-003, 0., 0., 1.53139362e-003, 0., 0.,
          1.53139362e-003, 0., 0., 1.53139362e-003, 0., 0., 0., 0.,
          3.06278723e-003, 1.53139362e-003, 0., 3.06278723e-003, 0., 0.,
          0., 0., 0., 3.06278723e-003, 0., 0., 1.53139362e-003, 0.,
          1.53139362e-003, 4.59418073e-003, 1.22511489e-002,
          1.53139362e-003, 0., 0., 0., 0., 0., 3.06278723e-003,
          1.53139362e-003, 1.53139362e-003, 0., 6.12557447e-003,
