%YAML:1.0
my_svm: !!opencv-ml-svm
   svm_type: C_SVC
   kernel: { type:RBF, gamma:1. }
   C: 1.
   term_criteria: { epsilon:1.1920928955078125e-007, iterations:1000 }
   var_all: 600
   var_count: 600
   class_count: 2
   class_labels: !!opencv-matrix
      rows: 1
      cols: 2
      dt: i
      data: [ 0, 1 ]
   sv_total: 42
   support_vectors:
      - [ 1.12499995e-002, 0., 3.12499981e-003, 0., 6.24999986e-004, 0.,
          3.74999992e-003, 6.24999963e-003, 1.87499996e-003,
          1.24999997e-003, 6.24999986e-004, 6.24999986e-004, 0.,
          1.24999997e-003, 1.87499996e-003, 0., 1.24999997e-003,
          1.87499996e-003, 2.49999994e-003, 2.49999994e-003,
          1.24999997e-003, 0., 0., 1.24999997e-003, 0., 0.,
          6.24999986e-004, 0., 0., 3.74999992e-003, 1.87499996e-003, 0.,
          0., 6.24999986e-004, 2.49999994e-003, 0., 3.12499981e-003,
          3.74999992e-003, 0., 0., 2.49999994e-003, 1.87499996e-003, 0.,
          0., 1.87499996e-003, 1.24999997e-003, 6.24999986e-004, 0.,
          1.87499996e-003, 3.74999992e-003, 0., 1.24999997e-003,
          1.24999997e-003, 0., 2.49999994e-003, 0., 6.24999986e-004,
          1.24999997e-003, 1.87499996e-003, 0., 1.62499994e-002,
          3.12499981e-003, 0., 0., 2.49999994e-003, 4.99999989e-003,
          2.49999994e-003, 0., 1.87499996e-003, 0., 0., 0.,
          4.99999989e-003, 3.74999992e-003, 6.24999963e-003,
          6.24999986e-004, 1.24999997e-003, 1.24999997e-003,
          3.74999992e-003, 6.24999986e-004, 1.24999997e-003,
          1.24999997e-003, 1.24999997e-003, 0., 0., 6.24999986e-004,
          1.87499996e-003, 3.12499981e-003, 2.49999994e-003, 0.,
          3.74999992e-003, 6.24999986e-004, 0., 1.24999997e-003,
          6.24999986e-004, 1.24999997e-003, 8.12499970e-003,
          1.24999997e-003, 2.49999994e-003, 0., 4.99999989e-003,
          6.24999986e-004, 2.49999994e-003, 6.24999986e-004,
          6.24999986e-004, 6.24999986e-004, 1.24999997e-003,
          4.99999989e-003, 0., 0., 0., 0., 0., 0., 0., 1.24999997e-003,
          1.24999997e-003, 6.24999986e-004, 1.24999997e-003,
          1.24999997e-003, 2.49999994e-003, 1.24999997e-003, 0.,
          5.62499976e-003, 4.37500002e-003, 0., 1.24999997e-003,
          6.24999986e-004, 3.12499981e-003, 0., 6.24999986e-004, 0.,
          6.24999986e-004, 3.12499981e-003, 6.24999986e-004,
          6.24999986e-004, 2.49999994e-003, 0., 4.99999989e-003,
          6.24999986e-004, 0., 6.24999986e-004, 0., 0., 6.24999986e-004,
          1.24999997e-003, 6.24999986e-004, 0., 6.24999986e-004, 0.,
          6.24999986e-004, 6.24999986e-004, 3.12499981e-003,
          6.24999986e-004, 1.87499996e-003, 4.99999989e-003,
          1.24999997e-003, 4.37500002e-003, 6.24999963e-003,
          1.24999997e-003, 1.87499996e-003, 1.24999997e-003,
          1.24999997e-003, 6.24999986e-004, 1.24999997e-003,
          6.24999986e-004, 1.24999997e-003, 5.62499976e-003,
          3.74999992e-003, 0., 6.24999986e-004, 5.62499976e-003,
          1.24999997e-003, 1.24999997e-003, 6.24999986e-004,
          6.24999986e-004, 0., 1.87499996e-003, 0., 6.24999986e-004,
          6.24999986e-004, 4.99999989e-003, 6.24999986e-004,
          2.49999994e-003, 6.24999986e-004, 3.12499981e-003, 0.,
          3.74999992e-003, 3.12499981e-003, 0., 2.49999994e-003,
          6.24999986e-004, 6.24999986e-004, 3.74999992e-003,
          6.24999986e-004, 3.74999992e-003, 1.87499996e-003,
          6.24999986e-004, 0., 0., 0., 6.24999986e-004, 0.,
          2.49999994e-003, 4.37500002e-003, 3.74999992e-003,
          9.37499944e-003, 3.12499981e-003, 0., 1.87499996e-003,
          1.24999997e-003, 3.12499981e-003, 6.24999986e-004,
          6.24999986e-004, 0., 1.87499996e-003, 2.49999994e-003,
          3.74999992e-003, 6.24999986e-004, 6.24999986e-004,
          6.24999986e-004, 1.24999997e-003, 0., 0., 0., 6.24999986e-004,
          6.24999986e-004, 1.12499995e-002, 1.87499996e-003,
          1.87499996e-003, 6.24999986e-004, 0., 0., 1.87499996e-003,
          1.87499996e-003, 6.24999986e-004, 1.24999997e-003,
          6.24999986e-004, 1.24999997e-003, 2.49999994e-003,
          6.24999986e-004, 4.37500002e-003, 6.24999986e-004, 0., 0.,
          6.24999986e-004, 1.24999997e-003, 0., 1.87499996e-003,
          6.24999986e-004, 1.87499996e-003, 3.12499981e-003,
          4.99999989e-003, 1.87499996e-003, 3.74999992e-003,
          2.49999994e-003, 3.74999992e-003, 6.24999986e-004,
          1.24999997e-003, 6.24999986e-004, 1.87499996e-003,
          1.24999997e-003, 1.24999997e-003, 1.24999997e-003,
          1.87499996e-003, 6.87499996e-003, 0., 0., 1.24999997e-003,
          1.24999997e-003, 1.24999997e-003, 6.24999986e-004,
          1.24999997e-003, 6.24999986e-004, 3.74999992e-003,
          6.24999986e-004, 0., 0., 6.24999986e-004, 6.24999986e-004, 0.,
          6.24999986e-004, 0., 2.49999994e-003, 2.49999994e-003,
          1.24999997e-003, 3.74999992e-003, 3.12499981e-003,
          6.24999986e-004, 0., 0., 6.24999986e-004, 6.24999986e-004,
          6.24999986e-004, 1.24999997e-003, 3.12499981e-003,
          1.87499996e-003, 1.87499996e-003, 1.24999997e-003,
          2.49999994e-003, 1.87499996e-003, 0., 1.24999997e-003,
          1.24999997e-003, 6.24999986e-004, 6.24999986e-004, 0.,
          6.24999986e-004, 1.87499996e-003, 2.49999994e-003,
          6.24999986e-004, 1.87499996e-003, 3.12499981e-003,
          1.24999997e-003, 1.24999997e-003, 6.24999986e-004,
          2.49999994e-003, 6.24999986e-004, 4.37500002e-003, 0.,
          1.24999997e-003, 1.87499996e-003, 3.12499981e-003,
          1.24999997e-003, 1.87499996e-003, 6.24999986e-004,
          6.24999986e-004, 6.87499996e-003, 4.99999989e-003,
          3.12499981e-003, 2.49999994e-003, 6.24999986e-004, 0.,
          1.87499996e-003, 0., 4.99999989e-003, 1.87499996e-003,
          1.12499995e-002, 0., 0., 6.24999963e-003, 6.24999986e-004,
          3.12499981e-003, 2.49999994e-003, 1.24999997e-003,
          3.74999992e-003, 6.24999986e-004, 1.87499996e-003,
          6.24999986e-004, 6.24999986e-004, 6.24999986e-004,
          3.74999992e-003, 0., 4.37500002e-003, 0., 0., 6.24999986e-004,
          1.12499995e-002, 1.87499996e-003, 1.87499996e-003,
          1.87499996e-003, 1.87499996e-003, 4.37500002e-003,
          6.24999986e-004, 6.24999986e-004, 0., 4.37500002e-003, 0.,
          6.87499996e-003, 2.49999994e-003, 1.24999997e-003,
          3.12499981e-003, 6.24999986e-004, 0., 1.87499996e-003,
          1.24999997e-003, 6.87499996e-003, 6.24999986e-004, 0.,
          2.49999994e-003, 3.74999992e-003, 1.87499996e-003, 0.,
          1.24999997e-003, 0., 1.87499996e-003, 1.87499996e-003,
          2.49999994e-003, 4.37500002e-003, 2.49999994e-003, 0.,
          1.87499996e-003, 1.24999997e-003, 2.49999994e-003, 0.,
          1.24999997e-003, 0., 6.24999986e-004, 1.87499996e-003,
          1.24999997e-003, 1.24999997e-003, 4.37500002e-003,
          1.24999997e-003, 0., 3.12499981e-003, 0., 3.12499981e-003,
          1.24999997e-003, 6.24999986e-004, 0., 1.87499996e-003,
          1.24999997e-003, 1.24999997e-003, 1.87499996e-003,
          1.06250001e-002, 1.24999997e-003, 0., 1.87499996e-003,
          2.49999994e-003, 6.24999986e-004, 4.37500002e-003,
          6.24999986e-004, 1.24999997e-003, 0., 4.37500002e-003, 0.,
          1.24999997e-003, 0., 3.74999992e-003, 0., 1.24999997e-003,
          6.24999986e-004, 0., 0., 1.24999997e-003, 4.37500002e-003,
          2.49999994e-003, 1.49999997e-002, 1.87499996e-003, 0.,
          6.24999986e-004, 3.12499981e-003, 3.12499981e-003,
          1.87499996e-003, 6.24999986e-004, 3.74999992e-003,
          1.87499996e-003, 2.49999994e-003, 0., 3.12499981e-003, 0.,
          6.24999986e-004, 6.24999986e-004, 6.24999986e-004, 0., 0.,
          6.24999986e-004, 1.87499996e-003, 0., 6.24999986e-004, 0.,
          2.49999994e-003, 1.24999997e-003, 1.87499996e-003,
          2.49999994e-003, 0., 1.24999997e-003, 1.24999997e-003, 0.,
          6.24999986e-004, 1.24999997e-003, 1.24999997e-003, 0., 0.,
          1.87499996e-003, 1.87499996e-003, 6.24999986e-004,
          1.87499996e-003, 0., 1.24999997e-003, 9.37499944e-003,
          6.24999986e-004, 1.87499996e-003, 6.24999986e-004,
          2.49999994e-003, 3.74999992e-003, 1.87499996e-003,
          1.87499996e-003, 6.24999986e-004, 2.49999994e-003,
          5.62499976e-003, 3.12499981e-003, 4.37500002e-003,
          3.12499981e-003, 3.12499981e-003, 1.24999997e-003,
          1.24999997e-003, 3.12499981e-003, 3.74999992e-003,
          1.87499996e-003, 1.24999997e-003, 2.49999994e-003,
          1.87499996e-003, 1.87499996e-003, 1.24999997e-003,
          1.24999997e-003, 1.87499996e-003, 2.49999994e-003,
          1.87499996e-003, 6.24999986e-004, 6.24999986e-004,
          5.62499976e-003, 1.87499996e-003, 1.87499996e-003,
          1.87499996e-003, 4.99999989e-003, 0., 6.24999986e-004,
          1.24999997e-003, 4.99999989e-003, 6.24999986e-004,
          6.24999986e-004, 6.24999986e-004, 0., 6.24999986e-004,
          1.24999997e-003, 1.24999997e-003, 1.87499996e-003,
          6.24999986e-004, 0., 0., 1.87499996e-003, 0., 2.49999994e-003,
          6.24999986e-004, 0., 0., 0., 6.24999986e-004, 0.,
          3.12499981e-003, 6.87499996e-003, 1.24999997e-003, 0.,
          1.87499996e-003, 0., 6.24999986e-004, 3.12499981e-003,
          1.87499996e-003, 3.74999992e-003, 0., 0., 6.87499996e-003, 0.,
          1.24999997e-003, 6.87499996e-003, 6.24999986e-004, 0.,
          1.24999997e-003, 0., 1.87499996e-003, 6.24999986e-004,
          3.74999992e-003, 6.24999986e-004, 6.24999986e-004,
          6.24999986e-004, 6.24999986e-004, 8.12499970e-003, 0.,
          1.87499996e-003, 0., 6.24999986e-004, 5.62499976e-003,
          1.24999997e-003, 2.49999994e-003, 6.24999986e-004,
          1.87499996e-003, 1.24999997e-003, 6.24999986e-004, 0.,
          3.12499981e-003, 1.87499996e-003, 1.24999997e-003,
          6.24999986e-004, 1.24999997e-003, 1.87499996e-003,
          6.24999986e-004, 1.87499996e-003, 4.99999989e-003,
          1.24999997e-003, 0., 6.24999986e-004, 0., 1.87499996e-003, 0.,
          1.24999997e-003, 0., 1.24999997e-003, 1.24999997e-003, 0. ]
      - [ 5.40832873e-004, 5.40832873e-004, 2.70416448e-003, 0.,
          5.40832873e-004, 0., 5.40832873e-004, 5.40832873e-004, 0.,
          1.62249862e-003, 5.40832873e-004, 1.08166575e-003, 0.,
          1.08166575e-003, 5.40832873e-004, 1.62249862e-003, 0.,
          3.78582999e-003, 0., 3.78582999e-003, 5.40832896e-003,
          4.32666298e-003, 1.08166575e-003, 2.70416448e-003,
          5.40832873e-004, 0., 0., 3.78582999e-003, 0., 1.29799889e-002,
          1.62249862e-003, 3.40724699e-002, 0., 1.62249862e-003,
          5.40832873e-004, 5.40832873e-004, 1.62249862e-003,
          2.10924819e-002, 0., 0., 0., 5.40832873e-004, 3.24499724e-003,
          0., 1.62249862e-003, 0., 1.08166575e-003, 1.08166575e-003, 0.,
          4.32666298e-003, 2.16333149e-003, 1.62249862e-003,
          1.62249862e-003, 0., 1.62249862e-003, 0., 5.40832873e-004,
          1.08166575e-003, 2.16333149e-003, 0., 2.16333149e-003,
          6.48999447e-003, 0., 1.08166575e-003, 5.40832873e-004, 0.,
          5.40832873e-004, 2.16333149e-003, 5.40832873e-004, 0.,
          1.08166575e-003, 5.40832873e-004, 2.16333149e-003,
          1.08166575e-003, 2.70416448e-003, 4.32666298e-003,
          5.40832873e-004, 0., 1.62249862e-003, 0., 1.08166575e-003,
          2.70416448e-003, 1.08166575e-003, 5.40832873e-004,
          5.40832873e-004, 2.16333149e-003, 0., 1.62249862e-003, 0.,
          1.08166575e-003, 1.08166575e-003, 2.70416448e-003, 0.,
          4.86749597e-003, 5.40832873e-004, 5.40832873e-004,
          1.62249862e-003, 5.40832873e-004, 4.43482958e-002,
          5.40832873e-004, 5.40832873e-004, 0., 5.40832873e-004, 0.,
          3.24499724e-003, 0., 2.16333149e-003, 7.03082746e-003,
          1.08166575e-003, 0., 1.56841539e-002, 0., 1.08166575e-003,
          5.40832873e-004, 5.40832873e-004, 0., 1.08166575e-003,
          3.24499724e-003, 0., 3.78582999e-003, 0., 5.40832873e-004,
          5.40832896e-003, 5.94916148e-003, 1.08166575e-003, 0.,
          5.40832873e-004, 5.40832873e-004, 1.62249862e-003, 0.,
          5.40832873e-004, 0., 5.40832873e-004, 5.40832873e-004, 0.,
          5.40832873e-004, 5.40832873e-004, 0., 5.40832873e-004,
          1.62249862e-003, 0., 5.40832873e-004, 1.08166575e-003,
          5.40832873e-004, 0., 5.40832873e-004, 5.40832873e-004, 0.,
          1.08166575e-003, 5.40832873e-004, 5.40832873e-004, 0.,
          1.08166575e-003, 0., 7.57165998e-003, 1.08166575e-003,
          5.40832873e-004, 5.40832873e-004, 0., 0., 1.62249862e-003, 0.,
          0., 1.08166575e-003, 5.40832873e-004, 5.40832873e-004, 0.,
          3.24499724e-003, 5.40832873e-004, 0., 5.40832873e-004, 0.,
          5.40832873e-004, 0., 1.08166575e-003, 5.40832873e-004,
          2.21741479e-002, 2.70416448e-003, 0., 0., 5.40832873e-004,
          3.24499719e-002, 0., 1.08166575e-003, 0., 1.08166575e-003,
          5.40832873e-004, 0., 5.40832873e-004, 5.40832873e-004,
          3.78582999e-003, 0., 1.08166575e-003, 1.08166575e-003,
          1.62249862e-003, 2.16333149e-003, 1.08166575e-003,
          2.16333149e-003, 5.40832873e-004, 0., 1.62249862e-003,
          5.40832873e-004, 1.08166575e-003, 1.08166575e-003,
          1.62249862e-003, 0., 0., 2.16333149e-003, 1.08166575e-003, 0.,
          1.08166575e-003, 1.62249862e-003, 0., 5.40832873e-004,
          1.08166575e-003, 0., 2.16333149e-003, 1.08166575e-003,
          5.40832873e-004, 0., 5.40832873e-004, 4.32666298e-003, 0.,
          1.62249862e-003, 1.62249862e-003, 1.08166575e-003,
          5.40832873e-004, 8.11249297e-003, 7.03082746e-003, 0., 0.,
          7.57165998e-003, 5.40832873e-004, 0., 0., 1.62249862e-003,
          5.40832873e-004, 1.08166575e-003, 2.70416448e-003, 0., 0., 0.,
          5.40832873e-004, 1.08166575e-003, 2.16333149e-003, 0., 0.,
          5.40832873e-004, 1.40616549e-002, 3.24499724e-003,
          1.08166575e-003, 4.32666298e-003, 1.08166575e-003,
          1.62249862e-003, 0., 1.62249862e-003, 5.40832896e-003,
          5.40832873e-004, 5.40832873e-004, 5.40832873e-004,
          5.40832873e-004, 5.40832873e-004, 0., 0., 0., 5.40832873e-004,
          0., 1.08166575e-003, 4.86749597e-003, 5.40832873e-004,
          5.40832873e-004, 0., 1.62249862e-003, 1.08166575e-003, 0., 0.,
          5.40832873e-004, 0., 0., 1.62249862e-003, 1.62249862e-003,
          2.70416448e-003, 3.78582999e-003, 0., 1.08166575e-003,
          2.75824759e-002, 2.16333149e-003, 4.32666298e-003,
          1.62249862e-003, 2.70416448e-003, 5.40832873e-004, 0.,
          1.62249862e-003, 0., 2.16333149e-003, 3.78582999e-003,
          5.40832873e-004, 5.40832873e-004, 5.40832873e-004, 0., 0., 0.,
          5.40832873e-004, 9.73499194e-003, 5.40832873e-004,
          1.08166575e-003, 5.40832873e-004, 3.24499724e-003,
          2.70416448e-003, 1.08166575e-003, 0., 0., 5.40832873e-004,
          3.24499724e-003, 0., 0., 6.48999447e-003, 5.40832873e-004, 0.,
          0., 1.62249862e-003, 5.40832873e-004, 1.62249862e-003,
          1.08166575e-003, 0., 5.40832873e-004, 5.40832873e-004,
          4.86749597e-003, 1.08166575e-003, 5.40832896e-003,
          3.24499724e-003, 5.40832873e-004, 1.08166575e-003,
          1.08166575e-003, 5.40832873e-004, 7.57165998e-003,
          2.70416448e-003, 0., 5.40832873e-004, 5.40832873e-004, 0., 0.,
          3.24499724e-003, 3.78582999e-003, 5.40832873e-004, 0.,
          5.40832873e-004, 1.08166575e-003, 0., 1.08166575e-003,
          5.40832873e-004, 0., 2.16333149e-003, 1.08166575e-003,
          5.40832873e-004, 4.32666298e-003, 5.40832873e-004, 0., 0.,
          2.16333149e-003, 3.24499724e-003, 2.16333149e-003,
          5.40832873e-004, 5.40832873e-004, 1.62249862e-003,
          3.24499724e-003, 0., 1.08166575e-003, 1.51433200e-002,
          5.40832873e-004, 3.24499724e-003, 0., 5.40832873e-004,
          2.70416448e-003, 2.70416448e-003, 1.62249862e-003,
          2.70416448e-003, 1.62249862e-003, 5.40832873e-004,
          2.16333149e-003, 3.78582999e-003, 2.70416448e-003,
          5.40832873e-004, 5.40832873e-004, 1.62249862e-003,
          1.08166575e-003, 0., 1.62249862e-003, 2.70416448e-003,
          1.08166575e-003, 0., 5.40832873e-004, 1.08166575e-003,
          1.29799889e-002, 0., 1.08166575e-003, 5.40832873e-004,
          3.78582999e-003, 0., 0., 5.40832873e-004, 1.62249862e-003, 0.,
          5.40832873e-004, 3.24499724e-003, 3.24499724e-003,
          5.40832873e-004, 0., 1.08166575e-003, 5.40832873e-004,
          5.40832873e-004, 8.11249297e-003, 0., 2.16333149e-003,
          5.40832873e-004, 3.24499724e-003, 1.08166575e-003,
          2.16333149e-003, 2.70416448e-003, 2.16333149e-003,
          5.40832873e-004, 7.03082746e-003, 5.40832873e-004, 0.,
          1.62249862e-003, 5.40832873e-004, 1.08166575e-003, 0.,
          5.40832873e-004, 1.08166575e-003, 0., 0., 1.08166575e-003, 0.,
          0., 5.40832873e-004, 1.62249862e-003, 5.40832873e-004,
          1.08166575e-003, 0., 1.08166575e-003, 0., 4.32666298e-003,
          5.40832873e-004, 3.24499724e-003, 1.62249862e-003,
          1.08166575e-003, 5.40832873e-004, 0., 5.40832873e-004, 0.,
          1.08166575e-003, 0., 1.08166575e-003, 0., 5.40832873e-004,
          1.51433200e-002, 2.16333149e-003, 2.70416448e-003,
          5.40832873e-004, 0., 0., 2.70416448e-003, 0., 5.40832873e-004,
          1.08166575e-003, 5.40832873e-004, 0., 1.08166575e-003, 0., 0.,
          0., 0., 2.70416448e-003, 2.16333149e-003, 5.40832873e-004,
          2.70416448e-003, 5.40832873e-004, 1.08166575e-003, 0.,
          2.16333149e-003, 5.40832873e-004, 0., 5.40832873e-004,
          5.40832873e-004, 5.94916148e-003, 5.40832873e-004, 0., 0., 0.,
          1.13574900e-002, 1.08166575e-003, 2.70416448e-003, 0.,
          5.94916148e-003, 5.40832873e-004, 5.40832873e-004,
          5.94916148e-003, 5.40832873e-004, 5.40832873e-004, 0.,
          1.62249862e-003, 1.08166575e-003, 5.40832873e-004, 0.,
          5.40832873e-004, 1.08166575e-003, 1.62249862e-003,
          5.40832873e-004, 5.40832873e-004, 0., 1.62249862e-003, 0.,
          1.08166575e-003, 5.40832873e-004, 9.19415895e-003, 0.,
          2.70416448e-003, 1.08166575e-003, 1.08166575e-003,
          5.40832873e-004, 1.62249862e-003, 2.16333149e-003,
          5.40832873e-004, 0., 1.08166575e-003, 5.40832873e-004,
          1.08166575e-003, 0., 0., 1.62249862e-003, 0., 5.40832873e-004,
          0., 1.08166575e-003, 5.40832873e-004, 3.24499724e-003,
          2.70416448e-003, 5.40832873e-004, 1.08166575e-003,
          1.08166575e-003, 5.40832873e-004, 5.40832873e-004,
          5.40832873e-004, 2.70416448e-003, 1.62249862e-003,
          2.70416448e-003, 1.08166575e-003, 5.40832873e-004,
          4.32666298e-003, 0., 0., 3.24499724e-003, 5.40832873e-004, 0.,
          1.62249862e-003, 6.48999447e-003, 0., 5.40832873e-004,
          2.70416448e-003, 5.40832873e-004, 3.24499724e-003, 0.,
          5.40832873e-004, 4.32666298e-003, 1.08166575e-003,
          5.40832873e-004, 0., 1.62249862e-003, 1.08166575e-003,
          1.08166575e-003, 0., 2.70416448e-003, 1.08166575e-003,
          3.24499724e-003, 4.32666298e-003, 1.08166575e-003,
          5.40832873e-004, 5.40832873e-004, 0., 2.16333149e-003, 0.,
          5.40832873e-004, 5.40832873e-004, 5.40832873e-004, 0.,
          1.08166575e-003, 9.19415895e-003, 5.40832873e-004,
          1.62249862e-003, 5.40832873e-004, 2.16333149e-003,
          5.40832873e-004, 5.40832873e-004, 0., 1.62249862e-003,
          1.62249862e-003, 1.08166575e-003, 3.24499724e-003,
          5.40832873e-004 ]
      - [ 0., 0., 7.22891558e-003, 0., 0., 0., 0., 0., 9.63855442e-003,
          4.81927721e-003, 0., 2.40963860e-003, 4.81927721e-003, 0., 0.,
          0., 0., 0., 0., 0., 0., 0., 0., 0., 0., 0., 0., 0., 0., 0., 0.,
          0., 0., 0., 0., 0., 0., 0., 0., 0., 0., 0., 0., 0.,
          2.40963860e-003, 0., 0., 0., 0., 0., 0., 0., 0., 0., 0.,
          1.20481931e-001, 2.40963860e-003, 0., 0., 0., 0., 0., 0., 0.,
          2.40963860e-003, 2.40963860e-003, 0., 7.22891558e-003, 0., 0.,
          7.71084353e-002, 0., 0., 0., 2.40963860e-003, 0., 0., 0., 0.,
          0., 0., 1.44578312e-002, 0., 0., 0., 0., 0., 0., 0., 0., 0.,
          2.40963860e-003, 0., 0., 0., 0., 0., 0., 0., 4.81927721e-003,
          0., 0., 0., 0., 0., 0., 2.40963860e-003, 7.22891558e-003, 0.,
          0., 0., 0., 0., 0., 0., 0., 2.40963860e-003, 2.40963860e-003,
          2.40963860e-003, 0., 0., 0., 0., 0., 0., 0., 0.,
          2.40963860e-003, 0., 2.40963860e-003, 0., 0., 7.22891558e-003,
          7.22891558e-003, 0., 0., 0., 0., 0., 0., 0., 0.,
          2.40963860e-003, 0., 0., 0., 0., 0., 0., 0., 0.,
          7.22891558e-003, 0., 0., 2.40963860e-003, 1.20481933e-002, 0.,
          0., 0., 0., 7.22891558e-003, 0., 0., 0., 0., 0., 0., 0., 0.,
          0., 0., 0., 0., 0., 4.81927721e-003, 0., 0., 0., 0., 0., 0.,
          0., 0., 0., 0., 0., 0., 0., 0., 4.81927721e-003, 0., 0.,
          4.81927721e-003, 0., 0., 0., 0., 0., 0., 0., 0., 0., 0., 0.,
          0., 0., 0., 0., 0., 0., 2.40963860e-003, 0., 0.,
          2.40963860e-003, 0., 0., 0., 0., 4.81927721e-003, 0., 0.,
          2.16867477e-002, 0., 2.40963860e-003, 0., 0., 2.40963860e-003,
          0., 1.44578312e-002, 0., 0., 2.40963860e-003, 0., 0.,
          7.22891558e-003, 0., 0., 0., 0., 0., 0., 9.63855442e-003, 0.,
          2.40963860e-003, 0., 0., 0., 7.22891558e-003, 0., 0.,
          4.81927721e-003, 0., 0., 0., 0., 0., 2.40963860e-003, 0., 0.,
          2.40963860e-003, 0., 0., 9.63855442e-003, 0., 0., 0.,
          4.81927721e-003, 0., 2.40963860e-003, 0., 0., 0., 0., 0., 0.,
          0., 0., 2.40963860e-003, 0., 0., 0., 0., 0., 0., 0., 0.,
          2.40963860e-003, 2.40963860e-003, 4.81927721e-003, 0.,
          2.40963860e-003, 0., 0., 0., 0., 0., 2.40963860e-003, 0., 0.,
          0., 2.40963860e-003, 0., 0., 0., 0., 0., 0., 0., 0., 0., 0.,
          0., 0., 0., 0., 0., 0., 0., 2.40963860e-003, 0.,
          9.63855442e-003, 0., 0., 0., 2.40963860e-003, 0., 0., 0., 0.,
          0., 0., 0., 0., 0., 0., 2.40963860e-003, 0., 2.40963860e-003,
          0., 0., 0., 0., 2.16867477e-002, 0., 0., 0., 0.,
          2.40963860e-003, 0., 9.63855442e-003, 0., 0., 7.22891558e-003,
          0., 0., 0., 0., 0., 0., 0., 0., 0., 0., 0., 0., 0., 0., 0., 0.,
          0., 0., 0., 0., 0., 0., 2.40963860e-003, 0., 1.44578312e-002,
          0., 2.40963860e-003, 0., 2.40963860e-003, 0., 0., 0., 0., 0.,
          0., 0., 0., 0., 0., 0., 0., 0., 0., 0., 0., 0.,
          2.40963860e-003, 0., 0., 0., 1.20481933e-002, 0., 0., 0., 0.,
          0., 0., 4.81927721e-003, 1.20481933e-002, 2.40963860e-003,
          4.81927721e-003, 0., 0., 0., 0., 0., 2.40963860e-003,
          2.40963860e-003, 0., 0., 0., 0., 2.40963860e-003, 0., 0., 0.,
          0., 0., 0., 0., 0., 0., 0., 0., 0., 0., 0., 0., 0., 0., 0., 0.,
          0., 0., 2.40963860e-003, 0., 0., 0., 7.22891558e-003, 0., 0.,
          0., 0., 0., 0., 0., 0., 2.40963860e-003, 0., 0., 0.,
          2.40963860e-003, 0., 0., 0., 0., 0., 0., 1.20481933e-002, 0.,
          0., 0., 0., 0., 0., 0., 0., 0., 0., 0., 0., 2.40963860e-003,
          0., 0., 0., 0., 0., 0., 0., 0., 4.81927721e-003, 0.,
          2.40963860e-003, 0., 0., 0., 0., 0., 2.40963860e-003, 0., 0.,
          4.81927721e-003, 0., 0., 1.92771088e-002, 0., 0.,
          2.40963860e-003, 0., 0., 0., 0., 0., 1.73493981e-001,
          1.44578312e-002, 0., 7.22891558e-003, 0., 0., 0., 0., 0.,
          2.40963860e-003, 0., 0., 0., 2.40963860e-003, 0., 0., 0., 0.,
          0., 0., 4.81927721e-003, 0., 0., 0., 0., 0., 0., 0., 0., 0.,
          9.63855442e-003, 0., 9.63855442e-003, 0., 0., 0., 0., 0.,
          2.40963860e-003, 2.40963860e-003, 0., 0., 0., 9.63855442e-003,
          0., 0., 9.63855442e-003, 0., 1.92771088e-002, 0.,
          2.40963860e-003, 0., 0., 0., 0., 0., 2.40963860e-003, 0., 0.,
          9.63855442e-003, 0., 0., 0., 0., 7.22891558e-003, 0., 0., 0.,
          0., 2.65060253e-002, 0., 2.40963860e-003, 0., 0., 0., 0., 0.,
          0., 0., 0., 0., 0., 0., 1.44578312e-002 ]
      - [ 9.67118016e-004, 0., 0., 2.90135411e-003, 2.90135411e-003,
          9.67118016e-004, 9.67118016e-004, 1.93423603e-003,
          4.83559025e-003, 0., 9.67118016e-004, 0., 9.67118016e-004, 0.,
          9.67118016e-004, 0., 0., 9.67118016e-004, 0., 4.83559025e-003,
          1.93423603e-003, 1.25725344e-002, 0., 3.86847206e-003, 0., 0.,
          1.93423603e-003, 9.67118016e-004, 9.67118016e-004,
          7.73694413e-003, 1.93423603e-003, 9.67118016e-004, 0.,
          1.93423603e-003, 3.86847206e-003, 0., 9.67118016e-004,
          6.76982617e-003, 9.67118016e-004, 2.90135411e-003,
          3.86847206e-003, 3.86847206e-003, 9.67118016e-004,
          2.90135411e-003, 9.67118016e-004, 0., 1.93423603e-003,
          2.90135411e-003, 0., 5.80270821e-003, 9.67118016e-004,
          1.93423603e-003, 3.86847206e-003, 0., 7.73694413e-003, 0.,
          9.67118016e-004, 2.90135411e-003, 0., 0., 0., 2.90135411e-003,
          9.67118016e-004, 0., 9.67118016e-004, 9.67118016e-004, 0., 0.,
          5.80270821e-003, 0., 9.67118016e-004, 0., 0., 1.93423603e-003,
          3.86847206e-003, 9.67118016e-004, 1.93423603e-003,
          1.93423603e-003, 0., 0., 9.67118016e-004, 8.70406255e-003,
          9.67118016e-004, 1.93423603e-003, 9.67118016e-004,
          8.70406255e-003, 2.90135411e-003, 1.93423603e-003,
          2.90135411e-003, 9.67118016e-004, 9.67118016e-004,
          5.80270821e-003, 1.93423603e-003, 0., 9.67118016e-004, 0.,
          1.93423603e-003, 0., 0., 1.93423603e-003, 0., 9.67118016e-004,
          0., 3.86847206e-003, 9.67118016e-004, 9.67118016e-004,
          2.90135411e-003, 7.73694413e-003, 2.70793047e-002, 0.,
          3.86847206e-003, 0., 0., 0., 0., 3.86847206e-003,
          1.93423603e-003, 0., 1.93423603e-003, 0., 0., 0.,
          8.70406255e-003, 2.90135411e-003, 9.67118016e-004, 0., 0.,
          3.86847206e-003, 1.93423603e-003, 0., 9.67118016e-004,
          9.67118016e-004, 1.45067703e-002, 2.90135411e-003,
          1.93423603e-003, 9.67118016e-004, 1.93423603e-003,
          9.67118016e-004, 9.67118016e-004, 9.67118016e-004,
          9.67118016e-004, 9.67118016e-004, 1.93423603e-003,
          1.93423603e-003, 1.93423603e-003, 9.67118016e-004,
          9.67118016e-004, 0., 1.93423603e-003, 0., 0., 0., 0., 0.,
          4.83559025e-003, 2.90135411e-003, 9.67118016e-004,
          1.93423603e-003, 9.67118016e-004, 3.86847206e-003,
          1.93423603e-003, 9.67118016e-004, 0., 9.67118016e-004,
          9.67118016e-004, 3.86847206e-003, 0., 9.67118016e-004, 0.,
          1.93423603e-003, 3.86847206e-003, 0., 0., 0., 0., 0., 0.,
          2.90135411e-003, 2.90135411e-003, 9.67118016e-004, 0.,
          9.67118016e-004, 9.67118016e-004, 9.67118016e-004, 0., 0., 0.,
          0., 9.67118016e-004, 1.93423603e-003, 1.93423603e-003,
          3.86847206e-003, 1.93423603e-003, 1.93423603e-003,
          2.90135411e-003, 9.67118016e-004, 3.86847206e-003, 0., 0., 0.,
          0., 0., 2.90135411e-003, 0., 1.93423603e-003, 0., 0.,
          1.93423603e-003, 1.93423603e-003, 0., 9.67118016e-004, 0., 0.,
          9.67118016e-004, 0., 9.67118016e-004, 9.67118016e-004, 0.,
          9.67118016e-004, 0., 9.67118016e-004, 9.67118051e-003, 0., 0.,
          1.93423603e-003, 0., 1.93423603e-003, 9.67118016e-004, 0., 0.,
          0., 2.90135411e-003, 9.67118016e-004, 1.93423603e-003,
          4.83559025e-003, 9.67118016e-004, 9.67118016e-004, 0.,
          9.67118016e-004, 2.90135411e-003, 0., 9.67118016e-004,
          1.93423603e-003, 9.67118016e-004, 9.67118016e-004,
          9.67118016e-004, 3.86847206e-003, 0., 0., 2.90135411e-003,
          4.83559025e-003, 9.67118016e-004, 9.67118016e-004,
          9.67118016e-004, 9.67118016e-004, 5.80270821e-003,
          1.93423603e-003, 9.67118016e-004, 0., 0., 0., 4.83559025e-003,
          6.76982617e-003, 0., 1.93423603e-003, 0., 9.67118016e-004,
          9.67118016e-004, 0., 1.93423603e-003, 9.67118016e-004,
          1.93423603e-003, 2.90135411e-003, 9.67118016e-004,
          1.93423603e-003, 0., 9.67118016e-004, 9.67118016e-004,
          4.83559025e-003, 3.86847206e-003, 9.67118016e-004,
          8.70406255e-003, 1.16054164e-002, 0., 0., 0., 2.90135411e-003,
          3.86847206e-003, 1.93423603e-003, 0., 0., 0., 2.90135411e-003,
          9.67118016e-004, 4.83559025e-003, 0., 0., 0., 1.93423603e-003,
          2.90135411e-003, 0., 2.90135411e-003, 0., 0., 9.67118016e-004,
          1.93423603e-003, 9.67118016e-004, 0., 9.67118016e-004,
          3.86847206e-003, 2.90135411e-003, 9.67118016e-004,
          9.67118016e-004, 1.93423603e-003, 0., 0., 5.80270821e-003, 0.,
          1.93423603e-003, 0., 2.90135411e-003, 9.67118016e-004,
          9.67118016e-004, 5.80270821e-003, 2.90135411e-003,
          1.93423603e-003, 1.93423603e-003, 0., 0., 6.76982617e-003,
          2.90135411e-003, 9.67118016e-004, 0., 5.80270821e-003,
          9.67118016e-004, 2.90135411e-003, 1.93423603e-003, 0., 0.,
          1.93423603e-003, 1.93423603e-003, 0., 1.06382985e-002,
          1.93423603e-003, 0., 0., 1.93423603e-003, 2.90135411e-003, 0.,
          0., 0., 0., 9.67118016e-004, 0., 0., 2.61121858e-002,
          1.93423603e-003, 0., 0., 1.93423603e-003, 1.93423603e-003,
          9.67118016e-004, 0., 2.90135411e-003, 0., 0., 9.67118016e-004,
          0., 9.67118016e-004, 1.93423603e-003, 2.90135411e-003, 0.,
          9.67118016e-004, 9.67118016e-004, 4.83559025e-003, 0.,
          1.93423603e-003, 1.93423603e-003, 2.90135411e-003,
          3.86847206e-003, 0., 4.83559025e-003, 9.67118016e-004, 0.,
          9.67118016e-004, 0., 9.67118016e-004, 9.67118016e-004,
          5.80270821e-003, 9.67118016e-004, 9.67118016e-004,
          9.67118016e-004, 0., 9.67118016e-004, 0., 2.90135411e-003, 0.,
          0., 0., 0., 0., 3.86847206e-003, 1.93423603e-003, 0., 0.,
          4.83559025e-003, 9.67118016e-004, 0., 9.67118016e-004, 0.,
          9.67118016e-004, 9.67118051e-003, 9.67118016e-004,
          4.83559025e-003, 0., 1.93423603e-003, 0., 9.67118016e-004, 0.,
          9.67118016e-004, 1.93423603e-003, 1.93423603e-003,
          9.67118016e-004, 9.67118016e-004, 2.90135411e-003,
          1.93423603e-003, 0., 9.67118016e-004, 0., 1.93423603e-003,
          9.67118016e-004, 1.93423603e-003, 9.67118016e-004, 0., 0., 0.,
          9.67118016e-004, 0., 0., 2.90135411e-003, 3.86847206e-003,
          1.93423603e-003, 4.83559025e-003, 0., 5.80270821e-003, 0.,
          9.67118016e-004, 2.90135411e-003, 0., 2.90135411e-003, 0.,
          2.90135411e-003, 9.67118016e-004, 0., 0., 0., 8.70406255e-003,
          9.67118016e-004, 9.67118016e-004, 0., 9.67118016e-004, 0.,
          1.93423603e-003, 0., 1.93423603e-003, 0., 0., 3.86847206e-003,
          9.67118016e-004, 9.67118016e-004, 0., 4.83559025e-003, 0.,
          9.67118016e-004, 0., 0., 3.86847206e-003, 9.67118016e-004, 0.,
          9.67118016e-004, 0., 9.67118016e-004, 0., 9.67118016e-004,
          4.83559025e-003, 0., 0., 9.67118016e-004, 0., 1.93423603e-003,
          1.93423603e-003, 0., 3.86847206e-003, 9.67118016e-004,
          9.67118016e-004, 9.67118016e-004, 0., 5.80270821e-003,
          1.93423603e-003, 3.86847206e-003, 0., 9.67118016e-004,
          9.67118016e-004, 0., 9.67118016e-004, 9.67118016e-004,
          3.86847206e-003, 2.90135411e-003, 1.93423603e-003,
          9.67118016e-004, 1.93423603e-003, 1.93423603e-003, 0.,
          1.93423603e-003, 2.90135411e-003, 2.90135411e-003,
          9.67118016e-004, 2.90135411e-003, 9.67118016e-004, 0.,
          9.67118016e-004, 3.86847206e-003, 2.90135411e-003, 0., 0., 0.,
          1.93423603e-003, 0., 9.67118016e-004, 1.93423603e-003, 0., 0.,
          0., 1.93423603e-003, 0., 9.67118016e-004, 2.22437140e-002,
          9.67118016e-004, 0., 9.67118016e-004, 1.93423603e-003,
          9.67118016e-004, 3.86847206e-003, 0., 1.93423603e-003, 0.,
          7.73694413e-003, 1.93423603e-003, 1.93423603e-003, 0., 0.,
          9.67118016e-004, 9.67118016e-004, 1.93423603e-003, 0.,
          1.93423603e-003, 6.76982617e-003, 0., 0., 1.93423603e-003, 0.,
          2.90135411e-003, 2.90135411e-003, 9.67118016e-004,
          7.73694413e-003, 2.90135411e-003, 1.93423603e-003, 0., 0.,
          2.90135411e-003, 0., 0., 2.90135411e-003, 0., 2.90135411e-003,
          1.25725344e-002, 9.67118016e-004, 2.90135411e-003,
          9.67118016e-004, 0., 1.93423603e-003, 0., 0., 4.83559025e-003,
          0., 0., 0., 3.86847206e-003, 3.86847206e-003, 0.,
          1.93423603e-003, 0., 9.67118016e-004, 9.67118016e-004, 0., 0.,
          9.67118016e-004, 0., 1.93423603e-003, 1.93423603e-003 ]
      - [ 0., 0., 0., 0., 0., 0., 0., 0., 0., 0., 0., 0., 0., 0., 0., 0.,
          0., 0., 0., 1.85873602e-002, 7.43494416e-003, 0., 0., 0., 0.,
          0., 0., 0., 0., 0., 0., 0., 0., 0., 0., 0., 0.,
          2.23048329e-002, 0., 0., 0., 0., 3.71747208e-003, 0., 0., 0.,
          0., 0., 0., 7.43494416e-003, 0., 0., 7.43494416e-003, 0., 0.,
          0., 0., 0., 0., 0., 0., 0., 0., 0., 0., 0., 0., 0., 0., 0., 0.,
          0., 0., 0., 0., 0., 0., 0., 0., 0., 0., 0., 0.,
          5.94795533e-002, 0., 0., 0., 0., 0., 0., 0., 0., 0., 0., 0.,
          0., 0., 0., 0., 0., 0., 0., 0., 0., 0., 0., 0., 0.,
          3.90334576e-001, 0., 0., 0., 0., 0., 0., 0., 0., 0., 0., 0.,
          0., 0., 0., 0., 0., 0., 0., 0., 2.23048329e-002, 0., 0., 0.,
          0., 0., 0., 0., 0., 0., 0., 0., 0., 0., 0., 0., 0., 0., 0., 0.,
          0., 0., 0., 0., 0., 0., 0., 0., 0., 0., 0., 0., 0., 0., 0., 0.,
          0., 0., 0., 0., 0., 0., 0., 0., 0., 0., 0., 0., 0., 0., 0., 0.,
          0., 0., 0., 0., 0., 0., 0., 0., 0., 0., 0., 0., 0., 0., 0., 0.,
          0., 0., 0., 0., 0., 0., 1.85873602e-002, 0., 0., 0., 0., 0.,
          0., 0., 0., 0., 0., 0., 0., 0., 0., 0., 0., 0., 0., 0., 0., 0.,
          0., 0., 0., 0., 0., 0., 0., 0., 0., 0., 0., 0., 0., 0., 0., 0.,
          0., 0., 0., 0., 0., 0., 0., 0., 0., 0., 0., 0., 0., 0., 0., 0.,
          0., 0., 0., 0., 0., 0., 0., 0., 0., 0., 0., 0., 0., 0., 0., 0.,
          0., 0., 0., 0., 0., 7.43494416e-003, 0., 0., 0., 0.,
          2.23048329e-002, 0., 0., 0., 0., 0., 0., 0., 0., 0., 0.,
          2.23048329e-002, 0., 0., 0., 0., 0., 0., 0., 0., 0., 0., 0.,
          0., 0., 0., 0., 1.11524165e-002, 0., 0., 0., 0., 0., 0.,
          7.43494416e-003, 0., 0., 0., 0., 0., 0., 0., 0., 0., 0., 0.,
          0., 0., 0., 0., 0., 0., 0., 0., 0., 0., 0., 0., 0., 0., 0.,
          1.48698883e-002, 0., 0., 0., 0., 0., 0., 0., 0., 0., 0.,
          1.11524165e-002, 2.78810412e-001, 0., 0., 0., 0., 0., 0., 0.,
          0., 0., 0., 0., 0., 0., 0., 3.71747208e-003, 0., 0., 0., 0.,
          0., 0., 0., 0., 0., 0., 0., 0., 0., 0., 0., 0., 0., 0., 0., 0.,
          0., 0., 0., 0., 0., 0., 0., 0., 0., 0., 0., 0., 0., 0., 0., 0.,
          0., 0., 0., 0., 0., 0., 0., 0., 0., 0., 0., 0., 0., 0., 0., 0.,
          0., 0., 0., 0., 0., 0., 0., 0., 0., 7.43494416e-003, 0., 0.,
          0., 0., 0., 0., 0., 0., 0., 0., 0., 0., 0., 0., 0., 0., 0., 0.,
          0., 0., 0., 0., 0., 3.34572494e-002, 0., 7.43494416e-003, 0.,
          0., 0., 0., 0., 0., 0., 0., 0., 0., 0., 0., 0., 0.,
          3.71747208e-003, 0., 0., 0., 0., 0., 0., 0., 0., 0., 0., 0.,
          0., 0., 0., 0., 0., 0., 0., 3.71747208e-003, 0., 0., 0., 0.,
          0., 0., 0., 0., 0., 0., 0., 0., 0., 0., 0., 0., 0., 0., 0., 0.,
          0., 0., 0., 0., 0., 0., 0., 0., 0., 0., 0., 0., 0., 0., 0., 0.,
          0., 0., 0., 0., 0., 0., 0., 0., 0., 0., 0., 0., 0., 0., 0., 0.,
          0., 0., 0., 0., 0., 0., 0., 0., 0., 0., 0., 0., 0., 0., 0., 0.,
          0., 0., 0., 0., 0., 0., 0., 0., 0., 3.71747208e-003, 0., 0.,
          0., 0., 0., 0., 0., 0., 0., 0., 0., 0., 0., 0., 0., 0.,
          3.71747208e-003, 0., 0., 0., 0., 0., 0., 0., 0., 0., 0., 0.,
          0. ]
      - [ 1.47601478e-002, 0., 5.53505542e-003, 0., 0., 0.,
          7.38007389e-003, 9.22509283e-003, 0., 0., 0., 0., 0., 0., 0.,
          0., 0., 1.84501847e-003, 0., 0., 0., 5.53505542e-003, 0.,
          1.84501847e-003, 0., 0., 0., 0., 1.84501847e-003, 0., 0.,
          9.22509283e-003, 0., 5.53505542e-003, 0., 0., 9.22509283e-003,
          1.47601478e-002, 0., 0., 0., 0., 0., 0., 0., 0., 0.,
          1.84501847e-003, 0., 0., 1.84501857e-002, 1.84501847e-003, 0.,
          0., 0., 1.10701108e-002, 9.22509283e-003, 0., 3.69003695e-003,
          0., 1.47601478e-002, 0., 3.69003695e-003, 3.69003695e-003,
          1.84501847e-003, 0., 7.38007389e-003, 0., 1.84501847e-003,
          3.69003695e-003, 0., 0., 5.53505542e-003, 1.29151288e-002,
          1.84501847e-003, 0., 3.69003695e-003, 0., 1.66051667e-002, 0.,
          0., 3.69003695e-003, 0., 0., 0., 3.69003695e-003,
          5.53505542e-003, 0., 0., 0., 0., 5.53505542e-003, 0., 0., 0.,
          1.84501847e-003, 0., 0., 5.53505542e-003, 0., 0., 0.,
          9.22509283e-003, 1.84501847e-003, 0., 0., 0., 0., 0., 0., 0.,
          0., 1.84501847e-003, 0., 0., 0., 0., 7.38007389e-003, 0.,
          3.69003695e-003, 0., 0., 3.69003695e-003, 3.69003695e-003, 0.,
          1.84501847e-003, 1.84501847e-003, 0., 0., 0., 3.69003695e-003,
          0., 0., 1.84501847e-003, 0., 0., 0., 0., 0., 3.69003695e-003,
          3.69003695e-003, 0., 9.22509283e-003, 5.53505542e-003, 0.,
          3.69003695e-003, 1.84501847e-003, 0., 0., 0., 0., 0., 0., 0.,
          3.69003695e-003, 0., 0., 0., 1.84501847e-003, 0.,
          3.69003695e-003, 0., 0., 1.84501847e-003, 0., 1.84501847e-003,
          0., 1.84501847e-003, 1.29151288e-002, 0., 1.84501847e-003, 0.,
          5.53505542e-003, 0., 0., 3.87453884e-002, 1.10701108e-002, 0.,
          0., 0., 1.84501847e-003, 0., 0., 0., 0., 3.69003695e-003, 0.,
          0., 5.53505542e-003, 0., 0., 0., 0., 0., 1.84501847e-003, 0.,
          0., 0., 0., 0., 0., 0., 0., 0., 3.69003695e-003, 0., 0., 0.,
          1.84501847e-003, 1.84501847e-003, 7.38007389e-003, 0., 0., 0.,
          0., 0., 0., 0., 0., 0., 0., 0., 0., 0., 0., 0., 0.,
          3.69003695e-003, 0., 1.84501847e-003, 0., 1.84501847e-003,
          5.53505542e-003, 1.84501847e-003, 0., 0., 0., 0., 0., 0., 0.,
          0., 0., 3.69003695e-003, 0., 0., 0., 0., 0., 1.84501847e-003,
          1.84501847e-003, 0., 1.84501847e-003, 0., 0., 7.38007389e-003,
          0., 0., 0., 1.84501847e-003, 0., 0., 1.84501847e-003, 0., 0.,
          0., 0., 1.84501847e-003, 5.53505542e-003, 0., 0., 0.,
          1.84501847e-003, 0., 0., 1.10701108e-002, 0., 0.,
          1.29151288e-002, 0., 0., 3.69003695e-003, 0., 0., 0., 0., 0.,
          3.69003695e-003, 0., 1.47601478e-002, 1.84501847e-003,
          3.69003695e-003, 0., 0., 7.38007389e-003, 0., 0., 0.,
          1.84501847e-003, 1.84501847e-003, 0., 0., 0., 0.,
          1.84501847e-003, 0., 0., 0., 0., 0., 7.38007389e-003, 0., 0.,
          0., 1.84501847e-003, 0., 1.84501847e-003, 0., 0., 0., 0., 0.,
          0., 0., 0., 1.84501847e-003, 0., 5.53505542e-003, 0.,
          1.84501847e-003, 0., 0., 0., 0., 0., 0., 0., 0.,
          1.29151288e-002, 1.84501847e-003, 0., 0., 1.84501847e-003, 0.,
          0., 0., 0., 0., 0., 7.38007389e-003, 0., 0., 1.84501847e-003,
          1.47601478e-002, 0., 0., 1.84501847e-003, 7.38007389e-003, 0.,
          1.84501847e-003, 3.69003695e-003, 0., 3.69003695e-003,
          1.84501847e-003, 0., 0., 3.69003695e-003, 0., 5.53505542e-003,
          0., 0., 0., 7.38007389e-003, 0., 1.84501847e-003,
          1.84501847e-003, 1.84501847e-003, 0., 0., 0., 1.84501847e-003,
          5.53505542e-003, 0., 0., 0., 3.69003695e-003, 0., 0., 0., 0.,
          0., 3.69003695e-003, 1.84501847e-003, 0., 0., 0., 0., 0., 0.,
          0., 1.84501847e-003, 1.84501847e-003, 0., 0., 1.84501847e-003,
          9.22509283e-003, 7.38007389e-003, 1.84501847e-003, 0.,
          3.69003695e-003, 0., 5.53505542e-003, 0., 0., 0., 0.,
          1.84501847e-003, 3.69003695e-003, 1.84501847e-003,
          1.84501847e-003, 0., 0., 1.84501847e-003, 7.38007389e-003, 0.,
          0., 0., 0., 0., 0., 0., 0., 1.84501847e-003, 0.,
          1.84501847e-003, 0., 0., 1.84501847e-003, 1.84501847e-003, 0.,
          0., 7.38007389e-003, 0., 0., 0., 0., 0., 2.76752766e-002, 0.,
          0., 0., 0., 0., 1.29151288e-002, 0., 0., 3.69003695e-003, 0.,
          2.76752766e-002, 0., 0., 0., 0., 0., 0., 0., 0., 0.,
          2.58302577e-002, 0., 0., 5.53505542e-003, 0., 1.10701108e-002,
          7.38007389e-003, 0., 3.69003695e-003, 1.84501847e-003, 0., 0.,
          1.84501847e-003, 0., 0., 3.69003695e-003, 3.69003695e-003, 0.,
          0., 0., 1.84501847e-003, 0., 0., 0., 0., 0., 0., 0., 0., 0.,
          0., 0., 0., 1.84501847e-003, 1.84501847e-003, 1.84501847e-003,
          1.84501847e-003, 0., 1.84501847e-003, 7.38007389e-003, 0., 0.,
          2.76752766e-002, 3.69003695e-003, 0., 0., 0., 1.84501847e-003,
          7.38007389e-003, 9.22509283e-003, 0., 0., 0., 5.53505542e-003,
          0., 0., 1.84501847e-003, 3.69003695e-003, 0., 0., 0., 0., 0.,
          0., 0., 0., 0., 0., 0., 1.84501847e-003, 0., 0., 0., 0., 0.,
          0., 5.53505542e-003, 0., 3.69003695e-003, 0., 1.84501847e-003,
          9.22509283e-003, 0., 0., 5.53505542e-003, 0., 0.,
          1.84501847e-003, 0., 0., 0., 1.84501847e-003, 0., 0., 0.,
          7.38007389e-003, 0., 0., 0., 0., 0., 3.69003695e-003, 0., 0.,
          1.84501847e-003, 0., 1.10701108e-002, 1.84501847e-003,
          1.84501847e-003, 0., 0., 0., 1.10701108e-002, 0., 0., 0., 0.,
          0., 0., 0., 0., 0., 0., 0., 0., 0., 0., 0., 0., 0.,
          1.84501847e-003, 0. ]
      - [ 3.50508228e-004, 0., 0., 0., 7.01016455e-004, 0.,
          1.40203291e-003, 1.40203291e-003, 7.01016455e-004,
          2.10304931e-003, 1.05152465e-003, 0., 0., 3.50508228e-004,
          1.05152465e-003, 1.05152465e-003, 7.01016455e-004,
          3.15457396e-003, 7.01016455e-004, 0., 0., 3.50508228e-004,
          1.01647386e-002, 0., 4.55660699e-003, 7.01016455e-004, 0., 0.,
          0., 0., 3.50508228e-004, 0., 0., 2.45355768e-003,
          1.05152465e-003, 0., 7.01016455e-004, 0., 0., 3.50508228e-004,
          4.20609862e-003, 1.40203291e-003, 0., 1.75254117e-003,
          7.01016455e-004, 3.50508228e-004, 5.25762327e-003,
          1.75254117e-003, 3.50508228e-004, 0., 0., 1.40203291e-003, 0.,
          0., 7.01016467e-003, 0., 3.50508228e-004, 7.01016455e-004,
          1.54223619e-002, 7.01016455e-004, 1.05152465e-003,
          3.50508228e-004, 0., 0., 3.15457396e-003, 7.01016467e-003,
          1.40203291e-003, 3.50508228e-004, 2.45355768e-003, 0., 0.,
          3.50508228e-004, 1.05152465e-003, 3.50508228e-004,
          1.75254117e-003, 3.50508228e-004, 7.01016467e-003,
          7.01016455e-004, 5.60813164e-003, 0., 2.80406582e-003,
          1.05152465e-003, 3.50508228e-004, 0., 0., 1.05152465e-003,
          3.50508228e-004, 2.80406582e-003, 0., 1.05152465e-003,
          3.50508228e-004, 1.75254117e-003, 1.40203291e-003, 0.,
          3.50508228e-004, 1.05152465e-003, 1.05152465e-003,
          2.45355768e-003, 3.50508228e-004, 1.05152465e-003, 0.,
          3.50508228e-004, 3.50508228e-004, 4.20609862e-003, 0.,
          1.40203291e-003, 0., 1.26182958e-002, 0., 0., 3.50508228e-004,
          2.10304931e-003, 3.50508228e-004, 3.50508228e-004,
          2.10304931e-003, 1.40203291e-003, 3.15457396e-003,
          3.50508228e-004, 5.95864002e-003, 0., 4.90711536e-003,
          6.30914792e-003, 7.01016455e-004, 3.50508228e-004,
          7.01016455e-004, 0., 0., 4.55660699e-003, 0., 2.10304931e-003,
          2.45355768e-003, 0., 0., 2.45355768e-003, 8.06168932e-003,
          1.40203291e-003, 1.12162633e-002, 2.45355768e-003,
          7.01016455e-004, 1.75254117e-003, 2.45355768e-003,
          1.40203291e-003, 1.05152465e-003, 3.50508228e-004, 0., 0.,
          7.01016455e-004, 2.10304931e-003, 3.50508228e-004,
          7.01016455e-004, 3.50508228e-004, 7.01016455e-004,
          3.50508228e-004, 3.50508228e-004, 1.05152465e-003,
          4.90711536e-003, 3.85559048e-003, 2.45355768e-003, 0.,
          5.25762327e-003, 1.05152465e-003, 3.50508228e-004,
          2.80406582e-003, 7.01016455e-004, 7.01016455e-004,
          1.05152465e-003, 1.05152465e-003, 1.75254117e-003, 0.,
          3.50508228e-004, 1.40203291e-003, 7.71118095e-003, 0.,
          2.10304931e-003, 3.50508228e-004, 3.50508234e-003,
          7.01016455e-004, 7.01016455e-004, 1.40203291e-003,
          1.75254117e-003, 7.01016455e-004, 3.50508228e-004,
          7.01016455e-004, 1.05152465e-003, 1.05152465e-003, 0.,
          1.75254117e-003, 0., 1.40203291e-003, 2.10304931e-003,
          1.05152465e-003, 5.25762327e-003, 1.01647386e-002,
          1.75254117e-003, 1.05152465e-003, 7.01016455e-004,
          8.41219723e-003, 3.50508228e-004, 0., 6.65965630e-003, 0.,
          7.01016455e-004, 0., 2.10304931e-003, 7.01016455e-004,
          4.55660699e-003, 1.40203291e-003, 2.45355768e-003,
          2.80406582e-003, 1.05152465e-003, 3.50508228e-004,
          4.55660699e-003, 3.50508228e-004, 1.05152465e-003,
          1.05152465e-003, 6.65965630e-003, 7.36067258e-003,
          2.10304931e-003, 1.05152465e-003, 7.01016455e-004,
          1.05152465e-003, 5.95864002e-003, 1.75254117e-003, 0.,
          7.01016455e-004, 2.80406582e-003, 0., 1.40203291e-003,
          1.75254117e-003, 3.85559048e-003, 3.50508228e-004, 0.,
          3.50508228e-004, 5.25762327e-003, 4.55660699e-003,
          1.75254117e-003, 7.01016455e-004, 7.01016455e-004,
          7.01016455e-004, 7.36067258e-003, 3.50508228e-004,
          6.65965630e-003, 5.25762327e-003, 0., 3.50508228e-004,
          3.50508228e-004, 3.85559048e-003, 3.50508228e-004,
          3.50508228e-004, 1.75254117e-003, 1.29688047e-002,
          3.50508228e-004, 8.76270607e-003, 7.01016455e-004,
          4.20609862e-003, 2.80406582e-003, 7.01016455e-004, 0., 0.,
          1.05152465e-003, 2.10304931e-003, 1.75254117e-003,
          4.20609862e-003, 0., 3.15457396e-003, 3.50508228e-004, 0.,
          5.25762327e-003, 1.75254117e-003, 3.50508228e-004,
          7.01016455e-004, 7.01016455e-004, 1.75254117e-003,
          1.05152465e-003, 4.55660699e-003, 2.10304931e-003,
          7.01016455e-004, 0., 1.75254117e-003, 3.85559048e-003, 0.,
          1.40203291e-003, 0., 7.01016455e-004, 0., 3.50508228e-004,
          5.25762327e-003, 1.75254117e-003, 1.40203291e-003, 0.,
          1.40203291e-003, 3.15457396e-003, 7.01016455e-004, 0.,
          1.40203291e-003, 0., 3.50508228e-004, 2.10304931e-003,
          1.05152465e-003, 4.55660699e-003, 7.01016455e-004, 0.,
          1.75254117e-003, 3.50508228e-004, 7.01016455e-004,
          1.40203291e-003, 0., 3.50508228e-004, 2.10304931e-003, 0.,
          2.45355768e-003, 2.80406582e-003, 0., 2.45355768e-003,
          3.50508228e-004, 7.01016455e-004, 0., 1.05152465e-003,
          7.01016455e-004, 0., 1.40203291e-003, 1.75254117e-003,
          6.30914792e-003, 3.50508228e-004, 9.46372189e-003, 0., 0.,
          3.50508228e-004, 0., 7.01016455e-004, 3.50508228e-004,
          3.50508228e-004, 0., 3.15457396e-003, 4.55660699e-003,
          3.50508228e-004, 7.01016455e-004, 7.01016455e-004,
          1.40203291e-003, 7.01016455e-004, 1.05152465e-003,
          5.95864002e-003, 4.55660699e-003, 0., 3.15457396e-003,
          6.30914792e-003, 7.01016455e-004, 7.01016455e-004, 0.,
          3.50508228e-004, 1.75254117e-003, 7.36067258e-003,
          3.50508228e-004, 0., 0., 0., 4.20609862e-003, 7.01016455e-004,
          3.85559048e-003, 7.01016455e-004, 6.30914792e-003,
          3.50508228e-004, 0., 1.75254117e-003, 2.10304931e-003,
          9.81423073e-003, 3.50508228e-004, 3.50508234e-003,
          5.95864002e-003, 0., 0., 7.36067258e-003, 2.10304931e-003,
          7.01016455e-004, 3.50508228e-004, 1.75254117e-003,
          7.01016455e-004, 2.10304931e-003, 7.01016455e-004,
          1.05152465e-003, 7.01016455e-004, 1.05152465e-003, 0.,
          1.05152465e-003, 3.50508228e-004, 7.01016455e-004,
          7.01016455e-004, 2.80406582e-003, 4.20609862e-003,
          2.10304931e-003, 0., 4.20609862e-003, 1.40203291e-003, 0.,
          7.01016455e-004, 3.15457396e-003, 1.05152465e-003,
          3.50508228e-004, 3.50508228e-004, 7.01016455e-004, 0.,
          1.40203291e-003, 7.01016455e-004, 0., 1.40203291e-003,
          3.50508228e-004, 7.71118095e-003, 3.85559048e-003,
          3.50508228e-004, 7.01016455e-004, 4.20609862e-003,
          3.50508228e-004, 3.50508228e-004, 3.15457396e-003,
          7.01016455e-004, 0., 3.50508228e-004, 1.40203291e-003,
          3.50508228e-004, 3.50508228e-004, 1.05152465e-003, 0.,
          7.01016455e-004, 3.50508228e-004, 1.05152465e-003,
          7.01016455e-004, 0., 3.50508228e-004, 2.10304931e-003, 0.,
          3.85559048e-003, 1.40203291e-003, 0., 3.50508228e-004,
          4.20609862e-003, 3.15457396e-003, 7.01016455e-004,
          3.50508228e-004, 0., 3.50508228e-004, 7.01016455e-004,
          7.01016455e-004, 3.50508228e-004, 3.85559048e-003, 0., 0.,
          7.01016455e-004, 1.05152465e-003, 0., 7.01016455e-004,
          4.55660699e-003, 3.50508228e-004, 3.50508228e-004,
          8.41219723e-003, 0., 1.40203291e-003, 0., 3.15457396e-003, 0.,
          7.01016455e-004, 0., 1.05152465e-003, 7.71118095e-003,
          3.50508234e-003, 9.81423073e-003, 0., 1.75254117e-003,
          2.45355768e-003, 7.01016455e-004, 3.50508228e-004,
          3.50508228e-004, 2.45355768e-003, 7.01016455e-004, 0.,
          7.01016455e-004, 3.50508228e-004, 7.01016455e-004,
          4.55660699e-003, 0., 4.55660699e-003, 0., 3.50508228e-004,
          7.01016455e-004, 0., 8.41219723e-003, 0., 2.80406582e-003,
          8.41219723e-003, 7.01016455e-004, 4.90711536e-003,
          1.40203291e-003, 1.05152465e-003, 0., 8.76270607e-003,
          3.50508228e-004, 1.40203291e-003, 1.05152465e-003, 0.,
          1.05152465e-003, 1.05152465e-003, 3.50508234e-003, 0.,
          1.05152465e-003, 0., 7.01016455e-004, 3.50508228e-004,
          2.80406582e-003, 0., 1.05152465e-003, 1.75254117e-003,
          5.60813164e-003, 3.50508228e-004, 7.01016455e-004,
          1.05152465e-003, 3.50508234e-003, 1.40203291e-003, 0.,
          3.50508228e-004, 2.80406582e-003, 7.36067258e-003,
          1.05152465e-003, 7.01016455e-004, 7.01016455e-004, 0.,
          3.50508228e-004, 0., 2.45355768e-003, 9.46372189e-003,
          7.01016455e-004, 3.50508228e-004, 1.05152465e-003,
          7.01016455e-004, 0., 1.05152465e-003, 0., 3.50508228e-004, 0.,
          3.50508228e-004, 4.55660699e-003, 7.01016455e-004,
          2.10304931e-003, 2.10304931e-003, 1.40203291e-003,
          7.01016455e-004, 1.75254117e-003, 3.50508228e-004,
          2.45355768e-003, 4.55660699e-003, 1.40203291e-003, 0.,
          1.05152465e-003, 1.05152465e-003, 1.05152465e-003, 0., 0.,
          7.01016467e-003, 0., 7.01016455e-004, 1.05152465e-003,
          3.50508228e-004, 1.75254117e-003, 7.01016455e-004,
          4.20609862e-003, 3.50508228e-004, 3.50508228e-004,
          4.90711536e-003, 5.95864002e-003, 3.50508228e-004, 0.,
          7.01016455e-004, 0., 1.40203291e-003, 1.15667712e-002, 0.,
          2.10304931e-003, 0., 2.10304931e-003, 3.15457396e-003,
          1.40203291e-003, 0., 0., 0., 3.50508228e-004, 1.22677879e-002,
          1.40203291e-003, 3.50508228e-004, 7.01016455e-004, 0.,
          1.05152465e-003, 3.50508228e-004, 0., 4.55660699e-003,
          1.75254117e-003, 5.25762327e-003, 0., 2.80406582e-003,
          3.50508228e-004, 2.80406582e-003, 1.40203291e-003,
          3.50508228e-004 ]
      - [ 1.75254117e-003, 0., 7.01016455e-004, 1.40203291e-003,
          3.50508228e-004, 3.50508228e-004, 1.75254117e-003,
          4.20609862e-003, 1.40203291e-003, 1.75254117e-003,
          3.50508228e-004, 3.50508228e-004, 7.01016455e-004,
          1.40203291e-003, 0., 0., 3.50508228e-004, 2.45355768e-003,
          7.01016455e-004, 0., 0., 0., 1.57728698e-002, 1.40203291e-003,
          2.45355768e-003, 3.50508228e-004, 7.01016455e-004,
          3.50508228e-004, 3.50508228e-004, 7.01016455e-004, 0.,
          7.01016455e-004, 0., 1.75254117e-003, 1.75254117e-003,
          3.50508228e-004, 0., 3.50508228e-004, 3.50508228e-004,
          7.01016455e-004, 4.55660699e-003, 1.75254117e-003, 0.,
          1.05152465e-003, 0., 1.05152465e-003, 2.45355768e-003,
          2.80406582e-003, 1.05152465e-003, 0., 3.50508228e-004,
          7.01016455e-004, 0., 0., 9.11321398e-003, 7.01016455e-004,
          7.01016455e-004, 0., 1.36698205e-002, 3.50508228e-004,
          3.50508228e-004, 1.05152465e-003, 0., 0., 2.80406582e-003,
          4.55660699e-003, 1.75254117e-003, 0., 4.20609862e-003, 0., 0.,
          3.50508228e-004, 0., 1.05152465e-003, 1.05152465e-003,
          3.50508228e-004, 5.60813164e-003, 1.05152465e-003,
          1.75254117e-003, 0., 3.15457396e-003, 1.05152465e-003, 0., 0.,
          0., 7.01016455e-004, 7.01016455e-004, 1.05152465e-003, 0.,
          7.01016455e-004, 3.50508228e-004, 1.75254117e-003,
          1.75254117e-003, 0., 3.50508228e-004, 1.40203291e-003,
          7.01016455e-004, 1.05152465e-003, 0., 7.01016455e-004, 0., 0.,
          3.50508228e-004, 5.25762327e-003, 7.01016455e-004,
          2.45355768e-003, 7.01016455e-004, 1.22677879e-002, 0., 0.,
          7.01016455e-004, 7.01016455e-004, 3.50508228e-004, 0.,
          1.40203291e-003, 1.05152465e-003, 2.80406582e-003,
          3.50508228e-004, 5.95864002e-003, 3.50508228e-004,
          4.55660699e-003, 7.36067258e-003, 1.40203291e-003,
          1.05152465e-003, 3.50508228e-004, 0., 3.50508228e-004,
          7.01016467e-003, 0., 3.50508228e-004, 7.01016455e-004, 0.,
          1.40203291e-003, 1.75254117e-003, 5.95864002e-003,
          3.50508228e-004, 4.55660699e-003, 2.80406582e-003,
          1.40203291e-003, 1.05152465e-003, 2.10304931e-003,
          3.15457396e-003, 1.40203291e-003, 3.50508228e-004,
          7.01016455e-004, 0., 3.50508228e-004, 1.40203291e-003,
          3.50508228e-004, 0., 2.10304931e-003, 2.10304931e-003, 0., 0.,
          1.75254117e-003, 5.60813164e-003, 1.75254117e-003,
          7.01016455e-004, 1.75254117e-003, 1.01647386e-002, 0.,
          7.01016455e-004, 1.40203291e-003, 7.01016455e-004,
          1.40203291e-003, 3.50508228e-004, 7.01016455e-004,
          7.01016455e-004, 3.50508228e-004, 7.01016455e-004,
          7.01016455e-004, 9.81423073e-003, 3.50508228e-004,
          2.45355768e-003, 1.75254117e-003, 3.50508228e-004,
          3.50508228e-004, 1.05152465e-003, 7.01016455e-004,
          2.45355768e-003, 1.40203291e-003, 0., 1.05152465e-003,
          1.40203291e-003, 3.15457396e-003, 7.01016455e-004,
          2.80406582e-003, 1.40203291e-003, 0., 1.75254117e-003,
          7.01016455e-004, 3.15457396e-003, 9.11321398e-003,
          3.15457396e-003, 3.50508228e-004, 7.01016455e-004,
          3.85559048e-003, 0., 0., 2.45355768e-003, 0., 3.15457396e-003,
          0., 3.50508228e-004, 0., 3.85559048e-003, 1.05152465e-003,
          1.75254117e-003, 3.15457396e-003, 1.75254117e-003, 0.,
          4.55660699e-003, 0., 7.01016455e-004, 3.50508228e-004,
          4.55660699e-003, 9.81423073e-003, 3.50508234e-003, 0.,
          1.05152465e-003, 2.10304931e-003, 6.65965630e-003, 0., 0.,
          7.01016455e-004, 3.50508234e-003, 0., 3.50508228e-004,
          1.40203291e-003, 1.40203291e-003, 0., 0., 0., 4.90711536e-003,
          7.01016467e-003, 4.20609862e-003, 3.50508228e-004,
          7.01016455e-004, 2.10304931e-003, 5.95864002e-003,
          1.75254117e-003, 8.06168932e-003, 3.50508234e-003,
          3.50508228e-004, 0., 3.50508228e-004, 3.85559048e-003, 0.,
          7.01016455e-004, 1.75254117e-003, 7.71118095e-003,
          7.01016455e-004, 4.90711536e-003, 7.01016455e-004,
          4.20609862e-003, 3.50508228e-004, 1.75254117e-003,
          1.05152465e-003, 0., 2.10304931e-003, 1.40203291e-003,
          5.25762327e-003, 6.65965630e-003, 0., 1.75254117e-003, 0.,
          1.05152465e-003, 8.06168932e-003, 0., 1.40203291e-003,
          1.75254117e-003, 0., 3.85559048e-003, 3.50508234e-003,
          3.50508234e-003, 1.05152465e-003, 0., 7.01016455e-004,
          2.45355768e-003, 1.75254117e-003, 3.50508228e-004,
          3.50508228e-004, 0., 2.10304931e-003, 3.50508228e-004, 0.,
          6.30914792e-003, 1.75254117e-003, 3.50508228e-004,
          1.05152465e-003, 0., 1.05152465e-003, 3.50508228e-004, 0.,
          1.40203291e-003, 0., 1.40203291e-003, 1.05152465e-003,
          2.10304931e-003, 6.30914792e-003, 2.10304931e-003, 0.,
          1.40203291e-003, 7.01016455e-004, 3.50508228e-004,
          7.01016455e-004, 0., 3.50508228e-004, 3.15457396e-003, 0.,
          8.41219723e-003, 3.85559048e-003, 0., 3.50508234e-003,
          3.50508228e-004, 1.40203291e-003, 0., 1.05152465e-003,
          1.05152465e-003, 0., 7.01016455e-004, 2.10304931e-003,
          4.55660699e-003, 2.10304931e-003, 5.60813164e-003,
          7.01016455e-004, 0., 3.50508228e-004, 2.45355768e-003,
          3.50508228e-004, 0., 3.50508228e-004, 0., 3.85559048e-003,
          2.45355768e-003, 1.05152465e-003, 2.10304931e-003,
          7.01016455e-004, 7.01016455e-004, 3.50508228e-004,
          2.10304931e-003, 5.60813164e-003, 4.55660699e-003, 0.,
          2.80406582e-003, 9.46372189e-003, 7.01016455e-004,
          3.50508228e-004, 0., 1.40203291e-003, 4.90711536e-003,
          5.25762327e-003, 3.50508228e-004, 7.01016455e-004, 0., 0.,
          3.15457396e-003, 0., 2.80406582e-003, 0., 5.25762327e-003,
          1.75254117e-003, 7.01016455e-004, 1.05152465e-003,
          1.05152465e-003, 1.29688047e-002, 3.50508228e-004,
          3.15457396e-003, 8.76270607e-003, 0., 0., 6.65965630e-003,
          1.75254117e-003, 3.50508228e-004, 3.50508228e-004,
          1.40203291e-003, 1.05152465e-003, 4.20609862e-003,
          1.05152465e-003, 3.50508228e-004, 0., 2.80406582e-003, 0.,
          3.85559048e-003, 3.50508228e-004, 1.75254117e-003,
          1.05152465e-003, 2.80406582e-003, 4.55660699e-003,
          3.85559048e-003, 3.50508228e-004, 3.85559048e-003, 0.,
          3.50508228e-004, 2.10304931e-003, 3.50508228e-004,
          3.50508228e-004, 0., 1.40203291e-003, 7.01016455e-004,
          3.50508228e-004, 2.45355768e-003, 1.05152465e-003, 0.,
          1.05152465e-003, 7.01016455e-004, 4.20609862e-003,
          3.50508234e-003, 7.01016455e-004, 3.50508228e-004,
          3.50508234e-003, 4.90711536e-003, 1.40203291e-003,
          1.40203291e-003, 1.05152465e-003, 7.01016455e-004, 0.,
          1.05152465e-003, 2.10304931e-003, 1.75254117e-003,
          7.01016455e-004, 0., 0., 0., 1.05152465e-003, 7.01016455e-004,
          7.01016455e-004, 0., 1.05152465e-003, 3.50508228e-004,
          4.55660699e-003, 7.01016455e-004, 0., 0., 5.95864002e-003,
          3.15457396e-003, 7.01016455e-004, 1.05152465e-003, 0.,
          1.05152465e-003, 0., 7.01016455e-004, 1.75254117e-003,
          1.75254117e-003, 3.50508228e-004, 0., 7.01016455e-004,
          7.01016455e-004, 3.50508228e-004, 0., 7.01016455e-004,
          1.05152465e-003, 7.01016455e-004, 5.95864002e-003, 0.,
          3.50508228e-004, 0., 3.50508234e-003, 0., 1.05152465e-003,
          3.50508228e-004, 2.45355768e-003, 7.01016467e-003,
          3.85559048e-003, 1.01647386e-002, 0., 3.50508228e-004,
          1.05152465e-003, 0., 1.05152465e-003, 7.01016455e-004,
          4.20609862e-003, 3.50508228e-004, 0., 0., 1.05152465e-003,
          3.50508228e-004, 4.55660699e-003, 0., 2.80406582e-003, 0.,
          3.50508228e-004, 7.01016455e-004, 0., 6.30914792e-003,
          3.50508228e-004, 2.80406582e-003, 9.11321398e-003, 0.,
          6.65965630e-003, 1.75254117e-003, 1.40203291e-003, 0.,
          7.36067258e-003, 1.75254117e-003, 1.75254117e-003,
          1.05152465e-003, 0., 3.50508228e-004, 1.40203291e-003,
          2.80406582e-003, 1.40203291e-003, 1.75254117e-003, 0., 0.,
          3.50508228e-004, 1.40203291e-003, 7.01016455e-004,
          7.01016455e-004, 3.85559048e-003, 2.45355768e-003,
          1.75254117e-003, 1.75254117e-003, 1.05152465e-003,
          3.85559048e-003, 1.75254117e-003, 0., 0., 3.50508228e-004,
          7.01016467e-003, 7.01016455e-004, 2.10304931e-003,
          3.50508228e-004, 0., 7.01016455e-004, 0., 4.20609862e-003,
          9.46372189e-003, 7.01016455e-004, 0., 1.40203291e-003,
          3.50508228e-004, 3.50508228e-004, 1.40203291e-003,
          3.50508228e-004, 7.01016455e-004, 0., 7.01016455e-004,
          4.55660699e-003, 3.50508228e-004, 2.10304931e-003,
          2.10304931e-003, 1.40203291e-003, 7.01016455e-004,
          3.50508228e-004, 7.01016455e-004, 2.80406582e-003,
          1.75254117e-003, 1.40203291e-003, 0., 3.50508228e-004,
          3.50508228e-004, 3.50508228e-004, 3.50508228e-004, 0.,
          3.15457396e-003, 0., 0., 7.01016455e-004, 3.50508228e-004,
          2.45355768e-003, 7.01016455e-004, 7.01016467e-003,
          3.50508228e-004, 1.40203291e-003, 2.45355768e-003,
          7.36067258e-003, 3.85559048e-003, 0., 7.01016455e-004, 0.,
          3.50508228e-004, 9.11321398e-003, 1.05152465e-003,
          1.40203291e-003, 0., 2.45355768e-003, 3.50508228e-004,
          1.05152465e-003, 0., 3.50508228e-004, 7.01016455e-004,
          3.50508228e-004, 9.46372189e-003, 2.10304931e-003,
          3.50508228e-004, 7.01016455e-004, 0., 1.05152465e-003, 0., 0.,
          5.95864002e-003, 1.75254117e-003, 3.85559048e-003, 0.,
          3.50508228e-004, 7.01016455e-004, 4.20609862e-003, 0.,
          3.50508228e-004 ]
      - [ 0., 1.09529030e-003, 0., 0., 0., 0., 0., 0., 0., 0., 0.,
          4.38116118e-003, 0., 0., 1.09529030e-003, 0., 4.38116118e-003,
          0., 1.09529030e-003, 0., 0., 0., 0., 0., 0., 0., 0.,
          1.09529030e-003, 0., 0., 1.09529030e-003, 0., 3.28587089e-003,
          0., 0., 0., 0., 0., 0., 0., 0., 0., 0., 0., 1.09529030e-003,
          4.38116118e-003, 0., 0., 0., 0., 0., 0., 0., 2.19058059e-003,
          0., 0., 0., 0., 0., 0., 4.38116118e-003, 6.57174177e-003, 0.,
          1.09529030e-003, 0., 0., 0., 0., 0., 0., 0., 6.57174177e-003,
          1.09529030e-003, 0., 0., 5.47645148e-003, 0., 0., 0.,
          2.19058059e-003, 0., 1.09529030e-003, 1.09529030e-003, 0., 0.,
          0., 1.09529030e-003, 5.47645148e-003, 0., 1.09529030e-003, 0.,
          0., 0., 0., 0., 1.09529030e-003, 1.09529030e-003, 0., 0., 0.,
          9.85761266e-003, 7.66703207e-003, 0., 0., 0., 0., 0., 0.,
          2.73822583e-002, 6.57174177e-003, 0., 0., 0., 0., 0., 0., 0.,
          5.47645148e-003, 0., 5.47645148e-003, 0., 0., 0., 0.,
          1.09529030e-003, 0., 2.19058059e-003, 0., 0., 0., 0., 0.,
          1.53340641e-002, 0., 0., 0., 0., 0., 0., 0., 0., 0., 0., 0.,
          0., 0., 0., 0., 7.66703207e-003, 0., 0., 0., 0., 0., 0., 0.,
          0., 0., 0., 0., 2.19058059e-003, 0., 0., 0., 5.47645148e-003,
          0., 0., 0., 0., 0., 6.57174177e-003, 0., 3.28587089e-003, 0.,
          0., 2.19058059e-003, 0., 0., 0., 0., 0., 3.17634195e-002, 0.,
          0., 0., 0., 0., 0., 1.09529030e-003, 0., 3.28587089e-003, 0.,
          1.09529030e-003, 1.09529030e-003, 0., 0., 0., 3.28587089e-003,
          2.19058059e-003, 0., 3.28587089e-003, 0., 0., 0.,
          6.57174177e-003, 0., 0., 0., 0., 0., 4.38116118e-003, 0., 0.,
          0., 3.28587089e-003, 0., 0., 0., 0., 1.09529030e-003, 0., 0.,
          0., 0., 0., 0., 0., 0., 2.19058059e-003, 0., 0., 0., 0., 0.,
          0., 0., 0., 1.09529030e-003, 0., 0., 0., 0., 0., 0., 0., 0.,
          0., 0., 1.53340641e-002, 0., 0., 0., 0., 1.09529030e-003, 0.,
          3.28587089e-003, 0., 0., 0., 0., 0., 0., 0., 1.42387738e-002,
          0., 6.57174177e-003, 0., 0., 0., 0., 0., 0., 0., 0., 0., 0.,
          1.09529030e-003, 0., 0., 0., 3.28587089e-003, 4.38116118e-003,
          0., 0., 2.19058059e-003, 0., 0., 0., 1.09529030e-003, 0.,
          1.09529030e-003, 0., 0., 0., 1.09529030e-003, 1.64293535e-002,
          0., 1.09529030e-003, 0., 0., 0., 0., 1.09529030e-003,
          9.85761266e-003, 1.09529030e-003, 0., 0., 8.76232237e-003, 0.,
          0., 0., 0., 0., 0., 0., 0., 0., 0., 0., 0., 1.09529030e-003,
          0., 0., 0., 0., 0., 0., 1.20481933e-002, 1.09529030e-003, 0.,
          2.19058059e-003, 6.57174177e-003, 0., 0., 0., 7.66703207e-003,
          6.57174177e-003, 0., 0., 3.28587089e-003, 0., 0., 0., 0., 0.,
          0., 1.09529030e-003, 6.57174177e-003, 0., 0., 0., 0., 0.,
          4.38116118e-003, 0., 1.31434835e-002, 0., 1.09529030e-003, 0.,
          0., 0., 1.09529030e-003, 1.31434835e-002, 0., 0., 0.,
          5.47645148e-003, 0., 0., 0., 0., 0., 0., 1.09529030e-003, 0.,
          0., 0., 0., 0., 0., 3.94304506e-002, 0., 0., 0.,
          1.09529030e-003, 2.19058059e-003, 0., 0., 0., 0., 0., 0., 0.,
          5.69550954e-002, 0., 0., 0., 0., 0., 0., 0., 0.,
          2.19058059e-003, 1.09529030e-003, 9.85761266e-003,
          2.19058059e-003, 0., 0., 0., 0., 0., 3.28587089e-003, 0., 0.,
          9.85761266e-003, 7.66703207e-003, 1.09529030e-003, 0., 0., 0.,
          0., 0., 1.31434835e-002, 2.19058059e-003, 0., 0.,
          4.38116118e-003, 2.19058059e-003, 1.09529030e-003, 0., 0., 0.,
          0., 0., 0., 4.38116118e-003, 0., 8.76232237e-003,
          8.76232237e-002, 1.09529030e-003, 0., 0., 1.09529030e-003, 0.,
          0., 3.28587089e-003, 0., 0., 0., 0., 0., 2.19058059e-003,
          1.09529030e-003, 1.09529030e-003, 7.66703207e-003,
          1.09529030e-003, 0., 0., 0., 0., 3.28587089e-003,
          1.09529030e-003, 0., 0., 0., 0., 1.09529030e-003, 0.,
          1.09529030e-003, 0., 0., 0., 1.09529030e-003, 0.,
          8.76232237e-003, 1.09529030e-003, 0., 0., 0., 0.,
          4.38116118e-003, 0., 3.28587089e-003, 1.09529030e-003, 0.,
          1.09529030e-002, 1.09529030e-003, 0., 0., 0., 0., 0., 0., 0.,
          6.57174177e-003, 0., 0., 0., 0., 0., 0., 0., 0.,
          2.40963865e-002, 2.19058059e-003, 1.09529030e-003, 0.,
          2.19058059e-003, 0., 0., 0., 5.47645148e-003, 0., 0., 0., 0.,
          0., 1.09529030e-003, 0., 0., 0., 0., 1.09529030e-003, 0., 0.,
          0., 0., 0., 0., 0., 4.38116118e-003, 0., 0., 0., 0., 0.,
          7.66703207e-003, 1.09529030e-003, 0., 1.09529030e-003, 0.,
          1.09529030e-003, 0., 0., 2.19058059e-003, 0., 0., 0., 0.,
          9.96714160e-002, 0., 0., 6.90032914e-002, 0., 3.28587089e-003,
          0., 0., 6.57174177e-003, 1.09529030e-003, 4.38116118e-003, 0.,
          0., 0., 0., 1.09529030e-003, 0., 0., 0., 0., 0., 0., 0., 0.,
          0., 0., 0., 3.28587089e-003, 0., 0., 2.19058059e-003,
          2.19058059e-003, 0., 0., 0., 0., 0., 1.09529030e-003, 0.,
          1.09529030e-003, 0., 4.38116118e-003, 0., 0., 0.,
          1.09529030e-003, 0., 0., 0., 1.09529030e-003, 0. ]
      - [ 2.51572323e-003, 0., 1.25786162e-003, 0., 0., 0., 0.,
          1.25786162e-003, 0., 0., 0., 0., 0., 0., 0., 5.03144646e-003,
          0., 0., 3.77358496e-002, 0., 0., 1.25786162e-003,
          2.51572323e-003, 2.51572323e-003, 0., 0., 0., 6.28930796e-003,
          1.25786162e-003, 0., 1.25786162e-003, 6.28930796e-003, 0.,
          2.13836469e-002, 1.25786162e-003, 1.25786162e-003, 0., 0., 0.,
          0., 0., 2.51572323e-003, 0., 0., 1.25786162e-003,
          1.00628929e-002, 0., 1.25786162e-003, 0., 0., 0.,
          5.03144646e-003, 0., 0., 2.51572323e-003, 0., 0., 0.,
          1.25786159e-002, 1.25786162e-003, 0., 0., 0., 0., 0.,
          1.25786162e-003, 0., 0., 1.25786162e-003, 0., 0.,
          1.25786162e-003, 1.25786162e-003, 0., 0., 0., 5.03144646e-003,
          2.51572323e-003, 2.51572323e-003, 0., 0., 0., 0., 0., 0.,
          5.03144646e-003, 0., 1.25786162e-003, 0., 0., 0.,
          2.51572323e-003, 0., 0., 1.25786162e-003, 0., 5.03144646e-003,
          0., 5.03144646e-003, 0., 1.25786159e-002, 3.01886797e-002, 0.,
          0., 7.54716992e-003, 0., 0., 0., 0., 1.25786162e-003, 0., 0.,
          1.25786162e-003, 0., 0., 1.25786162e-003, 1.25786162e-003,
          1.25786162e-003, 0., 0., 1.25786162e-003, 0., 0.,
          2.38993708e-002, 0., 0., 0., 0., 0., 0., 1.25786162e-003, 0.,
          0., 2.51572323e-003, 1.25786162e-003, 0., 0., 0., 0.,
          2.51572323e-003, 0., 0., 0., 1.25786162e-003, 7.54716992e-003,
          0., 0., 2.51572323e-003, 0., 0., 0., 0., 1.25786162e-003,
          2.51572323e-003, 0., 5.03144646e-003, 1.25786162e-003,
          5.03144646e-003, 1.25786162e-003, 0., 0., 0., 2.51572323e-003,
          5.03144646e-003, 7.54716992e-003, 0., 0., 2.51572323e-003, 0.,
          2.51572323e-003, 1.25786162e-003, 3.77358496e-003,
          5.03144646e-003, 0., 0., 1.25786162e-003, 2.51572323e-003,
          2.51572323e-003, 0., 1.25786162e-003, 0., 2.51572323e-003, 0.,
          5.03144646e-003, 0., 1.25786162e-003, 0., 1.00628929e-002, 0.,
          0., 0., 0., 1.25786162e-003, 1.25786162e-003, 0., 0., 0.,
          2.51572323e-003, 2.64150947e-002, 0., 0., 1.25786162e-003, 0.,
          2.51572323e-003, 2.51572323e-003, 0., 0., 0., 0.,
          1.25786162e-003, 0., 0., 2.76729558e-002, 0., 1.25786162e-003,
          1.25786162e-003, 8.80503096e-003, 3.77358496e-003,
          1.25786162e-003, 0., 0., 3.77358496e-003, 3.77358496e-003, 0.,
          0., 1.25786162e-003, 0., 1.00628929e-002, 1.25786162e-003, 0.,
          2.38993708e-002, 0., 0., 1.25786162e-003, 0., 0.,
          3.77358496e-003, 0., 0., 0., 1.00628929e-002, 3.77358496e-003,
          0., 0., 3.77358496e-003, 0., 0., 0., 2.51572323e-003, 0., 0.,
          0., 2.51572323e-003, 1.25786162e-003, 0., 1.25786162e-003, 0.,
          0., 0., 1.25786162e-003, 0., 0., 0., 8.80503096e-003, 0., 0.,
          0., 2.51572323e-003, 1.25786162e-003, 6.28930796e-003,
          1.25786162e-003, 1.25786159e-002, 0., 0., 0., 0., 0., 0.,
          2.51572323e-003, 0., 0., 0., 0., 0., 2.26415098e-002,
          1.25786162e-003, 0., 2.51572323e-003, 1.25786162e-003,
          1.25786162e-003, 0., 1.25786162e-003, 0., 0., 6.28930796e-003,
          1.25786162e-003, 0., 1.25786162e-003, 1.25786162e-003, 0., 0.,
          0., 2.51572323e-003, 3.77358496e-003, 0., 1.25786162e-003,
          1.25786162e-003, 0., 0., 0., 1.25786162e-003, 0.,
          1.13207549e-002, 3.77358496e-003, 2.51572323e-003, 0., 0., 0.,
          0., 0., 0., 1.25786162e-003, 0., 2.51572323e-003, 0.,
          1.25786162e-003, 0., 0., 1.25786162e-003, 0., 0.,
          2.51572323e-003, 0., 1.25786162e-003, 0., 0., 2.51572323e-003,
          0., 0., 0., 7.54716992e-003, 1.25786162e-003, 1.25786162e-003,
          0., 0., 2.51572323e-003, 0., 2.51572323e-003, 0., 0.,
          1.25786162e-003, 0., 0., 2.51572323e-003, 0., 0.,
          1.25786162e-003, 3.77358496e-003, 3.77358496e-003,
          1.25786162e-003, 0., 3.77358496e-003, 2.51572323e-003, 0., 0.,
          6.28930796e-003, 0., 0., 5.03144646e-003, 0., 0., 0.,
          8.80503096e-003, 0., 3.77358496e-003, 1.25786162e-003,
          1.25786162e-003, 1.25786162e-003, 1.25786162e-003,
          1.25786162e-003, 0., 2.13836469e-002, 0., 1.25786162e-003,
          1.25786162e-003, 2.51572323e-003, 2.51572323e-003,
          1.25786162e-003, 1.25786162e-003, 0., 0., 1.25786162e-003, 0.,
          0., 0., 1.25786162e-003, 0., 0., 0., 0., 1.25786162e-003,
          1.25786162e-003, 7.54716992e-003, 0., 0., 1.25786162e-003,
          2.51572323e-003, 0., 0., 0., 0., 2.51572323e-003, 0.,
          1.25786162e-003, 6.28930796e-003, 2.51572323e-003, 0., 0.,
          1.25786162e-003, 0., 1.25786162e-003, 0., 0., 0., 0., 0.,
          1.00628929e-002, 0., 1.25786162e-003, 0., 1.25786162e-003, 0.,
          0., 8.80503096e-003, 0., 3.77358496e-003, 0., 3.77358496e-003,
          1.25786162e-003, 0., 0., 2.51572323e-003, 2.51572323e-003,
          1.25786162e-003, 1.25786162e-003, 0., 0., 0., 0., 0., 0., 0.,
          0., 2.51572323e-003, 1.38364779e-002, 0., 0., 1.25786162e-003,
          0., 0., 0., 0., 0., 0., 0., 0., 2.51572323e-003, 0.,
          3.77358496e-003, 0., 0., 0., 0., 0., 0., 0., 0.,
          3.77358496e-003, 1.25786162e-003, 0., 2.89308168e-002, 0.,
          1.25786162e-003, 1.25786162e-003, 0., 0., 0., 0., 0.,
          1.25786162e-003, 8.80503096e-003, 2.51572323e-003, 0.,
          1.25786162e-003, 2.51572323e-003, 0., 0., 0., 0., 0., 0., 0.,
          2.51572323e-003, 0., 1.25786162e-003, 0., 1.25786162e-003,
          1.25786162e-003, 1.25786162e-003, 0., 2.51572323e-003,
          2.51572323e-003, 1.38364779e-002, 0., 1.25786162e-003,
          1.25786162e-003, 0., 0., 0., 0., 0., 3.77358496e-003, 0., 0.,
          0., 0., 1.25786162e-003, 0., 0., 0., 0., 0., 0., 0.,
          7.54716992e-003, 0., 0., 0., 0., 0., 0., 1.25786162e-003, 0.,
          1.25786162e-003, 2.51572323e-003, 0., 1.25786162e-003, 0., 0.,
          0., 0., 0., 5.03144646e-003, 0., 1.63522009e-002,
          1.25786162e-003, 0., 0., 6.28930796e-003, 0., 1.25786162e-003,
          1.25786162e-003, 0., 1.25786162e-003, 1.25786162e-003,
          1.25786162e-003, 0., 5.03144646e-003, 0., 1.25786162e-003, 0.,
          0., 0., 0., 2.51572323e-003, 0., 0., 1.25786162e-003,
          1.25786162e-003, 0., 1.25786162e-003, 2.51572318e-002,
          7.54716992e-003, 0., 1.25786162e-003, 0., 0., 0.,
          2.51572323e-003, 5.03144646e-003, 0., 3.77358496e-003, 0., 0.,
          0., 2.51572323e-003, 0., 1.25786162e-003, 0., 0. ]
      - [ 0., 0., 0., 0., 1.45137880e-003, 0., 0., 1.45137880e-003, 0.,
          2.90275761e-003, 0., 0., 0., 0., 2.90275761e-003, 0.,
          2.90275761e-003, 0., 1.59651674e-002, 0., 0., 0., 0.,
          1.45137880e-003, 0., 1.45137880e-003, 0., 1.30624091e-002,
          7.25689391e-003, 0., 2.90275761e-003, 0., 5.80551522e-003, 0.,
          0., 0., 0., 0., 1.45137880e-003, 0., 0., 4.35413653e-003, 0.,
          0., 0., 1.01596517e-002, 0., 0., 1.45137880e-003, 0., 0.,
          2.90275761e-003, 0., 0., 0., 2.90275761e-003, 0., 0., 0., 0.,
          5.80551522e-003, 0., 0., 0., 0., 0., 1.45137880e-003,
          1.45137880e-003, 0., 0., 0., 0., 0., 1.45137880e-003,
          2.90275761e-003, 2.90275761e-003, 0., 0., 0., 1.74165461e-002,
          1.45137880e-003, 0., 0., 0., 0., 5.80551522e-003, 0.,
          1.45137880e-003, 0., 0., 2.90275761e-003, 5.80551522e-003,
          4.35413653e-003, 2.90275761e-003, 1.45137880e-003, 0., 0.,
          1.45137880e-003, 0., 1.45137880e-003, 4.35413644e-002,
          5.80551522e-003, 0., 0., 0., 0., 0., 0., 0., 4.35413653e-003,
          1.45137880e-003, 0., 0., 0., 0., 0., 0., 1.45137880e-003, 0.,
          0., 0., 0., 5.80551522e-003, 1.45137880e-003, 4.35413653e-003,
          1.45137880e-003, 2.90275761e-003, 1.45137880e-003, 0., 0., 0.,
          0., 0., 0., 0., 0., 0., 0., 0., 0., 0., 1.45137880e-003,
          1.45137880e-003, 2.90275761e-003, 2.03193035e-002, 0., 0., 0.,
          0., 2.90275761e-003, 0., 0., 1.45137880e-003, 0.,
          7.25689391e-003, 0., 1.45137880e-003, 2.90275761e-003,
          4.35413653e-003, 0., 0., 1.45137880e-003, 0., 0.,
          7.25689391e-003, 0., 5.80551522e-003, 4.35413653e-003, 0.,
          1.45137880e-003, 2.90275761e-003, 0., 2.90275761e-003, 0., 0.,
          0., 2.90275761e-003, 1.30624091e-002, 1.45137880e-003,
          2.90275761e-003, 0., 5.80551522e-003, 0., 5.80551522e-003,
          1.45137880e-003, 1.88679248e-002, 0., 2.90275761e-003, 0.,
          1.45137880e-003, 1.45137880e-003, 0., 0., 2.90275761e-003,
          1.45137880e-003, 0., 1.45137880e-003, 0., 4.35413653e-003, 0.,
          4.35413653e-003, 1.45137880e-003, 0., 4.35413653e-003,
          2.90275761e-003, 0., 0., 0., 0., 0., 0., 0., 1.59651674e-002,
          0., 0., 0., 0., 0., 1.45137880e-003, 4.35413653e-003, 0., 0.,
          2.90275761e-003, 0., 0., 2.90275761e-003, 2.90275761e-003, 0.,
          0., 0., 1.59651674e-002, 0., 0., 0., 0., 1.45137880e-003, 0.,
          2.90275761e-003, 7.25689391e-003, 1.45137880e-003,
          7.25689391e-003, 0., 0., 0., 0., 0., 4.35413653e-003, 0.,
          1.59651674e-002, 2.90275761e-003, 0., 1.45137880e-003, 0., 0.,
          0., 2.90275761e-003, 8.70827306e-003, 2.90275761e-003, 0.,
          1.45137880e-003, 0., 0., 0., 1.74165461e-002, 0., 0.,
          1.45137880e-003, 0., 0., 0., 4.35413653e-003, 1.30624091e-002,
          1.45137880e-003, 0., 0., 0., 0., 0., 0., 0., 1.45137880e-003,
          1.45137880e-003, 0., 0., 5.80551522e-003, 0., 0., 0.,
          1.45137880e-003, 1.45137880e-003, 0., 0., 1.45137880e-003, 0.,
          4.35413653e-003, 8.70827306e-003, 1.45137880e-003,
          1.45137880e-003, 1.45137880e-003, 0., 0., 0., 0.,
          1.16110304e-002, 0., 0., 0., 0., 1.45137880e-003, 0., 0.,
          2.90275761e-003, 4.35413653e-003, 1.45137880e-003, 0., 0., 0.,
          1.45137880e-003, 0., 0., 0., 1.45137880e-003, 0.,
          1.45137880e-003, 0., 1.45137880e-003, 0., 0., 2.90275761e-003,
          0., 0., 2.90275761e-003, 0., 0., 0., 4.35413653e-003,
          2.90275761e-003, 0., 0., 5.80551522e-003, 1.45137880e-003, 0.,
          0., 0., 0., 0., 5.80551522e-003, 1.45137880e-003,
          1.45137880e-003, 0., 0., 0., 0., 0., 0., 0., 0.,
          2.90275761e-003, 0., 8.70827306e-003, 0., 1.88679248e-002, 0.,
          1.45137880e-003, 0., 0., 1.45137880e-003, 0., 0., 0., 0., 0.,
          0., 0., 0., 0., 0., 0., 1.45137880e-003, 0., 0.,
          1.45137880e-003, 0., 0., 0., 1.45137880e-003, 0., 0., 0., 0.,
          2.90275761e-003, 0., 0., 1.45137880e-003, 0., 1.45137880e-003,
          1.45137880e-003, 1.45137880e-003, 0., 0., 0., 4.35413653e-003,
          2.17706822e-002, 0., 0., 0., 0., 0., 2.90275761e-003,
          8.70827306e-003, 0., 0., 0., 0., 1.01596517e-002,
          8.70827306e-003, 0., 0., 4.35413653e-003, 0., 0., 0., 0., 0.,
          4.35413653e-003, 0., 0., 0., 4.35413653e-003, 0., 0.,
          1.45137880e-003, 0., 1.16110304e-002, 0., 2.90275761e-003,
          2.90275761e-003, 2.90275761e-003, 0., 0., 0., 1.45137880e-003,
          8.70827306e-003, 0., 4.35413653e-003, 7.25689391e-003,
          1.45137880e-003, 0., 0., 2.90275761e-003, 1.45137880e-003, 0.,
          0., 0., 2.61248183e-002, 0., 0., 0., 0., 5.80551522e-003, 0.,
          1.45137880e-003, 0., 0., 0., 0., 2.90275761e-003, 0., 0.,
          2.90275761e-003, 0., 0., 7.25689391e-003, 0., 0.,
          2.90275761e-003, 1.45137880e-003, 0., 0., 0., 0.,
          2.90275761e-003, 1.45137880e-003, 0., 0., 1.45137880e-003,
          1.45137880e-003, 0., 0., 0., 0., 0., 0., 0., 4.35413653e-003,
          1.45137880e-003, 0., 0., 0., 0., 1.45137880e-003, 0., 0., 0.,
          0., 0., 4.35413653e-003, 0., 0., 0., 0., 2.90275761e-003,
          1.16110304e-002, 0., 0., 5.80551522e-003, 0., 0., 0., 0.,
          1.45137880e-003, 1.45137880e-003, 2.90275761e-003,
          1.45137880e-003, 0., 0., 0., 0., 8.70827306e-003,
          1.45137880e-003, 5.80551522e-003, 0., 0., 0., 2.90275756e-002,
          0., 0., 0., 0., 7.25689391e-003, 1.45137880e-003, 0.,
          1.45137880e-003, 0., 1.45137880e-003, 0., 0., 0., 0., 0.,
          5.80551522e-003, 0., 1.45137880e-003, 0., 5.80551522e-003, 0.,
          0., 0., 0., 0., 1.45137880e-003, 4.35413653e-003, 0., 0., 0.,
          0., 0., 4.35413653e-003, 0., 4.35413653e-003, 0.,
          1.45137880e-003, 0., 0., 4.35413653e-003, 0., 1.45137880e-003,
          2.90275761e-003, 0., 0., 0., 5.80551522e-003, 8.70827306e-003,
          0., 0., 0., 1.45137880e-003, 0., 4.35413653e-003,
          7.25689391e-003, 7.25689391e-003, 0., 0., 0., 0.,
          1.45137880e-003, 1.45137880e-003, 0., 0., 0. ]
      - [ 0., 0., 0., 0., 0., 0., 0., 0., 0., 3.50877200e-003,
          1.05263162e-002, 0., 3.50877200e-003, 0., 0., 0., 0., 0., 0.,
          0., 0., 0., 7.01754401e-003, 3.50877200e-003, 0., 0.,
          3.50877200e-003, 0., 0., 0., 0., 0., 0., 0., 3.50877200e-003,
          3.50877200e-003, 0., 0., 0., 0., 0., 3.50877200e-003, 0., 0.,
          0., 0., 0., 0., 0., 0., 0., 3.50877200e-003, 0., 0., 0., 0.,
          0., 3.50877200e-003, 7.01754401e-003, 3.50877200e-003, 0.,
          3.50877200e-003, 0., 0., 0., 3.50877196e-002, 3.50877200e-003,
          3.50877200e-003, 0., 0., 0., 0., 0., 0., 0., 3.50877200e-003,
          3.50877200e-003, 3.50877200e-003, 0., 0., 0., 0., 0., 0.,
          1.75438598e-002, 0., 0., 0., 0., 7.01754401e-003, 0., 0.,
          3.50877200e-003, 0., 0., 0., 0., 0., 0., 0., 0., 0.,
          3.50877200e-003, 1.05263162e-002, 3.50877200e-003, 0.,
          7.01754401e-003, 0., 0., 0., 0., 0., 0., 0., 0., 0., 0., 0.,
          3.50877200e-003, 0., 0., 0., 0., 0., 3.50877200e-003, 0., 0.,
          0., 0., 0., 0., 0., 0., 0., 0., 0., 0., 0., 0., 0., 0., 0., 0.,
          0., 0., 0., 0., 0., 0., 3.50877200e-003, 0., 0., 0., 0., 0.,
          3.50877200e-003, 3.50877200e-003, 0., 3.50877200e-003,
          3.50877200e-003, 7.01754401e-003, 3.50877200e-003,
          7.01754401e-003, 0., 0., 7.01754401e-003, 0., 0., 0., 0., 0.,
          3.50877200e-003, 0., 3.50877200e-003, 0., 0., 0.,
          3.50877200e-003, 3.50877200e-003, 0., 0., 0., 0., 0., 0.,
          3.50877200e-003, 3.50877200e-003, 0., 0., 0., 0.,
          7.01754401e-003, 0., 0., 0., 0., 0., 0., 0., 3.50877200e-003,
          0., 0., 0., 0., 0., 1.75438598e-002, 7.01754401e-003, 0.,
          3.50877200e-003, 3.50877200e-003, 0., 0., 0., 0., 0., 0.,
          3.15789469e-002, 0., 0., 0., 0., 0., 0., 0., 0., 0., 0.,
          7.01754401e-003, 0., 0., 0., 0., 1.05263162e-002, 0.,
          3.50877200e-003, 0., 3.50877200e-003, 0., 0., 0., 0.,
          1.40350880e-002, 0., 0., 0., 7.01754401e-003, 3.50877200e-003,
          3.50877200e-003, 0., 0., 0., 0., 7.01754401e-003, 0.,
          3.50877200e-003, 0., 0., 0., 0., 0., 0., 0., 3.50877196e-002,
          0., 1.75438598e-002, 0., 0., 0., 0., 0., 0., 3.50877200e-003,
          0., 3.50877200e-003, 7.01754401e-003, 0., 0., 0.,
          7.01754401e-003, 7.01754401e-003, 0., 0., 0., 0., 0., 0., 0.,
          0., 3.50877200e-003, 0., 0., 0., 0., 0., 3.50877200e-003,
          3.50877200e-003, 0., 0., 0., 0., 0., 0., 0., 0.,
          3.50877200e-003, 0., 0., 0., 0., 0., 3.50877200e-003, 0., 0.,
          3.50877200e-003, 0., 7.01754401e-003, 0., 0., 0., 0.,
          3.50877200e-003, 0., 7.01754401e-003, 0., 7.01754401e-003,
          3.50877200e-003, 0., 0., 0., 3.50877200e-003, 3.50877200e-003,
          0., 0., 1.05263162e-002, 7.01754401e-003, 3.50877200e-003,
          3.50877200e-003, 1.05263162e-002, 0., 0., 0., 7.01754401e-003,
          0., 0., 0., 0., 0., 0., 0., 0., 3.50877200e-003,
          1.75438598e-002, 0., 0., 0., 0., 3.50877200e-003, 0., 0., 0.,
          7.01754401e-003, 0., 3.50877200e-003, 3.50877200e-003,
          7.01754401e-003, 3.50877196e-002, 0., 0., 0., 0., 0., 0., 0.,
          3.50877200e-003, 0., 3.50877200e-003, 0., 3.50877200e-003,
          7.01754401e-003, 0., 0., 3.50877200e-003, 0., 0., 0., 0.,
          3.50877200e-003, 0., 3.50877196e-002, 7.01754401e-003,
          3.50877200e-003, 7.01754401e-003, 0., 0., 0., 0., 0.,
          7.01754401e-003, 0., 0., 2.10526325e-002, 0., 0.,
          3.50877200e-003, 3.50877200e-003, 0., 0., 7.01754401e-003, 0.,
          0., 7.01754401e-003, 0., 0., 0., 0., 0., 3.50877200e-003, 0.,
          0., 3.50877200e-003, 7.01754401e-003, 0., 7.01754401e-003, 0.,
          0., 3.50877200e-003, 0., 0., 0., 0., 0., 0., 0., 0., 0., 0.,
          0., 0., 0., 0., 2.10526325e-002, 0., 0., 7.01754401e-003, 0.,
          0., 0., 0., 0., 3.50877200e-003, 0., 0., 0., 3.50877200e-003,
          0., 0., 0., 3.50877200e-003, 0., 3.50877200e-003, 0., 0.,
          1.75438598e-002, 0., 0., 0., 3.50877200e-003, 0., 0., 0., 0.,
          0., 0., 0., 0., 0., 0., 1.75438598e-002, 0., 0., 0., 0., 0.,
          0., 0., 0., 0., 0., 0., 0., 3.15789469e-002, 0., 0., 0., 0.,
          0., 3.50877200e-003, 0., 7.01754401e-003, 3.50877200e-003, 0.,
          3.50877200e-003, 3.50877200e-003, 0., 0., 0., 0., 0.,
          7.01754401e-003, 3.50877200e-003, 0., 0., 0., 0., 0.,
          3.50877200e-003, 0., 0., 0., 3.50877200e-003, 3.50877200e-003,
          0., 0., 0., 3.50877200e-003, 0., 3.50877200e-003, 0., 0., 0.,
          0., 0., 3.50877200e-003, 0., 0., 0., 0., 0., 0., 0.,
          3.50877200e-003, 0., 0., 3.50877200e-003, 0., 0., 0., 0.,
          3.50877200e-003, 0., 0., 0., 3.50877200e-003, 0., 0.,
          3.50877200e-003, 0., 0., 3.50877200e-003, 0., 0.,
          3.50877200e-003, 1.40350880e-002, 0., 0., 0., 0., 0., 0., 0.,
          0., 0., 3.50877200e-003, 0., 0., 0., 0., 0., 0., 0., 0., 0.,
          3.50877200e-003, 0., 0., 0., 3.50877200e-003, 0., 0., 0., 0.,
          0., 0., 0., 0., 0., 0., 0., 0., 0. ]
      - [ 0., 0., 5.38793113e-003, 0., 2.15517241e-003, 0.,
          3.23275849e-003, 9.69827548e-003, 0., 2.15517241e-003,
          4.31034481e-003, 5.38793113e-003, 3.23275849e-003,
          3.23275849e-003, 1.07758620e-003, 3.23275849e-003, 0.,
          2.15517241e-003, 0., 0., 1.07758620e-003, 4.31034481e-003, 0.,
          3.23275849e-003, 1.07758620e-003, 1.07758620e-003,
          1.07758620e-003, 0., 1.07758620e-003, 3.23275849e-003,
          1.07758620e-003, 0., 0., 4.31034481e-003, 2.15517241e-003, 0.,
          5.38793113e-003, 2.15517241e-003, 1.07758623e-002,
          2.15517241e-003, 0., 2.15517241e-003, 0., 0., 4.31034481e-003,
          0., 1.07758620e-003, 3.23275849e-003, 0., 0., 0.,
          7.54310330e-003, 1.07758620e-003, 2.15517241e-003,
          5.38793113e-003, 2.15517241e-003, 5.38793113e-003,
          2.15517241e-003, 0., 0., 3.23275849e-003, 1.07758620e-003,
          2.15517241e-003, 2.15517241e-003, 1.07758620e-003, 0.,
          3.23275849e-003, 1.07758620e-003, 0., 0., 0., 0.,
          1.07758620e-003, 1.29310340e-002, 1.07758620e-003, 0.,
          1.07758620e-003, 1.07758620e-003, 4.31034481e-003, 0.,
          1.07758620e-003, 3.23275849e-003, 2.15517241e-003,
          1.07758620e-003, 3.23275849e-003, 1.07758620e-003, 0.,
          1.07758620e-003, 2.15517241e-003, 0., 0., 6.46551698e-003, 0.,
          0., 0., 4.31034481e-003, 0., 0., 0., 1.07758620e-003, 0.,
          3.23275849e-003, 1.07758620e-003, 0., 1.07758620e-003,
          1.07758620e-003, 4.31034481e-003, 2.15517241e-003, 0., 0., 0.,
          0., 0., 0., 0., 1.07758620e-003, 2.15517241e-003,
          4.31034481e-003, 2.15517241e-003, 2.15517241e-003,
          2.15517241e-003, 0., 4.31034481e-003, 1.07758620e-003, 0.,
          4.31034481e-003, 0., 2.15517241e-003, 1.07758620e-003, 0.,
          4.31034481e-003, 0., 1.29310340e-002, 4.31034481e-003, 0.,
          9.69827548e-003, 0., 4.31034481e-003, 0., 2.15517241e-003,
          7.54310330e-003, 2.15517241e-003, 3.23275849e-003, 0.,
          1.07758620e-003, 1.07758620e-003, 3.23275849e-003, 0.,
          1.07758620e-003, 1.07758620e-003, 2.15517241e-003,
          2.15517241e-003, 2.15517241e-003, 1.07758623e-002,
          4.31034481e-003, 1.07758620e-003, 4.31034481e-003,
          2.15517241e-003, 7.54310330e-003, 1.07758620e-003,
          4.31034481e-003, 2.15517241e-003, 1.07758620e-003,
          1.07758620e-003, 1.07758620e-003, 1.07758620e-003, 0.,
          1.07758620e-003, 0., 4.31034481e-003, 1.07758620e-003,
          1.07758620e-003, 0., 0., 2.15517241e-003, 4.31034481e-003, 0.,
          0., 0., 0., 1.07758620e-003, 0., 1.07758620e-003,
          1.07758620e-003, 0., 2.15517241e-003, 1.07758620e-003, 0.,
          3.23275849e-003, 0., 1.07758620e-003, 2.15517241e-003,
          1.07758620e-003, 0., 4.31034481e-003, 1.07758620e-003,
          2.15517241e-003, 0., 0., 0., 0., 1.07758620e-003, 0., 0., 0.,
          0., 0., 5.38793113e-003, 0., 1.07758620e-003, 3.23275849e-003,
          1.07758620e-003, 0., 4.31034481e-003, 2.15517241e-003,
          1.07758620e-003, 0., 2.15517241e-003, 0., 0., 0.,
          1.07758623e-002, 1.07758620e-003, 1.07758620e-003, 0.,
          1.07758620e-003, 5.38793113e-003, 1.07758620e-003,
          2.15517241e-003, 0., 0., 2.15517241e-003, 9.69827548e-003,
          4.31034481e-003, 2.15517241e-003, 2.15517241e-003,
          2.15517241e-003, 1.07758620e-003, 0., 3.23275849e-003,
          4.31034481e-003, 1.07758620e-003, 0., 4.31034481e-003,
          1.07758620e-003, 2.15517241e-003, 5.38793113e-003, 0., 0.,
          4.31034481e-003, 2.15517241e-003, 0., 0., 2.15517241e-003,
          1.07758620e-003, 1.07758623e-002, 1.07758620e-003,
          1.07758620e-003, 0., 1.07758620e-003, 0., 1.07758620e-003, 0.,
          0., 0., 3.23275849e-003, 0., 1.07758620e-003, 4.31034481e-003,
          6.46551698e-003, 2.15517241e-003, 0., 3.23275849e-003, 0.,
          1.07758620e-003, 0., 3.23275849e-003, 0., 1.07758620e-003,
          1.07758620e-003, 0., 6.46551698e-003, 0., 0., 1.07758620e-003,
          0., 0., 0., 2.15517241e-003, 0., 4.31034481e-003,
          1.07758620e-003, 2.15517241e-003, 0., 2.15517241e-003, 0., 0.,
          3.23275849e-003, 1.07758620e-003, 1.07758620e-003, 0., 0.,
          2.15517241e-003, 1.07758620e-003, 2.15517241e-003,
          3.23275849e-003, 0., 0., 2.15517241e-003, 0., 4.31034481e-003,
          1.07758620e-003, 0., 2.15517241e-003, 3.23275849e-003, 0.,
          1.07758620e-003, 0., 1.07758620e-003, 1.07758620e-003,
          2.15517241e-003, 1.07758620e-003, 0., 4.31034481e-003, 0., 0.,
          5.38793113e-003, 4.31034481e-003, 2.15517241e-003,
          2.15517241e-003, 1.07758620e-003, 0., 0., 4.31034481e-003,
          1.07758620e-003, 1.07758620e-003, 6.46551698e-003,
          1.07758620e-003, 0., 1.07758620e-003, 4.31034481e-003, 0.,
          1.07758620e-003, 4.31034481e-003, 0., 0., 0., 2.15517241e-003,
          0., 1.07758620e-003, 0., 0., 1.07758620e-003, 0., 0.,
          1.07758620e-003, 4.31034481e-003, 1.07758620e-003,
          1.07758620e-003, 1.07758620e-003, 1.07758620e-003,
          1.07758620e-003, 0., 1.07758620e-003, 2.15517241e-003, 0.,
          1.07758620e-003, 0., 0., 0., 0., 0., 0., 3.23275849e-003,
          9.69827548e-003, 4.31034481e-003, 2.15517241e-003,
          1.07758620e-003, 7.54310330e-003, 1.07758620e-003,
          3.23275849e-003, 4.31034481e-003, 0., 0., 0., 1.07758620e-003,
          1.07758620e-003, 0., 1.07758620e-003, 1.07758620e-003,
          1.07758620e-003, 0., 1.07758620e-003, 1.07758620e-003, 0.,
          3.23275849e-003, 2.15517241e-003, 1.07758620e-003,
          1.07758620e-003, 0., 1.07758620e-003, 4.31034481e-003, 0., 0.,
          2.15517241e-003, 9.69827548e-003, 1.07758620e-003,
          1.07758620e-003, 0., 1.07758620e-003, 2.15517241e-003,
          5.38793113e-003, 0., 2.15517241e-003, 3.23275849e-003,
          1.07758620e-003, 2.15517241e-003, 8.62068962e-003,
          2.15517241e-003, 2.15517241e-003, 4.31034481e-003, 0.,
          9.69827548e-003, 0., 0., 2.15517241e-003, 1.07758620e-003, 0.,
          1.07758620e-003, 3.23275849e-003, 0., 6.46551698e-003, 0., 0.,
          1.07758620e-003, 0., 0., 0., 0., 0., 7.54310330e-003, 0.,
          1.07758620e-003, 0., 1.07758620e-003, 0., 3.23275849e-003, 0.,
          0., 0., 0., 1.50862066e-002, 1.07758620e-003, 2.15517241e-003,
          0., 3.23275849e-003, 1.07758620e-003, 1.07758620e-003, 0., 0.,
          1.07758620e-003, 0., 0., 1.07758620e-003, 0., 0., 0.,
          4.31034481e-003, 6.46551698e-003, 5.38793113e-003,
          1.07758620e-003, 1.07758620e-003, 0., 0., 5.38793113e-003, 0.,
          2.15517241e-003, 0., 3.23275849e-003, 1.07758620e-003,
          1.07758620e-003, 0., 0., 3.23275849e-003, 1.07758620e-003,
          2.15517241e-003, 2.15517241e-003, 0., 3.23275849e-003, 0., 0.,
          0., 0., 0., 2.15517241e-003, 0., 1.07758620e-003, 0.,
          2.15517241e-003, 1.07758620e-003, 1.07758620e-003,
          1.07758620e-003, 2.15517241e-003, 1.07758620e-003,
          7.54310330e-003, 1.07758620e-003, 4.31034481e-003,
          5.38793113e-003, 1.07758620e-003, 1.07758620e-003,
          4.31034481e-003, 2.15517241e-003, 0., 0., 1.07758620e-003,
          2.15517241e-003, 2.15517241e-003, 3.23275849e-003,
          2.15517241e-003, 2.15517241e-003, 0., 0., 1.07758620e-003,
          1.07758620e-003, 1.07758620e-003, 3.23275849e-003,
          1.07758620e-003, 0., 0., 3.23275849e-003, 5.38793113e-003,
          1.07758620e-003, 2.15517241e-003, 2.15517241e-003, 0., 0.,
          5.38793113e-003, 2.15517241e-003, 0., 1.07758620e-003,
          2.15517241e-003, 0., 0., 0., 3.23275849e-003, 1.07758620e-003,
          2.15517241e-003, 0., 2.15517241e-003, 2.15517241e-003, 0., 0.,
          2.15517241e-003, 3.23275849e-003, 0., 0., 0., 0.,
          1.07758620e-003, 2.15517241e-003, 0., 4.31034481e-003,
          1.07758620e-003, 0., 4.31034481e-003, 0., 0., 1.07758620e-003,
          0., 1.07758620e-003, 1.07758620e-003, 1.07758620e-003, 0., 0.,
          1.07758620e-003, 2.15517241e-003, 2.15517241e-003,
          2.15517241e-003, 0., 0., 9.69827548e-003, 1.07758620e-003, 0.,
          1.07758620e-003, 1.07758620e-003, 0., 2.15517241e-003, 0.,
          2.15517241e-003, 5.38793113e-003, 0., 0., 0., 6.46551698e-003,
          0., 1.07758620e-003, 0., 2.15517241e-003, 1.07758620e-003,
          1.07758620e-003 ]
      - [ 0., 0., 0., 0., 0., 0., 0., 0., 0., 0., 4.69483575e-003, 0.,
          0., 0., 0., 0., 4.69483575e-003, 0., 9.38967150e-003, 0., 0.,
          0., 4.69483575e-003, 0., 0., 0., 0., 0., 0., 0., 0., 0., 0.,
          0., 0., 0., 0., 0., 0., 0., 0., 0., 0., 0., 4.69483575e-003,
          0., 0., 0., 0., 0., 0., 0., 0., 0., 4.69483575e-003, 0., 0.,
          0., 0., 0., 0., 0., 0., 4.69483575e-003, 4.69483575e-003,
          1.87793430e-002, 0., 0., 0., 0., 0., 0., 0., 0., 0., 0., 0.,
          4.69483575e-003, 4.69483575e-003, 0., 4.69483575e-003, 0., 0.,
          0., 0., 0., 0., 0., 3.75586860e-002, 0., 0., 0., 0., 0.,
          4.69483575e-003, 0., 0., 9.38967150e-003, 0., 0., 0., 0., 0.,
          0., 0., 0., 4.69483575e-003, 0., 0., 0., 0., 0., 0., 0., 0.,
          0., 1.40845068e-002, 0., 1.40845068e-002, 0., 0., 0., 0., 0.,
          0., 0., 0., 0., 0., 0., 0., 0., 0., 0., 4.69483575e-003, 0.,
          4.69483575e-003, 0., 0., 0., 4.69483575e-003, 9.38967150e-003,
          0., 0., 0., 0., 0., 4.69483575e-003, 0., 4.69483575e-003, 0.,
          0., 0., 0., 0., 4.69483575e-003, 0., 4.69483575e-003, 0., 0.,
          0., 0., 4.69483575e-003, 0., 4.69483575e-003, 0., 0., 0., 0.,
          4.69483575e-003, 0., 4.69483575e-003, 0., 0., 4.69483575e-003,
          0., 0., 4.69483575e-003, 0., 0., 4.69483575e-003, 0., 0.,
          4.69483575e-003, 0., 0., 0., 0., 4.69483575e-003,
          9.38967150e-003, 4.69483575e-003, 0., 0., 4.69483575e-003, 0.,
          0., 0., 0., 0., 9.38967150e-003, 0., 4.69483575e-003, 0., 0.,
          0., 1.87793430e-002, 2.81690136e-002, 0., 0., 0.,
          4.69483575e-003, 9.38967150e-003, 0., 0., 0., 4.69483575e-003,
          0., 0., 4.69483575e-003, 4.69483575e-003, 4.69483575e-003, 0.,
          4.69483575e-003, 0., 0., 0., 0., 0., 0., 0., 0.,
          4.69483575e-003, 1.40845068e-002, 4.69483575e-003, 0., 0., 0.,
          0., 0., 0., 9.38967150e-003, 0., 0., 0., 0., 4.69483575e-003,
          9.38967150e-003, 0., 0., 1.40845068e-002, 0., 0., 0., 0., 0.,
          0., 1.40845068e-002, 0., 0., 0., 0., 0., 0., 0.,
          9.38967150e-003, 0., 0., 0., 0., 0., 9.38967150e-003, 0.,
          4.69483575e-003, 0., 4.69483575e-003, 0., 0., 0., 0., 0.,
          1.40845068e-002, 0., 0., 0., 9.38967150e-003, 0.,
          4.69483575e-003, 0., 0., 0., 4.69483575e-003, 0., 0., 0., 0.,
          0., 0., 0., 0., 0., 0., 0., 4.69483575e-003, 0., 0., 0., 0.,
          0., 0., 0., 0., 0., 0., 9.38967150e-003, 4.69483575e-003, 0.,
          0., 0., 0., 0., 4.69483575e-003, 0., 0., 0., 0., 0.,
          4.69483575e-003, 0., 0., 0., 0., 9.38967150e-003, 0., 0., 0.,
          4.69483575e-003, 4.69483575e-003, 0., 0., 9.38967150e-003, 0.,
          0., 0., 0., 0., 4.69483575e-003, 4.69483575e-003, 0., 0., 0.,
          1.87793430e-002, 3.28638516e-002, 0., 0., 0., 0., 0.,
          4.69483575e-003, 0., 0., 4.69483575e-003, 0., 1.40845068e-002,
          4.69483575e-003, 1.87793430e-002, 4.69483584e-002, 0., 0.,
          4.69483575e-003, 0., 0., 0., 0., 0., 0., 0., 0., 0.,
          3.28638516e-002, 0., 0., 0., 0., 0., 0., 0., 0., 0.,
          9.38967150e-003, 0., 0., 4.69483575e-003, 0., 4.69483575e-003,
          0., 0., 0., 0., 0., 0., 0., 0., 4.69483575e-003, 0., 0., 0.,
          0., 0., 1.40845068e-002, 0., 4.69483575e-003, 0., 0.,
          4.69483575e-003, 0., 0., 0., 4.69483575e-003, 0., 0., 0., 0.,
          0., 0., 0., 0., 4.69483575e-003, 4.69483575e-003, 0., 0., 0.,
          0., 0., 0., 0., 0., 0., 4.69483575e-003, 0., 4.69483575e-003,
          0., 0., 0., 0., 0., 0., 0., 0., 0., 0., 0., 0., 0., 0., 0.,
          9.38967150e-003, 0., 0., 0., 4.69483575e-003, 0., 0.,
          4.69483575e-003, 0., 0., 0., 0., 4.69483575e-003,
          4.69483575e-003, 0., 9.38967150e-003, 4.69483575e-003, 0., 0.,
          0., 0., 4.69483575e-003, 0., 0., 0., 0., 0., 0., 0., 0., 0.,
          0., 0., 0., 0., 0., 0., 0., 0., 4.69483575e-003, 0., 0., 0.,
          0., 0., 0., 0., 4.69483575e-003, 0., 0., 0., 0.,
          4.69483575e-003, 0., 0., 0., 0., 4.69483575e-003,
          4.69483575e-003, 0., 0., 0., 0., 0., 9.38967150e-003, 0., 0.,
          0., 0., 0., 0., 4.69483575e-003, 0., 4.69483575e-003, 0., 0.,
          4.69483575e-003, 0., 0., 4.69483575e-003, 0., 0., 0., 0., 0.,
          0., 0., 0., 0., 0., 0., 0., 0., 0., 0., 4.69483575e-003,
          4.69483575e-003, 0., 4.69483575e-003, 0., 4.69483575e-003, 0.,
          0., 0., 0., 0., 4.69483575e-003, 4.69483575e-003, 0., 0., 0.,
          0., 0., 0., 4.69483575e-003, 0., 0., 4.69483575e-003, 0.,
          4.69483575e-003, 0., 4.69483575e-003, 0., 0., 0., 0., 0., 0.,
          0., 0., 0., 4.69483575e-003, 0., 9.38967150e-003, 0., 0.,
          1.87793430e-002, 0., 0., 0., 0., 0., 0., 4.69483575e-003, 0. ]
      - [ 1.19331747e-003, 0., 0., 0., 0., 0., 0., 0., 0.,
          1.19331747e-003, 0., 1.19331747e-003, 0., 5.96658746e-003,
          1.19331747e-003, 2.38663494e-003, 1.19331747e-003, 0.,
          1.19331747e-003, 0., 0., 1.19331747e-003, 2.38663494e-003,
          1.19331747e-003, 3.57995229e-003, 0., 0., 0., 0., 0.,
          1.19331747e-003, 0., 0., 5.96658746e-003, 1.19331747e-003, 0.,
          2.38663494e-003, 0., 1.19331747e-003, 2.38663494e-003,
          3.57995229e-003, 2.38663494e-003, 0., 0., 0., 3.57995229e-003,
          0., 0., 0., 0., 0., 1.19331747e-003, 0., 0., 4.77326987e-003,
          0., 1.19331747e-003, 1.19331747e-003, 1.19331747e-003,
          1.19331747e-003, 0., 2.38663494e-003, 0., 0., 0.,
          2.38663494e-003, 1.19331747e-003, 1.19331747e-003,
          5.96658746e-003, 0., 1.19331747e-003, 0., 0., 0.,
          1.19331747e-003, 0., 3.57995229e-003, 0., 3.57995229e-003, 0.,
          0., 1.19331747e-003, 1.19331747e-003, 0., 0., 1.19331747e-003,
          1.19331747e-003, 1.19331747e-003, 1.19331747e-003, 0., 0.,
          5.96658746e-003, 2.38663494e-003, 0., 3.57995229e-003, 0.,
          4.77326987e-003, 1.19331747e-003, 3.57995229e-003, 0.,
          1.19331747e-003, 0., 1.19331747e-003, 5.96658746e-003, 0., 0.,
          0., 3.57995229e-003, 0., 1.19331747e-003, 0., 1.19331747e-003,
          0., 0., 1.19331747e-003, 0., 2.38663494e-003, 0.,
          1.19331747e-003, 0., 4.77326987e-003, 2.38663494e-003, 0.,
          1.19331747e-003, 0., 2.38663494e-003, 1.19331747e-003,
          8.35322216e-003, 0., 0., 0., 0., 1.19331747e-003,
          1.19331747e-003, 3.57995229e-003, 1.19331747e-003,
          7.15990458e-003, 5.96658746e-003, 0., 4.77326987e-003,
          2.38663494e-003, 1.19331747e-003, 2.38663494e-003,
          1.19331747e-003, 0., 7.15990458e-003, 2.38663494e-003, 0., 0.,
          0., 2.38663494e-003, 2.38663494e-003, 1.19331747e-003,
