%YAML:1.0
my_svm: !!opencv-ml-svm
   svm_type: C_SVC
   kernel: { type:RBF, gamma:1. }
   C: 1.
   term_criteria: { epsilon:1.1920928955078125e-007, iterations:1000 }
   var_all: 600
   var_count: 600
   class_count: 2
   class_labels: !!opencv-matrix
      rows: 1
      cols: 2
      dt: i
      data: [ 0, 1 ]
   sv_total: 49
   support_vectors:
      - [ 1.81653048e-003, 1.81653048e-003, 9.08265240e-004, 0., 0., 0.,
          9.08265240e-004, 9.08265240e-004, 9.08265240e-004,
          4.54132631e-003, 0., 0., 0., 0., 2.72479560e-003, 0.,
          1.81653048e-003, 2.72479560e-003, 4.54132631e-003, 0., 0.,
          9.08265240e-004, 9.08265240e-004, 0., 0., 9.08265240e-004, 0.,
          6.35785656e-003, 4.54132631e-003, 0., 2.72479560e-003, 0., 0.,
          7.26612192e-003, 0., 9.08265240e-004, 0., 0., 2.72479560e-003,
          9.08265240e-004, 0., 0., 0., 9.08265240e-004, 0.,
          6.35785656e-003, 0., 9.08265240e-004, 9.08265240e-004,
          9.08265240e-004, 0., 1.81653048e-003, 1.27157131e-002,
          9.08265240e-004, 1.81653048e-003, 0., 9.08265240e-004, 0., 0.,
          0., 9.08265240e-004, 1.81653048e-003, 1.81653048e-003, 0., 0.,
          1.81653048e-003, 0., 2.72479560e-003, 0., 9.08265240e-004, 0.,
          0., 0., 0., 6.35785656e-003, 1.08991824e-002, 9.08265240e-004,
          9.08265240e-004, 0., 1.81653048e-003, 9.08265240e-004,
          2.27066316e-002, 9.08265240e-004, 1.08991824e-002,
          9.08265240e-004, 9.08265240e-004, 2.72479560e-003,
          9.08265240e-004, 0., 0., 4.54132631e-003, 6.35785656e-003, 0.,
          0., 2.72479560e-003, 9.08265240e-004, 0., 0., 9.08265240e-004,
          2.72479560e-003, 9.08265240e-004, 4.54132631e-003,
          1.81653048e-003, 0., 9.08265240e-004, 1.81653048e-003,
          9.08265240e-004, 9.08265240e-004, 0., 9.08265240e-004,
          9.08265240e-004, 0., 0., 9.08265240e-004, 0., 0.,
          9.08265240e-004, 0., 9.08265240e-004, 9.08265240e-004,
          9.08265240e-004, 0., 1.81653048e-003, 3.63306096e-003,
          2.72479560e-003, 9.08265240e-004, 0., 1.81653048e-003,
          2.72479560e-003, 0., 0., 6.35785656e-003, 4.54132631e-003,
          1.81653048e-003, 0., 0., 0., 0., 9.08265240e-004,
          9.08265240e-004, 9.08265240e-004, 1.81653048e-003,
          2.72479560e-003, 0., 9.08265240e-004, 2.72479560e-003, 0., 0.,
          1.81653048e-003, 0., 9.08265240e-004, 0., 0., 0.,
          9.08265240e-004, 9.08265240e-004, 0., 1.81653048e-003, 0.,
          1.81653048e-003, 4.54132631e-003, 0., 9.08265240e-004,
          9.08265240e-004, 9.08265240e-004, 9.08265240e-004,
          1.81653048e-003, 9.08265240e-004, 0., 0., 3.63306096e-003,
          1.81653048e-003, 2.72479560e-003, 9.08265240e-004, 0., 0., 0.,
          3.63306096e-003, 0., 1.81653048e-003, 0., 9.08265240e-004, 0.,
          9.08265240e-004, 9.08265240e-004, 1.81653048e-003,
          9.08265240e-004, 1.81653048e-003, 4.54132631e-003, 0., 0., 0.,
          2.72479560e-003, 3.63306096e-003, 9.08265240e-004, 0.,
          9.08265240e-004, 9.08265240e-004, 1.45322438e-002, 0., 0., 0.,
          1.99818350e-002, 9.08265240e-004, 5.44959120e-003,
          9.08265240e-004, 2.72479560e-003, 1.81653048e-003, 0.,
          1.81653048e-003, 0., 1.81653048e-003, 5.44959120e-003,
          3.63306096e-003, 0., 0., 2.72479560e-003, 2.72479560e-003, 0.,
          4.54132631e-003, 0., 2.72479560e-003, 9.08265240e-004,
          2.72479560e-003, 9.08265240e-004, 9.08265240e-004,
          9.08265240e-004, 9.08265240e-004, 1.81653048e-003, 0.,
          1.81653048e-003, 2.72479560e-003, 0., 9.08265240e-004,
          3.63306096e-003, 1.81653048e-003, 0., 9.08265240e-004, 0., 0.,
          0., 5.44959120e-003, 1.81653048e-003, 0., 9.08265240e-004, 0.,
          0., 4.54132631e-003, 9.08265240e-004, 9.08265240e-004,
          9.08265240e-004, 2.72479560e-003, 1.81653048e-003,
          9.08265240e-004, 1.81653048e-003, 1.81653048e-003,
          9.08265240e-004, 9.08265240e-004, 9.08265240e-004, 0.,
          1.81653048e-003, 9.08265240e-004, 3.63306096e-003,
          2.72479560e-003, 9.08265240e-004, 0., 1.81653048e-003, 0.,
          5.44959120e-003, 0., 0., 0., 9.08265240e-004, 0.,
          9.08265240e-004, 9.08265240e-004, 9.08265240e-004,
          2.17983648e-002, 1.81653048e-003, 1.81653048e-003, 0.,
          4.54132631e-003, 3.63306096e-003, 9.08265240e-004,
          3.63306096e-003, 0., 9.08265240e-004, 3.63306096e-003,
          9.08265240e-004, 0., 0., 0., 3.63306096e-003, 2.72479560e-003,
          3.63306096e-003, 7.26612192e-003, 9.08265240e-004, 0., 0., 0.,
          0., 6.35785656e-003, 1.81653048e-003, 2.72479560e-003,
          9.08265240e-004, 0., 2.72479560e-003, 1.81653048e-003,
          9.08265240e-004, 2.72479560e-003, 9.08265240e-004,
          9.08265240e-004, 3.63306096e-003, 0., 0., 9.08265240e-004, 0.,
          9.08265240e-004, 5.44959120e-003, 2.17983648e-002,
          1.81653048e-003, 9.08265240e-004, 9.08265240e-004,
          4.54132631e-003, 1.81653048e-003, 9.08265240e-004,
          1.81653048e-003, 9.08265240e-004, 2.72479560e-003,
          1.81653048e-003, 1.81653048e-003, 1.81653048e-003, 0.,
          2.72479560e-003, 9.08265240e-004, 1.81653048e-003,
          3.63306096e-003, 9.08265240e-004, 0., 9.08265240e-004,
          2.72479560e-003, 0., 1.63487736e-002, 1.81653048e-003,
          9.08265240e-004, 2.72479560e-003, 0., 3.63306096e-003,
          9.08265240e-004, 1.81653048e-003, 1.81653048e-003,
          2.72479560e-003, 9.08265240e-004, 9.08265240e-004,
          9.08265240e-004, 0., 0., 3.63306096e-003, 0., 3.63306096e-003,
          5.44959120e-003, 9.08265240e-004, 0., 1.81653048e-003, 0.,
          4.54132631e-003, 9.08265240e-004, 3.63306096e-003,
          4.54132631e-003, 1.81653048e-003, 0., 9.08265240e-004, 0.,
          1.81653048e-003, 9.08265240e-004, 0., 0., 9.08265240e-004, 0.,
          0., 1.81653048e-003, 6.35785656e-003, 0., 1.81653048e-003,
          1.81653048e-003, 0., 0., 1.81653048e-003, 3.63306096e-003,
          1.81653048e-003, 0., 1.81653048e-003, 9.08265240e-004,
          5.44959120e-003, 9.08265240e-004, 0., 0., 6.35785656e-003,
          1.81653048e-003, 0., 0., 2.72479560e-003, 0., 9.08265240e-004,
          0., 0., 2.72479560e-003, 9.08265240e-004, 0., 1.81653048e-003,
          9.08265240e-004, 7.26612192e-003, 3.63306096e-003,
          2.72479560e-003, 7.26612192e-003, 9.08265240e-004,
          9.08265240e-004, 0., 6.35785656e-003, 4.54132631e-003,
          8.17438681e-003, 9.08265240e-004, 9.08265240e-004,
          9.08265240e-004, 3.63306096e-003, 0., 9.08265240e-004, 0., 0.,
          0., 0., 0., 9.08265240e-004, 0., 0., 4.54132631e-003,
          9.08265240e-004, 2.72479560e-003, 9.08265240e-004, 0., 0., 0.,
          2.72479560e-003, 9.08265240e-004, 1.81653048e-003,
          1.81653048e-003, 0., 0., 0., 1.81653048e-003, 0.,
          1.81653048e-003, 9.08265240e-004, 0., 4.54132631e-003, 0.,
          9.08265240e-004, 0., 0., 1.81653048e-003, 0., 1.81653048e-003,
          2.72479560e-003, 0., 1.81653048e-003, 0., 0., 0.,
          9.08265240e-004, 0., 0., 0., 9.08265240e-004, 0., 0.,
          1.81653048e-003, 1.81653048e-003, 1.81653048e-003, 0., 0.,
          4.54132631e-003, 9.08265240e-004, 9.08265240e-004, 0.,
          2.72479560e-003, 0., 0., 0., 0., 0., 0., 1.81653048e-003, 0.,
          1.81653048e-003, 2.72479560e-003, 9.08265240e-004,
          9.08265240e-004, 0., 0., 9.08265240e-004, 9.08265240e-004,
          4.54132631e-003, 0., 0., 0., 0., 0., 4.54132631e-003,
          9.08265240e-004, 0., 0., 2.72479560e-003, 7.26612192e-003, 0.,
          0., 0., 0., 3.63306096e-003, 9.08265240e-004, 4.54132631e-003,
          9.08265240e-004, 0., 1.81653048e-003, 9.08265240e-004, 0.,
          9.08265240e-004, 1.81653048e-003, 5.44959120e-003,
          1.81653048e-003, 0., 3.63306096e-003, 1.81653048e-003, 0.,
          1.81653048e-003, 9.08265240e-004, 0., 9.08265240e-004,
          3.63306096e-003, 0., 1.81653048e-003, 1.81653048e-003, 0.,
          9.08265240e-004, 0., 9.08265240e-004, 0., 2.72479560e-003, 0.,
          1.81653048e-003, 9.08265240e-004, 2.72479560e-003, 0.,
          4.54132631e-003, 0., 6.35785656e-003, 1.81653048e-003,
          1.81653048e-003, 1.81653048e-003, 0., 0., 0., 9.08265240e-004,
          3.63306096e-003, 1.81653048e-003, 2.45231614e-002,
          1.81653048e-003, 0., 4.54132631e-003, 9.08265240e-004,
          3.63306096e-003, 0., 0., 1.81653048e-003, 0., 1.81653048e-003,
          9.99091752e-003, 5.44959120e-003, 0., 9.08265240e-004, 0., 0.,
          1.90735701e-002, 9.08265240e-004, 0., 2.72479560e-003, 0.,
          9.08265240e-004, 0., 9.08265240e-004, 7.26612192e-003,
          1.36239789e-002, 2.72479560e-003, 0., 9.08265240e-004, 0., 0.,
          9.08265240e-004, 1.81653048e-003, 9.08265240e-004, 0. ]
      - [ 0., 0., 7.22891558e-003, 0., 0., 0., 0., 0., 9.63855442e-003,
          4.81927721e-003, 0., 2.40963860e-003, 4.81927721e-003, 0., 0.,
          0., 0., 0., 0., 0., 0., 0., 0., 0., 0., 0., 0., 0., 0., 0., 0.,
          0., 0., 0., 0., 0., 0., 0., 0., 0., 0., 0., 0., 0.,
          2.40963860e-003, 0., 0., 0., 0., 0., 0., 0., 0., 0., 0.,
          1.20481931e-001, 2.40963860e-003, 0., 0., 0., 0., 0., 0., 0.,
          2.40963860e-003, 2.40963860e-003, 0., 7.22891558e-003, 0., 0.,
          7.71084353e-002, 0., 0., 0., 2.40963860e-003, 0., 0., 0., 0.,
          0., 0., 1.44578312e-002, 0., 0., 0., 0., 0., 0., 0., 0., 0.,
          2.40963860e-003, 0., 0., 0., 0., 0., 0., 0., 4.81927721e-003,
          0., 0., 0., 0., 0., 0., 2.40963860e-003, 7.22891558e-003, 0.,
          0., 0., 0., 0., 0., 0., 0., 2.40963860e-003, 2.40963860e-003,
          2.40963860e-003, 0., 0., 0., 0., 0., 0., 0., 0.,
          2.40963860e-003, 0., 2.40963860e-003, 0., 0., 7.22891558e-003,
          7.22891558e-003, 0., 0., 0., 0., 0., 0., 0., 0.,
          2.40963860e-003, 0., 0., 0., 0., 0., 0., 0., 0.,
          7.22891558e-003, 0., 0., 2.40963860e-003, 1.20481933e-002, 0.,
          0., 0., 0., 7.22891558e-003, 0., 0., 0., 0., 0., 0., 0., 0.,
          0., 0., 0., 0., 0., 4.81927721e-003, 0., 0., 0., 0., 0., 0.,
          0., 0., 0., 0., 0., 0., 0., 0., 4.81927721e-003, 0., 0.,
          4.81927721e-003, 0., 0., 0., 0., 0., 0., 0., 0., 0., 0., 0.,
          0., 0., 0., 0., 0., 0., 2.40963860e-003, 0., 0.,
          2.40963860e-003, 0., 0., 0., 0., 4.81927721e-003, 0., 0.,
          2.16867477e-002, 0., 2.40963860e-003, 0., 0., 2.40963860e-003,
          0., 1.44578312e-002, 0., 0., 2.40963860e-003, 0., 0.,
          7.22891558e-003, 0., 0., 0., 0., 0., 0., 9.63855442e-003, 0.,
          2.40963860e-003, 0., 0., 0., 7.22891558e-003, 0., 0.,
          4.81927721e-003, 0., 0., 0., 0., 0., 2.40963860e-003, 0., 0.,
          2.40963860e-003, 0., 0., 9.63855442e-003, 0., 0., 0.,
          4.81927721e-003, 0., 2.40963860e-003, 0., 0., 0., 0., 0., 0.,
          0., 0., 2.40963860e-003, 0., 0., 0., 0., 0., 0., 0., 0.,
          2.40963860e-003, 2.40963860e-003, 4.81927721e-003, 0.,
          2.40963860e-003, 0., 0., 0., 0., 0., 2.40963860e-003, 0., 0.,
          0., 2.40963860e-003, 0., 0., 0., 0., 0., 0., 0., 0., 0., 0.,
          0., 0., 0., 0., 0., 0., 0., 2.40963860e-003, 0.,
          9.63855442e-003, 0., 0., 0., 2.40963860e-003, 0., 0., 0., 0.,
          0., 0., 0., 0., 0., 0., 2.40963860e-003, 0., 2.40963860e-003,
          0., 0., 0., 0., 2.16867477e-002, 0., 0., 0., 0.,
          2.40963860e-003, 0., 9.63855442e-003, 0., 0., 7.22891558e-003,
          0., 0., 0., 0., 0., 0., 0., 0., 0., 0., 0., 0., 0., 0., 0., 0.,
          0., 0., 0., 0., 0., 0., 2.40963860e-003, 0., 1.44578312e-002,
          0., 2.40963860e-003, 0., 2.40963860e-003, 0., 0., 0., 0., 0.,
          0., 0., 0., 0., 0., 0., 0., 0., 0., 0., 0., 0.,
          2.40963860e-003, 0., 0., 0., 1.20481933e-002, 0., 0., 0., 0.,
          0., 0., 4.81927721e-003, 1.20481933e-002, 2.40963860e-003,
          4.81927721e-003, 0., 0., 0., 0., 0., 2.40963860e-003,
          2.40963860e-003, 0., 0., 0., 0., 2.40963860e-003, 0., 0., 0.,
          0., 0., 0., 0., 0., 0., 0., 0., 0., 0., 0., 0., 0., 0., 0., 0.,
          0., 0., 2.40963860e-003, 0., 0., 0., 7.22891558e-003, 0., 0.,
          0., 0., 0., 0., 0., 0., 2.40963860e-003, 0., 0., 0.,
          2.40963860e-003, 0., 0., 0., 0., 0., 0., 1.20481933e-002, 0.,
          0., 0., 0., 0., 0., 0., 0., 0., 0., 0., 0., 2.40963860e-003,
          0., 0., 0., 0., 0., 0., 0., 0., 4.81927721e-003, 0.,
          2.40963860e-003, 0., 0., 0., 0., 0., 2.40963860e-003, 0., 0.,
          4.81927721e-003, 0., 0., 1.92771088e-002, 0., 0.,
          2.40963860e-003, 0., 0., 0., 0., 0., 1.73493981e-001,
          1.44578312e-002, 0., 7.22891558e-003, 0., 0., 0., 0., 0.,
          2.40963860e-003, 0., 0., 0., 2.40963860e-003, 0., 0., 0., 0.,
          0., 0., 4.81927721e-003, 0., 0., 0., 0., 0., 0., 0., 0., 0.,
          9.63855442e-003, 0., 9.63855442e-003, 0., 0., 0., 0., 0.,
          2.40963860e-003, 2.40963860e-003, 0., 0., 0., 9.63855442e-003,
          0., 0., 9.63855442e-003, 0., 1.92771088e-002, 0.,
          2.40963860e-003, 0., 0., 0., 0., 0., 2.40963860e-003, 0., 0.,
          9.63855442e-003, 0., 0., 0., 0., 7.22891558e-003, 0., 0., 0.,
          0., 2.65060253e-002, 0., 2.40963860e-003, 0., 0., 0., 0., 0.,
          0., 0., 0., 0., 0., 0., 1.44578312e-002 ]
      - [ 4.83870972e-003, 0., 0., 0., 0., 0., 0., 0., 1.61290320e-003,
          3.22580640e-003, 0., 0., 0., 1.61290320e-003, 0., 0.,
          1.61290320e-003, 1.61290320e-003, 9.67741944e-003, 0., 0., 0.,
          0., 0., 1.61290320e-003, 0., 1.61290320e-003, 0., 0., 0., 0.,
          0., 4.83870972e-003, 0., 4.83870972e-003, 0., 0., 0., 0., 0.,
          3.22580640e-003, 3.22580640e-003, 0., 3.22580640e-003, 0.,
          3.22580640e-003, 3.22580640e-003, 3.22580640e-003, 0., 0., 0.,
          0., 0., 0., 0., 0., 0., 3.22580640e-003, 0., 0., 0.,
          4.83870972e-003, 0., 0., 0., 3.22580640e-003, 0., 0.,
          1.61290320e-003, 0., 0., 0., 0., 0., 4.83870972e-003, 0., 0.,
          1.61290320e-003, 1.61290320e-003, 0., 1.61290320e-003,
          3.22580640e-003, 0., 0., 1.61290320e-003, 1.45161292e-002, 0.,
          1.61290320e-003, 0., 0., 0., 6.45161280e-003, 0., 0.,
          1.61290320e-003, 0., 1.61290320e-003, 1.61290320e-003, 0.,
          1.61290320e-003, 6.45161280e-003, 1.61290318e-002,
          3.22580640e-003, 0., 0., 0., 0., 0., 0., 1.61290320e-003, 0.,
          0., 3.22580640e-003, 0., 0., 3.22580640e-003, 1.61290320e-003,
          0., 3.22580640e-003, 0., 3.22580640e-003, 3.22580640e-003, 0.,
          0., 1.61290320e-003, 0., 0., 3.22580640e-003, 0., 0.,
          6.45161280e-003, 0., 0., 3.22580640e-003, 0., 3.22580640e-003,
          1.61290320e-003, 0., 1.61290320e-003, 0., 6.45161280e-003,
          6.45161280e-003, 6.45161280e-003, 1.61290320e-003, 0., 0.,
          3.22580640e-003, 0., 1.61290320e-003, 1.61290320e-003,
          1.61290320e-003, 0., 1.61290320e-003, 0., 3.22580640e-003, 0.,
          0., 4.83870972e-003, 0., 0., 0., 0., 1.61290320e-003, 0.,
          3.22580640e-003, 6.45161280e-003, 0., 0., 1.61290320e-003,
          3.22580640e-003, 1.61290320e-003, 1.61290320e-003, 0., 0.,
          1.61290320e-003, 0., 0., 3.22580640e-003, 0., 3.22580640e-003,
          1.61290320e-003, 0., 0., 4.83870972e-003, 1.61290320e-003,
          1.61290320e-003, 0., 9.67741944e-003, 0., 0., 0.,
          1.61290320e-003, 0., 4.83870972e-003, 0., 1.61290320e-003,
          6.45161280e-003, 1.61290320e-003, 2.90322583e-002,
          1.61290320e-003, 0., 4.83870972e-003, 0., 1.61290320e-003, 0.,
          1.61290320e-003, 0., 1.29032256e-002, 0., 3.22580640e-003, 0.,
          3.22580640e-003, 3.38709690e-002, 3.22580640e-003, 0.,
          1.61290320e-003, 0., 8.06451589e-003, 1.61290320e-003,
          3.22580640e-003, 0., 1.61290320e-003, 3.22580640e-003, 0.,
          1.61290320e-003, 4.83870972e-003, 4.83870972e-003,
          3.22580640e-003, 0., 0., 0., 0., 0., 1.61290320e-003, 0., 0.,
          1.61290320e-003, 0., 3.22580640e-003, 4.83870972e-003,
          6.45161280e-003, 3.22580640e-003, 1.61290320e-003, 0., 0., 0.,
          0., 0., 0., 4.83870972e-003, 0., 0., 0., 3.22580640e-003, 0.,
          0., 0., 3.22580640e-003, 1.61290320e-003, 3.22580640e-003,
          1.61290320e-003, 1.61290320e-003, 0., 6.45161280e-003,
          6.45161280e-003, 0., 0., 1.61290320e-003, 3.22580640e-003, 0.,
          3.22580640e-003, 0., 1.61290320e-003, 0., 0., 0.,
          1.61290320e-003, 0., 0., 0., 6.45161280e-003, 1.61290320e-003,
          0., 0., 1.29032256e-002, 0., 0., 6.45161280e-003, 0., 0., 0.,
          0., 3.22580640e-003, 0., 1.61290320e-003, 1.29032256e-002,
          1.61290320e-003, 0., 0., 1.61290320e-003, 3.22580640e-003, 0.,
          0., 6.45161280e-003, 0., 0., 0., 0., 4.83870972e-003, 0., 0.,
          0., 3.22580640e-003, 0., 1.61290320e-003, 1.61290320e-003, 0.,
          1.61290320e-003, 0., 0., 1.61290320e-003, 3.22580640e-003,
          1.61290320e-003, 1.61290320e-003, 1.61290320e-003, 0.,
          1.61290320e-003, 0., 1.61290320e-003, 1.61290320e-003,
          6.45161280e-003, 0., 1.61290320e-003, 0., 0., 0.,
          1.61290320e-003, 0., 6.45161280e-003, 0., 1.45161292e-002, 0.,
          0., 0., 1.61290320e-003, 0., 1.61290320e-003, 1.61290320e-003,
          0., 0., 0., 1.61290320e-003, 0., 0., 0., 0., 1.61290320e-003,
          1.61290320e-003, 1.61290320e-003, 0., 0., 8.06451589e-003, 0.,
          0., 0., 0., 1.61290320e-003, 1.61290320e-003, 0.,
          1.61290320e-003, 0., 1.61290320e-003, 4.83870972e-003, 0.,
          1.61290320e-003, 4.83870972e-003, 0., 0., 1.61290320e-003,
          3.22580640e-003, 0., 0., 0., 0., 0., 3.22580640e-003,
          1.61290320e-003, 1.61290320e-003, 1.61290320e-003, 0., 0.,
          1.61290320e-003, 3.22580640e-003, 9.67741944e-003,
          1.61290320e-003, 6.45161280e-003, 0., 1.61290320e-003, 0., 0.,
          0., 3.22580640e-003, 1.61290320e-003, 0., 1.61290320e-003, 0.,
          0., 3.22580640e-003, 4.83870972e-003, 0., 0., 1.61290320e-003,
          6.45161280e-003, 0., 0., 0., 0., 0., 6.45161280e-003,
          1.61290320e-003, 1.61290320e-003, 0., 0., 0., 1.61290320e-003,
          0., 0., 0., 1.61290320e-003, 0., 6.45161280e-003, 0., 0., 0.,
          0., 1.29032256e-002, 0., 1.61290320e-003, 0., 0., 0.,
          1.61290320e-003, 0., 3.22580640e-003, 0., 3.22580640e-003,
          1.61290320e-003, 0., 0., 1.61290320e-003, 4.83870972e-003,
          1.61290320e-003, 1.61290320e-003, 0., 4.83870972e-003, 0., 0.,
          3.22580640e-003, 0., 0., 0., 4.83870972e-003, 3.22580640e-003,
          1.61290320e-003, 0., 0., 3.22580640e-003, 1.61290320e-003, 0.,
          0., 1.61290320e-003, 0., 3.22580640e-003, 0., 0., 0.,
          4.83870972e-003, 4.83870972e-003, 0., 0., 1.29032256e-002, 0.,
          6.45161280e-003, 0., 0., 1.61290320e-003, 1.61290320e-003,
          4.83870972e-003, 0., 0., 1.61290320e-003, 4.83870972e-003, 0.,
          3.22580640e-003, 0., 3.22580640e-003, 0., 0., 3.22580640e-003,
          1.61290320e-003, 3.22580640e-003, 3.22580640e-003,
          1.61290320e-003, 0., 0., 1.61290320e-003, 4.83870972e-003, 0.,
          6.45161280e-003, 0., 0., 6.45161280e-003, 3.22580640e-003, 0.,
          0., 3.22580640e-003, 0., 0., 0., 0., 0., 0., 0., 0.,
          1.61290320e-003, 0., 1.61290320e-003, 0., 0., 0.,
          1.61290320e-003, 1.61290320e-003, 0., 3.22580640e-003,
          1.61290320e-003, 0., 0., 0., 0., 0., 8.06451589e-003,
          1.29032256e-002, 1.61290320e-003, 0., 0., 0., 1.61290320e-003,
          1.61290320e-003, 4.83870972e-003, 0., 3.22580640e-003, 0.,
          6.45161280e-003, 0., 1.12903221e-002, 0., 0., 0.,
          3.22580640e-003, 0., 0., 0., 0., 1.61290320e-003,
          1.61290320e-003, 0., 3.22580640e-003, 6.45161280e-003, 0., 0.,
          0., 0., 1.61290320e-003, 0., 4.83870972e-003, 0.,
          3.22580640e-003, 1.61290320e-003, 1.61290320e-003, 0., 0.,
          3.38709690e-002, 3.22580640e-003, 0., 0., 0., 0., 0.,
          1.61290320e-003, 6.45161280e-003, 1.61290320e-003, 0.,
          1.61290320e-003, 0., 0., 0., 0., 0., 1.61290320e-003, 0. ]
      - [ 0., 1.08459871e-003, 0., 4.33839485e-003, 0., 0.,
          2.16919743e-003, 9.76138841e-003, 0., 0., 1.08459871e-003,
          1.08459871e-003, 0., 1.08459871e-003, 7.59219099e-003, 0.,
          1.08459871e-003, 0., 1.08459871e-003, 0., 0., 3.25379614e-003,
          0., 3.25379614e-003, 3.25379614e-003, 1.08459871e-003, 0., 0.,
          1.08459871e-003, 0., 3.25379614e-003, 0., 0., 2.16919743e-003,
          3.25379614e-003, 0., 4.33839485e-003, 0., 0., 3.25379614e-003,
          2.16919743e-003, 1.08459871e-003, 0., 0., 0., 1.08459871e-003,
          1.08459871e-003, 2.16919743e-003, 3.25379614e-003,
          1.08459871e-003, 0., 5.42299356e-003, 0., 0., 1.08459871e-003,
          6.50759228e-003, 4.33839485e-003, 6.50759228e-003,
          2.16919743e-003, 0., 6.50759228e-003, 4.33839485e-003,
          1.08459871e-003, 1.08459871e-003, 1.08459871e-003,
          2.16919743e-003, 4.33839485e-003, 1.08459871e-003,
          4.33839485e-003, 2.16919743e-003, 0., 0., 1.08459871e-003,
          7.59219099e-003, 0., 0., 1.08459871e-003, 5.42299356e-003,
          6.50759228e-003, 0., 1.08459871e-003, 0., 1.08459871e-003, 0.,
          2.16919743e-003, 4.33839485e-003, 0., 2.16919743e-003,
          4.33839485e-003, 0., 7.59219099e-003, 3.25379614e-003,
          4.33839485e-003, 0., 1.08459871e-003, 5.42299356e-003,
          5.42299356e-003, 4.33839485e-003, 3.25379614e-003, 0., 0., 0.,
          3.25379614e-003, 2.16919743e-003, 0., 0., 0., 0., 0., 0.,
          5.42299356e-003, 0., 6.50759228e-003, 1.08459871e-003, 0.,
          6.50759228e-003, 1.08459871e-003, 4.33839485e-003, 0.,
          2.16919743e-003, 1.08459871e-003, 2.16919743e-003,
          2.16919743e-003, 1.08459871e-003, 1.08459871e-003,
          2.16919743e-003, 1.08459871e-003, 2.16919743e-003,
          1.08459871e-003, 3.25379614e-003, 2.16919743e-003, 0.,
          1.08459871e-003, 3.25379614e-003, 1.08459871e-003,
          1.08459871e-003, 0., 2.16919743e-003, 1.08459871e-003,
          2.16919743e-003, 1.08459871e-003, 0., 1.08459871e-003,
          1.08459871e-003, 3.25379614e-003, 5.42299356e-003, 0., 0., 0.,
          0., 0., 0., 1.08459871e-003, 1.08459871e-003, 4.33839485e-003,
          4.33839485e-003, 3.25379614e-003, 4.33839485e-003,
          4.33839485e-003, 0., 1.08459871e-003, 1.08459871e-003, 0., 0.,
          1.08459871e-003, 7.59219099e-003, 1.08459871e-003,
          1.08459871e-003, 3.25379614e-003, 0., 1.08459871e-003, 0.,
          8.67678970e-003, 0., 1.08459871e-002, 1.08459871e-002,
          2.16919743e-003, 1.08459871e-003, 0., 0., 2.16919743e-003, 0.,
          0., 0., 0., 1.08459871e-003, 0., 5.42299356e-003,
          3.25379614e-003, 0., 3.25379614e-003, 3.25379614e-003,
          1.08459871e-003, 1.08459871e-003, 3.25379614e-003,
          1.08459871e-003, 2.16919743e-003, 0., 0., 1.08459871e-003,
          1.08459871e-003, 0., 0., 1.08459871e-003, 2.16919743e-003, 0.,
          0., 1.08459871e-003, 1.08459871e-003, 0., 0., 1.08459871e-003,
          0., 5.42299356e-003, 2.16919743e-003, 1.08459871e-003,
          3.25379614e-003, 1.08459871e-003, 3.25379614e-003,
          2.16919743e-003, 0., 5.42299356e-003, 0., 2.16919743e-003, 0.,
          1.08459871e-003, 0., 2.16919743e-003, 1.08459871e-003, 0., 0.,
          0., 2.16919743e-003, 0., 0., 1.08459871e-003, 0., 0., 0.,
          1.08459871e-003, 0., 0., 0., 0., 0., 0., 4.33839485e-003,
          2.16919743e-003, 0., 1.08459871e-003, 4.33839485e-003,
          2.16919743e-003, 2.16919743e-003, 0., 0., 3.25379614e-003, 0.,
          0., 0., 0., 2.16919743e-003, 2.16919743e-003, 1.08459871e-003,
          1.08459871e-003, 0., 0., 0., 1.08459871e-003, 0.,
          2.16919743e-003, 2.16919743e-003, 1.08459871e-003,
          2.16919743e-003, 0., 0., 3.25379614e-003, 2.16919743e-003,
          1.08459871e-003, 6.50759228e-003, 2.16919743e-003, 0.,
          4.33839485e-003, 0., 0., 1.08459871e-003, 0., 0.,
          2.16919743e-003, 3.25379614e-003, 0., 1.08459871e-003, 0., 0.,
          0., 1.08459871e-003, 0., 0., 0., 0., 2.16919743e-003,
          1.08459871e-003, 0., 0., 0., 1.08459871e-003, 3.25379614e-003,
          0., 0., 4.33839485e-003, 4.33839485e-003, 5.42299356e-003,
          1.08459871e-003, 0., 3.25379614e-003, 1.19305858e-002,
          1.08459871e-003, 0., 1.08459871e-003, 0., 0., 1.08459871e-003,
          2.16919743e-003, 0., 1.08459871e-003, 0., 5.42299356e-003,
          3.25379614e-003, 7.59219099e-003, 1.08459871e-003,
          5.42299356e-003, 1.08459871e-003, 0., 0., 2.16919743e-003,
          2.16919743e-003, 0., 3.25379614e-003, 0., 5.42299356e-003, 0.,
          3.25379614e-003, 1.08459871e-003, 0., 0., 1.08459871e-003, 0.,
          1.08459871e-003, 3.25379614e-003, 0., 0., 0., 2.16919743e-003,
          1.08459871e-003, 1.08459871e-003, 0., 0., 3.25379614e-003,
          2.16919743e-003, 1.08459871e-003, 2.16919743e-003,
          1.08459871e-003, 1.08459871e-003, 1.84381790e-002,
          2.16919743e-003, 0., 0., 1.08459871e-003, 0., 7.59219099e-003,
          0., 0., 0., 1.08459871e-003, 0., 2.16919743e-003, 0., 0., 0.,
          1.08459871e-003, 1.08459871e-003, 7.59219099e-003,
          4.33839485e-003, 0., 1.08459871e-003, 1.08459871e-003,
          4.33839485e-003, 0., 2.16919743e-003, 2.16919743e-003,
          1.08459871e-003, 2.16919743e-003, 0., 6.50759228e-003, 0.,
          1.08459871e-003, 2.16919743e-003, 0., 0., 3.25379614e-003,
          1.08459871e-003, 1.08459871e-003, 0., 1.08459871e-003,
          1.08459871e-003, 2.16919743e-003, 3.25379614e-003, 0.,
          4.33839485e-003, 1.08459871e-003, 0., 1.08459871e-003, 0.,
          1.08459871e-003, 0., 1.08459871e-003, 1.08459871e-003,
          1.08459871e-003, 1.08459871e-003, 0., 3.25379614e-003, 0., 0.,
          9.76138841e-003, 8.67678970e-003, 1.08459871e-003, 0.,
          7.59219099e-003, 2.16919743e-003, 2.16919743e-003, 0.,
          6.50759228e-003, 0., 0., 2.16919743e-003, 0., 0.,
          1.08459871e-003, 2.16919743e-003, 3.25379614e-003,
          1.08459871e-003, 0., 1.08459871e-003, 3.25379614e-003,
          1.08459871e-003, 0., 1.08459871e-003, 0., 2.16919743e-003,
          1.08459871e-003, 1.08459871e-003, 1.08459871e-003, 0., 0.,
          9.76138841e-003, 0., 0., 0., 0., 0., 0., 0., 1.08459871e-003,
          0., 0., 0., 2.16919743e-003, 3.25379614e-003, 0.,
          3.25379614e-003, 0., 0., 0., 0., 0., 8.67678970e-003,
          2.16919743e-003, 2.16919743e-003, 2.16919743e-003, 0.,
          1.08459871e-003, 1.08459871e-002, 2.16919743e-003, 0.,
          3.25379614e-003, 2.16919743e-003, 2.16919743e-003,
          2.16919743e-003, 3.25379614e-003, 1.08459871e-003,
          1.08459871e-003, 8.67678970e-003, 1.08459871e-003, 0.,
          2.16919743e-003, 0., 1.08459871e-003, 1.08459871e-003, 0.,
          3.25379614e-003, 2.16919743e-003, 1.08459871e-003, 0.,
          4.33839485e-003, 8.67678970e-003, 1.08459871e-003, 0.,
          4.33839485e-003, 0., 2.16919743e-003, 2.16919743e-003,
          1.08459871e-002, 5.42299356e-003, 2.16919743e-003,
          3.25379614e-003, 1.08459871e-003, 3.25379614e-003,
          4.33839485e-003, 0., 1.08459871e-003, 0., 0., 4.33839485e-003,
          2.16919743e-003, 0., 3.25379614e-003, 0., 0., 2.16919743e-003,
          0., 3.25379614e-003, 0., 0., 1.08459871e-003, 0.,
          1.08459871e-003, 0., 0., 2.16919743e-003, 0., 3.25379614e-003,
          1.08459871e-003, 1.08459871e-003, 1.08459871e-003, 0.,
          1.08459871e-003, 0., 4.33839485e-003, 3.25379614e-003,
          4.33839485e-003, 5.42299356e-003, 0., 0., 1.19305858e-002,
          2.16919743e-003, 0., 0., 0., 2.16919743e-003, 4.33839485e-003,
          0., 3.25379614e-003, 2.16919743e-003, 1.08459871e-003,
          4.33839485e-003, 0., 0., 0., 1.08459871e-003, 0., 0., 0., 0.,
          1.08459871e-003, 0., 5.42299356e-003, 1.08459871e-003,
          3.25379614e-003, 1.08459871e-003, 0., 1.08459871e-003,
          7.59219099e-003, 0., 0., 0., 2.16919743e-003, 0., 0., 0., 0.,
          3.25379614e-003, 1.08459871e-003, 0., 1.08459871e-003,
          2.16919743e-003, 1.08459871e-003, 4.33839485e-003,
          1.08459871e-003, 1.08459871e-003, 1.08459871e-003,
          1.08459871e-003 ]
      - [ 0., 2.51256279e-003, 0., 0., 1.25628139e-003, 1.25628139e-003,
          0., 2.51256279e-003, 1.25628139e-003, 1.25628139e-003,
          1.25628139e-003, 1.25628139e-003, 1.25628139e-003, 0.,
          3.76884406e-003, 0., 1.25628139e-003, 0., 1.25628142e-002, 0.,
          0., 0., 0., 2.51256279e-003, 0., 0., 1.25628139e-003, 0., 0.,
          0., 0., 0., 1.00502511e-002, 0., 0., 2.51256279e-003,
          1.25628139e-003, 0., 0., 0., 2.51256279e-003, 1.25628139e-003,
          0., 1.25628139e-003, 3.76884406e-003, 3.76884406e-003, 0., 0.,
          0., 0., 0., 0., 0., 1.25628139e-003, 1.25628139e-003, 0.,
          1.25628139e-003, 1.25628139e-003, 0., 0., 3.51758786e-002,
          2.51256279e-003, 0., 1.25628139e-003, 0., 0., 0., 0., 0., 0.,
          0., 2.51256279e-003, 3.76884406e-003, 0., 3.76884406e-003,
          2.51256279e-003, 1.25628139e-003, 1.25628139e-003,
          5.02512557e-003, 0., 0., 0., 0., 0., 0., 2.51256279e-003,
          1.25628139e-003, 0., 0., 0., 2.51256279e-003, 2.51256279e-003,
          0., 0., 2.51256279e-003, 0., 2.51256279e-003, 2.51256279e-003,
          0., 1.25628139e-003, 1.00502511e-002, 5.02512557e-003, 0., 0.,
          2.51256279e-003, 3.76884406e-003, 0., 0., 0., 2.51256279e-003,
          2.51256279e-003, 0., 0., 3.76884406e-003, 0., 7.53768813e-003,
          1.25628139e-003, 0., 0., 3.76884406e-003, 0., 0.,
          1.25628139e-003, 1.25628139e-003, 1.25628139e-003, 0.,
          6.28140708e-003, 1.25628139e-003, 0., 2.26130653e-002, 0., 0.,
          0., 2.51256279e-003, 1.25628139e-003, 1.25628139e-003, 0.,
          1.25628139e-003, 0., 2.51256279e-003, 1.25628139e-003,
          1.25628139e-003, 0., 0., 2.51256279e-003, 1.25628139e-003,
          1.25628139e-003, 0., 0., 0., 1.25628139e-003, 0., 0.,
          1.25628139e-003, 0., 1.25628139e-003, 0., 2.51256279e-003,
          1.38190957e-002, 0., 0., 0., 1.25628139e-003, 0.,
          2.51256279e-003, 2.51256279e-003, 2.51256279e-003, 0., 0.,
          2.51256279e-003, 1.25628139e-003, 1.25628139e-003, 0., 0., 0.,
          0., 0., 0., 3.76884406e-003, 2.51256279e-003, 1.25628142e-002,
          2.51256279e-003, 2.26130653e-002, 1.25628139e-003, 0.,
          2.51256279e-003, 1.25628139e-003, 3.76884406e-003,
          1.25628139e-003, 1.25628139e-003, 1.25628139e-003, 0.,
          1.25628139e-003, 3.76884406e-003, 0., 0., 2.51256279e-003,
          1.25628139e-003, 6.28140708e-003, 0., 2.51256279e-003,
          1.25628139e-003, 0., 2.51256279e-003, 2.51256279e-003,
          1.25628139e-003, 0., 0., 1.25628142e-002, 0., 0., 0.,
          2.63819098e-002, 0., 3.76884406e-003, 1.25628139e-003, 0.,
          2.51256279e-003, 0., 1.25628139e-003, 0., 2.51256279e-003,
          6.28140708e-003, 5.02512557e-003, 0., 0., 0., 7.53768813e-003,
          1.25628139e-003, 0., 0., 0., 0., 0., 1.25628139e-003, 0., 0.,
          6.28140708e-003, 2.51256279e-003, 0., 5.02512557e-003,
          1.25628139e-003, 0., 0., 1.25628139e-003, 0., 0., 0.,
          7.53768813e-003, 1.25628139e-003, 0., 2.51256279e-003, 0., 0.,
          0., 0., 2.51256279e-003, 1.25628139e-003, 1.25628139e-003,
          1.25628139e-003, 1.25628139e-003, 0., 0., 5.02512557e-003, 0.,
          3.76884406e-003, 0., 0., 0., 0., 1.25628139e-003,
          1.25628139e-003, 0., 0., 0., 1.25628139e-003, 0., 0., 0., 0.,
          1.25628142e-002, 0., 0., 0., 3.76884406e-003, 5.02512557e-003,
          3.76884406e-003, 0., 0., 0., 3.76884406e-003, 0.,
          5.02512557e-003, 0., 0., 5.02512557e-003, 0., 0.,
          3.76884406e-003, 0., 0., 0., 1.25628139e-003, 7.53768813e-003,
          0., 0., 7.53768813e-003, 1.00502511e-002, 0., 0., 0.,
          1.25628139e-003, 0., 2.51256279e-003, 0., 1.25628139e-003, 0.,
          3.76884406e-003, 1.25628139e-003, 0., 0., 1.25628139e-003, 0.,
          2.51256279e-003, 0., 3.76884406e-003, 1.25628139e-003,
          1.25628139e-003, 3.76884406e-003, 1.25628139e-003,
          5.02512557e-003, 1.25628139e-003, 1.25628139e-003,
          2.51256279e-003, 0., 1.25628139e-003, 0., 0., 0.,
          2.51256279e-003, 3.76884406e-003, 2.51256279e-003,
          3.76884406e-003, 0., 1.25628139e-003, 0., 1.25628139e-003,
          1.25628139e-003, 0., 0., 1.25628139e-003, 0., 1.25628139e-003,
          2.38693468e-002, 0., 0., 0., 2.51256279e-003, 0.,
          1.25628139e-003, 1.25628139e-003, 0., 0., 0., 0.,
          1.25628139e-003, 6.28140708e-003, 0., 0., 0., 0., 0.,
          1.25628139e-003, 0., 1.25628139e-003, 1.25628139e-003, 0., 0.,
          1.25628139e-003, 0., 1.25628139e-003, 0., 0., 1.25628139e-003,
          3.76884406e-003, 3.76884406e-003, 0., 0., 0., 0.,
          3.76884406e-003, 0., 5.02512557e-003, 1.25628142e-002,
          1.25628139e-003, 1.25628139e-003, 1.25628139e-003,
          1.25628139e-003, 0., 1.25628139e-003, 0., 1.25628139e-003,
          2.51256279e-003, 0., 0., 1.25628139e-003, 1.25628139e-003,
          2.51256279e-003, 1.25628139e-003, 0., 0., 0., 0.,
          1.25628139e-003, 2.51256279e-003, 0., 3.76884406e-003, 0.,
          1.25628139e-003, 3.76884406e-003, 0., 0., 0., 1.13065327e-002,
          3.76884406e-003, 2.51256279e-003, 1.25628139e-003,
          2.51256279e-003, 6.28140708e-003, 0., 3.76884406e-003, 0., 0.,
          2.51256279e-003, 1.25628139e-003, 1.25628139e-003, 0., 0., 0.,
          1.25628139e-003, 0., 0., 1.25628139e-003, 1.25628139e-003, 0.,
          7.53768813e-003, 1.25628139e-003, 0., 0., 2.51256279e-003, 0.,
          0., 3.76884406e-003, 0., 7.53768813e-003, 0., 0.,
          1.25628139e-003, 0., 1.25628139e-003, 2.51256279e-003, 0.,
          1.25628139e-003, 0., 0., 0., 0., 1.25628139e-003, 0., 0., 0.,
          0., 0., 0., 0., 0., 1.25628139e-003, 2.51256279e-003,
          1.25628139e-003, 2.51256279e-003, 2.51256279e-003, 0.,
          3.76884406e-003, 7.53768813e-003, 1.25628139e-003, 0., 0., 0.,
          0., 0., 2.51256279e-003, 0., 0., 0., 1.25628139e-003, 0., 0.,
          0., 0., 2.51256279e-003, 0., 0., 0., 0., 0., 1.25628139e-003,
          2.51256279e-003, 3.76884406e-003, 1.25628139e-003,
          1.25628139e-003, 2.51256279e-003, 1.25628139e-003,
          6.28140708e-003, 0., 6.28140708e-003, 1.25628139e-003, 0.,
          1.25628139e-003, 0., 0., 1.25628139e-003, 0., 2.51256279e-003,
          2.51256279e-003, 5.02512557e-003, 0., 0., 0., 1.25628139e-003,
          0., 2.51256279e-003, 0., 0., 0., 3.76884406e-003,
          2.88944729e-002, 0., 2.51256279e-003, 0., 1.88442208e-002,
          3.76884406e-003, 0., 1.25628139e-003, 0., 0., 0.,
          2.51256279e-003, 0., 0., 1.25628139e-003, 3.76884406e-003, 0.,
          2.51256279e-003, 2.51256279e-003, 2.51256279e-003, 0., 0., 0.,
          6.28140708e-003, 0., 0., 2.51256279e-003, 0., 0., 0., 0.,
          2.51256279e-003, 5.02512557e-003, 2.51256279e-003,
          1.25628139e-003, 0., 3.26633155e-002, 3.76884406e-003,
          5.02512557e-003, 1.25628139e-003, 0., 0., 0., 2.51256279e-003,
          7.53768813e-003, 0., 1.25628139e-003, 2.51256279e-003, 0., 0.,
          0., 1.25628139e-003, 0., 1.25628139e-003, 0., 3.76884406e-003,
          0., 0., 0., 0., 1.25628139e-003, 1.25628139e-003, 0., 0., 0. ]
      - [ 0., 1.09529030e-003, 0., 0., 0., 0., 0., 0., 0., 0., 0.,
          4.38116118e-003, 0., 0., 1.09529030e-003, 0., 4.38116118e-003,
          0., 1.09529030e-003, 0., 0., 0., 0., 0., 0., 0., 0.,
          1.09529030e-003, 0., 0., 1.09529030e-003, 0., 3.28587089e-003,
          0., 0., 0., 0., 0., 0., 0., 0., 0., 0., 0., 1.09529030e-003,
          4.38116118e-003, 0., 0., 0., 0., 0., 0., 0., 2.19058059e-003,
          0., 0., 0., 0., 0., 0., 4.38116118e-003, 6.57174177e-003, 0.,
          1.09529030e-003, 0., 0., 0., 0., 0., 0., 0., 6.57174177e-003,
          1.09529030e-003, 0., 0., 5.47645148e-003, 0., 0., 0.,
          2.19058059e-003, 0., 1.09529030e-003, 1.09529030e-003, 0., 0.,
          0., 1.09529030e-003, 5.47645148e-003, 0., 1.09529030e-003, 0.,
          0., 0., 0., 0., 1.09529030e-003, 1.09529030e-003, 0., 0., 0.,
          9.85761266e-003, 7.66703207e-003, 0., 0., 0., 0., 0., 0.,
          2.73822583e-002, 6.57174177e-003, 0., 0., 0., 0., 0., 0., 0.,
          5.47645148e-003, 0., 5.47645148e-003, 0., 0., 0., 0.,
          1.09529030e-003, 0., 2.19058059e-003, 0., 0., 0., 0., 0.,
          1.53340641e-002, 0., 0., 0., 0., 0., 0., 0., 0., 0., 0., 0.,
          0., 0., 0., 0., 7.66703207e-003, 0., 0., 0., 0., 0., 0., 0.,
          0., 0., 0., 0., 2.19058059e-003, 0., 0., 0., 5.47645148e-003,
          0., 0., 0., 0., 0., 6.57174177e-003, 0., 3.28587089e-003, 0.,
          0., 2.19058059e-003, 0., 0., 0., 0., 0., 3.17634195e-002, 0.,
          0., 0., 0., 0., 0., 1.09529030e-003, 0., 3.28587089e-003, 0.,
          1.09529030e-003, 1.09529030e-003, 0., 0., 0., 3.28587089e-003,
          2.19058059e-003, 0., 3.28587089e-003, 0., 0., 0.,
          6.57174177e-003, 0., 0., 0., 0., 0., 4.38116118e-003, 0., 0.,
          0., 3.28587089e-003, 0., 0., 0., 0., 1.09529030e-003, 0., 0.,
          0., 0., 0., 0., 0., 0., 2.19058059e-003, 0., 0., 0., 0., 0.,
          0., 0., 0., 1.09529030e-003, 0., 0., 0., 0., 0., 0., 0., 0.,
          0., 0., 1.53340641e-002, 0., 0., 0., 0., 1.09529030e-003, 0.,
          3.28587089e-003, 0., 0., 0., 0., 0., 0., 0., 1.42387738e-002,
          0., 6.57174177e-003, 0., 0., 0., 0., 0., 0., 0., 0., 0., 0.,
          1.09529030e-003, 0., 0., 0., 3.28587089e-003, 4.38116118e-003,
          0., 0., 2.19058059e-003, 0., 0., 0., 1.09529030e-003, 0.,
          1.09529030e-003, 0., 0., 0., 1.09529030e-003, 1.64293535e-002,
          0., 1.09529030e-003, 0., 0., 0., 0., 1.09529030e-003,
          9.85761266e-003, 1.09529030e-003, 0., 0., 8.76232237e-003, 0.,
          0., 0., 0., 0., 0., 0., 0., 0., 0., 0., 0., 1.09529030e-003,
          0., 0., 0., 0., 0., 0., 1.20481933e-002, 1.09529030e-003, 0.,
          2.19058059e-003, 6.57174177e-003, 0., 0., 0., 7.66703207e-003,
          6.57174177e-003, 0., 0., 3.28587089e-003, 0., 0., 0., 0., 0.,
          0., 1.09529030e-003, 6.57174177e-003, 0., 0., 0., 0., 0.,
          4.38116118e-003, 0., 1.31434835e-002, 0., 1.09529030e-003, 0.,
          0., 0., 1.09529030e-003, 1.31434835e-002, 0., 0., 0.,
          5.47645148e-003, 0., 0., 0., 0., 0., 0., 1.09529030e-003, 0.,
          0., 0., 0., 0., 0., 3.94304506e-002, 0., 0., 0.,
          1.09529030e-003, 2.19058059e-003, 0., 0., 0., 0., 0., 0., 0.,
          5.69550954e-002, 0., 0., 0., 0., 0., 0., 0., 0.,
          2.19058059e-003, 1.09529030e-003, 9.85761266e-003,
          2.19058059e-003, 0., 0., 0., 0., 0., 3.28587089e-003, 0., 0.,
          9.85761266e-003, 7.66703207e-003, 1.09529030e-003, 0., 0., 0.,
          0., 0., 1.31434835e-002, 2.19058059e-003, 0., 0.,
          4.38116118e-003, 2.19058059e-003, 1.09529030e-003, 0., 0., 0.,
          0., 0., 0., 4.38116118e-003, 0., 8.76232237e-003,
          8.76232237e-002, 1.09529030e-003, 0., 0., 1.09529030e-003, 0.,
          0., 3.28587089e-003, 0., 0., 0., 0., 0., 2.19058059e-003,
          1.09529030e-003, 1.09529030e-003, 7.66703207e-003,
          1.09529030e-003, 0., 0., 0., 0., 3.28587089e-003,
          1.09529030e-003, 0., 0., 0., 0., 1.09529030e-003, 0.,
          1.09529030e-003, 0., 0., 0., 1.09529030e-003, 0.,
          8.76232237e-003, 1.09529030e-003, 0., 0., 0., 0.,
          4.38116118e-003, 0., 3.28587089e-003, 1.09529030e-003, 0.,
          1.09529030e-002, 1.09529030e-003, 0., 0., 0., 0., 0., 0., 0.,
          6.57174177e-003, 0., 0., 0., 0., 0., 0., 0., 0.,
          2.40963865e-002, 2.19058059e-003, 1.09529030e-003, 0.,
          2.19058059e-003, 0., 0., 0., 5.47645148e-003, 0., 0., 0., 0.,
          0., 1.09529030e-003, 0., 0., 0., 0., 1.09529030e-003, 0., 0.,
          0., 0., 0., 0., 0., 4.38116118e-003, 0., 0., 0., 0., 0.,
          7.66703207e-003, 1.09529030e-003, 0., 1.09529030e-003, 0.,
          1.09529030e-003, 0., 0., 2.19058059e-003, 0., 0., 0., 0.,
          9.96714160e-002, 0., 0., 6.90032914e-002, 0., 3.28587089e-003,
          0., 0., 6.57174177e-003, 1.09529030e-003, 4.38116118e-003, 0.,
          0., 0., 0., 1.09529030e-003, 0., 0., 0., 0., 0., 0., 0., 0.,
          0., 0., 0., 3.28587089e-003, 0., 0., 2.19058059e-003,
          2.19058059e-003, 0., 0., 0., 0., 0., 1.09529030e-003, 0.,
          1.09529030e-003, 0., 4.38116118e-003, 0., 0., 0.,
          1.09529030e-003, 0., 0., 0., 1.09529030e-003, 0. ]
      - [ 2.51572323e-003, 0., 1.25786162e-003, 0., 0., 0., 0.,
          1.25786162e-003, 0., 0., 0., 0., 0., 0., 0., 5.03144646e-003,
          0., 0., 3.77358496e-002, 0., 0., 1.25786162e-003,
          2.51572323e-003, 2.51572323e-003, 0., 0., 0., 6.28930796e-003,
          1.25786162e-003, 0., 1.25786162e-003, 6.28930796e-003, 0.,
          2.13836469e-002, 1.25786162e-003, 1.25786162e-003, 0., 0., 0.,
          0., 0., 2.51572323e-003, 0., 0., 1.25786162e-003,
          1.00628929e-002, 0., 1.25786162e-003, 0., 0., 0.,
          5.03144646e-003, 0., 0., 2.51572323e-003, 0., 0., 0.,
          1.25786159e-002, 1.25786162e-003, 0., 0., 0., 0., 0.,
          1.25786162e-003, 0., 0., 1.25786162e-003, 0., 0.,
          1.25786162e-003, 1.25786162e-003, 0., 0., 0., 5.03144646e-003,
          2.51572323e-003, 2.51572323e-003, 0., 0., 0., 0., 0., 0.,
          5.03144646e-003, 0., 1.25786162e-003, 0., 0., 0.,
          2.51572323e-003, 0., 0., 1.25786162e-003, 0., 5.03144646e-003,
          0., 5.03144646e-003, 0., 1.25786159e-002, 3.01886797e-002, 0.,
          0., 7.54716992e-003, 0., 0., 0., 0., 1.25786162e-003, 0., 0.,
          1.25786162e-003, 0., 0., 1.25786162e-003, 1.25786162e-003,
          1.25786162e-003, 0., 0., 1.25786162e-003, 0., 0.,
          2.38993708e-002, 0., 0., 0., 0., 0., 0., 1.25786162e-003, 0.,
          0., 2.51572323e-003, 1.25786162e-003, 0., 0., 0., 0.,
          2.51572323e-003, 0., 0., 0., 1.25786162e-003, 7.54716992e-003,
          0., 0., 2.51572323e-003, 0., 0., 0., 0., 1.25786162e-003,
          2.51572323e-003, 0., 5.03144646e-003, 1.25786162e-003,
          5.03144646e-003, 1.25786162e-003, 0., 0., 0., 2.51572323e-003,
          5.03144646e-003, 7.54716992e-003, 0., 0., 2.51572323e-003, 0.,
          2.51572323e-003, 1.25786162e-003, 3.77358496e-003,
          5.03144646e-003, 0., 0., 1.25786162e-003, 2.51572323e-003,
          2.51572323e-003, 0., 1.25786162e-003, 0., 2.51572323e-003, 0.,
          5.03144646e-003, 0., 1.25786162e-003, 0., 1.00628929e-002, 0.,
          0., 0., 0., 1.25786162e-003, 1.25786162e-003, 0., 0., 0.,
          2.51572323e-003, 2.64150947e-002, 0., 0., 1.25786162e-003, 0.,
          2.51572323e-003, 2.51572323e-003, 0., 0., 0., 0.,
          1.25786162e-003, 0., 0., 2.76729558e-002, 0., 1.25786162e-003,
          1.25786162e-003, 8.80503096e-003, 3.77358496e-003,
          1.25786162e-003, 0., 0., 3.77358496e-003, 3.77358496e-003, 0.,
          0., 1.25786162e-003, 0., 1.00628929e-002, 1.25786162e-003, 0.,
          2.38993708e-002, 0., 0., 1.25786162e-003, 0., 0.,
          3.77358496e-003, 0., 0., 0., 1.00628929e-002, 3.77358496e-003,
          0., 0., 3.77358496e-003, 0., 0., 0., 2.51572323e-003, 0., 0.,
          0., 2.51572323e-003, 1.25786162e-003, 0., 1.25786162e-003, 0.,
          0., 0., 1.25786162e-003, 0., 0., 0., 8.80503096e-003, 0., 0.,
          0., 2.51572323e-003, 1.25786162e-003, 6.28930796e-003,
          1.25786162e-003, 1.25786159e-002, 0., 0., 0., 0., 0., 0.,
          2.51572323e-003, 0., 0., 0., 0., 0., 2.26415098e-002,
          1.25786162e-003, 0., 2.51572323e-003, 1.25786162e-003,
          1.25786162e-003, 0., 1.25786162e-003, 0., 0., 6.28930796e-003,
          1.25786162e-003, 0., 1.25786162e-003, 1.25786162e-003, 0., 0.,
          0., 2.51572323e-003, 3.77358496e-003, 0., 1.25786162e-003,
          1.25786162e-003, 0., 0., 0., 1.25786162e-003, 0.,
          1.13207549e-002, 3.77358496e-003, 2.51572323e-003, 0., 0., 0.,
          0., 0., 0., 1.25786162e-003, 0., 2.51572323e-003, 0.,
          1.25786162e-003, 0., 0., 1.25786162e-003, 0., 0.,
          2.51572323e-003, 0., 1.25786162e-003, 0., 0., 2.51572323e-003,
          0., 0., 0., 7.54716992e-003, 1.25786162e-003, 1.25786162e-003,
          0., 0., 2.51572323e-003, 0., 2.51572323e-003, 0., 0.,
          1.25786162e-003, 0., 0., 2.51572323e-003, 0., 0.,
          1.25786162e-003, 3.77358496e-003, 3.77358496e-003,
          1.25786162e-003, 0., 3.77358496e-003, 2.51572323e-003, 0., 0.,
          6.28930796e-003, 0., 0., 5.03144646e-003, 0., 0., 0.,
          8.80503096e-003, 0., 3.77358496e-003, 1.25786162e-003,
          1.25786162e-003, 1.25786162e-003, 1.25786162e-003,
          1.25786162e-003, 0., 2.13836469e-002, 0., 1.25786162e-003,
          1.25786162e-003, 2.51572323e-003, 2.51572323e-003,
          1.25786162e-003, 1.25786162e-003, 0., 0., 1.25786162e-003, 0.,
          0., 0., 1.25786162e-003, 0., 0., 0., 0., 1.25786162e-003,
          1.25786162e-003, 7.54716992e-003, 0., 0., 1.25786162e-003,
          2.51572323e-003, 0., 0., 0., 0., 2.51572323e-003, 0.,
          1.25786162e-003, 6.28930796e-003, 2.51572323e-003, 0., 0.,
          1.25786162e-003, 0., 1.25786162e-003, 0., 0., 0., 0., 0.,
          1.00628929e-002, 0., 1.25786162e-003, 0., 1.25786162e-003, 0.,
          0., 8.80503096e-003, 0., 3.77358496e-003, 0., 3.77358496e-003,
          1.25786162e-003, 0., 0., 2.51572323e-003, 2.51572323e-003,
          1.25786162e-003, 1.25786162e-003, 0., 0., 0., 0., 0., 0., 0.,
          0., 2.51572323e-003, 1.38364779e-002, 0., 0., 1.25786162e-003,
          0., 0., 0., 0., 0., 0., 0., 0., 2.51572323e-003, 0.,
          3.77358496e-003, 0., 0., 0., 0., 0., 0., 0., 0.,
          3.77358496e-003, 1.25786162e-003, 0., 2.89308168e-002, 0.,
          1.25786162e-003, 1.25786162e-003, 0., 0., 0., 0., 0.,
          1.25786162e-003, 8.80503096e-003, 2.51572323e-003, 0.,
          1.25786162e-003, 2.51572323e-003, 0., 0., 0., 0., 0., 0., 0.,
          2.51572323e-003, 0., 1.25786162e-003, 0., 1.25786162e-003,
          1.25786162e-003, 1.25786162e-003, 0., 2.51572323e-003,
          2.51572323e-003, 1.38364779e-002, 0., 1.25786162e-003,
          1.25786162e-003, 0., 0., 0., 0., 0., 3.77358496e-003, 0., 0.,
          0., 0., 1.25786162e-003, 0., 0., 0., 0., 0., 0., 0.,
          7.54716992e-003, 0., 0., 0., 0., 0., 0., 1.25786162e-003, 0.,
          1.25786162e-003, 2.51572323e-003, 0., 1.25786162e-003, 0., 0.,
          0., 0., 0., 5.03144646e-003, 0., 1.63522009e-002,
          1.25786162e-003, 0., 0., 6.28930796e-003, 0., 1.25786162e-003,
          1.25786162e-003, 0., 1.25786162e-003, 1.25786162e-003,
          1.25786162e-003, 0., 5.03144646e-003, 0., 1.25786162e-003, 0.,
          0., 0., 0., 2.51572323e-003, 0., 0., 1.25786162e-003,
          1.25786162e-003, 0., 1.25786162e-003, 2.51572318e-002,
          7.54716992e-003, 0., 1.25786162e-003, 0., 0., 0.,
          2.51572323e-003, 5.03144646e-003, 0., 3.77358496e-003, 0., 0.,
          0., 2.51572323e-003, 0., 1.25786162e-003, 0., 0. ]
      - [ 0., 0., 0., 0., 1.45137880e-003, 0., 0., 1.45137880e-003, 0.,
          2.90275761e-003, 0., 0., 0., 0., 2.90275761e-003, 0.,
          2.90275761e-003, 0., 1.59651674e-002, 0., 0., 0., 0.,
          1.45137880e-003, 0., 1.45137880e-003, 0., 1.30624091e-002,
          7.25689391e-003, 0., 2.90275761e-003, 0., 5.80551522e-003, 0.,
          0., 0., 0., 0., 1.45137880e-003, 0., 0., 4.35413653e-003, 0.,
          0., 0., 1.01596517e-002, 0., 0., 1.45137880e-003, 0., 0.,
          2.90275761e-003, 0., 0., 0., 2.90275761e-003, 0., 0., 0., 0.,
          5.80551522e-003, 0., 0., 0., 0., 0., 1.45137880e-003,
          1.45137880e-003, 0., 0., 0., 0., 0., 1.45137880e-003,
          2.90275761e-003, 2.90275761e-003, 0., 0., 0., 1.74165461e-002,
          1.45137880e-003, 0., 0., 0., 0., 5.80551522e-003, 0.,
          1.45137880e-003, 0., 0., 2.90275761e-003, 5.80551522e-003,
          4.35413653e-003, 2.90275761e-003, 1.45137880e-003, 0., 0.,
          1.45137880e-003, 0., 1.45137880e-003, 4.35413644e-002,
          5.80551522e-003, 0., 0., 0., 0., 0., 0., 0., 4.35413653e-003,
          1.45137880e-003, 0., 0., 0., 0., 0., 0., 1.45137880e-003, 0.,
          0., 0., 0., 5.80551522e-003, 1.45137880e-003, 4.35413653e-003,
          1.45137880e-003, 2.90275761e-003, 1.45137880e-003, 0., 0., 0.,
          0., 0., 0., 0., 0., 0., 0., 0., 0., 0., 1.45137880e-003,
          1.45137880e-003, 2.90275761e-003, 2.03193035e-002, 0., 0., 0.,
          0., 2.90275761e-003, 0., 0., 1.45137880e-003, 0.,
          7.25689391e-003, 0., 1.45137880e-003, 2.90275761e-003,
          4.35413653e-003, 0., 0., 1.45137880e-003, 0., 0.,
          7.25689391e-003, 0., 5.80551522e-003, 4.35413653e-003, 0.,
          1.45137880e-003, 2.90275761e-003, 0., 2.90275761e-003, 0., 0.,
          0., 2.90275761e-003, 1.30624091e-002, 1.45137880e-003,
          2.90275761e-003, 0., 5.80551522e-003, 0., 5.80551522e-003,
          1.45137880e-003, 1.88679248e-002, 0., 2.90275761e-003, 0.,
          1.45137880e-003, 1.45137880e-003, 0., 0., 2.90275761e-003,
          1.45137880e-003, 0., 1.45137880e-003, 0., 4.35413653e-003, 0.,
          4.35413653e-003, 1.45137880e-003, 0., 4.35413653e-003,
          2.90275761e-003, 0., 0., 0., 0., 0., 0., 0., 1.59651674e-002,
          0., 0., 0., 0., 0., 1.45137880e-003, 4.35413653e-003, 0., 0.,
          2.90275761e-003, 0., 0., 2.90275761e-003, 2.90275761e-003, 0.,
          0., 0., 1.59651674e-002, 0., 0., 0., 0., 1.45137880e-003, 0.,
          2.90275761e-003, 7.25689391e-003, 1.45137880e-003,
          7.25689391e-003, 0., 0., 0., 0., 0., 4.35413653e-003, 0.,
          1.59651674e-002, 2.90275761e-003, 0., 1.45137880e-003, 0., 0.,
          0., 2.90275761e-003, 8.70827306e-003, 2.90275761e-003, 0.,
          1.45137880e-003, 0., 0., 0., 1.74165461e-002, 0., 0.,
          1.45137880e-003, 0., 0., 0., 4.35413653e-003, 1.30624091e-002,
          1.45137880e-003, 0., 0., 0., 0., 0., 0., 0., 1.45137880e-003,
          1.45137880e-003, 0., 0., 5.80551522e-003, 0., 0., 0.,
          1.45137880e-003, 1.45137880e-003, 0., 0., 1.45137880e-003, 0.,
          4.35413653e-003, 8.70827306e-003, 1.45137880e-003,
          1.45137880e-003, 1.45137880e-003, 0., 0., 0., 0.,
          1.16110304e-002, 0., 0., 0., 0., 1.45137880e-003, 0., 0.,
          2.90275761e-003, 4.35413653e-003, 1.45137880e-003, 0., 0., 0.,
          1.45137880e-003, 0., 0., 0., 1.45137880e-003, 0.,
          1.45137880e-003, 0., 1.45137880e-003, 0., 0., 2.90275761e-003,
          0., 0., 2.90275761e-003, 0., 0., 0., 4.35413653e-003,
          2.90275761e-003, 0., 0., 5.80551522e-003, 1.45137880e-003, 0.,
          0., 0., 0., 0., 5.80551522e-003, 1.45137880e-003,
          1.45137880e-003, 0., 0., 0., 0., 0., 0., 0., 0.,
          2.90275761e-003, 0., 8.70827306e-003, 0., 1.88679248e-002, 0.,
          1.45137880e-003, 0., 0., 1.45137880e-003, 0., 0., 0., 0., 0.,
          0., 0., 0., 0., 0., 0., 1.45137880e-003, 0., 0.,
          1.45137880e-003, 0., 0., 0., 1.45137880e-003, 0., 0., 0., 0.,
          2.90275761e-003, 0., 0., 1.45137880e-003, 0., 1.45137880e-003,
          1.45137880e-003, 1.45137880e-003, 0., 0., 0., 4.35413653e-003,
          2.17706822e-002, 0., 0., 0., 0., 0., 2.90275761e-003,
          8.70827306e-003, 0., 0., 0., 0., 1.01596517e-002,
          8.70827306e-003, 0., 0., 4.35413653e-003, 0., 0., 0., 0., 0.,
          4.35413653e-003, 0., 0., 0., 4.35413653e-003, 0., 0.,
          1.45137880e-003, 0., 1.16110304e-002, 0., 2.90275761e-003,
          2.90275761e-003, 2.90275761e-003, 0., 0., 0., 1.45137880e-003,
          8.70827306e-003, 0., 4.35413653e-003, 7.25689391e-003,
          1.45137880e-003, 0., 0., 2.90275761e-003, 1.45137880e-003, 0.,
          0., 0., 2.61248183e-002, 0., 0., 0., 0., 5.80551522e-003, 0.,
          1.45137880e-003, 0., 0., 0., 0., 2.90275761e-003, 0., 0.,
          2.90275761e-003, 0., 0., 7.25689391e-003, 0., 0.,
          2.90275761e-003, 1.45137880e-003, 0., 0., 0., 0.,
          2.90275761e-003, 1.45137880e-003, 0., 0., 1.45137880e-003,
          1.45137880e-003, 0., 0., 0., 0., 0., 0., 0., 4.35413653e-003,
          1.45137880e-003, 0., 0., 0., 0., 1.45137880e-003, 0., 0., 0.,
          0., 0., 4.35413653e-003, 0., 0., 0., 0., 2.90275761e-003,
          1.16110304e-002, 0., 0., 5.80551522e-003, 0., 0., 0., 0.,
          1.45137880e-003, 1.45137880e-003, 2.90275761e-003,
          1.45137880e-003, 0., 0., 0., 0., 8.70827306e-003,
          1.45137880e-003, 5.80551522e-003, 0., 0., 0., 2.90275756e-002,
          0., 0., 0., 0., 7.25689391e-003, 1.45137880e-003, 0.,
          1.45137880e-003, 0., 1.45137880e-003, 0., 0., 0., 0., 0.,
          5.80551522e-003, 0., 1.45137880e-003, 0., 5.80551522e-003, 0.,
          0., 0., 0., 0., 1.45137880e-003, 4.35413653e-003, 0., 0., 0.,
          0., 0., 4.35413653e-003, 0., 4.35413653e-003, 0.,
          1.45137880e-003, 0., 0., 4.35413653e-003, 0., 1.45137880e-003,
          2.90275761e-003, 0., 0., 0., 5.80551522e-003, 8.70827306e-003,
          0., 0., 0., 1.45137880e-003, 0., 4.35413653e-003,
          7.25689391e-003, 7.25689391e-003, 0., 0., 0., 0.,
          1.45137880e-003, 1.45137880e-003, 0., 0., 0. ]
      - [ 0., 0., 0., 0., 0., 0., 0., 0., 0., 3.50877200e-003,
          1.05263162e-002, 0., 3.50877200e-003, 0., 0., 0., 0., 0., 0.,
          0., 0., 0., 7.01754401e-003, 3.50877200e-003, 0., 0.,
          3.50877200e-003, 0., 0., 0., 0., 0., 0., 0., 3.50877200e-003,
          3.50877200e-003, 0., 0., 0., 0., 0., 3.50877200e-003, 0., 0.,
          0., 0., 0., 0., 0., 0., 0., 3.50877200e-003, 0., 0., 0., 0.,
          0., 3.50877200e-003, 7.01754401e-003, 3.50877200e-003, 0.,
          3.50877200e-003, 0., 0., 0., 3.50877196e-002, 3.50877200e-003,
          3.50877200e-003, 0., 0., 0., 0., 0., 0., 0., 3.50877200e-003,
          3.50877200e-003, 3.50877200e-003, 0., 0., 0., 0., 0., 0.,
          1.75438598e-002, 0., 0., 0., 0., 7.01754401e-003, 0., 0.,
          3.50877200e-003, 0., 0., 0., 0., 0., 0., 0., 0., 0.,
          3.50877200e-003, 1.05263162e-002, 3.50877200e-003, 0.,
          7.01754401e-003, 0., 0., 0., 0., 0., 0., 0., 0., 0., 0., 0.,
          3.50877200e-003, 0., 0., 0., 0., 0., 3.50877200e-003, 0., 0.,
          0., 0., 0., 0., 0., 0., 0., 0., 0., 0., 0., 0., 0., 0., 0., 0.,
          0., 0., 0., 0., 0., 0., 3.50877200e-003, 0., 0., 0., 0., 0.,
          3.50877200e-003, 3.50877200e-003, 0., 3.50877200e-003,
          3.50877200e-003, 7.01754401e-003, 3.50877200e-003,
          7.01754401e-003, 0., 0., 7.01754401e-003, 0., 0., 0., 0., 0.,
          3.50877200e-003, 0., 3.50877200e-003, 0., 0., 0.,
          3.50877200e-003, 3.50877200e-003, 0., 0., 0., 0., 0., 0.,
          3.50877200e-003, 3.50877200e-003, 0., 0., 0., 0.,
          7.01754401e-003, 0., 0., 0., 0., 0., 0., 0., 3.50877200e-003,
          0., 0., 0., 0., 0., 1.75438598e-002, 7.01754401e-003, 0.,
          3.50877200e-003, 3.50877200e-003, 0., 0., 0., 0., 0., 0.,
          3.15789469e-002, 0., 0., 0., 0., 0., 0., 0., 0., 0., 0.,
          7.01754401e-003, 0., 0., 0., 0., 1.05263162e-002, 0.,
          3.50877200e-003, 0., 3.50877200e-003, 0., 0., 0., 0.,
          1.40350880e-002, 0., 0., 0., 7.01754401e-003, 3.50877200e-003,
          3.50877200e-003, 0., 0., 0., 0., 7.01754401e-003, 0.,
          3.50877200e-003, 0., 0., 0., 0., 0., 0., 0., 3.50877196e-002,
          0., 1.75438598e-002, 0., 0., 0., 0., 0., 0., 3.50877200e-003,
          0., 3.50877200e-003, 7.01754401e-003, 0., 0., 0.,
          7.01754401e-003, 7.01754401e-003, 0., 0., 0., 0., 0., 0., 0.,
          0., 3.50877200e-003, 0., 0., 0., 0., 0., 3.50877200e-003,
          3.50877200e-003, 0., 0., 0., 0., 0., 0., 0., 0.,
          3.50877200e-003, 0., 0., 0., 0., 0., 3.50877200e-003, 0., 0.,
          3.50877200e-003, 0., 7.01754401e-003, 0., 0., 0., 0.,
          3.50877200e-003, 0., 7.01754401e-003, 0., 7.01754401e-003,
          3.50877200e-003, 0., 0., 0., 3.50877200e-003, 3.50877200e-003,
          0., 0., 1.05263162e-002, 7.01754401e-003, 3.50877200e-003,
          3.50877200e-003, 1.05263162e-002, 0., 0., 0., 7.01754401e-003,
          0., 0., 0., 0., 0., 0., 0., 0., 3.50877200e-003,
          1.75438598e-002, 0., 0., 0., 0., 3.50877200e-003, 0., 0., 0.,
          7.01754401e-003, 0., 3.50877200e-003, 3.50877200e-003,
          7.01754401e-003, 3.50877196e-002, 0., 0., 0., 0., 0., 0., 0.,
          3.50877200e-003, 0., 3.50877200e-003, 0., 3.50877200e-003,
          7.01754401e-003, 0., 0., 3.50877200e-003, 0., 0., 0., 0.,
          3.50877200e-003, 0., 3.50877196e-002, 7.01754401e-003,
          3.50877200e-003, 7.01754401e-003, 0., 0., 0., 0., 0.,
          7.01754401e-003, 0., 0., 2.10526325e-002, 0., 0.,
          3.50877200e-003, 3.50877200e-003, 0., 0., 7.01754401e-003, 0.,
          0., 7.01754401e-003, 0., 0., 0., 0., 0., 3.50877200e-003, 0.,
          0., 3.50877200e-003, 7.01754401e-003, 0., 7.01754401e-003, 0.,
          0., 3.50877200e-003, 0., 0., 0., 0., 0., 0., 0., 0., 0., 0.,
          0., 0., 0., 0., 2.10526325e-002, 0., 0., 7.01754401e-003, 0.,
          0., 0., 0., 0., 3.50877200e-003, 0., 0., 0., 3.50877200e-003,
          0., 0., 0., 3.50877200e-003, 0., 3.50877200e-003, 0., 0.,
          1.75438598e-002, 0., 0., 0., 3.50877200e-003, 0., 0., 0., 0.,
          0., 0., 0., 0., 0., 0., 1.75438598e-002, 0., 0., 0., 0., 0.,
          0., 0., 0., 0., 0., 0., 0., 3.15789469e-002, 0., 0., 0., 0.,
          0., 3.50877200e-003, 0., 7.01754401e-003, 3.50877200e-003, 0.,
          3.50877200e-003, 3.50877200e-003, 0., 0., 0., 0., 0.,
          7.01754401e-003, 3.50877200e-003, 0., 0., 0., 0., 0.,
          3.50877200e-003, 0., 0., 0., 3.50877200e-003, 3.50877200e-003,
          0., 0., 0., 3.50877200e-003, 0., 3.50877200e-003, 0., 0., 0.,
          0., 0., 3.50877200e-003, 0., 0., 0., 0., 0., 0., 0.,
          3.50877200e-003, 0., 0., 3.50877200e-003, 0., 0., 0., 0.,
          3.50877200e-003, 0., 0., 0., 3.50877200e-003, 0., 0.,
          3.50877200e-003, 0., 0., 3.50877200e-003, 0., 0.,
          3.50877200e-003, 1.40350880e-002, 0., 0., 0., 0., 0., 0., 0.,
          0., 0., 3.50877200e-003, 0., 0., 0., 0., 0., 0., 0., 0., 0.,
          3.50877200e-003, 0., 0., 0., 3.50877200e-003, 0., 0., 0., 0.,
          0., 0., 0., 0., 0., 0., 0., 0., 0. ]
      - [ 1.22100126e-003, 0., 0., 0., 0., 1.22100126e-003,
          8.54700897e-003, 4.88400506e-003, 0., 0., 0., 2.44200253e-003,
          3.66300391e-003, 0., 3.66300391e-003, 1.22100126e-003, 0., 0.,
          1.22100126e-003, 0., 1.22100126e-003, 4.88400506e-003, 0.,
          1.22100126e-003, 1.22100126e-003, 0., 0., 1.22100126e-003, 0.,
          0., 0., 0., 0., 0., 1.22100126e-003, 0., 1.22100126e-003,
          3.66300391e-003, 0., 7.32600782e-003, 3.66300391e-003, 0., 0.,
          0., 4.88400506e-003, 3.66300391e-003, 0., 1.22100126e-003, 0.,
          1.22100126e-003, 1.22100126e-003, 4.88400506e-003, 0., 0.,
          1.22100126e-003, 0., 2.44200253e-003, 2.44200253e-003,
          6.10500621e-003, 1.22100126e-003, 8.54700897e-003,
          3.66300391e-003, 2.44200253e-003, 2.44200253e-003, 0., 0.,
          2.44200253e-003, 7.32600782e-003, 1.22100126e-003,
          1.22100126e-003, 1.22100126e-003, 0., 6.10500621e-003,
          3.66300391e-003, 1.22100126e-003, 0., 3.66300391e-003,
          3.66300391e-003, 2.44200253e-003, 3.66300391e-003,
          2.44200253e-003, 0., 1.22100126e-003, 0., 0., 2.44200253e-003,
          4.88400506e-003, 4.88400506e-003, 2.44200253e-003, 0.,
          8.54700897e-003, 1.22100126e-003, 0., 1.22100126e-003,
          1.22100126e-003, 2.44200253e-003, 3.66300391e-003,
          2.44200253e-003, 0., 0., 2.44200253e-003, 3.66300391e-003,
          1.22100126e-003, 0., 0., 0., 2.44200253e-003, 0.,
          1.22100126e-003, 0., 0., 1.22100126e-003, 0., 2.44200253e-003,
          1.22100126e-003, 1.22100126e-003, 0., 6.10500621e-003, 0.,
          4.88400506e-003, 1.22100126e-003, 2.44200253e-003,
          6.10500621e-003, 0., 0., 4.88400506e-003, 1.22100126e-003,
          1.22100126e-003, 0., 0., 2.44200253e-003, 0., 2.44200253e-003,
          2.44200253e-003, 2.44200253e-003, 6.10500621e-003, 0.,
          3.66300391e-003, 2.44200253e-003, 1.09890113e-002, 0.,
          2.44200253e-003, 2.44200253e-003, 1.22100126e-003,
          1.22100126e-003, 3.66300391e-003, 0., 1.22100126e-003,
          1.22100126e-003, 1.22100126e-003, 1.22100126e-003, 0.,
          6.10500621e-003, 3.66300391e-003, 2.44200253e-003,
          1.22100126e-003, 1.22100126e-003, 2.44200253e-003,
          6.10500621e-003, 1.22100126e-003, 1.22100126e-003,
          2.44200253e-003, 0., 0., 0., 0., 0., 0., 0., 0.,
          3.66300391e-003, 3.66300391e-003, 1.22100126e-003, 0.,
          1.22100126e-003, 1.22100126e-003, 1.22100126e-003,
          2.44200253e-003, 0., 0., 1.22100126e-003, 2.44200253e-003,
          1.22100126e-003, 3.66300391e-003, 0., 2.44200253e-003, 0.,
          1.22100126e-003, 6.10500621e-003, 0., 8.54700897e-003,
          2.44200253e-003, 1.22100126e-003, 3.66300391e-003, 0., 0.,
          1.22100126e-003, 7.32600782e-003, 0., 0., 2.44200253e-003,
          1.22100126e-003, 0., 0., 3.66300391e-003, 0., 0.,
          3.66300391e-003, 1.22100126e-003, 0., 1.22100126e-003, 0., 0.,
          1.22100126e-003, 1.22100126e-003, 1.22100126e-003,
          1.22100126e-003, 2.44200253e-003, 1.22100126e-003, 0., 0., 0.,
          1.22100126e-003, 1.22100126e-003, 2.44200253e-003, 0.,
          1.22100126e-003, 0., 9.76801012e-003, 1.22100126e-003,
          1.22100126e-003, 3.66300391e-003, 8.54700897e-003,
          1.22100126e-003, 2.44200253e-003, 0., 2.44200253e-003,
          1.22100126e-003, 2.44200253e-003, 1.22100126e-003,
          3.66300391e-003, 2.44200253e-003, 1.22100126e-003,
          9.76801012e-003, 0., 3.66300391e-003, 1.22100126e-003, 0.,
          1.22100126e-003, 0., 1.22100126e-003, 1.22100126e-003,
          2.44200253e-003, 2.44200253e-003, 0., 1.22100126e-003, 0., 0.,
          0., 1.22100126e-003, 1.22100126e-003, 1.22100126e-003, 0., 0.,
          0., 2.44200253e-003, 0., 4.88400506e-003, 0., 0.,
          1.22100126e-003, 1.22100126e-003, 0., 0., 1.22100126e-003,
          2.44200253e-003, 3.66300391e-003, 0., 0., 4.88400506e-003, 0.,
          4.88400506e-003, 0., 0., 1.22100126e-003, 3.66300391e-003,
          2.44200253e-003, 1.22100126e-003, 3.66300391e-003, 0.,
          6.10500621e-003, 0., 1.22100126e-003, 0., 0., 0., 0., 0.,
          1.22100126e-003, 1.22100126e-003, 1.22100126e-003, 0.,
          2.44200253e-003, 0., 3.66300391e-003, 4.88400506e-003,
          1.22100126e-003, 0., 1.22100126e-003, 0., 2.44200253e-003, 0.,
          1.22100126e-003, 2.44200253e-003, 1.22100126e-003, 0.,
          1.22100126e-003, 0., 0., 1.22100126e-003, 2.44200253e-003,
          3.66300391e-003, 0., 8.54700897e-003, 1.22100126e-003,
          2.44200253e-003, 1.22100126e-003, 2.44200253e-003,
          4.88400506e-003, 4.88400506e-003, 0., 0., 0., 1.22100126e-003,
          1.22100126e-003, 4.88400506e-003, 3.66300391e-003, 0.,
          2.44200253e-003, 0., 4.88400506e-003, 1.22100126e-003,
          1.22100126e-003, 0., 0., 2.44200253e-003, 0., 0., 0.,
          3.66300391e-003, 1.22100126e-003, 0., 1.22100126e-003,
          8.54700897e-003, 0., 0., 3.66300391e-003, 2.44200253e-003,
          2.44200253e-003, 3.66300391e-003, 1.22100126e-003, 0.,
          1.22100126e-003, 0., 2.44200253e-003, 0., 4.88400506e-003, 0.,
          0., 0., 0., 2.44200253e-003, 0., 1.22100126e-003,
          6.10500621e-003, 0., 7.32600782e-003, 0., 4.88400506e-003,
          3.66300391e-003, 6.10500621e-003, 1.22100126e-003, 0., 0.,
          1.22100126e-003, 0., 1.22100126e-003, 1.22100126e-003,
          2.44200253e-003, 1.22100126e-003, 0., 0., 1.22100126e-003,
          1.22100126e-003, 0., 7.32600782e-003, 2.44200253e-003, 0.,
          2.44200253e-003, 1.22100126e-003, 4.88400506e-003,
          3.66300391e-003, 0., 1.22100126e-003, 2.44200253e-003,
          6.10500621e-003, 0., 2.44200253e-003, 0., 0., 0.,
          6.10500621e-003, 1.22100126e-003, 0., 0., 0., 1.22100126e-003,
          6.10500621e-003, 0., 0., 2.44200253e-003, 0., 8.54700897e-003,
          2.44200253e-003, 6.10500621e-003, 1.22100126e-003,
          1.22100126e-003, 0., 1.22100126e-003, 1.22100126e-003,
          2.44200253e-003, 4.88400506e-003, 0., 1.22100126e-003,
          1.22100126e-003, 6.10500621e-003, 1.22100126e-003,
          3.66300391e-003, 1.22100126e-003, 0., 0., 3.66300391e-003, 0.,
          0., 0., 1.22100126e-003, 1.22100126e-003, 0., 0., 0., 0., 0.,
          0., 1.22100126e-003, 0., 0., 1.22100126e-003, 2.44200253e-003,
          0., 0., 0., 1.22100126e-003, 1.22100126e-003, 0.,
          1.22100126e-003, 1.22100126e-003, 9.76801012e-003, 0.,
          6.10500621e-003, 0., 0., 0., 1.22100126e-003, 0.,
          3.66300391e-003, 1.22100126e-003, 2.44200253e-003,
          2.44200253e-003, 4.88400506e-003, 1.22100126e-003,
          4.88400506e-003, 0., 0., 3.66300391e-003, 1.22100126e-003,
          4.88400506e-003, 3.66300391e-003, 1.22100126e-003,
          9.76801012e-003, 1.22100126e-003, 0., 0., 0., 0.,
          2.44200253e-003, 1.22100126e-003, 0., 0., 2.44200253e-003,
          2.44200253e-003, 0., 2.44200253e-003, 0., 0., 0., 0.,
          3.66300391e-003, 4.88400506e-003, 1.22100126e-003,
          1.22100126e-003, 2.44200253e-003, 4.88400506e-003, 0.,
          1.22100126e-003, 1.22100126e-003, 1.22100126e-003, 0.,
          7.32600782e-003, 0., 2.44200253e-003, 0., 1.22100126e-003, 0.,
          0., 0., 1.22100126e-003, 0., 0., 0., 0., 1.22100126e-003, 0.,
          3.66300391e-003, 1.22100126e-003, 0., 0., 1.22100126e-003, 0.,
          1.22100126e-003, 1.22100126e-003, 2.44200253e-003,
          6.10500621e-003, 1.22100126e-003, 3.66300391e-003,
          1.22100126e-003, 0., 2.44200253e-003, 1.22100126e-003,
          2.44200253e-003, 3.66300391e-003, 0., 1.22100126e-003,
          4.88400506e-003, 3.66300391e-003, 2.44200253e-003, 0., 0., 0.,
          1.09890113e-002, 9.76801012e-003, 2.44200253e-003, 0.,
          1.22100126e-003, 1.22100126e-003, 0., 1.22100126e-003, 0.,
          2.44200253e-003, 0., 4.88400506e-003, 0., 0., 1.22100126e-003,
          0., 0., 1.22100126e-003, 3.66300391e-003, 2.44200253e-003, 0.,
          0., 6.10500621e-003, 2.44200253e-003, 2.44200253e-003, 0., 0.,
          0., 1.22100126e-003, 1.22100126e-003, 0., 1.22100126e-003, 0.,
          4.88400506e-003, 1.22100126e-003, 1.22100126e-003,
          1.22100126e-003, 2.44200253e-003, 0., 0., 0., 0. ]
      - [ 0., 1.45348837e-003, 3.63372080e-003, 0., 7.26744183e-004,
          3.63372080e-003, 3.63372080e-003, 5.08720940e-003,
          1.45348837e-003, 0., 2.18023267e-003, 2.90697673e-003,
          1.45348837e-003, 2.18023267e-003, 5.81395347e-003,
          2.18023267e-003, 7.26744183e-004, 0., 7.26744183e-004,
          7.26744183e-004, 7.26744183e-004, 0., 5.81395347e-003,
          2.18023267e-003, 7.26744183e-004, 7.26744183e-004, 0.,
          5.81395347e-003, 7.26744183e-004, 0., 2.18023267e-003,
          1.45348837e-003, 0., 7.26744183e-004, 7.26744183e-004, 0., 0.,
          0., 7.26744183e-004, 7.26744183e-004, 1.45348837e-003, 0.,
          7.26744183e-004, 0., 7.26744183e-004, 2.18023267e-003, 0., 0.,
          1.45348837e-003, 0., 7.26744183e-004, 5.81395347e-003,
          7.26744183e-004, 7.26744183e-004, 5.81395347e-003,
          1.45348837e-003, 4.36046533e-003, 7.26744183e-004,
          1.59883723e-002, 0., 2.18023267e-003, 2.90697673e-003,
          2.90697673e-003, 6.54069753e-003, 4.36046533e-003,
          2.90697673e-003, 2.90697673e-003, 1.45348837e-003, 0., 0.,
          2.18023267e-003, 0., 2.18023267e-003, 5.81395347e-003,
          5.08720940e-003, 7.26744183e-004, 1.45348837e-003,
          2.18023267e-003, 7.26744183e-004, 0., 1.45348837e-003,
          2.18023267e-003, 2.18023267e-003, 7.26744183e-004, 0.,
          1.45348837e-003, 7.26744183e-004, 7.26744183e-004, 0.,
          1.45348837e-003, 0., 2.18023267e-003, 0., 0., 7.26744183e-004,
          2.90697673e-003, 0., 7.26744183e-004, 0., 2.18023267e-003, 0.,
          7.26744183e-004, 2.90697673e-003, 0., 0., 0., 7.26744183e-004,
          7.26744160e-003, 4.36046533e-003, 0., 2.90697673e-003,
          7.26744183e-004, 0., 1.45348837e-003, 7.26744183e-004,
          7.26744183e-004, 7.26744183e-004, 9.44767427e-003,
          7.26744183e-004, 2.18023267e-003, 4.36046533e-003, 0.,
          7.26744183e-004, 1.45348837e-003, 0., 3.63372080e-003,
          4.36046533e-003, 0., 7.26744183e-004, 0., 0., 7.26744183e-004,
          7.26744183e-004, 3.63372080e-003, 7.26744183e-004,
          2.18023267e-003, 1.45348837e-003, 1.45348837e-003,
          7.26744183e-004, 5.08720940e-003, 1.45348837e-003,
          1.45348837e-003, 2.90697673e-003, 5.81395347e-003,
          1.45348837e-003, 7.26744183e-004, 0., 7.26744183e-004,
          2.90697673e-003, 0., 0., 3.63372080e-003, 1.45348837e-003,
          1.09011624e-002, 0., 7.99418613e-003, 5.08720940e-003, 0.,
          7.26744183e-004, 0., 3.63372080e-003, 5.81395347e-003,
          2.90697673e-003, 0., 0., 1.45348837e-003, 0., 0., 0., 0.,
          1.45348837e-003, 4.36046533e-003, 0., 1.45348837e-003,
          1.45348837e-003, 6.54069753e-003, 1.45348837e-003,
          2.18023267e-003, 0., 1.45348837e-003, 1.45348837e-003,
          7.26744183e-004, 7.26744183e-004, 1.45348837e-003,
          7.26744183e-004, 7.26744183e-004, 7.26744183e-004,
          7.26744183e-004, 4.36046533e-003, 7.26744183e-004,
          3.63372080e-003, 7.26744183e-004, 2.90697673e-003,
          3.63372080e-003, 0., 7.26744183e-004, 2.18023267e-003, 0., 0.,
          0., 7.26744183e-004, 0., 0., 1.45348837e-003, 1.45348837e-003,
          4.36046533e-003, 7.26744160e-003, 4.36046533e-003,
          2.90697673e-003, 0., 2.90697673e-003, 0., 0., 7.26744183e-004,
          1.45348837e-003, 1.45348837e-003, 1.09011624e-002,
          7.26744183e-004, 0., 2.18023267e-003, 7.26744183e-004,
          5.08720940e-003, 0., 0., 7.26744183e-004, 7.26744183e-004,
          2.18023267e-003, 5.08720940e-003, 1.45348837e-003, 0., 0., 0.,
          5.81395347e-003, 5.81395347e-003, 7.26744183e-004,
          2.18023267e-003, 7.26744183e-004, 0., 1.45348837e-003,
          2.18023267e-003, 0., 9.44767427e-003, 0., 5.08720940e-003, 0.,
          7.26744183e-004, 7.26744183e-004, 7.26744183e-004, 0.,
          1.45348837e-003, 4.36046533e-003, 7.26744183e-004,
          1.45348837e-003, 1.45348837e-003, 2.18023267e-003,
          7.26744183e-004, 0., 7.26744183e-004, 0., 7.26744183e-004,
          7.26744183e-004, 0., 2.90697673e-003, 0., 1.45348837e-003, 0.,
          1.45348837e-003, 4.36046533e-003, 0., 7.26744183e-004, 0., 0.,
          0., 0., 1.45348837e-003, 2.18023267e-003, 7.26744183e-004, 0.,
          2.18023267e-003, 2.18023267e-003, 7.26744183e-004,
          7.26744183e-004, 0., 7.26744183e-004, 0., 0., 2.18023267e-003,
          1.45348837e-003, 7.26744183e-004, 1.45348837e-003,
          2.18023267e-003, 1.45348837e-003, 7.26744183e-004, 0., 0., 0.,
          1.45348837e-003, 2.18023267e-003, 3.63372080e-003, 0., 0., 0.,
          2.18023267e-003, 7.26744183e-004, 7.26744183e-004,
          2.18023267e-003, 7.26744183e-004, 0., 2.18023267e-003, 0.,
          4.36046533e-003, 7.26744183e-004, 0., 1.45348837e-003,
          2.18023267e-003, 0., 0., 7.26744183e-004, 1.45348837e-003,
          7.26744183e-004, 1.45348837e-003, 0., 4.36046533e-003,
          1.45348837e-003, 3.63372080e-003, 7.26744183e-004, 0.,
          1.45348837e-003, 2.18023267e-003, 7.26744183e-004,
          7.26744183e-004, 2.18023267e-003, 0., 1.45348837e-003,
          3.63372080e-003, 7.26744183e-004, 5.08720940e-003,
          7.26744160e-003, 7.26744183e-004, 0., 7.26744183e-004,
          3.63372080e-003, 7.26744160e-003, 1.45348837e-003,
          7.26744183e-004, 7.26744160e-003, 7.26744183e-004, 0., 0.,
          7.26744183e-004, 1.45348837e-003, 7.99418613e-003,
          6.54069753e-003, 0., 2.18023267e-003, 2.18023267e-003,
          1.09011624e-002, 0., 7.26744183e-004, 0., 5.08720940e-003,
          2.18023267e-003, 0., 1.45348837e-003, 7.26744183e-004,
          1.52616277e-002, 0., 0., 1.09011624e-002, 7.26744183e-004,
          7.26744183e-004, 6.54069753e-003, 0., 3.63372080e-003,
          5.81395347e-003, 1.45348837e-003, 0., 0., 4.36046533e-003, 0.,
          5.08720940e-003, 2.18023267e-003, 7.26744183e-004,
          6.54069753e-003, 0., 0., 5.08720940e-003, 2.18023267e-003,
          4.36046533e-003, 7.26744183e-004, 7.26744183e-004,
          2.18023267e-003, 2.18023267e-003, 7.26744183e-004,
          1.45348837e-003, 0., 7.26744183e-004, 0., 1.45348837e-003,
          7.26744183e-004, 7.26744183e-004, 7.26744183e-004,
          2.18023267e-003, 5.08720940e-003, 3.63372080e-003,
          1.45348837e-003, 2.90697673e-003, 2.18023267e-003,
          1.45348837e-003, 0., 1.45348837e-003, 2.18023267e-003,
          7.26744183e-004, 1.45348837e-003, 7.26744183e-004,
          1.45348837e-003, 7.26744183e-004, 7.26744160e-003,
          7.26744183e-004, 0., 0., 0., 8.72093067e-003, 1.45348837e-003,
          1.45348837e-003, 0., 0., 7.26744183e-004, 7.26744183e-004, 0.,
          7.26744183e-004, 4.36046533e-003, 7.26744183e-004, 0., 0.,
          1.45348837e-003, 0., 7.26744183e-004, 7.26744183e-004, 0.,
          1.45348837e-003, 0., 5.08720940e-003, 7.26744183e-004, 0., 0.,
          1.45348837e-003, 7.26744183e-004, 0., 0., 2.18023267e-003,
          2.90697673e-003, 0., 5.08720940e-003, 0., 7.26744183e-004,
          7.26744183e-004, 1.45348837e-003, 0., 0., 1.45348837e-003, 0.,
          5.08720940e-003, 8.72093067e-003, 1.45348837e-003, 0.,
          2.18023267e-003, 7.26744183e-004, 5.08720940e-003, 0., 0.,
          1.45348837e-003, 0., 0., 5.08720940e-003, 0., 0.,
          5.81395347e-003, 5.81395347e-003, 7.26744183e-004, 0., 0.,
          7.26744183e-004, 4.36046533e-003, 1.45348837e-003,
          4.36046533e-003, 7.26744183e-004, 1.45348837e-003,
          1.45348837e-003, 2.90697673e-003, 2.90697673e-003,
          1.45348837e-003, 0., 7.26744183e-004, 7.26744183e-004, 0.,
          7.26744183e-004, 0., 1.45348837e-003, 7.26744183e-004,
          7.26744183e-004, 7.26744183e-004, 7.26744183e-004,
          7.26744183e-004, 2.90697673e-003, 3.63372080e-003,
          1.45348837e-003, 1.45348837e-003, 2.18023267e-003,
          2.90697673e-003, 2.18023267e-003, 0., 1.45348837e-003, 0.,
          7.26744183e-004, 1.45348837e-003, 1.45348837e-003,
          7.26744183e-004, 2.18023267e-003, 5.08720940e-003,
          7.26744183e-004, 7.26744183e-004, 2.18023267e-003, 0., 0.,
          3.63372080e-003, 0., 2.90697673e-003, 7.26744183e-004,
          2.18023267e-003, 0., 0., 2.18023267e-003, 7.26744183e-004, 0.,
          2.18023267e-003, 2.18023267e-003, 7.26744183e-004, 0., 0.,
          1.45348837e-003, 7.26744183e-004, 2.18023267e-003, 0.,
          2.18023267e-003, 0., 2.90697673e-003, 2.18023267e-003,
          2.90697673e-003, 0., 0., 7.26744183e-004, 1.45348837e-003, 0.,
          7.26744183e-004, 5.81395347e-003, 0., 0., 4.36046533e-003,
          3.63372080e-003, 7.26744183e-004, 0., 5.08720940e-003,
          7.26744183e-004, 3.63372080e-003, 0., 1.45348837e-003, 0.,
          7.26744183e-004, 2.18023267e-003, 0., 0., 7.26744183e-004,
          1.45348837e-003, 1.45348837e-003, 2.18023267e-003,
          7.26744183e-004, 2.18023267e-003, 7.26744183e-004, 0.,
          1.30813951e-002, 2.18023267e-003, 0., 2.18023267e-003,
          2.90697673e-003, 7.26744183e-004, 0., 0., 7.26744183e-004, 0.,
          0., 2.90697673e-003, 7.26744183e-004, 8.72093067e-003,
          7.26744183e-004, 7.26744183e-004, 0., 7.26744183e-004,
          7.26744183e-004, 0. ]
      - [ 1.41442718e-003, 0., 0., 0., 1.41442718e-003, 0.,
          4.24328167e-003, 1.41442718e-003, 0., 1.41442718e-003,
          7.07213581e-003, 2.82885437e-003, 0., 0., 4.24328167e-003, 0.,
          2.82885437e-003, 0., 2.82885437e-003, 0., 0., 4.24328167e-003,
          0., 2.82885437e-003, 0., 2.82885437e-003, 2.82885437e-003, 0.,
          0., 0., 1.41442718e-003, 0., 2.82885437e-003, 0.,
          4.24328167e-003, 0., 0., 0., 1.41442718e-003, 0.,
          1.41442718e-003, 1.41442718e-003, 0., 0., 8.48656334e-003,
          2.82885437e-003, 2.82885437e-003, 0., 0., 0., 0.,
          2.82885437e-003, 0., 1.41442718e-003, 4.24328167e-003, 0., 0.,
          0., 0., 0., 2.82885437e-003, 2.82885437e-003, 1.41442718e-003,
          1.41442718e-003, 0., 0., 5.65770874e-003, 1.41442718e-003,
          1.41442718e-003, 0., 0., 0., 1.41442718e-003, 9.90098994e-003,
          1.41442718e-003, 0., 1.41442718e-003, 5.65770874e-003,
          4.24328167e-003, 1.41442718e-003, 4.24328167e-003, 0., 0., 0.,
          2.82885437e-003, 0., 5.65770874e-003, 2.82885437e-003,
          1.41442718e-003, 1.41442718e-003, 1.41442718e-003, 0.,
          2.82885437e-003, 0., 5.65770874e-003, 2.82885437e-003, 0.,
          1.41442718e-003, 5.65770874e-003, 0., 0., 1.41442718e-003, 0.,
          1.41442718e-003, 0., 0., 2.82885437e-003, 1.41442718e-003, 0.,
          0., 1.41442718e-003, 0., 0., 0., 0., 1.41442718e-003, 0., 0.,
          0., 1.41442718e-003, 0., 2.82885437e-003, 0., 0.,
          1.41442718e-003, 0., 2.82885437e-003, 0., 0., 0.,
          5.65770874e-003, 0., 0., 2.82885437e-003, 1.41442718e-003,
          2.82885437e-003, 0., 1.41442718e-003, 1.41442718e-003,
          2.82885437e-003, 5.65770874e-003, 2.82885437e-003,
          2.82885437e-003, 4.24328167e-003, 4.24328167e-003, 0., 0., 0.,
          5.65770874e-003, 0., 0., 9.90098994e-003, 8.48656334e-003,
          5.65770874e-003, 0., 0., 0., 4.24328167e-003, 4.24328167e-003,
          0., 0., 4.24328167e-003, 0., 1.41442718e-003, 7.07213581e-003,
          2.82885437e-003, 0., 4.24328167e-003, 1.41442718e-003,
          2.82885437e-003, 1.41442718e-003, 0., 2.82885437e-003, 0.,
          2.82885437e-003, 2.82885437e-003, 2.82885437e-003,
          2.82885437e-003, 4.24328167e-003, 5.65770874e-003,
          2.82885437e-003, 0., 0., 2.82885437e-003, 2.82885437e-003, 0.,
          0., 1.41442718e-003, 2.82885437e-003, 0., 7.07213581e-003,
          1.41442718e-003, 0., 7.07213581e-003, 7.07213581e-003, 0., 0.,
          2.82885437e-003, 1.41442718e-003, 1.41442718e-003,
          1.41442718e-003, 0., 0., 1.41442718e-003, 4.24328167e-003, 0.,
          0., 1.13154175e-002, 0., 0., 2.82885437e-003, 0.,
          1.41442718e-003, 0., 5.65770874e-003, 1.41442718e-003,
          2.82885437e-003, 1.41442718e-003, 4.24328167e-003,
          2.82885437e-003, 0., 0., 0., 0., 5.65770874e-003, 0.,
          4.24328167e-003, 0., 1.41442718e-003, 0., 1.41442718e-003, 0.,
          2.82885437e-003, 1.41442718e-003, 0., 8.48656334e-003,
          2.82885437e-003, 4.24328167e-003, 0., 0., 2.82885437e-003, 0.,
          1.41442718e-003, 7.07213581e-003, 1.41442718e-003,
          2.82885437e-003, 0., 0., 1.41442718e-003, 5.65770874e-003, 0.,
          2.82885437e-003, 0., 2.82885437e-003, 0., 2.82885437e-003,
          1.41442718e-003, 0., 0., 0., 1.41442718e-003, 0.,
          1.41442718e-003, 2.82885437e-003, 0., 2.82885437e-003, 0.,
          1.41442718e-003, 0., 2.82885437e-003, 0., 2.82885437e-003, 0.,
          0., 1.41442718e-003, 1.41442718e-003, 1.41442718e-003, 0., 0.,
          0., 0., 0., 0., 4.24328167e-003, 2.82885437e-003,
          1.41442718e-003, 0., 1.41442718e-003, 0., 4.24328167e-003,
          2.82885437e-003, 2.82885437e-003, 0., 0., 1.41442718e-003,
          2.82885437e-003, 2.82885437e-003, 0., 2.82885437e-003,
          1.41442718e-003, 0., 0., 1.41442718e-003, 0., 9.90098994e-003,
          1.41442718e-003, 1.41442718e-003, 1.41442718e-003,
          1.41442718e-003, 0., 1.41442718e-003, 0., 2.82885437e-003,
          1.41442718e-003, 0., 1.41442718e-003, 0., 0., 0., 0.,
          5.65770874e-003, 0., 0., 4.24328167e-003, 0., 7.07213581e-003,
          0., 4.24328167e-003, 0., 2.82885437e-003, 2.82885437e-003,
          4.24328167e-003, 1.41442718e-003, 1.41442718e-003, 0.,
          2.82885437e-003, 5.65770874e-003, 1.41442718e-003,
          1.41442718e-003, 0., 4.24328167e-003, 1.41442718e-003, 0., 0.,
          1.41442718e-003, 1.41442718e-003, 2.82885437e-003,
          2.82885437e-003, 0., 4.24328167e-003, 0., 0., 1.41442718e-003,
          2.82885437e-003, 0., 0., 0., 2.82885437e-003, 5.65770874e-003,
          2.82885437e-003, 0., 2.82885437e-003, 2.82885437e-003, 0.,
          1.13154175e-002, 0., 0., 4.24328167e-003, 0., 0., 0., 0.,
          1.41442718e-003, 2.82885437e-003, 1.41442718e-003,
          2.82885437e-003, 0., 0., 1.41442718e-003, 0., 9.90098994e-003,
          4.24328167e-003, 0., 0., 4.24328167e-003, 0., 0., 0., 0., 0.,
          1.41442718e-003, 2.82885437e-003, 4.24328167e-003, 0., 0.,
          1.41442718e-003, 0., 1.41442718e-003, 0., 0., 2.82885437e-003,
          5.65770874e-003, 4.24328167e-003, 0., 5.65770874e-003, 0., 0.,
          1.41442718e-003, 0., 2.82885437e-003, 0., 0., 0., 0., 0., 0.,
          0., 8.48656334e-003, 2.82885437e-003, 0., 0., 0.,
          4.24328167e-003, 4.24328167e-003, 1.41442718e-003,
          1.41442718e-003, 4.24328167e-003, 1.41442718e-003,
          4.24328167e-003, 0., 1.41442718e-003, 2.82885437e-003, 0.,
          1.41442718e-003, 0., 5.65770874e-003, 1.41442718e-003, 0.,
          1.41442718e-003, 0., 4.24328167e-003, 2.82885437e-003, 0., 0.,
          0., 2.82885437e-003, 2.82885437e-003, 2.82885437e-003, 0.,
          1.41442718e-003, 0., 0., 0., 0., 1.41442718e-003,
          2.82885437e-003, 0., 0., 0., 1.41442718e-003, 0., 0.,
          1.41442718e-003, 0., 0., 0., 7.07213581e-003, 2.82885437e-003,
          2.82885437e-003, 2.82885437e-003, 4.24328167e-003, 0., 0., 0.,
          1.41442718e-003, 2.82885437e-003, 2.82885437e-003, 0.,
          1.41442718e-003, 0., 4.24328167e-003, 2.82885437e-003,
          4.24328167e-003, 5.65770874e-003, 0., 7.07213581e-003,
          2.82885437e-003, 0., 2.82885437e-003, 0., 1.41442718e-003, 0.,
          0., 0., 1.41442718e-003, 1.41442718e-003, 1.41442718e-003, 0.,
          0., 4.24328167e-003, 0., 0., 0., 0., 0., 1.41442718e-003,
          4.24328167e-003, 0., 2.82885437e-003, 0., 2.82885437e-003,
          1.41442718e-003, 1.41442718e-003, 0., 0., 2.82885437e-003, 0.,
          2.82885437e-003, 0., 2.82885437e-003, 0., 1.41442718e-003, 0.,
          5.65770874e-003, 2.82885437e-003, 0., 1.41442718e-003, 0., 0.,
          0., 7.07213581e-003, 1.41442718e-003, 4.24328167e-003,
          7.07213581e-003, 4.24328167e-003, 0., 0., 0., 0., 0.,
          1.41442718e-003, 1.41442718e-003, 5.65770874e-003, 0.,
          9.90098994e-003, 0., 1.41442718e-003, 4.24328167e-003,
          1.41442718e-003, 0., 1.41442718e-003, 4.24328167e-003,
          4.24328167e-003, 4.24328167e-003, 7.07213581e-003, 0., 0., 0.,
          2.82885437e-003, 1.41442716e-002, 0., 1.41442718e-003, 0.,
          1.41442718e-003, 0., 1.41442718e-003, 0., 1.41442718e-003,
          1.41442718e-003, 5.65770874e-003, 0., 0., 0., 0.,
          2.82885437e-003, 0., 4.24328167e-003, 1.41442718e-003,
          2.82885437e-003, 0., 2.82885437e-003, 5.65770874e-003,
          2.82885437e-003, 1.41442718e-003, 0., 2.82885437e-003,
          4.24328167e-003, 0., 2.82885437e-003, 0., 0., 0., 0.,
          1.41442718e-003, 0., 0., 0., 1.41442718e-003, 1.41442718e-003,
          1.41442718e-003 ]
      - [ 0., 0., 5.38793113e-003, 0., 2.15517241e-003, 0.,
          3.23275849e-003, 9.69827548e-003, 0., 2.15517241e-003,
          4.31034481e-003, 5.38793113e-003, 3.23275849e-003,
          3.23275849e-003, 1.07758620e-003, 3.23275849e-003, 0.,
          2.15517241e-003, 0., 0., 1.07758620e-003, 4.31034481e-003, 0.,
          3.23275849e-003, 1.07758620e-003, 1.07758620e-003,
          1.07758620e-003, 0., 1.07758620e-003, 3.23275849e-003,
          1.07758620e-003, 0., 0., 4.31034481e-003, 2.15517241e-003, 0.,
          5.38793113e-003, 2.15517241e-003, 1.07758623e-002,
          2.15517241e-003, 0., 2.15517241e-003, 0., 0., 4.31034481e-003,
          0., 1.07758620e-003, 3.23275849e-003, 0., 0., 0.,
          7.54310330e-003, 1.07758620e-003, 2.15517241e-003,
          5.38793113e-003, 2.15517241e-003, 5.38793113e-003,
          2.15517241e-003, 0., 0., 3.23275849e-003, 1.07758620e-003,
          2.15517241e-003, 2.15517241e-003, 1.07758620e-003, 0.,
          3.23275849e-003, 1.07758620e-003, 0., 0., 0., 0.,
          1.07758620e-003, 1.29310340e-002, 1.07758620e-003, 0.,
          1.07758620e-003, 1.07758620e-003, 4.31034481e-003, 0.,
          1.07758620e-003, 3.23275849e-003, 2.15517241e-003,
          1.07758620e-003, 3.23275849e-003, 1.07758620e-003, 0.,
          1.07758620e-003, 2.15517241e-003, 0., 0., 6.46551698e-003, 0.,
          0., 0., 4.31034481e-003, 0., 0., 0., 1.07758620e-003, 0.,
          3.23275849e-003, 1.07758620e-003, 0., 1.07758620e-003,
          1.07758620e-003, 4.31034481e-003, 2.15517241e-003, 0., 0., 0.,
          0., 0., 0., 0., 1.07758620e-003, 2.15517241e-003,
          4.31034481e-003, 2.15517241e-003, 2.15517241e-003,
          2.15517241e-003, 0., 4.31034481e-003, 1.07758620e-003, 0.,
          4.31034481e-003, 0., 2.15517241e-003, 1.07758620e-003, 0.,
          4.31034481e-003, 0., 1.29310340e-002, 4.31034481e-003, 0.,
          9.69827548e-003, 0., 4.31034481e-003, 0., 2.15517241e-003,
          7.54310330e-003, 2.15517241e-003, 3.23275849e-003, 0.,
          1.07758620e-003, 1.07758620e-003, 3.23275849e-003, 0.,
          1.07758620e-003, 1.07758620e-003, 2.15517241e-003,
          2.15517241e-003, 2.15517241e-003, 1.07758623e-002,
          4.31034481e-003, 1.07758620e-003, 4.31034481e-003,
          2.15517241e-003, 7.54310330e-003, 1.07758620e-003,
          4.31034481e-003, 2.15517241e-003, 1.07758620e-003,
          1.07758620e-003, 1.07758620e-003, 1.07758620e-003, 0.,
          1.07758620e-003, 0., 4.31034481e-003, 1.07758620e-003,
          1.07758620e-003, 0., 0., 2.15517241e-003, 4.31034481e-003, 0.,
          0., 0., 0., 1.07758620e-003, 0., 1.07758620e-003,
          1.07758620e-003, 0., 2.15517241e-003, 1.07758620e-003, 0.,
          3.23275849e-003, 0., 1.07758620e-003, 2.15517241e-003,
          1.07758620e-003, 0., 4.31034481e-003, 1.07758620e-003,
          2.15517241e-003, 0., 0., 0., 0., 1.07758620e-003, 0., 0., 0.,
          0., 0., 5.38793113e-003, 0., 1.07758620e-003, 3.23275849e-003,
          1.07758620e-003, 0., 4.31034481e-003, 2.15517241e-003,
          1.07758620e-003, 0., 2.15517241e-003, 0., 0., 0.,
          1.07758623e-002, 1.07758620e-003, 1.07758620e-003, 0.,
          1.07758620e-003, 5.38793113e-003, 1.07758620e-003,
          2.15517241e-003, 0., 0., 2.15517241e-003, 9.69827548e-003,
          4.31034481e-003, 2.15517241e-003, 2.15517241e-003,
          2.15517241e-003, 1.07758620e-003, 0., 3.23275849e-003,
          4.31034481e-003, 1.07758620e-003, 0., 4.31034481e-003,
          1.07758620e-003, 2.15517241e-003, 5.38793113e-003, 0., 0.,
          4.31034481e-003, 2.15517241e-003, 0., 0., 2.15517241e-003,
          1.07758620e-003, 1.07758623e-002, 1.07758620e-003,
          1.07758620e-003, 0., 1.07758620e-003, 0., 1.07758620e-003, 0.,
          0., 0., 3.23275849e-003, 0., 1.07758620e-003, 4.31034481e-003,
          6.46551698e-003, 2.15517241e-003, 0., 3.23275849e-003, 0.,
          1.07758620e-003, 0., 3.23275849e-003, 0., 1.07758620e-003,
          1.07758620e-003, 0., 6.46551698e-003, 0., 0., 1.07758620e-003,
          0., 0., 0., 2.15517241e-003, 0., 4.31034481e-003,
          1.07758620e-003, 2.15517241e-003, 0., 2.15517241e-003, 0., 0.,
          3.23275849e-003, 1.07758620e-003, 1.07758620e-003, 0., 0.,
          2.15517241e-003, 1.07758620e-003, 2.15517241e-003,
          3.23275849e-003, 0., 0., 2.15517241e-003, 0., 4.31034481e-003,
          1.07758620e-003, 0., 2.15517241e-003, 3.23275849e-003, 0.,
          1.07758620e-003, 0., 1.07758620e-003, 1.07758620e-003,
          2.15517241e-003, 1.07758620e-003, 0., 4.31034481e-003, 0., 0.,
          5.38793113e-003, 4.31034481e-003, 2.15517241e-003,
          2.15517241e-003, 1.07758620e-003, 0., 0., 4.31034481e-003,
          1.07758620e-003, 1.07758620e-003, 6.46551698e-003,
          1.07758620e-003, 0., 1.07758620e-003, 4.31034481e-003, 0.,
          1.07758620e-003, 4.31034481e-003, 0., 0., 0., 2.15517241e-003,
          0., 1.07758620e-003, 0., 0., 1.07758620e-003, 0., 0.,
          1.07758620e-003, 4.31034481e-003, 1.07758620e-003,
          1.07758620e-003, 1.07758620e-003, 1.07758620e-003,
          1.07758620e-003, 0., 1.07758620e-003, 2.15517241e-003, 0.,
          1.07758620e-003, 0., 0., 0., 0., 0., 0., 3.23275849e-003,
          9.69827548e-003, 4.31034481e-003, 2.15517241e-003,
          1.07758620e-003, 7.54310330e-003, 1.07758620e-003,
          3.23275849e-003, 4.31034481e-003, 0., 0., 0., 1.07758620e-003,
          1.07758620e-003, 0., 1.07758620e-003, 1.07758620e-003,
          1.07758620e-003, 0., 1.07758620e-003, 1.07758620e-003, 0.,
          3.23275849e-003, 2.15517241e-003, 1.07758620e-003,
          1.07758620e-003, 0., 1.07758620e-003, 4.31034481e-003, 0., 0.,
          2.15517241e-003, 9.69827548e-003, 1.07758620e-003,
          1.07758620e-003, 0., 1.07758620e-003, 2.15517241e-003,
          5.38793113e-003, 0., 2.15517241e-003, 3.23275849e-003,
          1.07758620e-003, 2.15517241e-003, 8.62068962e-003,
          2.15517241e-003, 2.15517241e-003, 4.31034481e-003, 0.,
          9.69827548e-003, 0., 0., 2.15517241e-003, 1.07758620e-003, 0.,
          1.07758620e-003, 3.23275849e-003, 0., 6.46551698e-003, 0., 0.,
          1.07758620e-003, 0., 0., 0., 0., 0., 7.54310330e-003, 0.,
          1.07758620e-003, 0., 1.07758620e-003, 0., 3.23275849e-003, 0.,
          0., 0., 0., 1.50862066e-002, 1.07758620e-003, 2.15517241e-003,
          0., 3.23275849e-003, 1.07758620e-003, 1.07758620e-003, 0., 0.,
          1.07758620e-003, 0., 0., 1.07758620e-003, 0., 0., 0.,
          4.31034481e-003, 6.46551698e-003, 5.38793113e-003,
          1.07758620e-003, 1.07758620e-003, 0., 0., 5.38793113e-003, 0.,
          2.15517241e-003, 0., 3.23275849e-003, 1.07758620e-003,
          1.07758620e-003, 0., 0., 3.23275849e-003, 1.07758620e-003,
          2.15517241e-003, 2.15517241e-003, 0., 3.23275849e-003, 0., 0.,
          0., 0., 0., 2.15517241e-003, 0., 1.07758620e-003, 0.,
          2.15517241e-003, 1.07758620e-003, 1.07758620e-003,
          1.07758620e-003, 2.15517241e-003, 1.07758620e-003,
          7.54310330e-003, 1.07758620e-003, 4.31034481e-003,
          5.38793113e-003, 1.07758620e-003, 1.07758620e-003,
          4.31034481e-003, 2.15517241e-003, 0., 0., 1.07758620e-003,
          2.15517241e-003, 2.15517241e-003, 3.23275849e-003,
          2.15517241e-003, 2.15517241e-003, 0., 0., 1.07758620e-003,
          1.07758620e-003, 1.07758620e-003, 3.23275849e-003,
          1.07758620e-003, 0., 0., 3.23275849e-003, 5.38793113e-003,
          1.07758620e-003, 2.15517241e-003, 2.15517241e-003, 0., 0.,
          5.38793113e-003, 2.15517241e-003, 0., 1.07758620e-003,
          2.15517241e-003, 0., 0., 0., 3.23275849e-003, 1.07758620e-003,
          2.15517241e-003, 0., 2.15517241e-003, 2.15517241e-003, 0., 0.,
          2.15517241e-003, 3.23275849e-003, 0., 0., 0., 0.,
          1.07758620e-003, 2.15517241e-003, 0., 4.31034481e-003,
          1.07758620e-003, 0., 4.31034481e-003, 0., 0., 1.07758620e-003,
          0., 1.07758620e-003, 1.07758620e-003, 1.07758620e-003, 0., 0.,
          1.07758620e-003, 2.15517241e-003, 2.15517241e-003,
          2.15517241e-003, 0., 0., 9.69827548e-003, 1.07758620e-003, 0.,
          1.07758620e-003, 1.07758620e-003, 0., 2.15517241e-003, 0.,
          2.15517241e-003, 5.38793113e-003, 0., 0., 0., 6.46551698e-003,
          0., 1.07758620e-003, 0., 2.15517241e-003, 1.07758620e-003,
          1.07758620e-003 ]
      - [ 0., 0., 0., 0., 0., 0., 0., 0., 0., 0., 4.69483575e-003, 0.,
          0., 0., 0., 0., 4.69483575e-003, 0., 9.38967150e-003, 0., 0.,
          0., 4.69483575e-003, 0., 0., 0., 0., 0., 0., 0., 0., 0., 0.,
          0., 0., 0., 0., 0., 0., 0., 0., 0., 0., 0., 4.69483575e-003,
          0., 0., 0., 0., 0., 0., 0., 0., 0., 4.69483575e-003, 0., 0.,
          0., 0., 0., 0., 0., 0., 4.69483575e-003, 4.69483575e-003,
          1.87793430e-002, 0., 0., 0., 0., 0., 0., 0., 0., 0., 0., 0.,
          4.69483575e-003, 4.69483575e-003, 0., 4.69483575e-003, 0., 0.,
          0., 0., 0., 0., 0., 3.75586860e-002, 0., 0., 0., 0., 0.,
          4.69483575e-003, 0., 0., 9.38967150e-003, 0., 0., 0., 0., 0.,
          0., 0., 0., 4.69483575e-003, 0., 0., 0., 0., 0., 0., 0., 0.,
          0., 1.40845068e-002, 0., 1.40845068e-002, 0., 0., 0., 0., 0.,
          0., 0., 0., 0., 0., 0., 0., 0., 0., 0., 4.69483575e-003, 0.,
          4.69483575e-003, 0., 0., 0., 4.69483575e-003, 9.38967150e-003,
          0., 0., 0., 0., 0., 4.69483575e-003, 0., 4.69483575e-003, 0.,
          0., 0., 0., 0., 4.69483575e-003, 0., 4.69483575e-003, 0., 0.,
          0., 0., 4.69483575e-003, 0., 4.69483575e-003, 0., 0., 0., 0.,
          4.69483575e-003, 0., 4.69483575e-003, 0., 0., 4.69483575e-003,
          0., 0., 4.69483575e-003, 0., 0., 4.69483575e-003, 0., 0.,
          4.69483575e-003, 0., 0., 0., 0., 4.69483575e-003,
          9.38967150e-003, 4.69483575e-003, 0., 0., 4.69483575e-003, 0.,
          0., 0., 0., 0., 9.38967150e-003, 0., 4.69483575e-003, 0., 0.,
          0., 1.87793430e-002, 2.81690136e-002, 0., 0., 0.,
          4.69483575e-003, 9.38967150e-003, 0., 0., 0., 4.69483575e-003,
          0., 0., 4.69483575e-003, 4.69483575e-003, 4.69483575e-003, 0.,
          4.69483575e-003, 0., 0., 0., 0., 0., 0., 0., 0.,
          4.69483575e-003, 1.40845068e-002, 4.69483575e-003, 0., 0., 0.,
          0., 0., 0., 9.38967150e-003, 0., 0., 0., 0., 4.69483575e-003,
          9.38967150e-003, 0., 0., 1.40845068e-002, 0., 0., 0., 0., 0.,
          0., 1.40845068e-002, 0., 0., 0., 0., 0., 0., 0.,
          9.38967150e-003, 0., 0., 0., 0., 0., 9.38967150e-003, 0.,
          4.69483575e-003, 0., 4.69483575e-003, 0., 0., 0., 0., 0.,
          1.40845068e-002, 0., 0., 0., 9.38967150e-003, 0.,
          4.69483575e-003, 0., 0., 0., 4.69483575e-003, 0., 0., 0., 0.,
          0., 0., 0., 0., 0., 0., 0., 4.69483575e-003, 0., 0., 0., 0.,
          0., 0., 0., 0., 0., 0., 9.38967150e-003, 4.69483575e-003, 0.,
          0., 0., 0., 0., 4.69483575e-003, 0., 0., 0., 0., 0.,
          4.69483575e-003, 0., 0., 0., 0., 9.38967150e-003, 0., 0., 0.,
          4.69483575e-003, 4.69483575e-003, 0., 0., 9.38967150e-003, 0.,
          0., 0., 0., 0., 4.69483575e-003, 4.69483575e-003, 0., 0., 0.,
          1.87793430e-002, 3.28638516e-002, 0., 0., 0., 0., 0.,
          4.69483575e-003, 0., 0., 4.69483575e-003, 0., 1.40845068e-002,
          4.69483575e-003, 1.87793430e-002, 4.69483584e-002, 0., 0.,
          4.69483575e-003, 0., 0., 0., 0., 0., 0., 0., 0., 0.,
          3.28638516e-002, 0., 0., 0., 0., 0., 0., 0., 0., 0.,
          9.38967150e-003, 0., 0., 4.69483575e-003, 0., 4.69483575e-003,
          0., 0., 0., 0., 0., 0., 0., 0., 4.69483575e-003, 0., 0., 0.,
          0., 0., 1.40845068e-002, 0., 4.69483575e-003, 0., 0.,
          4.69483575e-003, 0., 0., 0., 4.69483575e-003, 0., 0., 0., 0.,
          0., 0., 0., 0., 4.69483575e-003, 4.69483575e-003, 0., 0., 0.,
          0., 0., 0., 0., 0., 0., 4.69483575e-003, 0., 4.69483575e-003,
          0., 0., 0., 0., 0., 0., 0., 0., 0., 0., 0., 0., 0., 0., 0.,
          9.38967150e-003, 0., 0., 0., 4.69483575e-003, 0., 0.,
          4.69483575e-003, 0., 0., 0., 0., 4.69483575e-003,
          4.69483575e-003, 0., 9.38967150e-003, 4.69483575e-003, 0., 0.,
          0., 0., 4.69483575e-003, 0., 0., 0., 0., 0., 0., 0., 0., 0.,
          0., 0., 0., 0., 0., 0., 0., 0., 4.69483575e-003, 0., 0., 0.,
          0., 0., 0., 0., 4.69483575e-003, 0., 0., 0., 0.,
          4.69483575e-003, 0., 0., 0., 0., 4.69483575e-003,
          4.69483575e-003, 0., 0., 0., 0., 0., 9.38967150e-003, 0., 0.,
          0., 0., 0., 0., 4.69483575e-003, 0., 4.69483575e-003, 0., 0.,
          4.69483575e-003, 0., 0., 4.69483575e-003, 0., 0., 0., 0., 0.,
          0., 0., 0., 0., 0., 0., 0., 0., 0., 0., 4.69483575e-003,
          4.69483575e-003, 0., 4.69483575e-003, 0., 4.69483575e-003, 0.,
          0., 0., 0., 0., 4.69483575e-003, 4.69483575e-003, 0., 0., 0.,
          0., 0., 0., 4.69483575e-003, 0., 0., 4.69483575e-003, 0.,
          4.69483575e-003, 0., 4.69483575e-003, 0., 0., 0., 0., 0., 0.,
          0., 0., 0., 4.69483575e-003, 0., 9.38967150e-003, 0., 0.,
          1.87793430e-002, 0., 0., 0., 0., 0., 0., 4.69483575e-003, 0. ]
      - [ 3.72208422e-003, 0., 1.24069478e-003, 0., 0., 1.24069478e-003,
          1.11662531e-002, 4.96277912e-003, 0., 8.68486334e-003, 0.,
          1.24069478e-003, 2.48138956e-003, 4.96277912e-003,
          1.11662531e-002, 0., 0., 0., 0., 0., 0., 2.48138956e-003, 0.,
          2.48138956e-003, 1.24069478e-003, 1.24069478e-003,
          1.24069478e-003, 0., 0., 0., 6.20347401e-003, 0.,
          1.24069478e-003, 1.24069478e-003, 0., 1.24069478e-003,
          1.24069478e-003, 0., 0., 1.24069478e-003, 0., 2.48138956e-003,
          0., 0., 4.96277912e-003, 1.24069478e-003, 1.24069478e-003,
          1.24069478e-003, 2.48138956e-003, 0., 0., 7.44416844e-003, 0.,
          1.24069478e-003, 0., 0., 6.20347401e-003, 0., 0., 0.,
          1.61290318e-002, 2.48138956e-003, 0., 0., 1.24069478e-003, 0.,
          0., 2.48138956e-003, 0., 0., 0., 0., 2.48138956e-003,
          9.92555823e-003, 3.72208422e-003, 1.24069478e-003,
          9.92555823e-003, 2.48138956e-003, 6.20347401e-003, 0.,
          1.24069478e-003, 0., 1.24069478e-003, 0., 2.48138956e-003,
          2.48138956e-003, 6.20347401e-003, 3.72208422e-003, 0.,
          6.20347401e-003, 2.48138956e-003, 4.96277912e-003,
          1.24069478e-003, 0., 3.72208422e-003, 0., 1.24069478e-003, 0.,
          3.72208422e-003, 0., 0., 0., 1.24069478e-003, 0.,
          1.24069478e-003, 0., 1.24069478e-003, 1.24069478e-003, 0., 0.,
          4.96277912e-003, 0., 1.24069478e-003, 3.72208422e-003, 0.,
          2.48138956e-003, 0., 3.72208422e-003, 0., 2.48138956e-003, 0.,
          0., 1.24069478e-003, 1.24069478e-003, 0., 3.72208422e-003, 0.,
          0., 0., 2.48138956e-003, 0., 0., 0., 4.96277912e-003, 0.,
          6.20347401e-003, 0., 2.48138956e-003, 1.24069478e-003,
          1.24069478e-003, 1.24069478e-003, 3.72208422e-003,
          4.96277912e-003, 6.20347401e-003, 3.72208422e-003,
          1.24069478e-003, 1.24069478e-003, 0., 0., 3.72208422e-003,
          1.24069478e-003, 0., 1.24069478e-003, 0., 2.48138956e-003, 0.,
          3.72208422e-003, 0., 9.92555823e-003, 0., 2.48138956e-003,
          1.24069478e-003, 0., 1.24069478e-003, 2.48138956e-003,
          1.24069478e-003, 0., 1.24069478e-003, 1.24069478e-003, 0.,
          3.72208422e-003, 0., 0., 0., 3.72208422e-003, 6.20347401e-003,
          0., 2.48138956e-003, 0., 1.24069478e-003, 2.48138956e-003,
          1.24069478e-003, 2.48138956e-003, 3.72208422e-003, 0.,
          1.24069478e-003, 0., 3.72208422e-003, 2.48138956e-003, 0.,
          6.20347401e-003, 7.44416844e-003, 0., 2.48138956e-003,
          3.72208422e-003, 0., 3.72208422e-003, 3.72208422e-003, 0., 0.,
          0., 1.24069478e-003, 0., 1.24069478e-003, 1.24069478e-003, 0.,
          0., 2.48138956e-003, 0., 2.48138956e-003, 4.96277912e-003,
