%YAML:1.0
my_svm: !!opencv-ml-svm
   svm_type: C_SVC
   kernel: { type:RBF, gamma:1. }
   C: 1.
   term_criteria: { epsilon:1.1920928955078125e-007, iterations:1000 }
   var_all: 600
   var_count: 600
   class_count: 2
   class_labels: !!opencv-matrix
      rows: 1
      cols: 2
      dt: i
      data: [ 0, 1 ]
   sv_total: 55
   support_vectors:
      - [ 1.81653048e-003, 1.81653048e-003, 9.08265240e-004, 0., 0., 0.,
          9.08265240e-004, 9.08265240e-004, 9.08265240e-004,
          4.54132631e-003, 0., 0., 0., 0., 2.72479560e-003, 0.,
          1.81653048e-003, 2.72479560e-003, 4.54132631e-003, 0., 0.,
          9.08265240e-004, 9.08265240e-004, 0., 0., 9.08265240e-004, 0.,
          6.35785656e-003, 4.54132631e-003, 0., 2.72479560e-003, 0., 0.,
          7.26612192e-003, 0., 9.08265240e-004, 0., 0., 2.72479560e-003,
          9.08265240e-004, 0., 0., 0., 9.08265240e-004, 0.,
          6.35785656e-003, 0., 9.08265240e-004, 9.08265240e-004,
          9.08265240e-004, 0., 1.81653048e-003, 1.27157131e-002,
          9.08265240e-004, 1.81653048e-003, 0., 9.08265240e-004, 0., 0.,
          0., 9.08265240e-004, 1.81653048e-003, 1.81653048e-003, 0., 0.,
          1.81653048e-003, 0., 2.72479560e-003, 0., 9.08265240e-004, 0.,
          0., 0., 0., 6.35785656e-003, 1.08991824e-002, 9.08265240e-004,
          9.08265240e-004, 0., 1.81653048e-003, 9.08265240e-004,
          2.27066316e-002, 9.08265240e-004, 1.08991824e-002,
          9.08265240e-004, 9.08265240e-004, 2.72479560e-003,
          9.08265240e-004, 0., 0., 4.54132631e-003, 6.35785656e-003, 0.,
          0., 2.72479560e-003, 9.08265240e-004, 0., 0., 9.08265240e-004,
          2.72479560e-003, 9.08265240e-004, 4.54132631e-003,
          1.81653048e-003, 0., 9.08265240e-004, 1.81653048e-003,
          9.08265240e-004, 9.08265240e-004, 0., 9.08265240e-004,
          9.08265240e-004, 0., 0., 9.08265240e-004, 0., 0.,
          9.08265240e-004, 0., 9.08265240e-004, 9.08265240e-004,
          9.08265240e-004, 0., 1.81653048e-003, 3.63306096e-003,
          2.72479560e-003, 9.08265240e-004, 0., 1.81653048e-003,
          2.72479560e-003, 0., 0., 6.35785656e-003, 4.54132631e-003,
          1.81653048e-003, 0., 0., 0., 0., 9.08265240e-004,
          9.08265240e-004, 9.08265240e-004, 1.81653048e-003,
          2.72479560e-003, 0., 9.08265240e-004, 2.72479560e-003, 0., 0.,
          1.81653048e-003, 0., 9.08265240e-004, 0., 0., 0.,
          9.08265240e-004, 9.08265240e-004, 0., 1.81653048e-003, 0.,
          1.81653048e-003, 4.54132631e-003, 0., 9.08265240e-004,
          9.08265240e-004, 9.08265240e-004, 9.08265240e-004,
          1.81653048e-003, 9.08265240e-004, 0., 0., 3.63306096e-003,
          1.81653048e-003, 2.72479560e-003, 9.08265240e-004, 0., 0., 0.,
          3.63306096e-003, 0., 1.81653048e-003, 0., 9.08265240e-004, 0.,
          9.08265240e-004, 9.08265240e-004, 1.81653048e-003,
          9.08265240e-004, 1.81653048e-003, 4.54132631e-003, 0., 0., 0.,
          2.72479560e-003, 3.63306096e-003, 9.08265240e-004, 0.,
          9.08265240e-004, 9.08265240e-004, 1.45322438e-002, 0., 0., 0.,
          1.99818350e-002, 9.08265240e-004, 5.44959120e-003,
          9.08265240e-004, 2.72479560e-003, 1.81653048e-003, 0.,
          1.81653048e-003, 0., 1.81653048e-003, 5.44959120e-003,
          3.63306096e-003, 0., 0., 2.72479560e-003, 2.72479560e-003, 0.,
          4.54132631e-003, 0., 2.72479560e-003, 9.08265240e-004,
          2.72479560e-003, 9.08265240e-004, 9.08265240e-004,
          9.08265240e-004, 9.08265240e-004, 1.81653048e-003, 0.,
          1.81653048e-003, 2.72479560e-003, 0., 9.08265240e-004,
          3.63306096e-003, 1.81653048e-003, 0., 9.08265240e-004, 0., 0.,
          0., 5.44959120e-003, 1.81653048e-003, 0., 9.08265240e-004, 0.,
          0., 4.54132631e-003, 9.08265240e-004, 9.08265240e-004,
          9.08265240e-004, 2.72479560e-003, 1.81653048e-003,
          9.08265240e-004, 1.81653048e-003, 1.81653048e-003,
          9.08265240e-004, 9.08265240e-004, 9.08265240e-004, 0.,
          1.81653048e-003, 9.08265240e-004, 3.63306096e-003,
          2.72479560e-003, 9.08265240e-004, 0., 1.81653048e-003, 0.,
          5.44959120e-003, 0., 0., 0., 9.08265240e-004, 0.,
          9.08265240e-004, 9.08265240e-004, 9.08265240e-004,
          2.17983648e-002, 1.81653048e-003, 1.81653048e-003, 0.,
          4.54132631e-003, 3.63306096e-003, 9.08265240e-004,
          3.63306096e-003, 0., 9.08265240e-004, 3.63306096e-003,
          9.08265240e-004, 0., 0., 0., 3.63306096e-003, 2.72479560e-003,
          3.63306096e-003, 7.26612192e-003, 9.08265240e-004, 0., 0., 0.,
          0., 6.35785656e-003, 1.81653048e-003, 2.72479560e-003,
          9.08265240e-004, 0., 2.72479560e-003, 1.81653048e-003,
          9.08265240e-004, 2.72479560e-003, 9.08265240e-004,
          9.08265240e-004, 3.63306096e-003, 0., 0., 9.08265240e-004, 0.,
          9.08265240e-004, 5.44959120e-003, 2.17983648e-002,
          1.81653048e-003, 9.08265240e-004, 9.08265240e-004,
          4.54132631e-003, 1.81653048e-003, 9.08265240e-004,
          1.81653048e-003, 9.08265240e-004, 2.72479560e-003,
          1.81653048e-003, 1.81653048e-003, 1.81653048e-003, 0.,
          2.72479560e-003, 9.08265240e-004, 1.81653048e-003,
          3.63306096e-003, 9.08265240e-004, 0., 9.08265240e-004,
          2.72479560e-003, 0., 1.63487736e-002, 1.81653048e-003,
          9.08265240e-004, 2.72479560e-003, 0., 3.63306096e-003,
          9.08265240e-004, 1.81653048e-003, 1.81653048e-003,
          2.72479560e-003, 9.08265240e-004, 9.08265240e-004,
          9.08265240e-004, 0., 0., 3.63306096e-003, 0., 3.63306096e-003,
          5.44959120e-003, 9.08265240e-004, 0., 1.81653048e-003, 0.,
          4.54132631e-003, 9.08265240e-004, 3.63306096e-003,
          4.54132631e-003, 1.81653048e-003, 0., 9.08265240e-004, 0.,
          1.81653048e-003, 9.08265240e-004, 0., 0., 9.08265240e-004, 0.,
          0., 1.81653048e-003, 6.35785656e-003, 0., 1.81653048e-003,
          1.81653048e-003, 0., 0., 1.81653048e-003, 3.63306096e-003,
          1.81653048e-003, 0., 1.81653048e-003, 9.08265240e-004,
          5.44959120e-003, 9.08265240e-004, 0., 0., 6.35785656e-003,
          1.81653048e-003, 0., 0., 2.72479560e-003, 0., 9.08265240e-004,
          0., 0., 2.72479560e-003, 9.08265240e-004, 0., 1.81653048e-003,
          9.08265240e-004, 7.26612192e-003, 3.63306096e-003,
          2.72479560e-003, 7.26612192e-003, 9.08265240e-004,
          9.08265240e-004, 0., 6.35785656e-003, 4.54132631e-003,
          8.17438681e-003, 9.08265240e-004, 9.08265240e-004,
          9.08265240e-004, 3.63306096e-003, 0., 9.08265240e-004, 0., 0.,
          0., 0., 0., 9.08265240e-004, 0., 0., 4.54132631e-003,
          9.08265240e-004, 2.72479560e-003, 9.08265240e-004, 0., 0., 0.,
          2.72479560e-003, 9.08265240e-004, 1.81653048e-003,
          1.81653048e-003, 0., 0., 0., 1.81653048e-003, 0.,
          1.81653048e-003, 9.08265240e-004, 0., 4.54132631e-003, 0.,
          9.08265240e-004, 0., 0., 1.81653048e-003, 0., 1.81653048e-003,
          2.72479560e-003, 0., 1.81653048e-003, 0., 0., 0.,
          9.08265240e-004, 0., 0., 0., 9.08265240e-004, 0., 0.,
          1.81653048e-003, 1.81653048e-003, 1.81653048e-003, 0., 0.,
          4.54132631e-003, 9.08265240e-004, 9.08265240e-004, 0.,
          2.72479560e-003, 0., 0., 0., 0., 0., 0., 1.81653048e-003, 0.,
          1.81653048e-003, 2.72479560e-003, 9.08265240e-004,
          9.08265240e-004, 0., 0., 9.08265240e-004, 9.08265240e-004,
          4.54132631e-003, 0., 0., 0., 0., 0., 4.54132631e-003,
          9.08265240e-004, 0., 0., 2.72479560e-003, 7.26612192e-003, 0.,
          0., 0., 0., 3.63306096e-003, 9.08265240e-004, 4.54132631e-003,
          9.08265240e-004, 0., 1.81653048e-003, 9.08265240e-004, 0.,
          9.08265240e-004, 1.81653048e-003, 5.44959120e-003,
          1.81653048e-003, 0., 3.63306096e-003, 1.81653048e-003, 0.,
          1.81653048e-003, 9.08265240e-004, 0., 9.08265240e-004,
          3.63306096e-003, 0., 1.81653048e-003, 1.81653048e-003, 0.,
          9.08265240e-004, 0., 9.08265240e-004, 0., 2.72479560e-003, 0.,
          1.81653048e-003, 9.08265240e-004, 2.72479560e-003, 0.,
          4.54132631e-003, 0., 6.35785656e-003, 1.81653048e-003,
          1.81653048e-003, 1.81653048e-003, 0., 0., 0., 9.08265240e-004,
          3.63306096e-003, 1.81653048e-003, 2.45231614e-002,
          1.81653048e-003, 0., 4.54132631e-003, 9.08265240e-004,
          3.63306096e-003, 0., 0., 1.81653048e-003, 0., 1.81653048e-003,
          9.99091752e-003, 5.44959120e-003, 0., 9.08265240e-004, 0., 0.,
          1.90735701e-002, 9.08265240e-004, 0., 2.72479560e-003, 0.,
          9.08265240e-004, 0., 9.08265240e-004, 7.26612192e-003,
          1.36239789e-002, 2.72479560e-003, 0., 9.08265240e-004, 0., 0.,
          9.08265240e-004, 1.81653048e-003, 9.08265240e-004, 0. ]
      - [ 1.12499995e-002, 0., 3.12499981e-003, 0., 6.24999986e-004, 0.,
          3.74999992e-003, 6.24999963e-003, 1.87499996e-003,
          1.24999997e-003, 6.24999986e-004, 6.24999986e-004, 0.,
          1.24999997e-003, 1.87499996e-003, 0., 1.24999997e-003,
          1.87499996e-003, 2.49999994e-003, 2.49999994e-003,
          1.24999997e-003, 0., 0., 1.24999997e-003, 0., 0.,
          6.24999986e-004, 0., 0., 3.74999992e-003, 1.87499996e-003, 0.,
          0., 6.24999986e-004, 2.49999994e-003, 0., 3.12499981e-003,
          3.74999992e-003, 0., 0., 2.49999994e-003, 1.87499996e-003, 0.,
          0., 1.87499996e-003, 1.24999997e-003, 6.24999986e-004, 0.,
          1.87499996e-003, 3.74999992e-003, 0., 1.24999997e-003,
          1.24999997e-003, 0., 2.49999994e-003, 0., 6.24999986e-004,
          1.24999997e-003, 1.87499996e-003, 0., 1.62499994e-002,
          3.12499981e-003, 0., 0., 2.49999994e-003, 4.99999989e-003,
          2.49999994e-003, 0., 1.87499996e-003, 0., 0., 0.,
          4.99999989e-003, 3.74999992e-003, 6.24999963e-003,
          6.24999986e-004, 1.24999997e-003, 1.24999997e-003,
          3.74999992e-003, 6.24999986e-004, 1.24999997e-003,
          1.24999997e-003, 1.24999997e-003, 0., 0., 6.24999986e-004,
          1.87499996e-003, 3.12499981e-003, 2.49999994e-003, 0.,
          3.74999992e-003, 6.24999986e-004, 0., 1.24999997e-003,
          6.24999986e-004, 1.24999997e-003, 8.12499970e-003,
          1.24999997e-003, 2.49999994e-003, 0., 4.99999989e-003,
          6.24999986e-004, 2.49999994e-003, 6.24999986e-004,
          6.24999986e-004, 6.24999986e-004, 1.24999997e-003,
          4.99999989e-003, 0., 0., 0., 0., 0., 0., 0., 1.24999997e-003,
          1.24999997e-003, 6.24999986e-004, 1.24999997e-003,
          1.24999997e-003, 2.49999994e-003, 1.24999997e-003, 0.,
          5.62499976e-003, 4.37500002e-003, 0., 1.24999997e-003,
          6.24999986e-004, 3.12499981e-003, 0., 6.24999986e-004, 0.,
          6.24999986e-004, 3.12499981e-003, 6.24999986e-004,
          6.24999986e-004, 2.49999994e-003, 0., 4.99999989e-003,
          6.24999986e-004, 0., 6.24999986e-004, 0., 0., 6.24999986e-004,
          1.24999997e-003, 6.24999986e-004, 0., 6.24999986e-004, 0.,
          6.24999986e-004, 6.24999986e-004, 3.12499981e-003,
          6.24999986e-004, 1.87499996e-003, 4.99999989e-003,
          1.24999997e-003, 4.37500002e-003, 6.24999963e-003,
          1.24999997e-003, 1.87499996e-003, 1.24999997e-003,
          1.24999997e-003, 6.24999986e-004, 1.24999997e-003,
          6.24999986e-004, 1.24999997e-003, 5.62499976e-003,
          3.74999992e-003, 0., 6.24999986e-004, 5.62499976e-003,
          1.24999997e-003, 1.24999997e-003, 6.24999986e-004,
          6.24999986e-004, 0., 1.87499996e-003, 0., 6.24999986e-004,
          6.24999986e-004, 4.99999989e-003, 6.24999986e-004,
          2.49999994e-003, 6.24999986e-004, 3.12499981e-003, 0.,
          3.74999992e-003, 3.12499981e-003, 0., 2.49999994e-003,
          6.24999986e-004, 6.24999986e-004, 3.74999992e-003,
          6.24999986e-004, 3.74999992e-003, 1.87499996e-003,
          6.24999986e-004, 0., 0., 0., 6.24999986e-004, 0.,
          2.49999994e-003, 4.37500002e-003, 3.74999992e-003,
          9.37499944e-003, 3.12499981e-003, 0., 1.87499996e-003,
          1.24999997e-003, 3.12499981e-003, 6.24999986e-004,
          6.24999986e-004, 0., 1.87499996e-003, 2.49999994e-003,
          3.74999992e-003, 6.24999986e-004, 6.24999986e-004,
          6.24999986e-004, 1.24999997e-003, 0., 0., 0., 6.24999986e-004,
          6.24999986e-004, 1.12499995e-002, 1.87499996e-003,
          1.87499996e-003, 6.24999986e-004, 0., 0., 1.87499996e-003,
          1.87499996e-003, 6.24999986e-004, 1.24999997e-003,
          6.24999986e-004, 1.24999997e-003, 2.49999994e-003,
          6.24999986e-004, 4.37500002e-003, 6.24999986e-004, 0., 0.,
          6.24999986e-004, 1.24999997e-003, 0., 1.87499996e-003,
          6.24999986e-004, 1.87499996e-003, 3.12499981e-003,
          4.99999989e-003, 1.87499996e-003, 3.74999992e-003,
          2.49999994e-003, 3.74999992e-003, 6.24999986e-004,
          1.24999997e-003, 6.24999986e-004, 1.87499996e-003,
          1.24999997e-003, 1.24999997e-003, 1.24999997e-003,
          1.87499996e-003, 6.87499996e-003, 0., 0., 1.24999997e-003,
          1.24999997e-003, 1.24999997e-003, 6.24999986e-004,
          1.24999997e-003, 6.24999986e-004, 3.74999992e-003,
          6.24999986e-004, 0., 0., 6.24999986e-004, 6.24999986e-004, 0.,
          6.24999986e-004, 0., 2.49999994e-003, 2.49999994e-003,
          1.24999997e-003, 3.74999992e-003, 3.12499981e-003,
          6.24999986e-004, 0., 0., 6.24999986e-004, 6.24999986e-004,
          6.24999986e-004, 1.24999997e-003, 3.12499981e-003,
          1.87499996e-003, 1.87499996e-003, 1.24999997e-003,
          2.49999994e-003, 1.87499996e-003, 0., 1.24999997e-003,
          1.24999997e-003, 6.24999986e-004, 6.24999986e-004, 0.,
          6.24999986e-004, 1.87499996e-003, 2.49999994e-003,
          6.24999986e-004, 1.87499996e-003, 3.12499981e-003,
          1.24999997e-003, 1.24999997e-003, 6.24999986e-004,
          2.49999994e-003, 6.24999986e-004, 4.37500002e-003, 0.,
          1.24999997e-003, 1.87499996e-003, 3.12499981e-003,
          1.24999997e-003, 1.87499996e-003, 6.24999986e-004,
          6.24999986e-004, 6.87499996e-003, 4.99999989e-003,
          3.12499981e-003, 2.49999994e-003, 6.24999986e-004, 0.,
          1.87499996e-003, 0., 4.99999989e-003, 1.87499996e-003,
          1.12499995e-002, 0., 0., 6.24999963e-003, 6.24999986e-004,
          3.12499981e-003, 2.49999994e-003, 1.24999997e-003,
          3.74999992e-003, 6.24999986e-004, 1.87499996e-003,
          6.24999986e-004, 6.24999986e-004, 6.24999986e-004,
          3.74999992e-003, 0., 4.37500002e-003, 0., 0., 6.24999986e-004,
          1.12499995e-002, 1.87499996e-003, 1.87499996e-003,
          1.87499996e-003, 1.87499996e-003, 4.37500002e-003,
          6.24999986e-004, 6.24999986e-004, 0., 4.37500002e-003, 0.,
          6.87499996e-003, 2.49999994e-003, 1.24999997e-003,
          3.12499981e-003, 6.24999986e-004, 0., 1.87499996e-003,
          1.24999997e-003, 6.87499996e-003, 6.24999986e-004, 0.,
          2.49999994e-003, 3.74999992e-003, 1.87499996e-003, 0.,
          1.24999997e-003, 0., 1.87499996e-003, 1.87499996e-003,
          2.49999994e-003, 4.37500002e-003, 2.49999994e-003, 0.,
          1.87499996e-003, 1.24999997e-003, 2.49999994e-003, 0.,
          1.24999997e-003, 0., 6.24999986e-004, 1.87499996e-003,
          1.24999997e-003, 1.24999997e-003, 4.37500002e-003,
          1.24999997e-003, 0., 3.12499981e-003, 0., 3.12499981e-003,
          1.24999997e-003, 6.24999986e-004, 0., 1.87499996e-003,
          1.24999997e-003, 1.24999997e-003, 1.87499996e-003,
          1.06250001e-002, 1.24999997e-003, 0., 1.87499996e-003,
          2.49999994e-003, 6.24999986e-004, 4.37500002e-003,
          6.24999986e-004, 1.24999997e-003, 0., 4.37500002e-003, 0.,
          1.24999997e-003, 0., 3.74999992e-003, 0., 1.24999997e-003,
          6.24999986e-004, 0., 0., 1.24999997e-003, 4.37500002e-003,
          2.49999994e-003, 1.49999997e-002, 1.87499996e-003, 0.,
          6.24999986e-004, 3.12499981e-003, 3.12499981e-003,
          1.87499996e-003, 6.24999986e-004, 3.74999992e-003,
          1.87499996e-003, 2.49999994e-003, 0., 3.12499981e-003, 0.,
          6.24999986e-004, 6.24999986e-004, 6.24999986e-004, 0., 0.,
          6.24999986e-004, 1.87499996e-003, 0., 6.24999986e-004, 0.,
          2.49999994e-003, 1.24999997e-003, 1.87499996e-003,
          2.49999994e-003, 0., 1.24999997e-003, 1.24999997e-003, 0.,
          6.24999986e-004, 1.24999997e-003, 1.24999997e-003, 0., 0.,
          1.87499996e-003, 1.87499996e-003, 6.24999986e-004,
          1.87499996e-003, 0., 1.24999997e-003, 9.37499944e-003,
          6.24999986e-004, 1.87499996e-003, 6.24999986e-004,
          2.49999994e-003, 3.74999992e-003, 1.87499996e-003,
          1.87499996e-003, 6.24999986e-004, 2.49999994e-003,
          5.62499976e-003, 3.12499981e-003, 4.37500002e-003,
          3.12499981e-003, 3.12499981e-003, 1.24999997e-003,
          1.24999997e-003, 3.12499981e-003, 3.74999992e-003,
          1.87499996e-003, 1.24999997e-003, 2.49999994e-003,
          1.87499996e-003, 1.87499996e-003, 1.24999997e-003,
          1.24999997e-003, 1.87499996e-003, 2.49999994e-003,
          1.87499996e-003, 6.24999986e-004, 6.24999986e-004,
          5.62499976e-003, 1.87499996e-003, 1.87499996e-003,
          1.87499996e-003, 4.99999989e-003, 0., 6.24999986e-004,
          1.24999997e-003, 4.99999989e-003, 6.24999986e-004,
          6.24999986e-004, 6.24999986e-004, 0., 6.24999986e-004,
          1.24999997e-003, 1.24999997e-003, 1.87499996e-003,
          6.24999986e-004, 0., 0., 1.87499996e-003, 0., 2.49999994e-003,
          6.24999986e-004, 0., 0., 0., 6.24999986e-004, 0.,
          3.12499981e-003, 6.87499996e-003, 1.24999997e-003, 0.,
          1.87499996e-003, 0., 6.24999986e-004, 3.12499981e-003,
          1.87499996e-003, 3.74999992e-003, 0., 0., 6.87499996e-003, 0.,
          1.24999997e-003, 6.87499996e-003, 6.24999986e-004, 0.,
          1.24999997e-003, 0., 1.87499996e-003, 6.24999986e-004,
          3.74999992e-003, 6.24999986e-004, 6.24999986e-004,
          6.24999986e-004, 6.24999986e-004, 8.12499970e-003, 0.,
          1.87499996e-003, 0., 6.24999986e-004, 5.62499976e-003,
          1.24999997e-003, 2.49999994e-003, 6.24999986e-004,
          1.87499996e-003, 1.24999997e-003, 6.24999986e-004, 0.,
          3.12499981e-003, 1.87499996e-003, 1.24999997e-003,
          6.24999986e-004, 1.24999997e-003, 1.87499996e-003,
          6.24999986e-004, 1.87499996e-003, 4.99999989e-003,
          1.24999997e-003, 0., 6.24999986e-004, 0., 1.87499996e-003, 0.,
          1.24999997e-003, 0., 1.24999997e-003, 1.24999997e-003, 0. ]
      - [ 5.40832873e-004, 5.40832873e-004, 2.70416448e-003, 0.,
          5.40832873e-004, 0., 5.40832873e-004, 5.40832873e-004, 0.,
          1.62249862e-003, 5.40832873e-004, 1.08166575e-003, 0.,
          1.08166575e-003, 5.40832873e-004, 1.62249862e-003, 0.,
          3.78582999e-003, 0., 3.78582999e-003, 5.40832896e-003,
          4.32666298e-003, 1.08166575e-003, 2.70416448e-003,
          5.40832873e-004, 0., 0., 3.78582999e-003, 0., 1.29799889e-002,
          1.62249862e-003, 3.40724699e-002, 0., 1.62249862e-003,
          5.40832873e-004, 5.40832873e-004, 1.62249862e-003,
          2.10924819e-002, 0., 0., 0., 5.40832873e-004, 3.24499724e-003,
          0., 1.62249862e-003, 0., 1.08166575e-003, 1.08166575e-003, 0.,
          4.32666298e-003, 2.16333149e-003, 1.62249862e-003,
          1.62249862e-003, 0., 1.62249862e-003, 0., 5.40832873e-004,
          1.08166575e-003, 2.16333149e-003, 0., 2.16333149e-003,
          6.48999447e-003, 0., 1.08166575e-003, 5.40832873e-004, 0.,
          5.40832873e-004, 2.16333149e-003, 5.40832873e-004, 0.,
          1.08166575e-003, 5.40832873e-004, 2.16333149e-003,
          1.08166575e-003, 2.70416448e-003, 4.32666298e-003,
          5.40832873e-004, 0., 1.62249862e-003, 0., 1.08166575e-003,
          2.70416448e-003, 1.08166575e-003, 5.40832873e-004,
          5.40832873e-004, 2.16333149e-003, 0., 1.62249862e-003, 0.,
          1.08166575e-003, 1.08166575e-003, 2.70416448e-003, 0.,
          4.86749597e-003, 5.40832873e-004, 5.40832873e-004,
          1.62249862e-003, 5.40832873e-004, 4.43482958e-002,
          5.40832873e-004, 5.40832873e-004, 0., 5.40832873e-004, 0.,
          3.24499724e-003, 0., 2.16333149e-003, 7.03082746e-003,
          1.08166575e-003, 0., 1.56841539e-002, 0., 1.08166575e-003,
          5.40832873e-004, 5.40832873e-004, 0., 1.08166575e-003,
          3.24499724e-003, 0., 3.78582999e-003, 0., 5.40832873e-004,
          5.40832896e-003, 5.94916148e-003, 1.08166575e-003, 0.,
          5.40832873e-004, 5.40832873e-004, 1.62249862e-003, 0.,
          5.40832873e-004, 0., 5.40832873e-004, 5.40832873e-004, 0.,
          5.40832873e-004, 5.40832873e-004, 0., 5.40832873e-004,
          1.62249862e-003, 0., 5.40832873e-004, 1.08166575e-003,
          5.40832873e-004, 0., 5.40832873e-004, 5.40832873e-004, 0.,
          1.08166575e-003, 5.40832873e-004, 5.40832873e-004, 0.,
          1.08166575e-003, 0., 7.57165998e-003, 1.08166575e-003,
          5.40832873e-004, 5.40832873e-004, 0., 0., 1.62249862e-003, 0.,
          0., 1.08166575e-003, 5.40832873e-004, 5.40832873e-004, 0.,
          3.24499724e-003, 5.40832873e-004, 0., 5.40832873e-004, 0.,
          5.40832873e-004, 0., 1.08166575e-003, 5.40832873e-004,
          2.21741479e-002, 2.70416448e-003, 0., 0., 5.40832873e-004,
          3.24499719e-002, 0., 1.08166575e-003, 0., 1.08166575e-003,
          5.40832873e-004, 0., 5.40832873e-004, 5.40832873e-004,
          3.78582999e-003, 0., 1.08166575e-003, 1.08166575e-003,
          1.62249862e-003, 2.16333149e-003, 1.08166575e-003,
          2.16333149e-003, 5.40832873e-004, 0., 1.62249862e-003,
          5.40832873e-004, 1.08166575e-003, 1.08166575e-003,
          1.62249862e-003, 0., 0., 2.16333149e-003, 1.08166575e-003, 0.,
          1.08166575e-003, 1.62249862e-003, 0., 5.40832873e-004,
          1.08166575e-003, 0., 2.16333149e-003, 1.08166575e-003,
          5.40832873e-004, 0., 5.40832873e-004, 4.32666298e-003, 0.,
          1.62249862e-003, 1.62249862e-003, 1.08166575e-003,
          5.40832873e-004, 8.11249297e-003, 7.03082746e-003, 0., 0.,
          7.57165998e-003, 5.40832873e-004, 0., 0., 1.62249862e-003,
          5.40832873e-004, 1.08166575e-003, 2.70416448e-003, 0., 0., 0.,
          5.40832873e-004, 1.08166575e-003, 2.16333149e-003, 0., 0.,
          5.40832873e-004, 1.40616549e-002, 3.24499724e-003,
          1.08166575e-003, 4.32666298e-003, 1.08166575e-003,
          1.62249862e-003, 0., 1.62249862e-003, 5.40832896e-003,
          5.40832873e-004, 5.40832873e-004, 5.40832873e-004,
          5.40832873e-004, 5.40832873e-004, 0., 0., 0., 5.40832873e-004,
          0., 1.08166575e-003, 4.86749597e-003, 5.40832873e-004,
          5.40832873e-004, 0., 1.62249862e-003, 1.08166575e-003, 0., 0.,
          5.40832873e-004, 0., 0., 1.62249862e-003, 1.62249862e-003,
          2.70416448e-003, 3.78582999e-003, 0., 1.08166575e-003,
          2.75824759e-002, 2.16333149e-003, 4.32666298e-003,
          1.62249862e-003, 2.70416448e-003, 5.40832873e-004, 0.,
          1.62249862e-003, 0., 2.16333149e-003, 3.78582999e-003,
          5.40832873e-004, 5.40832873e-004, 5.40832873e-004, 0., 0., 0.,
          5.40832873e-004, 9.73499194e-003, 5.40832873e-004,
          1.08166575e-003, 5.40832873e-004, 3.24499724e-003,
          2.70416448e-003, 1.08166575e-003, 0., 0., 5.40832873e-004,
          3.24499724e-003, 0., 0., 6.48999447e-003, 5.40832873e-004, 0.,
          0., 1.62249862e-003, 5.40832873e-004, 1.62249862e-003,
          1.08166575e-003, 0., 5.40832873e-004, 5.40832873e-004,
          4.86749597e-003, 1.08166575e-003, 5.40832896e-003,
          3.24499724e-003, 5.40832873e-004, 1.08166575e-003,
          1.08166575e-003, 5.40832873e-004, 7.57165998e-003,
          2.70416448e-003, 0., 5.40832873e-004, 5.40832873e-004, 0., 0.,
          3.24499724e-003, 3.78582999e-003, 5.40832873e-004, 0.,
          5.40832873e-004, 1.08166575e-003, 0., 1.08166575e-003,
          5.40832873e-004, 0., 2.16333149e-003, 1.08166575e-003,
          5.40832873e-004, 4.32666298e-003, 5.40832873e-004, 0., 0.,
          2.16333149e-003, 3.24499724e-003, 2.16333149e-003,
          5.40832873e-004, 5.40832873e-004, 1.62249862e-003,
          3.24499724e-003, 0., 1.08166575e-003, 1.51433200e-002,
          5.40832873e-004, 3.24499724e-003, 0., 5.40832873e-004,
          2.70416448e-003, 2.70416448e-003, 1.62249862e-003,
          2.70416448e-003, 1.62249862e-003, 5.40832873e-004,
          2.16333149e-003, 3.78582999e-003, 2.70416448e-003,
          5.40832873e-004, 5.40832873e-004, 1.62249862e-003,
          1.08166575e-003, 0., 1.62249862e-003, 2.70416448e-003,
          1.08166575e-003, 0., 5.40832873e-004, 1.08166575e-003,
          1.29799889e-002, 0., 1.08166575e-003, 5.40832873e-004,
          3.78582999e-003, 0., 0., 5.40832873e-004, 1.62249862e-003, 0.,
          5.40832873e-004, 3.24499724e-003, 3.24499724e-003,
          5.40832873e-004, 0., 1.08166575e-003, 5.40832873e-004,
          5.40832873e-004, 8.11249297e-003, 0., 2.16333149e-003,
          5.40832873e-004, 3.24499724e-003, 1.08166575e-003,
          2.16333149e-003, 2.70416448e-003, 2.16333149e-003,
          5.40832873e-004, 7.03082746e-003, 5.40832873e-004, 0.,
          1.62249862e-003, 5.40832873e-004, 1.08166575e-003, 0.,
          5.40832873e-004, 1.08166575e-003, 0., 0., 1.08166575e-003, 0.,
          0., 5.40832873e-004, 1.62249862e-003, 5.40832873e-004,
          1.08166575e-003, 0., 1.08166575e-003, 0., 4.32666298e-003,
          5.40832873e-004, 3.24499724e-003, 1.62249862e-003,
          1.08166575e-003, 5.40832873e-004, 0., 5.40832873e-004, 0.,
          1.08166575e-003, 0., 1.08166575e-003, 0., 5.40832873e-004,
          1.51433200e-002, 2.16333149e-003, 2.70416448e-003,
          5.40832873e-004, 0., 0., 2.70416448e-003, 0., 5.40832873e-004,
          1.08166575e-003, 5.40832873e-004, 0., 1.08166575e-003, 0., 0.,
          0., 0., 2.70416448e-003, 2.16333149e-003, 5.40832873e-004,
          2.70416448e-003, 5.40832873e-004, 1.08166575e-003, 0.,
          2.16333149e-003, 5.40832873e-004, 0., 5.40832873e-004,
          5.40832873e-004, 5.94916148e-003, 5.40832873e-004, 0., 0., 0.,
          1.13574900e-002, 1.08166575e-003, 2.70416448e-003, 0.,
          5.94916148e-003, 5.40832873e-004, 5.40832873e-004,
          5.94916148e-003, 5.40832873e-004, 5.40832873e-004, 0.,
          1.62249862e-003, 1.08166575e-003, 5.40832873e-004, 0.,
          5.40832873e-004, 1.08166575e-003, 1.62249862e-003,
          5.40832873e-004, 5.40832873e-004, 0., 1.62249862e-003, 0.,
          1.08166575e-003, 5.40832873e-004, 9.19415895e-003, 0.,
          2.70416448e-003, 1.08166575e-003, 1.08166575e-003,
          5.40832873e-004, 1.62249862e-003, 2.16333149e-003,
          5.40832873e-004, 0., 1.08166575e-003, 5.40832873e-004,
          1.08166575e-003, 0., 0., 1.62249862e-003, 0., 5.40832873e-004,
          0., 1.08166575e-003, 5.40832873e-004, 3.24499724e-003,
          2.70416448e-003, 5.40832873e-004, 1.08166575e-003,
          1.08166575e-003, 5.40832873e-004, 5.40832873e-004,
          5.40832873e-004, 2.70416448e-003, 1.62249862e-003,
          2.70416448e-003, 1.08166575e-003, 5.40832873e-004,
          4.32666298e-003, 0., 0., 3.24499724e-003, 5.40832873e-004, 0.,
          1.62249862e-003, 6.48999447e-003, 0., 5.40832873e-004,
          2.70416448e-003, 5.40832873e-004, 3.24499724e-003, 0.,
          5.40832873e-004, 4.32666298e-003, 1.08166575e-003,
          5.40832873e-004, 0., 1.62249862e-003, 1.08166575e-003,
          1.08166575e-003, 0., 2.70416448e-003, 1.08166575e-003,
          3.24499724e-003, 4.32666298e-003, 1.08166575e-003,
          5.40832873e-004, 5.40832873e-004, 0., 2.16333149e-003, 0.,
          5.40832873e-004, 5.40832873e-004, 5.40832873e-004, 0.,
          1.08166575e-003, 9.19415895e-003, 5.40832873e-004,
          1.62249862e-003, 5.40832873e-004, 2.16333149e-003,
          5.40832873e-004, 5.40832873e-004, 0., 1.62249862e-003,
          1.62249862e-003, 1.08166575e-003, 3.24499724e-003,
          5.40832873e-004 ]
      - [ 0., 0., 7.22891558e-003, 0., 0., 0., 0., 0., 9.63855442e-003,
          4.81927721e-003, 0., 2.40963860e-003, 4.81927721e-003, 0., 0.,
          0., 0., 0., 0., 0., 0., 0., 0., 0., 0., 0., 0., 0., 0., 0., 0.,
          0., 0., 0., 0., 0., 0., 0., 0., 0., 0., 0., 0., 0.,
          2.40963860e-003, 0., 0., 0., 0., 0., 0., 0., 0., 0., 0.,
          1.20481931e-001, 2.40963860e-003, 0., 0., 0., 0., 0., 0., 0.,
          2.40963860e-003, 2.40963860e-003, 0., 7.22891558e-003, 0., 0.,
          7.71084353e-002, 0., 0., 0., 2.40963860e-003, 0., 0., 0., 0.,
          0., 0., 1.44578312e-002, 0., 0., 0., 0., 0., 0., 0., 0., 0.,
          2.40963860e-003, 0., 0., 0., 0., 0., 0., 0., 4.81927721e-003,
          0., 0., 0., 0., 0., 0., 2.40963860e-003, 7.22891558e-003, 0.,
          0., 0., 0., 0., 0., 0., 0., 2.40963860e-003, 2.40963860e-003,
          2.40963860e-003, 0., 0., 0., 0., 0., 0., 0., 0.,
          2.40963860e-003, 0., 2.40963860e-003, 0., 0., 7.22891558e-003,
          7.22891558e-003, 0., 0., 0., 0., 0., 0., 0., 0.,
          2.40963860e-003, 0., 0., 0., 0., 0., 0., 0., 0.,
          7.22891558e-003, 0., 0., 2.40963860e-003, 1.20481933e-002, 0.,
          0., 0., 0., 7.22891558e-003, 0., 0., 0., 0., 0., 0., 0., 0.,
          0., 0., 0., 0., 0., 4.81927721e-003, 0., 0., 0., 0., 0., 0.,
          0., 0., 0., 0., 0., 0., 0., 0., 4.81927721e-003, 0., 0.,
          4.81927721e-003, 0., 0., 0., 0., 0., 0., 0., 0., 0., 0., 0.,
          0., 0., 0., 0., 0., 0., 2.40963860e-003, 0., 0.,
          2.40963860e-003, 0., 0., 0., 0., 4.81927721e-003, 0., 0.,
          2.16867477e-002, 0., 2.40963860e-003, 0., 0., 2.40963860e-003,
          0., 1.44578312e-002, 0., 0., 2.40963860e-003, 0., 0.,
          7.22891558e-003, 0., 0., 0., 0., 0., 0., 9.63855442e-003, 0.,
          2.40963860e-003, 0., 0., 0., 7.22891558e-003, 0., 0.,
          4.81927721e-003, 0., 0., 0., 0., 0., 2.40963860e-003, 0., 0.,
          2.40963860e-003, 0., 0., 9.63855442e-003, 0., 0., 0.,
          4.81927721e-003, 0., 2.40963860e-003, 0., 0., 0., 0., 0., 0.,
          0., 0., 2.40963860e-003, 0., 0., 0., 0., 0., 0., 0., 0.,
          2.40963860e-003, 2.40963860e-003, 4.81927721e-003, 0.,
          2.40963860e-003, 0., 0., 0., 0., 0., 2.40963860e-003, 0., 0.,
          0., 2.40963860e-003, 0., 0., 0., 0., 0., 0., 0., 0., 0., 0.,
          0., 0., 0., 0., 0., 0., 0., 2.40963860e-003, 0.,
          9.63855442e-003, 0., 0., 0., 2.40963860e-003, 0., 0., 0., 0.,
          0., 0., 0., 0., 0., 0., 2.40963860e-003, 0., 2.40963860e-003,
          0., 0., 0., 0., 2.16867477e-002, 0., 0., 0., 0.,
          2.40963860e-003, 0., 9.63855442e-003, 0., 0., 7.22891558e-003,
          0., 0., 0., 0., 0., 0., 0., 0., 0., 0., 0., 0., 0., 0., 0., 0.,
          0., 0., 0., 0., 0., 0., 2.40963860e-003, 0., 1.44578312e-002,
          0., 2.40963860e-003, 0., 2.40963860e-003, 0., 0., 0., 0., 0.,
          0., 0., 0., 0., 0., 0., 0., 0., 0., 0., 0., 0.,
          2.40963860e-003, 0., 0., 0., 1.20481933e-002, 0., 0., 0., 0.,
          0., 0., 4.81927721e-003, 1.20481933e-002, 2.40963860e-003,
          4.81927721e-003, 0., 0., 0., 0., 0., 2.40963860e-003,
          2.40963860e-003, 0., 0., 0., 0., 2.40963860e-003, 0., 0., 0.,
          0., 0., 0., 0., 0., 0., 0., 0., 0., 0., 0., 0., 0., 0., 0., 0.,
          0., 0., 2.40963860e-003, 0., 0., 0., 7.22891558e-003, 0., 0.,
          0., 0., 0., 0., 0., 0., 2.40963860e-003, 0., 0., 0.,
          2.40963860e-003, 0., 0., 0., 0., 0., 0., 1.20481933e-002, 0.,
          0., 0., 0., 0., 0., 0., 0., 0., 0., 0., 0., 2.40963860e-003,
          0., 0., 0., 0., 0., 0., 0., 0., 4.81927721e-003, 0.,
          2.40963860e-003, 0., 0., 0., 0., 0., 2.40963860e-003, 0., 0.,
          4.81927721e-003, 0., 0., 1.92771088e-002, 0., 0.,
          2.40963860e-003, 0., 0., 0., 0., 0., 1.73493981e-001,
          1.44578312e-002, 0., 7.22891558e-003, 0., 0., 0., 0., 0.,
          2.40963860e-003, 0., 0., 0., 2.40963860e-003, 0., 0., 0., 0.,
          0., 0., 4.81927721e-003, 0., 0., 0., 0., 0., 0., 0., 0., 0.,
          9.63855442e-003, 0., 9.63855442e-003, 0., 0., 0., 0., 0.,
          2.40963860e-003, 2.40963860e-003, 0., 0., 0., 9.63855442e-003,
          0., 0., 9.63855442e-003, 0., 1.92771088e-002, 0.,
          2.40963860e-003, 0., 0., 0., 0., 0., 2.40963860e-003, 0., 0.,
          9.63855442e-003, 0., 0., 0., 0., 7.22891558e-003, 0., 0., 0.,
          0., 2.65060253e-002, 0., 2.40963860e-003, 0., 0., 0., 0., 0.,
          0., 0., 0., 0., 0., 0., 1.44578312e-002 ]
      - [ 4.83870972e-003, 0., 0., 0., 0., 0., 0., 0., 1.61290320e-003,
          3.22580640e-003, 0., 0., 0., 1.61290320e-003, 0., 0.,
          1.61290320e-003, 1.61290320e-003, 9.67741944e-003, 0., 0., 0.,
          0., 0., 1.61290320e-003, 0., 1.61290320e-003, 0., 0., 0., 0.,
          0., 4.83870972e-003, 0., 4.83870972e-003, 0., 0., 0., 0., 0.,
          3.22580640e-003, 3.22580640e-003, 0., 3.22580640e-003, 0.,
          3.22580640e-003, 3.22580640e-003, 3.22580640e-003, 0., 0., 0.,
          0., 0., 0., 0., 0., 0., 3.22580640e-003, 0., 0., 0.,
          4.83870972e-003, 0., 0., 0., 3.22580640e-003, 0., 0.,
          1.61290320e-003, 0., 0., 0., 0., 0., 4.83870972e-003, 0., 0.,
          1.61290320e-003, 1.61290320e-003, 0., 1.61290320e-003,
          3.22580640e-003, 0., 0., 1.61290320e-003, 1.45161292e-002, 0.,
          1.61290320e-003, 0., 0., 0., 6.45161280e-003, 0., 0.,
          1.61290320e-003, 0., 1.61290320e-003, 1.61290320e-003, 0.,
          1.61290320e-003, 6.45161280e-003, 1.61290318e-002,
          3.22580640e-003, 0., 0., 0., 0., 0., 0., 1.61290320e-003, 0.,
          0., 3.22580640e-003, 0., 0., 3.22580640e-003, 1.61290320e-003,
          0., 3.22580640e-003, 0., 3.22580640e-003, 3.22580640e-003, 0.,
          0., 1.61290320e-003, 0., 0., 3.22580640e-003, 0., 0.,
          6.45161280e-003, 0., 0., 3.22580640e-003, 0., 3.22580640e-003,
          1.61290320e-003, 0., 1.61290320e-003, 0., 6.45161280e-003,
          6.45161280e-003, 6.45161280e-003, 1.61290320e-003, 0., 0.,
          3.22580640e-003, 0., 1.61290320e-003, 1.61290320e-003,
          1.61290320e-003, 0., 1.61290320e-003, 0., 3.22580640e-003, 0.,
          0., 4.83870972e-003, 0., 0., 0., 0., 1.61290320e-003, 0.,
          3.22580640e-003, 6.45161280e-003, 0., 0., 1.61290320e-003,
          3.22580640e-003, 1.61290320e-003, 1.61290320e-003, 0., 0.,
          1.61290320e-003, 0., 0., 3.22580640e-003, 0., 3.22580640e-003,
          1.61290320e-003, 0., 0., 4.83870972e-003, 1.61290320e-003,
          1.61290320e-003, 0., 9.67741944e-003, 0., 0., 0.,
          1.61290320e-003, 0., 4.83870972e-003, 0., 1.61290320e-003,
          6.45161280e-003, 1.61290320e-003, 2.90322583e-002,
          1.61290320e-003, 0., 4.83870972e-003, 0., 1.61290320e-003, 0.,
          1.61290320e-003, 0., 1.29032256e-002, 0., 3.22580640e-003, 0.,
          3.22580640e-003, 3.38709690e-002, 3.22580640e-003, 0.,
          1.61290320e-003, 0., 8.06451589e-003, 1.61290320e-003,
          3.22580640e-003, 0., 1.61290320e-003, 3.22580640e-003, 0.,
          1.61290320e-003, 4.83870972e-003, 4.83870972e-003,
          3.22580640e-003, 0., 0., 0., 0., 0., 1.61290320e-003, 0., 0.,
          1.61290320e-003, 0., 3.22580640e-003, 4.83870972e-003,
          6.45161280e-003, 3.22580640e-003, 1.61290320e-003, 0., 0., 0.,
          0., 0., 0., 4.83870972e-003, 0., 0., 0., 3.22580640e-003, 0.,
          0., 0., 3.22580640e-003, 1.61290320e-003, 3.22580640e-003,
          1.61290320e-003, 1.61290320e-003, 0., 6.45161280e-003,
          6.45161280e-003, 0., 0., 1.61290320e-003, 3.22580640e-003, 0.,
          3.22580640e-003, 0., 1.61290320e-003, 0., 0., 0.,
          1.61290320e-003, 0., 0., 0., 6.45161280e-003, 1.61290320e-003,
          0., 0., 1.29032256e-002, 0., 0., 6.45161280e-003, 0., 0., 0.,
          0., 3.22580640e-003, 0., 1.61290320e-003, 1.29032256e-002,
          1.61290320e-003, 0., 0., 1.61290320e-003, 3.22580640e-003, 0.,
          0., 6.45161280e-003, 0., 0., 0., 0., 4.83870972e-003, 0., 0.,
          0., 3.22580640e-003, 0., 1.61290320e-003, 1.61290320e-003, 0.,
          1.61290320e-003, 0., 0., 1.61290320e-003, 3.22580640e-003,
          1.61290320e-003, 1.61290320e-003, 1.61290320e-003, 0.,
          1.61290320e-003, 0., 1.61290320e-003, 1.61290320e-003,
          6.45161280e-003, 0., 1.61290320e-003, 0., 0., 0.,
          1.61290320e-003, 0., 6.45161280e-003, 0., 1.45161292e-002, 0.,
          0., 0., 1.61290320e-003, 0., 1.61290320e-003, 1.61290320e-003,
          0., 0., 0., 1.61290320e-003, 0., 0., 0., 0., 1.61290320e-003,
          1.61290320e-003, 1.61290320e-003, 0., 0., 8.06451589e-003, 0.,
          0., 0., 0., 1.61290320e-003, 1.61290320e-003, 0.,
          1.61290320e-003, 0., 1.61290320e-003, 4.83870972e-003, 0.,
          1.61290320e-003, 4.83870972e-003, 0., 0., 1.61290320e-003,
          3.22580640e-003, 0., 0., 0., 0., 0., 3.22580640e-003,
          1.61290320e-003, 1.61290320e-003, 1.61290320e-003, 0., 0.,
          1.61290320e-003, 3.22580640e-003, 9.67741944e-003,
          1.61290320e-003, 6.45161280e-003, 0., 1.61290320e-003, 0., 0.,
          0., 3.22580640e-003, 1.61290320e-003, 0., 1.61290320e-003, 0.,
          0., 3.22580640e-003, 4.83870972e-003, 0., 0., 1.61290320e-003,
          6.45161280e-003, 0., 0., 0., 0., 0., 6.45161280e-003,
          1.61290320e-003, 1.61290320e-003, 0., 0., 0., 1.61290320e-003,
          0., 0., 0., 1.61290320e-003, 0., 6.45161280e-003, 0., 0., 0.,
          0., 1.29032256e-002, 0., 1.61290320e-003, 0., 0., 0.,
          1.61290320e-003, 0., 3.22580640e-003, 0., 3.22580640e-003,
          1.61290320e-003, 0., 0., 1.61290320e-003, 4.83870972e-003,
          1.61290320e-003, 1.61290320e-003, 0., 4.83870972e-003, 0., 0.,
          3.22580640e-003, 0., 0., 0., 4.83870972e-003, 3.22580640e-003,
          1.61290320e-003, 0., 0., 3.22580640e-003, 1.61290320e-003, 0.,
          0., 1.61290320e-003, 0., 3.22580640e-003, 0., 0., 0.,
          4.83870972e-003, 4.83870972e-003, 0., 0., 1.29032256e-002, 0.,
          6.45161280e-003, 0., 0., 1.61290320e-003, 1.61290320e-003,
          4.83870972e-003, 0., 0., 1.61290320e-003, 4.83870972e-003, 0.,
          3.22580640e-003, 0., 3.22580640e-003, 0., 0., 3.22580640e-003,
          1.61290320e-003, 3.22580640e-003, 3.22580640e-003,
          1.61290320e-003, 0., 0., 1.61290320e-003, 4.83870972e-003, 0.,
          6.45161280e-003, 0., 0., 6.45161280e-003, 3.22580640e-003, 0.,
          0., 3.22580640e-003, 0., 0., 0., 0., 0., 0., 0., 0.,
          1.61290320e-003, 0., 1.61290320e-003, 0., 0., 0.,
          1.61290320e-003, 1.61290320e-003, 0., 3.22580640e-003,
          1.61290320e-003, 0., 0., 0., 0., 0., 8.06451589e-003,
          1.29032256e-002, 1.61290320e-003, 0., 0., 0., 1.61290320e-003,
          1.61290320e-003, 4.83870972e-003, 0., 3.22580640e-003, 0.,
          6.45161280e-003, 0., 1.12903221e-002, 0., 0., 0.,
          3.22580640e-003, 0., 0., 0., 0., 1.61290320e-003,
          1.61290320e-003, 0., 3.22580640e-003, 6.45161280e-003, 0., 0.,
          0., 0., 1.61290320e-003, 0., 4.83870972e-003, 0.,
          3.22580640e-003, 1.61290320e-003, 1.61290320e-003, 0., 0.,
          3.38709690e-002, 3.22580640e-003, 0., 0., 0., 0., 0.,
          1.61290320e-003, 6.45161280e-003, 1.61290320e-003, 0.,
          1.61290320e-003, 0., 0., 0., 0., 0., 1.61290320e-003, 0. ]
      - [ 3.08071473e-003, 8.62600096e-003, 0., 6.16142934e-004,
          6.16142934e-004, 0., 3.69685749e-003, 3.08071473e-003,
          6.16142934e-004, 1.23228587e-003, 0., 6.16142934e-004,
          6.16142934e-004, 3.69685749e-003, 3.69685749e-003,
          6.16142934e-004, 6.16142934e-004, 1.84842874e-003,
          1.23228587e-003, 0., 0., 6.16142934e-004, 0., 4.31300048e-003,
          1.84842874e-003, 0., 6.16142934e-004, 6.16142934e-004,
          3.69685749e-003, 0., 5.54528646e-003, 0., 0., 0.,
          1.23228587e-003, 0., 4.92914347e-003, 0., 1.84842874e-003,
          6.16142934e-004, 2.46457173e-003, 3.08071473e-003, 0.,
          6.16142934e-004, 0., 6.16142934e-004, 1.84842874e-003,
          2.46457173e-003, 1.84842874e-003, 0., 0., 2.46457173e-003, 0.,
          6.16142934e-004, 0., 0., 6.77757245e-003, 4.92914347e-003, 0.,
          0., 2.03327164e-002, 3.08071473e-003, 6.16142934e-004,
          1.84842874e-003, 6.16142934e-004, 0., 4.31300048e-003,
          8.62600096e-003, 6.16142934e-004, 6.16142934e-004, 0.,
          1.84842874e-003, 1.84842874e-003, 7.39371497e-003,
          4.31300048e-003, 2.46457173e-003, 0., 0., 4.31300048e-003, 0.,
          2.46457173e-003, 0., 3.69685749e-003, 0., 0., 1.84842874e-003,
          4.31300048e-003, 1.84842874e-003, 1.84842874e-003,
          1.23228587e-003, 7.39371497e-003, 3.08071473e-003,
          6.16142934e-004, 3.69685749e-003, 1.23228587e-003,
          2.46457173e-003, 6.16142934e-004, 0., 9.85828694e-003,
          6.16142934e-004, 1.84842874e-003, 3.08071473e-003,
          5.54528646e-003, 0., 0., 1.84842874e-003, 0., 1.23228587e-003,
          0., 6.16142934e-004, 5.54528646e-003, 6.16142934e-004,
          4.92914347e-003, 3.08071473e-003, 0., 1.23228587e-003,
          1.84842874e-003, 1.23228587e-003, 0., 1.84842888e-002,
          6.16142934e-004, 0., 0., 0., 1.23228587e-003, 1.84842874e-003,
          6.16142945e-003, 1.84842874e-003, 0., 2.46457173e-003,
          3.08071473e-003, 0., 0., 1.84842874e-003, 0., 3.08071473e-003,
          0., 6.16142934e-004, 1.23228587e-003, 1.84842874e-003,
          1.23228587e-003, 1.23228587e-003, 3.08071473e-003,
          1.23228587e-003, 1.84842874e-003, 6.16142945e-003,
          1.23228587e-003, 0., 3.08071473e-003, 6.16142934e-004, 0.,
          6.16142934e-004, 6.16142934e-004, 1.23228587e-003, 0., 0.,
          2.46457173e-003, 6.16142934e-004, 4.31300048e-003, 0.,
          1.84842874e-003, 2.46457173e-003, 0., 1.84842874e-003,
          6.16142934e-004, 1.23228587e-003, 6.16142934e-004,
          4.31300048e-003, 8.00985843e-003, 0., 2.46457173e-003, 0.,
          6.16142945e-003, 0., 1.84842874e-003, 6.16142934e-004,
          3.69685749e-003, 0., 1.23228587e-003, 1.23228587e-003,
          1.23228587e-003, 0., 0., 3.08071473e-003, 0., 1.23228587e-003,
          1.23228587e-003, 0., 9.85828694e-003, 6.16142934e-004, 0.,
          6.16142934e-004, 3.08071473e-003, 6.16142934e-004,
          4.31300048e-003, 1.84842874e-003, 6.16142934e-004,
          1.84842874e-003, 0., 0., 0., 0., 0., 1.23228587e-003,
          4.92914347e-003, 0., 0., 2.46457173e-003, 1.23228587e-003,
          6.16142934e-004, 1.23228587e-003, 3.69685749e-003,
          2.46457173e-003, 3.69685749e-003, 3.08071473e-003, 0., 0.,
          4.31300048e-003, 4.31300048e-003, 6.16142934e-004, 0., 0., 0.,
          4.92914347e-003, 3.08071473e-003, 0., 1.23228587e-003, 0.,
          3.69685749e-003, 6.16142934e-004, 1.23228587e-003,
          1.84842874e-003, 2.46457173e-003, 1.23228587e-003, 0.,
          2.46457173e-003, 1.84842874e-003, 6.16142934e-004,
          3.69685749e-003, 3.08071473e-003, 1.23228587e-003, 0.,
          1.84842874e-003, 1.23228587e-003, 6.16142934e-004, 0.,
          1.23228587e-003, 8.00985843e-003, 1.23228587e-003,
          3.08071473e-003, 0., 3.69685749e-003, 6.16142934e-004,
          6.16142934e-004, 6.16142934e-004, 4.92914347e-003,
          4.31300048e-003, 2.46457173e-003, 0., 6.16142934e-004,
          1.23228587e-003, 6.16142934e-004, 0., 0., 0., 1.23228587e-003,
          1.23228587e-003, 6.16142934e-004, 4.92914347e-003,
          1.23228587e-003, 2.46457173e-003, 1.23228587e-003,
          3.08071473e-003, 0., 0., 0., 6.16142934e-004, 0.,
          6.16142934e-004, 6.16142934e-004, 3.08071473e-003,
          1.23228587e-003, 0., 6.16142934e-004, 6.16142934e-004,
          7.39371497e-003, 1.84842874e-003, 1.23228587e-003,
          6.16142934e-004, 4.92914347e-003, 2.46457173e-003, 0.,
          3.08071473e-003, 0., 1.84842874e-003, 1.84842874e-003,
          6.16142934e-004, 2.46457173e-003, 2.46457173e-003, 0.,
          1.23228587e-003, 0., 1.84842874e-003, 6.16142934e-004, 0.,
          1.84842874e-003, 3.08071473e-003, 1.23228587e-003,
          3.69685749e-003, 0., 0., 3.08071473e-003, 6.16142934e-004, 0.,
          0., 1.23228587e-003, 0., 6.16142934e-004, 3.08071473e-003, 0.,
          6.16142934e-004, 2.46457173e-003, 0., 6.16142934e-004, 0.,
          4.31300048e-003, 3.69685749e-003, 1.60197169e-002, 0.,
          4.31300048e-003, 6.16142934e-004, 6.16142934e-004, 0., 0., 0.,
          0., 6.16142945e-003, 0., 6.16142934e-004, 0., 1.84842874e-003,
          6.16142934e-004, 0., 0., 0., 0., 6.16142934e-004,
          6.16142934e-004, 0., 2.46457173e-003, 6.16142934e-004, 0.,
          6.16142934e-004, 9.24214441e-003, 0., 0., 0., 0.,
          1.84842874e-003, 3.69685749e-003, 0., 6.16142934e-004,
          1.23228587e-003, 1.84842874e-003, 1.23228587e-003, 0.,
          1.23228587e-003, 0., 0., 9.24214441e-003, 0., 0., 0.,
          1.84842874e-003, 2.46457173e-003, 3.69685749e-003,
          1.23228587e-003, 1.23228587e-003, 0., 3.08071473e-003,
          3.69685749e-003, 0., 4.92914347e-003, 0., 6.16142934e-004,
          2.46457173e-003, 3.08071473e-003, 6.16142934e-004, 0.,
          1.84842874e-003, 6.16142934e-004, 0., 9.85828694e-003,
          3.69685749e-003, 6.16142934e-004, 4.92914347e-003,
          1.23228587e-003, 1.84842874e-003, 2.46457173e-003,
          6.16142934e-004, 4.31300048e-003, 6.16142934e-004,
          1.23228587e-003, 1.23228587e-003, 1.23228587e-003,
          6.16142934e-004, 6.16142934e-004, 0., 6.16142934e-004,
          1.23228587e-003, 0., 0., 6.16142934e-004, 0., 2.46457173e-003,
          0., 3.69685749e-003, 1.23228587e-003, 4.92914347e-003,
          4.92914347e-003, 2.46457173e-003, 0., 4.92914347e-003,
          2.46457173e-003, 1.23228587e-003, 0., 6.16142934e-004,
          3.08071473e-003, 3.69685749e-003, 0., 1.84842874e-003,
          1.84842874e-003, 0., 6.16142934e-004, 0., 2.46457173e-003,
          3.69685749e-003, 6.16142945e-003, 6.77757245e-003,
          1.84842874e-003, 6.16142934e-004, 6.16142934e-004,
          1.84842874e-003, 6.16142934e-004, 0., 0., 0., 1.23228587e-003,
          0., 1.84842874e-003, 0., 0., 0., 0., 0., 0., 0., 0., 0.,
          1.84842874e-003, 0., 6.16142934e-004, 1.23228587e-003,
          6.16142934e-004, 0., 2.46457173e-003, 6.16142934e-004,
          2.46457173e-003, 6.16142934e-004, 6.16142934e-004,
          6.16142934e-004, 6.16142934e-004, 1.23228587e-003, 0.,
          2.46457173e-003, 6.16142934e-004, 4.31300048e-003, 0.,
          6.16142934e-004, 0., 2.46457173e-003, 2.46457173e-003,
          1.23228587e-003, 5.54528646e-003, 6.16142934e-004,
          1.29390014e-002, 3.69685749e-003, 0., 6.16142934e-004, 0., 0.,
          2.46457173e-003, 0., 0., 1.23228587e-003, 3.08071473e-003,
          6.16142934e-004, 0., 1.84842874e-003, 1.23228587e-003,
          1.23228587e-003, 6.16142945e-003, 0., 1.84842874e-003,
          4.31300048e-003, 6.16142934e-004, 3.69685749e-003, 0.,
          2.46457173e-003, 1.84842874e-003, 0., 1.23228587e-003,
          1.23228587e-003, 6.16142934e-004, 1.84842874e-003,
          3.08071473e-003, 0., 0., 1.84842874e-003, 0., 0., 0.,
          3.08071473e-003, 0., 6.16142934e-004, 1.23228587e-003,
          1.23228587e-003, 0., 3.08071473e-003, 0., 2.46457173e-003,
          1.23228587e-003, 1.23228587e-003, 2.46457173e-003,
          6.16142934e-004, 1.84842874e-003, 0., 3.69685749e-003,
          6.16142934e-004, 6.16142934e-004, 1.23228587e-003,
          1.23228587e-003, 6.16142934e-004, 1.23228587e-003,
          6.16142934e-004, 1.23228587e-003, 0., 1.23228587e-003,
          2.46457173e-003, 1.04744295e-002, 6.16142934e-004, 0.,
          1.54035734e-002, 6.16142934e-004, 1.23228587e-003, 0., 0.,
          4.31300048e-003, 6.16142934e-004, 1.23228587e-003, 0., 0., 0.,
          6.77757245e-003, 0., 3.69685749e-003, 0., 5.54528646e-003,
          3.69685749e-003, 1.84842874e-003, 0., 1.23228587e-003,
          1.23228587e-003, 6.16142934e-004, 7.39371497e-003, 0.,
          4.92914347e-003, 3.08071473e-003, 6.16142934e-004,
          4.31300048e-003, 9.85828694e-003, 0., 6.16142934e-004,
          6.16142934e-004, 0., 0., 1.84842874e-003, 0., 2.46457173e-003,
          1.23228587e-003, 6.16142934e-004, 0., 0., 0., 4.31300048e-003,
          1.23228587e-003, 1.23228587e-003, 0., 1.23228587e-003, 0. ]
      - [ 0., 0., 0., 0., 0., 0., 0., 0., 0., 0., 0., 0., 0., 0., 0., 0.,
          0., 0., 0., 1.85873602e-002, 7.43494416e-003, 0., 0., 0., 0.,
          0., 0., 0., 0., 0., 0., 0., 0., 0., 0., 0., 0.,
          2.23048329e-002, 0., 0., 0., 0., 3.71747208e-003, 0., 0., 0.,
          0., 0., 0., 7.43494416e-003, 0., 0., 7.43494416e-003, 0., 0.,
          0., 0., 0., 0., 0., 0., 0., 0., 0., 0., 0., 0., 0., 0., 0., 0.,
          0., 0., 0., 0., 0., 0., 0., 0., 0., 0., 0., 0.,
          5.94795533e-002, 0., 0., 0., 0., 0., 0., 0., 0., 0., 0., 0.,
          0., 0., 0., 0., 0., 0., 0., 0., 0., 0., 0., 0., 0.,
          3.90334576e-001, 0., 0., 0., 0., 0., 0., 0., 0., 0., 0., 0.,
          0., 0., 0., 0., 0., 0., 0., 0., 2.23048329e-002, 0., 0., 0.,
          0., 0., 0., 0., 0., 0., 0., 0., 0., 0., 0., 0., 0., 0., 0., 0.,
          0., 0., 0., 0., 0., 0., 0., 0., 0., 0., 0., 0., 0., 0., 0., 0.,
          0., 0., 0., 0., 0., 0., 0., 0., 0., 0., 0., 0., 0., 0., 0., 0.,
          0., 0., 0., 0., 0., 0., 0., 0., 0., 0., 0., 0., 0., 0., 0., 0.,
          0., 0., 0., 0., 0., 0., 1.85873602e-002, 0., 0., 0., 0., 0.,
          0., 0., 0., 0., 0., 0., 0., 0., 0., 0., 0., 0., 0., 0., 0., 0.,
          0., 0., 0., 0., 0., 0., 0., 0., 0., 0., 0., 0., 0., 0., 0., 0.,
          0., 0., 0., 0., 0., 0., 0., 0., 0., 0., 0., 0., 0., 0., 0., 0.,
          0., 0., 0., 0., 0., 0., 0., 0., 0., 0., 0., 0., 0., 0., 0., 0.,
          0., 0., 0., 0., 0., 7.43494416e-003, 0., 0., 0., 0.,
          2.23048329e-002, 0., 0., 0., 0., 0., 0., 0., 0., 0., 0.,
          2.23048329e-002, 0., 0., 0., 0., 0., 0., 0., 0., 0., 0., 0.,
          0., 0., 0., 0., 1.11524165e-002, 0., 0., 0., 0., 0., 0.,
          7.43494416e-003, 0., 0., 0., 0., 0., 0., 0., 0., 0., 0., 0.,
          0., 0., 0., 0., 0., 0., 0., 0., 0., 0., 0., 0., 0., 0., 0.,
          1.48698883e-002, 0., 0., 0., 0., 0., 0., 0., 0., 0., 0.,
          1.11524165e-002, 2.78810412e-001, 0., 0., 0., 0., 0., 0., 0.,
          0., 0., 0., 0., 0., 0., 0., 3.71747208e-003, 0., 0., 0., 0.,
          0., 0., 0., 0., 0., 0., 0., 0., 0., 0., 0., 0., 0., 0., 0., 0.,
          0., 0., 0., 0., 0., 0., 0., 0., 0., 0., 0., 0., 0., 0., 0., 0.,
          0., 0., 0., 0., 0., 0., 0., 0., 0., 0., 0., 0., 0., 0., 0., 0.,
          0., 0., 0., 0., 0., 0., 0., 0., 0., 7.43494416e-003, 0., 0.,
          0., 0., 0., 0., 0., 0., 0., 0., 0., 0., 0., 0., 0., 0., 0., 0.,
          0., 0., 0., 0., 0., 3.34572494e-002, 0., 7.43494416e-003, 0.,
          0., 0., 0., 0., 0., 0., 0., 0., 0., 0., 0., 0., 0.,
          3.71747208e-003, 0., 0., 0., 0., 0., 0., 0., 0., 0., 0., 0.,
          0., 0., 0., 0., 0., 0., 0., 3.71747208e-003, 0., 0., 0., 0.,
          0., 0., 0., 0., 0., 0., 0., 0., 0., 0., 0., 0., 0., 0., 0., 0.,
          0., 0., 0., 0., 0., 0., 0., 0., 0., 0., 0., 0., 0., 0., 0., 0.,
          0., 0., 0., 0., 0., 0., 0., 0., 0., 0., 0., 0., 0., 0., 0., 0.,
          0., 0., 0., 0., 0., 0., 0., 0., 0., 0., 0., 0., 0., 0., 0., 0.,
          0., 0., 0., 0., 0., 0., 0., 0., 0., 3.71747208e-003, 0., 0.,
          0., 0., 0., 0., 0., 0., 0., 0., 0., 0., 0., 0., 0., 0.,
          3.71747208e-003, 0., 0., 0., 0., 0., 0., 0., 0., 0., 0., 0.,
          0. ]
      - [ 0., 0., 0., 0., 0., 0., 0., 0., 0., 0., 0., 0., 0., 0., 0., 0.,
          0., 0., 0., 2.38500852e-002, 3.06643937e-002, 0., 0., 0., 0.,
          0., 0., 0., 0., 2.89608166e-002, 0., 1.12436116e-001, 0., 0.,
          0., 0., 0., 7.32538328e-002, 0., 0., 0., 0., 1.19250426e-002,
          0., 0., 0., 0., 0., 0., 5.11073228e-003, 2.55536623e-002, 0.,
          1.36286197e-002, 0., 0., 0., 0., 0., 0., 0., 0., 0., 0., 0.,
          0., 0., 0., 0., 0., 0., 0., 0., 0., 0., 0., 0., 0., 0., 0., 0.,
          0., 0., 0., 1.36286197e-002, 0., 0., 0., 0., 0., 0., 0., 0.,
          0., 0., 0., 0., 0., 0., 0., 0., 0., 0., 0., 0., 0., 0., 0., 0.,
          8.51788744e-003, 0., 0., 0., 0., 0., 0., 0., 0., 0., 0., 0.,
          0., 0., 0., 0., 0., 0., 0., 0., 2.72572394e-002, 0., 0.,
          1.19250426e-002, 0., 0., 0., 0., 0., 0., 0., 0., 0., 0., 0.,
          0., 0., 0., 0., 0., 0., 0., 0., 0., 0., 0., 0., 0., 0., 0., 0.,
          0., 0., 0., 0., 0., 0., 0., 0., 0., 0., 0., 0., 0., 0., 0., 0.,
          0., 0., 0., 0., 0., 0., 0., 0., 0., 0., 0., 0., 0., 0., 0., 0.,
          0., 0., 0., 0., 0., 0., 0., 0., 0., 0., 0., 3.06643937e-002,
          0., 0., 0., 0., 0., 0., 0., 0., 0., 0., 0., 0., 0., 0., 0., 0.,
          0., 0., 0., 0., 0., 0., 0., 0., 0., 0., 0., 0., 0., 0., 0., 0.,
          0., 0., 0., 0., 0., 0., 0., 0., 0., 0., 0., 0., 0., 0., 0., 0.,
          0., 0., 0., 0., 0., 0., 0., 0., 0., 0., 0., 0., 0., 0., 0., 0.,
          0., 0., 0., 0., 0., 0., 0., 0., 0., 0., 0., 0., 0., 0., 0.,
          1.19250426e-002, 0., 0., 0., 0., 0., 0., 0., 0., 0., 0.,
          6.81430986e-003, 0., 0., 0., 0., 0., 0., 0., 1.70357747e-003,
          0., 0., 0., 0., 0., 0., 0., 2.21465062e-002, 0., 0., 0., 0.,
          0., 0., 2.72572394e-002, 0., 0., 5.11073228e-003, 0., 0., 0.,
          0., 0., 0., 0., 0., 0., 0., 0., 0., 0., 0., 0., 0., 0., 0., 0.,
          0., 0., 0., 0., 1.36286197e-002, 0., 0., 0., 0., 0., 0., 0.,
          0., 0., 0., 3.74787040e-002, 2.55536623e-002, 0., 0., 0., 0.,
          0., 0., 0., 0., 0., 0., 0., 0., 0., 0., 5.45144789e-002, 0.,
          0., 0., 0., 0., 0., 0., 0., 0., 0., 0., 0., 0., 0., 0., 0., 0.,
          0., 0., 0., 0., 0., 0., 0., 0., 0., 0., 0., 0., 0., 0., 0., 0.,
          0., 0., 0., 0., 0., 0., 0., 0., 0., 0., 0., 0., 0., 0., 0., 0.,
          0., 1.53321968e-002, 0., 0., 0., 0., 0., 0., 0., 0., 0., 0.,
          1.70357749e-002, 0., 0., 0., 0., 0., 0., 0., 0., 0., 0., 0.,
          0., 0., 0., 0., 0., 0., 0., 0., 0., 0., 0., 0.,
          3.23679708e-002, 0., 7.49574080e-002, 0., 0., 0., 0., 0., 0.,
          0., 0., 0., 0., 0., 0., 0., 0., 1.03918225e-001, 0., 0., 0.,
          0., 0., 0., 0., 0., 0., 0., 0., 0., 0., 0., 0., 0., 0., 0.,
          2.55536623e-002, 0., 0., 0., 0., 2.38500852e-002, 0., 0., 0.,
          0., 0., 0., 0., 0., 0., 0., 0., 0., 0., 0., 0., 0., 0., 0., 0.,
          0., 0., 0., 0., 0., 0., 0., 0., 0., 0., 0., 0., 0., 0., 0., 0.,
          0., 0., 0., 0., 0., 0., 0., 0., 0., 0., 0., 0., 0., 0., 0., 0.,
          0., 0., 0., 0., 0., 0., 0., 2.04429291e-002, 0., 0., 0., 0.,
          0., 0., 0., 0., 0., 0., 0., 0., 0., 3.74787040e-002, 0., 0.,
          0., 0., 0., 0., 0., 0., 0., 0., 0., 0., 0., 0., 0., 0.,
          2.55536623e-002, 0., 0., 0., 0., 0., 0., 0., 0., 0., 0., 0.,
          0. ]
      - [ 0., 0., 1.04529615e-002, 0., 3.48432059e-003, 0., 0., 0., 0.,
          0., 6.96864119e-003, 0., 0., 0., 0., 0., 0., 0.,
          3.48432059e-003, 3.48432059e-003, 0., 0., 0., 0., 0., 0., 0.,
          1.39372824e-002, 0., 3.48432059e-003, 0., 6.96864119e-003, 0.,
          0., 1.04529615e-002, 0., 0., 3.48432059e-003, 0., 0., 0.,
          6.96864119e-003, 3.48432059e-003, 0., 0., 0., 0., 0., 0.,
          6.96864119e-003, 3.48432059e-003, 0., 3.48432059e-003, 0.,
          1.04529615e-002, 6.96864119e-003, 0., 0., 0., 0., 0.,
          3.48432059e-003, 0., 0., 1.39372824e-002, 6.96864119e-003, 0.,
          0., 6.96864119e-003, 0., 0., 0., 0., 0., 0., 0.,
          3.48432059e-003, 0., 6.96864119e-003, 0., 0., 0., 0., 0., 0.,
          0., 0., 3.48432059e-003, 3.48432059e-003, 0., 0., 0.,
          3.48432059e-003, 0., 0., 3.48432059e-003, 0., 0.,
          1.04529615e-002, 0., 0., 0., 0., 0., 0., 0., 0.,
          2.09059231e-002, 0., 0., 0., 0., 0., 0., 0., 0., 0., 0.,
          3.48432059e-003, 0., 0., 0., 0., 3.48432059e-003, 0., 0., 0.,
          0., 0., 0., 0., 0., 3.83275263e-002, 0., 3.48432059e-003, 0.,
          6.96864119e-003, 0., 0., 0., 0., 0., 0., 1.04529615e-002, 0.,
          0., 0., 0., 0., 0., 0., 1.04529615e-002, 0., 0.,
          6.96864119e-003, 2.43902449e-002, 0., 0., 0., 0., 0., 0., 0.,
          0., 0., 0., 0., 3.48432059e-003, 0., 0., 0., 3.48432059e-003,
          0., 0., 0., 0., 6.96864119e-003, 3.48432059e-003, 0., 0., 0.,
          0., 0., 3.48432059e-003, 0., 0., 3.48432059e-003, 0., 0.,
          3.48432059e-003, 3.48432059e-003, 3.48432059e-003,
          6.96864119e-003, 0., 0., 0., 0., 0., 0., 0., 0., 0., 0., 0.,
          0., 1.04529615e-002, 6.96864119e-003, 0., 0., 0., 0., 0., 0.,
          0., 0., 6.96864119e-003, 3.48432059e-003, 3.48432059e-003,
          3.48432059e-003, 0., 0., 2.43902449e-002, 0., 0., 0., 0., 0.,
          2.43902449e-002, 0., 0., 0., 0., 0., 6.96864119e-003,
          3.48432059e-003, 0., 0., 0., 0., 6.96864119e-003,
          3.48432059e-003, 6.96864119e-003, 3.48432059e-003, 0., 0., 0.,
          0., 0., 0., 0., 3.48432059e-003, 0., 0., 0., 0., 0., 0., 0.,
          0., 0., 0., 0., 6.96864119e-003, 0., 0., 0., 0.,
          3.48432059e-003, 0., 0., 3.48432059e-003, 0., 0., 0., 0.,
          3.48432059e-003, 0., 0., 0., 0., 0., 1.04529615e-002, 0., 0.,
          0., 0., 6.96864119e-003, 0., 0., 3.48432059e-003, 0., 0., 0.,
          0., 0., 6.96864119e-003, 0., 3.48432059e-003, 0., 0., 0., 0.,
          0., 0., 0., 0., 0., 0., 0., 3.48432059e-003, 0., 0., 0.,
          6.96864119e-003, 0., 0., 1.04529615e-002, 0., 0., 0., 0., 0.,
          0., 0., 6.96864119e-003, 0., 0., 0., 3.48432059e-003, 0., 0.,
          0., 0., 3.48432059e-003, 0., 0., 0., 0., 0., 0., 0.,
          3.48432059e-003, 6.96864119e-003, 3.48432059e-003, 0., 0., 0.,
          0., 0., 0., 0., 3.48432059e-003, 0., 0., 3.48432059e-003,
          1.04529615e-002, 6.96864119e-003, 0., 0., 0., 3.48432059e-003,
          0., 0., 0., 0., 0., 0., 3.48432059e-003, 3.48432059e-003, 0.,
          3.48432059e-003, 0., 6.96864119e-003, 0., 0., 0., 0., 0., 0.,
          0., 0., 1.04529615e-002, 0., 0., 0., 0., 3.48432059e-003, 0.,
          1.04529615e-002, 3.48432059e-003, 0., 3.48432059e-003, 0., 0.,
          0., 0., 0., 0., 0., 0., 0., 3.48432059e-003, 0., 0., 0., 0.,
          3.48432059e-003, 0., 3.48432059e-003, 0., 3.48432059e-003,
          3.13588865e-002, 0., 1.04529615e-002, 0., 0., 0., 0., 0., 0.,
          0., 1.04529615e-002, 0., 0., 0., 0., 0., 0., 3.48432059e-003,
          0., 0., 0., 0., 0., 0., 0., 0., 0., 0., 0., 0.,
          3.48432059e-003, 3.48432059e-003, 0., 0., 3.48432059e-003, 0.,
          0., 0., 0., 0., 2.09059231e-002, 0., 0., 0., 0., 0., 0.,
          1.04529615e-002, 0., 0., 0., 6.96864119e-003, 0.,
          1.04529615e-002, 0., 0., 0., 0., 0., 3.48432059e-003,
          3.48432059e-003, 0., 6.96864119e-003, 0., 0., 3.48432059e-003,
          0., 0., 0., 0., 0., 0., 0., 1.74216032e-002, 0.,
          3.48432059e-003, 0., 0., 0., 1.39372824e-002, 0., 0.,
          6.96864119e-003, 0., 0., 0., 0., 0., 3.48432059e-003, 0., 0.,
          0., 0., 0., 0., 3.48432059e-003, 0., 0., 0., 0., 0., 0., 0.,
          0., 0., 1.04529615e-002, 0., 0., 3.48432059e-003, 0.,
          1.04529615e-002, 0., 0., 0., 0., 0., 3.48432059e-003, 0., 0.,
          0., 0., 0., 0., 0., 0., 3.48432059e-003, 0., 3.48432059e-003,
          0., 0., 3.48432059e-003, 3.48432059e-003, 0., 0.,
          3.48432059e-003, 1.74216032e-002, 0., 0., 0., 0.,
          3.48432059e-003, 0., 0., 0., 1.74216032e-002, 0., 0., 0., 0.,
          0., 0., 6.96864119e-003, 0., 1.39372824e-002, 0., 0., 0., 0.,
          6.96864119e-003, 6.96864119e-003, 0., 2.09059231e-002, 0.,
          3.48432059e-003, 0., 0., 0., 0., 0., 0., 0., 0., 0., 0.,
          3.48432059e-003, 0., 3.48432059e-003, 0., 3.48432059e-003, 0.,
          6.96864119e-003, 0., 0., 0., 0., 0., 6.96864119e-003, 0., 0. ]
      - [ 0., 0., 0., 0., 0., 0., 0., 0., 0., 0., 0., 0., 0., 0., 0., 0.,
          0., 0., 0., 5.49450563e-003, 8.24175868e-003, 0., 0., 0., 0.,
          0., 0., 0., 0., 1.01648353e-001, 0., 5.76923080e-002, 0., 0.,
          0., 0., 0., 1.37362644e-001, 0., 0., 0., 0., 1.37362638e-002,
          0., 0., 0., 0., 0., 0., 1.92307699e-002, 5.76923080e-002, 0.,
          5.49450563e-003, 0., 0., 0., 0., 0., 0., 0., 0., 0., 0., 0.,
          0., 0., 0., 0., 0., 0., 0., 0., 0., 0., 0., 0., 0., 0., 0., 0.,
          0., 0., 0., 1.92307699e-002, 0., 0., 0., 0., 0., 0., 0., 0.,
          0., 0., 0., 0., 0., 0., 0., 0., 0., 0., 0., 0., 0., 0., 0., 0.,
          2.19780225e-002, 0., 0., 0., 0., 0., 0., 0., 0., 0., 0., 0.,
          0., 0., 0., 0., 0., 0., 0., 0., 1.09890113e-002, 0., 0.,
          2.74725282e-003, 0., 0., 0., 0., 0., 0., 0., 0., 0., 0., 0.,
          0., 0., 0., 0., 0., 0., 0., 0., 0., 0., 0., 0., 0., 0., 0., 0.,
          0., 0., 0., 0., 0., 0., 0., 0., 0., 0., 0., 0., 0., 0., 0., 0.,
          0., 0., 0., 0., 0., 0., 0., 0., 0., 0., 0., 0., 0., 0., 0., 0.,
          0., 0., 0., 0., 0., 0., 0., 0., 0., 0., 0., 0., 0., 0., 0., 0.,
          0., 0., 0., 0., 0., 0., 0., 0., 0., 0., 0., 0., 0., 0., 0., 0.,
          0., 0., 0., 0., 0., 0., 0., 0., 0., 0., 0., 0., 0., 0., 0., 0.,
          0., 0., 0., 0., 0., 0., 0., 0., 0., 0., 0., 0., 0., 0., 0., 0.,
          0., 0., 0., 0., 0., 0., 0., 0., 0., 0., 0., 0., 0., 0., 0., 0.,
          0., 0., 0., 0., 0., 0., 0., 0., 0., 0., 0., 2.74725277e-002,
          0., 0., 0., 0., 0., 0., 0., 0., 0., 0., 2.74725282e-003, 0.,
          0., 0., 0., 0., 0., 0., 2.74725282e-003, 0., 0., 0., 0., 0.,
          0., 0., 1.37362638e-002, 0., 0., 0., 0., 0., 0.,
          1.37362638e-002, 0., 0., 2.74725282e-003, 0., 0., 0., 0., 0.,
          0., 0., 0., 0., 0., 0., 0., 0., 0., 0., 0., 0., 0., 0., 0., 0.,
          0., 0., 1.09890113e-002, 0., 0., 0., 0., 0., 0., 0., 0., 0.,
          0., 8.24175868e-003, 4.12087925e-002, 0., 0., 0., 0., 0., 0.,
          0., 0., 0., 0., 0., 0., 0., 0., 1.09890113e-002, 0., 0., 0.,
          0., 0., 0., 0., 0., 0., 0., 0., 0., 0., 0., 0., 0., 0., 0., 0.,
          0., 0., 0., 0., 0., 0., 0., 0., 0., 0., 0., 0., 0., 0., 0., 0.,
          0., 0., 0., 0., 0., 0., 0., 0., 0., 0., 0., 0., 0., 0., 0.,
          1.92307699e-002, 0., 0., 0., 0., 0., 0., 0., 0., 0., 0.,
          1.64835174e-002, 0., 0., 0., 0., 0., 0., 0., 0., 0., 0., 0.,
          0., 0., 0., 0., 0., 0., 0., 0., 0., 0., 0., 0.,
          6.59340695e-002, 0., 9.89011005e-002, 0., 0., 0., 0., 0., 0.,
          0., 0., 0., 0., 0., 0., 0., 0., 4.12087925e-002, 0., 0., 0.,
          0., 0., 0., 0., 0., 0., 0., 0., 0., 0., 0., 0., 0., 0., 0.,
          2.47252751e-002, 0., 0., 0., 0., 1.37362638e-002, 0., 0., 0.,
          0., 0., 0., 0., 0., 0., 0., 0., 0., 0., 0., 0., 0., 0., 0., 0.,
          0., 0., 0., 0., 0., 0., 0., 0., 0., 0., 0., 0., 0., 0., 0., 0.,
          0., 0., 0., 0., 0., 0., 0., 0., 0., 0., 0., 0., 0., 0., 0., 0.,
          0., 0., 0., 0., 0., 0., 0., 1.37362638e-002, 0., 0., 0., 0.,
          0., 0., 0., 0., 0., 0., 0., 0., 0., 7.41758272e-002, 0., 0.,
          0., 0., 0., 0., 0., 0., 0., 0., 0., 0., 0., 0., 0., 0.,
          3.57142873e-002, 0., 0., 0., 0., 0., 0., 0., 0., 0., 0., 0.,
          0. ]
      - [ 0., 0., 0., 5.52486209e-003, 0., 2.76243105e-003, 0., 0., 0.,
          0., 0., 2.76243105e-003, 0., 0., 2.76243105e-003,
          1.10497242e-002, 0., 0., 2.76243105e-003, 0., 0., 0.,
          1.38121555e-002, 2.76243105e-003, 0., 2.76243105e-003, 0.,
          2.76243105e-003, 0., 0., 2.76243105e-003, 0., 0.,
          5.52486209e-003, 0., 0., 2.76243105e-003, 0., 1.10497242e-002,
          0., 0., 0., 0., 2.76243105e-003, 0., 1.10497242e-002, 0., 0.,
          0., 0., 0., 2.76243105e-003, 0., 5.52486209e-003,
          2.76243105e-003, 0., 0., 0., 1.38121555e-002, 0.,
          2.76243105e-003, 0., 0., 1.10497242e-002, 0., 0., 0., 0.,
          2.76243105e-003, 0., 0., 0., 5.52486209e-003, 0., 0., 0.,
          2.76243105e-003, 0., 1.10497242e-002, 0., 0., 0., 0., 0.,
          2.76243105e-003, 2.76243105e-003, 0., 0., 0., 0., 0.,
          5.52486209e-003, 0., 0., 0., 0., 2.48618796e-002,
          2.76243105e-003, 0., 2.76243105e-003, 2.76243105e-003,
          2.76243105e-003, 2.76243105e-003, 0., 0., 0., 2.76243105e-003,
          0., 0., 0., 2.76243105e-003, 0., 2.76243105e-003, 0., 0., 0.,
          0., 2.76243105e-003, 0., 0., 0., 0., 0., 2.76243105e-003, 0.,
          0., 0., 0., 0., 0., 0., 0., 2.76243105e-003, 0., 0., 0.,
          2.76243105e-003, 0., 0., 0., 2.76243105e-003, 2.76243105e-003,
          0., 0., 2.20994484e-002, 5.52486209e-003, 0., 0., 0.,
          2.76243105e-003, 0., 0., 0., 2.76243105e-003, 5.52486209e-003,
          2.48618796e-002, 0., 2.76243105e-003, 0., 0., 0.,
          8.28729291e-003, 0., 2.76243105e-003, 2.76243105e-003, 0.,
          2.76243105e-003, 5.52486209e-003, 0., 0., 5.52486209e-003,
          1.10497242e-002, 2.76243105e-003, 0., 0., 0., 0.,
          2.76243105e-003, 2.76243105e-003, 0., 2.76243105e-003,
          5.52486209e-003, 0., 0., 2.76243105e-003, 0., 0., 0.,
          2.76243105e-003, 2.76243105e-003, 2.76243105e-003, 0., 0.,
          2.76243105e-003, 0., 2.76243105e-003, 0., 2.76243105e-003, 0.,
          0., 0., 0., 0., 0., 8.28729291e-003, 2.76243105e-003,
          2.76243105e-003, 0., 5.52486209e-003, 0., 0., 0.,
          2.76243105e-003, 0., 5.52486209e-003, 0., 1.93370171e-002,
          2.76243105e-003, 5.52486209e-003, 5.52486209e-003, 0.,
          2.76243105e-003, 0., 0., 0., 0., 0., 5.52486209e-003, 0., 0.,
          2.76243105e-003, 0., 0., 0., 0., 0., 0., 2.76243105e-003, 0.,
          2.76243105e-003, 0., 0., 2.76243105e-003, 0., 5.52486209e-003,
          2.76243105e-003, 0., 0., 2.76243105e-003, 8.28729291e-003, 0.,
          0., 0., 2.76243105e-003, 0., 1.10497242e-002, 0., 0., 0., 0.,
          0., 0., 0., 5.52486209e-003, 0., 2.76243105e-003, 0., 0., 0.,
          2.76243105e-003, 0., 1.38121555e-002, 0., 0., 0., 0., 0., 0.,
          0., 0., 2.76243105e-003, 5.52486209e-003, 0., 2.76243105e-003,
          1.65745858e-002, 0., 8.28729291e-003, 0., 0., 2.76243105e-003,
          0., 0., 0., 0., 0., 2.76243105e-003, 0., 0., 0., 0., 0., 0.,
          2.76243105e-003, 8.28729291e-003, 2.76243105e-003, 0.,
          2.76243105e-003, 0., 0., 0., 0., 2.76243105e-003, 0.,
          5.52486209e-003, 0., 2.76243105e-003, 0., 0., 0., 0.,
          2.76243105e-003, 0., 0., 2.76243105e-003, 2.76243105e-003,
          2.76243105e-003, 2.76243105e-003, 2.76243105e-003, 0., 0., 0.,
          0., 0., 0., 0., 8.28729291e-003, 0., 2.76243105e-003, 0., 0.,
          0., 0., 0., 0., 2.76243105e-003, 0., 0., 0., 0., 0., 0., 0.,
          0., 0., 0., 0., 0., 0., 5.52486209e-003, 2.76243105e-003,
          1.38121555e-002, 1.10497242e-002, 0., 0., 5.52486209e-003,
          5.52486209e-003, 2.76243105e-003, 0., 3.59116048e-002, 0., 0.,
          0., 0., 0., 8.28729291e-003, 0., 0., 0., 2.76243105e-003, 0.,
          0., 0., 0., 0., 5.52486209e-003, 0., 0., 0., 5.52486209e-003,
          0., 2.76243105e-003, 0., 0., 2.76243105e-003, 0., 0.,
          2.76243105e-003, 8.28729291e-003, 0., 2.76243105e-003, 0., 0.,
          0., 0., 0., 0., 0., 0., 0., 5.52486209e-003, 0., 0., 0.,
          2.76243105e-003, 0., 0., 0., 2.76243105e-003, 2.76243105e-003,
          0., 0., 0., 0., 2.76243105e-003, 2.76243105e-003,
          2.76243105e-003, 5.52486209e-003, 8.28729291e-003,
          5.52486209e-003, 2.76243105e-003, 0., 0., 0., 5.52486209e-003,
          0., 0., 2.76243105e-003, 0., 0., 0., 2.76243105e-003,
          1.38121555e-002, 0., 0., 0., 0., 2.76243105e-003,
          2.76243105e-003, 0., 1.10497242e-002, 2.76243105e-003,
          5.52486209e-003, 5.52486209e-003, 0., 2.76243105e-003,
          8.28729291e-003, 0., 2.76243105e-003, 0., 0., 0., 0., 0.,
          2.76243105e-003, 0., 0., 2.76243105e-003, 5.52486209e-003,
          2.76243105e-003, 2.76243105e-003, 2.76243105e-003,
          2.76243105e-003, 0., 0., 0., 2.76243105e-003, 0., 0., 0., 0.,
          2.76243105e-003, 0., 0., 0., 0., 0., 0., 0., 0., 0.,
          2.76243105e-003, 0., 0., 0., 0., 8.28729291e-003, 0., 0., 0.,
          0., 0., 0., 0., 5.52486209e-003, 5.52486209e-003, 0., 0., 0.,
          0., 0., 0., 0., 1.10497242e-002, 0., 0., 5.52486209e-003, 0.,
          0., 0., 0., 0., 0., 0., 5.52486209e-003, 2.76243105e-003, 0.,
          0., 0., 2.76243105e-003, 0., 5.52486209e-003, 0., 0., 0.,
          5.52486209e-003, 0., 0., 0., 0., 0., 0., 0., 0., 0.,
          2.76243105e-003, 0., 5.52486209e-003, 0., 0., 0.,
          2.76243105e-003, 0., 0., 0., 0., 5.52486209e-003, 0., 0., 0.,
          0., 0., 2.76243105e-003, 0., 0., 0., 0., 0., 0.,
          2.76243105e-003, 5.52486209e-003, 0., 0., 0., 2.76243105e-003,
          2.76243105e-003, 0., 0., 8.28729291e-003, 5.52486209e-003, 0.,
          0., 0., 1.38121555e-002, 0., 0., 0., 0., 0., 0., 0., 0., 0.,
          0., 1.10497242e-002, 0., 0., 0., 0., 2.76243105e-003, 0. ]
      - [ 8.40336143e-004, 0., 0., 8.40336143e-004, 0., 0.,
          2.52100849e-003, 0., 1.68067229e-003, 0., 8.40336143e-004, 0.,
          8.40336143e-004, 1.68067229e-003, 0., 2.52100849e-003, 0.,
          3.36134457e-003, 8.40336143e-004, 0., 0., 1.68067229e-003,
          2.52100849e-003, 1.68067229e-003, 1.68067229e-003,
          2.52100849e-003, 0., 5.04201697e-003, 8.40336143e-004, 0., 0.,
          0., 8.40336143e-004, 8.40336143e-004, 0., 8.40336143e-004, 0.,
          0., 2.52100849e-003, 1.68067229e-003, 2.52100849e-003,
          3.36134457e-003, 0., 0., 1.68067229e-003, 8.40336143e-004,
          5.04201697e-003, 2.52100849e-003, 2.52100849e-003, 0., 0.,
          8.40336143e-004, 0., 0., 5.88235306e-003, 0., 0.,
          1.68067229e-003, 2.52100849e-003, 0., 3.36134457e-003, 0., 0.,
          0., 2.52100849e-003, 5.04201697e-003, 0., 0., 0.,
          8.40336143e-004, 8.40336143e-004, 1.68067229e-003,
          3.36134457e-003, 1.68067229e-003, 0., 8.40336143e-004,
          8.40336143e-004, 0., 5.88235306e-003, 0., 2.52100849e-003, 0.,
          4.20168089e-003, 0., 2.52100849e-003, 8.40336143e-004, 0., 0.,
          3.36134457e-003, 8.40336143e-004, 1.68067229e-003,
          8.40336143e-004, 3.36134457e-003, 8.40336143e-004,
          8.40336143e-004, 0., 1.68067229e-003, 0., 0., 0.,
          8.40336143e-004, 8.40336143e-004, 0., 2.52100849e-003,
          8.40336143e-004, 5.04201697e-003, 0., 8.40336177e-003, 0.,
          8.40336143e-004, 8.40336143e-004, 0., 8.40336143e-004,
          8.40336143e-004, 8.40336143e-004, 5.88235306e-003,
          2.52100849e-003, 8.40336143e-004, 5.88235306e-003, 0.,
          2.52100849e-003, 1.68067229e-003, 0., 1.68067229e-003, 0., 0.,
          8.40336143e-004, 8.40336143e-004, 0., 0., 1.68067229e-003, 0.,
          0., 1.68067229e-003, 0., 0., 6.72268914e-003, 8.40336143e-004,
          0., 8.40336143e-004, 0., 1.68067229e-003, 8.40336143e-004,
          2.52100849e-003, 5.88235306e-003, 4.20168089e-003,
          8.40336143e-004, 0., 1.68067229e-003, 8.40336143e-004,
          2.52100849e-003, 1.00840339e-002, 8.40336143e-004, 0.,
          8.40336143e-004, 0., 2.52100849e-003, 3.36134457e-003, 0.,
          8.40336143e-004, 1.68067229e-003, 2.52100849e-003,
          6.72268914e-003, 2.52100849e-003, 1.68067229e-003,
          1.68067229e-003, 8.40336143e-004, 1.68067229e-003,
          8.40336143e-004, 8.40336143e-004, 8.40336143e-004,
          1.68067235e-002, 1.68067229e-003, 3.36134457e-003, 0.,
          8.40336143e-004, 2.52100849e-003, 2.52100849e-003, 0.,
          8.40336143e-004, 0., 0., 5.88235306e-003, 8.40336143e-004,
          1.68067229e-003, 8.40336143e-004, 5.88235306e-003,
          3.36134457e-003, 4.20168089e-003, 3.36134457e-003,
          8.40336143e-004, 2.52100849e-003, 1.09243700e-002,
          5.88235306e-003, 3.36134457e-003, 0., 0., 2.52100849e-003,
          1.68067229e-003, 8.40336143e-004, 2.52100849e-003,
          2.52100849e-003, 0., 1.68067229e-003, 2.52100849e-003,
          4.20168089e-003, 2.52100849e-003, 3.36134457e-003, 0., 0.,
          8.40336143e-004, 1.68067229e-003, 0., 2.52100849e-003,
          8.40336143e-004, 1.68067229e-003, 5.04201697e-003,
          7.56302522e-003, 1.68067229e-003, 0., 8.40336143e-004,
          3.36134457e-003, 0., 0., 2.52100849e-003, 1.17647061e-002, 0.,
          0., 0., 4.20168089e-003, 0., 0., 0., 2.52100849e-003,
          1.68067229e-003, 0., 0., 0., 8.40336143e-004, 5.04201697e-003,
          8.40336143e-004, 2.52100849e-003, 2.52100849e-003, 0.,
          1.68067229e-003, 8.40336143e-004, 4.20168089e-003,
          8.40336143e-004, 8.40336143e-004, 0., 2.52100849e-003, 0.,
          1.68067229e-003, 0., 8.40336143e-004, 0., 2.52100849e-003,
          8.40336143e-004, 0., 2.52100849e-003, 0., 1.68067229e-003,
          2.52100849e-003, 2.52100849e-003, 0., 1.68067229e-003, 0.,
          5.04201697e-003, 8.40336143e-004, 0., 2.52100849e-003, 0.,
          8.40336143e-004, 5.88235306e-003, 8.40336143e-004,
          8.40336143e-004, 8.40336143e-004, 0., 8.40336143e-004,
          2.52100849e-003, 3.36134457e-003, 0., 0., 0., 8.40336143e-004,
          8.40336143e-004, 5.04201697e-003, 1.68067229e-003, 0.,
          1.68067229e-003, 2.52100849e-003, 0., 3.36134457e-003,
          8.40336143e-004, 8.40336143e-004, 2.52100849e-003, 0.,
          5.04201697e-003, 1.68067229e-003, 1.68067229e-003,
          1.68067229e-003, 0., 0., 8.40336143e-004, 3.36134457e-003, 0.,
          0., 0., 2.52100849e-003, 0., 0., 5.04201697e-003,
          1.68067229e-003, 0., 0., 1.68067229e-003, 0., 8.40336143e-004,
          4.20168089e-003, 0., 0., 8.40336143e-004, 3.86554636e-002,
          8.40336143e-004, 6.72268914e-003, 2.52100849e-003, 0.,
          2.52100849e-003, 0., 2.52100849e-003, 3.36134457e-003,
          8.40336143e-004, 8.40336143e-004, 5.04201697e-003,
          8.40336143e-004, 3.36134457e-003, 0., 3.36134457e-003,
          8.40336143e-004, 0., 1.68067229e-003, 4.20168089e-003, 0., 0.,
          1.68067229e-003, 3.19327749e-002, 8.40336143e-004,
          8.40336143e-004, 0., 0., 8.40336143e-004, 1.26050422e-002,
          8.40336143e-004, 8.40336143e-004, 0., 0., 1.68067229e-003, 0.,
          8.40336143e-004, 1.68067229e-003, 2.52100849e-003, 0., 0.,
          3.36134457e-003, 0., 0., 1.68067229e-003, 5.88235306e-003,
          1.26050422e-002, 8.40336143e-004, 0., 3.36134457e-003,
          3.36134457e-003, 8.40336143e-004, 8.40336143e-004, 0.,
          1.68067229e-003, 4.20168089e-003, 0., 1.68067229e-003,
          1.68067229e-003, 0., 0., 1.68067229e-003, 2.52100849e-003, 0.,
          2.52100849e-003, 0., 3.36134457e-003, 5.88235306e-003,
          5.88235306e-003, 8.40336143e-004, 0., 8.40336143e-004, 0.,
          2.52100849e-003, 0., 8.40336143e-004, 2.52100849e-003,
          1.68067229e-003, 1.68067229e-003, 8.40336143e-004,
          1.68067229e-003, 1.68067229e-003, 1.68067229e-003, 0.,
          5.04201697e-003, 1.68067229e-003, 8.40336143e-004, 0.,
          8.40336143e-004, 0., 8.40336143e-004, 4.20168089e-003,
          8.40336143e-004, 2.52100849e-003, 0., 0., 8.40336143e-004, 0.,
          1.68067229e-003, 0., 0., 0., 8.40336143e-004, 8.40336143e-004,
          0., 8.40336143e-004, 4.20168089e-003, 0., 8.40336143e-004,
          2.52100849e-003, 0., 0., 7.56302522e-003, 1.68067229e-003,
          1.68067229e-003, 4.20168089e-003, 0., 0., 0., 8.40336143e-004,
          5.04201697e-003, 0., 0., 8.40336143e-004, 8.40336143e-004, 0.,
          0., 0., 8.40336143e-004, 0., 0., 8.40336143e-004, 0.,
          8.40336143e-004, 0., 8.40336143e-004, 0., 8.40336143e-004, 0.,
          1.68067229e-003, 3.36134457e-003, 2.52100849e-003,
          5.04201697e-003, 8.40336143e-004, 2.52100849e-003,
          6.72268914e-003, 0., 0., 4.20168089e-003, 8.40336143e-004, 0.,
          0., 0., 5.04201697e-003, 0., 0., 0., 0., 0., 2.52100849e-003,
          1.68067229e-003, 0., 1.00840339e-002, 8.40336143e-004,
          1.68067229e-003, 2.52100849e-003, 0., 4.20168089e-003, 0.,
          4.20168089e-003, 0., 5.04201697e-003, 1.68067229e-003,
          1.68067229e-003, 5.04201697e-003, 0., 8.40336143e-004,
          1.68067229e-003, 4.20168089e-003, 8.40336143e-004,
          8.40336143e-004, 8.40336143e-004, 0., 1.68067229e-003,
          8.40336143e-004, 0., 8.40336143e-004, 8.40336143e-004, 0.,
          7.56302522e-003, 4.20168089e-003, 0., 8.40336143e-004,
          5.88235306e-003, 0., 0., 4.20168089e-003, 2.52100849e-003, 0.,
          0., 3.36134457e-003, 8.40336143e-004, 8.40336143e-004, 0.,
          6.72268914e-003, 2.52100849e-003, 8.40336143e-004,
          8.40336143e-004, 4.20168089e-003, 8.40336143e-004, 0.,
          2.52100849e-003, 2.52100849e-003, 1.68067229e-003, 0.,
          1.68067229e-003, 8.40336143e-004, 0., 8.40336143e-004,
          5.04201697e-003, 3.36134457e-003, 4.20168089e-003, 0.,
          8.40336143e-004, 0., 8.40336143e-004, 8.40336143e-004,
          1.68067229e-003, 8.40336143e-004, 3.36134457e-003,
          8.40336143e-004, 1.68067229e-003, 0., 0., 0., 0., 0., 0., 0.,
          0., 1.68067229e-003, 8.40336143e-004, 0., 5.04201697e-003,
          8.40336143e-004, 3.36134457e-003, 0., 0., 0., 0.,
          5.88235306e-003, 8.40336143e-004, 8.40336143e-004, 0.,
          8.40336143e-004, 1.68067229e-003, 0., 0., 0., 0.,
          8.40336143e-004, 5.04201697e-003, 0., 2.52100849e-003,
          1.68067229e-003, 0., 8.40336143e-004, 3.36134457e-003,
          1.68067229e-003, 0., 3.36134457e-003, 8.40336177e-003, 0., 0.,
          0., 5.88235306e-003, 1.68067229e-003, 0. ]
      - [ 0., 1.08459871e-003, 0., 4.33839485e-003, 0., 0.,
          2.16919743e-003, 9.76138841e-003, 0., 0., 1.08459871e-003,
          1.08459871e-003, 0., 1.08459871e-003, 7.59219099e-003, 0.,
          1.08459871e-003, 0., 1.08459871e-003, 0., 0., 3.25379614e-003,
          0., 3.25379614e-003, 3.25379614e-003, 1.08459871e-003, 0., 0.,
          1.08459871e-003, 0., 3.25379614e-003, 0., 0., 2.16919743e-003,
          3.25379614e-003, 0., 4.33839485e-003, 0., 0., 3.25379614e-003,
          2.16919743e-003, 1.08459871e-003, 0., 0., 0., 1.08459871e-003,
          1.08459871e-003, 2.16919743e-003, 3.25379614e-003,
          1.08459871e-003, 0., 5.42299356e-003, 0., 0., 1.08459871e-003,
          6.50759228e-003, 4.33839485e-003, 6.50759228e-003,
          2.16919743e-003, 0., 6.50759228e-003, 4.33839485e-003,
          1.08459871e-003, 1.08459871e-003, 1.08459871e-003,
          2.16919743e-003, 4.33839485e-003, 1.08459871e-003,
          4.33839485e-003, 2.16919743e-003, 0., 0., 1.08459871e-003,
          7.59219099e-003, 0., 0., 1.08459871e-003, 5.42299356e-003,
          6.50759228e-003, 0., 1.08459871e-003, 0., 1.08459871e-003, 0.,
          2.16919743e-003, 4.33839485e-003, 0., 2.16919743e-003,
          4.33839485e-003, 0., 7.59219099e-003, 3.25379614e-003,
          4.33839485e-003, 0., 1.08459871e-003, 5.42299356e-003,
          5.42299356e-003, 4.33839485e-003, 3.25379614e-003, 0., 0., 0.,
          3.25379614e-003, 2.16919743e-003, 0., 0., 0., 0., 0., 0.,
          5.42299356e-003, 0., 6.50759228e-003, 1.08459871e-003, 0.,
          6.50759228e-003, 1.08459871e-003, 4.33839485e-003, 0.,
          2.16919743e-003, 1.08459871e-003, 2.16919743e-003,
          2.16919743e-003, 1.08459871e-003, 1.08459871e-003,
          2.16919743e-003, 1.08459871e-003, 2.16919743e-003,
          1.08459871e-003, 3.25379614e-003, 2.16919743e-003, 0.,
          1.08459871e-003, 3.25379614e-003, 1.08459871e-003,
          1.08459871e-003, 0., 2.16919743e-003, 1.08459871e-003,
          2.16919743e-003, 1.08459871e-003, 0., 1.08459871e-003,
          1.08459871e-003, 3.25379614e-003, 5.42299356e-003, 0., 0., 0.,
          0., 0., 0., 1.08459871e-003, 1.08459871e-003, 4.33839485e-003,
          4.33839485e-003, 3.25379614e-003, 4.33839485e-003,
          4.33839485e-003, 0., 1.08459871e-003, 1.08459871e-003, 0., 0.,
          1.08459871e-003, 7.59219099e-003, 1.08459871e-003,
          1.08459871e-003, 3.25379614e-003, 0., 1.08459871e-003, 0.,
          8.67678970e-003, 0., 1.08459871e-002, 1.08459871e-002,
          2.16919743e-003, 1.08459871e-003, 0., 0., 2.16919743e-003, 0.,
          0., 0., 0., 1.08459871e-003, 0., 5.42299356e-003,
          3.25379614e-003, 0., 3.25379614e-003, 3.25379614e-003,
          1.08459871e-003, 1.08459871e-003, 3.25379614e-003,
          1.08459871e-003, 2.16919743e-003, 0., 0., 1.08459871e-003,
          1.08459871e-003, 0., 0., 1.08459871e-003, 2.16919743e-003, 0.,
          0., 1.08459871e-003, 1.08459871e-003, 0., 0., 1.08459871e-003,
          0., 5.42299356e-003, 2.16919743e-003, 1.08459871e-003,
          3.25379614e-003, 1.08459871e-003, 3.25379614e-003,
          2.16919743e-003, 0., 5.42299356e-003, 0., 2.16919743e-003, 0.,
          1.08459871e-003, 0., 2.16919743e-003, 1.08459871e-003, 0., 0.,
          0., 2.16919743e-003, 0., 0., 1.08459871e-003, 0., 0., 0.,
          1.08459871e-003, 0., 0., 0., 0., 0., 0., 4.33839485e-003,
          2.16919743e-003, 0., 1.08459871e-003, 4.33839485e-003,
          2.16919743e-003, 2.16919743e-003, 0., 0., 3.25379614e-003, 0.,
          0., 0., 0., 2.16919743e-003, 2.16919743e-003, 1.08459871e-003,
          1.08459871e-003, 0., 0., 0., 1.08459871e-003, 0.,
          2.16919743e-003, 2.16919743e-003, 1.08459871e-003,
          2.16919743e-003, 0., 0., 3.25379614e-003, 2.16919743e-003,
          1.08459871e-003, 6.50759228e-003, 2.16919743e-003, 0.,
          4.33839485e-003, 0., 0., 1.08459871e-003, 0., 0.,
          2.16919743e-003, 3.25379614e-003, 0., 1.08459871e-003, 0., 0.,
          0., 1.08459871e-003, 0., 0., 0., 0., 2.16919743e-003,
          1.08459871e-003, 0., 0., 0., 1.08459871e-003, 3.25379614e-003,
          0., 0., 4.33839485e-003, 4.33839485e-003, 5.42299356e-003,
          1.08459871e-003, 0., 3.25379614e-003, 1.19305858e-002,
          1.08459871e-003, 0., 1.08459871e-003, 0., 0., 1.08459871e-003,
          2.16919743e-003, 0., 1.08459871e-003, 0., 5.42299356e-003,
          3.25379614e-003, 7.59219099e-003, 1.08459871e-003,
          5.42299356e-003, 1.08459871e-003, 0., 0., 2.16919743e-003,
          2.16919743e-003, 0., 3.25379614e-003, 0., 5.42299356e-003, 0.,
          3.25379614e-003, 1.08459871e-003, 0., 0., 1.08459871e-003, 0.,
          1.08459871e-003, 3.25379614e-003, 0., 0., 0., 2.16919743e-003,
          1.08459871e-003, 1.08459871e-003, 0., 0., 3.25379614e-003,
          2.16919743e-003, 1.08459871e-003, 2.16919743e-003,
          1.08459871e-003, 1.08459871e-003, 1.84381790e-002,
          2.16919743e-003, 0., 0., 1.08459871e-003, 0., 7.59219099e-003,
          0., 0., 0., 1.08459871e-003, 0., 2.16919743e-003, 0., 0., 0.,
          1.08459871e-003, 1.08459871e-003, 7.59219099e-003,
          4.33839485e-003, 0., 1.08459871e-003, 1.08459871e-003,
          4.33839485e-003, 0., 2.16919743e-003, 2.16919743e-003,
          1.08459871e-003, 2.16919743e-003, 0., 6.50759228e-003, 0.,
          1.08459871e-003, 2.16919743e-003, 0., 0., 3.25379614e-003,
          1.08459871e-003, 1.08459871e-003, 0., 1.08459871e-003,
          1.08459871e-003, 2.16919743e-003, 3.25379614e-003, 0.,
          4.33839485e-003, 1.08459871e-003, 0., 1.08459871e-003, 0.,
          1.08459871e-003, 0., 1.08459871e-003, 1.08459871e-003,
          1.08459871e-003, 1.08459871e-003, 0., 3.25379614e-003, 0., 0.,
          9.76138841e-003, 8.67678970e-003, 1.08459871e-003, 0.,
          7.59219099e-003, 2.16919743e-003, 2.16919743e-003, 0.,
          6.50759228e-003, 0., 0., 2.16919743e-003, 0., 0.,
          1.08459871e-003, 2.16919743e-003, 3.25379614e-003,
          1.08459871e-003, 0., 1.08459871e-003, 3.25379614e-003,
          1.08459871e-003, 0., 1.08459871e-003, 0., 2.16919743e-003,
          1.08459871e-003, 1.08459871e-003, 1.08459871e-003, 0., 0.,
          9.76138841e-003, 0., 0., 0., 0., 0., 0., 0., 1.08459871e-003,
          0., 0., 0., 2.16919743e-003, 3.25379614e-003, 0.,
          3.25379614e-003, 0., 0., 0., 0., 0., 8.67678970e-003,
          2.16919743e-003, 2.16919743e-003, 2.16919743e-003, 0.,
          1.08459871e-003, 1.08459871e-002, 2.16919743e-003, 0.,
          3.25379614e-003, 2.16919743e-003, 2.16919743e-003,
          2.16919743e-003, 3.25379614e-003, 1.08459871e-003,
          1.08459871e-003, 8.67678970e-003, 1.08459871e-003, 0.,
          2.16919743e-003, 0., 1.08459871e-003, 1.08459871e-003, 0.,
          3.25379614e-003, 2.16919743e-003, 1.08459871e-003, 0.,
          4.33839485e-003, 8.67678970e-003, 1.08459871e-003, 0.,
          4.33839485e-003, 0., 2.16919743e-003, 2.16919743e-003,
          1.08459871e-002, 5.42299356e-003, 2.16919743e-003,
          3.25379614e-003, 1.08459871e-003, 3.25379614e-003,
          4.33839485e-003, 0., 1.08459871e-003, 0., 0., 4.33839485e-003,
          2.16919743e-003, 0., 3.25379614e-003, 0., 0., 2.16919743e-003,
          0., 3.25379614e-003, 0., 0., 1.08459871e-003, 0.,
          1.08459871e-003, 0., 0., 2.16919743e-003, 0., 3.25379614e-003,
          1.08459871e-003, 1.08459871e-003, 1.08459871e-003, 0.,
          1.08459871e-003, 0., 4.33839485e-003, 3.25379614e-003,
          4.33839485e-003, 5.42299356e-003, 0., 0., 1.19305858e-002,
          2.16919743e-003, 0., 0., 0., 2.16919743e-003, 4.33839485e-003,
          0., 3.25379614e-003, 2.16919743e-003, 1.08459871e-003,
          4.33839485e-003, 0., 0., 0., 1.08459871e-003, 0., 0., 0., 0.,
          1.08459871e-003, 0., 5.42299356e-003, 1.08459871e-003,
          3.25379614e-003, 1.08459871e-003, 0., 1.08459871e-003,
          7.59219099e-003, 0., 0., 0., 2.16919743e-003, 0., 0., 0., 0.,
          3.25379614e-003, 1.08459871e-003, 0., 1.08459871e-003,
          2.16919743e-003, 1.08459871e-003, 4.33839485e-003,
          1.08459871e-003, 1.08459871e-003, 1.08459871e-003,
          1.08459871e-003 ]
      - [ 6.68896316e-003, 0., 0., 0., 0., 0., 1.67224079e-003, 0., 0.,
          0., 0., 1.67224079e-003, 0., 0., 5.01672225e-003,
          5.01672225e-003, 1.67224079e-003, 1.67224079e-003,
          3.34448158e-003, 0., 0., 0., 1.67224079e-003, 3.34448158e-003,
          1.67224079e-003, 0., 0., 0., 0., 0., 3.34448158e-003, 0., 0.,
          1.67224079e-003, 0., 3.34448158e-003, 3.34448158e-003, 0., 0.,
          1.67224079e-003, 0., 1.67224079e-003, 0., 0., 1.67224079e-003,
          1.67224079e-003, 0., 0., 0., 0., 0., 1.67224079e-003, 0.,
          6.68896316e-003, 0., 0., 0., 6.68896316e-003, 0., 0.,
          3.34448158e-003, 0., 0., 1.67224079e-003, 1.67224079e-003,
          6.68896316e-003, 3.34448158e-003, 0., 0., 0., 0., 0., 0.,
          3.34448158e-003, 3.34448158e-003, 1.67224079e-003, 0., 0.,
          5.01672225e-003, 0., 0., 0., 0., 0., 0., 1.67224079e-003,
          1.67224079e-003, 5.01672225e-003, 0., 0., 0., 0., 0., 0., 0.,
          1.67224079e-003, 3.34448158e-003, 0., 1.67224079e-003, 0.,
          1.67224079e-003, 0., 0., 0., 0., 1.67224079e-003, 0., 0., 0.,
          0., 3.34448158e-003, 0., 0., 0., 0., 0., 0., 1.67224079e-003,
          0., 0., 0., 0., 3.34448158e-003, 1.67224079e-003, 0., 0., 0.,
          0., 0., 0., 0., 0., 0., 1.67224079e-003, 0., 0.,
          1.67224079e-003, 0., 0., 1.67224079e-003, 0., 1.67224079e-003,
          1.67224079e-003, 0., 3.34448158e-003, 3.34448158e-003, 0.,
          3.34448158e-003, 1.67224079e-003, 1.67224079e-003, 0., 0., 0.,
          0., 0., 1.67224079e-003, 1.67224079e-003, 0., 0., 0., 0., 0.,
          6.68896316e-003, 1.67224079e-003, 1.67224079e-003, 0., 0., 0.,
          6.68896316e-003, 0., 6.68896316e-003, 1.00334445e-002, 0., 0.,
          0., 0., 0., 0., 0., 1.67224079e-003, 0., 2.00668890e-002, 0.,
          0., 1.67224079e-003, 0., 0., 1.83946490e-002, 0., 0., 0., 0.,
          1.67224079e-003, 3.34448158e-003, 1.67224079e-003,
          1.67224079e-003, 0., 5.01672225e-003, 0., 1.67224079e-003, 0.,
          1.67224079e-003, 0., 0., 1.67224072e-002, 0., 0.,
          3.34448158e-003, 0., 0., 0., 0., 5.01672225e-003, 0.,
          1.67224079e-003, 3.34448158e-003, 8.36120360e-003, 0., 0.,
          3.34448158e-003, 0., 1.67224079e-003, 1.67224079e-003, 0.,
          1.67224079e-003, 0., 0., 1.67224079e-003, 0., 3.34448158e-003,
          1.67224079e-003, 3.34448158e-003, 0., 0., 0., 1.67224079e-003,
          3.34448158e-003, 1.67224079e-003, 3.34448158e-003, 0.,
          1.67224079e-003, 5.01672225e-003, 0., 0., 0., 6.68896316e-003,
          0., 0., 8.36120360e-003, 1.67224079e-003, 1.67224079e-003,
          3.34448158e-003, 1.67224079e-003, 0., 0., 8.36120360e-003,
          1.67224079e-003, 1.67224079e-003, 5.01672225e-003,
          3.34448158e-003, 0., 0., 0., 5.01672225e-003, 0., 0., 0.,
          1.67224079e-003, 5.01672225e-003, 0., 3.34448158e-003,
          6.68896316e-003, 0., 0., 1.67224079e-003, 0., 3.34448158e-003,
          0., 0., 0., 1.00334445e-002, 0., 0., 1.67224079e-003,
          5.01672225e-003, 3.34448158e-003, 1.67224079e-003, 0., 0., 0.,
          0., 0., 0., 0., 0., 3.34448158e-003, 0., 5.01672225e-003,
          1.67224079e-003, 0., 1.67224079e-003, 0., 0., 0.,
          1.67224079e-003, 0., 1.67224079e-003, 0., 1.67224079e-003, 0.,
          5.01672225e-003, 0., 3.34448158e-003, 3.34448158e-003, 0., 0.,
          0., 0., 1.67224079e-003, 0., 0., 0., 1.67224079e-003,
          1.50501672e-002, 3.34448158e-003, 0., 1.67224079e-003,
          5.01672225e-003, 1.67224079e-003, 5.01672225e-003,
          5.01672225e-003, 0., 0., 0., 5.01672225e-003, 1.00334445e-002,
          6.68896316e-003, 0., 1.67224079e-003, 0., 0., 3.34448158e-003,
          0., 0., 1.67224079e-003, 3.34448158e-003, 5.01672225e-003,
          1.67224079e-003, 0., 0., 0., 1.67224079e-003, 1.67224079e-003,
          1.67224079e-003, 0., 0., 0., 5.01672225e-003, 3.34448158e-003,
          6.68896316e-003, 1.67224079e-003, 0., 1.67224079e-003,
          3.34448158e-003, 0., 3.34448158e-003, 0., 0., 0., 0., 0.,
          3.34448158e-003, 0., 0., 1.67224079e-003, 1.67224079e-003,
          3.34448158e-003, 0., 0., 1.67224079e-003, 0., 1.67224079e-003,
          0., 0., 0., 1.67224079e-003, 0., 0., 6.68896316e-003, 0., 0.,
          1.67224079e-003, 0., 0., 0., 1.67224079e-003, 1.67224079e-003,
          3.34448158e-003, 0., 0., 1.67224079e-003, 0., 5.01672225e-003,
          0., 5.01672225e-003, 0., 0., 1.67224079e-003, 0., 0.,
          1.67224079e-003, 0., 0., 0., 4.01337780e-002, 4.34782617e-002,
          0., 0., 1.67224079e-003, 0., 0., 0., 0., 5.01672225e-003,
          1.67224079e-003, 0., 3.17725763e-002, 1.67224079e-003,
          3.34448158e-003, 0., 0., 0., 0., 1.67224079e-003, 0., 0.,
          1.67224079e-003, 1.67224072e-002, 0., 3.34448158e-003, 0.,
          3.34448158e-003, 0., 0., 0., 3.34448158e-003, 0., 0., 0.,
          3.34448158e-003, 0., 1.67224079e-003, 0., 3.34448158e-003,
          3.34448158e-003, 0., 0., 8.36120360e-003, 0., 1.67224079e-003,
          0., 0., 1.67224079e-003, 0., 1.67224079e-003, 0.,
          3.34448158e-003, 0., 0., 1.67224079e-003, 0., 0., 0., 0., 0.,
          3.34448158e-003, 0., 3.34448158e-003, 1.67224079e-003,
          1.67224079e-003, 6.68896316e-003, 0., 1.67224079e-003,
          1.67224079e-003, 0., 1.67224079e-003, 3.34448158e-003,
          3.34448158e-003, 1.67224079e-003, 1.67224079e-003,
          2.34113708e-002, 0., 0., 1.67224079e-003, 3.34448158e-003, 0.,
          0., 0., 1.67224079e-003, 0., 0., 0., 0., 8.36120360e-003, 0.,
          1.67224079e-003, 0., 1.67224079e-003, 0., 0., 0.,
          1.67224079e-003, 1.33779263e-002, 0., 0., 6.68896316e-003, 0.,
          0., 0., 8.36120360e-003, 0., 0., 1.67224079e-003,
          1.67224079e-003, 0., 0., 0., 0., 1.67224079e-003, 0., 0., 0.,
          1.67224079e-003, 0., 8.36120360e-003, 1.67224079e-003, 0.,
          5.01672225e-003, 0., 3.34448158e-003, 1.67224079e-003,
          6.68896316e-003, 0., 1.67224079e-003, 0., 5.01672225e-003, 0.,
          1.67224079e-003, 0., 0., 0., 0., 6.68896316e-003, 0.,
          3.34448158e-003, 0., 0., 1.67224079e-003, 3.34448158e-003,
          1.67224079e-003, 0., 8.36120360e-003, 1.67224079e-003,
          1.67224079e-003, 0., 0., 0., 0., 0., 1.67224079e-003, 0., 0.,
          0., 1.67224079e-003, 6.68896316e-003, 0., 5.01672225e-003,
          1.67224079e-003, 5.01672225e-003, 0., 0., 0., 1.00334445e-002,
          1.67224079e-003, 0., 0., 0., 0., 1.67224079e-003,
          1.67224079e-003, 1.67224079e-003, 1.67224079e-003, 0., 0., 0.,
          3.34448158e-003, 0., 0., 3.34448158e-003, 0. ]
      - [ 0., 1.45348837e-003, 3.63372080e-003, 0., 7.26744183e-004,
          3.63372080e-003, 3.63372080e-003, 5.08720940e-003,
          1.45348837e-003, 0., 2.18023267e-003, 2.90697673e-003,
          1.45348837e-003, 2.18023267e-003, 5.81395347e-003,
          2.18023267e-003, 7.26744183e-004, 0., 7.26744183e-004,
          7.26744183e-004, 7.26744183e-004, 0., 5.81395347e-003,
          2.18023267e-003, 7.26744183e-004, 7.26744183e-004, 0.,
          5.81395347e-003, 7.26744183e-004, 0., 2.18023267e-003,
          1.45348837e-003, 0., 7.26744183e-004, 7.26744183e-004, 0., 0.,
          0., 7.26744183e-004, 7.26744183e-004, 1.45348837e-003, 0.,
          7.26744183e-004, 0., 7.26744183e-004, 2.18023267e-003, 0., 0.,
          1.45348837e-003, 0., 7.26744183e-004, 5.81395347e-003,
          7.26744183e-004, 7.26744183e-004, 5.81395347e-003,
          1.45348837e-003, 4.36046533e-003, 7.26744183e-004,
          1.59883723e-002, 0., 2.18023267e-003, 2.90697673e-003,
          2.90697673e-003, 6.54069753e-003, 4.36046533e-003,
          2.90697673e-003, 2.90697673e-003, 1.45348837e-003, 0., 0.,
          2.18023267e-003, 0., 2.18023267e-003, 5.81395347e-003,
          5.08720940e-003, 7.26744183e-004, 1.45348837e-003,
          2.18023267e-003, 7.26744183e-004, 0., 1.45348837e-003,
          2.18023267e-003, 2.18023267e-003, 7.26744183e-004, 0.,
          1.45348837e-003, 7.26744183e-004, 7.26744183e-004, 0.,
          1.45348837e-003, 0., 2.18023267e-003, 0., 0., 7.26744183e-004,
          2.90697673e-003, 0., 7.26744183e-004, 0., 2.18023267e-003, 0.,
          7.26744183e-004, 2.90697673e-003, 0., 0., 0., 7.26744183e-004,
          7.26744160e-003, 4.36046533e-003, 0., 2.90697673e-003,
          7.26744183e-004, 0., 1.45348837e-003, 7.26744183e-004,
          7.26744183e-004, 7.26744183e-004, 9.44767427e-003,
          7.26744183e-004, 2.18023267e-003, 4.36046533e-003, 0.,
          7.26744183e-004, 1.45348837e-003, 0., 3.63372080e-003,
          4.36046533e-003, 0., 7.26744183e-004, 0., 0., 7.26744183e-004,
          7.26744183e-004, 3.63372080e-003, 7.26744183e-004,
          2.18023267e-003, 1.45348837e-003, 1.45348837e-003,
          7.26744183e-004, 5.08720940e-003, 1.45348837e-003,
          1.45348837e-003, 2.90697673e-003, 5.81395347e-003,
          1.45348837e-003, 7.26744183e-004, 0., 7.26744183e-004,
          2.90697673e-003, 0., 0., 3.63372080e-003, 1.45348837e-003,
          1.09011624e-002, 0., 7.99418613e-003, 5.08720940e-003, 0.,
          7.26744183e-004, 0., 3.63372080e-003, 5.81395347e-003,
          2.90697673e-003, 0., 0., 1.45348837e-003, 0., 0., 0., 0.,
          1.45348837e-003, 4.36046533e-003, 0., 1.45348837e-003,
          1.45348837e-003, 6.54069753e-003, 1.45348837e-003,
          2.18023267e-003, 0., 1.45348837e-003, 1.45348837e-003,
          7.26744183e-004, 7.26744183e-004, 1.45348837e-003,
          7.26744183e-004, 7.26744183e-004, 7.26744183e-004,
          7.26744183e-004, 4.36046533e-003, 7.26744183e-004,
          3.63372080e-003, 7.26744183e-004, 2.90697673e-003,
          3.63372080e-003, 0., 7.26744183e-004, 2.18023267e-003, 0., 0.,
          0., 7.26744183e-004, 0., 0., 1.45348837e-003, 1.45348837e-003,
          4.36046533e-003, 7.26744160e-003, 4.36046533e-003,
          2.90697673e-003, 0., 2.90697673e-003, 0., 0., 7.26744183e-004,
          1.45348837e-003, 1.45348837e-003, 1.09011624e-002,
          7.26744183e-004, 0., 2.18023267e-003, 7.26744183e-004,
          5.08720940e-003, 0., 0., 7.26744183e-004, 7.26744183e-004,
          2.18023267e-003, 5.08720940e-003, 1.45348837e-003, 0., 0., 0.,
          5.81395347e-003, 5.81395347e-003, 7.26744183e-004,
          2.18023267e-003, 7.26744183e-004, 0., 1.45348837e-003,
          2.18023267e-003, 0., 9.44767427e-003, 0., 5.08720940e-003, 0.,
          7.26744183e-004, 7.26744183e-004, 7.26744183e-004, 0.,
          1.45348837e-003, 4.36046533e-003, 7.26744183e-004,
          1.45348837e-003, 1.45348837e-003, 2.18023267e-003,
          7.26744183e-004, 0., 7.26744183e-004, 0., 7.26744183e-004,
          7.26744183e-004, 0., 2.90697673e-003, 0., 1.45348837e-003, 0.,
          1.45348837e-003, 4.36046533e-003, 0., 7.26744183e-004, 0., 0.,
          0., 0., 1.45348837e-003, 2.18023267e-003, 7.26744183e-004, 0.,
          2.18023267e-003, 2.18023267e-003, 7.26744183e-004,
          7.26744183e-004, 0., 7.26744183e-004, 0., 0., 2.18023267e-003,
          1.45348837e-003, 7.26744183e-004, 1.45348837e-003,
          2.18023267e-003, 1.45348837e-003, 7.26744183e-004, 0., 0., 0.,
          1.45348837e-003, 2.18023267e-003, 3.63372080e-003, 0., 0., 0.,
          2.18023267e-003, 7.26744183e-004, 7.26744183e-004,
          2.18023267e-003, 7.26744183e-004, 0., 2.18023267e-003, 0.,
          4.36046533e-003, 7.26744183e-004, 0., 1.45348837e-003,
          2.18023267e-003, 0., 0., 7.26744183e-004, 1.45348837e-003,
          7.26744183e-004, 1.45348837e-003, 0., 4.36046533e-003,
          1.45348837e-003, 3.63372080e-003, 7.26744183e-004, 0.,
          1.45348837e-003, 2.18023267e-003, 7.26744183e-004,
          7.26744183e-004, 2.18023267e-003, 0., 1.45348837e-003,
          3.63372080e-003, 7.26744183e-004, 5.08720940e-003,
          7.26744160e-003, 7.26744183e-004, 0., 7.26744183e-004,
          3.63372080e-003, 7.26744160e-003, 1.45348837e-003,
          7.26744183e-004, 7.26744160e-003, 7.26744183e-004, 0., 0.,
          7.26744183e-004, 1.45348837e-003, 7.99418613e-003,
          6.54069753e-003, 0., 2.18023267e-003, 2.18023267e-003,
          1.09011624e-002, 0., 7.26744183e-004, 0., 5.08720940e-003,
          2.18023267e-003, 0., 1.45348837e-003, 7.26744183e-004,
          1.52616277e-002, 0., 0., 1.09011624e-002, 7.26744183e-004,
          7.26744183e-004, 6.54069753e-003, 0., 3.63372080e-003,
          5.81395347e-003, 1.45348837e-003, 0., 0., 4.36046533e-003, 0.,
          5.08720940e-003, 2.18023267e-003, 7.26744183e-004,
          6.54069753e-003, 0., 0., 5.08720940e-003, 2.18023267e-003,
          4.36046533e-003, 7.26744183e-004, 7.26744183e-004,
          2.18023267e-003, 2.18023267e-003, 7.26744183e-004,
          1.45348837e-003, 0., 7.26744183e-004, 0., 1.45348837e-003,
          7.26744183e-004, 7.26744183e-004, 7.26744183e-004,
          2.18023267e-003, 5.08720940e-003, 3.63372080e-003,
          1.45348837e-003, 2.90697673e-003, 2.18023267e-003,
          1.45348837e-003, 0., 1.45348837e-003, 2.18023267e-003,
          7.26744183e-004, 1.45348837e-003, 7.26744183e-004,
          1.45348837e-003, 7.26744183e-004, 7.26744160e-003,
          7.26744183e-004, 0., 0., 0., 8.72093067e-003, 1.45348837e-003,
          1.45348837e-003, 0., 0., 7.26744183e-004, 7.26744183e-004, 0.,
          7.26744183e-004, 4.36046533e-003, 7.26744183e-004, 0., 0.,
          1.45348837e-003, 0., 7.26744183e-004, 7.26744183e-004, 0.,
          1.45348837e-003, 0., 5.08720940e-003, 7.26744183e-004, 0., 0.,
          1.45348837e-003, 7.26744183e-004, 0., 0., 2.18023267e-003,
          2.90697673e-003, 0., 5.08720940e-003, 0., 7.26744183e-004,
          7.26744183e-004, 1.45348837e-003, 0., 0., 1.45348837e-003, 0.,
          5.08720940e-003, 8.72093067e-003, 1.45348837e-003, 0.,
