%YAML:1.0
my_svm: !!opencv-ml-svm
   svm_type: C_SVC
   kernel: { type:RBF, gamma:1. }
   C: 1.
   term_criteria: { epsilon:1.1920928955078125e-007, iterations:1000 }
   var_all: 600
   var_count: 600
   class_count: 2
   class_labels: !!opencv-matrix
      rows: 1
      cols: 2
      dt: i
      data: [ 0, 1 ]
   sv_total: 41
   support_vectors:
      - [ 5.07246377e-003, 0., 7.24637706e-004, 1.44927541e-003, 0.,
          1.44927541e-003, 0., 0., 7.24637706e-004, 1.44927541e-003, 0.,
          0., 0., 1.44927541e-003, 0., 0., 2.89855083e-003,
          2.89855083e-003, 0., 1.44927541e-003, 7.24637706e-004,
          1.44927541e-003, 0., 0., 5.07246377e-003, 0., 7.24637706e-004,
          0., 7.24637706e-004, 2.17391318e-003, 7.24637706e-004,
          5.07246377e-003, 1.44927541e-003, 6.52173953e-003,
          1.44927541e-003, 0., 0., 0., 7.24637706e-004, 7.24637706e-004,
          0., 1.44927541e-003, 2.89855083e-003, 1.44927541e-003,
          2.17391318e-003, 4.34782635e-003, 3.62318847e-003, 0.,
          7.24637706e-004, 7.24637706e-004, 0., 0., 5.07246377e-003,
          2.89855083e-003, 3.62318847e-003, 2.89855083e-003,
          2.17391318e-003, 0., 0., 2.89855083e-003, 0., 0., 0., 0., 0.,
          0., 0., 7.24637706e-004, 7.24637706e-004, 1.15942033e-002,
          1.44927541e-003, 7.24637706e-004, 0., 1.44927541e-003,
          2.17391318e-003, 0., 7.24637706e-004, 0., 7.24637706e-004,
          1.44927541e-003, 0., 7.24637706e-004, 0., 1.08695654e-002,
          1.44927541e-003, 0., 0., 7.24637706e-004, 0., 0.,
          1.44927541e-003, 0., 0., 7.24637706e-004, 4.34782635e-003,
          7.24637706e-004, 0., 7.24637706e-004, 7.24637706e-004, 0.,
          7.24637706e-004, 0., 0., 5.79710165e-003, 1.44927541e-003,
          7.24637706e-004, 7.24637706e-004, 0., 3.62318847e-003,
          7.24637706e-004, 7.24637706e-004, 0., 0., 0., 1.44927541e-003,
          0., 7.24637706e-004, 7.24637706e-004, 7.24637706e-004, 0.,
          2.17391318e-003, 0., 0., 1.44927541e-003, 1.44927541e-003,
          7.24637706e-004, 0., 1.44927541e-003, 2.17391318e-003,
          2.89855083e-003, 5.79710165e-003, 4.34782635e-003,
          2.89855083e-003, 2.89855083e-003, 0., 3.62318847e-003,
          7.24637695e-003, 0., 1.44927541e-003, 0., 0., 0.,
          7.24637706e-004, 0., 0., 1.44927541e-003, 7.24637706e-004,
          7.24637706e-004, 1.44927541e-003, 0., 7.24637706e-004, 0.,
          7.24637706e-004, 0., 2.17391318e-003, 7.24637706e-004,
          2.17391318e-003, 7.24637706e-004, 1.44927541e-003, 0.,
          3.62318847e-003, 7.24637706e-004, 2.17391318e-003, 0.,
          1.44927541e-003, 0., 3.62318847e-003, 0., 0., 2.17391318e-003,
          0., 1.44927541e-003, 1.44927541e-003, 7.24637706e-004,
          4.34782635e-003, 0., 7.24637706e-004, 2.89855083e-003,
          7.24637706e-004, 7.24637706e-004, 2.17391318e-003,
          7.24637706e-004, 0., 1.44927541e-003, 7.24637706e-004,
          1.44927541e-003, 0., 3.55072469e-002, 7.24637706e-004, 0.,
          2.17391318e-003, 0., 4.34782635e-003, 7.24637706e-004,
          2.17391318e-003, 7.24637706e-004, 7.97101483e-003,
          1.44927541e-003, 1.44927541e-003, 1.44927541e-003,
          7.24637706e-004, 2.17391318e-003, 1.44927541e-003,
          1.44927541e-003, 2.17391318e-003, 7.24637706e-004,
          1.44927541e-003, 0., 0., 1.44927541e-003, 0., 0.,
          1.44927541e-003, 7.24637706e-004, 7.24637706e-004,
          7.24637706e-004, 1.44927541e-003, 6.52173953e-003,
          2.17391318e-003, 0., 0., 0., 0., 0., 1.44927541e-003,
          1.44927541e-003, 0., 2.17391318e-003, 7.24637706e-004, 0.,
          1.44927541e-003, 0., 7.24637706e-004, 1.44927541e-003,
          7.24637706e-004, 0., 1.44927541e-003, 7.24637706e-004,
          3.62318847e-003, 7.24637706e-004, 0., 2.89855083e-003,
          7.24637706e-004, 0., 7.24637706e-004, 0., 0., 1.44927541e-003,
          0., 0., 1.44927541e-003, 0., 2.89855083e-003, 0.,
          2.17391318e-003, 0., 0., 7.24637706e-004, 0., 2.17391318e-003,
          2.17391318e-003, 7.24637706e-004, 0., 7.24637706e-004,
          3.62318847e-003, 1.44927541e-003, 7.24637706e-004,
          2.17391318e-003, 0., 2.17391318e-003, 2.89855083e-003,
          1.66666675e-002, 1.23188412e-002, 0., 0., 2.17391318e-003, 0.,
          3.62318847e-003, 7.24637706e-004, 7.24637706e-004, 0., 0.,
          1.44927541e-003, 7.97101483e-003, 7.24637706e-004,
          1.44927539e-002, 1.15942033e-002, 2.89855083e-003,
          7.24637706e-004, 2.89855083e-003, 1.44927541e-003, 0., 0.,
          2.89855083e-003, 0., 0., 2.89855083e-003, 0., 1.44927541e-003,
          1.23188412e-002, 7.24637706e-004, 2.89855083e-003,
          7.24637706e-004, 1.44927541e-003, 7.24637706e-004,
          2.17391318e-003, 4.34782635e-003, 7.24637706e-004, 0.,
          2.89855083e-003, 1.44927541e-003, 7.24637706e-004,
          7.24637706e-004, 0., 0., 0., 1.44927541e-003, 7.24637706e-004,
          2.89855083e-003, 3.62318847e-003, 1.08695654e-002,
          7.24637706e-004, 1.44927541e-003, 0., 7.24637706e-004, 0.,
          3.62318847e-003, 0., 7.24637706e-004, 0., 1.44927541e-003,
          5.07246377e-003, 0., 4.34782635e-003, 1.44927541e-003,
          2.17391318e-003, 7.24637706e-004, 0., 0., 0., 2.89855083e-003,
          7.24637706e-004, 2.89855083e-003, 0., 7.24637706e-004,
          7.24637706e-004, 0., 5.07246377e-003, 7.24637706e-004,
          2.89855083e-003, 0., 2.17391318e-003, 0., 2.17391318e-003,
          1.44927541e-003, 4.34782635e-003, 0., 7.24637706e-004,
          2.17391318e-003, 0., 0., 1.44927541e-003, 2.17391318e-003, 0.,
          0., 7.24637695e-003, 7.24637706e-004, 7.24637706e-004,
          7.24637706e-004, 0., 9.42029059e-003, 7.24637706e-004,
          7.24637706e-004, 0., 7.24637706e-004, 1.44927541e-003,
          7.24637706e-004, 7.24637706e-004, 7.24637706e-004, 0.,
          7.24637706e-004, 0., 4.34782635e-003, 7.24637706e-004,
          3.62318847e-003, 3.55072469e-002, 0., 7.24637706e-004,
          7.24637706e-004, 0., 0., 4.34782635e-003, 7.24637706e-004,
          2.17391318e-003, 7.24637706e-004, 0., 0., 2.17391318e-003, 0.,
          7.24637706e-004, 1.44927541e-003, 0., 1.44927541e-003,
          7.24637706e-004, 7.24637706e-004, 1.44927541e-003,
          1.44927541e-003, 0., 1.44927541e-003, 0., 0., 0., 0., 0.,
          3.62318847e-003, 0., 1.44927541e-003, 2.17391318e-003, 0., 0.,
          7.24637706e-004, 0., 0., 0., 0., 0., 7.24637706e-004, 0.,
          1.44927541e-003, 2.89855083e-003, 2.17391318e-003,
          7.24637706e-004, 1.08695654e-002, 1.44927541e-003,
          1.44927541e-003, 1.44927541e-003, 5.79710165e-003,
          4.34782635e-003, 7.24637706e-004, 3.62318847e-003, 0.,
          5.07246377e-003, 2.17391318e-003, 0., 0., 7.24637706e-004,
          2.60869581e-002, 7.24637706e-004, 3.62318847e-003,
          1.44927541e-003, 0., 0., 1.44927541e-003, 2.89855083e-003,
          1.52173918e-002, 0., 2.17391318e-003, 2.17391318e-003,
          2.89855083e-003, 1.44927541e-003, 2.17391318e-003, 0., 0., 0.,
          1.44927541e-003, 7.24637706e-004, 0., 0., 0., 1.08695654e-002,
          7.24637706e-004, 7.24637706e-004, 2.17391318e-003,
          7.24637706e-004, 7.24637706e-004, 6.52173953e-003, 0.,
          7.24637706e-004, 0., 1.44927541e-003, 0., 0., 1.44927541e-003,
          0., 0., 2.89855083e-003, 7.24637706e-004, 7.24637706e-004,
          7.24637706e-004, 0., 0., 7.24637706e-004, 2.89855083e-003,
          2.89855083e-003, 7.24637706e-004, 2.17391318e-003,
          2.02898551e-002, 0., 7.24637706e-004, 0., 6.52173953e-003,
          1.44927541e-003, 7.24637706e-004, 1.44927541e-003, 0.,
          7.24637706e-004, 7.24637706e-004, 7.24637706e-004, 0., 0.,
          7.24637706e-004, 7.24637706e-004, 6.52173953e-003,
          4.34782635e-003, 1.44927541e-003, 4.34782635e-003,
          5.79710165e-003, 0., 0., 7.24637706e-004, 2.89855083e-003,
          1.44927541e-003, 0., 0., 7.24637706e-004, 7.24637706e-004,
          2.17391318e-003, 7.24637706e-004, 3.62318847e-003,
          5.79710165e-003, 0., 1.01449275e-002, 4.34782635e-003, 0.,
          2.17391318e-003, 0., 0., 7.24637706e-004, 0., 0.,
          3.62318847e-003, 7.24637706e-004, 0., 7.24637706e-004,
          1.44927541e-003, 0., 3.62318847e-003, 5.79710165e-003,
          2.17391318e-003, 7.24637695e-003, 1.44927541e-003,
          7.24637706e-004, 2.17391318e-003, 7.24637706e-004,
          2.89855083e-003, 7.24637706e-004, 0., 4.34782635e-003, 0., 0.,
          0., 0., 0., 0., 7.24637706e-004, 1.37681160e-002,
          1.44927541e-003, 7.24637706e-004, 7.24637706e-004, 0.,
          2.17391318e-003, 1.44927541e-003, 7.24637706e-004, 0.,
          7.24637706e-004, 1.01449275e-002, 0., 7.24637706e-004,
          7.24637706e-004, 2.17391318e-003, 0., 0., 7.24637706e-004,
          1.44927541e-003, 1.44927541e-003, 0., 2.89855083e-003, 0.,
          7.24637706e-004, 0., 5.07246377e-003, 7.24637706e-004,
          1.44927541e-003, 1.44927541e-003, 4.34782635e-003, 0., 0., 0.,
          0., 7.24637706e-004 ]
      - [ 0., 0., 0., 0., 0., 8.26446281e-004, 2.47933879e-003, 0., 0.,
          1.65289256e-003, 9.09090880e-003, 0., 8.26446281e-004,
          8.26446281e-004, 4.95867757e-003, 4.13223123e-003,
          2.47933879e-003, 0., 4.13223123e-003, 0., 0., 0.,
          1.65289256e-003, 2.89256200e-002, 0., 1.65289249e-002,
          1.65289256e-003, 0., 8.26446281e-004, 0., 0., 1.65289256e-003,
          8.26446281e-004, 0., 0., 0., 1.65289256e-003, 8.26446281e-004,
          0., 8.26446281e-004, 8.26446281e-004, 8.26446281e-004,
          8.26446281e-004, 8.26446281e-004, 8.26446281e-004,
          3.30578513e-003, 0., 2.47933879e-003, 3.30578513e-003, 0.,
          8.26446281e-004, 0., 1.65289256e-003, 8.26446281e-004, 0.,
          1.65289256e-003, 0., 2.47933879e-003, 8.26446281e-004, 0., 0.,
          3.30578513e-003, 0., 0., 0., 8.26446281e-004, 0.,
          2.47933879e-003, 1.65289256e-003, 0., 0., 2.47933879e-003,
          4.13223123e-003, 8.26446281e-004, 2.47933879e-003,
          1.65289256e-003, 1.65289256e-003, 5.78512391e-003,
          1.65289256e-003, 8.26446281e-004, 2.47933879e-003,
          3.30578513e-003, 0., 0., 2.47933879e-003, 5.78512391e-003,
          8.26446281e-004, 8.26446281e-004, 1.65289256e-003, 0.,
          8.26446281e-004, 1.48760332e-002, 8.26446246e-003, 0.,
          1.65289256e-003, 0., 1.15702478e-002, 0., 2.47933879e-003,
          6.61157025e-003, 0., 1.98347103e-002, 0., 1.65289256e-003,
          8.26446281e-004, 4.13223123e-003, 0., 2.47933879e-003,
          1.65289256e-003, 1.65289256e-003, 0., 0., 4.95867757e-003,
          8.26446281e-004, 8.26446281e-004, 1.65289256e-003, 0.,
          8.26446281e-004, 0., 3.30578513e-003, 0., 8.26446281e-004, 0.,
          8.26446281e-004, 8.26446281e-004, 0., 0., 1.65289256e-003, 0.,
          0., 0., 2.47933879e-003, 1.65289256e-003, 8.26446281e-004,
          8.26446281e-004, 8.26446281e-004, 8.26446281e-004,
          1.65289256e-003, 0., 0., 0., 1.65289256e-003, 4.13223123e-003,
          1.65289256e-003, 8.26446281e-004, 8.26446281e-004, 0., 0., 0.,
          8.26446281e-004, 1.65289256e-003, 0., 8.26446281e-004, 0., 0.,
          8.26446281e-004, 0., 1.65289256e-003, 8.26446281e-004, 0.,
          1.65289256e-003, 1.65289256e-003, 8.26446281e-004,
          9.91735514e-003, 1.65289256e-003, 0., 0., 0., 0.,
          8.26446281e-004, 1.65289256e-003, 0., 0., 2.47933879e-003,
          1.65289256e-003, 8.26446281e-004, 3.30578513e-003,
          2.47933879e-003, 1.65289256e-003, 0., 0., 0., 0.,
          3.30578513e-003, 0., 1.65289256e-003, 2.47933879e-003, 0., 0.,
          1.65289256e-003, 0., 8.26446281e-004, 2.47933879e-003,
          8.26446281e-004, 8.26446246e-003, 1.07438015e-002,
          1.65289256e-003, 0., 8.26446281e-004, 0., 0., 0.,
          2.47933879e-003, 1.65289256e-003, 0., 0., 0., 0., 0., 0.,
          1.65289256e-003, 8.26446281e-004, 1.65289256e-003,
          9.91735514e-003, 4.95867757e-003, 8.26446281e-004,
          2.47933879e-003, 0., 8.26446281e-004, 4.13223123e-003,
          1.65289256e-003, 8.26446281e-004, 0., 0., 0., 0.,
          8.26446281e-004, 1.65289256e-003, 0., 3.30578513e-003, 0.,
          8.26446281e-004, 8.26446281e-004, 1.65289256e-003,
          8.26446281e-004, 4.13223123e-003, 4.95867757e-003,
          1.65289256e-003, 0., 1.65289256e-003, 8.26446281e-004, 0., 0.,
          1.65289256e-003, 0., 6.61157025e-003, 0., 0., 1.65289256e-003,
          3.30578513e-003, 0., 0., 0., 1.65289256e-003, 2.47933879e-003,
          2.47933879e-003, 8.26446281e-004, 8.26446281e-004, 0.,
          8.26446281e-004, 3.30578513e-003, 4.13223123e-003,
          8.26446281e-004, 8.26446281e-004, 0., 0., 8.26446281e-004, 0.,
          8.26446281e-004, 1.65289256e-003, 0., 8.26446281e-004,
          4.95867757e-003, 0., 2.47933879e-003, 6.61157025e-003,
          3.30578513e-003, 8.26446281e-004, 8.26446281e-004,
          8.26446281e-004, 1.65289256e-003, 1.65289256e-003,
          2.47933879e-003, 1.65289256e-003, 0., 3.30578513e-003,
          2.47933879e-003, 0., 0., 0., 1.65289256e-003, 5.78512391e-003,
          2.47933879e-003, 0., 8.26446281e-004, 8.26446281e-004,
          8.26446281e-004, 0., 2.47933879e-003, 8.26446281e-004,
          8.26446281e-004, 8.26446281e-004, 4.13223123e-003,
          8.26446281e-004, 0., 8.26446281e-004, 8.26446281e-004,
          8.26446246e-003, 8.26446281e-004, 8.26446281e-004,
          8.26446281e-004, 0., 8.26446281e-004, 6.61157025e-003, 0.,
          3.30578513e-003, 0., 0., 1.65289256e-003, 8.26446281e-004, 0.,
          8.26446281e-004, 0., 2.47933879e-003, 8.26446281e-004,
          8.26446281e-004, 0., 0., 9.91735514e-003, 0., 0.,
          1.65289256e-003, 8.26446281e-004, 2.47933879e-003,
          2.47933879e-003, 4.13223123e-003, 8.26446281e-004,
          3.30578513e-003, 8.26446281e-004, 0., 3.30578513e-003, 0.,
          4.95867757e-003, 1.73553713e-002, 8.26446281e-004,
          1.65289256e-003, 8.26446281e-004, 0., 2.47933879e-003, 0.,
          4.13223123e-003, 0., 5.78512391e-003, 8.26446281e-004,
          8.26446281e-004, 2.47933879e-003, 0., 0., 0., 0., 0.,
          8.26446281e-004, 8.26446281e-004, 8.26446281e-004,
          8.26446281e-004, 1.65289256e-003, 1.65289256e-003,
          1.65289256e-003, 1.65289256e-003, 0., 8.26446281e-004,
          8.26446281e-004, 8.26446281e-004, 0., 0., 0., 0., 0., 0., 0.,
          1.65289256e-003, 1.65289256e-003, 2.47933879e-003,
          8.26446281e-004, 0., 8.26446281e-004, 8.26446281e-004, 0.,
          2.47933879e-003, 1.65289256e-003, 2.47933879e-003, 0.,
          9.91735514e-003, 0., 8.26446281e-004, 0., 5.78512391e-003,
          1.32231405e-002, 8.26446281e-004, 8.26446281e-004,
          4.95867757e-003, 1.57024786e-002, 1.65289256e-003,
          8.26446281e-004, 8.26446281e-004, 8.26446281e-004,
          2.47933879e-003, 8.26446281e-004, 0., 0., 0., 8.26446281e-004,
          0., 3.30578513e-003, 8.26446281e-004, 0., 9.09090880e-003,
          8.26446281e-004, 8.26446281e-004, 1.65289256e-003,
          8.26446281e-004, 0., 8.26446281e-004, 8.26446281e-004, 0., 0.,
          8.26446281e-004, 0., 0., 0., 8.26446281e-004, 2.47933879e-003,
          3.30578513e-003, 1.65289256e-003, 8.26446281e-004, 0.,
          1.65289256e-003, 1.65289256e-003, 1.65289256e-003,
          5.78512391e-003, 7.43801659e-003, 8.26446281e-004,
          8.26446281e-004, 3.30578513e-003, 9.09090880e-003, 0.,
          8.26446281e-004, 8.26446281e-004, 1.65289256e-003,
          9.91735514e-003, 0., 3.30578513e-003, 8.26446281e-004,
          8.26446281e-004, 1.65289256e-003, 8.26446281e-004,
          1.90082639e-002, 8.26446281e-004, 6.61157025e-003,
          1.65289256e-003, 0., 9.91735514e-003, 8.26446281e-004, 0.,
          1.65289256e-003, 2.47933879e-003, 0., 0., 2.47933879e-003, 0.,
          8.26446281e-004, 1.65289256e-003, 8.26446281e-004, 0., 0.,
          8.26446281e-004, 1.65289256e-003, 1.65289256e-003, 0.,
          8.26446281e-004, 8.26446281e-004, 2.47933879e-003, 0.,
          1.65289256e-003, 4.13223123e-003, 8.26446281e-004, 0.,
          1.65289256e-003, 8.26446281e-004, 0., 1.65289256e-003,
          8.26446281e-004, 1.65289256e-003, 1.65289256e-003, 0.,
          8.26446281e-004, 0., 0., 5.78512391e-003, 4.95867757e-003, 0.,
          1.65289256e-003, 1.65289256e-003, 2.47933879e-003,
          8.26446281e-004, 8.26446281e-004, 8.26446281e-004, 0.,
          6.61157025e-003, 0., 0., 0., 0., 2.47933879e-003,
          8.26446281e-004, 1.65289256e-003, 8.26446281e-004,
          6.61157025e-003, 0., 5.78512391e-003, 0., 8.26446281e-004,
          8.26446281e-004, 0., 2.47933879e-003, 9.09090880e-003,
          6.61157025e-003, 0., 3.30578513e-003, 3.30578513e-003, 0.,
          1.65289256e-003, 8.26446281e-004, 0., 0., 0., 8.26446281e-004,
          0., 3.30578513e-003, 8.26446281e-004, 8.26446281e-004,
          1.65289256e-003, 0., 0., 8.26446281e-004, 3.30578513e-003,
          8.26446281e-004, 4.13223123e-003, 0., 0., 5.78512391e-003,
          3.30578513e-003, 8.26446281e-004, 0., 0., 8.26446281e-004, 0.,
          0., 1.65289256e-003, 1.23966942e-002, 1.65289256e-003, 0., 0.,
          1.65289256e-003, 0., 8.26446281e-004, 0., 0., 0.,
          7.43801659e-003, 8.26446281e-004, 8.26446281e-004,
          1.65289256e-003, 0., 8.26446281e-004, 4.13223123e-003,
          1.65289256e-003, 0., 8.26446281e-004, 8.26446281e-004, 0.,
          4.13223123e-003, 0., 1.65289256e-003, 4.95867757e-003,
          5.78512391e-003, 1.65289256e-003, 8.26446281e-004, 0.,
          3.30578513e-003, 8.26446281e-004, 8.26446281e-004,
          8.26446281e-004, 3.30578513e-003, 8.26446281e-004, 0., 0., 0.,
          8.26446281e-004, 0. ]
      - [ 4.09836043e-003, 0., 8.19672132e-004, 5.73770516e-003, 0.,
          4.09836043e-003, 0., 0., 1.63934426e-003, 3.27868853e-003,
          1.63934426e-003, 0., 0., 8.19672132e-004, 0., 0.,
          9.01639368e-003, 4.91803279e-003, 0., 1.63934426e-003,
          4.91803279e-003, 1.63934426e-003, 3.27868853e-003, 0.,
          3.27868853e-003, 0., 0., 0., 0., 0., 1.55737707e-002,
          4.09836043e-003, 0., 0., 1.63934426e-003, 0., 2.45901640e-003,
          6.55737706e-003, 0., 0., 0., 8.19672132e-004, 0.,
          8.19672132e-004, 0., 0., 0., 0., 2.45901640e-003, 0., 0.,
          1.63934426e-003, 0., 0., 8.19672132e-004, 4.09836043e-003, 0.,
          2.45901640e-003, 4.91803279e-003, 0., 0., 0., 1.63934426e-003,
          0., 0., 1.63934426e-003, 0., 5.73770516e-003, 8.19672132e-004,
          2.45901640e-003, 8.19672132e-004, 0., 3.27868853e-003, 0.,
          1.63934426e-003, 8.19672132e-004, 0., 0., 8.19672132e-004,
          1.63934426e-003, 0., 0., 2.45901640e-003, 8.19672132e-004, 0.,
          0., 0., 4.91803279e-003, 8.19672132e-004, 8.19672132e-004, 0.,
          0., 0., 1.63934426e-003, 8.19672132e-004, 1.63934426e-003, 0.,
          3.27868853e-003, 3.27868853e-003, 0., 3.27868853e-003, 0.,
          1.63934426e-003, 1.63934426e-003, 8.19672132e-004,
          4.09836043e-003, 0., 0., 1.63934426e-003, 2.45901640e-003,
          9.83606558e-003, 0., 0., 1.63934426e-003, 1.63934426e-003,
          2.45901640e-003, 3.27868853e-003, 0., 1.63934426e-003, 0.,
          1.63934426e-003, 8.19672132e-004, 1.63934426e-003, 0.,
          8.19672132e-004, 0., 0., 0., 2.45901640e-003, 5.73770516e-003,
          1.63934426e-003, 0., 1.63934426e-003, 0., 1.63934426e-003,
          3.27868853e-003, 1.88524593e-002, 8.19672132e-004,
          8.19672132e-004, 0., 3.27868853e-003, 3.27868853e-003,
          8.19672132e-004, 0., 8.19672132e-004, 0., 1.63934426e-003, 0.,
          0., 0., 0., 0., 7.37704895e-003, 9.83606558e-003, 0.,
          4.91803279e-003, 1.63934426e-003, 0., 0., 8.19672132e-004, 0.,
          9.01639368e-003, 0., 0., 5.73770516e-003, 0., 8.19672132e-004,
          8.19672132e-004, 0., 8.19672132e-004, 1.63934426e-003,
          4.09836043e-003, 2.45901640e-003, 3.27868853e-003,
          4.91803279e-003, 8.19672132e-004, 8.19672132e-004,
          2.45901640e-003, 3.27868853e-003, 0., 0., 1.63934426e-003, 0.,
          2.45901640e-003, 0., 8.19672132e-004, 8.19672132e-004,
          1.63934426e-003, 0., 0., 2.45901640e-003, 0., 1.63934426e-003,
          1.63934426e-003, 0., 0., 8.19672132e-004, 8.19672132e-004,
          3.27868853e-003, 3.27868853e-003, 0., 8.19672132e-004,
          1.72131155e-002, 2.45901640e-003, 0., 1.39344260e-002,
          5.73770516e-003, 0., 0., 0., 0., 0., 8.19672132e-004,
          4.91803279e-003, 0., 1.63934426e-003, 1.63934426e-003,
          8.19672132e-004, 8.19672132e-004, 0., 1.63934426e-003, 0., 0.,
          2.45901640e-003, 0., 0., 0., 0., 0., 8.19672132e-004,
          8.19672132e-004, 2.45901640e-003, 0., 4.91803279e-003,
          8.19672132e-004, 0., 0., 0., 2.45901640e-003, 2.45901640e-003,
          1.63934426e-003, 0., 0., 0., 0., 0., 7.37704895e-003, 0.,
          4.09836043e-003, 1.63934426e-003, 0., 2.45901640e-003,
          2.45901640e-003, 2.45901640e-003, 0., 0., 1.63934426e-003,
          9.83606558e-003, 8.19672132e-004, 1.63934426e-003,
          1.63934426e-003, 0., 0., 2.45901640e-003, 8.19672132e-004,
          1.63934426e-003, 0., 5.73770516e-003, 2.45901640e-003,
          1.63934426e-003, 0., 5.16393445e-002, 1.22950822e-002,
          8.19672132e-004, 1.63934426e-003, 0., 2.45901640e-003, 0.,
          2.45901640e-003, 2.45901640e-003, 1.63934426e-003,
          1.63934426e-003, 4.09836043e-003, 3.27868853e-003,
          8.19672132e-004, 0., 0., 8.19672132e-004, 6.55737706e-003,
          6.55737706e-003, 0., 8.19672132e-004, 8.19672132e-004, 0., 0.,
          3.27868853e-003, 8.19672085e-003, 1.63934426e-003,
          8.19672132e-004, 0., 0., 8.19672132e-004, 8.19672132e-004,
          2.45901640e-003, 0., 2.45901640e-003, 2.45901640e-003, 0., 0.,
          0., 0., 8.19672132e-004, 8.19672132e-004, 0., 0., 0.,
          3.27868853e-003, 2.45901640e-003, 8.19672132e-004,
          6.55737706e-003, 0., 7.37704895e-003, 8.19672132e-004, 0., 0.,
          0., 0., 8.19672132e-004, 0., 0., 1.63934426e-003,
          6.55737706e-003, 1.63934426e-003, 0., 8.19672132e-004,
          1.63934426e-003, 0., 0., 0., 8.19672132e-004, 0.,
          2.45901640e-003, 0., 0., 1.63934426e-003, 0., 0., 0.,
          6.55737706e-003, 8.19672132e-004, 0., 0., 0., 0.,
          2.45901640e-003, 8.19672132e-004, 0., 0., 0., 1.63934426e-003,
          1.63934426e-003, 4.91803279e-003, 3.27868853e-003,
          2.45901640e-003, 8.19672132e-004, 1.63934426e-003,
          1.63934426e-003, 0., 0., 8.19672132e-004, 0., 2.45901640e-003,
          0., 0., 5.73770516e-003, 2.45901640e-003, 0., 8.19672132e-004,
          0., 0., 1.22950822e-002, 0., 3.27868853e-003, 2.45901640e-003,
          1.63934426e-003, 4.09836043e-003, 0., 0., 1.63934426e-003,
          2.45901640e-003, 1.63934426e-003, 4.09836043e-003, 0.,
          8.19672132e-004, 8.19672132e-004, 0., 0., 0., 4.09836043e-003,
          2.45901640e-003, 0., 0., 1.63934426e-003, 8.19672132e-004, 0.,
          1.63934426e-003, 3.27868853e-003, 1.63934426e-003,
          8.19672132e-004, 3.27868853e-003, 4.09836043e-003,
          8.19672132e-004, 0., 2.45901640e-003, 0., 3.27868853e-003, 0.,
          3.27868853e-003, 7.37704895e-003, 1.63934426e-003,
          3.27868853e-003, 1.63934426e-003, 0., 0., 2.45901640e-003, 0.,
          4.09836043e-003, 0., 3.27868853e-003, 0., 8.19672132e-004,
          1.63934426e-003, 1.14754103e-002, 8.19672132e-004,
          4.91803279e-003, 0., 0., 8.19672085e-003, 3.27868853e-003, 0.,
          0., 1.63934426e-003, 0., 0., 0., 0., 0., 4.09836043e-003,
          4.91803279e-003, 0., 1.14754103e-002, 0., 1.63934426e-003, 0.,
          2.45901640e-003, 3.27868853e-003, 0., 0., 8.19672132e-004,
          3.27868853e-003, 8.19672132e-004, 0., 8.19672132e-004, 0., 0.,
          8.19672132e-004, 8.19672132e-004, 3.27868853e-003, 0.,
          8.19672132e-004, 8.19672132e-004, 2.45901640e-003,
          8.19672132e-004, 0., 3.27868853e-003, 0., 0., 1.63934426e-003,
          0., 8.19672132e-004, 2.45901640e-003, 2.45901640e-003,
          7.37704895e-003, 0., 8.19672132e-004, 5.73770516e-003,
          1.63934426e-003, 8.19672132e-004, 0., 2.45901640e-003,
          4.09836043e-003, 8.19672132e-004, 1.63934426e-003,
          2.45901640e-003, 0., 1.63934426e-003, 0., 8.19672132e-004,
          8.19672132e-004, 0., 8.19672132e-004, 3.27868853e-003,
          8.19672132e-004, 0., 2.45901640e-003, 0., 1.63934426e-003,
          1.63934426e-003, 0., 0., 0., 8.19672132e-004, 3.27868853e-003,
          1.22950822e-002, 3.27868853e-003, 0., 0., 0., 1.63934426e-003,
          3.27868853e-003, 3.27868853e-003, 1.63934426e-003, 0., 0.,
          3.27868853e-003, 0., 0., 4.09836043e-003, 0., 2.45901640e-003,
          0., 0., 0., 3.27868853e-003, 8.19672132e-004, 0., 0., 0., 0.,
          0., 1.63934426e-003, 4.09836043e-003, 0., 0., 0.,
          8.19672132e-004, 9.83606558e-003, 0., 0., 8.19672132e-004, 0.,
          4.91803279e-003, 0., 8.19672132e-004, 3.27868853e-003,
          1.63934426e-003, 0., 0., 1.63934426e-003, 0., 0., 0., 0.,
          6.55737706e-003, 0., 8.19672132e-004, 8.19672132e-004, 0., 0.,
          0., 8.19672132e-004, 9.83606558e-003, 2.45901640e-003, 0., 0.,
          8.19672132e-004, 0., 0., 3.27868853e-003, 0., 0., 0.,
          3.27868853e-003, 8.19672132e-004, 5.73770516e-003, 0.,
          1.63934426e-003, 0., 0., 1.63934426e-003, 4.91803279e-003, 0.,
          1.63934426e-003, 0., 2.45901640e-003, 0., 0., 1.06557375e-002,
          1.63934426e-003, 2.45901640e-003 ]
      - [ 0., 0., 0., 0., 2.35294108e-003, 0., 0., 0., 0., 0., 0., 0.,
          0., 0., 0., 0., 0., 0., 0., 0., 0., 0., 0., 3.52941155e-002,
          0., 0., 0., 0., 0., 0., 0., 0., 0., 0., 0., 0., 0., 0., 0., 0.,
          0., 0., 0., 0., 0., 0., 0., 1.88235287e-002, 0., 0., 0., 0.,
          0., 0., 0., 0., 0., 0., 0., 0., 0., 1.64705869e-002, 0., 0.,
          0., 0., 0., 0., 0., 0., 0., 4.70588217e-003, 0., 0., 0., 0.,
          0., 0., 0., 0., 0., 0., 0., 0., 0., 7.05882348e-003, 0., 0.,
          0., 0., 0., 1.62352934e-001, 0., 0., 0., 0., 0., 0., 0.,
          6.35294095e-002, 0., 0., 0., 0., 0., 0., 0., 0., 0., 0., 0.,
          0., 2.11764704e-002, 0., 0., 0., 0., 0., 0., 0., 0., 0., 0.,
          0., 0., 0., 0., 0., 0., 0., 0., 0., 0., 0., 0., 0., 0., 0., 0.,
          0., 0., 0., 0., 0., 0., 0., 0., 0., 0., 2.11764704e-002, 0.,
          0., 0., 0., 0., 0., 0., 0., 0., 0., 0., 0., 0., 0., 0.,
          2.35294108e-003, 0., 0., 0., 0., 0., 0., 0., 0., 0., 0., 0.,
          0., 0., 0., 0., 0., 0., 0., 0., 0., 0., 0., 0., 0., 0., 0., 0.,
          0., 0., 0., 0., 0., 0., 0., 0., 0., 0., 0., 0., 0., 0., 0., 0.,
          0., 2.35294108e-003, 0., 0., 0., 0., 0., 0., 0., 0.,
          7.05882348e-003, 0., 0., 0., 0., 0., 0., 0., 0., 0., 0., 0.,
          0., 0., 0., 0., 0., 1.64705869e-002, 0., 0., 0., 0., 0., 0.,
          0., 0., 3.29411738e-002, 0., 0., 0., 0., 0., 0., 0., 0., 0.,
          0., 0., 0., 0., 0., 0., 0., 0., 0., 0., 0., 0., 0., 0., 0., 0.,
          0., 0., 0., 0., 5.41176461e-002, 0., 0., 0., 0., 0., 0., 0.,
          0., 0., 0., 0., 0., 0., 0., 0., 0., 0., 0., 0., 0., 0., 0., 0.,
          0., 0., 0., 0., 0., 0., 0., 0., 1.64705869e-002, 0., 0., 0.,
          0., 0., 0., 0., 0., 0., 0., 0., 0., 0., 0., 0., 0., 0.,
          2.11764704e-002, 0., 0., 0., 0., 0., 0., 0., 0., 0., 0., 0.,
          2.35294108e-003, 0., 0., 0., 0., 0., 1.05882347e-001, 0.,
          2.58823521e-002, 7.05882348e-003, 0., 0., 0., 9.41176433e-003,
          0., 0., 0., 0., 0., 0., 0., 0., 0., 0., 0., 0., 0., 0., 0., 0.,
          0., 0., 0., 0., 0., 0., 0., 0., 0., 0., 0., 0., 0., 0., 0., 0.,
          0., 0., 0., 0., 0., 0., 0., 0., 0., 0., 0., 0., 0., 0., 0., 0.,
          0., 0., 0., 0., 0., 0., 0., 0., 0., 0., 0., 0., 0., 0., 0., 0.,
          0., 0., 0., 0., 0., 0., 0., 4.70588217e-003, 0., 0., 0., 0.,
          0., 0., 0., 0., 0., 0., 0., 0., 0., 0., 0., 0., 0., 0., 0., 0.,
          0., 0., 0., 0., 0., 0., 0., 0., 1.17647052e-002, 0.,
          4.70588217e-003, 0., 0., 1.38823524e-001, 0., 0., 0., 0.,
          3.76470573e-002, 0., 0., 1.41176470e-002, 0., 0., 0., 0., 0.,
          0., 0., 0., 0., 0., 0., 0., 0., 0., 0., 0., 0., 0., 0., 0., 0.,
          0., 0., 0., 0., 0., 0., 0., 0., 0., 0., 0., 0., 0.,
          2.82352939e-002, 0., 0., 0., 0., 0., 0., 0., 0., 0., 0., 0.,
          0., 0., 0., 0., 1.41176470e-002, 0., 2.58823521e-002, 0., 0.,
          0., 0., 0., 0., 0., 0., 0., 0., 0., 0., 0., 0., 0., 0., 0., 0.,
          0., 0., 0., 0., 0., 0., 0., 0., 0., 0., 0., 0., 0., 0.,
          3.29411738e-002, 0., 0., 0., 0., 0., 0., 0., 0., 0., 0., 0.,
          0., 0., 0., 0., 0., 0., 0., 3.05882338e-002, 0., 0., 0., 0.,
          0., 0., 0., 0., 0., 0., 0., 0., 0., 0., 0., 0., 0., 0., 0., 0.,
          0., 0., 0., 0., 0., 0., 0., 0., 0., 0. ]
      - [ 0., 0., 0., 0., 5.13176173e-002, 0., 0., 0., 0., 0., 0., 0.,
          0., 0., 0., 0., 0., 0., 0., 0., 0., 0., 0., 1.38696260e-003,
          0., 0., 0., 0., 0., 0., 0., 0., 0., 0., 0., 0., 0., 0., 0., 0.,
          0., 0., 0., 0., 0., 0., 0., 5.54785039e-003, 0., 0., 0., 0.,
          0., 0., 0., 0., 0., 0., 0., 0., 0., 2.49653272e-002, 0., 0.,
          0., 0., 0., 0., 0., 0., 0., 2.49653272e-002, 0., 0., 0., 0.,
          0., 0., 0., 0., 0., 0., 0., 0., 0., 3.46740633e-002, 0., 0.,
          0., 0., 0., 0., 0., 0., 0., 0., 0., 0., 0., 1.10957008e-002,
          0., 0., 0., 0., 0., 0., 0., 0., 0., 0., 0., 0.,
          5.68654649e-002, 0., 0., 0., 0., 0., 0., 0., 0., 0., 0., 0.,
          0., 0., 0., 0., 0., 0., 0., 0., 0., 0., 0., 0., 0., 0., 0., 0.,
          0., 0., 0., 0., 0., 0., 0., 0., 0., 2.08044387e-002, 0., 0.,
          0., 0., 0., 0., 0., 0., 0., 0., 0., 0., 0., 0., 0.,
          9.57004204e-002, 0., 0., 0., 0., 0., 0., 0., 0., 0., 0., 0.,
          0., 0., 0., 0., 0., 0., 0., 0., 0., 0., 0., 0., 0., 0., 0., 0.,
          0., 0., 0., 0., 0., 0., 0., 0., 0., 0., 0., 0., 0., 0., 0., 0.,
          0., 5.13176173e-002, 0., 0., 0., 0., 0., 0., 0., 0.,
          5.68654649e-002, 0., 0., 0., 0., 0., 0., 0., 0., 0., 0., 0.,
          0., 0., 0., 0., 0., 2.91262139e-002, 0., 0., 0., 0., 0., 0.,
          0., 0., 5.54785058e-002, 0., 0., 0., 0., 0., 0., 0., 0., 0.,
          0., 0., 0., 0., 0., 0., 0., 0., 0., 0., 0., 0., 0., 0., 0., 0.,
          0., 0., 0., 0., 2.21914016e-002, 0., 0., 0., 0., 0., 0., 0.,
          0., 0., 0., 0., 0., 0., 0., 0., 0., 0., 0., 0., 0., 0., 0., 0.,
          0., 0., 0., 0., 0., 0., 0., 0., 3.74479890e-002, 0., 0., 0.,
          0., 0., 0., 0., 0., 0., 0., 0., 0., 0., 0., 0., 0., 0.,
          3.05131767e-002, 0., 0., 0., 0., 0., 0., 0., 0., 0., 0., 0.,
          1.24826636e-002, 0., 0., 0., 0., 0., 5.54785039e-003, 0.,
          1.10957008e-002, 1.12343967e-001, 0., 0., 0., 1.10957008e-002,
          0., 0., 0., 0., 0., 0., 0., 0., 0., 0., 0., 0., 0., 0., 0., 0.,
          0., 0., 0., 0., 0., 0., 0., 0., 0., 0., 0., 0., 0., 0., 0., 0.,
          0., 0., 0., 0., 0., 0., 0., 0., 0., 0., 0., 0., 0., 0., 0., 0.,
          0., 0., 0., 0., 0., 0., 0., 0., 0., 0., 0., 0., 0., 0., 0., 0.,
          0., 0., 0., 0., 0., 0., 0., 0., 0., 0., 0., 0., 0., 0., 0., 0.,
          0., 0., 0., 0., 0., 0., 0., 0., 0., 0., 0., 0., 0., 0., 0., 0.,
          0., 0., 0., 0., 0., 0., 2.35783644e-002, 0., 0.,
          7.21220523e-002, 0., 0., 0., 0., 2.77392520e-003, 0., 0.,
          3.05131767e-002, 0., 0., 0., 0., 0., 0., 0., 0., 0., 0., 0.,
          0., 0., 0., 0., 0., 0., 0., 0., 0., 0., 0., 0., 0., 0., 0., 0.,
          0., 0., 0., 0., 0., 0., 0., 1.24826636e-002, 0., 0., 0., 0.,
          0., 0., 0., 0., 0., 0., 0., 0., 0., 0., 0., 4.57697660e-002,
          0., 2.63522901e-002, 0., 0., 0., 0., 0., 0., 0., 0., 0., 0.,
          0., 0., 0., 0., 0., 0., 0., 0., 0., 0., 0., 0., 0., 0., 0., 0.,
          0., 0., 0., 0., 0., 0., 1.38696264e-002, 0., 0., 0., 0., 0.,
          0., 0., 0., 0., 0., 0., 0., 0., 0., 0., 0., 0., 0.,
          9.70873795e-003, 0., 0., 0., 0., 0., 0., 0., 0., 0., 0., 0.,
          0., 0., 0., 0., 0., 0., 0., 0., 0., 0., 0., 0., 0., 0., 0., 0.,
          0., 0., 0. ]
      - [ 0., 0., 0., 0., 3.94011974e-001, 0., 0., 0., 0., 0., 0., 0.,
          0., 0., 0., 0., 0., 0., 4.79041925e-003, 0., 0., 0., 0., 0.,
          0., 0., 0., 0., 0., 0., 0., 0., 0., 0., 0., 0., 0., 0., 0., 0.,
          0., 0., 0., 0., 0., 0., 0., 1.19760481e-003, 0., 0., 0., 0.,
          0., 0., 0., 0., 0., 0., 0., 0., 0., 3.95209603e-002, 0., 0.,
          0., 0., 0., 0., 0., 0., 0., 3.59281432e-003, 0., 0., 0., 0.,
          0., 0., 0., 0., 0., 0., 0., 0., 0., 4.79041925e-003, 0., 0.,
          0., 0., 0., 0., 0., 0., 0., 0., 0., 0., 0., 0., 0., 0., 0., 0.,
          0., 0., 0., 0., 0., 0., 0., 0., 7.18562864e-003, 0., 0., 0.,
          0., 0., 0., 0., 0., 0., 0., 0., 0., 0., 0., 0., 0., 0., 0., 0.,
          0., 0., 0., 0., 0., 0., 0., 0., 0., 0., 0., 0., 0., 0., 0., 0.,
          0., 5.98802418e-003, 0., 0., 0., 0., 0., 0., 0., 0., 0., 0.,
          0., 0., 0., 0., 0., 5.26946113e-002, 0., 0., 0., 0., 0., 0.,
          0., 0., 0., 0., 0., 0., 0., 0., 0., 0., 0., 0., 0., 0., 0., 0.,
          0., 0., 0., 0., 0., 0., 0., 0., 0., 0., 0., 0., 0., 0., 0., 0.,
          0., 0., 0., 0., 0., 0., 1.82035938e-001, 0., 0., 0., 0., 0.,
          0., 0., 0., 2.87425146e-002, 0., 0., 0., 0., 0., 0., 0., 0.,
          0., 0., 0., 0., 0., 0., 0., 0., 2.03592815e-002, 0., 0., 0.,
          0., 0., 0., 0., 0., 3.59281432e-003, 0., 0., 0., 0., 0., 0.,
          0., 0., 0., 0., 0., 0., 0., 0., 0., 0., 0., 0., 0., 0., 0., 0.,
          0., 0., 0., 0., 0., 0., 0., 5.98802418e-003, 0., 0., 0., 0.,
          0., 0., 0., 0., 0., 0., 0., 0., 0., 0., 0., 0., 0., 0., 0., 0.,
          0., 0., 0., 0., 0., 0., 0., 0., 0., 0., 0., 1.67664681e-002,
          0., 0., 0., 0., 0., 0., 0., 0., 0., 0., 0., 0., 0., 0., 0., 0.,
          0., 3.47305387e-002, 0., 0., 0., 0., 0., 0., 0., 0., 0., 0.,
          0., 1.19760484e-002, 0., 0., 0., 0., 0., 1.19760481e-003, 0.,
          2.39520962e-003, 5.86826354e-002, 0., 0., 0., 3.59281432e-003,
          0., 0., 0., 0., 0., 0., 0., 0., 0., 0., 0., 0., 0., 0., 0., 0.,
          0., 0., 0., 0., 0., 0., 0., 0., 0., 0., 0., 0., 0., 0., 0., 0.,
          0., 0., 0., 0., 0., 0., 0., 0., 0., 0., 0., 0., 0., 0., 0., 0.,
          0., 0., 0., 0., 0., 0., 0., 0., 0., 0., 0., 0., 0., 0., 0., 0.,
          0., 0., 0., 0., 0., 0., 0., 0., 0., 0., 0., 0., 0., 0., 0., 0.,
          0., 0., 0., 0., 0., 0., 0., 0., 0., 0., 0., 0., 0., 0., 0., 0.,
          0., 0., 0., 0., 0., 0., 1.91616770e-002, 0., 0.,
          9.10179690e-002, 0., 0., 0., 0., 0., 0., 0., 0., 0., 0., 0.,
          0., 0., 0., 0., 0., 0., 0., 0., 0., 0., 0., 0., 0., 0., 0., 0.,
          0., 0., 0., 0., 0., 0., 0., 0., 0., 0., 0., 0., 0., 0., 0.,
          1.19760481e-003, 0., 0., 0., 0., 0., 0., 0., 0., 0., 0., 0.,
          0., 0., 0., 0., 0., 0., 1.19760481e-003, 0., 0., 0., 0., 0.,
          0., 0., 0., 0., 0., 0., 0., 0., 0., 0., 0., 0., 0., 0., 0., 0.,
          0., 0., 0., 0., 0., 0., 0., 0., 0., 0., 0., 2.39520962e-003,
          0., 0., 0., 0., 0., 0., 0., 0., 0., 0., 0., 0., 0., 0., 0., 0.,
          0., 0., 1.19760481e-003, 0., 0., 0., 0., 0., 0., 0., 0., 0.,
          0., 0., 0., 0., 0., 0., 0., 0., 0., 0., 0., 0., 0., 0., 0., 0.,
          0., 0., 0., 0., 0. ]
      - [ 0., 0., 0., 0., 2.96735903e-003, 0., 0., 0., 0., 0., 0., 0.,
          0., 0., 0., 0., 0., 0., 2.04747766e-001, 0., 0., 0., 0.,
          3.85756679e-002, 0., 0., 0., 0., 0., 0., 0., 0., 0., 0., 0.,
          0., 0., 0., 0., 0., 0., 0., 0., 0., 0., 0., 0.,
          1.48367956e-002, 0., 0., 0., 0., 0., 0., 0., 0., 0., 0., 0.,
          0., 0., 1.18694361e-002, 0., 0., 0., 0., 0., 0., 0., 0., 0.,
          2.96735903e-003, 0., 0., 0., 0., 0., 0., 0., 0., 0., 0., 0.,
          0., 0., 6.23145401e-002, 0., 0., 0., 0., 0., 2.37388723e-002,
          0., 0., 0., 0., 0., 0., 0., 2.96735913e-002, 0., 0., 0., 0.,
          0., 0., 0., 0., 0., 0., 0., 0., 0., 0., 0., 0., 0., 0., 0., 0.,
          0., 0., 0., 0., 0., 0., 0., 0., 0., 0., 0., 0., 0., 0., 0., 0.,
          0., 0., 0., 0., 0., 0., 0., 0., 0., 0., 0., 0., 0.,
          8.90207663e-003, 0., 0., 0., 0., 0., 0., 0., 0., 0., 0., 0.,
          0., 0., 0., 0., 2.96735913e-002, 0., 0., 0., 0., 0., 0., 0.,
          0., 0., 0., 0., 0., 0., 0., 0., 0., 0., 0., 0., 0., 0., 0., 0.,
          0., 0., 0., 0., 0., 0., 0., 0., 0., 0., 0., 0., 0., 0., 0., 0.,
          0., 0., 0., 0., 0., 2.96735903e-003, 0., 0., 0., 0., 0., 0.,
          0., 0., 8.90207663e-003, 0., 0., 0., 0., 0., 0., 0., 0., 0.,
          0., 0., 0., 0., 0., 0., 0., 1.48367956e-002, 0., 0., 0., 0.,
          0., 0., 0., 0., 2.37388723e-002, 0., 0., 0., 0., 0., 0., 0.,
          0., 0., 0., 0., 0., 0., 0., 0., 0., 0., 0., 0., 0., 0., 0., 0.,
          0., 0., 0., 0., 0., 0., 1.18694361e-002, 0., 0., 0., 0., 0.,
          0., 0., 0., 0., 0., 0., 0., 0., 0., 0., 0., 0., 0., 0., 0., 0.,
          0., 0., 0., 0., 0., 0., 0., 0., 0., 0., 1.18694361e-002, 0.,
          0., 0., 0., 0., 0., 0., 0., 0., 0., 0., 0., 0., 0., 0., 0., 0.,
          0., 0., 0., 0., 0., 0., 0., 0., 0., 0., 0., 0.,
          8.90207663e-003, 0., 0., 0., 0., 0., 0., 0., 3.85756679e-002,
          0., 0., 0., 0., 4.15430255e-002, 0., 0., 0., 0., 0., 0., 0.,
          0., 0., 0., 0., 0., 0., 0., 0., 0., 0., 0., 0., 0., 0., 0., 0.,
          0., 0., 0., 0., 0., 0., 0., 0., 0., 0., 0., 0., 0., 0., 0., 0.,
          0., 0., 0., 0., 0., 0., 0., 0., 0., 0., 0., 0., 0., 0., 0., 0.,
          0., 0., 0., 0., 0., 0., 0., 0., 0., 0., 0., 0., 0., 0., 0., 0.,
          2.37388723e-002, 0., 0., 0., 0., 0., 0., 0., 0., 0., 0., 0.,
          0., 0., 0., 0., 0., 0., 0., 0., 0., 0., 0., 0., 0., 0., 0., 0.,
          0., 0., 0., 0., 0., 0., 1.39465868e-001, 0., 0., 0., 0.,
          1.60237387e-001, 0., 0., 3.85756679e-002, 0., 0., 0., 0., 0.,
          0., 0., 0., 0., 0., 0., 0., 0., 0., 0., 0., 0., 0., 0., 0., 0.,
          0., 0., 0., 0., 0., 0., 0., 0., 0., 0., 0., 0., 0.,
          2.96735903e-003, 0., 0., 0., 0., 0., 0., 0., 0., 0., 0., 0.,
          0., 0., 0., 0., 2.07715128e-002, 0., 0., 0., 0., 0., 0., 0.,
          0., 0., 0., 0., 0., 0., 0., 0., 0., 0., 0., 0., 0., 0., 0., 0.,
          0., 0., 0., 0., 0., 0., 0., 0., 0., 0., 0., 2.96735903e-003,
          0., 0., 0., 0., 0., 0., 0., 0., 0., 0., 0., 0., 0., 0., 0., 0.,
          0., 0., 1.78041533e-002, 0., 0., 0., 0., 0., 0., 0., 0., 0.,
          0., 0., 0., 0., 0., 0., 0., 0., 0., 0., 0., 0., 0., 0., 0., 0.,
          0., 0., 0., 0., 0. ]
      - [ 0., 0., 0., 0., 0., 0., 3.04414006e-003, 0., 0., 0.,
          6.08828012e-003, 1.67427696e-002, 0., 0., 0., 1.52206998e-002,
          0., 1.52207003e-003, 0., 0., 0., 0., 1.52207003e-003, 0., 0.,
          3.04414006e-003, 3.04414006e-003, 0., 0., 3.04414006e-003,
          1.52207003e-003, 0., 1.21765602e-002, 1.52207003e-003, 0., 0.,
          0., 0., 0., 3.04414006e-003, 0., 0., 4.56621032e-003, 0., 0.,
          0., 1.82648413e-002, 0., 0., 3.04414006e-003, 3.04414006e-003,
          0., 3.04414006e-003, 1.52207003e-003, 0., 0., 0., 0., 0., 0.,
          0., 0., 1.52207003e-003, 0., 0., 1.52207003e-003, 0., 0., 0.,
          0., 0., 0., 0., 0., 0., 1.52207003e-003, 0., 2.28310507e-002,
          0., 4.56621032e-003, 0., 1.52207003e-003, 0., 6.24048710e-002,
          1.52207003e-003, 0., 1.52207003e-003, 0., 1.21765602e-002, 0.,
          1.52207003e-003, 1.52207003e-003, 0., 0., 0., 0.,
          1.52207003e-003, 0., 3.04414006e-003, 3.04414006e-003, 0.,
          3.04414006e-003, 3.04414006e-003, 0., 3.04414006e-003, 0., 0.,
          7.61034992e-003, 0., 4.56621032e-003, 0., 0., 1.52207003e-003,
          0., 0., 0., 0., 0., 0., 1.52207003e-003, 1.52207003e-003, 0.,
          0., 0., 0., 0., 4.56621032e-003, 0., 0., 0., 0., 0., 0., 0.,
          0., 0., 0., 0., 9.13242064e-003, 0., 0., 0., 0.,
          1.52206998e-002, 0., 0., 0., 0., 0., 0., 1.82648413e-002, 0.,
          0., 0., 4.56621032e-003, 3.04414006e-003, 0., 1.52207003e-003,
          0., 0., 4.56621032e-003, 0., 7.61034992e-003, 0., 0., 0., 0.,
          0., 0., 0., 0., 0., 1.52207003e-003, 0., 0., 0.,
          9.13242064e-003, 1.52207003e-003, 1.52207003e-003, 0.,
          3.04414006e-003, 1.52207003e-003, 0., 0., 3.04414006e-003,
          4.56621032e-003, 0., 4.56621032e-003, 0., 3.04414006e-003, 0.,
          0., 0., 0., 3.80517505e-002, 1.67427696e-002, 0., 0., 0., 0.,
          0., 0., 0., 6.08828012e-003, 0., 0., 0., 1.52207003e-003, 0.,
          0., 0., 0., 0., 0., 0., 0., 1.52207003e-003, 0.,
          4.56621032e-003, 0., 0., 0., 1.52207003e-003, 0.,
          1.52207003e-003, 0., 1.52207003e-003, 3.04414006e-003, 0., 0.,
          0., 0., 0., 0., 0., 0., 0., 0., 0., 0., 1.36986300e-002,
          6.08828012e-003, 0., 0., 0., 0., 0., 0., 0., 0., 0.,
          3.04414006e-003, 0., 0., 0., 0., 0., 0., 0., 0., 0.,
          2.89193299e-002, 0., 1.52207003e-003, 0., 0., 0.,
          1.52207003e-003, 0., 1.52207003e-003, 0., 0., 1.21765602e-002,
          0., 0., 0., 0., 0., 0., 0., 1.52207003e-003, 0., 0.,
          1.52207003e-003, 1.52207003e-003, 1.21765602e-002,
          3.04414006e-003, 0., 0., 0., 1.52207003e-003, 0., 0., 0.,
          2.13089809e-002, 0., 0., 6.08828012e-003, 0., 1.52207003e-003,
          6.69710785e-002, 0., 0., 0., 0., 0., 0., 0., 1.52207003e-003,
          0., 1.52207003e-003, 0., 0., 3.04414006e-003, 0., 0., 0., 0.,
          0., 0., 1.52207003e-003, 0., 0., 4.56621032e-003, 0.,
          3.04414006e-003, 0., 0., 2.28310507e-002, 0., 0.,
          3.04414006e-003, 0., 0., 0., 0., 4.56621032e-003, 0.,
          1.52207003e-003, 0., 1.52207003e-003, 0., 0., 0.,
          3.04414006e-003, 1.52207003e-003, 1.52207003e-003, 0., 0., 0.,
          0., 0., 0., 0., 0., 9.13242064e-003, 0., 0., 0., 0., 0., 0.,
          1.52207003e-003, 0., 1.52207003e-003, 1.52206998e-002,
          1.52207003e-003, 3.04414006e-003, 0., 3.04414006e-003, 0., 0.,
          0., 1.52207003e-003, 0., 1.52207003e-003, 0., 4.56621032e-003,
          0., 0., 0., 0., 0., 0., 0., 0., 0., 0., 0., 0.,
          1.52207003e-003, 0., 0., 0., 1.52207003e-003, 0.,
          1.52207003e-003, 6.08828012e-003, 0., 0., 3.04414006e-003, 0.,
          0., 0., 0., 0., 0., 0., 0., 1.52207003e-003, 1.52207003e-003,
          0., 1.52207003e-003, 1.52207003e-003, 6.08828012e-003, 0., 0.,
          0., 0., 0., 0., 1.52207003e-003, 0., 0., 0., 1.52207003e-003,
          0., 0., 0., 0., 1.06544904e-002, 0., 3.04414006e-003, 0., 0.,
          0., 3.04414006e-003, 0., 0., 3.04414006e-003, 4.56621032e-003,
          0., 0., 1.52207003e-003, 0., 0., 9.13242064e-003, 0., 0.,
          1.52207003e-003, 0., 0., 0., 0., 0., 0., 3.04414006e-003,
          1.52207003e-003, 3.04414006e-003, 0., 0., 0., 0., 0.,
          1.52207003e-003, 7.61034992e-003, 0., 0., 1.52207003e-003, 0.,
          0., 6.08828012e-003, 0., 0., 1.52207003e-003, 0., 0.,
          7.61034992e-003, 1.52207003e-003, 3.04414006e-003, 0., 0., 0.,
          1.52207003e-003, 0., 1.52207003e-003, 1.52207003e-003,
          3.04413997e-002, 0., 0., 0., 0., 0., 0., 0., 3.04414006e-003,
          4.56621032e-003, 1.52207003e-003, 1.52207003e-003, 0.,
          1.52207003e-003, 0., 1.52207003e-003, 0., 3.04414006e-003, 0.,
          0., 0., 1.52207003e-003, 0., 1.52207003e-003, 1.52207003e-003,
          0., 0., 0., 0., 3.04414006e-003, 0., 0., 4.56621032e-003,
          7.61034992e-003, 0., 0., 3.04414006e-003, 1.52207003e-003, 0.,
          7.61034992e-003, 0., 0., 0., 1.52207003e-003, 0.,
          1.52207003e-003, 0., 0., 0., 3.04414006e-003, 1.52207003e-003,
          1.52207003e-003, 4.56621032e-003, 0., 1.52207003e-003, 0.,
          1.52207003e-003, 4.56621032e-003, 3.04414006e-003,
          1.52207003e-003, 0., 0., 0., 1.52207003e-003, 6.08828012e-003,
          6.08828012e-003, 0., 0., 1.52207003e-003, 1.52207003e-003,
          1.52207003e-003, 0., 0., 0., 0., 0., 0., 0., 1.52207003e-003,
          0., 0., 1.52207003e-003, 1.52207003e-003, 1.52207003e-003,
          1.52207003e-003, 3.04414006e-003, 0., 1.52207003e-003, 0., 0.,
          1.52207003e-003, 0., 0., 0., 1.52207003e-003, 0., 0., 0., 0.,
          4.56621032e-003, 3.04414006e-003, 0., 1.52207003e-003,
          4.56621032e-003, 1.82648413e-002, 0., 3.04414006e-003,
          1.52207003e-003, 1.52207003e-003, 0., 0., 1.52207003e-003, 0. ]
      - [ 1.16686116e-003, 0., 1.16686116e-003, 0., 0., 0., 0., 0.,
          7.00116716e-003, 0., 0., 0., 0., 1.16686116e-003, 0., 0.,
          1.16686116e-003, 3.50058358e-003, 0., 0., 0., 1.16686116e-003,
          5.83430566e-003, 0., 0., 0., 0., 7.00116716e-003,
          1.16686116e-003, 0., 2.91715283e-002, 0., 0., 4.66744462e-003,
          0., 0., 2.33372231e-003, 0., 1.16686116e-003, 0., 0.,
          1.16686116e-003, 0., 1.16686116e-003, 1.16686116e-003, 0., 0.,
          0., 0., 0., 0., 1.16686116e-003, 0., 1.40023343e-002, 0., 0.,
          2.10035015e-002, 0., 2.33372231e-003, 0., 0., 0., 0., 0.,
          3.50058358e-003, 0., 0., 0., 0., 1.05017507e-002, 0., 0.,
          1.16686116e-003, 0., 1.16686116e-003, 0., 2.33372231e-003, 0.,
          0., 1.28354728e-002, 1.16686116e-003, 0., 0., 0., 0., 0., 0.,
          1.05017507e-002, 0., 0., 0., 0., 0., 4.66744462e-003, 0., 0.,
          0., 1.16686116e-003, 0., 0., 1.16686116e-003, 0., 0., 0.,
          4.66744462e-003, 2.33372231e-003, 1.16686116e-003, 0., 0., 0.,
          7.00116716e-003, 0., 0., 0., 3.50058358e-003, 0.,
          1.16686116e-003, 0., 1.16686116e-003, 0., 1.16686116e-003, 0.,
          3.50058358e-003, 3.50058358e-003, 1.16686116e-003, 0.,
          1.05017507e-002, 0., 0., 1.16686116e-003, 1.16686116e-003,
          1.16686116e-003, 0., 1.16686116e-003, 3.50058358e-003,
          3.50058358e-003, 1.86697785e-002, 0., 4.66744462e-003, 0., 0.,
          3.50058358e-003, 0., 0., 0., 0., 1.16686116e-003, 0., 0., 0.,
          2.33372231e-003, 0., 4.66744462e-003, 1.16686116e-003, 0., 0.,
          0., 0., 0., 0., 0., 5.83430566e-003, 0., 0., 2.33372231e-003,
          0., 0., 0., 4.66744462e-003, 1.16686116e-003, 2.33372231e-003,
          0., 2.33372231e-003, 4.66744462e-003, 3.50058358e-003, 0., 0.,
          0., 0., 0., 0., 0., 1.16686116e-003, 9.33488924e-003, 0., 0.,
          0., 3.73395570e-002, 0., 0., 2.33372231e-003, 0., 0.,
          3.50058358e-003, 0., 1.16686116e-003, 0., 3.03383898e-002, 0.,
          1.16686116e-003, 0., 0., 1.16686116e-003, 0., 1.16686116e-003,
          0., 0., 1.16686116e-003, 8.16802774e-003, 0., 0.,
          1.16686116e-003, 1.16686116e-003, 1.16686116e-003, 0., 0.,
          1.16686116e-003, 4.66744462e-003, 0., 0., 0., 7.00116716e-003,
          4.66744462e-003, 1.16686116e-003, 2.33372231e-003, 0.,
          1.16686116e-003, 0., 1.05017507e-002, 0., 0., 0.,
          1.16686116e-003, 2.33372231e-003, 0., 0., 0., 2.33372231e-003,
          0., 0., 1.16686116e-003, 0., 0., 0., 8.16802774e-003, 0., 0.,
          2.33372231e-003, 7.00116716e-003, 1.16686116e-003, 0., 0., 0.,
          3.50058358e-003, 4.66744462e-003, 0., 3.50058358e-003,
          5.83430566e-003, 0., 4.66744462e-003, 0., 0., 0., 0.,
          7.00116716e-003, 0., 0., 1.16686116e-003, 0., 0.,
          1.16686116e-003, 1.52858809e-001, 2.33372231e-003,
          4.66744462e-003, 0., 0., 0., 1.16686116e-003, 0., 0.,
          2.33372231e-003, 2.33372231e-003, 0., 5.83430566e-003,
          1.16686116e-003, 0., 2.33372231e-003, 5.83430566e-003,
          1.16686116e-003, 0., 1.16686116e-003, 0., 0., 1.16686116e-003,
          0., 0., 2.33372231e-003, 0., 2.33372231e-003, 0., 0.,
          1.16686116e-003, 0., 2.33372231e-003, 1.16686116e-003, 0., 0.,
          0., 0., 0., 1.16686116e-003, 0., 0., 0., 0., 0.,
          1.28354728e-002, 0., 0., 5.83430566e-003, 0., 0., 0., 0., 0.,
          0., 0., 1.16686116e-003, 0., 0., 0., 0., 0., 0.,
          2.33372231e-003, 0., 2.33372231e-003, 0., 0., 1.16686116e-003,
          0., 2.33372231e-003, 0., 0., 0., 0., 0., 1.16686116e-003, 0.,
          0., 0., 0., 0., 2.33372231e-003, 0., 0., 1.16686116e-003,
          5.83430566e-003, 0., 2.33372231e-003, 0., 2.33372231e-003, 0.,
          0., 0., 0., 0., 0., 3.50058358e-003, 5.83430566e-003, 0.,
          2.33372231e-003, 0., 0., 1.16686116e-003, 0., 1.16686116e-003,
          0., 0., 0., 5.83430566e-003, 0., 0., 0., 4.66744462e-003,
          1.51691949e-002, 1.16686116e-003, 0., 0., 0., 0., 0., 0., 0.,
          0., 0., 0., 0., 1.28354728e-002, 1.16686116e-003, 0., 0., 0.,
          1.16686116e-003, 1.16686116e-003, 0., 0., 0., 0.,
          1.16686116e-003, 4.66744462e-003, 1.16686116e-003, 0., 0., 0.,
          2.33372231e-003, 0., 0., 2.33372231e-003, 0., 0.,
          1.16686116e-003, 0., 0., 1.16686116e-003, 3.50058358e-003,
          1.16686116e-003, 1.16686116e-003, 1.16686116e-003, 0., 0., 0.,
          2.33372231e-003, 0., 0., 0., 1.05017507e-002, 0., 0., 0., 0.,
          0., 1.16686116e-003, 0., 0., 2.33372231e-003, 0.,
          2.33372231e-003, 1.16686116e-003, 0., 0., 0., 0., 0.,
          4.66744462e-003, 1.16686116e-003, 0., 0., 2.33372231e-003,
          1.16686116e-003, 0., 0., 0., 0., 0., 1.16686116e-003,
          4.66744462e-003, 2.33372231e-003, 0., 9.33488924e-003,
          3.50058358e-003, 0., 0., 1.16686116e-003, 0., 1.16686116e-003,
          1.16686116e-003, 0., 0., 0., 4.66744462e-003, 3.50058358e-003,
          1.16686116e-003, 0., 2.33372231e-003, 0., 1.63360555e-002, 0.,
          1.16686116e-003, 0., 3.50058358e-003, 0., 0., 1.16686116e-003,
          0., 1.16686116e-003, 0., 0., 1.16686116e-003, 0.,
          1.16686116e-003, 1.16686116e-003, 0., 2.33372231e-003, 0., 0.,
          1.16686116e-003, 0., 0., 1.16686116e-003, 0., 3.50058358e-003,
          4.66744462e-003, 1.16686116e-003, 0., 0., 0., 0.,
          5.83430566e-003, 3.50058358e-003, 0., 0., 0., 3.50058358e-003,
          0., 0., 0., 2.33372231e-003, 0., 0., 2.33372231e-003, 0., 0.,
          9.33488924e-003, 7.00116716e-003, 1.16686116e-003, 0., 0., 0.,
          8.16802774e-003, 1.16686116e-003, 0., 1.16686116e-003, 0., 0.,
          0., 4.66744462e-003, 0., 1.28354728e-002, 0., 0.,
          2.33372231e-003, 0., 3.50058358e-003, 3.50058358e-003, 0., 0.,
          1.16686116e-003, 0., 0., 1.16686116e-003, 2.33372231e-003, 0.,
          0., 0., 0., 0., 1.16686116e-003, 0., 0., 1.16686116e-003,
          2.33372231e-003, 0., 0., 3.50058358e-003, 1.16686116e-003, 0.,
          1.16686116e-003, 1.16686116e-003, 0., 0., 0., 3.50058358e-003,
          0., 0., 0., 1.16686116e-003, 0., 0., 0., 4.66744462e-003, 0.,
          2.33372231e-003, 0., 4.66744462e-003, 0., 0., 2.33372231e-003,
          2.33372231e-003, 1.16686116e-003 ]
      - [ 0., 0., 0., 0., 0., 0., 1.68918923e-003, 0., 1.68918923e-003,
          0., 1.68918923e-003, 2.87162177e-002, 3.37837846e-003,
          6.75675692e-003, 0., 0., 0., 1.68918923e-003, 0., 0., 0., 0.,
          1.01351356e-002, 0., 0., 0., 3.37837846e-003, 0.,
          8.44594650e-003, 0., 1.01351356e-002, 0., 3.37837846e-003, 0.,
          0., 1.68918923e-003, 0., 0., 0., 3.37837846e-003,
          1.68918923e-003, 0., 0., 0., 0., 0., 0., 0., 6.75675692e-003,
          0., 0., 0., 0., 1.68918923e-003, 1.68918923e-003, 0.,
          1.68918923e-003, 0., 1.68918923e-003, 3.37837846e-003, 0., 0.,
          5.06756781e-003, 0., 0., 0., 0., 0., 0., 0., 0., 0.,
          2.53378376e-002, 0., 0., 0., 0., 0., 0., 5.06756781e-003, 0.,
          0., 5.06756781e-003, 1.68918923e-003, 1.68918923e-003, 0.,
          1.68918923e-003, 8.44594650e-003, 0., 0., 0., 0., 0., 0.,
          2.36486495e-002, 0., 5.06756781e-003, 0., 1.68918923e-003, 0.,
          0., 0., 0., 1.68918923e-003, 8.44594650e-003, 8.44594650e-003,
          1.68918923e-003, 1.68918923e-003, 0., 5.06756781e-003, 0.,
          3.37837846e-003, 0., 0., 1.18243247e-002, 0., 0., 0., 0., 0.,
          0., 5.06756781e-003, 5.06756781e-003, 5.06756781e-003, 0., 0.,
          0., 1.68918923e-003, 0., 1.68918923e-003, 1.68918923e-003, 0.,
          0., 3.37837846e-003, 0., 2.19594594e-002, 2.19594594e-002,
          1.68918923e-003, 0., 0., 0., 0., 0., 5.06756781e-003, 0., 0.,
          5.06756781e-003, 1.68918923e-003, 3.37837846e-003, 0., 0., 0.,
          6.75675692e-003, 0., 0., 1.68918923e-003, 0., 0., 0.,
          8.44594650e-003, 1.68918923e-003, 5.06756781e-003, 0., 0.,
          1.68918923e-003, 0., 0., 6.75675692e-003, 0., 0.,
          1.18243247e-002, 3.37837846e-003, 3.37837846e-003, 0.,
          1.52027030e-002, 0., 0., 0., 0., 0., 1.52027030e-002, 0., 0.,
          0., 0., 0., 0., 8.44594650e-003, 0., 0., 0., 0., 0., 0.,
          5.06756781e-003, 8.44594650e-003, 1.68918923e-003, 0., 0., 0.,
          0., 1.68918923e-003, 3.37837846e-003, 0., 0., 0.,
          1.68918923e-003, 1.68918923e-003, 0., 0., 0., 0., 0., 0.,
          2.19594594e-002, 1.68918923e-003, 0., 0., 0., 0.,
          3.37837846e-003, 0., 0., 0., 5.06756781e-003, 0., 0., 0.,
          1.01351356e-002, 0., 0., 0., 0., 0., 0., 0., 0., 0., 0., 0.,
          5.06756781e-003, 0., 0., 0., 0., 0., 6.75675692e-003, 0.,
          3.37837846e-003, 0., 0., 0., 0., 1.68918923e-003,
          1.68918923e-003, 0., 3.71621624e-002, 0., 0., 0., 0.,
          6.75675692e-003, 0., 0., 1.01351356e-002, 0., 0., 0., 0., 0.,
          0., 5.40540554e-002, 1.18243247e-002, 0., 1.68918923e-003, 0.,
          1.35135138e-002, 0., 0., 0., 0., 0., 0., 5.06756781e-003,
          1.68918923e-003, 0., 0., 0., 0., 1.68918923e-003,
          8.44594650e-003, 0., 0., 0., 5.06756781e-003, 0., 0., 0., 0.,
          0., 1.68918923e-003, 0., 1.68918923e-003, 0., 0., 0.,
          1.68918923e-003, 0., 0., 0., 0., 0., 0., 0., 0.,
          1.68918923e-003, 8.44594650e-003, 0., 0., 6.92567602e-002,
          1.68918923e-003, 0., 0., 0., 0., 0., 1.01351356e-002, 0.,
          1.52027030e-002, 0., 0., 1.68918923e-003, 3.37837846e-003, 0.,
          0., 3.37837846e-003, 3.37837846e-003, 0., 0., 0., 0., 0., 0.,
          0., 0., 0., 0., 0., 0., 0., 0., 0., 0., 0., 1.68918923e-003,
          0., 0., 0., 0., 0., 0., 0., 0., 0., 0., 1.68918923e-003,
          1.68918923e-003, 3.37837846e-003, 0., 0., 0., 0.,
          1.68918923e-003, 0., 0., 0., 0., 0., 0., 0., 1.68918923e-003,
          0., 0., 1.68918923e-003, 0., 1.68918923e-003, 0.,
          1.68918923e-003, 1.68918923e-003, 0., 0., 0., 0., 0., 0., 0.,
          0., 0., 0., 0., 0., 0., 0., 0., 0., 0., 6.75675692e-003,
          1.68918923e-003, 0., 0., 0., 0., 0., 1.68918923e-003,
          1.68918923e-003, 0., 0., 0., 0., 0., 0., 0., 0., 0., 0.,
          3.37837846e-003, 0., 0., 1.68918923e-003, 0., 0., 0.,
          3.37837846e-003, 0., 0., 0., 3.37837846e-003, 0., 0.,
          3.37837846e-003, 0., 1.68918923e-003, 5.06756781e-003, 0., 0.,
          1.68918923e-003, 0., 0., 0., 0., 3.37837846e-003, 0., 0.,
          5.06756781e-003, 0., 0., 0., 0., 3.37837846e-003, 0., 0., 0.,
          0., 0., 0., 1.01351356e-002, 1.68918923e-003, 0.,
          5.06756781e-003, 0., 0., 1.85810812e-002, 0., 0., 0.,
          3.37837846e-003, 0., 0., 6.75675692e-003, 0., 5.06756781e-003,
          0., 0., 1.68918923e-003, 1.68918923e-003, 0., 2.02702712e-002,
          0., 0., 0., 0., 0., 1.68918923e-003, 1.68918923e-003, 0.,
          1.68918923e-003, 0., 0., 0., 0., 0., 0., 0., 1.68918923e-003,
          0., 0., 0., 0., 0., 0., 0., 0., 0., 1.68918923e-003,
          3.37837846e-003, 0., 0., 0., 1.01351356e-002, 0., 0., 0., 0.,
          0., 0., 0., 1.68918923e-003, 0., 0., 0., 0., 5.06756781e-003,
          0., 0., 3.37837846e-003, 0., 0., 1.68918923e-003, 0., 0., 0.,
          1.68918923e-003, 0., 0., 0., 3.37837846e-003, 3.37837846e-003,
          0., 1.01351356e-002, 0., 0., 1.68918923e-003, 3.37837846e-003,
          0., 0., 0., 0., 0., 1.68918923e-003, 0., 0., 0., 0., 0., 0.,
          5.06756781e-003, 0., 0., 1.68918923e-003, 0., 0.,
          1.68918923e-003, 0., 0., 3.37837846e-003, 1.68918923e-003, 0.,
          0., 0., 0., 0., 0., 0., 0., 0., 6.75675692e-003, 0.,
          1.68918923e-003, 0., 0., 1.68918923e-003, 3.37837846e-003, 0.,
          1.68918923e-003, 0., 0., 0., 1.68918923e-003, 0., 0. ]
      - [ 1.70250889e-002, 0., 0., 0., 0., 0., 0., 0., 8.06451589e-003,
          0., 0., 0., 0., 0., 0., 0., 0., 0., 0., 0., 0., 0., 0.,
          2.68817204e-003, 0., 8.96057347e-004, 0., 2.68817204e-003, 0.,
          0., 2.68817209e-002, 0., 0., 8.96057347e-004, 0., 0., 0., 0.,
          0., 0., 0., 0., 0., 0., 0., 5.37634408e-003, 0., 0., 0.,
          9.85663105e-003, 3.04659493e-002, 8.96057347e-004, 0., 0., 0.,
          0., 1.88172050e-002, 0., 8.96057347e-004, 0., 0., 0., 0., 0.,
          8.96057347e-004, 8.96057347e-004, 0., 0., 0., 6.98924735e-002,
          2.68817204e-003, 0., 0., 0., 0., 0., 0., 6.27240166e-003, 0.,
          2.86738351e-002, 8.96057347e-004, 0., 0., 8.96057347e-004, 0.,
          0., 0., 0., 8.96057347e-004, 0., 0., 0., 0., 8.96057347e-004,
          6.27240166e-003, 0., 0., 0., 0., 0., 0., 0., 0., 0.,
          4.48028650e-003, 1.25448033e-002, 0., 0., 0., 8.96057347e-004,
          8.96057347e-004, 1.79211469e-003, 0., 0., 4.39068116e-002, 0.,
          8.96057347e-004, 0., 8.96057347e-004, 8.96057347e-004, 0., 0.,
          4.48028650e-003, 0., 0., 0., 0., 0., 0., 5.37634408e-003, 0.,
          0., 0., 8.96057347e-004, 0., 7.16845877e-003, 8.96057347e-004,
          0., 1.79211460e-002, 0., 0., 0., 2.68817204e-003, 0.,
          8.96057347e-004, 0., 8.96057347e-004, 0., 0., 0.,
          6.27240166e-003, 0., 0., 2.68817204e-003, 0., 8.06451589e-003,
          0., 0., 0., 0., 0., 1.79211469e-003, 1.79211469e-003, 0., 0.,
          0., 0., 0., 0., 0., 1.79211469e-003, 7.16845877e-003, 0.,
          3.58422939e-003, 0., 0., 0., 0., 8.96057347e-004,
          8.96057347e-004, 0., 0., 0., 0., 0., 0., 0., 5.37634408e-003,
          0., 0., 0., 0., 0., 0., 0., 0., 0., 1.52329747e-002, 0., 0.,
          0., 2.68817204e-003, 0., 2.68817204e-003, 8.96057347e-004, 0.,
          8.96057347e-004, 8.96057300e-003, 4.48028650e-003,
          2.68817204e-003, 0., 0., 0., 0., 0., 0., 0., 2.68817204e-003,
          0., 0., 0., 0., 0., 0., 6.27240166e-003, 0., 0., 0.,
          2.41935477e-002, 0., 0., 2.68817204e-003, 8.96057347e-004,
          1.79211469e-003, 0., 0., 0., 0., 0., 0., 0., 0., 0., 0.,
          3.58422939e-003, 0., 5.37634408e-003, 0., 3.58422939e-003, 0.,
          0., 0., 0., 0., 0., 8.96057347e-004, 6.27240166e-003,
          1.79211469e-003, 0., 0., 0., 8.96057347e-004, 0.,
          8.96057347e-004, 0., 0., 0., 5.37634408e-003, 8.96057347e-004,
          0., 0., 8.69175643e-002, 3.58422939e-003, 0., 0., 0., 0., 0.,
          0., 8.96057347e-004, 0., 8.96057347e-004, 0., 2.68817209e-002,
          5.37634408e-003, 0., 0., 0., 3.58422939e-003, 0., 0., 0., 0.,
          0., 0., 0., 0., 0., 0., 0., 8.96057347e-004, 0., 0.,
          9.85663105e-003, 0., 8.96057347e-004, 8.96057347e-004, 0.,
          2.68817204e-003, 0., 0., 0., 0., 0., 0., 0., 3.76344100e-002,
          0., 8.96057347e-004, 0., 0., 0., 0., 0., 0., 0., 0., 0., 0.,
          0., 0., 4.48028650e-003, 0., 0., 0., 0., 8.96057347e-004, 0.,
          0., 0., 0., 9.85663105e-003, 0., 0., 0., 0., 0., 0., 0., 0.,
          0., 8.96057347e-004, 0., 0., 0., 0., 1.79211460e-002,
          1.25448033e-002, 0., 8.96057347e-004, 0., 0., 1.79211469e-003,
          0., 0., 0., 0., 0., 0., 8.96057347e-004, 0., 0., 0., 0., 0.,
          8.96057347e-004, 8.96057347e-004, 0., 0., 0., 8.96057347e-004,
          0., 0., 0., 0., 1.70250889e-002, 0., 0., 0., 0., 0., 0.,
          8.96057347e-004, 0., 0., 0., 0., 0., 4.48028650e-003, 0., 0.,
          0., 0., 0., 0., 1.79211469e-003, 4.48028650e-003,
          8.96057347e-004, 0., 0., 1.25448033e-002, 0., 0., 0., 0.,
          8.96057347e-004, 0., 0., 0., 0., 8.96057347e-004,
          8.96057347e-004, 0., 8.96057347e-004, 8.96057347e-004, 0., 0.,
          0., 4.48028650e-003, 0., 0., 0., 1.34408604e-002, 0., 0., 0.,
          0., 0., 0., 3.58422939e-003, 8.96057347e-004, 0., 0., 0., 0.,
          8.96057347e-004, 0., 8.96057347e-004, 1.79211469e-003,
          1.79211469e-003, 0., 0., 0., 0., 1.79211469e-003, 0.,
          1.79211469e-003, 0., 0., 7.16845877e-003, 0., 2.68817204e-003,
          0., 0., 0., 0., 5.37634408e-003, 0., 0., 0., 0.,
          2.68817204e-003, 0., 8.96057347e-004, 0., 0., 0., 0.,
          3.58422939e-003, 0., 1.79211469e-003, 0., 0., 0.,
          4.92831543e-002, 0., 2.68817204e-003, 0., 0., 0.,
          4.48028650e-003, 0., 0., 0., 0., 8.96057347e-004, 0., 0.,
          3.58422939e-003, 0., 0., 0., 0., 0., 0., 0., 1.79211469e-003,
          1.79211469e-003, 1.79211469e-003, 0., 0., 0., 2.68817204e-003,
          8.96057347e-004, 1.25448033e-002, 0., 0., 0., 2.68817204e-003,
          1.79211469e-003, 0., 0., 1.79211469e-003, 6.27240166e-003, 0.,
          0., 0., 1.79211469e-003, 0., 0., 0., 8.96057347e-004, 0., 0.,
          5.37634408e-003, 0., 5.37634408e-003, 0., 0., 0., 0., 0.,
          8.96057347e-004, 0., 0., 0., 8.96057347e-004, 0.,
          8.96057347e-004, 0., 0., 0., 0., 0., 0., 0., 8.96057347e-004,
          0., 0., 0., 0., 7.16845877e-003, 8.96057347e-004,
          1.79211469e-003, 8.96057347e-004, 0., 0., 0., 0., 0., 0.,
          8.96057347e-004, 0., 0., 0., 0., 2.68817204e-003,
          6.27240166e-003, 8.96057347e-004, 0., 0., 2.68817204e-003,
          7.16845877e-003, 0., 0., 0., 0., 0., 0., 8.96057347e-004,
          8.06451589e-003, 1.79211469e-003, 0., 0., 0., 1.79211469e-003,
          0., 5.37634408e-003, 1.79211469e-003, 0. ]
      - [ 5.93119813e-003, 0., 0., 0., 0., 0., 2.37247930e-003, 0., 0.,
          0., 0., 0., 2.37247930e-003, 0., 0., 0., 0., 2.37247930e-003,
          0., 1.18623965e-003, 0., 0., 4.74495860e-003, 0., 0.,
          1.18623965e-003, 0., 4.38908674e-002, 1.18623965e-003, 0.,
          1.42348763e-002, 1.18623965e-003, 2.37247930e-003,
          7.11743813e-003, 1.18623965e-003, 0., 1.18623965e-003,
          2.37247930e-003, 0., 0., 0., 2.37247930e-003, 1.06761567e-002,
          1.18623965e-003, 0., 0., 0., 0., 0., 0., 2.37247930e-003, 0.,
          0., 4.74495860e-003, 2.37247930e-003, 0., 0., 0.,
          1.18623965e-003, 3.55871907e-003, 0., 0., 0., 1.18623965e-003,
          2.37247930e-003, 0., 0., 0., 0., 0., 5.93119813e-003, 0.,
          5.93119813e-003, 0., 0., 0., 1.18623965e-003, 0., 0.,
          2.37247930e-003, 3.55871907e-003, 0., 0., 0., 3.55871907e-003,
          0., 0., 0., 3.55871907e-003, 0., 1.18623965e-003, 0., 0., 0.,
          2.37247930e-003, 1.18623965e-003, 2.37247925e-002,
          1.18623965e-003, 5.93119813e-003, 0., 0., 0., 0.,
          2.37247930e-003, 0., 4.74495860e-003, 0., 0., 0.,
          4.74495860e-003, 2.37247930e-003, 5.57532646e-002, 0.,
          4.74495860e-003, 0., 0., 0., 0., 0., 0., 0., 0., 0., 0.,
          1.18623965e-003, 0., 2.37247930e-003, 0., 0., 2.37247930e-003,
          2.37247930e-003, 0., 5.93119813e-003, 1.18623965e-003,
          1.18623965e-003, 0., 0., 0., 9.48991720e-003, 0., 0.,
          4.74495860e-003, 1.18623965e-003, 0., 0., 0., 1.18623965e-003,
          0., 0., 0., 3.55871907e-003, 0., 0., 0., 0., 5.10083064e-002,
          0., 0., 0., 0., 1.18623965e-003, 0., 0., 0., 3.55871907e-003,
          0., 1.18623965e-003, 0., 0., 5.93119813e-003, 1.06761567e-002,
          0., 1.18623965e-003, 1.18623965e-003, 0., 1.18623965e-003, 0.,
          1.18623965e-003, 1.18623965e-003, 7.11743813e-003,
          2.37247930e-003, 0., 1.18623965e-003, 0., 0., 0.,
          1.18623965e-003, 0., 0., 0., 0., 0., 0., 0., 0.,
          1.18623965e-003, 0., 0., 0., 0., 0., 4.74495860e-003,
          3.55871907e-003, 1.18623965e-003, 2.37247930e-003, 0., 0.,
          5.93119813e-003, 0., 1.18623965e-003, 0., 0., 0., 0.,
          2.37247930e-003, 0., 0., 4.15183865e-002, 0., 0., 0.,
          1.18623965e-003, 0., 0., 7.11743813e-003, 0., 2.37247930e-003,
          0., 4.62633446e-002, 0., 0., 3.55871907e-003, 0.,
          1.18623965e-003, 0., 0., 0., 1.18623965e-003, 0.,
          1.18623965e-003, 1.18623965e-003, 0., 0., 1.18623965e-003,
          1.18623965e-003, 0., 2.37247930e-003, 0., 0., 1.18623965e-003,
          0., 0., 0., 1.18623965e-003, 1.18623965e-003, 0.,
          2.37247930e-003, 0., 0., 0., 0., 0., 0., 0., 1.18623965e-003,
          0., 2.37247930e-003, 2.37247930e-003, 7.11743813e-003, 0., 0.,
          1.18623965e-003, 2.37247930e-003, 1.18623965e-003,
          1.18623965e-003, 0., 3.55871907e-003, 0., 0., 8.30367766e-003,
          0., 0., 0., 1.18623963e-002, 0., 0., 1.18623965e-003, 0., 0.,
          2.37247930e-003, 0., 0., 0., 1.18623965e-003, 0., 0., 0.,
          1.18623965e-003, 0., 0., 1.18623965e-003, 0., 1.18623965e-003,
          4.74495860e-003, 0., 0., 0., 0., 0., 1.18623965e-003, 0., 0.,
          1.18623965e-003, 0., 2.37247930e-003, 0., 2.72835121e-002, 0.,
          2.37247930e-003, 4.74495860e-003, 1.18623965e-003, 0.,
          1.18623965e-003, 0., 0., 0., 0., 1.18623965e-003, 0.,
          1.18623965e-003, 2.37247930e-003, 1.18623965e-003,
          1.18623965e-003, 2.37247930e-003, 1.66073553e-002,
          2.37247930e-003, 1.18623965e-003, 0., 0., 2.37247930e-003, 0.,
          7.11743813e-003, 0., 0., 0., 0., 0., 0., 0., 0., 0., 0., 0.,
          0., 0., 1.18623965e-003, 0., 2.60972716e-002, 0., 0., 0.,
          2.37247930e-003, 3.55871907e-003, 0., 1.18623965e-003,
          1.18623965e-003, 0., 0., 5.93119813e-003, 2.37247930e-003,
          1.18623965e-003, 0., 2.37247930e-003, 0., 0., 0.,
          1.18623965e-003, 0., 1.18623965e-003, 0., 0., 0.,
          1.18623965e-003, 0., 0., 0., 0., 0., 3.55871907e-003,
          9.48991720e-003, 0., 0., 0., 0., 0., 1.18623965e-003, 0., 0.,
          0., 0., 3.55871907e-003, 0., 0., 0., 3.55871907e-003,
          4.74495860e-003, 0., 3.55871907e-003, 0., 0., 0., 0.,
          3.55871907e-003, 0., 1.18623965e-003, 1.18623965e-003, 0., 0.,
          0., 0., 1.18623965e-003, 4.74495860e-003, 0., 0., 0.,
          1.77935939e-002, 0., 0., 2.37247930e-003, 0., 0., 0., 0.,
          1.18623965e-003, 0., 2.37247930e-003, 0., 0., 0.,
          3.55871907e-003, 0., 0., 0., 1.18623965e-003, 0.,
          7.11743813e-003, 0., 0., 0., 0., 0., 0., 0., 0.,
          4.74495860e-003, 1.18623965e-003, 0., 1.18623965e-003,
          1.18623965e-003, 1.18623965e-003, 0., 0., 0., 1.18623965e-003,
          0., 0., 2.37247930e-003, 1.18623965e-003, 0., 1.54211158e-002,
          7.11743813e-003, 0., 0., 0., 1.18623965e-003, 0., 0.,
          1.42348763e-002, 0., 1.18623965e-003, 0., 0., 0.,
          5.93119813e-003, 1.18623963e-002, 8.30367766e-003, 0., 0., 0.,
          0., 0., 0., 2.37247930e-003, 0., 4.74495860e-003,
          2.37247930e-003, 0., 0., 4.74495860e-003, 0., 0.,
          2.37247930e-003, 0., 0., 0., 0., 4.74495860e-003, 0., 0., 0.,
          2.37247930e-003, 8.30367766e-003, 3.55871907e-003,
          1.18623965e-003, 0., 0., 0., 0., 0., 4.74495860e-003,
          4.74495860e-003, 0., 0., 2.13523135e-002, 0., 0., 0., 0., 0.,
          0., 1.18623965e-003, 0., 0., 1.18623965e-003, 0., 0., 0., 0.,
          0., 0., 0., 4.74495860e-003, 4.74495860e-003, 0., 0.,
          2.13523135e-002, 3.55871907e-003, 0., 0., 1.18623965e-003, 0.,
          0., 0., 0., 2.37247930e-003, 0., 0., 0., 0., 0.,
          1.18623965e-003, 0., 0., 0., 0., 0., 0., 0., 0., 0., 0., 0.,
          0., 1.18623965e-003, 0., 0., 0., 0., 0., 0., 0., 0.,
          1.18623965e-003, 0., 0., 0., 0., 2.37247930e-003, 0., 0.,
          1.18623965e-003, 4.74495860e-003, 0., 0., 1.18623965e-003, 0.,
          3.55871907e-003, 0., 0., 0. ]
      - [ 0., 0., 2.47524749e-003, 0., 0., 0., 2.47524749e-003, 0., 0.,
          0., 0., 0., 0., 0., 0., 0., 0., 2.47524749e-003, 0., 0., 0.,
          0., 1.48514844e-002, 0., 0., 0., 0., 0., 4.95049497e-003,
          7.42574222e-003, 2.47524749e-003, 0., 0., 0., 2.47524749e-003,
          2.47524749e-003, 2.47524749e-003, 4.95049497e-003, 0.,
          7.42574222e-003, 2.47524749e-003, 9.90098994e-003, 0.,
          4.95049497e-003, 0., 0., 2.47524749e-003, 0., 0., 0., 0., 0.,
          0., 0., 0., 4.95049497e-003, 2.47524749e-003, 0., 0., 0.,
          4.95049497e-003, 0., 0., 4.95049497e-003, 0., 2.47524749e-003,
          7.42574222e-003, 0., 2.47524749e-003, 0., 0., 0., 0., 0.,
          2.47524749e-003, 0., 2.47524749e-003, 0., 0., 0.,
          2.47524749e-003, 0., 0., 9.90098994e-003, 4.95049497e-003, 0.,
          7.42574222e-003, 2.47524749e-003, 0., 7.42574222e-003,
          2.47524749e-003, 0., 0., 0., 2.47524749e-003, 4.95049497e-003,
          0., 0., 7.42574222e-003, 0., 2.47524749e-003, 0.,
          2.47524749e-003, 0., 0., 2.47524749e-003, 2.47524749e-003, 0.,
          0., 0., 0., 0., 0., 9.90098994e-003, 0., 0., 0., 0., 0., 0.,
          0., 2.47524749e-003, 0., 0., 0., 0., 1.48514844e-002, 0.,
          4.95049497e-003, 0., 4.95049497e-003, 0., 2.47524749e-003,
          7.42574222e-003, 0., 0., 7.42574222e-003, 0., 0., 0., 0., 0.,
          0., 0., 0., 0., 0., 0., 0., 0., 2.47524749e-003,
          9.90098994e-003, 0., 0., 2.47524749e-003, 0., 0., 0., 0., 0.,
          0., 0., 0., 0., 0., 0., 0., 0., 2.47524749e-003, 0.,
          2.47524749e-003, 0., 0., 0., 0., 2.47524749e-003,
          2.72277221e-002, 2.47524749e-003, 7.42574222e-003, 0., 0., 0.,
          0., 2.47524749e-003, 0., 0., 4.95049497e-003, 0.,
          2.47524749e-003, 0., 2.47524749e-003, 2.47524749e-003,
          2.47524749e-003, 0., 0., 0., 0., 0., 0., 0., 0., 0.,
          2.47524749e-003, 0., 4.95049497e-003, 4.95049497e-003,
          2.47524749e-003, 0., 0., 0., 0., 0., 2.47524749e-003, 0., 0.,
          0., 0., 0., 1.73267331e-002, 0., 0., 2.47524749e-003, 0., 0.,
          0., 2.47524749e-003, 0., 7.42574222e-003, 0., 0., 0., 0., 0.,
          0., 0., 0., 0., 0., 0., 0., 0., 0., 0., 0., 0., 0.,
          2.47524749e-003, 0., 2.47524749e-003, 0., 7.42574222e-003,
          2.47524749e-003, 4.95049497e-003, 2.47524749e-003,
          2.47524749e-003, 0., 0., 2.47524749e-003, 0., 0.,
          2.47524749e-003, 0., 0., 0., 0., 4.95049497e-003,
          4.95049497e-003, 0., 4.95049497e-003, 4.95049497e-003, 0., 0.,
          0., 0., 0., 0., 4.95049497e-003, 0., 0., 2.47524749e-003,
          4.95049497e-003, 2.47524749e-003, 2.47524749e-003, 0.,
          4.95049497e-003, 7.42574222e-003, 0., 2.47524749e-003, 0.,
          4.95049497e-003, 2.47524749e-003, 0., 0., 7.42574222e-003, 0.,
          0., 7.42574222e-003, 0., 0., 7.42574222e-003, 0., 0.,
          2.47524749e-003, 0., 2.47524749e-003, 2.47524749e-003,
          2.47524749e-003, 0., 0., 2.47524749e-003, 0., 0., 0., 0.,
          2.47524749e-003, 0., 4.95049497e-003, 0., 0., 0.,
          9.90098994e-003, 0., 0., 0., 0., 0., 0., 0., 0.,
          7.42574222e-003, 0., 2.47524749e-003, 7.42574222e-003, 0., 0.,
          4.95049497e-003, 0., 0., 0., 0., 0., 0., 0., 0., 0., 0., 0.,
          2.47524749e-003, 0., 2.47524749e-003, 0., 0., 0., 0., 0., 0.,
          0., 0., 0., 0., 2.47524749e-003, 2.47524749e-003, 0.,
          4.95049497e-003, 0., 1.23762377e-002, 0., 0., 0.,
          1.23762377e-002, 0., 4.95049497e-003, 0., 2.47524749e-003, 0.,
          0., 0., 0., 0., 0., 2.47524749e-003, 2.47524749e-003,
          4.95049497e-003, 4.95049497e-003, 0., 0., 0., 0., 0., 0., 0.,
          4.95049497e-003, 0., 0., 0., 0., 0., 0., 2.47524749e-003, 0.,
          1.73267331e-002, 0., 0., 2.47524749e-003, 0., 0., 0., 0.,
          2.47524749e-003, 4.95049497e-003, 0., 0., 2.47524749e-003, 0.,
          0., 0., 0., 0., 0., 0., 0., 2.47524749e-003, 0., 0.,
          2.47524749e-003, 2.47524749e-003, 4.95049497e-003, 0., 0., 0.,
          4.95049497e-003, 0., 0., 0., 0., 2.47524749e-003, 0., 0.,
          4.95049497e-003, 4.95049497e-003, 0., 0., 4.95049497e-003,
          4.95049497e-003, 0., 0., 4.20792066e-002, 0., 0., 0.,
          2.47524749e-003, 0., 4.95049497e-003, 0., 0., 0., 0., 0., 0.,
          0., 4.95049497e-003, 0., 0., 0., 0., 0., 4.95049497e-003, 0.,
          2.47524749e-003, 0., 0., 0., 0., 0., 0., 0., 0., 0., 0., 0.,
          0., 2.47524749e-003, 4.95049497e-003, 0., 0., 0., 0., 0.,
          4.95049497e-003, 0., 0., 0., 2.47524749e-003, 0.,
          4.95049497e-003, 1.48514844e-002, 2.97029689e-002,
          4.95049497e-003, 0., 0., 2.22772267e-002, 0., 0., 0.,
          2.47524749e-003, 4.95049497e-003, 1.23762377e-002,
          4.95049497e-003, 0., 9.90098994e-003, 0., 0., 0., 0., 0., 0.,
          0., 0., 2.47524749e-003, 9.90098994e-003, 0., 0.,
          2.47524749e-003, 0., 2.47524749e-003, 0., 9.90098994e-003, 0.,
          2.47524749e-003, 0., 7.42574222e-003, 0., 0., 2.47524749e-003,
          0., 4.95049497e-003, 0., 0., 0., 7.42574222e-003, 0., 0.,
          2.47524749e-003, 2.47524749e-003, 0., 0., 7.42574222e-003, 0.,
          0., 4.95049497e-003, 0., 0., 2.47524749e-003, 0., 0., 0., 0.,
          7.42574222e-003, 4.95049497e-003, 0., 0., 0., 0.,
          4.95049497e-003, 0., 0., 0., 0., 0., 0., 0., 4.95049497e-003,
          0., 0., 1.48514844e-002, 2.47524749e-003, 0., 0.,
          2.47524749e-003, 4.95049497e-003, 2.47524749e-003, 0., 0., 0.,
          4.95049497e-003, 0., 7.42574222e-003, 4.95049497e-003,
          2.47524749e-003, 4.95049497e-003, 0., 0., 0., 7.42574222e-003,
          0., 0., 0., 0., 4.95049497e-003, 0. ]
      - [ 0., 0., 0., 0., 0., 0., 0., 0., 4.76190494e-003,
          1.58730161e-003, 1.26984129e-002, 0., 0., 1.58730161e-003, 0.,
          1.58730161e-003, 0., 4.76190494e-003, 0., 1.58730161e-003, 0.,
          1.58730161e-003, 1.58730161e-003, 0., 1.58730161e-003, 0.,
          1.58730161e-003, 1.58730161e-003, 1.11111114e-002,
          7.93650839e-003, 4.76190494e-003, 0., 0., 0., 3.17460322e-003,
          1.58730161e-003, 0., 0., 0., 0., 0., 3.17460322e-003, 0.,
          1.58730161e-003, 0., 6.34920644e-003, 1.58730168e-002, 0.,
          3.17460322e-003, 0., 0., 0., 1.26984129e-002, 0.,
          3.17460322e-003, 1.58730161e-003, 0., 0., 0., 3.17460322e-003,
          0., 0., 0., 3.17460322e-003, 0., 7.93650839e-003,
          1.58730161e-003, 1.58730161e-003, 0., 0., 1.58730161e-003, 0.,
          6.34920644e-003, 0., 3.17460322e-003, 3.17460322e-003, 0.,
          3.17460322e-003, 3.17460322e-003, 0., 1.58730161e-003,
          3.17460322e-003, 0., 1.58730168e-002, 0., 0., 3.17460322e-003,
          0., 0., 0., 0., 0., 0., 0., 7.93650839e-003, 0.,
          4.76190494e-003, 1.58730161e-003, 0., 0., 0., 0.,
          3.17460322e-003, 0., 0., 0., 0., 0., 0., 3.17460322e-003, 0.,
          0., 0., 0., 0., 3.17460322e-003, 0., 3.17460322e-003,
          1.58730161e-003, 4.76190494e-003, 3.17460322e-003, 0.,
          3.17460322e-003, 3.17460322e-003, 0., 3.17460322e-003,
          1.58730161e-003, 3.17460322e-003, 0., 0., 0., 3.17460322e-003,
          1.58730161e-003, 1.11111114e-002, 0., 1.58730161e-003, 0., 0.,
          0., 1.58730161e-003, 4.76190494e-003, 1.58730161e-003,
          1.58730161e-003, 3.17460322e-003, 1.58730161e-003, 0., 0.,
          3.17460322e-003, 0., 0., 0., 4.76190494e-003, 1.58730161e-003,
          0., 6.34920644e-003, 0., 4.76190494e-003, 1.58730161e-003,
          1.58730161e-003, 1.58730161e-003, 0., 0., 1.11111114e-002, 0.,
          0., 0., 1.58730161e-003, 3.17460322e-003, 1.58730161e-003, 0.,
          4.76190494e-003, 0., 0., 0., 0., 0., 3.17460322e-003,
          3.17460322e-003, 1.58730161e-003, 3.17460322e-003, 0.,
          1.58730161e-003, 0., 0., 1.58730161e-003, 1.58730161e-003, 0.,
          0., 0., 0., 0., 0., 0., 3.17460322e-003, 1.42857144e-002,
          1.58730161e-003, 1.58730161e-003, 0., 1.58730161e-003, 0.,
          4.76190494e-003, 0., 0., 0., 1.58730161e-003, 0., 0., 0., 0.,
          0., 0., 0., 1.58730161e-003, 0., 1.58730161e-003,
          1.58730161e-003, 3.17460322e-003, 1.58730161e-003,
          3.17460322e-003, 0., 4.76190494e-003, 0., 1.58730161e-003, 0.,
          1.58730161e-003, 0., 0., 0., 1.58730161e-003, 3.17460322e-003,
          0., 0., 3.17460322e-003, 3.17460322e-003, 1.58730161e-003,
          1.58730161e-003, 0., 4.76190494e-003, 0., 1.58730161e-003,
          1.58730161e-003, 1.42857144e-002, 0., 4.76190494e-003, 0.,
          1.58730161e-003, 0., 0., 0., 0., 0., 1.58730161e-003,
          3.17460322e-003, 0., 0., 0., 0., 0., 1.58730161e-003, 0.,
          3.17460322e-003, 1.58730161e-003, 0., 6.34920644e-003, 0.,
          3.17460322e-003, 0., 3.17460322e-003, 1.58730161e-003,
          1.58730161e-003, 4.76190494e-003, 0., 0., 0., 0., 0., 0.,
          6.34920644e-003, 1.58730161e-003, 0., 0., 0., 1.58730161e-003,
          0., 0., 0., 7.93650839e-003, 0., 0., 1.58730161e-003,
          1.58730161e-003, 1.58730161e-003, 3.17460322e-003,
          1.58730161e-003, 0., 6.34920644e-003, 0., 0., 0.,
          9.52380989e-003, 0., 0., 0., 3.17460322e-003, 0.,
          1.58730161e-003, 1.26984129e-002, 0., 0., 1.58730161e-003, 0.,
          0., 1.58730161e-003, 0., 0., 3.17460322e-003, 7.93650839e-003,
          0., 0., 0., 9.52380989e-003, 0., 1.58730161e-003,
          3.17460322e-003, 1.58730161e-003, 0., 0., 0., 3.17460322e-003,
          0., 1.58730161e-003, 1.58730161e-003, 3.17460322e-003, 0., 0.,
          0., 0., 0., 0., 0., 1.58730161e-003, 0., 0., 0.,
          1.58730161e-003, 0., 0., 0., 0., 1.58730161e-003, 0.,
          6.34920644e-003, 0., 4.76190494e-003, 0., 1.58730168e-002, 0.,
          0., 0., 0., 0., 6.34920644e-003, 1.58730161e-003,
          3.17460322e-003, 0., 9.52380989e-003, 1.58730161e-003,
          7.93650839e-003, 0., 4.76190494e-003, 3.17460322e-003, 0.,
          1.58730161e-003, 3.17460322e-003, 0., 6.34920644e-003, 0.,
          3.17460322e-003, 0., 0., 0., 3.17460322e-003, 0.,
          1.58730161e-003, 0., 0., 0., 3.17460322e-003, 0.,
          1.58730161e-003, 1.58730161e-003, 6.34920644e-003, 0., 0.,
          4.76190494e-003, 0., 1.58730161e-003, 0., 0., 0., 0.,
          1.58730161e-003, 0., 0., 1.58730161e-003, 0., 0.,
          3.17460322e-003, 0., 3.17460322e-003, 0., 0., 0.,
          1.58730161e-003, 4.76190494e-003, 0., 1.58730161e-003,
          3.17460322e-003, 0., 0., 0., 1.58730161e-003, 0., 0.,
          1.58730161e-003, 3.17460322e-003, 0., 0., 0., 0.,
          4.76190494e-003, 0., 0., 6.34920644e-003, 0., 3.17460322e-003,
          0., 0., 0., 0., 0., 0., 0., 1.58730161e-003, 6.34920644e-003,
          1.58730161e-003, 2.22222228e-002, 1.58730161e-003, 0., 0., 0.,
          0., 1.42857144e-002, 0., 3.17460322e-003, 1.58730161e-003, 0.,
          1.58730161e-003, 9.52380989e-003, 0., 0., 0., 1.58730161e-003,
          1.58730161e-003, 1.58730161e-003, 3.17460322e-003,
          4.76190494e-003, 0., 1.58730161e-003, 1.58730161e-003,
          3.17460322e-003, 4.76190494e-003, 1.58730161e-003, 0.,
          4.76190494e-003, 3.17460322e-003, 0., 1.58730161e-003, 0.,
          1.58730161e-003, 1.58730161e-003, 0., 0., 3.17460322e-003, 0.,
          0., 0., 0., 0., 0., 0., 1.58730161e-003, 0., 0., 0.,
          3.17460322e-003, 1.26984129e-002, 0., 1.58730161e-003, 0.,
          4.76190494e-003, 1.58730161e-003, 3.17460322e-003,
          3.17460322e-003, 1.58730161e-003, 4.76190494e-003, 0., 0., 0.,
          0., 0., 0., 0., 1.58730161e-003, 0., 0., 0., 0.,
          1.58730161e-003, 4.76190494e-003, 4.76190494e-003,
          1.58730161e-003, 0., 0., 4.76190494e-003, 1.58730161e-003,
          2.53968257e-002, 0., 3.17460322e-003, 7.93650839e-003, 0., 0.,
          3.17460322e-003, 0., 1.58730161e-003, 0., 0., 0.,
          4.76190494e-003, 3.17460322e-003, 3.17460322e-003,
          1.58730161e-003, 1.11111114e-002, 0., 0., 1.58730161e-003,
          3.17460322e-003, 1.58730161e-003, 0., 0., 0., 0., 0., 0.,
          1.58730161e-003, 1.58730161e-003, 0., 0., 3.17460322e-003, 0.,
          1.58730161e-003, 0., 0., 0., 6.34920644e-003, 1.58730161e-003,
          0., 3.17460322e-003, 9.52380989e-003, 1.58730161e-003, 0., 0.,
          1.58730161e-003, 0., 1.42857144e-002, 4.76190494e-003, 0.,
          1.58730161e-003, 0., 3.17460322e-003, 0., 0., 0.,
          1.58730161e-003, 0., 0., 1.58730161e-003, 1.58730161e-003, 0.,
          0., 1.58730161e-003, 0., 1.58730161e-003, 0., 3.17460322e-003,
          3.17460322e-003, 1.58730161e-003, 0., 0., 0. ]
      - [ 1.61030598e-003, 0., 0., 1.61030598e-003, 0., 0., 0., 0., 0.,
          0., 0., 4.83091781e-003, 0., 0., 0., 4.83091781e-003, 0.,
          1.61030598e-003, 0., 0., 1.61030598e-003, 1.61030598e-003,
          1.77133661e-002, 0., 4.83091781e-003, 3.22061195e-003,
          6.44122390e-003, 3.22061195e-003, 0., 0., 1.77133661e-002,
          1.61030598e-003, 0., 0., 3.22061195e-003, 0., 0., 0., 0., 0.,
          0., 9.66183562e-003, 0., 3.22061195e-003, 0., 4.83091781e-003,
          0., 1.61030598e-003, 8.05152953e-003, 0., 0., 0.,
          1.61030598e-003, 0., 3.22061195e-003, 1.61030598e-003, 0.,
          1.61030598e-003, 0., 0., 0., 0., 0., 1.61030598e-003,
          1.61030598e-003, 3.22061195e-003, 1.61030598e-003, 0.,
          1.61030598e-003, 1.61030598e-003, 0., 0., 3.22061195e-003, 0.,
          4.83091781e-003, 1.61030598e-003, 1.61030598e-003,
          1.61030598e-003, 1.61030598e-003, 1.61030598e-003,
          3.22061195e-003, 0., 0., 0., 3.22061195e-003, 0., 0.,
          1.61030598e-003, 0., 1.61030598e-003, 1.61030598e-003, 0., 0.,
          0., 3.22061195e-003, 0., 0., 0., 1.61030598e-003, 0.,
          1.61030598e-003, 1.61030598e-003, 1.61030598e-003,
          1.61030598e-003, 1.61030598e-003, 0., 1.61030598e-003, 0.,
          1.61030598e-003, 0., 0., 0., 0., 0., 6.44122390e-003,
          1.61030598e-003, 0., 1.61030598e-003, 0., 4.83091781e-003, 0.,
          0., 0., 1.61030598e-003, 3.22061195e-003, 4.83091781e-003,
          1.61030598e-003, 3.22061195e-003, 0., 0., 0., 0.,
          8.05152953e-003, 9.66183562e-003, 0., 0., 1.61030591e-002,
          1.61030598e-003, 0., 0., 0., 2.09339783e-002, 0., 0., 0., 0.,
          0., 0., 0., 0., 0., 3.22061195e-003, 1.61030598e-003, 0.,
          3.22061195e-003, 4.83091781e-003, 1.61030598e-003, 0.,
          1.61030598e-003, 0., 0., 3.22061195e-003, 0., 0., 0., 0.,
          1.61030598e-003, 0., 0., 0., 8.05152953e-003, 0., 0., 0.,
          3.22061195e-003, 0., 0., 0., 0., 4.83091781e-003, 0.,
          4.83091781e-003, 4.83091781e-003, 1.93236712e-002, 0., 0.,
          1.61030598e-003, 4.83091781e-003, 8.05152953e-003, 0., 0., 0.,
          1.61030598e-003, 0., 0., 3.22061195e-003, 1.61030598e-003,
          3.22061195e-003, 0., 6.44122390e-003, 1.61030598e-003, 0.,
          4.83091781e-003, 1.61030598e-003, 1.61030598e-003, 0.,
          1.61030598e-003, 0., 3.22061195e-003, 3.22061195e-003, 0.,
          1.61030598e-003, 0., 0., 0., 0., 0., 0., 0., 0.,
          1.61030598e-003, 1.61030598e-003, 0., 1.61030598e-003,
          1.61030598e-003, 0., 0., 0., 9.66183562e-003, 0., 0., 0.,
          1.61030598e-003, 0., 0., 0., 0., 0., 0., 1.61030598e-003,
          1.61030598e-003, 1.61030598e-003, 0., 0., 0., 0.,
          3.22061181e-002, 0., 3.22061195e-003, 0., 3.22061195e-003,
          1.61030598e-003, 1.61030598e-003, 0., 1.61030598e-003, 0.,
          2.89855078e-002, 0., 0., 1.61030598e-003, 0., 1.61030598e-003,
          0., 1.61030598e-003, 0., 0., 0., 0., 3.22061195e-003, 0., 0.,
          1.93236712e-002, 1.61030598e-003, 1.61030598e-003,
          1.61030598e-003, 0., 1.61030598e-003, 0., 0., 1.61030598e-003,
          0., 0., 3.22061195e-003, 0., 1.61030598e-003, 0.,
          1.61030598e-003, 0., 0., 0., 0., 1.61030598e-003, 0., 0.,
          3.22061195e-003, 0., 0., 0., 3.22061195e-003, 1.61030598e-003,
          0., 1.61030598e-003, 3.22061195e-003, 3.22061195e-003,
          1.61030598e-003, 0., 4.83091781e-003, 0., 0., 0., 0.,
          9.66183562e-003, 0., 0., 1.61030598e-003, 4.83091781e-003,
          1.44927539e-002, 0., 0., 0., 4.83091781e-003, 0.,
          3.22061195e-003, 0., 8.05152953e-003, 0., 0., 0.,
          3.22061195e-003, 1.61030598e-003, 0., 0., 1.61030598e-003, 0.,
          0., 0., 0., 0., 0., 0., 0., 1.61030598e-003, 0., 0., 0., 0.,
          0., 0., 1.61030598e-003, 1.61030598e-003, 0., 8.05152953e-003,
          0., 0., 3.22061195e-003, 6.44122390e-003, 0., 0.,
          1.61030598e-003, 1.61030598e-003, 4.83091781e-003, 0., 0., 0.,
          0., 0., 1.61030598e-003, 6.44122390e-003, 1.61030598e-003, 0.,
          8.05152953e-003, 1.61030598e-003, 0., 0., 0., 1.61030598e-003,
          3.22061195e-003, 1.61030598e-003, 1.61030598e-003, 0., 0.,
          1.61030598e-003, 0., 0., 0., 0., 0., 0., 0., 3.22061195e-003,
          3.22061195e-003, 0., 1.61030598e-003, 0., 0., 1.61030598e-003,
          0., 0., 6.44122390e-003, 0., 0., 0., 1.61030598e-003,
          3.22061195e-003, 1.61030598e-003, 0., 0., 0., 1.61030598e-003,
          1.61030598e-003, 3.22061195e-003, 0., 0., 1.61030598e-003,
          4.83091781e-003, 0., 6.44122390e-003, 3.22061195e-003, 0., 0.,
          0., 1.61030598e-003, 0., 0., 0., 0., 0., 6.44122390e-003, 0.,
          0., 0., 1.61030598e-003, 0., 1.61030598e-003, 0.,
          1.61030598e-003, 0., 0., 0., 0., 0., 0., 0., 0., 0., 0.,
          3.22061195e-003, 0., 0., 0., 0., 0., 0., 0., 1.61030598e-003,
          4.83091781e-003, 0., 8.05152953e-003, 0., 3.22061195e-003, 0.,
          0., 0., 0., 0., 8.05152953e-003, 8.05152953e-003,
          9.66183562e-003, 4.83091781e-003, 4.83091781e-003,
          4.83091781e-003, 3.22061195e-003, 3.22061195e-003,
          1.61030598e-003, 1.61030598e-003, 0., 4.83091781e-003, 0.,
          3.22061195e-003, 0., 1.61030591e-002, 0., 0., 3.22061195e-003,
          0., 4.83091781e-003, 1.12721417e-002, 0., 0., 1.61030598e-003,
          0., 0., 0., 1.61030598e-003, 6.44122390e-003, 0.,
          1.61030598e-003, 0., 0., 0., 3.22061195e-003, 0., 0., 0.,
          3.22061195e-003, 0., 1.61030598e-003, 0., 0., 0.,
          4.83091781e-003, 1.12721417e-002, 1.61030598e-003,
          1.61030598e-003, 0., 0., 0., 0., 0., 3.22061195e-003, 0., 0.,
          1.61030598e-003, 0., 1.61030598e-003, 0., 8.05152953e-003,
          3.22061195e-003, 0., 0., 1.12721417e-002, 3.22061195e-003,
          1.61030598e-003, 9.66183562e-003, 1.61030598e-003,
          1.61030598e-003, 0., 0., 3.22061195e-003, 0., 1.61030598e-003,
          1.61030598e-003, 8.05152953e-003, 0., 1.61030598e-003,
          3.22061195e-003, 3.22061195e-003, 0., 6.44122390e-003,
          1.61030598e-003, 0., 0., 1.61030598e-003, 0., 1.61030598e-003,
          0., 0., 0., 8.05152953e-003, 0., 3.22061195e-003, 0., 0., 0.,
          0., 1.61030598e-003, 0., 0., 0., 0., 0., 0., 0., 0., 0.,
          1.61030598e-003, 0., 1.61030598e-003, 0., 1.61030598e-003, 0.,
          3.22061195e-003, 3.22061195e-003, 0., 1.61030598e-003,
          1.61030598e-003, 1.61030598e-003, 3.22061195e-003,
          1.61030598e-003, 0., 3.22061195e-003, 0., 0., 0.,
          4.83091781e-003, 0., 2.09339783e-002, 0., 4.83091781e-003, 0. ]
      - [ 1.22950813e-002, 0., 2.04918021e-003, 0., 0., 0.,
          2.04918021e-003, 0., 0., 0., 0., 2.04918021e-003,
          2.04918021e-003, 0., 0., 2.04918021e-003, 0., 2.04918021e-003,
          0., 0., 0., 0., 1.02459006e-002, 0., 0., 0., 0.,
          9.63114724e-002, 4.50819656e-002, 0., 0., 0., 2.04918021e-003,
          0., 0., 0., 0., 0., 0., 0., 0., 1.63934417e-002, 0.,
          2.04918021e-003, 6.14754064e-003, 0., 2.04918021e-003, 0., 0.,
          0., 2.04918021e-003, 0., 0., 0., 0., 0., 0., 0., 0.,
          2.04918021e-003, 0., 0., 0., 0., 0., 0., 0., 0., 0., 0., 0.,
          0., 0., 2.04918021e-003, 0., 0., 0., 2.04918021e-003, 0.,
          2.04918021e-003, 8.19672085e-003, 0., 0., 2.04918021e-003,
          4.09836043e-003, 0., 0., 0., 4.09836043e-003, 0., 0., 0., 0.,
          0., 0., 0., 0., 0., 4.09836043e-003, 0., 0., 0., 0.,
          2.04918021e-003, 0., 0., 0., 0., 0., 0., 0., 3.27868834e-002,
          0., 0., 0., 0., 0., 0., 0., 4.09836043e-003, 0., 0., 0., 0.,
          0., 0., 1.02459006e-002, 0., 0., 0., 2.04918021e-003,
          4.09836043e-003, 0., 0., 0., 0., 2.04918021e-003, 0.,
          4.09836043e-003, 2.04918021e-003, 0., 0., 0., 0., 0., 0., 0.,
          0., 0., 0., 0., 0., 0., 0., 0., 1.33196712e-001, 0., 0., 0.,
          0., 4.09836043e-003, 0., 0., 0., 4.09836043e-003, 0., 0., 0.,
          2.04918021e-003, 0., 3.89344245e-002, 0., 2.04918021e-003, 0.,
          0., 0., 2.04918021e-003, 0., 0., 4.09836043e-003, 0., 0., 0.,
          0., 0., 0., 0., 0., 0., 0., 0., 1.22950813e-002, 0.,
          2.04918021e-003, 6.14754064e-003, 4.09836043e-003, 0., 0., 0.,
          0., 0., 0., 0., 0., 2.04918021e-003, 0., 0., 2.04918021e-003,
          0., 0., 0., 6.14754064e-003, 0., 0., 0., 0., 0.,
          4.09836043e-003, 2.04918021e-003, 0., 0., 0., 2.04918021e-003,
          0., 2.04918021e-003, 0., 0., 2.04918021e-003, 5.53278662e-002,
          0., 0., 0., 2.04918021e-003, 0., 0., 2.04918021e-003, 0.,
          2.04918021e-003, 0., 0., 0., 0., 0., 0., 2.04918021e-003, 0.,
          0., 0., 0., 0., 0., 2.04918021e-003, 0., 0., 0., 0., 0., 0.,
          0., 0., 0., 0., 0., 2.04918021e-003, 2.04918021e-003,
          4.09836043e-003, 0., 0., 4.09836043e-003, 0., 2.04918021e-003,
          0., 6.14754064e-003, 2.04918021e-003, 0., 0., 0., 0., 0.,
          6.14754064e-003, 0., 0., 0., 4.09836043e-003, 0., 0.,
          2.04918021e-003, 0., 2.04918021e-003, 0., 0., 0., 0.,
          2.04918021e-003, 6.14754064e-003, 0., 0., 0., 0., 0., 0., 0.,
          2.04918021e-003, 2.04918021e-003, 0., 0., 4.09836043e-003, 0.,
          0., 0., 0., 0., 0., 0., 0., 0., 1.02459006e-002, 0., 0., 0.,
          2.04918021e-003, 0., 0., 0., 0., 0., 0., 0., 2.04918021e-003,
          0., 0., 0., 2.04918021e-003, 0., 8.19672085e-003, 0.,
          8.19672085e-003, 0., 2.04918021e-003, 0., 0., 4.09836043e-003,
          0., 0., 2.04918021e-003, 0., 0., 0., 0., 4.09836043e-003, 0.,
          6.14754064e-003, 4.09836043e-003, 0., 0., 2.04918021e-003,
          2.04918021e-003, 3.68852429e-002, 0., 0., 0., 0.,
          2.04918021e-003, 0., 0., 0., 0., 0., 4.91803251e-002, 0., 0.,
          0., 0., 0., 0., 2.04918021e-003, 0., 0., 0., 0., 0., 0., 0.,
          2.04918021e-003, 0., 0., 0., 0., 4.09836043e-003, 0., 0., 0.,
          0., 2.04918021e-003, 0., 0., 2.04918021e-003, 0., 0., 0., 0.,
          0., 0., 0., 0., 0., 0., 1.22950813e-002, 0., 0., 0., 0.,
          2.04918021e-003, 0., 0., 0., 0., 0., 0., 0., 0.,
          4.09836043e-003, 0., 0., 0., 2.04918012e-002, 0., 0., 0., 0.,
          2.04918021e-003, 0., 2.04918021e-003, 0., 0., 2.04918021e-003,
          0., 0., 0., 0., 0., 0., 0., 0., 0., 0., 4.09836043e-003, 0.,
          0., 2.04918021e-003, 0., 0., 0., 0., 0., 0., 0., 0.,
          2.86885239e-002, 0., 2.04918021e-003, 0., 0., 0., 0.,
          2.04918021e-003, 0., 0., 2.04918021e-003, 8.19672085e-003,
          2.04918021e-003, 0., 0., 0., 0., 0., 0., 2.04918021e-003, 0.,
          0., 0., 0., 0., 2.04918021e-003, 4.09836043e-003,
          1.02459006e-002, 0., 2.04918021e-003, 0., 0., 0., 0.,
          2.04918021e-003, 0., 0., 0., 0., 0., 2.04918021e-003, 0., 0.,
          0., 0., 0., 0., 4.09836043e-003, 6.14754064e-003, 0., 0., 0.,
          0., 0., 0., 0., 0., 0., 0., 0., 0., 2.04918021e-003, 0.,
          2.04918021e-003, 0., 2.04918021e-003, 0., 2.04918021e-003,
          2.04918021e-003, 0., 0., 0., 0., 0., 0., 0., 0., 0., 0., 0.,
          0., 0., 0., 0., 6.14754064e-003, 0., 0., 1.02459006e-002, 0.,
          0., 0., 0., 0., 0., 0., 2.04918021e-003, 0., 2.04918021e-003,
          2.04918021e-003, 0., 0., 0., 0., 0., 0., 0., 2.04918021e-003,
          0., 2.04918021e-003, 0., 0., 0., 0., 0., 0., 0., 0., 0.,
          2.04918021e-003, 0., 0., 2.04918021e-003, 0., 0., 0., 0., 0.,
          0., 0., 0., 0., 4.09836043e-003, 6.14754064e-003, 0., 0., 0.,
          0., 0., 0., 0., 0., 0. ]
      - [ 1.06907897e-002, 0., 2.46710517e-003, 0., 0., 0., 0., 0.,
          1.64473685e-003, 8.22368427e-004, 0., 0., 2.46710517e-003, 0.,
          0., 0., 8.22368427e-004, 3.28947371e-003, 0., 2.46710517e-003,
          0., 0., 4.11184225e-003, 0., 0., 8.22368427e-004,
          8.22368427e-004, 2.30263155e-002, 0., 1.64473685e-003,
          1.64473685e-003, 2.63157897e-002, 0., 1.64473685e-003, 0.,
          8.22368427e-004, 8.22368427e-004, 2.46710517e-003, 0.,
          3.28947371e-003, 0., 1.23355268e-002, 0., 8.22368427e-004,
          1.64473685e-003, 0., 0., 0., 0., 0., 9.04605258e-003,
          1.64473685e-003, 1.64473685e-003, 4.11184225e-003,
          6.57894742e-003, 0., 1.64473685e-003, 0., 1.64473685e-003, 0.,
          0., 0., 2.46710517e-003, 0., 1.64473685e-003, 0.,
          8.22368427e-004, 2.46710517e-003, 8.22368427e-004,
          5.75657887e-003, 1.06907897e-002, 0., 0., 0., 6.57894742e-003,
          0., 3.28947371e-003, 0., 8.22368427e-004, 1.64473685e-003,
          6.57894742e-003, 0., 0., 0., 3.28947371e-003, 0.,
          1.64473685e-003, 8.22368427e-004, 3.28947371e-003, 0., 0., 0.,
          0., 1.64473685e-003, 4.93421033e-003, 8.22368427e-004,
          5.75657887e-003, 8.22368427e-004, 1.64473685e-003, 0., 0., 0.,
          0., 0., 8.22368427e-004, 1.64473685e-003, 8.22368427e-004,
          8.22368427e-004, 0., 8.22368427e-004, 8.22368427e-004,
          1.23355268e-002, 0., 1.64473685e-003, 8.22368427e-004,
          1.64473685e-003, 2.46710517e-003, 0., 8.22368427e-004, 0., 0.,
          0., 0., 8.22368427e-004, 4.93421033e-003, 8.22368427e-004,
          3.28947371e-003, 0., 0., 1.64473685e-003, 8.22368427e-004,
          2.46710517e-003, 1.64473685e-003, 0., 0., 8.22368427e-004,
          8.22368450e-003, 0., 4.11184225e-003, 0., 0., 0., 0., 0.,
          1.64473685e-003, 8.22368427e-004, 0., 2.46710517e-003, 0., 0.,
          2.46710517e-003, 0., 8.22368427e-004, 1.64473685e-003, 0.,
          4.44078967e-002, 0., 2.46710517e-003, 1.64473685e-003, 0., 0.,
          8.22368427e-004, 0., 0., 3.28947371e-003, 0., 7.40131596e-003,
          0., 8.22368427e-004, 6.57894742e-003, 6.57894742e-003, 0.,
          8.22368427e-004, 0., 0., 0., 0., 8.22368427e-004,
          1.64473685e-003, 8.22368427e-004, 0., 0., 0., 1.64473685e-003,
          0., 2.46710517e-003, 0., 8.22368427e-004, 0., 0.,
          8.22368427e-004, 0., 0., 8.22368427e-004, 0., 1.64473685e-003,
          1.64473685e-003, 0., 0., 0., 2.46710517e-003, 0.,
          3.28947371e-003, 2.46710517e-003, 3.28947371e-003,
          8.22368427e-004, 8.22368427e-004, 1.64473685e-003, 0.,
          8.22368427e-004, 0., 4.93421033e-003, 8.22368427e-004, 0., 0.,
          1.64473685e-003, 8.22368427e-004, 3.28947371e-003, 0., 0.,
          1.64473685e-003, 0., 0., 0., 1.39802629e-002, 0.,
          8.22368427e-004, 0., 2.46710535e-002, 0., 0., 8.22368427e-004,
          8.22368427e-004, 3.28947371e-003, 3.28947371e-003, 0., 0., 0.,
          0., 0., 8.22368427e-004, 0., 0., 1.64473685e-003,
          1.06907897e-002, 0., 3.28947371e-003, 8.22368427e-004, 0., 0.,
          8.22368427e-004, 0., 0., 8.22368427e-004, 0., 0., 0.,
          1.64473685e-003, 8.22368427e-004, 5.75657887e-003,
          4.11184225e-003, 0., 0., 0., 6.57894742e-003, 0.,
          8.22368427e-004, 8.22368427e-004, 1.23355268e-002,
          2.46710517e-003, 0., 7.40131596e-003, 3.28947371e-003,
          2.46710517e-003, 0., 0., 1.64473685e-003, 0., 8.22368427e-004,
          8.22368450e-003, 0., 4.11184225e-003, 0., 5.75657887e-003, 0.,
          1.64473685e-003, 0., 0., 8.22368427e-004, 0., 0., 0., 0., 0.,
          0., 0., 8.22368427e-004, 0., 1.64473685e-003, 0.,
          2.46710517e-003, 2.46710517e-003, 0., 8.22368450e-003,
          8.22368427e-004, 0., 1.64473685e-003, 0., 0., 4.11184225e-003,
          0., 8.22368427e-004, 0., 0., 4.11184225e-003, 0.,
          1.23355268e-002, 8.22368427e-004, 6.57894742e-003,
          8.22368427e-004, 0., 1.64473685e-003, 0., 0., 6.57894742e-003,
          0., 3.28947371e-003, 0., 0., 8.22368427e-004, 1.64473685e-003,
          0., 0., 0., 3.28947371e-003, 0., 8.22368427e-004, 0., 0.,
          1.64473685e-003, 8.22368427e-004, 1.15131577e-002, 0., 0.,
          8.22368427e-004, 0., 0., 0., 8.22368427e-004, 3.28947371e-003,
          0., 0., 0., 1.64473685e-003, 8.22368427e-004, 2.46710517e-003,
          4.11184225e-003, 2.63157897e-002, 8.22368427e-004,
          1.64473685e-003, 0., 6.57894742e-003, 2.46710517e-003,
          1.64473685e-003, 8.22368427e-004, 0., 2.46710517e-003, 0.,
          1.64473685e-003, 8.22368427e-004, 0., 0., 2.46710517e-003,
          1.64473685e-003, 0., 2.46710517e-003, 3.28947371e-003,
          8.22368427e-004, 1.64473685e-003, 0., 0., 0., 0., 0.,
          9.86842066e-003, 4.93421033e-003, 0., 0., 1.64473685e-003,
          3.28947371e-003, 8.22368427e-004, 8.22368427e-004, 0., 0., 0.,
          0., 0., 0., 0., 0., 0., 0., 8.22368427e-004, 2.46710517e-003,
          1.64473685e-003, 3.28947371e-003, 0., 8.22368427e-004, 0., 0.,
          4.93421033e-003, 0., 8.22368427e-004, 1.64473685e-003,
          8.22368427e-004, 8.22368427e-004, 0., 8.22368427e-004, 0.,
          8.22368427e-004, 1.64473685e-003, 1.06907897e-002, 0., 0., 0.,
          1.64473685e-003, 8.22368427e-004, 4.93421033e-003,
          3.28947371e-003, 0., 0., 0., 5.75657887e-003, 1.64473685e-003,
          0., 0., 8.22368427e-004, 0., 0., 1.64473685e-003, 0., 0., 0.,
          0., 0., 9.04605258e-003, 8.22368427e-004, 0., 1.64473685e-003,
          0., 8.22368427e-004, 0., 8.22368427e-004, 0., 1.89144742e-002,
          8.22368427e-004, 0., 0., 2.46710517e-003, 7.40131596e-003,
          8.22368427e-004, 0., 0., 4.11184225e-003, 0., 0., 0.,
          3.28947371e-003, 0., 1.89144742e-002, 1.64473685e-003,
          3.28947371e-003, 1.64473685e-003, 0., 0., 1.64473685e-003, 0.,
          1.64473685e-003, 8.22368427e-004, 9.86842066e-003,
          4.11184225e-003, 4.11184225e-003, 8.22368427e-004,
          8.22368427e-004, 0., 1.64473685e-003, 3.28947371e-003, 0., 0.,
          0., 8.22368427e-004, 0., 0., 8.22368450e-003, 0.,
          4.93421033e-003, 0., 0., 3.28947371e-003, 0., 8.22368427e-004,
          2.46710517e-003, 1.64473685e-003, 0., 0., 1.64473685e-003,
          2.46710517e-003, 8.22368427e-004, 0., 0., 0., 0.,
          4.93421033e-003, 5.75657887e-003, 0., 0., 0., 0., 0., 0.,
          3.28947371e-003, 0., 1.64473685e-003, 8.22368450e-003,
          1.64473685e-003, 0., 0., 0., 0., 1.64473685e-003,
          8.22368427e-004, 0., 0., 0., 0., 1.64473685e-003,
          8.22368427e-004, 0., 0., 2.46710517e-003, 4.93421033e-003,
          1.64473685e-003, 2.46710517e-003, 0., 0., 1.23355268e-002,
          2.46710517e-003, 0., 1.64473685e-003, 8.22368427e-004, 0.,
          1.64473685e-003, 0., 0., 7.40131596e-003, 1.64473685e-003, 0.,
          0., 8.22368427e-004, 0., 8.22368427e-004, 8.22368427e-004,
          8.22368427e-004, 8.22368427e-004, 0., 1.64473685e-003,
          1.64473685e-003, 0., 0., 0., 8.22368427e-004, 3.28947371e-003,
          2.46710517e-003, 0., 0., 8.22368427e-004, 0., 1.64473685e-003,
          8.22368427e-004, 8.22368427e-004, 8.22368427e-004, 0.,
          2.46710517e-003, 0., 0., 0., 8.22368427e-004, 0.,
          8.22368427e-004, 0., 3.28947371e-003, 1.64473685e-003,
          4.11184225e-003, 8.22368427e-004, 9.86842066e-003, 0., 0.,
          6.57894742e-003, 1.64473685e-003, 0. ]
      - [ 5.41125517e-003, 0., 0., 2.16450216e-003, 0., 2.16450216e-003,
          1.08225108e-003, 0., 1.08225108e-003, 0., 1.08225108e-003, 0.,
          0., 2.16450216e-003, 0., 0., 0., 5.41125517e-003, 0.,
          5.41125517e-003, 1.08225108e-003, 0., 6.49350649e-003, 0.,
          2.16450216e-003, 0., 1.08225108e-003, 4.32900432e-003,
          9.74025950e-003, 3.24675324e-003, 8.65800865e-003,
          3.24675324e-003, 2.16450216e-003, 0., 2.16450216e-003, 0.,
