%YAML:1.0
my_svm: !!opencv-ml-svm
   svm_type: C_SVC
   kernel: { type:RBF, gamma:1. }
   C: 1.
   term_criteria: { epsilon:1.1920928955078125e-007, iterations:1000 }
   var_all: 600
   var_count: 600
   class_count: 2
   class_labels: !!opencv-matrix
      rows: 1
      cols: 2
      dt: i
      data: [ 0, 1 ]
   sv_total: 56
   support_vectors:
      - [ 5.07246377e-003, 0., 7.24637706e-004, 1.44927541e-003, 0.,
          1.44927541e-003, 0., 0., 7.24637706e-004, 1.44927541e-003, 0.,
          0., 0., 1.44927541e-003, 0., 0., 2.89855083e-003,
          2.89855083e-003, 0., 1.44927541e-003, 7.24637706e-004,
          1.44927541e-003, 0., 0., 5.07246377e-003, 0., 7.24637706e-004,
          0., 7.24637706e-004, 2.17391318e-003, 7.24637706e-004,
          5.07246377e-003, 1.44927541e-003, 6.52173953e-003,
          1.44927541e-003, 0., 0., 0., 7.24637706e-004, 7.24637706e-004,
          0., 1.44927541e-003, 2.89855083e-003, 1.44927541e-003,
          2.17391318e-003, 4.34782635e-003, 3.62318847e-003, 0.,
          7.24637706e-004, 7.24637706e-004, 0., 0., 5.07246377e-003,
          2.89855083e-003, 3.62318847e-003, 2.89855083e-003,
          2.17391318e-003, 0., 0., 2.89855083e-003, 0., 0., 0., 0., 0.,
          0., 0., 7.24637706e-004, 7.24637706e-004, 1.15942033e-002,
          1.44927541e-003, 7.24637706e-004, 0., 1.44927541e-003,
          2.17391318e-003, 0., 7.24637706e-004, 0., 7.24637706e-004,
          1.44927541e-003, 0., 7.24637706e-004, 0., 1.08695654e-002,
          1.44927541e-003, 0., 0., 7.24637706e-004, 0., 0.,
          1.44927541e-003, 0., 0., 7.24637706e-004, 4.34782635e-003,
          7.24637706e-004, 0., 7.24637706e-004, 7.24637706e-004, 0.,
          7.24637706e-004, 0., 0., 5.79710165e-003, 1.44927541e-003,
          7.24637706e-004, 7.24637706e-004, 0., 3.62318847e-003,
          7.24637706e-004, 7.24637706e-004, 0., 0., 0., 1.44927541e-003,
          0., 7.24637706e-004, 7.24637706e-004, 7.24637706e-004, 0.,
          2.17391318e-003, 0., 0., 1.44927541e-003, 1.44927541e-003,
          7.24637706e-004, 0., 1.44927541e-003, 2.17391318e-003,
          2.89855083e-003, 5.79710165e-003, 4.34782635e-003,
          2.89855083e-003, 2.89855083e-003, 0., 3.62318847e-003,
          7.24637695e-003, 0., 1.44927541e-003, 0., 0., 0.,
          7.24637706e-004, 0., 0., 1.44927541e-003, 7.24637706e-004,
          7.24637706e-004, 1.44927541e-003, 0., 7.24637706e-004, 0.,
          7.24637706e-004, 0., 2.17391318e-003, 7.24637706e-004,
          2.17391318e-003, 7.24637706e-004, 1.44927541e-003, 0.,
          3.62318847e-003, 7.24637706e-004, 2.17391318e-003, 0.,
          1.44927541e-003, 0., 3.62318847e-003, 0., 0., 2.17391318e-003,
          0., 1.44927541e-003, 1.44927541e-003, 7.24637706e-004,
          4.34782635e-003, 0., 7.24637706e-004, 2.89855083e-003,
          7.24637706e-004, 7.24637706e-004, 2.17391318e-003,
          7.24637706e-004, 0., 1.44927541e-003, 7.24637706e-004,
          1.44927541e-003, 0., 3.55072469e-002, 7.24637706e-004, 0.,
          2.17391318e-003, 0., 4.34782635e-003, 7.24637706e-004,
          2.17391318e-003, 7.24637706e-004, 7.97101483e-003,
          1.44927541e-003, 1.44927541e-003, 1.44927541e-003,
          7.24637706e-004, 2.17391318e-003, 1.44927541e-003,
          1.44927541e-003, 2.17391318e-003, 7.24637706e-004,
          1.44927541e-003, 0., 0., 1.44927541e-003, 0., 0.,
          1.44927541e-003, 7.24637706e-004, 7.24637706e-004,
          7.24637706e-004, 1.44927541e-003, 6.52173953e-003,
          2.17391318e-003, 0., 0., 0., 0., 0., 1.44927541e-003,
          1.44927541e-003, 0., 2.17391318e-003, 7.24637706e-004, 0.,
          1.44927541e-003, 0., 7.24637706e-004, 1.44927541e-003,
          7.24637706e-004, 0., 1.44927541e-003, 7.24637706e-004,
          3.62318847e-003, 7.24637706e-004, 0., 2.89855083e-003,
          7.24637706e-004, 0., 7.24637706e-004, 0., 0., 1.44927541e-003,
          0., 0., 1.44927541e-003, 0., 2.89855083e-003, 0.,
          2.17391318e-003, 0., 0., 7.24637706e-004, 0., 2.17391318e-003,
          2.17391318e-003, 7.24637706e-004, 0., 7.24637706e-004,
          3.62318847e-003, 1.44927541e-003, 7.24637706e-004,
          2.17391318e-003, 0., 2.17391318e-003, 2.89855083e-003,
          1.66666675e-002, 1.23188412e-002, 0., 0., 2.17391318e-003, 0.,
          3.62318847e-003, 7.24637706e-004, 7.24637706e-004, 0., 0.,
          1.44927541e-003, 7.97101483e-003, 7.24637706e-004,
          1.44927539e-002, 1.15942033e-002, 2.89855083e-003,
          7.24637706e-004, 2.89855083e-003, 1.44927541e-003, 0., 0.,
          2.89855083e-003, 0., 0., 2.89855083e-003, 0., 1.44927541e-003,
          1.23188412e-002, 7.24637706e-004, 2.89855083e-003,
          7.24637706e-004, 1.44927541e-003, 7.24637706e-004,
          2.17391318e-003, 4.34782635e-003, 7.24637706e-004, 0.,
          2.89855083e-003, 1.44927541e-003, 7.24637706e-004,
          7.24637706e-004, 0., 0., 0., 1.44927541e-003, 7.24637706e-004,
          2.89855083e-003, 3.62318847e-003, 1.08695654e-002,
          7.24637706e-004, 1.44927541e-003, 0., 7.24637706e-004, 0.,
          3.62318847e-003, 0., 7.24637706e-004, 0., 1.44927541e-003,
          5.07246377e-003, 0., 4.34782635e-003, 1.44927541e-003,
          2.17391318e-003, 7.24637706e-004, 0., 0., 0., 2.89855083e-003,
          7.24637706e-004, 2.89855083e-003, 0., 7.24637706e-004,
          7.24637706e-004, 0., 5.07246377e-003, 7.24637706e-004,
          2.89855083e-003, 0., 2.17391318e-003, 0., 2.17391318e-003,
          1.44927541e-003, 4.34782635e-003, 0., 7.24637706e-004,
          2.17391318e-003, 0., 0., 1.44927541e-003, 2.17391318e-003, 0.,
          0., 7.24637695e-003, 7.24637706e-004, 7.24637706e-004,
          7.24637706e-004, 0., 9.42029059e-003, 7.24637706e-004,
          7.24637706e-004, 0., 7.24637706e-004, 1.44927541e-003,
          7.24637706e-004, 7.24637706e-004, 7.24637706e-004, 0.,
          7.24637706e-004, 0., 4.34782635e-003, 7.24637706e-004,
          3.62318847e-003, 3.55072469e-002, 0., 7.24637706e-004,
          7.24637706e-004, 0., 0., 4.34782635e-003, 7.24637706e-004,
          2.17391318e-003, 7.24637706e-004, 0., 0., 2.17391318e-003, 0.,
          7.24637706e-004, 1.44927541e-003, 0., 1.44927541e-003,
          7.24637706e-004, 7.24637706e-004, 1.44927541e-003,
          1.44927541e-003, 0., 1.44927541e-003, 0., 0., 0., 0., 0.,
          3.62318847e-003, 0., 1.44927541e-003, 2.17391318e-003, 0., 0.,
          7.24637706e-004, 0., 0., 0., 0., 0., 7.24637706e-004, 0.,
          1.44927541e-003, 2.89855083e-003, 2.17391318e-003,
          7.24637706e-004, 1.08695654e-002, 1.44927541e-003,
          1.44927541e-003, 1.44927541e-003, 5.79710165e-003,
          4.34782635e-003, 7.24637706e-004, 3.62318847e-003, 0.,
          5.07246377e-003, 2.17391318e-003, 0., 0., 7.24637706e-004,
          2.60869581e-002, 7.24637706e-004, 3.62318847e-003,
          1.44927541e-003, 0., 0., 1.44927541e-003, 2.89855083e-003,
          1.52173918e-002, 0., 2.17391318e-003, 2.17391318e-003,
          2.89855083e-003, 1.44927541e-003, 2.17391318e-003, 0., 0., 0.,
          1.44927541e-003, 7.24637706e-004, 0., 0., 0., 1.08695654e-002,
          7.24637706e-004, 7.24637706e-004, 2.17391318e-003,
          7.24637706e-004, 7.24637706e-004, 6.52173953e-003, 0.,
          7.24637706e-004, 0., 1.44927541e-003, 0., 0., 1.44927541e-003,
          0., 0., 2.89855083e-003, 7.24637706e-004, 7.24637706e-004,
          7.24637706e-004, 0., 0., 7.24637706e-004, 2.89855083e-003,
          2.89855083e-003, 7.24637706e-004, 2.17391318e-003,
          2.02898551e-002, 0., 7.24637706e-004, 0., 6.52173953e-003,
          1.44927541e-003, 7.24637706e-004, 1.44927541e-003, 0.,
          7.24637706e-004, 7.24637706e-004, 7.24637706e-004, 0., 0.,
          7.24637706e-004, 7.24637706e-004, 6.52173953e-003,
          4.34782635e-003, 1.44927541e-003, 4.34782635e-003,
          5.79710165e-003, 0., 0., 7.24637706e-004, 2.89855083e-003,
          1.44927541e-003, 0., 0., 7.24637706e-004, 7.24637706e-004,
          2.17391318e-003, 7.24637706e-004, 3.62318847e-003,
          5.79710165e-003, 0., 1.01449275e-002, 4.34782635e-003, 0.,
          2.17391318e-003, 0., 0., 7.24637706e-004, 0., 0.,
          3.62318847e-003, 7.24637706e-004, 0., 7.24637706e-004,
          1.44927541e-003, 0., 3.62318847e-003, 5.79710165e-003,
          2.17391318e-003, 7.24637695e-003, 1.44927541e-003,
          7.24637706e-004, 2.17391318e-003, 7.24637706e-004,
          2.89855083e-003, 7.24637706e-004, 0., 4.34782635e-003, 0., 0.,
          0., 0., 0., 0., 7.24637706e-004, 1.37681160e-002,
          1.44927541e-003, 7.24637706e-004, 7.24637706e-004, 0.,
          2.17391318e-003, 1.44927541e-003, 7.24637706e-004, 0.,
          7.24637706e-004, 1.01449275e-002, 0., 7.24637706e-004,
          7.24637706e-004, 2.17391318e-003, 0., 0., 7.24637706e-004,
          1.44927541e-003, 1.44927541e-003, 0., 2.89855083e-003, 0.,
          7.24637706e-004, 0., 5.07246377e-003, 7.24637706e-004,
          1.44927541e-003, 1.44927541e-003, 4.34782635e-003, 0., 0., 0.,
          0., 7.24637706e-004 ]
      - [ 0., 0., 1.86046516e-003, 9.30232578e-004, 0., 9.30232578e-004,
          1.86046516e-003, 0., 7.44186062e-003, 5.58139570e-003, 0., 0.,
          0., 1.86046516e-003, 9.30232578e-004, 0., 6.51162816e-003,
          9.30232578e-004, 0., 1.86046516e-003, 9.30232578e-004,
          1.86046516e-003, 0., 0., 2.79069785e-003, 0., 0.,
          5.58139570e-003, 8.37209355e-003, 0., 0., 9.30232578e-004, 0.,
          9.30232578e-004, 1.86046516e-003, 1.86046516e-003,
          4.65116277e-003, 9.30232578e-004, 5.58139570e-003,
          9.30232578e-004, 3.72093031e-003, 1.20930234e-002, 0.,
          2.79069785e-003, 1.86046516e-003, 3.72093031e-003,
          9.30232578e-004, 0., 2.79069785e-003, 0., 0., 6.51162816e-003,
          9.30232578e-004, 0., 1.20930234e-002, 7.44186062e-003,
          9.30232578e-004, 1.86046516e-003, 0., 0., 0., 0., 0.,
          1.86046516e-003, 1.86046516e-003, 9.30232578e-004,
          1.86046516e-003, 9.30232578e-004, 4.65116277e-003, 0.,
          4.65116277e-003, 0., 0., 0., 9.30232578e-004, 1.86046516e-003,
          9.30232578e-004, 0., 0., 9.30232578e-004, 3.72093031e-003,
          2.79069785e-003, 1.86046516e-003, 0., 0., 0., 9.30232578e-004,
          0., 0., 3.72093031e-003, 3.72093031e-003, 0., 0.,
          1.86046516e-003, 2.79069785e-003, 2.79069785e-003,
          9.30232578e-004, 2.79069785e-003, 0., 0., 0., 9.30232578e-004,
          0., 2.79069785e-003, 0., 1.86046516e-003, 5.58139570e-003, 0.,
          2.79069785e-003, 0., 4.65116277e-003, 0., 0., 1.86046516e-003,
          0., 4.65116277e-003, 1.02325585e-002, 3.72093031e-003,
          3.72093031e-003, 0., 9.30232578e-004, 0., 2.79069785e-003, 0.,
          2.79069785e-003, 0., 5.58139570e-003, 0., 0., 9.30232578e-004,
          0., 0., 9.30232578e-004, 9.30232578e-004, 0., 0., 0.,
          2.79069785e-003, 9.30232578e-004, 1.86046516e-003,
          4.65116277e-003, 0., 0., 0., 0., 0., 0., 1.86046516e-003, 0.,
          0., 0., 2.79069785e-003, 9.30232578e-004, 2.79069785e-003,
          1.86046516e-003, 2.79069785e-003, 3.72093031e-003,
          1.86046516e-003, 1.86046516e-003, 9.30232578e-004, 0., 0., 0.,
          0., 9.30232578e-004, 0., 4.65116277e-003, 1.86046516e-003, 0.,
          0., 1.02325585e-002, 6.51162816e-003, 0., 9.30232578e-004,
          9.30232578e-004, 6.51162816e-003, 0., 2.79069785e-003,
          9.30232578e-004, 8.37209355e-003, 0., 9.30232578e-004, 0.,
          9.30232578e-004, 3.72093031e-003, 0., 2.79069785e-003, 0.,
          6.51162816e-003, 0., 1.11627914e-002, 1.86046516e-003,
          9.30232578e-004, 3.72093031e-003, 0., 0., 9.30232578e-004, 0.,
          1.11627914e-002, 0., 0., 0., 9.30232578e-004, 0., 0.,
          2.79069785e-003, 9.30232578e-004, 9.30232578e-004, 0.,
          9.30232578e-004, 0., 2.79069785e-003, 9.30232578e-004,
          1.86046516e-003, 0., 1.86046516e-003, 9.30232578e-004, 0.,
          9.30232578e-004, 0., 0., 0., 0., 0., 0., 9.30232578e-004,
          4.65116277e-003, 1.86046516e-003, 1.76744182e-002,
          1.86046516e-003, 2.79069785e-003, 0., 2.79069785e-003, 0.,
          9.30232578e-004, 0., 0., 1.86046516e-003, 9.30232578e-004,
          3.72093031e-003, 0., 2.79069785e-003, 1.86046516e-003, 0., 0.,
          0., 0., 0., 9.30232578e-004, 1.86046516e-003, 1.86046516e-003,
          0., 3.72093031e-003, 0., 0., 0., 0., 2.79069785e-003,
          1.86046516e-003, 1.02325585e-002, 4.65116277e-003, 0., 0.,
          1.86046516e-003, 0., 0., 2.79069785e-003, 1.86046516e-003,
          8.37209355e-003, 9.30232578e-004, 5.58139570e-003, 0., 0.,
          9.30232578e-004, 1.86046516e-003, 0., 9.30232578e-004,
          3.72093031e-003, 9.30232578e-004, 1.86046516e-003, 0., 0.,
          4.65116277e-003, 9.30232578e-004, 2.79069785e-003,
          1.86046516e-003, 0., 0., 9.30232578e-004, 4.65116277e-003, 0.,
          1.86046516e-003, 0., 3.72093031e-003, 0., 1.86046516e-003,
          8.37209355e-003, 9.30232578e-004, 0., 0., 0., 2.79069785e-003,
          9.30232578e-004, 2.79069785e-003, 3.72093031e-003,
          6.51162816e-003, 0., 0., 0., 0., 1.86046516e-003,
          1.86046516e-003, 0., 0., 9.30232578e-004, 0., 6.51162816e-003,
          9.30232578e-004, 0., 0., 0., 9.30232578e-004, 9.30232578e-004,
          4.65116277e-003, 4.65116277e-003, 0., 2.79069785e-003,
          9.30232578e-004, 9.30232578e-004, 5.58139570e-003,
          1.86046516e-003, 0., 9.30232578e-004, 9.30232578e-004, 0.,
          9.30232578e-004, 9.30232578e-004, 0., 0., 0., 1.86046516e-003,
          1.86046516e-003, 0., 0., 0., 0., 0., 9.30232578e-004, 0.,
          5.58139570e-003, 0., 0., 0., 9.30232578e-004, 3.72093031e-003,
          0., 0., 8.37209355e-003, 0., 1.86046516e-003, 3.72093031e-003,
          5.58139570e-003, 9.30232578e-004, 4.65116277e-003,
          1.86046516e-003, 0., 6.51162816e-003, 0., 2.79069785e-003,
          2.79069785e-003, 1.86046516e-003, 9.30232578e-004, 0.,
          9.30232578e-004, 3.72093031e-003, 0., 4.65116277e-003, 0.,
          9.30232578e-004, 1.86046516e-003, 9.30232578e-004,
          2.79069785e-003, 0., 1.86046516e-003, 2.79069785e-003, 0., 0.,
          9.30232578e-004, 0., 9.30232578e-004, 9.30232578e-004,
          6.51162816e-003, 9.30232578e-004, 3.72093031e-003,
          9.30232578e-004, 0., 0., 9.30232578e-004, 0., 9.30232578e-004,
          0., 9.30232578e-004, 1.11627914e-002, 1.86046516e-003, 0.,
          1.86046516e-003, 9.30232578e-004, 3.72093031e-003,
          5.58139570e-003, 0., 0., 9.30232578e-004, 0., 9.30232578e-004,
          1.86046516e-003, 9.30232578e-004, 1.86046516e-003,
          9.30232578e-004, 5.58139570e-003, 0., 9.30232578e-004,
          1.67441871e-002, 0., 9.30232578e-004, 1.86046516e-003, 0.,
          3.72093031e-003, 5.58139570e-003, 3.72093031e-003, 0.,
          2.79069785e-003, 0., 0., 8.37209355e-003, 9.30232578e-004,
          9.30232578e-004, 0., 4.65116277e-003, 9.30232578e-004, 0., 0.,
          0., 0., 4.65116277e-003, 0., 1.02325585e-002, 1.86046516e-003,
          4.65116277e-003, 8.37209355e-003, 0., 9.30232578e-004, 0.,
          2.79069785e-003, 0., 2.79069785e-003, 0., 0., 4.65116277e-003,
          9.30232578e-004, 9.30232578e-004, 9.30232578e-004, 0.,
          4.65116277e-003, 9.30232578e-004, 0., 0., 9.30232578e-004,
          4.65116277e-003, 1.86046516e-003, 6.51162816e-003,
          2.79069785e-003, 0., 7.44186062e-003, 0., 3.72093031e-003,
          1.86046516e-003, 0., 0., 0., 1.86046516e-003, 0., 0.,
          9.30232578e-004, 9.30232578e-004, 0., 0., 0., 0.,
          2.79069785e-003, 3.72093031e-003, 1.86046516e-003, 0., 0., 0.,
          2.79069785e-003, 1.86046516e-003, 1.86046516e-003,
          3.72093031e-003, 1.86046516e-003, 0., 3.72093031e-003,
          3.72093031e-003, 0., 0., 2.79069785e-003, 3.72093031e-003,
          1.86046516e-003, 3.72093031e-003, 0., 9.30232578e-004,
          3.72093031e-003, 2.79069785e-003, 9.30232578e-004,
          9.30232578e-004, 3.72093031e-003, 0., 4.65116277e-003, 0., 0.,
          0., 1.86046516e-003, 0., 3.72093031e-003, 0., 9.30232578e-004,
          0., 0., 2.79069785e-003, 4.65116277e-003, 5.58139570e-003, 0.,
          0., 0., 9.30232578e-004, 9.30232578e-004, 0., 9.30232578e-004,
          1.86046516e-003, 9.30232578e-004, 0., 2.79069785e-003,
          9.30232578e-004, 9.30232578e-004, 1.11627914e-002,
          1.86046516e-003, 2.79069785e-003, 0., 0., 0., 2.79069785e-003,
          0., 0., 1.86046516e-003, 3.72093031e-003, 0., 9.30232578e-004,
          0., 0., 0., 0., 0., 9.30232578e-004, 1.86046516e-003,
          9.30232578e-004, 9.30232578e-004, 9.30232578e-004,
          9.30232578e-004, 2.79069785e-003, 1.86046516e-003, 0., 0.,
          4.65116277e-003, 0., 2.79069785e-003, 0., 2.79069785e-003, 0.,
          3.72093031e-003, 9.30232578e-004, 0., 3.72093031e-003, 0.,
          9.30232578e-004, 0., 3.72093031e-003, 0., 5.58139570e-003, 0.,
          2.79069785e-003, 9.30232578e-004, 0., 0., 2.79069785e-003,
          2.79069785e-003, 3.72093031e-003, 9.30232578e-004,
          9.30232578e-004, 1.86046516e-003, 9.30232578e-004, 0. ]
      - [ 0., 0., 8.90471973e-004, 0., 0., 0., 8.90471973e-004,
          8.90471973e-004, 0., 1.78094395e-003, 2.67141592e-003,
          2.31522713e-002, 0., 8.90471973e-004, 1.78094395e-003,
          1.78094395e-003, 1.78094395e-003, 0., 0., 0., 0., 0.,
          1.78094395e-003, 2.67141592e-003, 0., 3.56188789e-003, 0., 0.,
          0., 1.78094395e-003, 0., 0., 0., 0., 0., 0., 8.90471973e-004,
          0., 0., 0., 0., 8.90471973e-004, 8.90471973e-004,
          8.90471973e-004, 0., 1.78094395e-003, 0., 1.60284955e-002,
          1.78094395e-003, 8.90471973e-004, 0., 0., 8.90471973e-004, 0.,
          0., 8.90471973e-004, 0., 8.90471973e-004, 0., 0., 0.,
          1.15761356e-002, 0., 0., 8.90471973e-004, 0., 0., 0., 0., 0.,
          0., 4.45235986e-003, 0., 8.90471973e-004, 0., 0.,
          8.90471973e-004, 6.23330381e-003, 8.90471973e-004,
          8.90471973e-004, 0., 0., 0., 2.04808563e-002, 1.78094395e-003,
          7.12377578e-003, 8.90471973e-004, 0., 0., 8.90471973e-004, 0.,
          8.01424775e-003, 3.56188789e-003, 1.78094395e-003,
          8.90471973e-004, 0., 0., 0., 1.78094395e-003, 8.90471973e-003,
          8.90471973e-004, 1.06856637e-002, 0., 8.90471973e-004, 0., 0.,
          0., 8.90471973e-004, 8.90471973e-004, 0., 0., 0.,
          9.79519170e-003, 0., 1.78094395e-003, 0., 0., 0., 0.,
          1.78094395e-003, 0., 0., 8.90471973e-004, 0., 8.90471973e-004,
          0., 0., 8.01424775e-003, 0., 8.90471973e-004, 8.90471973e-004,
          0., 0., 0., 0., 8.90471973e-004, 8.90471973e-004, 0., 0., 0.,
          0., 0., 7.12377578e-003, 1.15761356e-002, 0., 0., 0., 0.,
          8.90471973e-004, 6.23330381e-003, 0., 0., 2.67141592e-003, 0.,
          8.90471973e-004, 0., 8.90471973e-004, 7.12377578e-003, 0.,
          8.90471973e-004, 1.95903834e-002, 0., 0., 2.67141592e-003, 0.,
          0., 0., 8.90471973e-004, 0., 0., 0., 0., 0., 1.78094395e-003,
          0., 0., 6.23330381e-003, 0., 0., 0., 0., 0., 0., 0., 0.,
          8.90471973e-004, 0., 0., 0., 0., 1.78094395e-003,
          1.78094395e-003, 0., 0., 6.23330381e-003, 8.90471973e-004, 0.,
          0., 0., 1.78094395e-003, 0., 1.78094395e-003, 8.90471973e-004,
          1.78094395e-003, 0., 0., 0., 0., 0., 0., 0., 2.67141592e-003,
          0., 1.78094395e-003, 0., 0., 0., 0., 2.67141592e-003,
          5.34283184e-003, 2.67141592e-003, 8.90471973e-004,
          2.84951031e-002, 0., 0., 1.78094395e-003, 0., 1.78094395e-003,
          0., 0., 0., 0., 8.90471973e-004, 0., 0., 4.45235986e-003,
          3.56188789e-003, 0., 1.78094395e-003, 0., 0., 0., 0.,
          8.90471973e-004, 8.90471973e-004, 1.78094395e-002, 0.,
          3.56188789e-003, 0., 0., 0., 0., 0., 8.90471973e-004,
          8.90471973e-004, 8.90471973e-004, 0., 1.78094395e-003, 0., 0.,
          0., 0., 2.67141592e-002, 0., 0., 0., 0., 0., 0.,
          8.90471973e-004, 0., 0., 0., 0., 0., 8.90471973e-003, 0., 0.,
          0., 0., 0., 0., 2.67141592e-003, 0., 8.90471973e-004,
          6.23330381e-003, 0., 3.56188789e-003, 8.90471973e-004, 0.,
          2.67141592e-003, 0., 0., 0., 4.45235986e-003, 0., 0., 0., 0.,
          0., 3.56188789e-003, 0., 8.90471973e-004, 0., 0., 0., 0.,
          8.90471973e-003, 2.67141592e-003, 0., 0., 0., 0.,
          3.56188789e-003, 0., 8.90471973e-004, 0., 0., 0., 0.,
          1.06856637e-002, 8.90471973e-004, 2.67141592e-003, 0., 0.,
          1.69189684e-002, 8.90471973e-004, 0., 9.79519170e-003, 0.,
          8.90471973e-004, 0., 0., 0., 8.90471973e-004, 0.,
          8.90471973e-004, 8.90471973e-003, 1.06856637e-002, 0., 0., 0.,
          1.24666076e-002, 3.29474621e-002, 2.67141592e-003,
          8.01424775e-003, 0., 0., 0., 8.90471973e-004, 7.12377578e-003,
          5.34283184e-003, 7.12377578e-003, 8.90471973e-004,
          8.90471973e-004, 2.31522713e-002, 0., 0., 0., 0., 0.,
          8.90471973e-004, 0., 2.67141592e-003, 8.90471973e-004,
          8.90471973e-004, 0., 0., 0., 0., 1.06856637e-002,
          8.90471973e-004, 0., 0., 3.56188789e-003, 0., 0., 0., 0., 0.,
          0., 0., 8.90471973e-004, 4.45235986e-003, 0., 0.,
          8.90471973e-004, 0., 0., 0., 2.67141592e-003, 0.,
          1.15761356e-002, 8.90471973e-004, 0., 4.45235986e-003, 0.,
          8.90471973e-004, 0., 0., 0., 7.12377578e-003, 0., 0., 0.,
          8.90471973e-004, 3.56188789e-003, 0., 0., 0., 0., 0., 0., 0.,
          0., 8.90471973e-004, 5.34283184e-003, 0., 0., 0.,
          1.78094395e-003, 8.90471973e-004, 0., 0., 4.45235986e-003, 0.,
          0., 0., 0., 8.90471973e-004, 0., 0., 0., 0., 0.,
          8.90471973e-004, 8.90471973e-004, 1.78094395e-003,
          1.78094395e-003, 0., 5.34283184e-003, 0., 0., 8.90471973e-004,
          5.34283184e-003, 8.90471973e-004, 1.51380235e-002,
          8.90471973e-004, 0., 1.33570796e-002, 0., 3.56188789e-003, 0.,
          8.90471973e-004, 0., 0., 3.56188789e-003, 1.78094395e-003, 0.,
          0., 0., 1.06856637e-002, 0., 0., 6.23330381e-003,
          8.90471973e-004, 0., 8.90471973e-004, 0., 0., 0.,
          8.90471973e-004, 0., 0., 0., 0., 7.12377578e-003, 0.,
          3.56188789e-003, 0., 1.78094395e-003, 1.78094395e-003, 0., 0.,
          0., 8.90471973e-004, 6.23330381e-003, 0., 0., 0., 0.,
          8.90471973e-004, 0., 0., 0., 0., 6.23330381e-003, 0.,
          8.90471973e-004, 2.13713273e-002, 0., 0., 0., 1.86999105e-002,
          8.90471973e-003, 0., 0., 0., 8.90471973e-004, 0., 0., 0., 0.,
          1.78094395e-003, 0., 0., 0., 8.01424775e-003, 8.90471973e-004,
          8.90471973e-003, 0., 1.78094395e-003, 0., 0., 0.,
          1.78094395e-003, 9.79519170e-003, 0., 0., 2.67141592e-003, 0.,
          1.15761356e-002, 0., 0., 0., 0., 8.90471973e-004,
          8.90471973e-004, 3.56188789e-003, 0., 0., 0., 8.90471973e-004,
          0., 0., 8.90471973e-004, 0., 6.23330381e-003, 8.01424775e-003,
          0., 1.42475516e-002, 8.90471973e-004, 0., 8.90471973e-004, 0.,
          0., 0., 8.90471973e-004, 1.78094395e-003, 0., 0., 0., 0., 0.,
          0., 8.90471973e-004, 0., 0., 0., 1.51380235e-002, 0., 0., 0.,
          0., 8.90471973e-004, 0., 2.04808563e-002, 8.90471973e-004, 0.,
          8.90471973e-003, 0., 1.78094395e-003, 8.90471973e-004, 0., 0.,
          4.45235986e-003, 0., 0., 8.90471973e-004, 0., 8.90471973e-004,
          0., 0., 8.90471973e-004, 0., 8.01424775e-003, 1.78094395e-003,
          0., 0., 2.67141592e-003 ]
      - [ 4.16088756e-003, 0., 0., 1.38696260e-003, 0., 4.16088756e-003,
          0., 0., 0., 1.38696260e-003, 0., 0., 0., 1.38696260e-003, 0.,
          0., 4.16088756e-003, 0., 0., 5.54785039e-003, 0.,
          1.38696260e-003, 1.66435502e-002, 0., 4.16088756e-003, 0.,
          1.38696260e-003, 7.48959780e-002, 6.93481322e-003,
          1.38696260e-003, 1.38696260e-003, 9.70873795e-003, 0., 0., 0.,
          2.77392520e-003, 5.54785039e-003, 1.38696260e-003,
          1.38696260e-003, 2.77392520e-003, 0., 1.94174759e-002,
          1.38696260e-003, 0., 1.38696260e-003, 2.77392520e-003, 0., 0.,
          1.38696260e-003, 0., 0., 0., 1.38696260e-003, 5.54785039e-003,
          0., 9.70873795e-003, 0., 1.38696260e-003, 0., 1.38696260e-003,
          0., 0., 0., 1.38696260e-003, 0., 0., 1.38696260e-003,
          4.16088756e-003, 0., 0., 1.38696260e-003, 0., 1.38696260e-003,
          1.38696260e-003, 1.38696260e-003, 1.38696260e-003,
          8.32177512e-003, 0., 1.38696260e-003, 4.16088756e-003,
          1.24826636e-002, 0., 0., 1.38696260e-003, 0., 0.,
          4.16088756e-003, 0., 5.54785039e-003, 2.77392520e-003,
          6.93481322e-003, 0., 0., 4.16088756e-003, 0., 1.38696260e-003,
          0., 4.16088756e-003, 5.54785039e-003, 0., 0., 0., 0.,
          4.16088756e-003, 0., 0., 1.38696260e-003, 0., 1.38696260e-003,
          1.38696260e-003, 1.38696260e-003, 0., 0., 4.16088756e-003, 0.,
          1.38696260e-003, 2.77392520e-003, 0., 0., 0., 0.,
          2.77392520e-003, 1.38696260e-003, 1.38696260e-003, 0., 0.,
          1.38696260e-003, 0., 2.77392520e-003, 1.38696260e-003, 0.,
          4.16088756e-003, 1.38696260e-003, 0., 0., 0., 6.93481322e-003,
          4.16088756e-003, 0., 0., 1.38696260e-003, 0., 0.,
          1.38696260e-003, 0., 1.38696260e-003, 0., 1.38696260e-003, 0.,
          0., 0., 1.38696260e-003, 1.38696260e-003, 5.54785039e-003, 0.,
          9.70873795e-003, 1.38696260e-003, 1.38696260e-003,
          1.38696260e-003, 2.77392520e-003, 0., 0., 0., 0., 0., 0.,
          4.16088756e-003, 1.38696260e-003, 0., 2.77392520e-003,
          3.32871005e-002, 4.16088756e-003, 0., 0., 0., 1.38696260e-003,
          0., 2.77392520e-003, 1.38696260e-003, 2.77392520e-003, 0.,
          2.77392520e-003, 0., 1.38696260e-003, 1.38696260e-003,
          1.38696260e-003, 1.38696260e-003, 0., 0., 1.38696260e-003, 0.,
          0., 4.16088756e-003, 2.77392520e-003, 0., 1.38696260e-003,
          1.38696260e-003, 0., 5.54785039e-003, 0., 0., 1.38696260e-003,
          9.70873795e-003, 0., 0., 0., 2.77392520e-003, 2.77392520e-003,
          0., 1.38696260e-003, 0., 2.77392520e-003, 9.70873795e-003,
          2.77392520e-003, 2.77392520e-003, 2.77392520e-003,
          4.16088756e-003, 0., 0., 0., 1.24826636e-002, 0.,
          1.38696260e-003, 0., 0., 0., 1.38696260e-003, 1.38696260e-003,
          5.54785039e-003, 1.38696260e-003, 5.54785039e-003,
          2.77392520e-003, 0., 5.54785039e-003, 5.54785039e-003, 0., 0.,
          1.38696260e-003, 0., 1.38696260e-003, 1.38696260e-003, 0.,
          4.16088756e-003, 0., 1.38696260e-003, 0., 0., 0., 0., 0., 0.,
          0., 8.32177512e-003, 0., 0., 0., 0., 2.77392520e-003,
          2.77392520e-003, 1.38696260e-003, 2.77392520e-003, 0., 0.,
          1.38696260e-003, 0., 2.77392520e-003, 0., 0., 6.93481322e-003,
          2.77392520e-003, 1.38696260e-003, 0., 0., 1.38696260e-003, 0.,
          0., 9.70873795e-003, 5.54785039e-003, 2.77392520e-003,
          2.77392520e-003, 0., 0., 2.77392520e-003, 1.38696260e-003, 0.,
          0., 1.38696260e-003, 0., 0., 1.38696260e-003, 0., 0., 0., 0.,
          1.38696260e-003, 5.54785039e-003, 4.16088756e-003,
          5.54785039e-003, 0., 2.77392520e-003, 0., 2.77392520e-003,
          1.38696260e-003, 2.77392520e-003, 1.38696260e-003,
          4.16088756e-003, 1.38696260e-003, 0., 0., 1.38696260e-003, 0.,
          0., 0., 0., 0., 0., 5.54785039e-003, 2.77392520e-003, 0.,
          4.16088756e-003, 0., 1.38696260e-003, 0., 2.77392520e-003,
          2.77392520e-003, 0., 0., 0., 0., 2.77392520e-003,
          1.38696260e-003, 1.24826636e-002, 0., 1.38696260e-003,
          1.38696260e-003, 0., 1.38696260e-003, 0., 0., 0.,
          6.93481322e-003, 1.38696260e-003, 0., 0., 0., 0., 0., 0.,
          9.70873795e-003, 1.38696260e-003, 0., 0., 0., 2.77392520e-003,
          0., 2.77392520e-003, 0., 4.16088756e-003, 0., 0., 0.,
          1.38696260e-003, 2.77392520e-003, 0., 1.38696260e-003, 0.,
          4.16088756e-003, 0., 2.77392520e-003, 0., 0., 0., 0.,
          1.38696260e-003, 1.38696260e-003, 1.38696260e-003,
          1.38696260e-003, 6.93481322e-003, 1.38696260e-003,
          2.77392520e-003, 1.38696260e-003, 0., 1.38696260e-003, 0., 0.,
          0., 0., 1.38696260e-003, 1.38696260e-003, 0., 4.16088756e-003,
          8.32177512e-003, 0., 0., 0., 1.38696260e-003, 0., 0., 0., 0.,
          0., 1.38696260e-003, 0., 1.38696260e-003, 1.38696260e-003,
          4.16088756e-003, 1.38696260e-003, 2.77392520e-003, 0., 0., 0.,
          1.38696260e-003, 4.16088756e-003, 1.38696260e-003,
          1.38696260e-003, 0., 0., 2.77392520e-003, 0., 1.38696260e-003,
          1.38696260e-003, 2.77392520e-003, 0., 4.16088756e-003, 0., 0.,
          5.54785039e-003, 0., 2.77392520e-003, 0., 1.38696260e-003, 0.,
          8.32177512e-003, 2.77392520e-003, 1.38696260e-003,
          2.77392520e-003, 0., 0., 1.38696260e-003, 5.54785039e-003, 0.,
          1.38696260e-003, 0., 0., 1.38696260e-003, 4.16088756e-003, 0.,
          1.38696260e-003, 2.77392520e-003, 0., 4.16088756e-003, 0.,
          5.54785039e-003, 0., 1.38696260e-003, 1.38696260e-003, 0.,
          2.77392520e-003, 0., 0., 0., 0., 0., 0., 0., 0., 0.,
          4.16088756e-003, 0., 0., 2.77392520e-003, 0., 0., 0.,
          2.77392520e-003, 0., 0., 2.77392520e-003, 0., 0., 0., 0.,
          2.77392520e-003, 0., 0., 1.38696260e-003, 0., 1.38696260e-003,
          4.16088756e-003, 1.38696260e-003, 1.38696260e-003,
          1.38696260e-003, 0., 5.54785039e-003, 1.38696260e-003,
          4.16088756e-003, 0., 5.54785039e-003, 0., 0., 1.38696260e-003,
          0., 1.38696260e-003, 0., 0., 1.38696260e-003, 5.54785039e-003,
          0., 0., 0., 5.54785039e-003, 0., 0., 1.38696260e-003,
          1.38696260e-003, 0., 5.54785039e-003, 0., 0., 1.38696260e-003,
          5.54785039e-003, 4.16088756e-003, 1.38696260e-003, 0., 0., 0.,
          4.16088756e-003, 0., 1.38696260e-003, 2.77392520e-003,
          1.38696260e-003, 0., 1.38696260e-003, 1.38696260e-003, 0., 0.,
          0., 1.38696260e-003, 0., 2.77392520e-003, 2.77392520e-003,
          2.77392520e-003, 1.38696260e-003, 0., 0., 1.38696260e-003,
          1.38696260e-003, 0., 0., 0., 0., 2.77392520e-003, 0., 0.,
          6.93481322e-003, 1.38696260e-003, 1.38696260e-003,
          1.38696260e-003, 0., 0., 0., 0., 0., 1.38696260e-003, 0.,
          2.77392520e-003, 0., 0., 0., 0., 1.38696260e-003,
          2.77392520e-003, 1.38696260e-003, 0., 0., 9.70873795e-003, 0.,
          1.38696260e-003, 0., 0., 0., 0., 2.77392520e-003,
          2.77392520e-003, 0., 0., 1.38696260e-003, 2.77392520e-003, 0.,
          1.38696260e-003, 1.38696260e-003, 2.77392520e-003,
          1.38696260e-003, 0., 9.70873795e-003, 0., 0., 0., 0., 0. ]
      - [ 4.44938801e-003, 0., 0., 1.11234700e-003, 0., 1.11234700e-003,
          4.44938801e-003, 0., 1.11234700e-003, 1.11234700e-003, 0., 0.,
          0., 1.11234700e-003, 0., 0., 1.11234700e-003, 0., 0.,
          3.33704101e-003, 2.22469401e-003, 1.22358166e-002, 0., 0.,
          1.11234700e-003, 4.44938801e-003, 0., 0., 1.11234700e-003,
          2.22469401e-003, 1.11234700e-003, 3.33704101e-003,
          1.11234700e-003, 5.56173502e-003, 3.33704101e-003, 0., 0.,
          1.11234700e-003, 0., 0., 1.11234700e-003, 0., 0., 0., 0., 0.,
          0., 0., 1.11234700e-003, 0., 5.56173502e-003, 2.22469401e-003,
          3.33704101e-003, 0., 0., 3.33704101e-003, 1.66852046e-002,
          2.22469401e-003, 0., 4.44938801e-003, 2.22469401e-003, 0., 0.,
          2.22469401e-003, 1.11234700e-003, 1.11234700e-003, 0., 0.,
          3.33704101e-003, 1.11234700e-003, 0., 0., 0., 0.,
          4.44938801e-003, 4.44938801e-003, 0., 0., 1.11234700e-003,
          1.11234700e-003, 0., 6.67408202e-003, 0., 1.11234700e-003, 0.,
          0., 5.56173502e-003, 0., 0., 0., 1.11234700e-003, 0., 0., 0.,
          5.56173502e-003, 1.11234700e-003, 1.11234700e-003, 0.,
          1.11234700e-003, 0., 0., 0., 0., 0., 0., 0., 6.67408202e-003,
          0., 0., 2.22469401e-003, 8.89877602e-003, 0., 0., 0., 0.,
          3.33704101e-003, 7.78642902e-003, 2.22469401e-003, 0., 0.,
          4.44938801e-003, 0., 0., 0., 3.33704101e-003, 0., 0.,
          1.11234700e-003, 1.11234700e-003, 1.11234700e-003,
          1.11234700e-003, 1.11234700e-003, 2.22469401e-003,
          4.44938801e-003, 0., 0., 2.22469401e-003, 0., 1.11234700e-003,
          0., 0., 2.22469401e-003, 0., 0., 0., 7.78642902e-003, 0.,
          5.56173502e-003, 1.11234700e-003, 0., 1.11234700e-003, 0., 0.,
          6.67408202e-003, 2.22469401e-003, 0., 1.11234700e-003, 0., 0.,
          3.33704101e-003, 0., 0., 2.22469401e-003, 0., 2.22469401e-003,
          0., 1.11234700e-003, 0., 1.11234700e-003, 1.11234700e-003, 0.,
          3.33704101e-003, 0., 1.11234700e-003, 3.33704101e-003, 0., 0.,
          1.22358166e-002, 1.11234700e-003, 1.11234700e-003, 0., 0., 0.,
          0., 7.78642902e-003, 1.11234700e-003, 1.11234700e-003,
          3.33704101e-003, 2.22469401e-003, 1.11234700e-003,
          5.56173502e-003, 2.22469401e-003, 2.66963281e-002,
          2.22469401e-003, 0., 0., 1.11234700e-003, 4.44938801e-003,
          2.22469401e-003, 1.11234700e-003, 3.33704101e-003, 0., 0., 0.,
          0., 2.22469401e-003, 0., 1.11234700e-003, 0., 3.33704101e-003,
          0., 0., 0., 2.22469401e-003, 0., 0., 0., 0., 4.44938801e-003,
          0., 0., 1.33481640e-002, 3.22580636e-002, 0., 0.,
          1.11234700e-003, 1.11234700e-003, 0., 0., 6.67408202e-003,
          7.78642902e-003, 0., 1.11234700e-003, 4.44938801e-003, 0., 0.,
          0., 0., 0., 0., 2.22469401e-003, 6.67408202e-003,
          1.11234700e-003, 1.11234700e-003, 1.11234700e-003, 0.,
          1.11234700e-003, 0., 0., 1.11234700e-003, 1.89098995e-002,
          1.11234700e-003, 1.11234700e-003, 0., 0., 0., 1.11234700e-003,
          1.11234700e-003, 0., 4.44938801e-003, 0., 0., 0.,
          3.33704101e-003, 0., 3.33704101e-003, 0., 0., 0.,
          2.22469401e-003, 4.44938801e-003, 1.77975520e-002,
          1.11234700e-003, 0., 0., 0., 0., 7.78642902e-003,
          1.11234700e-003, 1.11234700e-003, 0., 1.11234700e-003, 0., 0.,
          0., 4.44938801e-003, 1.11234700e-003, 1.11234700e-003,
          1.11234700e-003, 0., 0., 1.11234700e-003, 0., 0., 0.,
          3.33704101e-003, 2.22469401e-003, 3.33704101e-003,
          1.11234700e-003, 1.11234700e-003, 0., 2.22469401e-003,
          1.11234700e-003, 0., 1.11234700e-003, 3.33704101e-003, 0., 0.,
          0., 0., 1.11234700e-003, 0., 0., 0., 0., 0., 1.11234700e-003,
          3.33704101e-003, 4.44938801e-003, 0., 8.89877602e-003,
          1.11234700e-003, 0., 0., 3.33704101e-003, 0., 0., 0., 0., 0.,
          3.33704101e-003, 1.11234700e-003, 1.11234700e-003,
          5.56173502e-003, 3.33704101e-003, 2.22469401e-003, 0., 0., 0.,
          0., 1.11234700e-002, 0., 0., 0., 0., 0., 0., 1.11234700e-002,
          0., 0., 0., 0., 0., 0., 0., 2.22469401e-003, 0., 0.,
          8.89877602e-003, 3.33704101e-003, 1.11234700e-003, 0.,
          2.22469401e-003, 0., 0., 0., 1.11234700e-003, 1.11234700e-003,
          1.11234700e-003, 4.44938801e-003, 0., 2.22469401e-003, 0.,
          5.56173502e-003, 0., 1.11234700e-003, 0., 6.67408202e-003,
          1.11234700e-003, 0., 0., 0., 0., 0., 4.44938801e-003,
          1.11234700e-003, 0., 0., 0., 0., 2.22469401e-003, 0., 0., 0.,
          0., 0., 2.22469401e-003, 0., 0., 1.11234700e-003,
          1.11234700e-003, 0., 1.11234700e-003, 2.22469401e-003, 0.,
          1.11234700e-003, 0., 0., 6.67408202e-003, 0., 0., 0.,
          3.33704101e-003, 3.33704101e-003, 1.11234700e-003, 0., 0., 0.,
          3.33704101e-003, 4.44938801e-003, 1.11234700e-003, 0., 0., 0.,
          0., 3.33704092e-002, 0., 0., 3.33704101e-003, 0., 0.,
          5.56173502e-003, 0., 0., 6.67408202e-003, 1.11234700e-003,
          6.67408202e-003, 3.33704101e-003, 1.11234700e-003, 0., 0., 0.,
          3.33704101e-003, 0., 0., 0., 0., 3.33704101e-003,
          2.22469401e-003, 0., 2.22469401e-003, 0., 0., 0.,
          1.11234700e-003, 1.11234700e-003, 0., 0., 0., 0.,
          1.11234700e-003, 0., 0., 5.56173502e-003, 0., 0.,
          1.11234700e-003, 1.11234700e-003, 0., 1.11234700e-003, 0., 0.,
          2.22469401e-003, 0., 4.44938801e-003, 0., 1.11234700e-003, 0.,
          0., 0., 1.11234700e-003, 0., 4.44938801e-003, 0., 0.,
          2.22469401e-003, 0., 3.33704101e-003, 1.11234700e-003,
          1.11234700e-003, 0., 1.11234700e-003, 0., 3.33704101e-003,
          2.22469401e-003, 1.11234700e-003, 1.11234700e-003, 0.,
          4.44938801e-003, 0., 0., 0., 5.56173502e-003, 0., 0.,
          1.11234700e-003, 1.11234700e-003, 0., 0., 0., 0.,
          1.11234700e-003, 0., 5.56173502e-003, 0., 0., 1.11234700e-002,
          0., 0., 0., 1.66852046e-002, 0., 4.44938801e-003,
          1.11234700e-003, 0., 0., 1.11234700e-003, 0., 0.,
          1.11234700e-003, 1.11234700e-003, 0., 2.66963281e-002, 0.,
          4.44938801e-003, 0., 1.11234700e-003, 5.56173502e-003, 0., 0.,
          5.56173502e-003, 1.11234700e-003, 0., 2.22469401e-003,
          1.66852046e-002, 0., 0., 0., 1.11234700e-003, 0., 0.,
          3.33704101e-003, 2.22469401e-003, 0., 1.33481640e-002, 0.,
          3.33704101e-003, 0., 0., 0., 2.22469401e-003, 2.22469401e-003,
          0., 0., 1.11234700e-003, 1.00111235e-002, 1.89098995e-002,
          6.67408202e-003, 0., 0., 3.33704101e-003, 2.22469401e-003,
          1.11234700e-003, 2.22469401e-003, 0., 2.22469401e-003, 0., 0.,
          0., 0., 1.11234700e-003, 0., 0., 7.78642902e-003, 0., 0.,
          4.44938801e-003, 0., 1.11234700e-003, 0., 0., 0.,
          3.33704101e-003, 1.11234700e-003, 2.22469401e-003, 0.,
          4.44938801e-003, 0., 1.11234700e-003, 0. ]
      - [ 6.43974217e-003, 0., 1.83992635e-003, 0., 0., 0., 0., 0., 0.,
          1.83992635e-003, 0., 0., 0., 0., 0., 0., 9.19963175e-004,
          1.83992635e-003, 0., 1.83992635e-003, 0., 9.19963175e-004,
          3.67985270e-003, 0., 9.19963175e-004, 0., 0., 1.47194108e-002,
          3.67985270e-003, 2.75988947e-003, 8.27966817e-003,
          9.19963175e-004, 0., 0., 9.19963175e-004, 1.83992635e-003,
          1.83992635e-003, 1.83992635e-003, 1.83992635e-003, 0.,
          9.19963175e-004, 9.19963175e-004, 0., 7.35970540e-003,
          1.83992635e-003, 3.67985270e-003, 9.19963140e-003, 0.,
          9.19963175e-004, 8.27966817e-003, 0., 1.37994476e-002, 0.,
          5.51977893e-003, 0., 5.51977893e-003, 9.19963175e-004,
          9.19963175e-004, 0., 1.01195946e-002, 0., 0., 0.,
          1.83992635e-003, 0., 0., 0., 3.67985270e-003, 1.83992635e-003,
          0., 2.75988947e-003, 0., 7.35970540e-003, 1.83992635e-003, 0.,
          0., 9.19963175e-004, 0., 0., 2.75988947e-003, 1.83992635e-003,
          9.19963175e-004, 9.19963175e-004, 9.19963175e-004,
          1.83992635e-003, 0., 0., 0., 3.67985270e-003, 0., 0., 0., 0.,
          1.83992635e-003, 9.19963175e-004, 0., 9.19963175e-004,
          1.83992635e-003, 9.19963175e-004, 0., 9.19963175e-004, 0.,
          9.19963175e-004, 9.19963175e-004, 5.51977893e-003,
          1.47194108e-002, 2.75988947e-003, 0., 9.19963175e-004, 0.,
          3.67985270e-003, 1.37994476e-002, 0., 3.67985270e-003, 0.,
          2.75988947e-003, 9.19963175e-004, 0., 0., 9.19963175e-004,
          1.01195946e-002, 0., 9.19963175e-004, 0., 0., 0.,
          1.83992635e-003, 0., 0., 9.19963175e-004, 0., 0.,
          9.19963175e-004, 0., 9.19963175e-004, 3.67985270e-003,
          9.19963140e-003, 9.19963175e-004, 0., 9.19963175e-004,
          9.19963175e-004, 6.43974217e-003, 9.19963175e-004,
          1.83992635e-003, 0., 2.75988947e-003, 0., 0., 0., 0.,
          3.67985270e-003, 0., 9.19963175e-004, 3.67985270e-003, 0.,
          1.74793005e-002, 9.19963175e-004, 9.19963175e-004, 0., 0., 0.,
          9.19963175e-004, 0., 0., 0., 0., 9.19963175e-004,
          9.19963175e-004, 9.19963175e-004, 2.75988947e-003,
          9.19963140e-003, 1.83992635e-003, 9.19963175e-004,
          2.75988947e-003, 0., 1.83992635e-003, 9.19963175e-004,
          3.67985270e-003, 1.83992635e-003, 9.19963175e-004, 0., 0., 0.,
          9.19963175e-004, 9.19963175e-004, 0., 9.19963175e-004,
          9.19963175e-004, 9.19963175e-004, 0., 2.75988947e-003,
          1.83992635e-003, 4.59981570e-003, 0., 0., 3.67985270e-003,
          6.43974217e-003, 9.19963175e-004, 9.19963175e-004, 0.,
          1.83992635e-003, 2.75988947e-003, 0., 0., 1.83992635e-003,
          7.35970540e-003, 9.19963175e-004, 1.83992635e-003,
          1.83992635e-003, 7.35970540e-003, 0., 9.19963175e-004,
          9.19963175e-004, 9.19963175e-004, 0., 9.19963175e-004,
          2.75988947e-003, 2.75988947e-003, 0., 0., 9.19963175e-004,
          9.19963175e-004, 0., 0., 9.19963140e-003, 0., 9.19963175e-004,
          9.19963175e-004, 1.19595211e-002, 9.19963175e-004,
          9.19963175e-004, 9.19963175e-004, 3.67985270e-003, 0.,
          9.19963175e-004, 0., 0., 0., 9.19963175e-004, 0., 0., 0.,
          9.19963175e-004, 0., 7.35970540e-003, 0., 0., 0.,
          9.19963175e-004, 9.19963140e-003, 0., 1.10395579e-002, 0., 0.,
          0., 0., 1.19595211e-002, 4.59981570e-003, 6.43974217e-003, 0.,
          9.19963175e-004, 0., 0., 9.19963175e-004, 9.19963175e-004,
          9.19963175e-004, 9.19963175e-004, 3.67985270e-003,
          9.19963175e-004, 0., 3.67985270e-003, 3.40386368e-002,
          1.83992635e-003, 2.75988947e-003, 0., 0., 1.83992635e-003, 0.,
          3.67985270e-003, 3.67985270e-003, 0., 0., 2.75988947e-003, 0.,
          0., 1.83992635e-003, 9.19963175e-004, 0., 5.51977893e-003,
          9.19963175e-004, 0., 0., 6.43974217e-003, 2.75988947e-003, 0.,
          0., 1.10395579e-002, 0., 9.19963175e-004, 1.83992635e-003, 0.,
          2.75988947e-003, 4.59981570e-003, 1.83992635e-003,
          9.19963175e-004, 2.75988947e-003, 2.75988947e-003, 0., 0.,
          1.83992635e-003, 9.19963175e-004, 0., 2.75988947e-003, 0., 0.,
          9.19963175e-004, 2.75988947e-003, 1.83992635e-003,
          1.83992635e-003, 2.75988947e-003, 9.19963175e-004,
          9.19963175e-004, 1.83992635e-003, 0., 9.19963175e-004, 0., 0.,
          0., 0., 0., 0., 9.19963175e-004, 9.19963175e-004,
          9.19963175e-004, 3.67985270e-003, 5.51977893e-003,
          9.19963175e-004, 0., 9.19963175e-004, 0., 1.83992635e-003,
          9.19963175e-004, 0., 0., 0., 0., 0., 0., 4.59981570e-003, 0.,
          0., 0., 0., 1.83992635e-003, 6.43974217e-003, 9.19963175e-004,
          9.19963175e-004, 5.51977893e-003, 1.83992635e-003,
          9.19963175e-004, 6.43974217e-003, 3.67985270e-003,
          2.75988947e-003, 0., 0., 0., 9.19963175e-004, 0.,
          8.27966817e-003, 0., 1.10395579e-002, 0., 2.75988947e-003,
          2.75988947e-003, 0., 1.83992635e-003, 9.19963175e-004,
          9.19963175e-004, 1.83992635e-003, 0., 9.19963175e-004, 0.,
          9.19963175e-004, 0., 9.19963175e-004, 8.27966817e-003,
          9.19963175e-004, 0., 3.67985270e-003, 2.75988947e-003, 0.,
          9.19963175e-004, 0., 0., 2.75988947e-003, 0., 0., 0.,
          5.51977893e-003, 1.83992635e-003, 0., 0., 9.19963175e-004, 0.,
          0., 2.75988947e-003, 9.19963175e-004, 1.10395579e-002,
          2.75988947e-003, 0., 7.35970540e-003, 0., 1.83992635e-003,
          2.75988947e-003, 0., 1.83992635e-003, 0., 2.75988947e-003,
          4.59981570e-003, 0., 2.75988947e-003, 0., 0., 9.19963175e-004,
          9.19963175e-004, 0., 9.19963175e-004, 5.51977893e-003,
          9.19963175e-004, 0., 9.19963175e-004, 9.19963175e-004,
          4.59981570e-003, 0., 4.59981570e-003, 9.19963175e-004,
          1.83992635e-003, 1.83992635e-003, 3.67985270e-003, 0., 0.,
          1.83992635e-003, 3.67985270e-003, 9.19963175e-004, 0.,
          1.83992635e-003, 0., 4.59981570e-003, 2.75988947e-003, 0.,
          2.75988947e-003, 0., 0., 0., 9.19963175e-004, 0., 0.,
          3.67985270e-003, 1.83992635e-003, 0., 9.19963175e-004, 0.,
          2.75988947e-003, 0., 0., 0., 0., 9.19963175e-004, 0.,
          3.67985270e-003, 5.51977893e-003, 5.51977893e-003,
          9.19963175e-004, 9.19963175e-004, 0., 0., 0., 2.75988947e-003,
          9.19963175e-004, 0., 9.19963175e-004, 9.19963175e-004,
          1.83992635e-003, 1.83992635e-003, 3.67985270e-003,
          9.19963175e-004, 0., 9.19963175e-004, 9.19963175e-004,
          5.51977893e-003, 2.75988947e-003, 0., 0., 9.19963175e-004,
          9.19963175e-004, 0., 1.83992635e-003, 1.83992635e-003,
          1.83992635e-003, 0., 0., 9.19963175e-004, 9.19963175e-004, 0.,
          9.19963175e-004, 2.75988947e-003, 3.67985270e-003,
          1.83992635e-003, 0., 0., 8.27966817e-003, 4.59981570e-003, 0.,
          5.51977893e-003, 3.67985270e-003, 0., 0., 0., 9.19963175e-004,
          1.83992635e-003, 9.19963175e-004, 0., 0., 9.19963175e-004,
          9.19963175e-004, 0., 0., 2.75988947e-003, 0., 0., 0., 0.,
          6.43974217e-003, 9.19963175e-004, 3.67985270e-003, 0.,
          9.19963175e-004, 0., 1.83992635e-003, 0., 9.19963175e-004,
          9.19963175e-004, 0., 9.19963175e-004, 9.19963175e-004,
          1.01195946e-002, 2.75988947e-003, 0., 0., 2.75988947e-003, 0.,
          1.83992635e-003, 1.83992635e-003, 3.67985270e-003, 0., 0., 0.,
          2.75988947e-003, 1.83992635e-003, 0., 0., 0., 9.19963175e-004,
          1.10395579e-002, 9.19963175e-004, 9.19963175e-004, 0.,
          9.19963175e-004, 0., 0., 0., 1.83992635e-003, 2.75988947e-003,
          9.19963175e-004, 9.19963175e-004, 9.19963175e-004, 0.,
          1.83992635e-003, 0., 0., 0., 0., 2.75988947e-003,
          1.83992635e-003, 4.59981570e-003, 0., 1.83992635e-003,
          1.83992635e-003, 9.19963175e-004, 0., 2.75988947e-003, 0.,
          3.67985270e-003, 0., 0., 8.27966817e-003, 0., 0., 0., 0. ]
      - [ 0., 0., 1.75336050e-003, 1.16890704e-003, 0., 0.,
          1.16890704e-003, 0., 1.16890704e-003, 0., 5.84453519e-004, 0.,
          0., 1.16890704e-003, 0., 0., 1.16890704e-003, 5.84453519e-004,
          0., 2.92226765e-003, 6.42898865e-003, 4.67562815e-003, 0., 0.,
          4.67562815e-003, 0., 0., 0., 2.33781408e-003, 5.84453531e-003,
          5.26008150e-003, 7.59789580e-003, 8.18234961e-003,
          1.16890704e-003, 1.16890704e-003, 1.75336050e-003, 0.,
          2.92226765e-003, 1.75336050e-003, 2.92226765e-003,
          2.92226765e-003, 4.09117481e-003, 2.92226765e-003,
          1.16890704e-003, 1.16890704e-003, 1.75336050e-003,
          5.84453531e-003, 0., 1.75336050e-003, 1.75336050e-003, 0.,
          3.50672100e-003, 8.76680296e-003, 5.84453519e-004,
          1.16890704e-003, 0., 0., 1.75336050e-003, 0., 1.75336050e-003,
          5.84453519e-004, 0., 0., 2.92226765e-003, 2.33781408e-003,
          1.16890704e-003, 2.33781408e-003, 1.75336050e-003,
          1.75336050e-003, 0., 1.75336050e-003, 0., 0., 2.92226765e-003,
          3.50672100e-003, 2.92226765e-003, 1.16890704e-003,
          5.84453519e-004, 5.84453519e-004, 5.84453519e-004,
          5.84453519e-004, 5.84453519e-004, 5.84453519e-004, 0.,
          5.84453519e-004, 0., 6.42898865e-003, 1.16890704e-003,
          1.16890704e-003, 1.75336050e-003, 4.09117481e-003, 0., 0.,
          1.16890704e-003, 0., 1.75336050e-003, 0., 3.50672100e-003,
          2.92226765e-003, 0., 1.16890704e-003, 0., 1.16890704e-003,
          2.92226765e-003, 1.75336050e-003, 0., 4.09117481e-003, 0.,
          4.67562815e-003, 0., 1.75336050e-003, 0., 0., 0., 0.,
          2.33781408e-003, 3.50672100e-003, 5.84453519e-004,
          2.92226765e-003, 1.16890704e-003, 2.92226765e-003,
          5.84453519e-004, 5.84453519e-004, 2.92226765e-003,
          2.33781408e-003, 5.84453519e-004, 6.42898865e-003,
          4.09117481e-003, 1.16890704e-003, 0., 2.33781408e-003,
          3.50672100e-003, 1.75336050e-003, 0., 1.16890704e-003, 0.,
          3.50672100e-003, 2.33781408e-003, 0., 2.33781408e-003,
          2.33781408e-003, 3.50672100e-003, 2.33781408e-003,
          1.16890704e-003, 5.84453519e-004, 5.84453531e-003, 0.,
          5.84453531e-003, 0., 0., 0., 1.46113383e-002, 0.,
          5.84453519e-004, 1.75336050e-003, 0., 3.50672100e-003,
          1.16890704e-003, 4.09117481e-003, 9.93570965e-003, 0.,
          1.16890704e-003, 1.75336050e-003, 0., 0., 0., 4.67562815e-003,
          1.75336050e-003, 0., 5.84453519e-004, 0., 1.16890704e-003,
          5.84453519e-004, 0., 1.16890704e-003, 1.75336050e-003,
          1.34424306e-002, 2.92226765e-003, 1.75336050e-003,
          5.84453519e-004, 1.28579773e-002, 1.16890704e-003,
          1.75336050e-003, 1.34424306e-002, 8.76680296e-003, 0.,
          5.84453519e-004, 0., 2.33781408e-003, 0., 2.33781408e-003,
          1.16890704e-003, 5.84453531e-003, 5.84453531e-003,
          4.67562815e-003, 0., 1.16890704e-003, 5.84453519e-004,
          1.75336050e-003, 1.16890704e-003, 7.01344199e-003,
          1.16890704e-003, 5.84453519e-004, 0., 1.16890704e-003, 0.,
          3.50672100e-003, 5.84453519e-004, 0., 1.75336050e-003, 0., 0.,
          1.16890704e-003, 5.84453519e-004, 3.50672100e-003, 0.,
          1.16890704e-003, 0., 5.84453519e-004, 0., 0., 0.,
          5.26008150e-003, 0., 0., 5.84453519e-004, 0., 7.59789580e-003,
          0., 1.16890704e-003, 2.33781408e-003, 0., 0., 0.,
          3.50672100e-003, 0., 0., 6.42898865e-003, 0., 2.92226765e-003,
          2.33781408e-003, 6.42898865e-003, 2.33781408e-003,
          5.84453519e-004, 5.84453519e-004, 0., 1.75336050e-003, 0., 0.,
          1.75336050e-003, 8.76680296e-003, 5.84453519e-004,
          5.84453519e-004, 1.16890704e-003, 1.16890706e-002, 0.,
          5.26008150e-003, 0., 1.16890704e-003, 4.67562815e-003,
          4.09117481e-003, 0., 0., 1.75336050e-003, 0., 1.75336050e-003,
          2.33781408e-003, 0., 5.84453519e-004, 3.50672100e-003, 0., 0.,
          1.75336050e-003, 1.16890704e-003, 0., 0., 5.84453519e-004,
          1.75336050e-003, 0., 5.84453519e-004, 0., 0., 1.16890704e-003,
          0., 0., 5.84453519e-004, 0., 5.84453519e-004, 0.,
          1.16890704e-003, 2.33781408e-003, 5.84453519e-004,
          8.76680296e-003, 1.16890704e-003, 0., 1.16890704e-003,
          2.33781408e-003, 0., 0., 2.92226765e-003, 0., 1.16890704e-003,
          2.33781408e-003, 0., 1.75336050e-003, 5.84453531e-003,
          5.84453519e-004, 0., 0., 2.33781408e-003, 9.93570965e-003, 0.,
          1.16890704e-003, 0., 0., 1.75336050e-003, 0., 2.33781408e-003,
          0., 4.09117481e-003, 1.16890704e-003, 2.33781408e-003,
          1.16890704e-003, 1.16890704e-003, 2.33781408e-003, 0., 0.,
          5.84453519e-004, 0., 2.33781408e-003, 0., 1.75336050e-003, 0.,
          2.33781408e-003, 0., 0., 1.81180593e-002, 0., 0.,
          1.75336050e-003, 4.09117481e-003, 1.16890704e-003, 0., 0., 0.,
          0., 0., 2.45470479e-002, 5.84453519e-004, 1.16890704e-003, 0.,
          0., 0., 1.16890704e-003, 2.92226765e-003, 2.92226765e-003, 0.,
          5.84453519e-004, 2.92226765e-003, 1.75336050e-003,
          2.92226765e-003, 1.75336050e-003, 3.50672100e-003,
          1.16890704e-003, 1.75336050e-003, 2.33781408e-003,
          7.01344199e-003, 1.75336050e-003, 0., 2.92226765e-003, 0., 0.,
          5.84453519e-004, 4.09117481e-003, 5.84453519e-004,
          4.09117481e-003, 0., 2.33781408e-003, 1.16890704e-003,
          1.16890704e-003, 5.84453519e-004, 2.33781408e-003,
          1.16890704e-003, 0., 2.33781408e-003, 0., 0., 3.50672100e-003,
          5.84453519e-004, 2.92226765e-003, 1.16890704e-003,
          4.67562815e-003, 0., 4.67562815e-003, 4.09117481e-003,
          4.09117481e-003, 2.33781408e-003, 0., 0., 5.84453519e-004, 0.,
          5.84453519e-004, 1.16890704e-003, 2.92226765e-003,
          1.75336050e-003, 0., 5.84453519e-004, 0., 1.75336050e-003,
          1.16890704e-003, 5.84453519e-004, 1.16890704e-003, 0.,
          5.84453519e-004, 4.67562815e-003, 1.75336050e-003, 0.,
          2.33781408e-003, 0., 5.84453519e-004, 0., 1.16890704e-003, 0.,
          1.16890704e-003, 0., 0., 2.33781408e-003, 5.84453519e-004,
          5.84453519e-004, 0., 2.33781408e-003, 5.26008150e-003,
          5.84453519e-004, 5.84453519e-004, 5.84453519e-004,
          3.50672100e-003, 0., 5.84453519e-004, 5.84453519e-004,
          1.16890704e-003, 0., 1.75336050e-003, 1.75336050e-003,
          2.33781408e-003, 1.75336050e-003, 5.84453519e-004,
          5.26008150e-003, 0., 0., 0., 1.16890704e-003, 0.,
          5.84453519e-004, 0., 2.33781408e-003, 1.16890704e-003, 0.,
          1.16890704e-003, 1.75336050e-003, 0., 5.84453519e-004, 0.,
          1.16890704e-003, 5.84453519e-004, 0., 5.84453519e-004,
          1.75336050e-003, 0., 0., 5.84453519e-004, 0., 0.,
          5.84453519e-004, 0., 2.92226765e-003, 0., 5.84453519e-004, 0.,
          0., 3.50672100e-003, 2.92226765e-003, 2.33781408e-003,
          1.16890704e-003, 4.67562815e-003, 1.75336050e-003, 0.,
          1.16890704e-003, 1.16890704e-003, 3.50672100e-003,
          5.84453519e-004, 0., 0., 1.75336050e-003, 0., 2.33781408e-003,
          1.16890704e-003, 4.67562815e-003, 1.75336050e-003,
          5.84453519e-004, 0., 5.84453519e-004, 2.33781408e-003,
          1.16890704e-003, 2.33781408e-003, 2.92226765e-003,
          1.75336050e-003, 5.84453519e-004, 2.92226765e-003, 0.,
          1.46113383e-002, 1.16890704e-003, 1.16890704e-003,
          5.84453519e-004, 1.16890704e-003, 5.84453519e-004, 0.,
          4.09117481e-003, 0., 5.84453519e-004, 0., 1.16890704e-003, 0.,
          0., 0., 0., 5.84453519e-004, 2.33781408e-003, 0.,
          2.33781408e-003, 3.50672100e-003, 0., 0., 8.76680296e-003, 0.,
          5.84453519e-004, 1.16890704e-003, 1.16890704e-003,
          2.33781408e-003, 0., 1.16890704e-003, 4.67562815e-003,
          5.84453519e-004, 0., 1.16890704e-003, 2.33781408e-003, 0., 0.,
          0., 0., 5.84453519e-004, 0., 1.16890704e-003, 0., 0.,
          4.67562815e-003, 2.92226765e-003, 7.59789580e-003,
          6.42898865e-003, 5.84453519e-004, 0., 3.50672100e-003,
          1.75336050e-003, 0., 5.84453519e-004, 5.84453519e-004,
          2.33781408e-003, 1.16890704e-003, 2.33781408e-003,
          1.11046173e-002, 0., 5.84453519e-004, 3.50672100e-003,
          1.16890704e-003, 1.16890704e-003, 1.46113383e-002,
          5.84453519e-004, 0., 5.84453519e-004, 0., 1.16890704e-003,
          2.33781408e-003, 5.84453519e-004, 0., 2.33781408e-003,
          1.16890704e-003, 0., 8.18234961e-003, 4.67562815e-003,
          1.16890704e-003, 0., 0., 0., 3.50672100e-003, 2.92226765e-003,
          5.84453519e-004, 5.84453519e-004, 2.33781408e-003,
          5.84453519e-004, 5.84453519e-004, 0. ]
      - [ 8.21692694e-004, 0., 7.39523442e-003, 0., 0., 0., 0., 0.,
          8.21692694e-004, 3.28677078e-003, 1.64338539e-003,
          8.21692694e-004, 1.64338539e-003, 8.21692694e-004, 0., 0., 0.,
          8.21692694e-004, 0., 0., 8.21692694e-004, 0., 9.03861970e-003,
          0., 0., 8.21692694e-004, 1.64338539e-003, 4.84798700e-002,
          2.21857019e-002, 0., 0., 8.21692694e-004, 1.39687760e-002,
          8.21692694e-004, 0., 0., 0., 8.21692694e-004, 0., 0.,
          8.21692694e-004, 1.56121608e-002, 1.23253902e-002,
          2.46507814e-003, 6.57354156e-003, 1.64338539e-003,
          4.10846341e-003, 0., 2.46507814e-003, 1.64338539e-003,
          4.93015628e-003, 8.21692694e-004, 1.64338539e-003,
          1.64338539e-003, 0., 0., 0., 0., 0., 1.88989323e-002,
          8.21692694e-004, 0., 0., 0., 8.21692694e-004, 1.64338539e-003,
          8.21692694e-004, 8.21692694e-004, 0., 0., 1.64338539e-003, 0.,
          0., 0., 0., 0., 1.64338539e-003, 8.21692694e-004,
          2.46507814e-003, 8.21692694e-004, 2.46507814e-003,
          4.93015628e-003, 0., 0., 0., 0., 8.21692694e-004,
          2.46507814e-003, 4.10846360e-002, 0., 0., 0., 0.,
          3.28677078e-003, 8.21692694e-004, 0., 2.46507814e-003, 0.,
          1.23253902e-002, 0., 0., 0., 0., 3.28677078e-003, 0.,
          8.21692694e-004, 1.64338539e-003, 2.46507814e-003, 0.,
          4.93015628e-003, 0., 4.10846341e-003, 0., 2.46507814e-003, 0.,
          1.64338539e-003, 0., 8.21692694e-004, 0., 1.64338539e-003, 0.,
          1.64338539e-003, 0., 8.21692694e-004, 0., 0., 1.64338539e-003,
          0., 0., 4.10846341e-003, 4.93015628e-003, 0., 5.75184869e-003,
          8.21692694e-004, 1.64338539e-003, 0., 8.21692694e-004, 0., 0.,
          0., 0., 0., 0., 8.21692694e-004, 0., 8.21692694e-004, 0.,
          1.64338539e-003, 0., 0., 4.10846341e-003, 8.21692694e-004, 0.,
          8.21692694e-004, 0., 2.05423180e-002, 0., 0., 0.,
          1.64338539e-003, 1.64338539e-003, 0., 4.10846341e-003, 0.,
          9.03861970e-003, 0., 0., 8.21692694e-004, 0., 8.21692694e-004,
          1.80772394e-002, 8.21692694e-004, 1.64338539e-003, 0., 0.,
          1.64338539e-003, 2.46507814e-003, 0., 0., 1.15036974e-002,
          2.46507814e-003, 0., 8.21692694e-004, 3.28677078e-003,
          3.28677078e-003, 0., 0., 0., 8.21692694e-004, 0., 0., 0., 0.,
          1.64338539e-003, 1.15036974e-002, 6.57354156e-003, 0., 0., 0.,
          0., 0., 8.21692694e-004, 0., 0., 1.64338539e-003, 0., 0.,
          8.21692683e-003, 0., 0., 0., 2.46507814e-003, 8.21692694e-004,
          0., 5.75184869e-003, 8.21692694e-004, 0., 8.21692694e-004, 0.,
          0., 0., 4.93015628e-003, 4.10846341e-003, 0., 0.,
          5.75184869e-003, 0., 0., 2.38290876e-002, 8.21692694e-004, 0.,
          3.28677078e-003, 8.21692694e-004, 1.64338539e-003,
          1.64338539e-003, 0., 0., 2.46507814e-003, 0., 3.28677078e-003,
          1.64338539e-003, 0., 2.46507814e-003, 1.64338539e-003,
          8.21692694e-004, 0., 1.64338539e-003, 0., 0., 1.64338539e-003,
          0., 0., 8.21692694e-004, 1.64338539e-003, 8.21692694e-004, 0.,
          0., 0., 2.46507814e-003, 1.64338539e-003, 0., 0., 0., 0.,
          1.64338539e-003, 0., 0., 6.57354156e-003, 8.21692694e-004, 0.,
          6.57354156e-003, 0., 3.28677078e-003, 8.21692694e-004,
          1.64338539e-003, 0., 4.10846341e-003, 0., 0., 8.21692694e-004,
          1.64338539e-003, 0., 8.21692694e-004, 1.47904688e-002, 0.,
          1.64338539e-003, 2.46507814e-003, 0., 8.21692683e-003,
          1.64338539e-003, 8.21692694e-004, 8.21692694e-004, 0.,
          1.64338539e-003, 0., 8.21692694e-004, 8.21692694e-004,
          8.21692694e-004, 1.64338539e-003, 4.93015628e-003, 0., 0.,
          8.21692694e-004, 1.64338539e-003, 0., 0., 7.39523442e-003, 0.,
          0., 0., 8.21692694e-004, 0., 0., 0., 0., 0., 9.03861970e-003,
          0., 0., 6.57354156e-003, 8.21692694e-004, 0., 2.46507814e-003,
          0., 1.64338539e-003, 0., 1.64338539e-003, 0., 3.28677078e-003,
          0., 8.21692694e-004, 7.39523442e-003, 8.21692694e-004, 0.,
          8.21692683e-003, 2.46507814e-003, 2.46507814e-003, 0., 0., 0.,
          0., 4.93015628e-003, 0., 0., 2.46507814e-003, 0., 0.,
          2.46507814e-003, 0., 0., 0., 0., 0., 8.21692694e-004, 0.,
          3.28677078e-003, 8.21692694e-004, 1.64338539e-003, 0., 0., 0.,
          0., 6.57354156e-003, 8.21692694e-004, 0., 2.46507814e-003,
          8.21692694e-004, 1.64338539e-003, 2.05423180e-002, 0., 0., 0.,
          8.21692694e-004, 0., 0., 0., 1.64338539e-003, 8.21692694e-004,
          0., 4.93015628e-003, 0., 0., 3.28677078e-003, 1.64338539e-003,
          8.21692694e-004, 8.21692694e-004, 0., 0., 6.57354156e-003, 0.,
          8.21692694e-004, 0., 0., 0., 8.21692694e-004, 2.46507814e-003,
          8.21692694e-004, 0., 0., 0., 0., 0., 1.64338539e-003,
          1.64338539e-003, 4.10846341e-003, 0., 0., 0., 0., 0.,
          8.21692694e-004, 0., 1.64338539e-003, 3.28677078e-003,
          8.21692694e-004, 0., 8.21692694e-004, 8.21692694e-004, 0.,
          8.21692694e-004, 0., 8.21692694e-004, 0., 0., 0.,
          3.28677078e-003, 0., 8.21692694e-004, 8.21692694e-004, 0.,
          7.39523442e-003, 8.21692694e-004, 4.93015628e-003, 0.,
          1.64338539e-003, 0., 0., 0., 3.28677078e-003, 7.39523442e-003,
          0., 1.56121608e-002, 8.21692694e-004, 0., 0., 5.75184869e-003,
          1.64338539e-003, 0., 0., 0., 4.10846341e-003, 0.,
          8.21692694e-004, 0., 0., 8.21692694e-004, 0., 8.21692694e-004,
          0., 0., 1.64338539e-003, 0., 0., 1.64338539e-003, 0., 0.,
          1.64338539e-003, 3.28677078e-003, 0., 2.46507814e-003,
          3.28677078e-003, 0., 0., 1.64338539e-003, 0., 0.,
          1.64338539e-003, 1.64338539e-003, 0., 0., 8.21692694e-004, 0.,
          0., 8.21692694e-004, 8.21692694e-004, 9.03861970e-003, 0., 0.,
          8.21692694e-004, 1.64338539e-003, 0., 0., 1.47904688e-002,
          8.21692694e-004, 0., 9.86031257e-003, 0., 4.10846341e-003,
          2.46507814e-003, 0., 0., 0., 0., 0., 0., 8.21692694e-004, 0.,
          2.46507814e-003, 0., 1.64338539e-003, 2.46507814e-003, 0., 0.,
          8.21692694e-004, 0., 0., 8.21692694e-004, 0., 0.,
          2.46507814e-003, 1.64338539e-003, 8.21692694e-004,
          8.21692694e-004, 0., 8.21692694e-004, 0., 1.64338539e-003, 0.,
          0., 8.21692694e-004, 0., 0., 3.28677078e-003, 0.,
          3.28677078e-003, 0., 8.21692694e-004, 6.57354156e-003, 0., 0.,
          0., 8.21692694e-004, 6.57354156e-003, 0., 0., 7.39523442e-003,
          8.21692694e-004, 0., 8.21692694e-004, 3.28677078e-003, 0., 0.,
          5.75184869e-003, 0., 2.46507814e-003, 8.21692694e-004,
          2.46507814e-003, 1.64338539e-003, 0., 0., 0., 0.,
          6.57354156e-003, 8.21692694e-004, 8.21692694e-004,
          8.21692694e-004, 0., 2.46507814e-003, 9.86031257e-003, 0., 0.,
          3.28677078e-003, 1.64338539e-003, 0., 4.10846341e-003,
          1.64338539e-003, 0., 1.64338539e-003, 4.10846341e-003,
          1.64338539e-003, 8.21692694e-004, 1.64338539e-003, 0., 0.,
          1.64338539e-003, 0., 0., 4.93015628e-003, 0., 8.21692694e-004,
          0., 4.93015628e-003, 0., 4.10846341e-003, 2.46507814e-003, 0.,
          0., 0., 0., 0. ]
      - [ 5.93119813e-003, 0., 0., 0., 0., 0., 2.37247930e-003, 0., 0.,
          0., 0., 0., 2.37247930e-003, 0., 0., 0., 0., 2.37247930e-003,
          0., 1.18623965e-003, 0., 0., 4.74495860e-003, 0., 0.,
          1.18623965e-003, 0., 4.38908674e-002, 1.18623965e-003, 0.,
          1.42348763e-002, 1.18623965e-003, 2.37247930e-003,
          7.11743813e-003, 1.18623965e-003, 0., 1.18623965e-003,
          2.37247930e-003, 0., 0., 0., 2.37247930e-003, 1.06761567e-002,
          1.18623965e-003, 0., 0., 0., 0., 0., 0., 2.37247930e-003, 0.,
          0., 4.74495860e-003, 2.37247930e-003, 0., 0., 0.,
          1.18623965e-003, 3.55871907e-003, 0., 0., 0., 1.18623965e-003,
          2.37247930e-003, 0., 0., 0., 0., 0., 5.93119813e-003, 0.,
          5.93119813e-003, 0., 0., 0., 1.18623965e-003, 0., 0.,
          2.37247930e-003, 3.55871907e-003, 0., 0., 0., 3.55871907e-003,
          0., 0., 0., 3.55871907e-003, 0., 1.18623965e-003, 0., 0., 0.,
          2.37247930e-003, 1.18623965e-003, 2.37247925e-002,
          1.18623965e-003, 5.93119813e-003, 0., 0., 0., 0.,
          2.37247930e-003, 0., 4.74495860e-003, 0., 0., 0.,
          4.74495860e-003, 2.37247930e-003, 5.57532646e-002, 0.,
          4.74495860e-003, 0., 0., 0., 0., 0., 0., 0., 0., 0., 0.,
          1.18623965e-003, 0., 2.37247930e-003, 0., 0., 2.37247930e-003,
          2.37247930e-003, 0., 5.93119813e-003, 1.18623965e-003,
          1.18623965e-003, 0., 0., 0., 9.48991720e-003, 0., 0.,
          4.74495860e-003, 1.18623965e-003, 0., 0., 0., 1.18623965e-003,
          0., 0., 0., 3.55871907e-003, 0., 0., 0., 0., 5.10083064e-002,
          0., 0., 0., 0., 1.18623965e-003, 0., 0., 0., 3.55871907e-003,
          0., 1.18623965e-003, 0., 0., 5.93119813e-003, 1.06761567e-002,
          0., 1.18623965e-003, 1.18623965e-003, 0., 1.18623965e-003, 0.,
          1.18623965e-003, 1.18623965e-003, 7.11743813e-003,
          2.37247930e-003, 0., 1.18623965e-003, 0., 0., 0.,
          1.18623965e-003, 0., 0., 0., 0., 0., 0., 0., 0.,
          1.18623965e-003, 0., 0., 0., 0., 0., 4.74495860e-003,
          3.55871907e-003, 1.18623965e-003, 2.37247930e-003, 0., 0.,
          5.93119813e-003, 0., 1.18623965e-003, 0., 0., 0., 0.,
          2.37247930e-003, 0., 0., 4.15183865e-002, 0., 0., 0.,
          1.18623965e-003, 0., 0., 7.11743813e-003, 0., 2.37247930e-003,
          0., 4.62633446e-002, 0., 0., 3.55871907e-003, 0.,
          1.18623965e-003, 0., 0., 0., 1.18623965e-003, 0.,
          1.18623965e-003, 1.18623965e-003, 0., 0., 1.18623965e-003,
          1.18623965e-003, 0., 2.37247930e-003, 0., 0., 1.18623965e-003,
          0., 0., 0., 1.18623965e-003, 1.18623965e-003, 0.,
          2.37247930e-003, 0., 0., 0., 0., 0., 0., 0., 1.18623965e-003,
          0., 2.37247930e-003, 2.37247930e-003, 7.11743813e-003, 0., 0.,
          1.18623965e-003, 2.37247930e-003, 1.18623965e-003,
          1.18623965e-003, 0., 3.55871907e-003, 0., 0., 8.30367766e-003,
          0., 0., 0., 1.18623963e-002, 0., 0., 1.18623965e-003, 0., 0.,
          2.37247930e-003, 0., 0., 0., 1.18623965e-003, 0., 0., 0.,
          1.18623965e-003, 0., 0., 1.18623965e-003, 0., 1.18623965e-003,
          4.74495860e-003, 0., 0., 0., 0., 0., 1.18623965e-003, 0., 0.,
          1.18623965e-003, 0., 2.37247930e-003, 0., 2.72835121e-002, 0.,
          2.37247930e-003, 4.74495860e-003, 1.18623965e-003, 0.,
          1.18623965e-003, 0., 0., 0., 0., 1.18623965e-003, 0.,
          1.18623965e-003, 2.37247930e-003, 1.18623965e-003,
          1.18623965e-003, 2.37247930e-003, 1.66073553e-002,
          2.37247930e-003, 1.18623965e-003, 0., 0., 2.37247930e-003, 0.,
          7.11743813e-003, 0., 0., 0., 0., 0., 0., 0., 0., 0., 0., 0.,
          0., 0., 1.18623965e-003, 0., 2.60972716e-002, 0., 0., 0.,
          2.37247930e-003, 3.55871907e-003, 0., 1.18623965e-003,
          1.18623965e-003, 0., 0., 5.93119813e-003, 2.37247930e-003,
          1.18623965e-003, 0., 2.37247930e-003, 0., 0., 0.,
          1.18623965e-003, 0., 1.18623965e-003, 0., 0., 0.,
          1.18623965e-003, 0., 0., 0., 0., 0., 3.55871907e-003,
          9.48991720e-003, 0., 0., 0., 0., 0., 1.18623965e-003, 0., 0.,
          0., 0., 3.55871907e-003, 0., 0., 0., 3.55871907e-003,
          4.74495860e-003, 0., 3.55871907e-003, 0., 0., 0., 0.,
          3.55871907e-003, 0., 1.18623965e-003, 1.18623965e-003, 0., 0.,
          0., 0., 1.18623965e-003, 4.74495860e-003, 0., 0., 0.,
          1.77935939e-002, 0., 0., 2.37247930e-003, 0., 0., 0., 0.,
          1.18623965e-003, 0., 2.37247930e-003, 0., 0., 0.,
          3.55871907e-003, 0., 0., 0., 1.18623965e-003, 0.,
          7.11743813e-003, 0., 0., 0., 0., 0., 0., 0., 0.,
          4.74495860e-003, 1.18623965e-003, 0., 1.18623965e-003,
          1.18623965e-003, 1.18623965e-003, 0., 0., 0., 1.18623965e-003,
          0., 0., 2.37247930e-003, 1.18623965e-003, 0., 1.54211158e-002,
          7.11743813e-003, 0., 0., 0., 1.18623965e-003, 0., 0.,
          1.42348763e-002, 0., 1.18623965e-003, 0., 0., 0.,
          5.93119813e-003, 1.18623963e-002, 8.30367766e-003, 0., 0., 0.,
          0., 0., 0., 2.37247930e-003, 0., 4.74495860e-003,
          2.37247930e-003, 0., 0., 4.74495860e-003, 0., 0.,
          2.37247930e-003, 0., 0., 0., 0., 4.74495860e-003, 0., 0., 0.,
          2.37247930e-003, 8.30367766e-003, 3.55871907e-003,
          1.18623965e-003, 0., 0., 0., 0., 0., 4.74495860e-003,
          4.74495860e-003, 0., 0., 2.13523135e-002, 0., 0., 0., 0., 0.,
          0., 1.18623965e-003, 0., 0., 1.18623965e-003, 0., 0., 0., 0.,
          0., 0., 0., 4.74495860e-003, 4.74495860e-003, 0., 0.,
          2.13523135e-002, 3.55871907e-003, 0., 0., 1.18623965e-003, 0.,
          0., 0., 0., 2.37247930e-003, 0., 0., 0., 0., 0.,
          1.18623965e-003, 0., 0., 0., 0., 0., 0., 0., 0., 0., 0., 0.,
          0., 1.18623965e-003, 0., 0., 0., 0., 0., 0., 0., 0.,
          1.18623965e-003, 0., 0., 0., 0., 2.37247930e-003, 0., 0.,
          1.18623965e-003, 4.74495860e-003, 0., 0., 1.18623965e-003, 0.,
          3.55871907e-003, 0., 0., 0. ]
      - [ 0., 0., 2.47524749e-003, 0., 0., 0., 2.47524749e-003, 0., 0.,
          0., 0., 0., 0., 0., 0., 0., 0., 2.47524749e-003, 0., 0., 0.,
          0., 1.48514844e-002, 0., 0., 0., 0., 0., 4.95049497e-003,
          7.42574222e-003, 2.47524749e-003, 0., 0., 0., 2.47524749e-003,
          2.47524749e-003, 2.47524749e-003, 4.95049497e-003, 0.,
          7.42574222e-003, 2.47524749e-003, 9.90098994e-003, 0.,
          4.95049497e-003, 0., 0., 2.47524749e-003, 0., 0., 0., 0., 0.,
          0., 0., 0., 4.95049497e-003, 2.47524749e-003, 0., 0., 0.,
          4.95049497e-003, 0., 0., 4.95049497e-003, 0., 2.47524749e-003,
          7.42574222e-003, 0., 2.47524749e-003, 0., 0., 0., 0., 0.,
          2.47524749e-003, 0., 2.47524749e-003, 0., 0., 0.,
          2.47524749e-003, 0., 0., 9.90098994e-003, 4.95049497e-003, 0.,
          7.42574222e-003, 2.47524749e-003, 0., 7.42574222e-003,
          2.47524749e-003, 0., 0., 0., 2.47524749e-003, 4.95049497e-003,
          0., 0., 7.42574222e-003, 0., 2.47524749e-003, 0.,
          2.47524749e-003, 0., 0., 2.47524749e-003, 2.47524749e-003, 0.,
          0., 0., 0., 0., 0., 9.90098994e-003, 0., 0., 0., 0., 0., 0.,
          0., 2.47524749e-003, 0., 0., 0., 0., 1.48514844e-002, 0.,
          4.95049497e-003, 0., 4.95049497e-003, 0., 2.47524749e-003,
          7.42574222e-003, 0., 0., 7.42574222e-003, 0., 0., 0., 0., 0.,
          0., 0., 0., 0., 0., 0., 0., 0., 2.47524749e-003,
          9.90098994e-003, 0., 0., 2.47524749e-003, 0., 0., 0., 0., 0.,
          0., 0., 0., 0., 0., 0., 0., 0., 2.47524749e-003, 0.,
          2.47524749e-003, 0., 0., 0., 0., 2.47524749e-003,
          2.72277221e-002, 2.47524749e-003, 7.42574222e-003, 0., 0., 0.,
          0., 2.47524749e-003, 0., 0., 4.95049497e-003, 0.,
          2.47524749e-003, 0., 2.47524749e-003, 2.47524749e-003,
          2.47524749e-003, 0., 0., 0., 0., 0., 0., 0., 0., 0.,
          2.47524749e-003, 0., 4.95049497e-003, 4.95049497e-003,
          2.47524749e-003, 0., 0., 0., 0., 0., 2.47524749e-003, 0., 0.,
          0., 0., 0., 1.73267331e-002, 0., 0., 2.47524749e-003, 0., 0.,
          0., 2.47524749e-003, 0., 7.42574222e-003, 0., 0., 0., 0., 0.,
          0., 0., 0., 0., 0., 0., 0., 0., 0., 0., 0., 0., 0.,
          2.47524749e-003, 0., 2.47524749e-003, 0., 7.42574222e-003,
          2.47524749e-003, 4.95049497e-003, 2.47524749e-003,
          2.47524749e-003, 0., 0., 2.47524749e-003, 0., 0.,
          2.47524749e-003, 0., 0., 0., 0., 4.95049497e-003,
          4.95049497e-003, 0., 4.95049497e-003, 4.95049497e-003, 0., 0.,
          0., 0., 0., 0., 4.95049497e-003, 0., 0., 2.47524749e-003,
          4.95049497e-003, 2.47524749e-003, 2.47524749e-003, 0.,
          4.95049497e-003, 7.42574222e-003, 0., 2.47524749e-003, 0.,
          4.95049497e-003, 2.47524749e-003, 0., 0., 7.42574222e-003, 0.,
          0., 7.42574222e-003, 0., 0., 7.42574222e-003, 0., 0.,
          2.47524749e-003, 0., 2.47524749e-003, 2.47524749e-003,
          2.47524749e-003, 0., 0., 2.47524749e-003, 0., 0., 0., 0.,
          2.47524749e-003, 0., 4.95049497e-003, 0., 0., 0.,
          9.90098994e-003, 0., 0., 0., 0., 0., 0., 0., 0.,
          7.42574222e-003, 0., 2.47524749e-003, 7.42574222e-003, 0., 0.,
          4.95049497e-003, 0., 0., 0., 0., 0., 0., 0., 0., 0., 0., 0.,
          2.47524749e-003, 0., 2.47524749e-003, 0., 0., 0., 0., 0., 0.,
          0., 0., 0., 0., 2.47524749e-003, 2.47524749e-003, 0.,
          4.95049497e-003, 0., 1.23762377e-002, 0., 0., 0.,
          1.23762377e-002, 0., 4.95049497e-003, 0., 2.47524749e-003, 0.,
          0., 0., 0., 0., 0., 2.47524749e-003, 2.47524749e-003,
          4.95049497e-003, 4.95049497e-003, 0., 0., 0., 0., 0., 0., 0.,
          4.95049497e-003, 0., 0., 0., 0., 0., 0., 2.47524749e-003, 0.,
          1.73267331e-002, 0., 0., 2.47524749e-003, 0., 0., 0., 0.,
          2.47524749e-003, 4.95049497e-003, 0., 0., 2.47524749e-003, 0.,
          0., 0., 0., 0., 0., 0., 0., 2.47524749e-003, 0., 0.,
          2.47524749e-003, 2.47524749e-003, 4.95049497e-003, 0., 0., 0.,
          4.95049497e-003, 0., 0., 0., 0., 2.47524749e-003, 0., 0.,
          4.95049497e-003, 4.95049497e-003, 0., 0., 4.95049497e-003,
          4.95049497e-003, 0., 0., 4.20792066e-002, 0., 0., 0.,
          2.47524749e-003, 0., 4.95049497e-003, 0., 0., 0., 0., 0., 0.,
          0., 4.95049497e-003, 0., 0., 0., 0., 0., 4.95049497e-003, 0.,
          2.47524749e-003, 0., 0., 0., 0., 0., 0., 0., 0., 0., 0., 0.,
          0., 2.47524749e-003, 4.95049497e-003, 0., 0., 0., 0., 0.,
          4.95049497e-003, 0., 0., 0., 2.47524749e-003, 0.,
          4.95049497e-003, 1.48514844e-002, 2.97029689e-002,
          4.95049497e-003, 0., 0., 2.22772267e-002, 0., 0., 0.,
          2.47524749e-003, 4.95049497e-003, 1.23762377e-002,
          4.95049497e-003, 0., 9.90098994e-003, 0., 0., 0., 0., 0., 0.,
          0., 0., 2.47524749e-003, 9.90098994e-003, 0., 0.,
          2.47524749e-003, 0., 2.47524749e-003, 0., 9.90098994e-003, 0.,
          2.47524749e-003, 0., 7.42574222e-003, 0., 0., 2.47524749e-003,
          0., 4.95049497e-003, 0., 0., 0., 7.42574222e-003, 0., 0.,
          2.47524749e-003, 2.47524749e-003, 0., 0., 7.42574222e-003, 0.,
          0., 4.95049497e-003, 0., 0., 2.47524749e-003, 0., 0., 0., 0.,
          7.42574222e-003, 4.95049497e-003, 0., 0., 0., 0.,
          4.95049497e-003, 0., 0., 0., 0., 0., 0., 0., 4.95049497e-003,
          0., 0., 1.48514844e-002, 2.47524749e-003, 0., 0.,
          2.47524749e-003, 4.95049497e-003, 2.47524749e-003, 0., 0., 0.,
          4.95049497e-003, 0., 7.42574222e-003, 4.95049497e-003,
          2.47524749e-003, 4.95049497e-003, 0., 0., 0., 7.42574222e-003,
          0., 0., 0., 0., 4.95049497e-003, 0. ]
      - [ 0., 0., 0., 0., 0., 0., 4.75435844e-003, 0., 3.16957221e-003,
          0., 3.16957221e-003, 6.33914443e-003, 0., 0., 0., 0., 0.,
          4.75435844e-003, 0., 0., 1.58478611e-003, 0., 9.50871687e-003,
          0., 0., 1.58478618e-002, 0., 3.16957221e-003, 9.50871687e-003,
          0., 6.33914443e-003, 1.58478611e-003, 0., 0., 0., 0., 0., 0.,
          0., 0., 6.33914443e-003, 0., 3.16957221e-003, 0., 0.,
          2.21870057e-002, 0., 0., 1.58478611e-003, 1.58478611e-003,
          1.58478611e-003, 0., 1.58478611e-003, 0., 3.16957221e-003, 0.,
          1.58478611e-003, 0., 0., 0., 6.33914443e-003, 0.,
          3.16957221e-003, 1.58478611e-003, 1.58478611e-003,
          1.58478611e-003, 1.58478611e-003, 0., 1.58478611e-003, 0.,
          4.75435844e-003, 0., 7.92393088e-003, 0., 3.16957221e-003, 0.,
          1.58478611e-003, 0., 0., 9.50871687e-003, 0., 1.58478611e-003,
          0., 0., 1.58478611e-003, 0., 0., 0., 0., 0., 0., 0., 0.,
          3.16957221e-003, 1.58478611e-003, 0., 0., 0., 0., 0., 0., 0.,
          1.58478611e-003, 0., 3.16957221e-003, 3.16957221e-003,
          3.16957221e-003, 0., 0., 4.75435844e-003, 0., 0., 0.,
          3.16957221e-003, 6.33914443e-003, 0., 0., 0., 0.,
          3.16957221e-003, 0., 0., 0., 9.50871687e-003, 3.16957221e-003,
          0., 1.58478611e-003, 1.58478611e-003, 0., 0., 0., 0.,
          1.58478611e-003, 0., 3.16957221e-003, 9.50871687e-003,
          7.92393088e-003, 6.33914443e-003, 0., 3.16957221e-003,
          1.58478611e-003, 0., 4.75435844e-003, 3.16957221e-003, 0., 0.,
          0., 1.58478611e-003, 6.33914443e-003, 0., 1.58478611e-003,
          1.58478611e-003, 0., 1.58478611e-003, 0., 0., 1.58478611e-003,
          6.33914443e-003, 0., 7.92393088e-003, 1.58478611e-003, 0., 0.,
          0., 1.58478611e-003, 0., 0., 6.33914443e-003, 1.58478611e-003,
          0., 1.58478611e-003, 0., 0., 1.58478611e-003, 3.16957221e-003,
          0., 0., 1.58478611e-003, 0., 0., 0., 1.58478611e-003, 0.,
          9.50871687e-003, 0., 0., 0., 4.75435844e-003, 0., 0.,
          1.58478611e-003, 1.58478611e-003, 0., 1.58478611e-003, 0.,
          1.10935029e-002, 0., 3.16957221e-003, 1.58478611e-003, 0.,
          3.16957221e-003, 1.58478611e-003, 7.92393088e-003,
          7.92393088e-003, 3.16957221e-003, 0., 3.16957221e-003,
          4.75435844e-003, 1.58478611e-003, 0., 0., 4.75435844e-003, 0.,
          0., 0., 0., 0., 0., 0., 0., 1.58478611e-003, 3.16957221e-003,
          0., 1.58478611e-003, 9.50871687e-003, 0., 0., 1.58478611e-003,
          1.58478611e-003, 1.58478611e-003, 0., 0., 1.58478611e-003, 0.,
          0., 0., 0., 0., 1.58478611e-003, 3.16957221e-003, 0., 0., 0.,
          7.92393088e-003, 1.58478611e-003, 0., 1.58478611e-003,
          4.75435844e-003, 3.16957221e-003, 3.16957221e-003,
          1.58478611e-003, 1.58478611e-003, 0., 6.33914443e-003,
          4.75435844e-003, 0., 6.33914443e-003, 3.16957221e-003,
          3.16957221e-003, 0., 0., 3.16957221e-003, 0., 0.,
          3.16957221e-003, 1.58478611e-003, 1.58478611e-003,
          4.75435844e-003, 0., 0., 6.33914443e-003, 2.53565777e-002, 0.,
          4.75435844e-003, 3.16957221e-003, 0., 1.58478611e-003, 0.,
          1.58478611e-003, 1.58478611e-003, 0., 1.58478611e-003,
          1.58478611e-003, 4.75435844e-003, 0., 1.58478611e-003, 0.,
          3.16957221e-003, 0., 0., 0., 0., 0., 1.58478611e-003, 0., 0.,
          0., 0., 1.58478611e-003, 6.33914443e-003, 1.58478611e-003, 0.,
          0., 0., 0., 1.58478611e-003, 1.58478611e-003, 0., 0., 0.,
          4.75435844e-003, 0., 1.58478611e-003, 0., 3.16957221e-003,
          1.58478611e-003, 3.16957221e-003, 3.16957221e-003, 0., 0., 0.,
          1.58478611e-003, 0., 0., 1.58478611e-003, 3.16957221e-003,
          3.16957221e-003, 0., 1.58478611e-003, 0., 3.16957221e-003,
          1.58478611e-003, 1.58478611e-003, 0., 0., 4.75435844e-003,
          9.50871687e-003, 0., 3.16957221e-003, 0., 0., 0., 0., 0., 0.,
          0., 0., 4.75435844e-003, 0., 1.58478611e-003, 0., 0., 0., 0.,
          1.26782889e-002, 0., 0., 1.58478611e-003, 0., 0., 0.,
          1.58478611e-003, 0., 1.58478611e-003, 0., 0., 0., 0.,
          3.16957221e-003, 4.75435844e-003, 4.75435844e-003,
          3.16957221e-003, 0., 1.58478611e-003, 0., 0., 0., 0.,
          1.58478611e-003, 1.58478611e-003, 0., 1.58478611e-003,
          1.58478611e-003, 3.16957221e-003, 3.16957221e-003,
          3.16957221e-003, 4.75435844e-003, 7.92393088e-003, 0.,
          4.75435844e-003, 0., 1.58478611e-003, 0., 1.58478611e-003,
          1.58478611e-003, 0., 3.16957221e-003, 3.16957221e-003,
          1.58478611e-003, 0., 0., 1.58478611e-003, 1.58478611e-003,
          1.58478611e-003, 1.58478611e-003, 0., 3.16957221e-003, 0.,
          3.16957221e-003, 0., 7.92393088e-003, 4.75435844e-003, 0., 0.,
          1.58478611e-003, 1.58478611e-003, 0., 0., 0., 0.,
          1.58478611e-003, 0., 0., 0., 0., 4.75435844e-003, 0.,
          1.58478611e-003, 0., 0., 0., 0., 3.16957221e-003, 0., 0.,
          1.58478611e-003, 3.16957221e-003, 1.58478611e-003, 0.,
          3.16957221e-003, 0., 0., 1.58478611e-003, 0., 0.,
          1.58478611e-003, 0., 0., 1.58478611e-003, 1.58478611e-003,
          3.16957221e-003, 0., 1.58478611e-003, 1.58478611e-003, 0.,
          1.58478611e-003, 0., 7.92393088e-003, 0., 0., 0., 0.,
          1.58478611e-003, 1.58478611e-003, 0., 0., 1.58478611e-003,
          4.75435844e-003, 0., 0., 0., 4.75435844e-003, 0., 0., 0., 0.,
          1.58478611e-003, 1.58478611e-003, 1.58478611e-003,
          1.58478611e-003, 4.75435844e-003, 4.75435844e-003, 0.,
          4.75435844e-003, 7.92393088e-003, 4.75435844e-003,
          1.10935029e-002, 1.58478611e-003, 4.75435844e-003, 0.,
          3.16957221e-003, 1.58478611e-003, 0., 0., 0., 1.26782889e-002,
          0., 1.58478611e-003, 0., 0., 1.58478611e-003, 0., 0., 0.,
          4.75435844e-003, 3.16957221e-003, 0., 3.16957221e-003, 0.,
          1.58478611e-003, 0., 0., 0., 3.16957221e-003, 3.16957221e-003,
          0., 0., 0., 1.58478611e-003, 1.10935029e-002, 0., 0.,
          1.58478611e-003, 0., 0., 0., 0., 0., 0., 0., 1.58478611e-003,
          3.16957221e-003, 0., 3.16957221e-003, 0., 1.58478611e-003, 0.,
          4.75435844e-003, 6.33914443e-003, 0., 0., 0., 0., 0., 0.,
          3.16957221e-003, 1.58478611e-003, 0., 6.33914443e-003,
          4.75435844e-003, 0., 0., 3.16957221e-003, 0., 3.16957221e-003,
          0., 1.58478611e-003, 0., 0., 0., 0., 1.58478611e-003, 0.,
          1.58478611e-003, 1.58478611e-003, 1.58478611e-003, 0.,
          4.75435844e-003, 0., 0., 0., 1.58478611e-003, 3.16957221e-003,
          1.58478611e-003, 4.75435844e-003, 4.75435844e-003,
          1.58478611e-003, 1.58478611e-003, 0., 3.16957221e-003,
          3.16957221e-003, 0., 0., 0., 1.58478611e-003, 0., 0.,
          6.33914443e-003, 0., 0., 1.26782889e-002, 3.16957221e-003,
          1.58478611e-003, 0., 4.75435844e-003, 6.33914443e-003, 0.,
          9.50871687e-003, 3.16957221e-003, 6.33914443e-003 ]
      - [ 0., 0., 1.08459871e-003, 2.16919743e-003, 0., 1.08459871e-003,
          1.08459871e-003, 0., 6.50759228e-003, 1.08459871e-003, 0.,
          2.16919743e-003, 0., 3.25379614e-003, 0., 3.25379614e-003, 0.,
          6.50759228e-003, 0., 0., 5.42299356e-003, 0., 3.25379614e-003,
          0., 0., 3.25379614e-003, 1.08459871e-003, 1.08459871e-003, 0.,
          3.25379614e-003, 1.08459871e-003, 1.08459871e-003, 0.,
          2.16919743e-003, 3.25379614e-003, 0., 0., 0., 2.16919743e-003,
          1.08459871e-003, 8.67678970e-003, 3.25379614e-003, 0., 0., 0.,
          1.08459871e-003, 0., 0., 2.16919743e-003, 0., 1.08459871e-003,
          0., 6.50759228e-003, 0., 6.50759228e-003, 0., 2.16919743e-003,
          0., 1.08459871e-003, 2.16919743e-003, 0., 0., 0.,
          1.08459871e-003, 0., 2.16919743e-003, 5.42299356e-003, 0.,
          4.33839485e-003, 0., 6.50759228e-003, 0., 0., 2.16919743e-003,
          0., 0., 1.08459871e-003, 3.25379614e-003, 0., 6.50759228e-003,
          0., 1.08459871e-003, 0., 5.42299356e-003, 4.33839485e-003, 0.,
          2.16919743e-003, 6.50759228e-003, 2.16919743e-003,
          2.16919743e-003, 1.08459871e-003, 0., 0., 1.08459871e-003,
          2.16919743e-003, 1.08459871e-003, 0., 1.08459871e-003,
          1.08459871e-003, 1.08459871e-003, 2.16919743e-003, 0.,
          1.08459871e-003, 0., 0., 2.16919743e-003, 4.33839485e-003, 0.,
          1.08459871e-003, 0., 0., 0., 0., 0., 1.08459871e-003, 0.,
          1.08459871e-003, 2.16919743e-003, 6.50759228e-003,
          1.08459871e-003, 1.08459871e-003, 2.16919743e-003,
          2.16919743e-003, 2.16919743e-003, 0., 0., 8.67678970e-003,
          4.33839485e-003, 1.08459871e-003, 0., 4.33839485e-003, 0.,
          1.08459871e-003, 5.42299356e-003, 1.08459871e-003,
          3.25379614e-003, 1.08459871e-003, 2.16919743e-003,
          1.08459871e-003, 2.16919743e-003, 1.08459871e-003,
          2.16919743e-003, 3.25379614e-003, 1.08459871e-003,
          2.16919743e-003, 2.16919743e-003, 0., 1.08459871e-003,
          1.08459871e-003, 0., 4.33839485e-003, 5.42299356e-003, 0., 0.,
          1.08459871e-003, 0., 0., 4.33839485e-003, 0., 2.16919743e-003,
          2.16919743e-003, 2.16919743e-003, 3.25379614e-003, 0., 0., 0.,
          4.33839485e-003, 0., 0., 0., 1.08459871e-003, 0., 0.,
          2.16919743e-003, 2.16919743e-003, 4.33839485e-003,
          8.67678970e-003, 1.08459871e-003, 1.08459871e-003,
          1.08459871e-003, 2.16919743e-003, 3.25379614e-003,
          5.42299356e-003, 6.50759228e-003, 7.59219099e-003,
          2.16919743e-003, 0., 1.08459871e-003, 2.16919743e-003, 0., 0.,
          5.42299356e-003, 0., 1.08459871e-003, 1.30151846e-002,
          2.16919743e-003, 7.59219099e-003, 3.25379614e-003,
          1.08459871e-003, 1.08459871e-003, 0., 0., 0., 1.08459871e-003,
          1.08459871e-003, 1.08459871e-003, 0., 1.08459871e-003,
          2.16919743e-003, 1.08459871e-003, 0., 3.25379614e-003, 0., 0.,
          1.08459871e-003, 1.08459871e-003, 0., 0., 4.33839485e-003,
          1.08459871e-003, 1.08459871e-003, 6.50759228e-003,
          2.71149687e-002, 2.16919743e-003, 1.08459871e-003,
          5.42299356e-003, 3.25379614e-003, 0., 1.08459871e-003, 0., 0.,
          1.08459871e-003, 1.08459871e-003, 2.16919743e-003, 0., 0., 0.,
          1.08459871e-003, 2.16919743e-003, 4.33839485e-003, 0.,
          2.16919743e-003, 1.08459871e-003, 3.25379614e-003, 0., 0.,
          4.33839485e-003, 1.08459871e-003, 2.16919743e-003,
          1.08459871e-003, 0., 0., 2.16919743e-003, 4.33839485e-003,
          5.42299356e-003, 0., 2.16919743e-003, 2.16919743e-003, 0., 0.,
          3.25379614e-003, 4.33839485e-003, 0., 1.08459871e-003,
          3.25379614e-003, 1.08459871e-003, 0., 0., 0., 1.08459871e-003,
          3.25379614e-003, 2.16919743e-003, 3.25379614e-003,
          1.08459871e-003, 0., 0., 3.25379614e-003, 1.08459871e-003,
          4.33839485e-003, 0., 0., 0., 2.16919743e-003, 2.16919743e-003,
          4.33839485e-003, 1.62689798e-002, 0., 2.16919743e-003,
          1.08459871e-003, 0., 0., 0., 3.25379614e-003, 0., 0., 0.,
          2.16919743e-003, 0., 0., 0., 1.08459871e-003, 0.,
          2.16919743e-003, 1.08459871e-003, 1.08459871e-003,
          1.08459871e-003, 2.16919743e-003, 1.08459871e-003,
          2.16919743e-003, 1.08459871e-003, 3.25379614e-003,
          1.08459871e-003, 0., 0., 2.16919743e-003, 1.08459871e-003,
          5.42299356e-003, 0., 0., 0., 7.59219099e-003, 0.,
          5.42299356e-003, 2.16919743e-003, 0., 1.08459871e-003,
          3.25379614e-003, 0., 1.08459871e-003, 3.25379614e-003, 0.,
          4.33839485e-003, 2.16919743e-003, 1.08459871e-003,
          3.25379614e-003, 0., 0., 0., 0., 4.33839485e-003,
          7.59219099e-003, 0., 0., 0., 5.42299356e-003, 1.08459871e-003,
          0., 6.50759228e-003, 0., 1.08459871e-003, 1.08459871e-003, 0.,
          0., 1.08459871e-003, 1.08459871e-003, 6.50759228e-003, 0.,
          1.08459871e-003, 1.08459871e-003, 0., 0., 0., 0.,
          1.08459871e-003, 0., 0., 0., 0., 0., 2.16919743e-003,
          1.08459871e-003, 2.16919743e-003, 1.08459871e-003, 0.,
          3.25379614e-003, 0., 4.33839485e-003, 4.33839485e-003, 0.,
          3.25379614e-003, 4.33839485e-003, 1.08459871e-003,
          1.08459871e-003, 1.08459871e-003, 0., 1.08459871e-003,
          4.33839485e-003, 4.33839485e-003, 0., 0., 1.08459871e-003, 0.,
          0., 0., 1.08459871e-003, 7.59219099e-003, 2.16919743e-003,
          2.16919743e-003, 2.16919743e-003, 1.08459871e-003, 0., 0.,
          3.25379614e-003, 2.16919743e-003, 0., 0., 2.16919743e-003, 0.,
          3.25379614e-003, 0., 0., 4.33839485e-003, 0., 0.,
          4.33839485e-003, 0., 1.08459871e-003, 0., 0., 0.,
          2.16919743e-003, 1.08459871e-003, 0., 4.33839485e-003,
          6.50759228e-003, 3.25379614e-003, 0., 2.16919743e-003, 0., 0.,
          1.08459871e-003, 0., 0., 4.33839485e-003, 0., 2.16919743e-003,
          4.33839485e-003, 0., 1.08459871e-003, 5.42299356e-003, 0., 0.,
          5.42299356e-003, 2.16919743e-003, 1.08459871e-003, 0.,
          2.16919743e-002, 3.25379614e-003, 2.16919743e-003, 0., 0., 0.,
          3.25379614e-003, 0., 1.08459871e-003, 1.08459871e-003, 0.,
          3.25379614e-003, 0., 0., 0., 0., 2.16919743e-003, 0., 0.,
          5.42299356e-003, 4.33839485e-003, 0., 0., 0., 0.,
          1.08459871e-003, 0., 1.08459871e-003, 7.59219099e-003, 0.,
          3.25379614e-003, 0., 1.08459871e-003, 0., 1.08459871e-003,
          3.25379614e-003, 0., 0., 0., 0., 5.42299356e-003, 0., 0.,
          1.08459871e-003, 4.33839485e-003, 0., 1.08459871e-003, 0.,
          3.25379614e-003, 0., 1.40997833e-002, 0., 0., 0.,
          1.08459871e-002, 5.42299356e-003, 1.08459871e-003, 0.,
          4.33839485e-003, 2.16919743e-003, 1.08459871e-003, 0., 0., 0.,
          2.16919743e-003, 2.16919743e-003, 0., 0., 1.08459871e-003, 0.,
          1.08459871e-003, 0., 3.25379614e-003, 2.16919743e-003,
          1.08459871e-003, 1.08459871e-003, 0., 0., 0., 1.08459871e-003,
          2.38611717e-002, 0., 0., 2.16919743e-003, 1.08459871e-003,
          4.33839485e-003, 2.16919743e-003, 2.16919743e-003,
          2.16919743e-003, 0., 0., 3.25379614e-003, 0., 0.,
          2.16919743e-003, 2.16919743e-003, 1.08459871e-003,
          1.08459871e-003, 0., 0., 3.25379614e-003, 0., 2.16919743e-003,
          0., 0., 0., 4.33839485e-003, 0., 0., 1.08459871e-003, 0., 0.,
          0., 0., 2.16919743e-003, 1.08459871e-003, 1.08459871e-003, 0.,
          0., 0., 0., 2.16919743e-003, 4.33839485e-003, 0., 0., 0., 0.,
          3.25379614e-003, 1.08459871e-003, 1.08459871e-003, 0.,
          4.33839485e-003, 1.08459871e-003, 3.25379614e-003,
          2.16919743e-003, 3.25379614e-003, 0., 0., 0., 3.25379614e-003,
          1.08459871e-003, 1.08459871e-003, 0., 3.25379614e-003,
          2.16919743e-003, 0., 1.08459871e-003, 1.08459871e-003,
          1.08459871e-003, 2.16919743e-003, 0., 3.25379614e-003,
          2.16919743e-003, 2.16919743e-003 ]
      - [ 0., 0., 4.03768476e-003, 1.34589500e-003, 0., 1.34589500e-003,
          1.34589500e-003, 0., 8.07536952e-003, 4.03768476e-003,
          5.38357999e-003, 0., 0., 2.69179000e-003, 0., 0., 0.,
          8.07536952e-003, 0., 4.03768476e-003, 1.34589500e-003, 0.,
          4.03768476e-003, 0., 0., 2.69179000e-003, 4.03768476e-003,
          1.34589500e-003, 6.72947522e-003, 0., 9.42126475e-003,
          4.03768476e-003, 0., 0., 0., 0., 1.34589500e-003, 0., 0.,
          5.38357999e-003, 2.69179000e-003, 6.72947522e-003,
          1.34589500e-003, 1.34589500e-003, 2.69179000e-003,
          1.34589500e-003, 0., 0., 5.38357999e-003, 0., 1.34589500e-003,
          0., 0., 0., 2.69179000e-003, 0., 2.69179000e-003,
          1.34589500e-003, 4.03768476e-003, 2.69179000e-003, 0., 0., 0.,
          1.34589500e-003, 0., 0., 0., 0., 2.69179000e-003, 0.,
          4.03768476e-003, 0., 0., 0., 0., 1.34589500e-003,
          1.34589500e-003, 0., 1.34589500e-003, 0., 9.42126475e-003,
          1.34589500e-003, 0., 6.72947522e-003, 0., 0., 1.34589500e-003,
          1.34589500e-003, 0., 0., 2.69179000e-003, 0., 0.,
          2.69179000e-003, 0., 0., 1.34589500e-003, 4.03768476e-003,
          4.03768476e-003, 0., 0., 0., 1.34589500e-003, 1.34589500e-003,
          0., 0., 0., 0., 0., 2.69179000e-003, 2.69179000e-003, 0., 0.,
          0., 2.69179000e-003, 4.03768476e-003, 1.34589500e-003,
          1.34589500e-003, 1.34589500e-003, 0., 0., 1.34589500e-003,
          1.34589500e-003, 6.72947522e-003, 1.34589500e-003,
          1.34589500e-003, 1.34589500e-003, 0., 1.34589500e-003,
          5.38357999e-003, 0., 0., 0., 4.03768476e-003, 4.03768476e-003,
          6.72947522e-003, 8.07536952e-003, 1.34589500e-003,
          1.34589500e-003, 0., 0., 1.34589500e-003, 1.34589500e-003, 0.,
          4.03768476e-003, 1.34589500e-003, 1.34589500e-003,
          1.34589500e-003, 4.03768476e-003, 0., 0., 1.34589500e-003,
          4.03768476e-003, 0., 2.69179000e-003, 6.72947522e-003,
          2.69179000e-003, 0., 0., 2.69179000e-003, 0., 9.42126475e-003,
          0., 0., 2.69179000e-003, 0., 0., 1.34589500e-003,
          2.69179000e-003, 4.03768476e-003, 4.03768476e-003,
          2.69179000e-003, 5.38357999e-003, 0., 5.38357999e-003,
          1.34589500e-003, 0., 1.34589500e-003, 2.69179000e-003,
          2.69179000e-003, 4.03768476e-003, 0., 0., 1.34589500e-003, 0.,
          1.34589500e-003, 5.38357999e-003, 0., 0., 2.69179000e-003,
          1.34589500e-003, 1.34589500e-003, 0., 0., 0., 1.34589500e-003,
          1.34589500e-003, 6.72947522e-003, 0., 2.69179000e-003, 0.,
          2.69179000e-003, 1.34589500e-003, 0., 1.34589500e-003,
          1.34589500e-003, 4.03768476e-003, 0., 2.69179000e-003, 0., 0.,
          2.69179000e-003, 0., 0., 6.72947522e-003, 0., 1.34589500e-003,
          0., 0., 0., 6.72947522e-003, 0., 0., 0., 6.72947522e-003, 0.,
          2.69179000e-003, 0., 5.38357999e-003, 1.34589500e-003, 0.,
          1.34589500e-003, 2.69179000e-003, 6.72947522e-003, 0., 0., 0.,
          2.69179000e-003, 0., 0., 0., 4.03768476e-003, 0.,
          8.07536952e-003, 2.69179000e-003, 0., 4.03768476e-003,
          1.34589500e-003, 2.69179000e-003, 0., 0., 1.34589500e-003, 0.,
          4.03768476e-003, 4.03768476e-003, 0., 5.38357999e-003, 0., 0.,
          2.69179000e-003, 1.34589500e-003, 0., 0., 0., 1.34589500e-003,
          1.34589500e-003, 1.34589500e-003, 1.34589500e-003,
          5.38357999e-003, 0., 1.34589500e-003, 5.38357999e-003,
          1.07671600e-002, 0., 4.03768476e-003, 0., 8.07536952e-003,
          2.69179000e-003, 1.34589500e-003, 4.03768476e-003,
          2.69179000e-003, 4.03768476e-003, 0., 0., 0., 4.03768476e-003,
          5.38357999e-003, 5.38357999e-003, 0., 5.38357999e-003,
          1.34589500e-003, 0., 0., 1.34589500e-003, 0., 4.03768476e-003,
          0., 0., 0., 0., 5.38357999e-003, 0., 0., 2.69179000e-003,
          2.69179000e-003, 0., 8.07536952e-003, 0., 0., 0., 0., 0.,
          1.34589500e-003, 0., 1.34589500e-003, 0., 4.03768476e-003, 0.,
          2.69179000e-003, 1.34589500e-003, 4.03768476e-003, 0., 0., 0.,
          2.69179000e-003, 0., 0., 0., 0., 2.69179000e-003, 0.,
          1.34589500e-003, 2.69179000e-003, 0., 1.34589500e-003, 0., 0.,
          0., 0., 0., 0., 6.72947522e-003, 0., 0., 4.03768476e-003, 0.,
          0., 2.69179000e-003, 0., 0., 0., 0., 0., 5.38357999e-003,
          1.34589500e-003, 1.34589500e-003, 0., 2.69179000e-003, 0.,
          5.38357999e-003, 0., 4.03768476e-003, 0., 0., 0., 0.,
          1.34589500e-003, 1.34589500e-003, 4.03768476e-003,
          2.69179000e-003, 1.34589500e-003, 1.34589500e-003, 0., 0.,
          5.38357999e-003, 1.34589500e-003, 1.34589500e-003,
          2.69179000e-003, 0., 0., 0., 2.69179000e-003, 1.34589500e-003,
          1.34589500e-003, 1.34589500e-003, 1.34589500e-003, 0., 0., 0.,
          1.34589500e-003, 4.03768476e-003, 0., 0., 0., 1.34589500e-003,
          0., 0., 0., 4.03768476e-003, 0., 0., 0., 2.69179000e-003, 0.,
          8.07536952e-003, 4.03768476e-003, 0., 0., 1.34589500e-003,
          2.69179000e-003, 1.34589500e-003, 0., 0., 0., 1.34589500e-003,
          1.34589500e-003, 0., 0., 1.34589500e-003, 1.34589500e-003,
          6.72947522e-003, 1.34589500e-003, 0., 0., 2.69179000e-003,
          1.34589500e-003, 0., 0., 6.72947522e-003, 0., 0.,
          1.34589500e-003, 1.34589500e-003, 1.34589500e-003,
          1.34589500e-003, 4.03768476e-003, 2.69179000e-003,
          2.69179000e-003, 5.38357999e-003, 5.38357999e-003, 0.,
          1.34589500e-003, 2.69179000e-003, 0., 1.34589500e-003,
          2.69179000e-003, 0., 0., 2.69179000e-003, 0., 0., 0.,
          5.38357999e-003, 0., 4.03768476e-003, 1.34589500e-003, 0.,
          2.69179000e-003, 4.03768476e-003, 0., 1.34589500e-003, 0., 0.,
          1.34589500e-003, 0., 5.38357999e-003, 2.69179000e-003,
          1.34589500e-003, 1.34589500e-003, 6.72947522e-003,
          5.38357999e-003, 1.34589504e-002, 0., 2.69179000e-003,
          1.34589500e-003, 0., 0., 2.69179000e-003, 1.34589500e-003, 0.,
          1.07671600e-002, 1.34589500e-003, 0., 0., 0., 1.34589500e-003,
          1.21130552e-002, 0., 2.69179000e-003, 0., 5.38357999e-003, 0.,
          1.34589500e-003, 1.34589500e-003, 1.34589500e-003,
          1.34589500e-003, 0., 0., 0., 0., 8.07536952e-003,
          4.03768476e-003, 0., 0., 8.07536952e-003, 0., 5.38357999e-003,
          0., 0., 0., 1.34589500e-003, 2.69179000e-003, 0.,
          1.34589500e-003, 6.72947522e-003, 0., 0., 0., 1.34589500e-003,
          6.72947522e-003, 0., 8.07536952e-003, 0., 1.34589500e-003,
          2.69179000e-003, 0., 0., 0., 0., 0., 5.38357999e-003, 0., 0.,
          2.69179000e-003, 2.69179000e-003, 0., 2.69179000e-003, 0., 0.,
          5.38357999e-003, 1.34589500e-003, 1.34589500e-003,
          4.03768476e-003, 0., 0., 5.38357999e-003, 0., 0.,
          1.34589500e-003, 0., 0., 4.03768476e-003, 0., 1.34589500e-003,
          4.03768476e-003, 4.03768476e-003, 0., 1.34589500e-003, 0., 0.,
          1.34589500e-003, 2.69179000e-003, 2.69179000e-003,
          1.34589500e-003, 1.34589500e-003, 0., 0., 0., 1.34589500e-003,
          0., 1.34589500e-003, 2.69179000e-003, 2.69179000e-003, 0.,
          6.72947522e-003, 5.38357999e-003, 0., 1.34589500e-003,
          1.34589500e-003, 0., 0., 0., 2.69179000e-003, 0.,
          1.34589500e-003, 0., 0., 4.03768476e-003, 1.34589500e-003, 0.,
          6.72947522e-003, 0., 4.03768476e-003, 1.34589500e-003, 0.,
          4.03768476e-003, 1.34589500e-003, 0., 2.69179000e-003,
          5.38357999e-003 ]
      - [ 0., 0., 2.57731951e-003, 1.28865975e-003, 0., 1.28865975e-003,
          1.28865975e-003, 0., 0., 0., 5.15463902e-003, 1.28865975e-003,
          0., 2.57731951e-003, 0., 0., 3.86597915e-003, 1.28865975e-003,
          0., 1.28865975e-003, 1.28865975e-003, 1.28865975e-003,
          9.02061816e-003, 1.28865975e-003, 0., 9.02061816e-003,
          7.73195829e-003, 1.28865975e-003, 1.15979379e-002, 0., 0.,
          1.28865975e-003, 3.86597915e-003, 0., 1.28865975e-003,
          2.57731951e-003, 0., 0., 0., 0., 0., 5.15463902e-003, 0.,
          3.86597915e-003, 0., 2.57731951e-003, 1.28865975e-003, 0.,
          1.03092780e-002, 1.28865975e-003, 0., 0., 0., 1.28865975e-003,
          0., 2.57731951e-003, 5.15463902e-003, 0., 0., 1.28865975e-003,
          2.57731951e-003, 0., 0., 1.28865975e-003, 0., 2.57731951e-003,
          0., 0., 1.28865975e-003, 0., 0., 0., 1.28865975e-003, 0., 0.,
          0., 3.86597915e-003, 3.86597915e-003, 1.28865975e-003, 0., 0.,
          5.15463902e-003, 2.57731951e-003, 3.86597915e-003, 0., 0.,
          2.57731951e-003, 1.28865975e-003, 0., 0., 2.57731951e-003,
          1.28865975e-003, 0., 0., 1.28865975e-003, 0., 2.57731951e-003,
          0., 0., 1.28865975e-003, 2.57731951e-003, 0., 3.86597915e-003,
          0., 1.28865975e-003, 3.86597915e-003, 1.28865975e-003,
          1.03092780e-002, 0., 3.86597915e-003, 0., 0., 0., 0.,
          2.57731951e-003, 2.57731951e-003, 2.57731951e-003,
          1.28865975e-003, 1.28865975e-003, 3.86597915e-003, 0., 0.,
          1.28865975e-003, 0., 1.28865975e-003, 0., 0., 0.,
          5.15463902e-003, 7.73195829e-003, 0., 2.57731951e-003,
          9.02061816e-003, 3.86597915e-003, 6.44329889e-003,
          2.57731951e-003, 2.57731951e-003, 1.28865975e-003, 0.,
          2.57731951e-003, 0., 6.44329889e-003, 0., 6.44329889e-003,
          2.57731951e-003, 0., 0., 0., 5.15463902e-003, 1.28865975e-003,
          2.57731951e-003, 2.57731951e-003, 3.86597915e-003,
          1.28865975e-003, 0., 0., 0., 1.28865975e-003, 2.57731951e-003,
          0., 1.80412363e-002, 0., 2.57731951e-003, 0., 1.28865975e-003,
          0., 0., 2.57731951e-003, 1.28865975e-003, 0., 1.28865975e-003,
          0., 0., 5.15463902e-003, 0., 1.28865975e-003, 5.15463902e-003,
          2.57731951e-003, 2.57731951e-003, 5.15463902e-003, 0.,
          3.86597915e-003, 1.28865975e-003, 5.15463902e-003,
          1.28865975e-003, 9.02061816e-003, 3.86597915e-003,
          2.57731951e-003, 0., 1.28865975e-003, 0., 1.28865975e-003, 0.,
          1.28865975e-003, 0., 0., 0., 3.86597915e-003, 0.,
          2.57731951e-003, 2.57731951e-003, 1.28865975e-003,
          1.28865975e-003, 3.86597915e-003, 1.28865975e-003,
          1.28865975e-003, 1.28865975e-003, 0., 0., 0., 0.,
          5.15463902e-003, 0., 6.44329889e-003, 0., 1.28865975e-003,
          5.15463902e-003, 0., 0., 0., 1.28865975e-003, 2.57731951e-003,
          1.28865975e-003, 0., 1.28865975e-003, 0., 1.28865975e-003, 0.,
          0., 0., 0., 2.57731951e-003, 0., 3.86597915e-003,
          2.57731951e-003, 2.57731951e-003, 0., 0., 0., 2.57731951e-003,
          3.86597915e-003, 2.57731951e-003, 2.57731951e-003,
          1.28865975e-003, 1.28865975e-003, 0., 1.15979379e-002,
          2.57731951e-003, 1.28865975e-003, 1.28865975e-003, 0.,
          5.15463902e-003, 2.57731951e-003, 3.86597915e-003,
          3.86597915e-003, 0., 7.73195829e-003, 5.15463902e-003, 0., 0.,
          0., 2.57731951e-003, 0., 3.86597915e-003, 0., 1.28865975e-003,
