%YAML:1.0
my_svm: !!opencv-ml-svm
   svm_type: C_SVC
   kernel: { type:RBF, gamma:1. }
   C: 1.
   term_criteria: { epsilon:1.1920928955078125e-007, iterations:1000 }
   var_all: 600
   var_count: 600
   class_count: 2
   class_labels: !!opencv-matrix
      rows: 1
      cols: 2
      dt: i
      data: [ 0, 1 ]
   sv_total: 62
   support_vectors:
      - [ 6.42791530e-003, 0., 0., 9.18273639e-004, 0., 9.18273639e-004,
          0., 0., 9.18273639e-004, 3.67309456e-003, 0., 0., 0.,
          1.83654728e-003, 1.56106520e-002, 0., 6.42791530e-003,
          1.83654728e-003, 0., 0., 0., 0., 0., 0., 1.83654728e-003, 0.,
          0., 1.74471997e-002, 0., 1.83654728e-003, 0., 0., 0.,
          9.18273639e-004, 0., 1.83654728e-003, 0., 2.75482098e-003, 0.,
          1.83654728e-003, 9.18273639e-004, 2.75482098e-003, 0., 0., 0.,
          6.42791530e-003, 0., 7.34618912e-003, 0., 9.18273639e-004, 0.,
          0., 7.34618912e-003, 1.37741044e-002, 0., 0., 0.,
          9.18273639e-004, 0., 1.83654728e-003, 0., 0., 0., 0.,
          1.83654728e-003, 9.18273639e-004, 1.83654728e-003,
          4.59136814e-003, 0., 0., 1.83654728e-003, 9.18273639e-004, 0.,
          3.67309456e-003, 0., 9.18273639e-004, 9.18273639e-004,
          9.18273639e-004, 9.18273639e-004, 9.18273639e-004,
          1.83654728e-003, 2.75482098e-003, 2.75482098e-003,
          1.83654728e-003, 9.18273639e-004, 9.18273639e-004, 0.,
          9.18273639e-004, 1.83654728e-003, 9.18273639e-004, 0., 0.,
          9.18273639e-004, 9.18273639e-004, 0., 9.18273639e-004,
          1.83654728e-003, 3.67309456e-003, 0., 0., 3.67309456e-003,
          1.56106520e-002, 0., 0., 9.18273639e-004, 0., 1.83654728e-003,
          0., 4.59136814e-003, 0., 1.10192839e-002, 1.83654728e-003, 0.,
          3.67309456e-003, 0., 0., 0., 1.83654728e-003, 0.,
          1.83654728e-003, 9.18273639e-004, 9.18273639e-004, 0., 0., 0.,
          0., 0., 0., 9.18273639e-004, 0., 0., 0., 0., 0., 0., 0., 0.,
          9.18273639e-004, 9.18273639e-004, 0., 9.18273639e-004,
          1.83654728e-003, 0., 0., 1.83654728e-003, 0., 0.,
          1.83654728e-003, 0., 0., 2.75482098e-003, 2.75482098e-003,
          1.83654728e-003, 7.34618912e-003, 0., 4.59136814e-003, 0.,
          4.59136814e-003, 0., 1.83654728e-003, 9.18273639e-004, 0., 0.,
          1.83654728e-003, 6.42791530e-003, 0., 1.83654728e-003, 0., 0.,
          1.83654728e-003, 7.34618912e-003, 0., 0., 0., 0., 0.,
          3.67309456e-003, 0., 0., 1.83654728e-003, 0., 0., 0., 0., 0.,
          0., 0., 0., 0., 1.83654728e-003, 9.18273639e-004, 0., 0., 0.,
          4.59136814e-003, 9.18273639e-004, 9.18273639e-004, 0.,
          9.18273639e-004, 5.50964195e-003, 9.18273639e-004,
          2.75482098e-003, 9.18273639e-004, 9.18273639e-004,
          9.18273639e-004, 1.10192839e-002, 4.59136814e-003,
          2.75482098e-003, 2.75482098e-003, 2.75482098e-003, 0.,
          1.83654728e-003, 0., 0., 0., 0., 9.18273639e-004, 0.,
          3.67309456e-003, 0., 1.83654728e-003, 0., 0., 0.,
          8.26446246e-003, 0., 3.67309456e-003, 1.83654728e-003,
          6.42791530e-003, 0., 0., 9.18273639e-004, 0., 0.,
          9.18273639e-004, 0., 0., 0., 2.75482098e-003, 9.18273628e-003,
          3.67309456e-003, 0., 0., 2.75482098e-003, 2.75482098e-003,
          7.34618912e-003, 0., 0., 0., 0., 0., 0., 0., 9.18273639e-004,
          0., 2.38751154e-002, 6.42791530e-003, 2.75482098e-003,
          2.75482098e-003, 0., 9.18273639e-004, 0., 1.83654728e-003, 0.,
          0., 1.83654728e-003, 9.18273639e-004, 0., 3.67309456e-003,
          9.18273639e-004, 2.75482098e-003, 0., 3.67309456e-003, 0., 0.,
          0., 9.18273639e-004, 0., 9.18273639e-004, 9.18273639e-004,
          9.18273639e-004, 1.83654728e-003, 9.18273639e-004,
          9.18273639e-004, 0., 6.42791530e-003, 0., 0., 1.28558306e-002,
          3.67309456e-003, 0., 0., 0., 0., 0., 9.18273639e-004,
          6.42791530e-003, 9.18273639e-004, 1.83654728e-003,
          5.50964195e-003, 0., 2.75482098e-003, 2.75482098e-003, 0., 0.,
          9.18273639e-004, 0., 0., 1.19375577e-002, 9.18273639e-004, 0.,
          0., 0., 9.18273639e-004, 0., 9.18273639e-004, 1.83654728e-003,
          1.83654728e-003, 0., 9.18273639e-004, 2.75482098e-003,
          1.83654728e-003, 0., 0., 3.67309456e-003, 0., 0.,
          9.18273639e-004, 1.83654728e-003, 0., 0., 0., 0., 0., 0., 0.,
          1.83654728e-003, 0., 4.59136814e-003, 0., 1.83654728e-003,
          9.18273639e-004, 1.83654728e-003, 0., 9.18273639e-004, 0., 0.,
          0., 1.83654728e-003, 9.18273639e-004, 1.83654728e-003, 0.,
          1.83654728e-003, 0., 3.67309456e-003, 5.50964195e-003, 0.,
          9.18273639e-004, 1.83654728e-003, 0., 9.18273639e-004,
          2.75482098e-003, 1.19375577e-002, 0., 0., 9.18273639e-004, 0.,
          0., 0., 9.18273639e-004, 8.26446246e-003, 2.75482098e-003, 0.,
          0., 4.59136814e-003, 0., 9.18273639e-004, 0., 0., 0.,
          1.83654728e-003, 0., 0., 9.18273639e-004, 1.83654728e-003,
          1.83654728e-003, 9.18273639e-004, 0., 0., 9.18273639e-004,
          9.18273639e-004, 1.83654728e-003, 7.34618912e-003, 0.,
          9.18273639e-004, 0., 0., 2.75482098e-003, 9.18273639e-004,
          1.83654728e-003, 4.59136814e-003, 7.34618912e-003,
          2.75482098e-003, 2.75482098e-003, 0., 1.83654728e-003, 0., 0.,
          9.18273639e-004, 9.18273639e-004, 0., 0., 9.18273639e-004,
          1.83654728e-003, 0., 9.18273639e-004, 5.50964195e-003,
          1.83654728e-003, 1.83654728e-003, 0., 0., 1.01010101e-002,
          4.59136814e-002, 3.67309456e-003, 0., 0., 0., 3.67309456e-003,
          2.75482098e-003, 0., 0., 2.75482098e-003, 7.34618912e-003,
          1.83654728e-003, 5.50964195e-003, 5.50964195e-003, 0., 0.,
          1.83654728e-003, 0., 9.18273639e-004, 0., 0., 9.18273639e-004,
          1.83654728e-003, 2.75482098e-003, 9.18273628e-003,
          6.42791530e-003, 9.18273639e-004, 1.83654728e-003,
          4.59136814e-003, 0., 9.18273639e-004, 0., 0., 2.75482098e-003,
          0., 2.66299360e-002, 2.75482098e-003, 0., 2.75482098e-003,
          9.18273639e-004, 9.18273639e-004, 1.83654728e-003, 0., 0., 0.,
          3.67309456e-003, 0., 0., 9.18273639e-004, 1.83654728e-003, 0.,
          0., 9.18273639e-004, 0., 0., 9.18273639e-004, 0., 0., 0.,
          1.83654728e-003, 3.67309456e-003, 0., 0., 0., 0., 0., 0., 0.,
          0., 0., 1.83654728e-003, 7.34618912e-003, 1.83654728e-003,
          8.26446246e-003, 1.83654728e-003, 2.75482098e-003,
          1.83654728e-003, 4.59136814e-003, 2.75482098e-003, 0., 0., 0.,
          0., 1.83654728e-003, 0., 0., 9.18273639e-004, 2.75482098e-003,
          0., 0., 0., 7.34618912e-003, 0., 0., 0., 0., 9.18273639e-004,
          0., 2.75482098e-003, 0., 0., 1.83654728e-003, 0., 0.,
          1.83654726e-002, 0., 2.75482098e-003, 1.83654728e-003, 0.,
          1.83654728e-003, 9.18273628e-003, 0., 0., 0., 0., 0.,
          1.28558306e-002, 0., 1.83654728e-003, 2.75482098e-003, 0.,
          1.83654728e-003, 9.18273639e-004, 6.42791530e-003, 0., 0., 0.,
          2.75482098e-003, 0., 1.83654728e-003, 9.18273639e-004, 0.,
          1.37741044e-002, 2.75482098e-003, 0., 0., 0., 1.83654728e-003,
          0., 0., 0., 1.83654728e-003, 0., 9.18273639e-004,
          9.18273639e-004, 0., 0., 9.18273639e-004, 0., 0., 0., 0.,
          9.18273639e-004, 9.18273639e-004, 3.67309456e-003, 0.,
          4.59136814e-003, 9.18273639e-004, 0., 9.18273639e-004,
          9.18273639e-004, 1.83654728e-003, 9.18273639e-004, 0.,
          2.75482098e-003, 1.83654728e-003, 0., 1.83654728e-003,
          3.67309456e-003, 9.18273639e-004, 2.75482098e-003, 0.,
          2.29568407e-002, 7.34618912e-003, 0., 9.18273639e-004, 0., 0. ]
      - [ 5.07246377e-003, 0., 7.24637706e-004, 1.44927541e-003, 0.,
          1.44927541e-003, 0., 0., 7.24637706e-004, 1.44927541e-003, 0.,
          0., 0., 1.44927541e-003, 0., 0., 2.89855083e-003,
          2.89855083e-003, 0., 1.44927541e-003, 7.24637706e-004,
          1.44927541e-003, 0., 0., 5.07246377e-003, 0., 7.24637706e-004,
          0., 7.24637706e-004, 2.17391318e-003, 7.24637706e-004,
          5.07246377e-003, 1.44927541e-003, 6.52173953e-003,
          1.44927541e-003, 0., 0., 0., 7.24637706e-004, 7.24637706e-004,
          0., 1.44927541e-003, 2.89855083e-003, 1.44927541e-003,
          2.17391318e-003, 4.34782635e-003, 3.62318847e-003, 0.,
          7.24637706e-004, 7.24637706e-004, 0., 0., 5.07246377e-003,
          2.89855083e-003, 3.62318847e-003, 2.89855083e-003,
          2.17391318e-003, 0., 0., 2.89855083e-003, 0., 0., 0., 0., 0.,
          0., 0., 7.24637706e-004, 7.24637706e-004, 1.15942033e-002,
          1.44927541e-003, 7.24637706e-004, 0., 1.44927541e-003,
          2.17391318e-003, 0., 7.24637706e-004, 0., 7.24637706e-004,
          1.44927541e-003, 0., 7.24637706e-004, 0., 1.08695654e-002,
          1.44927541e-003, 0., 0., 7.24637706e-004, 0., 0.,
          1.44927541e-003, 0., 0., 7.24637706e-004, 4.34782635e-003,
          7.24637706e-004, 0., 7.24637706e-004, 7.24637706e-004, 0.,
          7.24637706e-004, 0., 0., 5.79710165e-003, 1.44927541e-003,
          7.24637706e-004, 7.24637706e-004, 0., 3.62318847e-003,
          7.24637706e-004, 7.24637706e-004, 0., 0., 0., 1.44927541e-003,
          0., 7.24637706e-004, 7.24637706e-004, 7.24637706e-004, 0.,
          2.17391318e-003, 0., 0., 1.44927541e-003, 1.44927541e-003,
          7.24637706e-004, 0., 1.44927541e-003, 2.17391318e-003,
          2.89855083e-003, 5.79710165e-003, 4.34782635e-003,
          2.89855083e-003, 2.89855083e-003, 0., 3.62318847e-003,
          7.24637695e-003, 0., 1.44927541e-003, 0., 0., 0.,
          7.24637706e-004, 0., 0., 1.44927541e-003, 7.24637706e-004,
          7.24637706e-004, 1.44927541e-003, 0., 7.24637706e-004, 0.,
          7.24637706e-004, 0., 2.17391318e-003, 7.24637706e-004,
          2.17391318e-003, 7.24637706e-004, 1.44927541e-003, 0.,
          3.62318847e-003, 7.24637706e-004, 2.17391318e-003, 0.,
          1.44927541e-003, 0., 3.62318847e-003, 0., 0., 2.17391318e-003,
          0., 1.44927541e-003, 1.44927541e-003, 7.24637706e-004,
          4.34782635e-003, 0., 7.24637706e-004, 2.89855083e-003,
          7.24637706e-004, 7.24637706e-004, 2.17391318e-003,
          7.24637706e-004, 0., 1.44927541e-003, 7.24637706e-004,
          1.44927541e-003, 0., 3.55072469e-002, 7.24637706e-004, 0.,
          2.17391318e-003, 0., 4.34782635e-003, 7.24637706e-004,
          2.17391318e-003, 7.24637706e-004, 7.97101483e-003,
          1.44927541e-003, 1.44927541e-003, 1.44927541e-003,
          7.24637706e-004, 2.17391318e-003, 1.44927541e-003,
          1.44927541e-003, 2.17391318e-003, 7.24637706e-004,
          1.44927541e-003, 0., 0., 1.44927541e-003, 0., 0.,
          1.44927541e-003, 7.24637706e-004, 7.24637706e-004,
          7.24637706e-004, 1.44927541e-003, 6.52173953e-003,
          2.17391318e-003, 0., 0., 0., 0., 0., 1.44927541e-003,
          1.44927541e-003, 0., 2.17391318e-003, 7.24637706e-004, 0.,
          1.44927541e-003, 0., 7.24637706e-004, 1.44927541e-003,
          7.24637706e-004, 0., 1.44927541e-003, 7.24637706e-004,
          3.62318847e-003, 7.24637706e-004, 0., 2.89855083e-003,
          7.24637706e-004, 0., 7.24637706e-004, 0., 0., 1.44927541e-003,
          0., 0., 1.44927541e-003, 0., 2.89855083e-003, 0.,
          2.17391318e-003, 0., 0., 7.24637706e-004, 0., 2.17391318e-003,
          2.17391318e-003, 7.24637706e-004, 0., 7.24637706e-004,
          3.62318847e-003, 1.44927541e-003, 7.24637706e-004,
          2.17391318e-003, 0., 2.17391318e-003, 2.89855083e-003,
          1.66666675e-002, 1.23188412e-002, 0., 0., 2.17391318e-003, 0.,
          3.62318847e-003, 7.24637706e-004, 7.24637706e-004, 0., 0.,
          1.44927541e-003, 7.97101483e-003, 7.24637706e-004,
          1.44927539e-002, 1.15942033e-002, 2.89855083e-003,
          7.24637706e-004, 2.89855083e-003, 1.44927541e-003, 0., 0.,
          2.89855083e-003, 0., 0., 2.89855083e-003, 0., 1.44927541e-003,
          1.23188412e-002, 7.24637706e-004, 2.89855083e-003,
          7.24637706e-004, 1.44927541e-003, 7.24637706e-004,
          2.17391318e-003, 4.34782635e-003, 7.24637706e-004, 0.,
          2.89855083e-003, 1.44927541e-003, 7.24637706e-004,
          7.24637706e-004, 0., 0., 0., 1.44927541e-003, 7.24637706e-004,
          2.89855083e-003, 3.62318847e-003, 1.08695654e-002,
          7.24637706e-004, 1.44927541e-003, 0., 7.24637706e-004, 0.,
          3.62318847e-003, 0., 7.24637706e-004, 0., 1.44927541e-003,
          5.07246377e-003, 0., 4.34782635e-003, 1.44927541e-003,
          2.17391318e-003, 7.24637706e-004, 0., 0., 0., 2.89855083e-003,
          7.24637706e-004, 2.89855083e-003, 0., 7.24637706e-004,
          7.24637706e-004, 0., 5.07246377e-003, 7.24637706e-004,
          2.89855083e-003, 0., 2.17391318e-003, 0., 2.17391318e-003,
          1.44927541e-003, 4.34782635e-003, 0., 7.24637706e-004,
          2.17391318e-003, 0., 0., 1.44927541e-003, 2.17391318e-003, 0.,
          0., 7.24637695e-003, 7.24637706e-004, 7.24637706e-004,
          7.24637706e-004, 0., 9.42029059e-003, 7.24637706e-004,
          7.24637706e-004, 0., 7.24637706e-004, 1.44927541e-003,
          7.24637706e-004, 7.24637706e-004, 7.24637706e-004, 0.,
          7.24637706e-004, 0., 4.34782635e-003, 7.24637706e-004,
          3.62318847e-003, 3.55072469e-002, 0., 7.24637706e-004,
          7.24637706e-004, 0., 0., 4.34782635e-003, 7.24637706e-004,
          2.17391318e-003, 7.24637706e-004, 0., 0., 2.17391318e-003, 0.,
          7.24637706e-004, 1.44927541e-003, 0., 1.44927541e-003,
          7.24637706e-004, 7.24637706e-004, 1.44927541e-003,
          1.44927541e-003, 0., 1.44927541e-003, 0., 0., 0., 0., 0.,
          3.62318847e-003, 0., 1.44927541e-003, 2.17391318e-003, 0., 0.,
          7.24637706e-004, 0., 0., 0., 0., 0., 7.24637706e-004, 0.,
          1.44927541e-003, 2.89855083e-003, 2.17391318e-003,
          7.24637706e-004, 1.08695654e-002, 1.44927541e-003,
          1.44927541e-003, 1.44927541e-003, 5.79710165e-003,
          4.34782635e-003, 7.24637706e-004, 3.62318847e-003, 0.,
          5.07246377e-003, 2.17391318e-003, 0., 0., 7.24637706e-004,
          2.60869581e-002, 7.24637706e-004, 3.62318847e-003,
          1.44927541e-003, 0., 0., 1.44927541e-003, 2.89855083e-003,
          1.52173918e-002, 0., 2.17391318e-003, 2.17391318e-003,
          2.89855083e-003, 1.44927541e-003, 2.17391318e-003, 0., 0., 0.,
          1.44927541e-003, 7.24637706e-004, 0., 0., 0., 1.08695654e-002,
          7.24637706e-004, 7.24637706e-004, 2.17391318e-003,
          7.24637706e-004, 7.24637706e-004, 6.52173953e-003, 0.,
          7.24637706e-004, 0., 1.44927541e-003, 0., 0., 1.44927541e-003,
          0., 0., 2.89855083e-003, 7.24637706e-004, 7.24637706e-004,
          7.24637706e-004, 0., 0., 7.24637706e-004, 2.89855083e-003,
          2.89855083e-003, 7.24637706e-004, 2.17391318e-003,
          2.02898551e-002, 0., 7.24637706e-004, 0., 6.52173953e-003,
          1.44927541e-003, 7.24637706e-004, 1.44927541e-003, 0.,
          7.24637706e-004, 7.24637706e-004, 7.24637706e-004, 0., 0.,
          7.24637706e-004, 7.24637706e-004, 6.52173953e-003,
          4.34782635e-003, 1.44927541e-003, 4.34782635e-003,
          5.79710165e-003, 0., 0., 7.24637706e-004, 2.89855083e-003,
          1.44927541e-003, 0., 0., 7.24637706e-004, 7.24637706e-004,
          2.17391318e-003, 7.24637706e-004, 3.62318847e-003,
          5.79710165e-003, 0., 1.01449275e-002, 4.34782635e-003, 0.,
          2.17391318e-003, 0., 0., 7.24637706e-004, 0., 0.,
          3.62318847e-003, 7.24637706e-004, 0., 7.24637706e-004,
          1.44927541e-003, 0., 3.62318847e-003, 5.79710165e-003,
          2.17391318e-003, 7.24637695e-003, 1.44927541e-003,
          7.24637706e-004, 2.17391318e-003, 7.24637706e-004,
          2.89855083e-003, 7.24637706e-004, 0., 4.34782635e-003, 0., 0.,
          0., 0., 0., 0., 7.24637706e-004, 1.37681160e-002,
          1.44927541e-003, 7.24637706e-004, 7.24637706e-004, 0.,
          2.17391318e-003, 1.44927541e-003, 7.24637706e-004, 0.,
          7.24637706e-004, 1.01449275e-002, 0., 7.24637706e-004,
          7.24637706e-004, 2.17391318e-003, 0., 0., 7.24637706e-004,
          1.44927541e-003, 1.44927541e-003, 0., 2.89855083e-003, 0.,
          7.24637706e-004, 0., 5.07246377e-003, 7.24637706e-004,
          1.44927541e-003, 1.44927541e-003, 4.34782635e-003, 0., 0., 0.,
          0., 7.24637706e-004 ]
      - [ 0., 0., 1.86046516e-003, 9.30232578e-004, 0., 9.30232578e-004,
          1.86046516e-003, 0., 7.44186062e-003, 5.58139570e-003, 0., 0.,
          0., 1.86046516e-003, 9.30232578e-004, 0., 6.51162816e-003,
          9.30232578e-004, 0., 1.86046516e-003, 9.30232578e-004,
          1.86046516e-003, 0., 0., 2.79069785e-003, 0., 0.,
          5.58139570e-003, 8.37209355e-003, 0., 0., 9.30232578e-004, 0.,
          9.30232578e-004, 1.86046516e-003, 1.86046516e-003,
          4.65116277e-003, 9.30232578e-004, 5.58139570e-003,
          9.30232578e-004, 3.72093031e-003, 1.20930234e-002, 0.,
          2.79069785e-003, 1.86046516e-003, 3.72093031e-003,
          9.30232578e-004, 0., 2.79069785e-003, 0., 0., 6.51162816e-003,
          9.30232578e-004, 0., 1.20930234e-002, 7.44186062e-003,
          9.30232578e-004, 1.86046516e-003, 0., 0., 0., 0., 0.,
          1.86046516e-003, 1.86046516e-003, 9.30232578e-004,
          1.86046516e-003, 9.30232578e-004, 4.65116277e-003, 0.,
          4.65116277e-003, 0., 0., 0., 9.30232578e-004, 1.86046516e-003,
          9.30232578e-004, 0., 0., 9.30232578e-004, 3.72093031e-003,
          2.79069785e-003, 1.86046516e-003, 0., 0., 0., 9.30232578e-004,
          0., 0., 3.72093031e-003, 3.72093031e-003, 0., 0.,
          1.86046516e-003, 2.79069785e-003, 2.79069785e-003,
          9.30232578e-004, 2.79069785e-003, 0., 0., 0., 9.30232578e-004,
          0., 2.79069785e-003, 0., 1.86046516e-003, 5.58139570e-003, 0.,
          2.79069785e-003, 0., 4.65116277e-003, 0., 0., 1.86046516e-003,
          0., 4.65116277e-003, 1.02325585e-002, 3.72093031e-003,
          3.72093031e-003, 0., 9.30232578e-004, 0., 2.79069785e-003, 0.,
          2.79069785e-003, 0., 5.58139570e-003, 0., 0., 9.30232578e-004,
          0., 0., 9.30232578e-004, 9.30232578e-004, 0., 0., 0.,
          2.79069785e-003, 9.30232578e-004, 1.86046516e-003,
          4.65116277e-003, 0., 0., 0., 0., 0., 0., 1.86046516e-003, 0.,
          0., 0., 2.79069785e-003, 9.30232578e-004, 2.79069785e-003,
          1.86046516e-003, 2.79069785e-003, 3.72093031e-003,
          1.86046516e-003, 1.86046516e-003, 9.30232578e-004, 0., 0., 0.,
          0., 9.30232578e-004, 0., 4.65116277e-003, 1.86046516e-003, 0.,
          0., 1.02325585e-002, 6.51162816e-003, 0., 9.30232578e-004,
          9.30232578e-004, 6.51162816e-003, 0., 2.79069785e-003,
          9.30232578e-004, 8.37209355e-003, 0., 9.30232578e-004, 0.,
          9.30232578e-004, 3.72093031e-003, 0., 2.79069785e-003, 0.,
          6.51162816e-003, 0., 1.11627914e-002, 1.86046516e-003,
          9.30232578e-004, 3.72093031e-003, 0., 0., 9.30232578e-004, 0.,
          1.11627914e-002, 0., 0., 0., 9.30232578e-004, 0., 0.,
          2.79069785e-003, 9.30232578e-004, 9.30232578e-004, 0.,
          9.30232578e-004, 0., 2.79069785e-003, 9.30232578e-004,
          1.86046516e-003, 0., 1.86046516e-003, 9.30232578e-004, 0.,
          9.30232578e-004, 0., 0., 0., 0., 0., 0., 9.30232578e-004,
          4.65116277e-003, 1.86046516e-003, 1.76744182e-002,
          1.86046516e-003, 2.79069785e-003, 0., 2.79069785e-003, 0.,
          9.30232578e-004, 0., 0., 1.86046516e-003, 9.30232578e-004,
          3.72093031e-003, 0., 2.79069785e-003, 1.86046516e-003, 0., 0.,
          0., 0., 0., 9.30232578e-004, 1.86046516e-003, 1.86046516e-003,
          0., 3.72093031e-003, 0., 0., 0., 0., 2.79069785e-003,
          1.86046516e-003, 1.02325585e-002, 4.65116277e-003, 0., 0.,
          1.86046516e-003, 0., 0., 2.79069785e-003, 1.86046516e-003,
          8.37209355e-003, 9.30232578e-004, 5.58139570e-003, 0., 0.,
          9.30232578e-004, 1.86046516e-003, 0., 9.30232578e-004,
          3.72093031e-003, 9.30232578e-004, 1.86046516e-003, 0., 0.,
          4.65116277e-003, 9.30232578e-004, 2.79069785e-003,
          1.86046516e-003, 0., 0., 9.30232578e-004, 4.65116277e-003, 0.,
          1.86046516e-003, 0., 3.72093031e-003, 0., 1.86046516e-003,
          8.37209355e-003, 9.30232578e-004, 0., 0., 0., 2.79069785e-003,
          9.30232578e-004, 2.79069785e-003, 3.72093031e-003,
          6.51162816e-003, 0., 0., 0., 0., 1.86046516e-003,
          1.86046516e-003, 0., 0., 9.30232578e-004, 0., 6.51162816e-003,
          9.30232578e-004, 0., 0., 0., 9.30232578e-004, 9.30232578e-004,
          4.65116277e-003, 4.65116277e-003, 0., 2.79069785e-003,
          9.30232578e-004, 9.30232578e-004, 5.58139570e-003,
          1.86046516e-003, 0., 9.30232578e-004, 9.30232578e-004, 0.,
          9.30232578e-004, 9.30232578e-004, 0., 0., 0., 1.86046516e-003,
          1.86046516e-003, 0., 0., 0., 0., 0., 9.30232578e-004, 0.,
          5.58139570e-003, 0., 0., 0., 9.30232578e-004, 3.72093031e-003,
          0., 0., 8.37209355e-003, 0., 1.86046516e-003, 3.72093031e-003,
          5.58139570e-003, 9.30232578e-004, 4.65116277e-003,
          1.86046516e-003, 0., 6.51162816e-003, 0., 2.79069785e-003,
          2.79069785e-003, 1.86046516e-003, 9.30232578e-004, 0.,
          9.30232578e-004, 3.72093031e-003, 0., 4.65116277e-003, 0.,
          9.30232578e-004, 1.86046516e-003, 9.30232578e-004,
          2.79069785e-003, 0., 1.86046516e-003, 2.79069785e-003, 0., 0.,
          9.30232578e-004, 0., 9.30232578e-004, 9.30232578e-004,
          6.51162816e-003, 9.30232578e-004, 3.72093031e-003,
          9.30232578e-004, 0., 0., 9.30232578e-004, 0., 9.30232578e-004,
          0., 9.30232578e-004, 1.11627914e-002, 1.86046516e-003, 0.,
          1.86046516e-003, 9.30232578e-004, 3.72093031e-003,
          5.58139570e-003, 0., 0., 9.30232578e-004, 0., 9.30232578e-004,
          1.86046516e-003, 9.30232578e-004, 1.86046516e-003,
          9.30232578e-004, 5.58139570e-003, 0., 9.30232578e-004,
          1.67441871e-002, 0., 9.30232578e-004, 1.86046516e-003, 0.,
          3.72093031e-003, 5.58139570e-003, 3.72093031e-003, 0.,
          2.79069785e-003, 0., 0., 8.37209355e-003, 9.30232578e-004,
          9.30232578e-004, 0., 4.65116277e-003, 9.30232578e-004, 0., 0.,
          0., 0., 4.65116277e-003, 0., 1.02325585e-002, 1.86046516e-003,
          4.65116277e-003, 8.37209355e-003, 0., 9.30232578e-004, 0.,
          2.79069785e-003, 0., 2.79069785e-003, 0., 0., 4.65116277e-003,
          9.30232578e-004, 9.30232578e-004, 9.30232578e-004, 0.,
          4.65116277e-003, 9.30232578e-004, 0., 0., 9.30232578e-004,
          4.65116277e-003, 1.86046516e-003, 6.51162816e-003,
          2.79069785e-003, 0., 7.44186062e-003, 0., 3.72093031e-003,
          1.86046516e-003, 0., 0., 0., 1.86046516e-003, 0., 0.,
          9.30232578e-004, 9.30232578e-004, 0., 0., 0., 0.,
          2.79069785e-003, 3.72093031e-003, 1.86046516e-003, 0., 0., 0.,
          2.79069785e-003, 1.86046516e-003, 1.86046516e-003,
          3.72093031e-003, 1.86046516e-003, 0., 3.72093031e-003,
          3.72093031e-003, 0., 0., 2.79069785e-003, 3.72093031e-003,
          1.86046516e-003, 3.72093031e-003, 0., 9.30232578e-004,
          3.72093031e-003, 2.79069785e-003, 9.30232578e-004,
          9.30232578e-004, 3.72093031e-003, 0., 4.65116277e-003, 0., 0.,
          0., 1.86046516e-003, 0., 3.72093031e-003, 0., 9.30232578e-004,
          0., 0., 2.79069785e-003, 4.65116277e-003, 5.58139570e-003, 0.,
          0., 0., 9.30232578e-004, 9.30232578e-004, 0., 9.30232578e-004,
          1.86046516e-003, 9.30232578e-004, 0., 2.79069785e-003,
          9.30232578e-004, 9.30232578e-004, 1.11627914e-002,
          1.86046516e-003, 2.79069785e-003, 0., 0., 0., 2.79069785e-003,
          0., 0., 1.86046516e-003, 3.72093031e-003, 0., 9.30232578e-004,
          0., 0., 0., 0., 0., 9.30232578e-004, 1.86046516e-003,
          9.30232578e-004, 9.30232578e-004, 9.30232578e-004,
          9.30232578e-004, 2.79069785e-003, 1.86046516e-003, 0., 0.,
          4.65116277e-003, 0., 2.79069785e-003, 0., 2.79069785e-003, 0.,
          3.72093031e-003, 9.30232578e-004, 0., 3.72093031e-003, 0.,
          9.30232578e-004, 0., 3.72093031e-003, 0., 5.58139570e-003, 0.,
          2.79069785e-003, 9.30232578e-004, 0., 0., 2.79069785e-003,
          2.79069785e-003, 3.72093031e-003, 9.30232578e-004,
          9.30232578e-004, 1.86046516e-003, 9.30232578e-004, 0. ]
      - [ 0., 0., 8.90471973e-004, 0., 0., 0., 8.90471973e-004,
          8.90471973e-004, 0., 1.78094395e-003, 2.67141592e-003,
          2.31522713e-002, 0., 8.90471973e-004, 1.78094395e-003,
          1.78094395e-003, 1.78094395e-003, 0., 0., 0., 0., 0.,
          1.78094395e-003, 2.67141592e-003, 0., 3.56188789e-003, 0., 0.,
          0., 1.78094395e-003, 0., 0., 0., 0., 0., 0., 8.90471973e-004,
          0., 0., 0., 0., 8.90471973e-004, 8.90471973e-004,
          8.90471973e-004, 0., 1.78094395e-003, 0., 1.60284955e-002,
          1.78094395e-003, 8.90471973e-004, 0., 0., 8.90471973e-004, 0.,
          0., 8.90471973e-004, 0., 8.90471973e-004, 0., 0., 0.,
          1.15761356e-002, 0., 0., 8.90471973e-004, 0., 0., 0., 0., 0.,
          0., 4.45235986e-003, 0., 8.90471973e-004, 0., 0.,
          8.90471973e-004, 6.23330381e-003, 8.90471973e-004,
          8.90471973e-004, 0., 0., 0., 2.04808563e-002, 1.78094395e-003,
          7.12377578e-003, 8.90471973e-004, 0., 0., 8.90471973e-004, 0.,
          8.01424775e-003, 3.56188789e-003, 1.78094395e-003,
          8.90471973e-004, 0., 0., 0., 1.78094395e-003, 8.90471973e-003,
          8.90471973e-004, 1.06856637e-002, 0., 8.90471973e-004, 0., 0.,
          0., 8.90471973e-004, 8.90471973e-004, 0., 0., 0.,
          9.79519170e-003, 0., 1.78094395e-003, 0., 0., 0., 0.,
          1.78094395e-003, 0., 0., 8.90471973e-004, 0., 8.90471973e-004,
          0., 0., 8.01424775e-003, 0., 8.90471973e-004, 8.90471973e-004,
          0., 0., 0., 0., 8.90471973e-004, 8.90471973e-004, 0., 0., 0.,
          0., 0., 7.12377578e-003, 1.15761356e-002, 0., 0., 0., 0.,
          8.90471973e-004, 6.23330381e-003, 0., 0., 2.67141592e-003, 0.,
          8.90471973e-004, 0., 8.90471973e-004, 7.12377578e-003, 0.,
          8.90471973e-004, 1.95903834e-002, 0., 0., 2.67141592e-003, 0.,
          0., 0., 8.90471973e-004, 0., 0., 0., 0., 0., 1.78094395e-003,
          0., 0., 6.23330381e-003, 0., 0., 0., 0., 0., 0., 0., 0.,
          8.90471973e-004, 0., 0., 0., 0., 1.78094395e-003,
          1.78094395e-003, 0., 0., 6.23330381e-003, 8.90471973e-004, 0.,
          0., 0., 1.78094395e-003, 0., 1.78094395e-003, 8.90471973e-004,
          1.78094395e-003, 0., 0., 0., 0., 0., 0., 0., 2.67141592e-003,
          0., 1.78094395e-003, 0., 0., 0., 0., 2.67141592e-003,
          5.34283184e-003, 2.67141592e-003, 8.90471973e-004,
          2.84951031e-002, 0., 0., 1.78094395e-003, 0., 1.78094395e-003,
          0., 0., 0., 0., 8.90471973e-004, 0., 0., 4.45235986e-003,
          3.56188789e-003, 0., 1.78094395e-003, 0., 0., 0., 0.,
          8.90471973e-004, 8.90471973e-004, 1.78094395e-002, 0.,
          3.56188789e-003, 0., 0., 0., 0., 0., 8.90471973e-004,
          8.90471973e-004, 8.90471973e-004, 0., 1.78094395e-003, 0., 0.,
          0., 0., 2.67141592e-002, 0., 0., 0., 0., 0., 0.,
          8.90471973e-004, 0., 0., 0., 0., 0., 8.90471973e-003, 0., 0.,
          0., 0., 0., 0., 2.67141592e-003, 0., 8.90471973e-004,
          6.23330381e-003, 0., 3.56188789e-003, 8.90471973e-004, 0.,
          2.67141592e-003, 0., 0., 0., 4.45235986e-003, 0., 0., 0., 0.,
          0., 3.56188789e-003, 0., 8.90471973e-004, 0., 0., 0., 0.,
          8.90471973e-003, 2.67141592e-003, 0., 0., 0., 0.,
          3.56188789e-003, 0., 8.90471973e-004, 0., 0., 0., 0.,
          1.06856637e-002, 8.90471973e-004, 2.67141592e-003, 0., 0.,
          1.69189684e-002, 8.90471973e-004, 0., 9.79519170e-003, 0.,
          8.90471973e-004, 0., 0., 0., 8.90471973e-004, 0.,
          8.90471973e-004, 8.90471973e-003, 1.06856637e-002, 0., 0., 0.,
          1.24666076e-002, 3.29474621e-002, 2.67141592e-003,
          8.01424775e-003, 0., 0., 0., 8.90471973e-004, 7.12377578e-003,
          5.34283184e-003, 7.12377578e-003, 8.90471973e-004,
          8.90471973e-004, 2.31522713e-002, 0., 0., 0., 0., 0.,
          8.90471973e-004, 0., 2.67141592e-003, 8.90471973e-004,
          8.90471973e-004, 0., 0., 0., 0., 1.06856637e-002,
          8.90471973e-004, 0., 0., 3.56188789e-003, 0., 0., 0., 0., 0.,
          0., 0., 8.90471973e-004, 4.45235986e-003, 0., 0.,
          8.90471973e-004, 0., 0., 0., 2.67141592e-003, 0.,
          1.15761356e-002, 8.90471973e-004, 0., 4.45235986e-003, 0.,
          8.90471973e-004, 0., 0., 0., 7.12377578e-003, 0., 0., 0.,
          8.90471973e-004, 3.56188789e-003, 0., 0., 0., 0., 0., 0., 0.,
          0., 8.90471973e-004, 5.34283184e-003, 0., 0., 0.,
          1.78094395e-003, 8.90471973e-004, 0., 0., 4.45235986e-003, 0.,
          0., 0., 0., 8.90471973e-004, 0., 0., 0., 0., 0.,
          8.90471973e-004, 8.90471973e-004, 1.78094395e-003,
          1.78094395e-003, 0., 5.34283184e-003, 0., 0., 8.90471973e-004,
          5.34283184e-003, 8.90471973e-004, 1.51380235e-002,
          8.90471973e-004, 0., 1.33570796e-002, 0., 3.56188789e-003, 0.,
          8.90471973e-004, 0., 0., 3.56188789e-003, 1.78094395e-003, 0.,
          0., 0., 1.06856637e-002, 0., 0., 6.23330381e-003,
          8.90471973e-004, 0., 8.90471973e-004, 0., 0., 0.,
          8.90471973e-004, 0., 0., 0., 0., 7.12377578e-003, 0.,
          3.56188789e-003, 0., 1.78094395e-003, 1.78094395e-003, 0., 0.,
          0., 8.90471973e-004, 6.23330381e-003, 0., 0., 0., 0.,
          8.90471973e-004, 0., 0., 0., 0., 6.23330381e-003, 0.,
          8.90471973e-004, 2.13713273e-002, 0., 0., 0., 1.86999105e-002,
          8.90471973e-003, 0., 0., 0., 8.90471973e-004, 0., 0., 0., 0.,
          1.78094395e-003, 0., 0., 0., 8.01424775e-003, 8.90471973e-004,
          8.90471973e-003, 0., 1.78094395e-003, 0., 0., 0.,
          1.78094395e-003, 9.79519170e-003, 0., 0., 2.67141592e-003, 0.,
          1.15761356e-002, 0., 0., 0., 0., 8.90471973e-004,
          8.90471973e-004, 3.56188789e-003, 0., 0., 0., 8.90471973e-004,
          0., 0., 8.90471973e-004, 0., 6.23330381e-003, 8.01424775e-003,
          0., 1.42475516e-002, 8.90471973e-004, 0., 8.90471973e-004, 0.,
          0., 0., 8.90471973e-004, 1.78094395e-003, 0., 0., 0., 0., 0.,
          0., 8.90471973e-004, 0., 0., 0., 1.51380235e-002, 0., 0., 0.,
          0., 8.90471973e-004, 0., 2.04808563e-002, 8.90471973e-004, 0.,
          8.90471973e-003, 0., 1.78094395e-003, 8.90471973e-004, 0., 0.,
          4.45235986e-003, 0., 0., 8.90471973e-004, 0., 8.90471973e-004,
          0., 0., 8.90471973e-004, 0., 8.01424775e-003, 1.78094395e-003,
          0., 0., 2.67141592e-003 ]
      - [ 0., 0., 0., 0., 0., 8.26446281e-004, 2.47933879e-003, 0., 0.,
          1.65289256e-003, 9.09090880e-003, 0., 8.26446281e-004,
          8.26446281e-004, 4.95867757e-003, 4.13223123e-003,
          2.47933879e-003, 0., 4.13223123e-003, 0., 0., 0.,
          1.65289256e-003, 2.89256200e-002, 0., 1.65289249e-002,
          1.65289256e-003, 0., 8.26446281e-004, 0., 0., 1.65289256e-003,
          8.26446281e-004, 0., 0., 0., 1.65289256e-003, 8.26446281e-004,
          0., 8.26446281e-004, 8.26446281e-004, 8.26446281e-004,
          8.26446281e-004, 8.26446281e-004, 8.26446281e-004,
          3.30578513e-003, 0., 2.47933879e-003, 3.30578513e-003, 0.,
          8.26446281e-004, 0., 1.65289256e-003, 8.26446281e-004, 0.,
          1.65289256e-003, 0., 2.47933879e-003, 8.26446281e-004, 0., 0.,
          3.30578513e-003, 0., 0., 0., 8.26446281e-004, 0.,
          2.47933879e-003, 1.65289256e-003, 0., 0., 2.47933879e-003,
          4.13223123e-003, 8.26446281e-004, 2.47933879e-003,
          1.65289256e-003, 1.65289256e-003, 5.78512391e-003,
          1.65289256e-003, 8.26446281e-004, 2.47933879e-003,
          3.30578513e-003, 0., 0., 2.47933879e-003, 5.78512391e-003,
          8.26446281e-004, 8.26446281e-004, 1.65289256e-003, 0.,
          8.26446281e-004, 1.48760332e-002, 8.26446246e-003, 0.,
          1.65289256e-003, 0., 1.15702478e-002, 0., 2.47933879e-003,
          6.61157025e-003, 0., 1.98347103e-002, 0., 1.65289256e-003,
          8.26446281e-004, 4.13223123e-003, 0., 2.47933879e-003,
          1.65289256e-003, 1.65289256e-003, 0., 0., 4.95867757e-003,
          8.26446281e-004, 8.26446281e-004, 1.65289256e-003, 0.,
          8.26446281e-004, 0., 3.30578513e-003, 0., 8.26446281e-004, 0.,
          8.26446281e-004, 8.26446281e-004, 0., 0., 1.65289256e-003, 0.,
          0., 0., 2.47933879e-003, 1.65289256e-003, 8.26446281e-004,
          8.26446281e-004, 8.26446281e-004, 8.26446281e-004,
          1.65289256e-003, 0., 0., 0., 1.65289256e-003, 4.13223123e-003,
          1.65289256e-003, 8.26446281e-004, 8.26446281e-004, 0., 0., 0.,
          8.26446281e-004, 1.65289256e-003, 0., 8.26446281e-004, 0., 0.,
          8.26446281e-004, 0., 1.65289256e-003, 8.26446281e-004, 0.,
          1.65289256e-003, 1.65289256e-003, 8.26446281e-004,
          9.91735514e-003, 1.65289256e-003, 0., 0., 0., 0.,
          8.26446281e-004, 1.65289256e-003, 0., 0., 2.47933879e-003,
          1.65289256e-003, 8.26446281e-004, 3.30578513e-003,
          2.47933879e-003, 1.65289256e-003, 0., 0., 0., 0.,
          3.30578513e-003, 0., 1.65289256e-003, 2.47933879e-003, 0., 0.,
          1.65289256e-003, 0., 8.26446281e-004, 2.47933879e-003,
          8.26446281e-004, 8.26446246e-003, 1.07438015e-002,
          1.65289256e-003, 0., 8.26446281e-004, 0., 0., 0.,
          2.47933879e-003, 1.65289256e-003, 0., 0., 0., 0., 0., 0.,
          1.65289256e-003, 8.26446281e-004, 1.65289256e-003,
          9.91735514e-003, 4.95867757e-003, 8.26446281e-004,
          2.47933879e-003, 0., 8.26446281e-004, 4.13223123e-003,
          1.65289256e-003, 8.26446281e-004, 0., 0., 0., 0.,
          8.26446281e-004, 1.65289256e-003, 0., 3.30578513e-003, 0.,
          8.26446281e-004, 8.26446281e-004, 1.65289256e-003,
          8.26446281e-004, 4.13223123e-003, 4.95867757e-003,
          1.65289256e-003, 0., 1.65289256e-003, 8.26446281e-004, 0., 0.,
          1.65289256e-003, 0., 6.61157025e-003, 0., 0., 1.65289256e-003,
          3.30578513e-003, 0., 0., 0., 1.65289256e-003, 2.47933879e-003,
          2.47933879e-003, 8.26446281e-004, 8.26446281e-004, 0.,
          8.26446281e-004, 3.30578513e-003, 4.13223123e-003,
          8.26446281e-004, 8.26446281e-004, 0., 0., 8.26446281e-004, 0.,
          8.26446281e-004, 1.65289256e-003, 0., 8.26446281e-004,
          4.95867757e-003, 0., 2.47933879e-003, 6.61157025e-003,
          3.30578513e-003, 8.26446281e-004, 8.26446281e-004,
          8.26446281e-004, 1.65289256e-003, 1.65289256e-003,
          2.47933879e-003, 1.65289256e-003, 0., 3.30578513e-003,
          2.47933879e-003, 0., 0., 0., 1.65289256e-003, 5.78512391e-003,
          2.47933879e-003, 0., 8.26446281e-004, 8.26446281e-004,
          8.26446281e-004, 0., 2.47933879e-003, 8.26446281e-004,
          8.26446281e-004, 8.26446281e-004, 4.13223123e-003,
          8.26446281e-004, 0., 8.26446281e-004, 8.26446281e-004,
          8.26446246e-003, 8.26446281e-004, 8.26446281e-004,
          8.26446281e-004, 0., 8.26446281e-004, 6.61157025e-003, 0.,
          3.30578513e-003, 0., 0., 1.65289256e-003, 8.26446281e-004, 0.,
          8.26446281e-004, 0., 2.47933879e-003, 8.26446281e-004,
          8.26446281e-004, 0., 0., 9.91735514e-003, 0., 0.,
          1.65289256e-003, 8.26446281e-004, 2.47933879e-003,
          2.47933879e-003, 4.13223123e-003, 8.26446281e-004,
          3.30578513e-003, 8.26446281e-004, 0., 3.30578513e-003, 0.,
          4.95867757e-003, 1.73553713e-002, 8.26446281e-004,
          1.65289256e-003, 8.26446281e-004, 0., 2.47933879e-003, 0.,
          4.13223123e-003, 0., 5.78512391e-003, 8.26446281e-004,
          8.26446281e-004, 2.47933879e-003, 0., 0., 0., 0., 0.,
          8.26446281e-004, 8.26446281e-004, 8.26446281e-004,
          8.26446281e-004, 1.65289256e-003, 1.65289256e-003,
          1.65289256e-003, 1.65289256e-003, 0., 8.26446281e-004,
          8.26446281e-004, 8.26446281e-004, 0., 0., 0., 0., 0., 0., 0.,
          1.65289256e-003, 1.65289256e-003, 2.47933879e-003,
          8.26446281e-004, 0., 8.26446281e-004, 8.26446281e-004, 0.,
          2.47933879e-003, 1.65289256e-003, 2.47933879e-003, 0.,
          9.91735514e-003, 0., 8.26446281e-004, 0., 5.78512391e-003,
          1.32231405e-002, 8.26446281e-004, 8.26446281e-004,
          4.95867757e-003, 1.57024786e-002, 1.65289256e-003,
          8.26446281e-004, 8.26446281e-004, 8.26446281e-004,
          2.47933879e-003, 8.26446281e-004, 0., 0., 0., 8.26446281e-004,
          0., 3.30578513e-003, 8.26446281e-004, 0., 9.09090880e-003,
          8.26446281e-004, 8.26446281e-004, 1.65289256e-003,
          8.26446281e-004, 0., 8.26446281e-004, 8.26446281e-004, 0., 0.,
          8.26446281e-004, 0., 0., 0., 8.26446281e-004, 2.47933879e-003,
          3.30578513e-003, 1.65289256e-003, 8.26446281e-004, 0.,
          1.65289256e-003, 1.65289256e-003, 1.65289256e-003,
          5.78512391e-003, 7.43801659e-003, 8.26446281e-004,
          8.26446281e-004, 3.30578513e-003, 9.09090880e-003, 0.,
          8.26446281e-004, 8.26446281e-004, 1.65289256e-003,
          9.91735514e-003, 0., 3.30578513e-003, 8.26446281e-004,
          8.26446281e-004, 1.65289256e-003, 8.26446281e-004,
          1.90082639e-002, 8.26446281e-004, 6.61157025e-003,
          1.65289256e-003, 0., 9.91735514e-003, 8.26446281e-004, 0.,
          1.65289256e-003, 2.47933879e-003, 0., 0., 2.47933879e-003, 0.,
          8.26446281e-004, 1.65289256e-003, 8.26446281e-004, 0., 0.,
          8.26446281e-004, 1.65289256e-003, 1.65289256e-003, 0.,
          8.26446281e-004, 8.26446281e-004, 2.47933879e-003, 0.,
          1.65289256e-003, 4.13223123e-003, 8.26446281e-004, 0.,
          1.65289256e-003, 8.26446281e-004, 0., 1.65289256e-003,
          8.26446281e-004, 1.65289256e-003, 1.65289256e-003, 0.,
          8.26446281e-004, 0., 0., 5.78512391e-003, 4.95867757e-003, 0.,
          1.65289256e-003, 1.65289256e-003, 2.47933879e-003,
          8.26446281e-004, 8.26446281e-004, 8.26446281e-004, 0.,
          6.61157025e-003, 0., 0., 0., 0., 2.47933879e-003,
          8.26446281e-004, 1.65289256e-003, 8.26446281e-004,
          6.61157025e-003, 0., 5.78512391e-003, 0., 8.26446281e-004,
          8.26446281e-004, 0., 2.47933879e-003, 9.09090880e-003,
          6.61157025e-003, 0., 3.30578513e-003, 3.30578513e-003, 0.,
          1.65289256e-003, 8.26446281e-004, 0., 0., 0., 8.26446281e-004,
          0., 3.30578513e-003, 8.26446281e-004, 8.26446281e-004,
          1.65289256e-003, 0., 0., 8.26446281e-004, 3.30578513e-003,
          8.26446281e-004, 4.13223123e-003, 0., 0., 5.78512391e-003,
          3.30578513e-003, 8.26446281e-004, 0., 0., 8.26446281e-004, 0.,
          0., 1.65289256e-003, 1.23966942e-002, 1.65289256e-003, 0., 0.,
          1.65289256e-003, 0., 8.26446281e-004, 0., 0., 0.,
          7.43801659e-003, 8.26446281e-004, 8.26446281e-004,
          1.65289256e-003, 0., 8.26446281e-004, 4.13223123e-003,
          1.65289256e-003, 0., 8.26446281e-004, 8.26446281e-004, 0.,
          4.13223123e-003, 0., 1.65289256e-003, 4.95867757e-003,
          5.78512391e-003, 1.65289256e-003, 8.26446281e-004, 0.,
          3.30578513e-003, 8.26446281e-004, 8.26446281e-004,
          8.26446281e-004, 3.30578513e-003, 8.26446281e-004, 0., 0., 0.,
          8.26446281e-004, 0. ]
      - [ 4.09836043e-003, 0., 8.19672132e-004, 5.73770516e-003, 0.,
          4.09836043e-003, 0., 0., 1.63934426e-003, 3.27868853e-003,
          1.63934426e-003, 0., 0., 8.19672132e-004, 0., 0.,
          9.01639368e-003, 4.91803279e-003, 0., 1.63934426e-003,
          4.91803279e-003, 1.63934426e-003, 3.27868853e-003, 0.,
          3.27868853e-003, 0., 0., 0., 0., 0., 1.55737707e-002,
          4.09836043e-003, 0., 0., 1.63934426e-003, 0., 2.45901640e-003,
          6.55737706e-003, 0., 0., 0., 8.19672132e-004, 0.,
          8.19672132e-004, 0., 0., 0., 0., 2.45901640e-003, 0., 0.,
          1.63934426e-003, 0., 0., 8.19672132e-004, 4.09836043e-003, 0.,
          2.45901640e-003, 4.91803279e-003, 0., 0., 0., 1.63934426e-003,
          0., 0., 1.63934426e-003, 0., 5.73770516e-003, 8.19672132e-004,
          2.45901640e-003, 8.19672132e-004, 0., 3.27868853e-003, 0.,
          1.63934426e-003, 8.19672132e-004, 0., 0., 8.19672132e-004,
          1.63934426e-003, 0., 0., 2.45901640e-003, 8.19672132e-004, 0.,
          0., 0., 4.91803279e-003, 8.19672132e-004, 8.19672132e-004, 0.,
          0., 0., 1.63934426e-003, 8.19672132e-004, 1.63934426e-003, 0.,
          3.27868853e-003, 3.27868853e-003, 0., 3.27868853e-003, 0.,
          1.63934426e-003, 1.63934426e-003, 8.19672132e-004,
          4.09836043e-003, 0., 0., 1.63934426e-003, 2.45901640e-003,
          9.83606558e-003, 0., 0., 1.63934426e-003, 1.63934426e-003,
          2.45901640e-003, 3.27868853e-003, 0., 1.63934426e-003, 0.,
          1.63934426e-003, 8.19672132e-004, 1.63934426e-003, 0.,
          8.19672132e-004, 0., 0., 0., 2.45901640e-003, 5.73770516e-003,
          1.63934426e-003, 0., 1.63934426e-003, 0., 1.63934426e-003,
          3.27868853e-003, 1.88524593e-002, 8.19672132e-004,
          8.19672132e-004, 0., 3.27868853e-003, 3.27868853e-003,
          8.19672132e-004, 0., 8.19672132e-004, 0., 1.63934426e-003, 0.,
          0., 0., 0., 0., 7.37704895e-003, 9.83606558e-003, 0.,
          4.91803279e-003, 1.63934426e-003, 0., 0., 8.19672132e-004, 0.,
          9.01639368e-003, 0., 0., 5.73770516e-003, 0., 8.19672132e-004,
          8.19672132e-004, 0., 8.19672132e-004, 1.63934426e-003,
          4.09836043e-003, 2.45901640e-003, 3.27868853e-003,
          4.91803279e-003, 8.19672132e-004, 8.19672132e-004,
          2.45901640e-003, 3.27868853e-003, 0., 0., 1.63934426e-003, 0.,
          2.45901640e-003, 0., 8.19672132e-004, 8.19672132e-004,
          1.63934426e-003, 0., 0., 2.45901640e-003, 0., 1.63934426e-003,
          1.63934426e-003, 0., 0., 8.19672132e-004, 8.19672132e-004,
          3.27868853e-003, 3.27868853e-003, 0., 8.19672132e-004,
          1.72131155e-002, 2.45901640e-003, 0., 1.39344260e-002,
          5.73770516e-003, 0., 0., 0., 0., 0., 8.19672132e-004,
          4.91803279e-003, 0., 1.63934426e-003, 1.63934426e-003,
          8.19672132e-004, 8.19672132e-004, 0., 1.63934426e-003, 0., 0.,
          2.45901640e-003, 0., 0., 0., 0., 0., 8.19672132e-004,
          8.19672132e-004, 2.45901640e-003, 0., 4.91803279e-003,
          8.19672132e-004, 0., 0., 0., 2.45901640e-003, 2.45901640e-003,
          1.63934426e-003, 0., 0., 0., 0., 0., 7.37704895e-003, 0.,
          4.09836043e-003, 1.63934426e-003, 0., 2.45901640e-003,
          2.45901640e-003, 2.45901640e-003, 0., 0., 1.63934426e-003,
          9.83606558e-003, 8.19672132e-004, 1.63934426e-003,
          1.63934426e-003, 0., 0., 2.45901640e-003, 8.19672132e-004,
          1.63934426e-003, 0., 5.73770516e-003, 2.45901640e-003,
          1.63934426e-003, 0., 5.16393445e-002, 1.22950822e-002,
          8.19672132e-004, 1.63934426e-003, 0., 2.45901640e-003, 0.,
          2.45901640e-003, 2.45901640e-003, 1.63934426e-003,
          1.63934426e-003, 4.09836043e-003, 3.27868853e-003,
          8.19672132e-004, 0., 0., 8.19672132e-004, 6.55737706e-003,
          6.55737706e-003, 0., 8.19672132e-004, 8.19672132e-004, 0., 0.,
          3.27868853e-003, 8.19672085e-003, 1.63934426e-003,
          8.19672132e-004, 0., 0., 8.19672132e-004, 8.19672132e-004,
          2.45901640e-003, 0., 2.45901640e-003, 2.45901640e-003, 0., 0.,
          0., 0., 8.19672132e-004, 8.19672132e-004, 0., 0., 0.,
          3.27868853e-003, 2.45901640e-003, 8.19672132e-004,
          6.55737706e-003, 0., 7.37704895e-003, 8.19672132e-004, 0., 0.,
          0., 0., 8.19672132e-004, 0., 0., 1.63934426e-003,
          6.55737706e-003, 1.63934426e-003, 0., 8.19672132e-004,
          1.63934426e-003, 0., 0., 0., 8.19672132e-004, 0.,
          2.45901640e-003, 0., 0., 1.63934426e-003, 0., 0., 0.,
          6.55737706e-003, 8.19672132e-004, 0., 0., 0., 0.,
          2.45901640e-003, 8.19672132e-004, 0., 0., 0., 1.63934426e-003,
          1.63934426e-003, 4.91803279e-003, 3.27868853e-003,
          2.45901640e-003, 8.19672132e-004, 1.63934426e-003,
          1.63934426e-003, 0., 0., 8.19672132e-004, 0., 2.45901640e-003,
          0., 0., 5.73770516e-003, 2.45901640e-003, 0., 8.19672132e-004,
          0., 0., 1.22950822e-002, 0., 3.27868853e-003, 2.45901640e-003,
          1.63934426e-003, 4.09836043e-003, 0., 0., 1.63934426e-003,
          2.45901640e-003, 1.63934426e-003, 4.09836043e-003, 0.,
          8.19672132e-004, 8.19672132e-004, 0., 0., 0., 4.09836043e-003,
          2.45901640e-003, 0., 0., 1.63934426e-003, 8.19672132e-004, 0.,
          1.63934426e-003, 3.27868853e-003, 1.63934426e-003,
          8.19672132e-004, 3.27868853e-003, 4.09836043e-003,
          8.19672132e-004, 0., 2.45901640e-003, 0., 3.27868853e-003, 0.,
          3.27868853e-003, 7.37704895e-003, 1.63934426e-003,
          3.27868853e-003, 1.63934426e-003, 0., 0., 2.45901640e-003, 0.,
          4.09836043e-003, 0., 3.27868853e-003, 0., 8.19672132e-004,
          1.63934426e-003, 1.14754103e-002, 8.19672132e-004,
          4.91803279e-003, 0., 0., 8.19672085e-003, 3.27868853e-003, 0.,
          0., 1.63934426e-003, 0., 0., 0., 0., 0., 4.09836043e-003,
          4.91803279e-003, 0., 1.14754103e-002, 0., 1.63934426e-003, 0.,
          2.45901640e-003, 3.27868853e-003, 0., 0., 8.19672132e-004,
          3.27868853e-003, 8.19672132e-004, 0., 8.19672132e-004, 0., 0.,
          8.19672132e-004, 8.19672132e-004, 3.27868853e-003, 0.,
          8.19672132e-004, 8.19672132e-004, 2.45901640e-003,
          8.19672132e-004, 0., 3.27868853e-003, 0., 0., 1.63934426e-003,
          0., 8.19672132e-004, 2.45901640e-003, 2.45901640e-003,
          7.37704895e-003, 0., 8.19672132e-004, 5.73770516e-003,
          1.63934426e-003, 8.19672132e-004, 0., 2.45901640e-003,
          4.09836043e-003, 8.19672132e-004, 1.63934426e-003,
          2.45901640e-003, 0., 1.63934426e-003, 0., 8.19672132e-004,
          8.19672132e-004, 0., 8.19672132e-004, 3.27868853e-003,
          8.19672132e-004, 0., 2.45901640e-003, 0., 1.63934426e-003,
          1.63934426e-003, 0., 0., 0., 8.19672132e-004, 3.27868853e-003,
          1.22950822e-002, 3.27868853e-003, 0., 0., 0., 1.63934426e-003,
          3.27868853e-003, 3.27868853e-003, 1.63934426e-003, 0., 0.,
          3.27868853e-003, 0., 0., 4.09836043e-003, 0., 2.45901640e-003,
          0., 0., 0., 3.27868853e-003, 8.19672132e-004, 0., 0., 0., 0.,
          0., 1.63934426e-003, 4.09836043e-003, 0., 0., 0.,
          8.19672132e-004, 9.83606558e-003, 0., 0., 8.19672132e-004, 0.,
          4.91803279e-003, 0., 8.19672132e-004, 3.27868853e-003,
          1.63934426e-003, 0., 0., 1.63934426e-003, 0., 0., 0., 0.,
          6.55737706e-003, 0., 8.19672132e-004, 8.19672132e-004, 0., 0.,
          0., 8.19672132e-004, 9.83606558e-003, 2.45901640e-003, 0., 0.,
          8.19672132e-004, 0., 0., 3.27868853e-003, 0., 0., 0.,
          3.27868853e-003, 8.19672132e-004, 5.73770516e-003, 0.,
          1.63934426e-003, 0., 0., 1.63934426e-003, 4.91803279e-003, 0.,
          1.63934426e-003, 0., 2.45901640e-003, 0., 0., 1.06557375e-002,
          1.63934426e-003, 2.45901640e-003 ]
      - [ 0., 0., 0., 0., 2.35294108e-003, 0., 0., 0., 0., 0., 0., 0.,
          0., 0., 0., 0., 0., 0., 0., 0., 0., 0., 0., 3.52941155e-002,
          0., 0., 0., 0., 0., 0., 0., 0., 0., 0., 0., 0., 0., 0., 0., 0.,
          0., 0., 0., 0., 0., 0., 0., 1.88235287e-002, 0., 0., 0., 0.,
          0., 0., 0., 0., 0., 0., 0., 0., 0., 1.64705869e-002, 0., 0.,
          0., 0., 0., 0., 0., 0., 0., 4.70588217e-003, 0., 0., 0., 0.,
          0., 0., 0., 0., 0., 0., 0., 0., 0., 7.05882348e-003, 0., 0.,
          0., 0., 0., 1.62352934e-001, 0., 0., 0., 0., 0., 0., 0.,
          6.35294095e-002, 0., 0., 0., 0., 0., 0., 0., 0., 0., 0., 0.,
          0., 2.11764704e-002, 0., 0., 0., 0., 0., 0., 0., 0., 0., 0.,
          0., 0., 0., 0., 0., 0., 0., 0., 0., 0., 0., 0., 0., 0., 0., 0.,
          0., 0., 0., 0., 0., 0., 0., 0., 0., 0., 2.11764704e-002, 0.,
          0., 0., 0., 0., 0., 0., 0., 0., 0., 0., 0., 0., 0., 0.,
          2.35294108e-003, 0., 0., 0., 0., 0., 0., 0., 0., 0., 0., 0.,
          0., 0., 0., 0., 0., 0., 0., 0., 0., 0., 0., 0., 0., 0., 0., 0.,
          0., 0., 0., 0., 0., 0., 0., 0., 0., 0., 0., 0., 0., 0., 0., 0.,
          0., 2.35294108e-003, 0., 0., 0., 0., 0., 0., 0., 0.,
          7.05882348e-003, 0., 0., 0., 0., 0., 0., 0., 0., 0., 0., 0.,
          0., 0., 0., 0., 0., 1.64705869e-002, 0., 0., 0., 0., 0., 0.,
          0., 0., 3.29411738e-002, 0., 0., 0., 0., 0., 0., 0., 0., 0.,
          0., 0., 0., 0., 0., 0., 0., 0., 0., 0., 0., 0., 0., 0., 0., 0.,
          0., 0., 0., 0., 5.41176461e-002, 0., 0., 0., 0., 0., 0., 0.,
          0., 0., 0., 0., 0., 0., 0., 0., 0., 0., 0., 0., 0., 0., 0., 0.,
          0., 0., 0., 0., 0., 0., 0., 0., 1.64705869e-002, 0., 0., 0.,
          0., 0., 0., 0., 0., 0., 0., 0., 0., 0., 0., 0., 0., 0.,
          2.11764704e-002, 0., 0., 0., 0., 0., 0., 0., 0., 0., 0., 0.,
          2.35294108e-003, 0., 0., 0., 0., 0., 1.05882347e-001, 0.,
          2.58823521e-002, 7.05882348e-003, 0., 0., 0., 9.41176433e-003,
          0., 0., 0., 0., 0., 0., 0., 0., 0., 0., 0., 0., 0., 0., 0., 0.,
          0., 0., 0., 0., 0., 0., 0., 0., 0., 0., 0., 0., 0., 0., 0., 0.,
          0., 0., 0., 0., 0., 0., 0., 0., 0., 0., 0., 0., 0., 0., 0., 0.,
          0., 0., 0., 0., 0., 0., 0., 0., 0., 0., 0., 0., 0., 0., 0., 0.,
          0., 0., 0., 0., 0., 0., 0., 4.70588217e-003, 0., 0., 0., 0.,
          0., 0., 0., 0., 0., 0., 0., 0., 0., 0., 0., 0., 0., 0., 0., 0.,
          0., 0., 0., 0., 0., 0., 0., 0., 1.17647052e-002, 0.,
          4.70588217e-003, 0., 0., 1.38823524e-001, 0., 0., 0., 0.,
          3.76470573e-002, 0., 0., 1.41176470e-002, 0., 0., 0., 0., 0.,
          0., 0., 0., 0., 0., 0., 0., 0., 0., 0., 0., 0., 0., 0., 0., 0.,
          0., 0., 0., 0., 0., 0., 0., 0., 0., 0., 0., 0., 0.,
          2.82352939e-002, 0., 0., 0., 0., 0., 0., 0., 0., 0., 0., 0.,
          0., 0., 0., 0., 1.41176470e-002, 0., 2.58823521e-002, 0., 0.,
          0., 0., 0., 0., 0., 0., 0., 0., 0., 0., 0., 0., 0., 0., 0., 0.,
          0., 0., 0., 0., 0., 0., 0., 0., 0., 0., 0., 0., 0., 0.,
          3.29411738e-002, 0., 0., 0., 0., 0., 0., 0., 0., 0., 0., 0.,
          0., 0., 0., 0., 0., 0., 0., 3.05882338e-002, 0., 0., 0., 0.,
          0., 0., 0., 0., 0., 0., 0., 0., 0., 0., 0., 0., 0., 0., 0., 0.,
          0., 0., 0., 0., 0., 0., 0., 0., 0., 0. ]
      - [ 0., 0., 0., 0., 5.13176173e-002, 0., 0., 0., 0., 0., 0., 0.,
          0., 0., 0., 0., 0., 0., 0., 0., 0., 0., 0., 1.38696260e-003,
          0., 0., 0., 0., 0., 0., 0., 0., 0., 0., 0., 0., 0., 0., 0., 0.,
          0., 0., 0., 0., 0., 0., 0., 5.54785039e-003, 0., 0., 0., 0.,
          0., 0., 0., 0., 0., 0., 0., 0., 0., 2.49653272e-002, 0., 0.,
          0., 0., 0., 0., 0., 0., 0., 2.49653272e-002, 0., 0., 0., 0.,
          0., 0., 0., 0., 0., 0., 0., 0., 0., 3.46740633e-002, 0., 0.,
          0., 0., 0., 0., 0., 0., 0., 0., 0., 0., 0., 1.10957008e-002,
          0., 0., 0., 0., 0., 0., 0., 0., 0., 0., 0., 0.,
          5.68654649e-002, 0., 0., 0., 0., 0., 0., 0., 0., 0., 0., 0.,
          0., 0., 0., 0., 0., 0., 0., 0., 0., 0., 0., 0., 0., 0., 0., 0.,
          0., 0., 0., 0., 0., 0., 0., 0., 0., 2.08044387e-002, 0., 0.,
          0., 0., 0., 0., 0., 0., 0., 0., 0., 0., 0., 0., 0.,
          9.57004204e-002, 0., 0., 0., 0., 0., 0., 0., 0., 0., 0., 0.,
          0., 0., 0., 0., 0., 0., 0., 0., 0., 0., 0., 0., 0., 0., 0., 0.,
          0., 0., 0., 0., 0., 0., 0., 0., 0., 0., 0., 0., 0., 0., 0., 0.,
          0., 5.13176173e-002, 0., 0., 0., 0., 0., 0., 0., 0.,
          5.68654649e-002, 0., 0., 0., 0., 0., 0., 0., 0., 0., 0., 0.,
          0., 0., 0., 0., 0., 2.91262139e-002, 0., 0., 0., 0., 0., 0.,
          0., 0., 5.54785058e-002, 0., 0., 0., 0., 0., 0., 0., 0., 0.,
          0., 0., 0., 0., 0., 0., 0., 0., 0., 0., 0., 0., 0., 0., 0., 0.,
          0., 0., 0., 0., 2.21914016e-002, 0., 0., 0., 0., 0., 0., 0.,
          0., 0., 0., 0., 0., 0., 0., 0., 0., 0., 0., 0., 0., 0., 0., 0.,
          0., 0., 0., 0., 0., 0., 0., 0., 3.74479890e-002, 0., 0., 0.,
          0., 0., 0., 0., 0., 0., 0., 0., 0., 0., 0., 0., 0., 0.,
          3.05131767e-002, 0., 0., 0., 0., 0., 0., 0., 0., 0., 0., 0.,
          1.24826636e-002, 0., 0., 0., 0., 0., 5.54785039e-003, 0.,
          1.10957008e-002, 1.12343967e-001, 0., 0., 0., 1.10957008e-002,
          0., 0., 0., 0., 0., 0., 0., 0., 0., 0., 0., 0., 0., 0., 0., 0.,
          0., 0., 0., 0., 0., 0., 0., 0., 0., 0., 0., 0., 0., 0., 0., 0.,
          0., 0., 0., 0., 0., 0., 0., 0., 0., 0., 0., 0., 0., 0., 0., 0.,
          0., 0., 0., 0., 0., 0., 0., 0., 0., 0., 0., 0., 0., 0., 0., 0.,
          0., 0., 0., 0., 0., 0., 0., 0., 0., 0., 0., 0., 0., 0., 0., 0.,
          0., 0., 0., 0., 0., 0., 0., 0., 0., 0., 0., 0., 0., 0., 0., 0.,
          0., 0., 0., 0., 0., 0., 2.35783644e-002, 0., 0.,
          7.21220523e-002, 0., 0., 0., 0., 2.77392520e-003, 0., 0.,
          3.05131767e-002, 0., 0., 0., 0., 0., 0., 0., 0., 0., 0., 0.,
          0., 0., 0., 0., 0., 0., 0., 0., 0., 0., 0., 0., 0., 0., 0., 0.,
          0., 0., 0., 0., 0., 0., 0., 1.24826636e-002, 0., 0., 0., 0.,
          0., 0., 0., 0., 0., 0., 0., 0., 0., 0., 0., 4.57697660e-002,
          0., 2.63522901e-002, 0., 0., 0., 0., 0., 0., 0., 0., 0., 0.,
          0., 0., 0., 0., 0., 0., 0., 0., 0., 0., 0., 0., 0., 0., 0., 0.,
          0., 0., 0., 0., 0., 0., 1.38696264e-002, 0., 0., 0., 0., 0.,
          0., 0., 0., 0., 0., 0., 0., 0., 0., 0., 0., 0., 0.,
          9.70873795e-003, 0., 0., 0., 0., 0., 0., 0., 0., 0., 0., 0.,
          0., 0., 0., 0., 0., 0., 0., 0., 0., 0., 0., 0., 0., 0., 0., 0.,
          0., 0., 0. ]
      - [ 0., 0., 0., 0., 2.96735903e-003, 0., 0., 0., 0., 0., 0., 0.,
          0., 0., 0., 0., 0., 0., 2.04747766e-001, 0., 0., 0., 0.,
          3.85756679e-002, 0., 0., 0., 0., 0., 0., 0., 0., 0., 0., 0.,
          0., 0., 0., 0., 0., 0., 0., 0., 0., 0., 0., 0.,
          1.48367956e-002, 0., 0., 0., 0., 0., 0., 0., 0., 0., 0., 0.,
          0., 0., 1.18694361e-002, 0., 0., 0., 0., 0., 0., 0., 0., 0.,
          2.96735903e-003, 0., 0., 0., 0., 0., 0., 0., 0., 0., 0., 0.,
          0., 0., 6.23145401e-002, 0., 0., 0., 0., 0., 2.37388723e-002,
          0., 0., 0., 0., 0., 0., 0., 2.96735913e-002, 0., 0., 0., 0.,
          0., 0., 0., 0., 0., 0., 0., 0., 0., 0., 0., 0., 0., 0., 0., 0.,
          0., 0., 0., 0., 0., 0., 0., 0., 0., 0., 0., 0., 0., 0., 0., 0.,
          0., 0., 0., 0., 0., 0., 0., 0., 0., 0., 0., 0., 0.,
          8.90207663e-003, 0., 0., 0., 0., 0., 0., 0., 0., 0., 0., 0.,
          0., 0., 0., 0., 2.96735913e-002, 0., 0., 0., 0., 0., 0., 0.,
          0., 0., 0., 0., 0., 0., 0., 0., 0., 0., 0., 0., 0., 0., 0., 0.,
          0., 0., 0., 0., 0., 0., 0., 0., 0., 0., 0., 0., 0., 0., 0., 0.,
          0., 0., 0., 0., 0., 2.96735903e-003, 0., 0., 0., 0., 0., 0.,
          0., 0., 8.90207663e-003, 0., 0., 0., 0., 0., 0., 0., 0., 0.,
          0., 0., 0., 0., 0., 0., 0., 1.48367956e-002, 0., 0., 0., 0.,
          0., 0., 0., 0., 2.37388723e-002, 0., 0., 0., 0., 0., 0., 0.,
          0., 0., 0., 0., 0., 0., 0., 0., 0., 0., 0., 0., 0., 0., 0., 0.,
          0., 0., 0., 0., 0., 0., 1.18694361e-002, 0., 0., 0., 0., 0.,
          0., 0., 0., 0., 0., 0., 0., 0., 0., 0., 0., 0., 0., 0., 0., 0.,
          0., 0., 0., 0., 0., 0., 0., 0., 0., 0., 1.18694361e-002, 0.,
          0., 0., 0., 0., 0., 0., 0., 0., 0., 0., 0., 0., 0., 0., 0., 0.,
          0., 0., 0., 0., 0., 0., 0., 0., 0., 0., 0., 0.,
          8.90207663e-003, 0., 0., 0., 0., 0., 0., 0., 3.85756679e-002,
          0., 0., 0., 0., 4.15430255e-002, 0., 0., 0., 0., 0., 0., 0.,
          0., 0., 0., 0., 0., 0., 0., 0., 0., 0., 0., 0., 0., 0., 0., 0.,
          0., 0., 0., 0., 0., 0., 0., 0., 0., 0., 0., 0., 0., 0., 0., 0.,
          0., 0., 0., 0., 0., 0., 0., 0., 0., 0., 0., 0., 0., 0., 0., 0.,
          0., 0., 0., 0., 0., 0., 0., 0., 0., 0., 0., 0., 0., 0., 0., 0.,
          2.37388723e-002, 0., 0., 0., 0., 0., 0., 0., 0., 0., 0., 0.,
          0., 0., 0., 0., 0., 0., 0., 0., 0., 0., 0., 0., 0., 0., 0., 0.,
          0., 0., 0., 0., 0., 0., 1.39465868e-001, 0., 0., 0., 0.,
          1.60237387e-001, 0., 0., 3.85756679e-002, 0., 0., 0., 0., 0.,
          0., 0., 0., 0., 0., 0., 0., 0., 0., 0., 0., 0., 0., 0., 0., 0.,
          0., 0., 0., 0., 0., 0., 0., 0., 0., 0., 0., 0., 0.,
          2.96735903e-003, 0., 0., 0., 0., 0., 0., 0., 0., 0., 0., 0.,
          0., 0., 0., 0., 2.07715128e-002, 0., 0., 0., 0., 0., 0., 0.,
          0., 0., 0., 0., 0., 0., 0., 0., 0., 0., 0., 0., 0., 0., 0., 0.,
          0., 0., 0., 0., 0., 0., 0., 0., 0., 0., 0., 2.96735903e-003,
          0., 0., 0., 0., 0., 0., 0., 0., 0., 0., 0., 0., 0., 0., 0., 0.,
          0., 0., 1.78041533e-002, 0., 0., 0., 0., 0., 0., 0., 0., 0.,
          0., 0., 0., 0., 0., 0., 0., 0., 0., 0., 0., 0., 0., 0., 0., 0.,
          0., 0., 0., 0., 0. ]
      - [ 0., 0., 0., 0., 0., 0., 3.04414006e-003, 0., 0., 0.,
          6.08828012e-003, 1.67427696e-002, 0., 0., 0., 1.52206998e-002,
          0., 1.52207003e-003, 0., 0., 0., 0., 1.52207003e-003, 0., 0.,
          3.04414006e-003, 3.04414006e-003, 0., 0., 3.04414006e-003,
          1.52207003e-003, 0., 1.21765602e-002, 1.52207003e-003, 0., 0.,
          0., 0., 0., 3.04414006e-003, 0., 0., 4.56621032e-003, 0., 0.,
          0., 1.82648413e-002, 0., 0., 3.04414006e-003, 3.04414006e-003,
          0., 3.04414006e-003, 1.52207003e-003, 0., 0., 0., 0., 0., 0.,
          0., 0., 1.52207003e-003, 0., 0., 1.52207003e-003, 0., 0., 0.,
          0., 0., 0., 0., 0., 0., 1.52207003e-003, 0., 2.28310507e-002,
          0., 4.56621032e-003, 0., 1.52207003e-003, 0., 6.24048710e-002,
          1.52207003e-003, 0., 1.52207003e-003, 0., 1.21765602e-002, 0.,
          1.52207003e-003, 1.52207003e-003, 0., 0., 0., 0.,
          1.52207003e-003, 0., 3.04414006e-003, 3.04414006e-003, 0.,
          3.04414006e-003, 3.04414006e-003, 0., 3.04414006e-003, 0., 0.,
          7.61034992e-003, 0., 4.56621032e-003, 0., 0., 1.52207003e-003,
          0., 0., 0., 0., 0., 0., 1.52207003e-003, 1.52207003e-003, 0.,
          0., 0., 0., 0., 4.56621032e-003, 0., 0., 0., 0., 0., 0., 0.,
          0., 0., 0., 0., 9.13242064e-003, 0., 0., 0., 0.,
          1.52206998e-002, 0., 0., 0., 0., 0., 0., 1.82648413e-002, 0.,
          0., 0., 4.56621032e-003, 3.04414006e-003, 0., 1.52207003e-003,
          0., 0., 4.56621032e-003, 0., 7.61034992e-003, 0., 0., 0., 0.,
          0., 0., 0., 0., 0., 1.52207003e-003, 0., 0., 0.,
          9.13242064e-003, 1.52207003e-003, 1.52207003e-003, 0.,
          3.04414006e-003, 1.52207003e-003, 0., 0., 3.04414006e-003,
          4.56621032e-003, 0., 4.56621032e-003, 0., 3.04414006e-003, 0.,
          0., 0., 0., 3.80517505e-002, 1.67427696e-002, 0., 0., 0., 0.,
          0., 0., 0., 6.08828012e-003, 0., 0., 0., 1.52207003e-003, 0.,
          0., 0., 0., 0., 0., 0., 0., 1.52207003e-003, 0.,
          4.56621032e-003, 0., 0., 0., 1.52207003e-003, 0.,
          1.52207003e-003, 0., 1.52207003e-003, 3.04414006e-003, 0., 0.,
          0., 0., 0., 0., 0., 0., 0., 0., 0., 0., 1.36986300e-002,
          6.08828012e-003, 0., 0., 0., 0., 0., 0., 0., 0., 0.,
          3.04414006e-003, 0., 0., 0., 0., 0., 0., 0., 0., 0.,
          2.89193299e-002, 0., 1.52207003e-003, 0., 0., 0.,
          1.52207003e-003, 0., 1.52207003e-003, 0., 0., 1.21765602e-002,
          0., 0., 0., 0., 0., 0., 0., 1.52207003e-003, 0., 0.,
          1.52207003e-003, 1.52207003e-003, 1.21765602e-002,
          3.04414006e-003, 0., 0., 0., 1.52207003e-003, 0., 0., 0.,
          2.13089809e-002, 0., 0., 6.08828012e-003, 0., 1.52207003e-003,
          6.69710785e-002, 0., 0., 0., 0., 0., 0., 0., 1.52207003e-003,
          0., 1.52207003e-003, 0., 0., 3.04414006e-003, 0., 0., 0., 0.,
          0., 0., 1.52207003e-003, 0., 0., 4.56621032e-003, 0.,
          3.04414006e-003, 0., 0., 2.28310507e-002, 0., 0.,
          3.04414006e-003, 0., 0., 0., 0., 4.56621032e-003, 0.,
          1.52207003e-003, 0., 1.52207003e-003, 0., 0., 0.,
          3.04414006e-003, 1.52207003e-003, 1.52207003e-003, 0., 0., 0.,
          0., 0., 0., 0., 0., 9.13242064e-003, 0., 0., 0., 0., 0., 0.,
          1.52207003e-003, 0., 1.52207003e-003, 1.52206998e-002,
          1.52207003e-003, 3.04414006e-003, 0., 3.04414006e-003, 0., 0.,
          0., 1.52207003e-003, 0., 1.52207003e-003, 0., 4.56621032e-003,
          0., 0., 0., 0., 0., 0., 0., 0., 0., 0., 0., 0.,
          1.52207003e-003, 0., 0., 0., 1.52207003e-003, 0.,
          1.52207003e-003, 6.08828012e-003, 0., 0., 3.04414006e-003, 0.,
          0., 0., 0., 0., 0., 0., 0., 1.52207003e-003, 1.52207003e-003,
          0., 1.52207003e-003, 1.52207003e-003, 6.08828012e-003, 0., 0.,
          0., 0., 0., 0., 1.52207003e-003, 0., 0., 0., 1.52207003e-003,
          0., 0., 0., 0., 1.06544904e-002, 0., 3.04414006e-003, 0., 0.,
          0., 3.04414006e-003, 0., 0., 3.04414006e-003, 4.56621032e-003,
          0., 0., 1.52207003e-003, 0., 0., 9.13242064e-003, 0., 0.,
          1.52207003e-003, 0., 0., 0., 0., 0., 0., 3.04414006e-003,
          1.52207003e-003, 3.04414006e-003, 0., 0., 0., 0., 0.,
          1.52207003e-003, 7.61034992e-003, 0., 0., 1.52207003e-003, 0.,
          0., 6.08828012e-003, 0., 0., 1.52207003e-003, 0., 0.,
          7.61034992e-003, 1.52207003e-003, 3.04414006e-003, 0., 0., 0.,
          1.52207003e-003, 0., 1.52207003e-003, 1.52207003e-003,
          3.04413997e-002, 0., 0., 0., 0., 0., 0., 0., 3.04414006e-003,
          4.56621032e-003, 1.52207003e-003, 1.52207003e-003, 0.,
          1.52207003e-003, 0., 1.52207003e-003, 0., 3.04414006e-003, 0.,
          0., 0., 1.52207003e-003, 0., 1.52207003e-003, 1.52207003e-003,
          0., 0., 0., 0., 3.04414006e-003, 0., 0., 4.56621032e-003,
          7.61034992e-003, 0., 0., 3.04414006e-003, 1.52207003e-003, 0.,
          7.61034992e-003, 0., 0., 0., 1.52207003e-003, 0.,
          1.52207003e-003, 0., 0., 0., 3.04414006e-003, 1.52207003e-003,
          1.52207003e-003, 4.56621032e-003, 0., 1.52207003e-003, 0.,
          1.52207003e-003, 4.56621032e-003, 3.04414006e-003,
          1.52207003e-003, 0., 0., 0., 1.52207003e-003, 6.08828012e-003,
          6.08828012e-003, 0., 0., 1.52207003e-003, 1.52207003e-003,
          1.52207003e-003, 0., 0., 0., 0., 0., 0., 0., 1.52207003e-003,
          0., 0., 1.52207003e-003, 1.52207003e-003, 1.52207003e-003,
          1.52207003e-003, 3.04414006e-003, 0., 1.52207003e-003, 0., 0.,
          1.52207003e-003, 0., 0., 0., 1.52207003e-003, 0., 0., 0., 0.,
          4.56621032e-003, 3.04414006e-003, 0., 1.52207003e-003,
          4.56621032e-003, 1.82648413e-002, 0., 3.04414006e-003,
          1.52207003e-003, 1.52207003e-003, 0., 0., 1.52207003e-003, 0. ]
      - [ 0., 0., 2.52525252e-003, 0., 0., 2.52525252e-003,
          2.52525252e-003, 0., 0., 7.57575780e-003, 0., 0., 0., 0., 0.,
          0., 0., 1.01010101e-002, 0., 2.52525252e-003, 0., 0.,
          2.52525252e-003, 0., 2.52525252e-003, 2.52525252e-003, 0.,
          5.05050505e-003, 5.05050505e-003, 0., 1.01010101e-002, 0., 0.,
          5.05050505e-003, 2.52525252e-003, 2.52525252e-003, 0.,
          5.05050505e-003, 2.52525252e-003, 0., 0., 0., 2.52525252e-003,
          0., 2.52525252e-003, 0., 0., 0., 0., 0., 2.52525252e-003, 0.,
          0., 2.52525252e-003, 0., 2.52525252e-003, 0., 0., 0.,
          7.57575780e-003, 5.05050505e-003, 0., 0., 0., 5.05050505e-003,
          0., 0., 5.05050505e-003, 2.52525252e-003, 0., 0., 0., 0., 0.,
          0., 0., 0., 0., 0., 5.05050505e-003, 0., 0., 0., 0., 0., 0.,
          0., 0., 0., 0., 0., 0., 0., 5.05050505e-003, 5.05050505e-003,
          0., 2.52525252e-003, 0., 0., 0., 7.57575780e-003, 0.,
          2.52525252e-003, 0., 0., 2.52525252e-003, 0., 0.,
          2.52525252e-003, 0., 0., 0., 0., 0., 0., 0., 0., 0., 0., 0.,
          0., 2.52525252e-003, 0., 0., 0., 0., 7.57575780e-003, 0., 0.,
          0., 5.05050505e-003, 5.05050505e-003, 5.05050505e-003,
          2.52525252e-003, 2.52525252e-003, 0., 0., 0., 0.,
          2.52525252e-003, 0., 2.52525252e-003, 0., 2.52525252e-003, 0.,
          5.05050505e-003, 0., 0., 0., 0., 5.05050505e-003,
          1.51515156e-002, 2.52525252e-003, 0., 2.52525252e-003,
          5.05050505e-003, 0., 0., 0., 2.52525252e-003, 0., 0.,
          2.77777780e-002, 0., 0., 0., 2.52525252e-003, 0.,
          2.52525252e-003, 0., 1.01010101e-002, 2.52525252e-003, 0., 0.,
          0., 0., 7.57575780e-003, 1.01010101e-002, 2.52525252e-003, 0.,
          0., 0., 0., 0., 5.05050505e-003, 0., 0., 0., 2.52525252e-003,
          0., 0., 2.52525252e-003, 2.52525252e-003, 0., 0., 0.,
          2.52525252e-003, 0., 0., 0., 0., 2.52525252e-003, 0., 0.,
          2.52525252e-003, 0., 0., 2.52525252e-003, 0., 0., 0., 0.,
          2.52525252e-003, 0., 5.05050505e-003, 0., 0., 0.,
          5.05050505e-003, 0., 0., 4.04040404e-002, 1.16161615e-001, 0.,
          2.52525252e-003, 2.52525252e-003, 5.05050505e-003, 0.,
          7.57575780e-003, 2.52525252e-003, 0., 2.52525252e-003, 0.,
          2.52525252e-003, 0., 0., 0., 2.52525252e-003, 0., 0., 0., 0.,
          0., 0., 0., 0., 5.05050505e-003, 0., 0., 7.57575780e-003,
          2.52525252e-003, 0., 0., 0., 0., 0., 7.57575780e-003,
          2.52525252e-003, 0., 2.52525252e-003, 0., 0., 0., 0., 0., 0.,
          2.52525252e-003, 1.01010101e-002, 2.52525252e-003,
          5.05050505e-003, 0., 0., 0., 0., 0., 0., 0., 0., 0.,
          2.52525252e-003, 0., 5.05050505e-003, 0., 1.01010101e-002, 0.,
          0., 0., 0., 0., 0., 0., 0., 0., 0., 0., 0., 0., 0., 0., 0., 0.,
          2.52525252e-003, 5.05050505e-003, 0., 0., 0., 2.52525252e-003,
          0., 0., 0., 5.05050505e-003, 0., 0., 0., 7.57575780e-003,
          5.05050505e-003, 7.57575780e-003, 0., 0., 0., 2.52525252e-003,
          0., 0., 0., 0., 0., 0., 5.05050505e-003, 2.52525252e-003, 0.,
          7.57575780e-003, 2.52525252e-003, 0., 0., 2.52525252e-003, 0.,
          0., 0., 0., 5.05050505e-003, 0., 5.05050505e-003, 0., 0.,
          2.52525252e-003, 0., 0., 5.05050505e-003, 0., 0., 0., 0., 0.,
          0., 0., 0., 0., 0., 2.52525252e-003, 0., 0., 7.57575780e-003,
          0., 0., 0., 7.57575780e-003, 0., 0., 2.52525252e-003, 0., 0.,
          0., 0., 5.05050505e-003, 0., 0., 2.52525252e-003,
          5.05050505e-003, 2.52525252e-003, 2.52525252e-003,
          2.52525252e-003, 0., 7.57575780e-003, 0., 0., 0., 0., 0.,
          7.57575780e-003, 0., 0., 2.52525252e-003, 0., 0.,
          2.52525252e-003, 0., 0., 0., 0., 0., 0., 0., 2.52525252e-003,
          2.52525252e-003, 0., 1.26262624e-002, 0., 0., 2.52525252e-003,
          0., 0., 0., 5.05050505e-003, 2.52525252e-003, 2.52525252e-003,
          0., 0., 0., 0., 7.57575780e-003, 0., 0., 0., 0., 0.,
          4.54545468e-002, 0., 2.52525252e-003, 2.52525252e-003, 0., 0.,
          0., 0., 0., 0., 0., 0., 0., 5.05050505e-003, 0., 0., 0., 0.,
          0., 0., 0., 0., 0., 0., 0., 0., 0., 2.52525252e-003, 0., 0.,
          0., 0., 0., 7.57575780e-003, 0., 0., 0., 0., 0., 0.,
          2.52525252e-003, 5.05050505e-003, 2.52525252e-003, 0.,
          7.57575780e-003, 2.52525252e-003, 0., 5.05050505e-003, 0., 0.,
          0., 0., 5.05050505e-003, 0., 2.52525252e-003, 5.05050505e-003,
          0., 2.52525252e-003, 2.52525252e-003, 0., 5.05050505e-003, 0.,
          0., 0., 0., 0., 5.05050505e-003, 2.52525252e-003, 0., 0., 0.,
          5.05050505e-003, 0., 5.05050505e-003, 0., 0., 0.,
          2.52525252e-003, 0., 0., 0., 0., 2.52525252e-003, 0., 0., 0.,
          7.57575780e-003, 0., 0., 0., 0., 0., 0., 0., 2.52525252e-003,
          2.52525252e-003, 0., 0., 2.52525252e-003, 0., 0., 0., 0., 0.,
          0., 2.52525252e-003, 0., 7.57575780e-003, 2.52525252e-003,
          2.52525252e-003, 0., 0., 5.05050505e-003, 0., 0., 0.,
          2.52525252e-003, 2.52525252e-003, 0., 0., 2.52525252e-003,
          2.52525252e-003, 0., 0., 5.05050505e-003, 0., 0.,
          1.01010101e-002, 1.26262624e-002, 0., 0., 0., 0.,
          2.52525252e-003, 0., 0., 0., 5.05050505e-003, 0., 0.,
          5.05050505e-003, 0., 0., 0., 0., 2.52525252e-003, 0., 0., 0.,
          0., 0., 0., 5.05050505e-003, 0., 0., 0., 0., 0., 0., 0., 0.,
          0., 0., 0., 5.05050505e-003, 5.05050505e-003, 0.,
          7.57575780e-003, 0., 2.52525252e-003, 0., 2.52525252e-003, 0.,
          0., 2.52525252e-003 ]
      - [ 2.73597823e-003, 0., 0., 1.36798911e-003, 0., 1.36798911e-003,
          0., 0., 1.36798911e-003, 1.36798911e-003, 0., 0., 0.,
          1.36798911e-003, 0., 1.36798911e-003, 0., 1.23119019e-002, 0.,
          0., 6.83994545e-003, 0., 4.10396745e-003, 0., 0.,
          1.36798911e-003, 1.36798911e-003, 0., 1.36798911e-003, 0., 0.,
          0., 8.20793491e-003, 0., 2.73597823e-003, 0., 1.36798911e-003,
          1.36798911e-003, 0., 1.36798911e-003, 4.10396745e-003,
          1.36798911e-003, 9.57592390e-003, 1.36798911e-003,
          1.36798911e-003, 0., 2.73597823e-003, 0., 0., 0.,
          1.36798911e-003, 1.36798911e-003, 0., 0., 0., 2.73597823e-003,
          8.20793491e-003, 2.73597823e-003, 1.36798911e-003,
          5.47195645e-003, 0., 0., 1.36798911e-003, 0., 0.,
          4.10396745e-003, 0., 0., 0., 0., 0., 0., 4.10396745e-003, 0.,
          0., 0., 1.36798911e-003, 0., 4.10396745e-003, 5.47195645e-003,
          0., 0., 0., 1.36798911e-003, 2.73597823e-003, 0.,
          2.73597823e-003, 1.36798909e-002, 0., 0., 0., 0., 0., 0.,
          5.47195645e-003, 0., 2.73597823e-003, 1.36798911e-003, 0., 0.,
          4.10396745e-003, 0., 5.47195645e-003, 1.36798911e-003,
          5.47195645e-003, 0., 1.36798911e-003, 0., 0., 1.36798911e-003,
          1.36798911e-003, 0., 0., 0., 1.36798911e-003, 2.73597823e-003,
          1.36798911e-003, 0., 0., 5.47195645e-003, 1.36798911e-003, 0.,
          1.36798911e-003, 2.73597823e-003, 1.36798911e-003, 0., 0.,
          4.10396745e-003, 0., 0., 1.36798911e-003, 0., 1.36798911e-003,
          0., 6.83994545e-003, 0., 8.20793491e-003, 5.47195645e-003, 0.,
          0., 4.10396745e-003, 0., 0., 2.73597823e-003, 0.,
          5.47195645e-003, 0., 2.73597823e-003, 0., 0., 0., 0.,
          1.36798909e-002, 0., 0., 0., 1.36798911e-003, 1.36798911e-003,
          0., 4.10396745e-003, 0., 6.83994545e-003, 1.64158698e-002, 0.,
          1.36798911e-003, 0., 2.73597823e-003, 1.36798911e-003,
          5.47195645e-003, 0., 0., 0., 0., 2.73597823e-003,
          2.73597823e-003, 1.36798911e-003, 1.36798911e-003,
          2.73597823e-003, 0., 0., 0., 1.36798911e-003, 0.,
          3.00957598e-002, 0., 4.10396745e-003, 0., 0., 2.73597823e-003,
          1.36798911e-003, 1.36798911e-003, 1.36798911e-003, 0.,
          1.36798911e-003, 1.36798911e-003, 1.09439129e-002,
          1.36798911e-003, 1.36798911e-003, 0., 1.36798911e-003, 0.,
          2.73597823e-003, 2.73597823e-003, 1.36798911e-003,
          4.10396745e-003, 0., 4.10396745e-003, 0., 2.73597823e-003, 0.,
          0., 0., 0., 2.73597823e-003, 4.10396745e-003, 1.36798911e-003,
          1.36798911e-003, 0., 2.73597823e-003, 0., 0., 9.57592390e-003,
          6.83994545e-003, 1.36798911e-003, 0., 0., 0., 0., 0.,
          1.36798911e-003, 1.36798911e-003, 0., 0., 0., 1.36798911e-003,
          0., 0., 0., 2.73597823e-003, 1.36798911e-003, 1.36798911e-003,
          0., 0., 1.36798911e-003, 1.36798911e-003, 0., 1.23119019e-002,
          0., 1.36798911e-003, 4.10396745e-003, 0., 0., 0.,
          5.47195645e-003, 1.50478799e-002, 0., 0., 1.36798911e-003,
          5.47195645e-003, 0., 4.10396745e-003, 0., 0., 0.,
          8.20793491e-003, 2.73597823e-003, 0., 1.50478799e-002,
          2.73597823e-003, 0., 2.73597823e-003, 4.10396745e-003,
          4.10396745e-003, 2.73597823e-003, 5.47195645e-003, 0., 0.,
          4.10396745e-003, 0., 0., 1.36798911e-003, 8.20793491e-003,
          1.36798911e-003, 9.57592390e-003, 0., 0., 2.73597823e-003,
          1.36798911e-003, 1.36798911e-003, 0., 1.36798911e-003, 0., 0.,
          4.10396745e-003, 5.47195645e-003, 0., 2.73597823e-003,
          1.36798911e-003, 2.73597823e-003, 0., 2.73597823e-003, 0.,
          2.73597823e-003, 0., 1.36798911e-003, 0., 1.36798911e-003, 0.,
          0., 0., 0., 0., 1.36798911e-003, 0., 0., 0., 0., 0.,
          1.36798911e-003, 0., 1.36798911e-003, 0., 0., 0., 0., 0., 0.,
          0., 0., 1.36798911e-003, 2.73597823e-003, 2.73597823e-003,
          1.36798911e-003, 0., 1.36798911e-003, 4.10396745e-003,
          1.36798911e-003, 0., 0., 0., 1.36798911e-003, 0., 0., 0., 0.,
          0., 0., 1.36798911e-003, 2.73597823e-003, 1.36798911e-003, 0.,
          1.36798911e-003, 0., 1.36798911e-003, 0., 0., 0.,
          1.36798911e-003, 0., 1.36798911e-003, 0., 1.36798911e-003,
          5.47195645e-003, 1.36798911e-003, 4.10396745e-003,
          1.36798911e-003, 0., 2.73597823e-003, 0., 0., 1.36798911e-003,
          1.36798911e-003, 1.36798911e-003, 0., 0., 0., 0.,
          2.73597823e-003, 5.47195645e-003, 1.36798911e-003, 0., 0., 0.,
          1.36798911e-003, 0., 0., 0., 0., 4.10396745e-003, 0.,
          2.73597823e-003, 0., 0., 0., 1.36798911e-003, 4.10396745e-003,
          5.47195645e-003, 0., 2.73597823e-003, 0., 0., 0., 0.,
          2.73597823e-003, 0., 0., 4.10396745e-003, 0., 6.83994545e-003,
          0., 5.47195645e-003, 0., 0., 0., 2.73597823e-003,
          1.36798911e-003, 0., 0., 1.36798911e-003, 1.36798911e-003,
          4.10396745e-003, 0., 0., 0., 1.36798911e-003, 1.36798911e-003,
          1.36798911e-003, 0., 4.10396745e-003, 0., 1.36798911e-003, 0.,
          2.73597823e-003, 0., 4.10396745e-003, 0., 1.50478799e-002,
          1.36798911e-003, 1.36798911e-003, 1.09439129e-002, 0.,
          2.73597823e-003, 2.73597823e-003, 1.36798911e-003,
          4.10396745e-003, 0., 4.10396745e-003, 0., 0., 0.,
          4.10396745e-003, 0., 0., 0., 1.36798911e-003, 4.10396745e-003,
          0., 1.36798911e-003, 9.57592390e-003, 1.36798911e-003, 0., 0.,
          0., 0., 0., 0., 0., 4.10396745e-003, 0., 1.36798911e-003,
          2.73597823e-003, 0., 1.36798911e-003, 0., 0., 4.10396745e-003,
          4.10396745e-003, 1.36798911e-003, 0., 1.36798911e-003,
          5.47195645e-003, 4.10396745e-003, 2.73597823e-003,
          2.73597823e-003, 1.36798911e-003, 5.47195645e-003,
          9.57592390e-003, 0., 1.36798911e-003, 0., 1.36798911e-003,
          1.36798911e-003, 5.47195645e-003, 0., 1.36798911e-003,
          1.36798911e-003, 0., 0., 4.10396745e-003, 0., 0.,
          2.73597823e-003, 0., 4.10396745e-003, 1.36798911e-003, 0., 0.,
          1.36798911e-003, 0., 1.36798911e-003, 1.36798911e-003, 0., 0.,
          5.47195645e-003, 0., 0., 0., 0., 1.36798911e-003,
          8.20793491e-003, 0., 1.36798911e-003, 4.10396745e-003,
          1.36798911e-003, 0., 1.36798911e-003, 1.36798911e-003,
          4.10396745e-003, 0., 1.36798911e-003, 2.73597823e-003, 0.,
          2.73597823e-003, 1.36798911e-003, 2.73597823e-003, 0., 0.,
          5.47195645e-003, 1.36798911e-003, 2.73597823e-003, 0.,
          6.83994545e-003, 0., 0., 0., 1.36798911e-003, 9.57592390e-003,
          0., 5.47195645e-003, 4.10396745e-003, 0., 1.36798909e-002,
          1.36798911e-003, 0., 1.36798911e-003, 0., 0., 0.,
          2.73597823e-003, 0., 0., 0., 0., 0., 1.36798911e-003,
          5.47195645e-003, 1.36798911e-003, 2.73597823e-003, 0., 0.,
          1.36798911e-003, 4.10396745e-003, 1.36798911e-003,
          2.73597823e-003, 0., 1.36798911e-003, 0., 1.36798911e-003,
          1.36798911e-003, 2.73597823e-003, 0., 0., 1.36798911e-003,
          2.73597823e-003, 0., 1.36798911e-003, 0., 1.36798911e-003, 0.,
          0., 5.47195645e-003, 2.73597823e-003, 1.36798911e-003,
          4.10396745e-003, 0., 0., 1.36798911e-003, 4.10396745e-003, 0.,
          6.83994545e-003 ]
      - [ 0., 0., 3.71747208e-003, 0., 0., 3.71747208e-003,
          3.71747208e-003, 0., 0., 0., 0., 0., 0., 0., 0., 0., 0.,
          1.30111519e-002, 0., 3.71747208e-003, 1.85873604e-003, 0.,
          3.71747208e-003, 0., 5.57620823e-003, 0., 0., 0.,
          1.67286247e-002, 0., 1.85873604e-003, 0., 7.43494416e-003, 0.,
          1.85873604e-003, 3.71747208e-003, 1.85873604e-003, 0., 0., 0.,
          0., 1.85873604e-003, 0., 0., 0., 0., 0., 0., 3.71747208e-003,
          5.57620823e-003, 5.57620823e-003, 0., 1.85873604e-003, 0., 0.,
          0., 0., 0., 0., 3.71747208e-003, 0., 0., 1.85873604e-003, 0.,
          0., 0., 0., 1.85873604e-003, 7.43494416e-003, 0., 0., 0.,
          9.29368008e-003, 0., 5.57620823e-003, 0., 0., 0., 0.,
          5.57620823e-003, 1.85873604e-003, 3.71747208e-003, 0., 0.,
          3.71747208e-003, 0., 0., 0., 5.57620823e-003, 0., 0., 0., 0.,
          0., 3.71747208e-003, 0., 9.29368008e-003, 0., 0., 0., 0., 0.,
          0., 0., 0., 1.30111519e-002, 0., 0., 0., 0., 5.57620823e-003,
          0., 0., 0., 0., 1.85873604e-003, 0., 0., 0., 0.,
          1.85873604e-003, 0., 0., 0., 0., 0., 0., 0., 0., 0.,
          7.43494416e-003, 1.85873604e-003, 1.85873604e-003,
          1.85873604e-003, 1.85873604e-003, 0., 0., 1.85873604e-003,
          1.85873604e-003, 3.71747208e-003, 0., 1.85873604e-003, 0., 0.,
          0., 3.71747208e-003, 0., 0., 0., 0., 0., 5.57620823e-003, 0.,
          0., 0., 1.85873602e-002, 0., 0., 0., 7.43494416e-003, 0., 0.,
          7.43494416e-003, 0., 5.57620823e-003, 0., 9.29368008e-003, 0.,
          1.85873604e-003, 0., 1.30111519e-002, 0., 1.85873604e-003, 0.,
          0., 0., 0., 1.85873604e-003, 0., 1.85873604e-003, 0., 0.,
          1.85873604e-003, 0., 3.71747208e-003, 0., 0., 0.,
          3.71747208e-003, 0., 0., 3.71747208e-003, 1.85873604e-003,
          1.85873604e-003, 0., 7.43494416e-003, 0., 0., 0., 0., 0.,
          3.71747208e-003, 2.23048329e-002, 0., 1.85873604e-003, 0., 0.,
          3.71747208e-003, 0., 0., 0., 0., 1.85873604e-003, 0., 0., 0.,
          0., 3.71747208e-003, 0., 0., 0., 1.85873604e-003, 0., 0.,
          1.85873604e-003, 0., 0., 0., 0., 0., 0., 0., 0.,
          1.85873604e-003, 0., 0., 0., 0., 1.85873604e-003,
          3.71747208e-003, 3.71747208e-003, 0., 0., 5.57620823e-003, 0.,
          0., 7.43494416e-003, 0., 1.85873604e-003, 0., 0.,
          1.85873604e-003, 0., 1.85873604e-003, 0., 0., 3.71747208e-003,
          3.71747208e-003, 1.30111519e-002, 3.71747208e-003, 0., 0., 0.,
          0., 0., 0., 7.43494416e-003, 3.71747208e-003, 1.85873604e-003,
          0., 7.43494416e-003, 0., 1.30111519e-002, 0., 0., 0., 0., 0.,
          1.85873604e-003, 0., 7.43494416e-003, 0., 0., 1.48698883e-002,
          0., 3.71747208e-003, 3.90334576e-002, 0., 3.71747208e-003,
          3.71747208e-003, 0., 0., 0., 0., 0., 7.43494416e-003, 0., 0.,
          0., 1.30111519e-002, 1.85873604e-003, 0., 1.85873604e-003,
          1.85873604e-003, 1.85873604e-003, 0., 5.57620823e-003, 0., 0.,
          0., 0., 0., 0., 0., 1.85873604e-003, 3.71747208e-003, 0., 0.,
          0., 0., 0., 0., 1.85873604e-003, 0., 0., 0., 0., 0., 0., 0.,
          0., 5.57620823e-003, 0., 0., 3.71747208e-003, 0., 0., 0., 0.,
          0., 3.71747208e-003, 9.29368008e-003, 0., 0., 0., 0., 0., 0.,
          0., 0., 0., 3.71747208e-003, 0., 0., 0., 0., 1.85873604e-003,
          0., 0., 0., 0., 5.57620823e-003, 3.71747208e-003, 0., 0., 0.,
          0., 0., 0., 0., 0., 0., 0., 0., 0., 0., 0., 1.85873604e-003,
          0., 0., 0., 1.85873604e-003, 3.71747208e-003, 0.,
          1.85873604e-003, 3.71747208e-003, 0., 0., 1.85873604e-003,
          5.57620823e-003, 0., 0., 0., 0., 1.85873604e-003, 0., 0., 0.,
          0., 0., 0., 0., 0., 0., 1.85873604e-003, 0., 0.,
          1.85873604e-003, 3.71747208e-003, 0., 0., 0., 3.71747208e-003,
          1.85873604e-003, 1.85873604e-003, 1.85873604e-003, 0., 0., 0.,
          0., 1.85873604e-003, 1.85873604e-003, 0., 0., 0.,
          2.97397766e-002, 0., 0., 0., 0., 1.85873604e-003,
          1.85873604e-003, 9.29368008e-003, 0., 0., 0., 0.,
          1.85873604e-003, 7.43494416e-003, 7.43494416e-003, 0.,
          1.85873604e-003, 0., 0., 0., 0., 7.43494416e-003, 0., 0., 0.,
          0., 0., 1.48698883e-002, 0., 9.29368008e-003, 0., 0., 0.,
          3.71747208e-003, 7.43494416e-003, 0., 0., 0., 0., 0., 0., 0.,
          5.57620823e-003, 0., 0., 7.43494416e-003, 0., 0.,
          1.85873604e-003, 0., 0., 0., 0., 0., 1.85873604e-003, 0.,
          1.85873604e-003, 0., 0., 0., 3.71747208e-003, 1.85873604e-003,
          0., 0., 0., 0., 0., 0., 0., 0., 1.30111519e-002, 0., 0., 0.,
          0., 3.71747208e-003, 0., 0., 0., 1.85873604e-003, 0.,
          5.57620823e-003, 0., 0., 0., 0., 1.85873604e-003,
          9.29368008e-003, 5.57620823e-003, 0., 0., 0., 0., 0., 0.,
          1.85873604e-003, 0., 0., 0., 0., 0., 0., 0., 0.,
          1.11524165e-002, 7.43494416e-003, 0., 0., 0., 0., 0., 0., 0.,
          0., 1.85873604e-003, 0., 0., 1.85873604e-003, 0., 0.,
          1.85873604e-003, 1.48698883e-002, 0., 1.85873604e-003,
          5.57620823e-003, 0., 9.29368008e-003, 2.04460956e-002, 0.,
          1.85873604e-003, 0., 1.85873604e-003, 0., 0., 0., 0., 0.,
          1.85873604e-003, 1.85873604e-003, 0., 1.30111519e-002, 0.,
          1.85873604e-003, 7.43494416e-003, 0., 0., 0., 7.43494416e-003,
          1.85873604e-003, 1.11524165e-002, 5.57620823e-003, 0., 0.,
          3.71747208e-003, 0., 1.85873604e-003, 0., 0., 0., 0., 0.,
          1.48698883e-002, 1.85873604e-003, 0., 1.85873604e-003,
          1.48698883e-002, 0., 1.85873604e-003, 1.67286247e-002,
          7.43494416e-003, 0., 3.71747208e-003, 0., 1.85873604e-003, 0. ]
      - [ 0., 0., 0., 1.64203614e-003, 0., 0., 3.28407227e-003, 0., 0.,
          0., 4.92610829e-003, 4.92610829e-003, 1.64203614e-003, 0., 0.,
          9.85221658e-003, 0., 0., 0., 0., 0., 6.56814454e-003, 0., 0.,
          1.64203614e-003, 1.14942528e-002, 4.92610829e-003, 0., 0., 0.,
          0., 0., 3.28407227e-003, 0., 0., 0., 0., 0., 0., 0.,
          3.28407227e-003, 0., 2.95566507e-002, 3.28407227e-003, 0.,
          1.64203614e-003, 4.92610829e-003, 0., 0., 0., 1.64203614e-003,
          0., 1.64203614e-003, 0., 1.64203614e-003, 0., 0., 0., 0.,
          6.56814454e-003, 6.56814454e-003, 0., 0., 0., 0., 0.,
          4.92610829e-003, 1.64203614e-003, 0., 0., 1.64203614e-003, 0.,
          8.21018033e-003, 0., 0., 0., 1.64203614e-003, 4.92610829e-003,
          1.64203614e-003, 0., 0., 0., 1.64203614e-003, 3.28407227e-003,
          1.64203614e-003, 0., 1.31362891e-002, 1.64203614e-003,
          4.92610829e-003, 0., 0., 1.64203614e-003, 0., 0.,
          3.28407227e-003, 0., 8.21018033e-003, 0., 3.28407227e-003,
          1.64203614e-003, 0., 0., 3.28407227e-003, 0., 3.28407227e-003,
          0., 0., 1.64203614e-003, 1.64203614e-003, 1.64203614e-003, 0.,
          0., 0., 0., 1.64203614e-003, 0., 0., 1.64203614e-003, 0.,
          1.80623978e-002, 0., 3.28407227e-003, 0., 0., 1.64203614e-003,
          0., 0., 1.64203607e-002, 4.92610829e-003, 1.64203614e-003,
          3.28407227e-003, 0., 1.64203614e-003, 0., 0., 4.92610829e-003,
          0., 3.28407227e-003, 3.28407227e-003, 1.64203614e-003, 0.,
          3.28407227e-003, 3.28407227e-003, 1.14942528e-002,
          3.28407227e-003, 0., 0., 3.28407227e-003, 0., 0.,
          4.92610829e-003, 0., 0., 0., 0., 4.92610829e-003, 0.,
          4.92610829e-003, 0., 0., 0., 3.28407227e-003, 0., 0.,
          1.64203614e-003, 0., 0., 0., 1.64203614e-003, 0., 0.,
          3.28407227e-003, 0., 0., 4.92610829e-003, 0., 4.92610829e-003,
          4.92610829e-003, 3.28407227e-003, 0., 4.92610829e-003, 0., 0.,
          0., 0., 9.85221658e-003, 0., 0., 1.64203614e-003, 0., 0.,
          1.64203614e-003, 0., 1.64203614e-003, 1.47783253e-002,
          1.14942528e-002, 1.64203614e-003, 0., 0., 0., 0.,
          4.92610829e-003, 0., 0., 1.64203614e-003, 1.64203614e-003,
          1.64203614e-003, 4.92610829e-003, 0., 0., 1.64203614e-003, 0.,
          1.64203614e-003, 0., 0., 0., 8.21018033e-003, 3.28407227e-003,
          6.56814454e-003, 3.28407227e-003, 0., 6.56814454e-003,
          8.21018033e-003, 0., 6.56814454e-003, 3.28407227e-003, 0., 0.,
          0., 0., 0., 1.64203614e-003, 0., 0., 0., 0., 0., 0.,
          1.64203614e-003, 1.64203614e-003, 1.80623978e-002,
          1.64203614e-003, 0., 0., 0., 0., 0., 0., 0., 1.64203614e-003,
          1.64203614e-003, 0., 0., 0., 1.64203614e-003, 0., 0., 0., 0.,
          0., 0., 1.80623978e-002, 0., 0., 3.28407227e-003, 0.,
          1.64203614e-003, 0., 1.64203614e-003, 0., 0., 3.28407227e-003,
          3.28407227e-003, 0., 1.64203614e-003, 0., 0., 1.64203614e-003,
          0., 0., 0., 1.64203614e-003, 0., 0., 0., 3.28407227e-003,
          1.64203614e-003, 0., 1.64203614e-003, 0., 1.14942528e-002, 0.,
          0., 0., 8.21018033e-003, 0., 1.64203614e-003, 0.,
          1.64203614e-003, 3.28407227e-003, 3.28407227e-003, 0.,
          1.64203614e-003, 0., 0., 1.64203614e-003, 1.64203614e-003, 0.,
          1.64203614e-003, 0., 0., 1.64203614e-003, 1.64203614e-003,
          1.64203614e-003, 0., 1.64203614e-003, 0., 3.28407227e-003,
          1.64203614e-003, 0., 4.92610829e-003, 0., 0., 1.64203614e-003,
          0., 0., 0., 0., 2.46305428e-002, 0., 0., 0., 0.,
          4.92610829e-003, 9.85221658e-003, 8.21018033e-003, 0., 0.,
          1.64203614e-003, 0., 1.64203614e-003, 0., 0., 0.,
          1.64203614e-003, 0., 1.64203614e-003, 0., 1.64203614e-003, 0.,
          0., 3.28407227e-003, 0., 0., 1.64203614e-003, 9.85221658e-003,
          0., 0., 0., 0., 0., 0., 0., 0., 0., 6.56814454e-003, 0.,
          4.59770113e-002, 0., 0., 1.64203614e-003, 0., 0., 0., 0., 0.,
          0., 1.64203614e-003, 0., 0., 0., 0., 1.64203614e-003, 0.,
          4.92610829e-003, 0., 6.56814454e-003, 0., 3.28407227e-003,
          1.64203614e-003, 1.64203614e-003, 0., 0., 3.28407227e-003, 0.,
          1.64203614e-003, 3.28407213e-002, 1.64203614e-003, 0., 0., 0.,
          0., 0., 0., 0., 0., 0., 1.64203614e-003, 0., 3.28407227e-003,
          1.64203614e-003, 0., 0., 6.56814454e-003, 1.64203614e-003,
          1.64203614e-003, 3.28407227e-003, 0., 0., 1.64203614e-003, 0.,
          0., 0., 0., 0., 9.85221658e-003, 0., 0., 0., 1.64203614e-003,
          0., 0., 3.28407227e-003, 0., 3.28407227e-003, 3.28407227e-003,
          4.92610829e-003, 1.64203614e-003, 1.64203614e-003,
          3.28407227e-003, 0., 3.28407227e-003, 0., 0., 1.31362891e-002,
          0., 3.28407227e-003, 1.64203614e-003, 0., 0., 0., 0., 0., 0.,
          0., 1.64203614e-003, 0., 4.92610829e-003, 1.64203614e-003, 0.,
          0., 0., 0., 0., 0., 0., 1.64203614e-003, 0., 4.92610829e-003,
          0., 0., 1.14942528e-002, 0., 0., 0., 0., 1.14942528e-002, 0.,
          0., 0., 1.64203614e-003, 0., 0., 1.64203614e-003, 0.,
          4.92610829e-003, 1.64203614e-003, 0., 0., 0., 0., 0.,
          1.64203607e-002, 1.64203614e-003, 0., 0., 1.64203607e-002,
          1.64203614e-003, 0., 0., 0., 1.64203614e-003, 3.28407227e-003,
          0., 0., 1.64203614e-003, 1.64203614e-003, 0., 0., 0., 0., 0.,
          0., 0., 0., 0., 0., 0., 3.28407227e-003, 6.56814454e-003, 0.,
          0., 0., 0., 0., 6.56814454e-003, 4.92610829e-003, 0., 0., 0.,
          1.64203614e-003, 3.28407227e-003, 1.64203614e-003, 0.,
          1.64203614e-003, 0., 0., 0., 0., 0., 1.64203614e-003,
          3.28407227e-003, 0., 3.28407227e-003, 0., 1.64203614e-003,
          1.64203614e-003, 0., 0., 6.56814454e-003, 0., 1.64203614e-003,
          3.28407227e-003, 0., 0., 0., 1.64203614e-003, 0., 0., 0., 0.,
          0., 0., 0., 0., 1.64203614e-003, 0., 0., 0., 0., 0., 0.,
          3.28407227e-003, 0., 1.64203614e-003, 0., 0., 0., 0., 0., 0.,
          4.92610829e-003, 1.64203614e-003, 3.28407227e-003, 0., 0., 0.,
          1.64203614e-003, 1.64203614e-003, 3.28407227e-003, 0., 0., 0.,
          0., 0., 1.64203614e-003, 0., 0., 0., 0. ]
      - [ 0., 0., 3.27011105e-003, 6.54022209e-004, 0., 3.92413326e-003,
          1.96206663e-003, 0., 1.30804442e-003, 0., 0., 0.,
          6.54022209e-004, 5.88619988e-003, 0., 0., 0., 3.27011105e-003,
          0., 6.54022209e-003, 4.57815547e-003, 5.88619988e-003,
          1.30804442e-003, 0., 1.30804442e-003, 0., 0., 0.,
          5.88619988e-003, 8.50228872e-003, 5.88619988e-003,
          3.92413326e-003, 1.96206663e-003, 1.96206663e-003,
          2.61608884e-003, 1.96206663e-003, 0., 3.92413326e-003,
          1.96206663e-003, 3.92413326e-003, 2.61608884e-003,
          6.54022209e-004, 0., 6.54022209e-004, 1.30804442e-003,
          6.54022209e-004, 7.19424430e-003, 0., 3.92413326e-003,
          1.30804442e-003, 0., 2.61608884e-003, 1.50425108e-002, 0.,
          2.61608884e-003, 1.30804442e-003, 0., 6.54022209e-003, 0.,
          2.61608884e-003, 0., 0., 0., 7.19424430e-003, 3.27011105e-003,
          6.54022209e-004, 3.27011105e-003, 5.88619988e-003,
          3.27011105e-003, 0., 6.54022209e-004, 0., 6.54022209e-004,
          1.30804442e-003, 1.30804442e-003, 0., 1.96206663e-003, 0.,
          6.54022209e-004, 6.54022209e-004, 0., 5.88619988e-003,
          6.54022209e-004, 0., 6.54022209e-004, 0., 5.23217767e-003,
          6.54022209e-004, 0., 1.96206663e-003, 3.92413326e-003, 0., 0.,
          2.61608884e-003, 1.30804442e-003, 1.96206663e-003, 0.,
          1.96206663e-003, 1.96206663e-003, 0., 0., 0., 1.96206663e-003,
          1.96206663e-003, 0., 1.30804442e-003, 4.57815547e-003,
          6.54022209e-004, 6.54022209e-003, 0., 0., 0., 0.,
          6.54022209e-004, 0., 0., 6.54022209e-004, 1.96206663e-003,
          1.96206663e-003, 0., 2.61608884e-003, 1.30804442e-003,
          1.30804442e-003, 5.23217767e-003, 2.61608884e-003,
          1.30804442e-003, 7.84826651e-003, 6.54022209e-004,
          1.96206663e-003, 0., 0., 6.54022209e-004, 0., 1.30804442e-003,
          2.61608884e-003, 6.54022209e-004, 2.61608884e-003,
          6.54022209e-004, 0., 0., 3.27011105e-003, 5.88619988e-003,
          3.92413326e-003, 0., 0., 2.61608884e-003, 0., 4.57815547e-003,
          0., 0., 6.54022209e-004, 1.76585987e-002, 6.54022209e-004, 0.,
          2.61608884e-003, 0., 2.61608884e-003, 0., 3.92413326e-003,
          9.81033314e-003, 0., 1.96206663e-003, 1.96206663e-003, 0., 0.,
          0., 5.23217767e-003, 6.54022209e-004, 0., 0., 0.,
          6.54022209e-004, 0., 6.54022209e-004, 2.61608884e-003,
          6.54022209e-004, 7.84826651e-003, 1.96206663e-003,
          1.30804442e-003, 1.30804442e-003, 6.54022209e-004, 0.,
          3.27011105e-003, 9.81033314e-003, 3.27011105e-003, 0.,
          6.54022209e-004, 6.54022209e-004, 1.30804442e-003, 0.,
          6.54022209e-003, 6.54022209e-004, 3.92413326e-003,
          1.96206663e-003, 0., 1.30804442e-003, 6.54022209e-004, 0.,
          1.30804442e-003, 0., 7.19424430e-003, 1.96206663e-003,
          3.27011105e-003, 0., 6.54022209e-004, 0., 1.96206663e-003, 0.,
          0., 3.27011105e-003, 0., 0., 0., 1.30804442e-003,
          1.96206663e-003, 2.61608884e-003, 1.96206663e-003, 0.,
          1.30804442e-003, 0., 6.54022209e-004, 0., 4.57815547e-003, 0.,
          1.30804442e-003, 1.30804442e-003, 1.30804442e-003, 0.,
          6.54022209e-004, 1.30804442e-003, 7.84826651e-003, 0., 0., 0.,
          3.92413326e-003, 0., 0., 5.23217767e-003, 2.61608884e-003,
          3.27011105e-003, 6.54022209e-004, 1.30804442e-003, 0., 0.,
          1.30804442e-003, 0., 0., 0., 0., 0., 6.54022209e-003, 0.,
          1.96206663e-003, 3.27011105e-003, 3.27011105e-003, 0.,
          1.96206663e-003, 1.30804442e-003, 3.27011105e-003,
          1.96206663e-003, 2.61608884e-003, 0., 0., 3.27011105e-003,
          6.54022209e-004, 8.50228872e-003, 2.61608884e-003,
          3.27011105e-003, 6.54022209e-004, 3.92413326e-003, 0.,
          1.30804442e-003, 1.30804442e-003, 2.61608884e-003,
          1.96206663e-003, 0., 1.96206663e-003, 1.96206663e-003, 0., 0.,
          1.96206663e-003, 3.27011105e-003, 3.27011105e-003,
          6.54022209e-004, 6.54022209e-004, 6.54022209e-004,
          6.54022209e-004, 0., 6.54022209e-004, 6.54022209e-004, 0.,
          1.96206663e-003, 9.81033314e-003, 4.57815547e-003, 0.,
          6.54022209e-004, 6.54022209e-004, 0., 1.30804442e-003,
          5.88619988e-003, 0., 3.27011105e-003, 6.54022209e-004,
          6.54022209e-004, 1.96206663e-003, 3.27011105e-003,
          6.54022209e-004, 0., 0., 2.61608884e-003, 5.23217767e-003,
          6.54022209e-004, 1.96206663e-003, 0., 0., 6.54022209e-004,
          3.27011105e-003, 0., 3.27011105e-003, 2.61608884e-003,
          6.54022209e-004, 2.61608884e-003, 1.30804442e-003,
          1.30804442e-003, 1.96206663e-003, 0., 6.54022209e-004, 0., 0.,
          6.54022209e-004, 6.54022209e-004, 6.54022209e-004,
          1.30804442e-003, 2.61608884e-003, 0., 1.96206663e-003,
          1.56965330e-002, 0., 0., 0., 3.27011105e-003, 0., 0., 0.,
          6.54022209e-004, 0., 0., 9.81033314e-003, 1.30804442e-003,
          1.96206663e-003, 0., 0., 0., 1.30804442e-003, 1.30804442e-003,
          1.30804442e-003, 1.30804442e-003, 0., 4.57815547e-003,
          1.96206663e-003, 1.30804442e-003, 6.54022209e-004, 0.,
          1.30804442e-003, 6.54022209e-004, 0., 7.19424430e-003, 0., 0.,
          0., 1.30804442e-003, 1.30804442e-003, 0., 3.27011105e-003,
          6.54022209e-004, 2.61608884e-003, 0., 3.27011105e-003,
          4.57815547e-003, 1.96206663e-003, 6.54022209e-004,
          1.96206663e-003, 3.92413326e-003, 6.54022209e-004,
          1.96206663e-003, 0., 0., 0., 0., 2.61608884e-003,
          3.92413326e-003, 1.30804442e-003, 0., 0., 3.92413326e-003, 0.,
          0., 0., 0., 1.96206663e-003, 6.54022209e-004, 0.,
          2.61608884e-003, 3.27011105e-003, 6.54022209e-004,
          1.30804442e-003, 0., 0., 3.92413326e-003, 0., 0.,
          1.30804442e-003, 0., 3.92413326e-003, 3.92413326e-003,
          2.61608884e-003, 6.54022209e-004, 3.27011105e-003, 0., 0., 0.,
          1.96206663e-003, 0., 4.57815547e-003, 6.54022209e-004, 0., 0.,
          6.54022209e-004, 0., 0., 3.27011105e-003, 1.30804442e-003,
          1.96206663e-003, 1.30804442e-003, 1.96206663e-003,
          2.61608884e-003, 0., 1.96206663e-003, 6.54022209e-004,
          6.54022209e-004, 0., 6.54022209e-004, 3.92413326e-003, 0.,
          1.30804442e-003, 0., 3.27011105e-003, 6.54022209e-004,
          6.54022209e-004, 0., 6.54022209e-004, 0., 2.61608884e-003, 0.,
          1.30804442e-003, 2.61608884e-003, 0., 1.30804442e-003,
          2.61608884e-003, 1.30804442e-003, 1.30804442e-003, 0.,
          6.54022209e-004, 1.30804442e-003, 0., 0., 0., 6.54022209e-004,
          6.54022209e-004, 6.54022209e-004, 6.54022209e-004,
          6.54022209e-004, 6.54022209e-004, 0., 3.92413326e-003, 0., 0.,
          0., 0., 2.61608884e-003, 6.54022209e-004, 1.96206663e-003,
          1.96206663e-003, 1.30804442e-003, 0., 0., 0., 0.,
          2.61608884e-003, 0., 6.54022209e-004, 0., 6.54022209e-004, 0.,
          1.30804442e-003, 5.23217767e-003, 5.88619988e-003,
          1.96206663e-003, 0., 0., 3.27011105e-003, 3.27011105e-003, 0.,
          1.96206663e-003, 1.30804442e-003, 1.96206663e-003, 0.,
          6.54022209e-004, 0., 1.04643553e-002, 2.61608884e-003,
          5.23217767e-003, 6.54022209e-004, 3.27011105e-003, 0., 0.,
          7.19424430e-003, 0., 0., 0., 3.27011105e-003, 0.,
          1.30804442e-003, 0., 1.30804442e-003, 0., 3.27011105e-003, 0.,
          2.61608884e-003, 2.61608884e-003, 0., 6.54022209e-004,
          6.54022209e-003, 3.92413326e-003, 1.96206663e-003,
          1.30804442e-003, 0., 1.96206663e-003, 0., 1.96206663e-003,
          1.04643553e-002, 6.54022209e-004, 0., 1.96206663e-003,
          1.30804442e-003, 6.54022209e-004, 1.30804442e-003, 0., 0.,
          3.92413326e-003, 0., 6.54022209e-004, 2.61608884e-003,
          1.30804442e-003, 3.27011105e-003, 0., 7.19424430e-003,
          5.23217767e-003, 0., 0., 6.54022209e-004, 1.30804442e-003,
          6.54022209e-004, 6.54022209e-004, 6.54022209e-004,
          6.54022209e-004, 1.30804442e-003, 5.23217767e-003,
          1.30804442e-002, 0., 1.30804442e-003, 0., 1.96206663e-003,
          5.88619988e-003, 1.70045774e-002, 1.30804442e-003, 0.,
          1.30804442e-003, 0., 0., 7.19424430e-003, 0., 3.27011105e-003,
          6.54022209e-004, 1.96206663e-003, 0., 1.43884886e-002,
          1.30804442e-003, 6.54022209e-004, 0., 6.54022209e-004, 0.,
          3.92413326e-003, 5.88619988e-003, 1.30804442e-003,
          6.54022209e-004, 1.30804442e-003, 6.54022209e-004,
          6.54022209e-004, 0. ]
      - [ 1.70250889e-002, 0., 0., 0., 0., 0., 0., 0., 8.06451589e-003,
          0., 0., 0., 0., 0., 0., 0., 0., 0., 0., 0., 0., 0., 0.,
          2.68817204e-003, 0., 8.96057347e-004, 0., 2.68817204e-003, 0.,
          0., 2.68817209e-002, 0., 0., 8.96057347e-004, 0., 0., 0., 0.,
          0., 0., 0., 0., 0., 0., 0., 5.37634408e-003, 0., 0., 0.,
          9.85663105e-003, 3.04659493e-002, 8.96057347e-004, 0., 0., 0.,
          0., 1.88172050e-002, 0., 8.96057347e-004, 0., 0., 0., 0., 0.,
          8.96057347e-004, 8.96057347e-004, 0., 0., 0., 6.98924735e-002,
          2.68817204e-003, 0., 0., 0., 0., 0., 0., 6.27240166e-003, 0.,
          2.86738351e-002, 8.96057347e-004, 0., 0., 8.96057347e-004, 0.,
          0., 0., 0., 8.96057347e-004, 0., 0., 0., 0., 8.96057347e-004,
          6.27240166e-003, 0., 0., 0., 0., 0., 0., 0., 0., 0.,
          4.48028650e-003, 1.25448033e-002, 0., 0., 0., 8.96057347e-004,
          8.96057347e-004, 1.79211469e-003, 0., 0., 4.39068116e-002, 0.,
          8.96057347e-004, 0., 8.96057347e-004, 8.96057347e-004, 0., 0.,
          4.48028650e-003, 0., 0., 0., 0., 0., 0., 5.37634408e-003, 0.,
          0., 0., 8.96057347e-004, 0., 7.16845877e-003, 8.96057347e-004,
          0., 1.79211460e-002, 0., 0., 0., 2.68817204e-003, 0.,
          8.96057347e-004, 0., 8.96057347e-004, 0., 0., 0.,
          6.27240166e-003, 0., 0., 2.68817204e-003, 0., 8.06451589e-003,
          0., 0., 0., 0., 0., 1.79211469e-003, 1.79211469e-003, 0., 0.,
          0., 0., 0., 0., 0., 1.79211469e-003, 7.16845877e-003, 0.,
          3.58422939e-003, 0., 0., 0., 0., 8.96057347e-004,
          8.96057347e-004, 0., 0., 0., 0., 0., 0., 0., 5.37634408e-003,
          0., 0., 0., 0., 0., 0., 0., 0., 0., 1.52329747e-002, 0., 0.,
          0., 2.68817204e-003, 0., 2.68817204e-003, 8.96057347e-004, 0.,
          8.96057347e-004, 8.96057300e-003, 4.48028650e-003,
          2.68817204e-003, 0., 0., 0., 0., 0., 0., 0., 2.68817204e-003,
          0., 0., 0., 0., 0., 0., 6.27240166e-003, 0., 0., 0.,
          2.41935477e-002, 0., 0., 2.68817204e-003, 8.96057347e-004,
          1.79211469e-003, 0., 0., 0., 0., 0., 0., 0., 0., 0., 0.,
          3.58422939e-003, 0., 5.37634408e-003, 0., 3.58422939e-003, 0.,
          0., 0., 0., 0., 0., 8.96057347e-004, 6.27240166e-003,
          1.79211469e-003, 0., 0., 0., 8.96057347e-004, 0.,
          8.96057347e-004, 0., 0., 0., 5.37634408e-003, 8.96057347e-004,
          0., 0., 8.69175643e-002, 3.58422939e-003, 0., 0., 0., 0., 0.,
          0., 8.96057347e-004, 0., 8.96057347e-004, 0., 2.68817209e-002,
          5.37634408e-003, 0., 0., 0., 3.58422939e-003, 0., 0., 0., 0.,
          0., 0., 0., 0., 0., 0., 0., 8.96057347e-004, 0., 0.,
          9.85663105e-003, 0., 8.96057347e-004, 8.96057347e-004, 0.,
          2.68817204e-003, 0., 0., 0., 0., 0., 0., 0., 3.76344100e-002,
          0., 8.96057347e-004, 0., 0., 0., 0., 0., 0., 0., 0., 0., 0.,
          0., 0., 4.48028650e-003, 0., 0., 0., 0., 8.96057347e-004, 0.,
          0., 0., 0., 9.85663105e-003, 0., 0., 0., 0., 0., 0., 0., 0.,
