%YAML:1.0
my_svm: !!opencv-ml-svm
   svm_type: C_SVC
   kernel: { type:RBF, gamma:1. }
   C: 1.
   term_criteria: { epsilon:1.1920928955078125e-007, iterations:1000 }
   var_all: 600
   var_count: 600
   class_count: 2
   class_labels: !!opencv-matrix
      rows: 1
      cols: 2
      dt: i
      data: [ 0, 1 ]
   sv_total: 36
   support_vectors:
      - [ 6.42791530e-003, 0., 0., 9.18273639e-004, 0., 9.18273639e-004,
          0., 0., 9.18273639e-004, 3.67309456e-003, 0., 0., 0.,
          1.83654728e-003, 1.56106520e-002, 0., 6.42791530e-003,
          1.83654728e-003, 0., 0., 0., 0., 0., 0., 1.83654728e-003, 0.,
          0., 1.74471997e-002, 0., 1.83654728e-003, 0., 0., 0.,
          9.18273639e-004, 0., 1.83654728e-003, 0., 2.75482098e-003, 0.,
          1.83654728e-003, 9.18273639e-004, 2.75482098e-003, 0., 0., 0.,
          6.42791530e-003, 0., 7.34618912e-003, 0., 9.18273639e-004, 0.,
          0., 7.34618912e-003, 1.37741044e-002, 0., 0., 0.,
          9.18273639e-004, 0., 1.83654728e-003, 0., 0., 0., 0.,
          1.83654728e-003, 9.18273639e-004, 1.83654728e-003,
          4.59136814e-003, 0., 0., 1.83654728e-003, 9.18273639e-004, 0.,
          3.67309456e-003, 0., 9.18273639e-004, 9.18273639e-004,
          9.18273639e-004, 9.18273639e-004, 9.18273639e-004,
          1.83654728e-003, 2.75482098e-003, 2.75482098e-003,
          1.83654728e-003, 9.18273639e-004, 9.18273639e-004, 0.,
          9.18273639e-004, 1.83654728e-003, 9.18273639e-004, 0., 0.,
          9.18273639e-004, 9.18273639e-004, 0., 9.18273639e-004,
          1.83654728e-003, 3.67309456e-003, 0., 0., 3.67309456e-003,
          1.56106520e-002, 0., 0., 9.18273639e-004, 0., 1.83654728e-003,
          0., 4.59136814e-003, 0., 1.10192839e-002, 1.83654728e-003, 0.,
          3.67309456e-003, 0., 0., 0., 1.83654728e-003, 0.,
          1.83654728e-003, 9.18273639e-004, 9.18273639e-004, 0., 0., 0.,
          0., 0., 0., 9.18273639e-004, 0., 0., 0., 0., 0., 0., 0., 0.,
          9.18273639e-004, 9.18273639e-004, 0., 9.18273639e-004,
          1.83654728e-003, 0., 0., 1.83654728e-003, 0., 0.,
          1.83654728e-003, 0., 0., 2.75482098e-003, 2.75482098e-003,
          1.83654728e-003, 7.34618912e-003, 0., 4.59136814e-003, 0.,
          4.59136814e-003, 0., 1.83654728e-003, 9.18273639e-004, 0., 0.,
          1.83654728e-003, 6.42791530e-003, 0., 1.83654728e-003, 0., 0.,
          1.83654728e-003, 7.34618912e-003, 0., 0., 0., 0., 0.,
          3.67309456e-003, 0., 0., 1.83654728e-003, 0., 0., 0., 0., 0.,
          0., 0., 0., 0., 1.83654728e-003, 9.18273639e-004, 0., 0., 0.,
          4.59136814e-003, 9.18273639e-004, 9.18273639e-004, 0.,
          9.18273639e-004, 5.50964195e-003, 9.18273639e-004,
          2.75482098e-003, 9.18273639e-004, 9.18273639e-004,
          9.18273639e-004, 1.10192839e-002, 4.59136814e-003,
          2.75482098e-003, 2.75482098e-003, 2.75482098e-003, 0.,
          1.83654728e-003, 0., 0., 0., 0., 9.18273639e-004, 0.,
          3.67309456e-003, 0., 1.83654728e-003, 0., 0., 0.,
          8.26446246e-003, 0., 3.67309456e-003, 1.83654728e-003,
          6.42791530e-003, 0., 0., 9.18273639e-004, 0., 0.,
          9.18273639e-004, 0., 0., 0., 2.75482098e-003, 9.18273628e-003,
          3.67309456e-003, 0., 0., 2.75482098e-003, 2.75482098e-003,
          7.34618912e-003, 0., 0., 0., 0., 0., 0., 0., 9.18273639e-004,
          0., 2.38751154e-002, 6.42791530e-003, 2.75482098e-003,
          2.75482098e-003, 0., 9.18273639e-004, 0., 1.83654728e-003, 0.,
          0., 1.83654728e-003, 9.18273639e-004, 0., 3.67309456e-003,
          9.18273639e-004, 2.75482098e-003, 0., 3.67309456e-003, 0., 0.,
          0., 9.18273639e-004, 0., 9.18273639e-004, 9.18273639e-004,
          9.18273639e-004, 1.83654728e-003, 9.18273639e-004,
          9.18273639e-004, 0., 6.42791530e-003, 0., 0., 1.28558306e-002,
          3.67309456e-003, 0., 0., 0., 0., 0., 9.18273639e-004,
          6.42791530e-003, 9.18273639e-004, 1.83654728e-003,
          5.50964195e-003, 0., 2.75482098e-003, 2.75482098e-003, 0., 0.,
          9.18273639e-004, 0., 0., 1.19375577e-002, 9.18273639e-004, 0.,
          0., 0., 9.18273639e-004, 0., 9.18273639e-004, 1.83654728e-003,
          1.83654728e-003, 0., 9.18273639e-004, 2.75482098e-003,
          1.83654728e-003, 0., 0., 3.67309456e-003, 0., 0.,
          9.18273639e-004, 1.83654728e-003, 0., 0., 0., 0., 0., 0., 0.,
          1.83654728e-003, 0., 4.59136814e-003, 0., 1.83654728e-003,
          9.18273639e-004, 1.83654728e-003, 0., 9.18273639e-004, 0., 0.,
          0., 1.83654728e-003, 9.18273639e-004, 1.83654728e-003, 0.,
          1.83654728e-003, 0., 3.67309456e-003, 5.50964195e-003, 0.,
          9.18273639e-004, 1.83654728e-003, 0., 9.18273639e-004,
          2.75482098e-003, 1.19375577e-002, 0., 0., 9.18273639e-004, 0.,
          0., 0., 9.18273639e-004, 8.26446246e-003, 2.75482098e-003, 0.,
          0., 4.59136814e-003, 0., 9.18273639e-004, 0., 0., 0.,
          1.83654728e-003, 0., 0., 9.18273639e-004, 1.83654728e-003,
          1.83654728e-003, 9.18273639e-004, 0., 0., 9.18273639e-004,
          9.18273639e-004, 1.83654728e-003, 7.34618912e-003, 0.,
          9.18273639e-004, 0., 0., 2.75482098e-003, 9.18273639e-004,
          1.83654728e-003, 4.59136814e-003, 7.34618912e-003,
          2.75482098e-003, 2.75482098e-003, 0., 1.83654728e-003, 0., 0.,
          9.18273639e-004, 9.18273639e-004, 0., 0., 9.18273639e-004,
          1.83654728e-003, 0., 9.18273639e-004, 5.50964195e-003,
          1.83654728e-003, 1.83654728e-003, 0., 0., 1.01010101e-002,
          4.59136814e-002, 3.67309456e-003, 0., 0., 0., 3.67309456e-003,
          2.75482098e-003, 0., 0., 2.75482098e-003, 7.34618912e-003,
          1.83654728e-003, 5.50964195e-003, 5.50964195e-003, 0., 0.,
          1.83654728e-003, 0., 9.18273639e-004, 0., 0., 9.18273639e-004,
          1.83654728e-003, 2.75482098e-003, 9.18273628e-003,
          6.42791530e-003, 9.18273639e-004, 1.83654728e-003,
          4.59136814e-003, 0., 9.18273639e-004, 0., 0., 2.75482098e-003,
          0., 2.66299360e-002, 2.75482098e-003, 0., 2.75482098e-003,
          9.18273639e-004, 9.18273639e-004, 1.83654728e-003, 0., 0., 0.,
          3.67309456e-003, 0., 0., 9.18273639e-004, 1.83654728e-003, 0.,
          0., 9.18273639e-004, 0., 0., 9.18273639e-004, 0., 0., 0.,
          1.83654728e-003, 3.67309456e-003, 0., 0., 0., 0., 0., 0., 0.,
          0., 0., 1.83654728e-003, 7.34618912e-003, 1.83654728e-003,
          8.26446246e-003, 1.83654728e-003, 2.75482098e-003,
          1.83654728e-003, 4.59136814e-003, 2.75482098e-003, 0., 0., 0.,
          0., 1.83654728e-003, 0., 0., 9.18273639e-004, 2.75482098e-003,
          0., 0., 0., 7.34618912e-003, 0., 0., 0., 0., 9.18273639e-004,
          0., 2.75482098e-003, 0., 0., 1.83654728e-003, 0., 0.,
          1.83654726e-002, 0., 2.75482098e-003, 1.83654728e-003, 0.,
          1.83654728e-003, 9.18273628e-003, 0., 0., 0., 0., 0.,
          1.28558306e-002, 0., 1.83654728e-003, 2.75482098e-003, 0.,
          1.83654728e-003, 9.18273639e-004, 6.42791530e-003, 0., 0., 0.,
          2.75482098e-003, 0., 1.83654728e-003, 9.18273639e-004, 0.,
          1.37741044e-002, 2.75482098e-003, 0., 0., 0., 1.83654728e-003,
          0., 0., 0., 1.83654728e-003, 0., 9.18273639e-004,
          9.18273639e-004, 0., 0., 9.18273639e-004, 0., 0., 0., 0.,
          9.18273639e-004, 9.18273639e-004, 3.67309456e-003, 0.,
          4.59136814e-003, 9.18273639e-004, 0., 9.18273639e-004,
          9.18273639e-004, 1.83654728e-003, 9.18273639e-004, 0.,
          2.75482098e-003, 1.83654728e-003, 0., 1.83654728e-003,
          3.67309456e-003, 9.18273639e-004, 2.75482098e-003, 0.,
          2.29568407e-002, 7.34618912e-003, 0., 9.18273639e-004, 0., 0. ]
      - [ 0., 0., 1.86046516e-003, 9.30232578e-004, 0., 9.30232578e-004,
          1.86046516e-003, 0., 7.44186062e-003, 5.58139570e-003, 0., 0.,
          0., 1.86046516e-003, 9.30232578e-004, 0., 6.51162816e-003,
          9.30232578e-004, 0., 1.86046516e-003, 9.30232578e-004,
          1.86046516e-003, 0., 0., 2.79069785e-003, 0., 0.,
          5.58139570e-003, 8.37209355e-003, 0., 0., 9.30232578e-004, 0.,
          9.30232578e-004, 1.86046516e-003, 1.86046516e-003,
          4.65116277e-003, 9.30232578e-004, 5.58139570e-003,
          9.30232578e-004, 3.72093031e-003, 1.20930234e-002, 0.,
          2.79069785e-003, 1.86046516e-003, 3.72093031e-003,
          9.30232578e-004, 0., 2.79069785e-003, 0., 0., 6.51162816e-003,
          9.30232578e-004, 0., 1.20930234e-002, 7.44186062e-003,
          9.30232578e-004, 1.86046516e-003, 0., 0., 0., 0., 0.,
          1.86046516e-003, 1.86046516e-003, 9.30232578e-004,
          1.86046516e-003, 9.30232578e-004, 4.65116277e-003, 0.,
          4.65116277e-003, 0., 0., 0., 9.30232578e-004, 1.86046516e-003,
          9.30232578e-004, 0., 0., 9.30232578e-004, 3.72093031e-003,
          2.79069785e-003, 1.86046516e-003, 0., 0., 0., 9.30232578e-004,
          0., 0., 3.72093031e-003, 3.72093031e-003, 0., 0.,
          1.86046516e-003, 2.79069785e-003, 2.79069785e-003,
          9.30232578e-004, 2.79069785e-003, 0., 0., 0., 9.30232578e-004,
          0., 2.79069785e-003, 0., 1.86046516e-003, 5.58139570e-003, 0.,
          2.79069785e-003, 0., 4.65116277e-003, 0., 0., 1.86046516e-003,
          0., 4.65116277e-003, 1.02325585e-002, 3.72093031e-003,
          3.72093031e-003, 0., 9.30232578e-004, 0., 2.79069785e-003, 0.,
          2.79069785e-003, 0., 5.58139570e-003, 0., 0., 9.30232578e-004,
          0., 0., 9.30232578e-004, 9.30232578e-004, 0., 0., 0.,
          2.79069785e-003, 9.30232578e-004, 1.86046516e-003,
          4.65116277e-003, 0., 0., 0., 0., 0., 0., 1.86046516e-003, 0.,
          0., 0., 2.79069785e-003, 9.30232578e-004, 2.79069785e-003,
          1.86046516e-003, 2.79069785e-003, 3.72093031e-003,
          1.86046516e-003, 1.86046516e-003, 9.30232578e-004, 0., 0., 0.,
          0., 9.30232578e-004, 0., 4.65116277e-003, 1.86046516e-003, 0.,
          0., 1.02325585e-002, 6.51162816e-003, 0., 9.30232578e-004,
          9.30232578e-004, 6.51162816e-003, 0., 2.79069785e-003,
          9.30232578e-004, 8.37209355e-003, 0., 9.30232578e-004, 0.,
          9.30232578e-004, 3.72093031e-003, 0., 2.79069785e-003, 0.,
          6.51162816e-003, 0., 1.11627914e-002, 1.86046516e-003,
          9.30232578e-004, 3.72093031e-003, 0., 0., 9.30232578e-004, 0.,
          1.11627914e-002, 0., 0., 0., 9.30232578e-004, 0., 0.,
          2.79069785e-003, 9.30232578e-004, 9.30232578e-004, 0.,
          9.30232578e-004, 0., 2.79069785e-003, 9.30232578e-004,
          1.86046516e-003, 0., 1.86046516e-003, 9.30232578e-004, 0.,
          9.30232578e-004, 0., 0., 0., 0., 0., 0., 9.30232578e-004,
          4.65116277e-003, 1.86046516e-003, 1.76744182e-002,
          1.86046516e-003, 2.79069785e-003, 0., 2.79069785e-003, 0.,
          9.30232578e-004, 0., 0., 1.86046516e-003, 9.30232578e-004,
          3.72093031e-003, 0., 2.79069785e-003, 1.86046516e-003, 0., 0.,
          0., 0., 0., 9.30232578e-004, 1.86046516e-003, 1.86046516e-003,
          0., 3.72093031e-003, 0., 0., 0., 0., 2.79069785e-003,
          1.86046516e-003, 1.02325585e-002, 4.65116277e-003, 0., 0.,
          1.86046516e-003, 0., 0., 2.79069785e-003, 1.86046516e-003,
          8.37209355e-003, 9.30232578e-004, 5.58139570e-003, 0., 0.,
          9.30232578e-004, 1.86046516e-003, 0., 9.30232578e-004,
          3.72093031e-003, 9.30232578e-004, 1.86046516e-003, 0., 0.,
          4.65116277e-003, 9.30232578e-004, 2.79069785e-003,
          1.86046516e-003, 0., 0., 9.30232578e-004, 4.65116277e-003, 0.,
          1.86046516e-003, 0., 3.72093031e-003, 0., 1.86046516e-003,
          8.37209355e-003, 9.30232578e-004, 0., 0., 0., 2.79069785e-003,
          9.30232578e-004, 2.79069785e-003, 3.72093031e-003,
          6.51162816e-003, 0., 0., 0., 0., 1.86046516e-003,
          1.86046516e-003, 0., 0., 9.30232578e-004, 0., 6.51162816e-003,
          9.30232578e-004, 0., 0., 0., 9.30232578e-004, 9.30232578e-004,
          4.65116277e-003, 4.65116277e-003, 0., 2.79069785e-003,
          9.30232578e-004, 9.30232578e-004, 5.58139570e-003,
          1.86046516e-003, 0., 9.30232578e-004, 9.30232578e-004, 0.,
          9.30232578e-004, 9.30232578e-004, 0., 0., 0., 1.86046516e-003,
          1.86046516e-003, 0., 0., 0., 0., 0., 9.30232578e-004, 0.,
          5.58139570e-003, 0., 0., 0., 9.30232578e-004, 3.72093031e-003,
          0., 0., 8.37209355e-003, 0., 1.86046516e-003, 3.72093031e-003,
          5.58139570e-003, 9.30232578e-004, 4.65116277e-003,
          1.86046516e-003, 0., 6.51162816e-003, 0., 2.79069785e-003,
          2.79069785e-003, 1.86046516e-003, 9.30232578e-004, 0.,
          9.30232578e-004, 3.72093031e-003, 0., 4.65116277e-003, 0.,
          9.30232578e-004, 1.86046516e-003, 9.30232578e-004,
          2.79069785e-003, 0., 1.86046516e-003, 2.79069785e-003, 0., 0.,
          9.30232578e-004, 0., 9.30232578e-004, 9.30232578e-004,
          6.51162816e-003, 9.30232578e-004, 3.72093031e-003,
          9.30232578e-004, 0., 0., 9.30232578e-004, 0., 9.30232578e-004,
          0., 9.30232578e-004, 1.11627914e-002, 1.86046516e-003, 0.,
          1.86046516e-003, 9.30232578e-004, 3.72093031e-003,
          5.58139570e-003, 0., 0., 9.30232578e-004, 0., 9.30232578e-004,
          1.86046516e-003, 9.30232578e-004, 1.86046516e-003,
          9.30232578e-004, 5.58139570e-003, 0., 9.30232578e-004,
          1.67441871e-002, 0., 9.30232578e-004, 1.86046516e-003, 0.,
          3.72093031e-003, 5.58139570e-003, 3.72093031e-003, 0.,
          2.79069785e-003, 0., 0., 8.37209355e-003, 9.30232578e-004,
          9.30232578e-004, 0., 4.65116277e-003, 9.30232578e-004, 0., 0.,
          0., 0., 4.65116277e-003, 0., 1.02325585e-002, 1.86046516e-003,
          4.65116277e-003, 8.37209355e-003, 0., 9.30232578e-004, 0.,
          2.79069785e-003, 0., 2.79069785e-003, 0., 0., 4.65116277e-003,
          9.30232578e-004, 9.30232578e-004, 9.30232578e-004, 0.,
          4.65116277e-003, 9.30232578e-004, 0., 0., 9.30232578e-004,
          4.65116277e-003, 1.86046516e-003, 6.51162816e-003,
          2.79069785e-003, 0., 7.44186062e-003, 0., 3.72093031e-003,
          1.86046516e-003, 0., 0., 0., 1.86046516e-003, 0., 0.,
          9.30232578e-004, 9.30232578e-004, 0., 0., 0., 0.,
          2.79069785e-003, 3.72093031e-003, 1.86046516e-003, 0., 0., 0.,
          2.79069785e-003, 1.86046516e-003, 1.86046516e-003,
          3.72093031e-003, 1.86046516e-003, 0., 3.72093031e-003,
          3.72093031e-003, 0., 0., 2.79069785e-003, 3.72093031e-003,
          1.86046516e-003, 3.72093031e-003, 0., 9.30232578e-004,
          3.72093031e-003, 2.79069785e-003, 9.30232578e-004,
          9.30232578e-004, 3.72093031e-003, 0., 4.65116277e-003, 0., 0.,
          0., 1.86046516e-003, 0., 3.72093031e-003, 0., 9.30232578e-004,
          0., 0., 2.79069785e-003, 4.65116277e-003, 5.58139570e-003, 0.,
          0., 0., 9.30232578e-004, 9.30232578e-004, 0., 9.30232578e-004,
          1.86046516e-003, 9.30232578e-004, 0., 2.79069785e-003,
          9.30232578e-004, 9.30232578e-004, 1.11627914e-002,
          1.86046516e-003, 2.79069785e-003, 0., 0., 0., 2.79069785e-003,
          0., 0., 1.86046516e-003, 3.72093031e-003, 0., 9.30232578e-004,
          0., 0., 0., 0., 0., 9.30232578e-004, 1.86046516e-003,
          9.30232578e-004, 9.30232578e-004, 9.30232578e-004,
          9.30232578e-004, 2.79069785e-003, 1.86046516e-003, 0., 0.,
          4.65116277e-003, 0., 2.79069785e-003, 0., 2.79069785e-003, 0.,
          3.72093031e-003, 9.30232578e-004, 0., 3.72093031e-003, 0.,
          9.30232578e-004, 0., 3.72093031e-003, 0., 5.58139570e-003, 0.,
          2.79069785e-003, 9.30232578e-004, 0., 0., 2.79069785e-003,
          2.79069785e-003, 3.72093031e-003, 9.30232578e-004,
          9.30232578e-004, 1.86046516e-003, 9.30232578e-004, 0. ]
      - [ 0., 0., 0., 0., 5.13176173e-002, 0., 0., 0., 0., 0., 0., 0.,
          0., 0., 0., 0., 0., 0., 0., 0., 0., 0., 0., 1.38696260e-003,
          0., 0., 0., 0., 0., 0., 0., 0., 0., 0., 0., 0., 0., 0., 0., 0.,
          0., 0., 0., 0., 0., 0., 0., 5.54785039e-003, 0., 0., 0., 0.,
          0., 0., 0., 0., 0., 0., 0., 0., 0., 2.49653272e-002, 0., 0.,
          0., 0., 0., 0., 0., 0., 0., 2.49653272e-002, 0., 0., 0., 0.,
          0., 0., 0., 0., 0., 0., 0., 0., 0., 3.46740633e-002, 0., 0.,
          0., 0., 0., 0., 0., 0., 0., 0., 0., 0., 0., 1.10957008e-002,
          0., 0., 0., 0., 0., 0., 0., 0., 0., 0., 0., 0.,
          5.68654649e-002, 0., 0., 0., 0., 0., 0., 0., 0., 0., 0., 0.,
          0., 0., 0., 0., 0., 0., 0., 0., 0., 0., 0., 0., 0., 0., 0., 0.,
          0., 0., 0., 0., 0., 0., 0., 0., 0., 2.08044387e-002, 0., 0.,
          0., 0., 0., 0., 0., 0., 0., 0., 0., 0., 0., 0., 0.,
          9.57004204e-002, 0., 0., 0., 0., 0., 0., 0., 0., 0., 0., 0.,
          0., 0., 0., 0., 0., 0., 0., 0., 0., 0., 0., 0., 0., 0., 0., 0.,
          0., 0., 0., 0., 0., 0., 0., 0., 0., 0., 0., 0., 0., 0., 0., 0.,
          0., 5.13176173e-002, 0., 0., 0., 0., 0., 0., 0., 0.,
          5.68654649e-002, 0., 0., 0., 0., 0., 0., 0., 0., 0., 0., 0.,
          0., 0., 0., 0., 0., 2.91262139e-002, 0., 0., 0., 0., 0., 0.,
          0., 0., 5.54785058e-002, 0., 0., 0., 0., 0., 0., 0., 0., 0.,
          0., 0., 0., 0., 0., 0., 0., 0., 0., 0., 0., 0., 0., 0., 0., 0.,
          0., 0., 0., 0., 2.21914016e-002, 0., 0., 0., 0., 0., 0., 0.,
          0., 0., 0., 0., 0., 0., 0., 0., 0., 0., 0., 0., 0., 0., 0., 0.,
          0., 0., 0., 0., 0., 0., 0., 0., 3.74479890e-002, 0., 0., 0.,
          0., 0., 0., 0., 0., 0., 0., 0., 0., 0., 0., 0., 0., 0.,
          3.05131767e-002, 0., 0., 0., 0., 0., 0., 0., 0., 0., 0., 0.,
          1.24826636e-002, 0., 0., 0., 0., 0., 5.54785039e-003, 0.,
          1.10957008e-002, 1.12343967e-001, 0., 0., 0., 1.10957008e-002,
          0., 0., 0., 0., 0., 0., 0., 0., 0., 0., 0., 0., 0., 0., 0., 0.,
          0., 0., 0., 0., 0., 0., 0., 0., 0., 0., 0., 0., 0., 0., 0., 0.,
          0., 0., 0., 0., 0., 0., 0., 0., 0., 0., 0., 0., 0., 0., 0., 0.,
          0., 0., 0., 0., 0., 0., 0., 0., 0., 0., 0., 0., 0., 0., 0., 0.,
          0., 0., 0., 0., 0., 0., 0., 0., 0., 0., 0., 0., 0., 0., 0., 0.,
          0., 0., 0., 0., 0., 0., 0., 0., 0., 0., 0., 0., 0., 0., 0., 0.,
          0., 0., 0., 0., 0., 0., 2.35783644e-002, 0., 0.,
          7.21220523e-002, 0., 0., 0., 0., 2.77392520e-003, 0., 0.,
          3.05131767e-002, 0., 0., 0., 0., 0., 0., 0., 0., 0., 0., 0.,
          0., 0., 0., 0., 0., 0., 0., 0., 0., 0., 0., 0., 0., 0., 0., 0.,
          0., 0., 0., 0., 0., 0., 0., 1.24826636e-002, 0., 0., 0., 0.,
          0., 0., 0., 0., 0., 0., 0., 0., 0., 0., 0., 4.57697660e-002,
          0., 2.63522901e-002, 0., 0., 0., 0., 0., 0., 0., 0., 0., 0.,
          0., 0., 0., 0., 0., 0., 0., 0., 0., 0., 0., 0., 0., 0., 0., 0.,
          0., 0., 0., 0., 0., 0., 1.38696264e-002, 0., 0., 0., 0., 0.,
          0., 0., 0., 0., 0., 0., 0., 0., 0., 0., 0., 0., 0.,
          9.70873795e-003, 0., 0., 0., 0., 0., 0., 0., 0., 0., 0., 0.,
          0., 0., 0., 0., 0., 0., 0., 0., 0., 0., 0., 0., 0., 0., 0., 0.,
          0., 0., 0. ]
      - [ 0., 0., 0., 0., 3.94011974e-001, 0., 0., 0., 0., 0., 0., 0.,
          0., 0., 0., 0., 0., 0., 4.79041925e-003, 0., 0., 0., 0., 0.,
          0., 0., 0., 0., 0., 0., 0., 0., 0., 0., 0., 0., 0., 0., 0., 0.,
          0., 0., 0., 0., 0., 0., 0., 1.19760481e-003, 0., 0., 0., 0.,
          0., 0., 0., 0., 0., 0., 0., 0., 0., 3.95209603e-002, 0., 0.,
          0., 0., 0., 0., 0., 0., 0., 3.59281432e-003, 0., 0., 0., 0.,
          0., 0., 0., 0., 0., 0., 0., 0., 0., 4.79041925e-003, 0., 0.,
          0., 0., 0., 0., 0., 0., 0., 0., 0., 0., 0., 0., 0., 0., 0., 0.,
          0., 0., 0., 0., 0., 0., 0., 0., 7.18562864e-003, 0., 0., 0.,
          0., 0., 0., 0., 0., 0., 0., 0., 0., 0., 0., 0., 0., 0., 0., 0.,
          0., 0., 0., 0., 0., 0., 0., 0., 0., 0., 0., 0., 0., 0., 0., 0.,
          0., 5.98802418e-003, 0., 0., 0., 0., 0., 0., 0., 0., 0., 0.,
          0., 0., 0., 0., 0., 5.26946113e-002, 0., 0., 0., 0., 0., 0.,
          0., 0., 0., 0., 0., 0., 0., 0., 0., 0., 0., 0., 0., 0., 0., 0.,
          0., 0., 0., 0., 0., 0., 0., 0., 0., 0., 0., 0., 0., 0., 0., 0.,
          0., 0., 0., 0., 0., 0., 1.82035938e-001, 0., 0., 0., 0., 0.,
          0., 0., 0., 2.87425146e-002, 0., 0., 0., 0., 0., 0., 0., 0.,
          0., 0., 0., 0., 0., 0., 0., 0., 2.03592815e-002, 0., 0., 0.,
          0., 0., 0., 0., 0., 3.59281432e-003, 0., 0., 0., 0., 0., 0.,
          0., 0., 0., 0., 0., 0., 0., 0., 0., 0., 0., 0., 0., 0., 0., 0.,
          0., 0., 0., 0., 0., 0., 0., 5.98802418e-003, 0., 0., 0., 0.,
          0., 0., 0., 0., 0., 0., 0., 0., 0., 0., 0., 0., 0., 0., 0., 0.,
          0., 0., 0., 0., 0., 0., 0., 0., 0., 0., 0., 1.67664681e-002,
          0., 0., 0., 0., 0., 0., 0., 0., 0., 0., 0., 0., 0., 0., 0., 0.,
          0., 3.47305387e-002, 0., 0., 0., 0., 0., 0., 0., 0., 0., 0.,
          0., 1.19760484e-002, 0., 0., 0., 0., 0., 1.19760481e-003, 0.,
          2.39520962e-003, 5.86826354e-002, 0., 0., 0., 3.59281432e-003,
          0., 0., 0., 0., 0., 0., 0., 0., 0., 0., 0., 0., 0., 0., 0., 0.,
          0., 0., 0., 0., 0., 0., 0., 0., 0., 0., 0., 0., 0., 0., 0., 0.,
          0., 0., 0., 0., 0., 0., 0., 0., 0., 0., 0., 0., 0., 0., 0., 0.,
          0., 0., 0., 0., 0., 0., 0., 0., 0., 0., 0., 0., 0., 0., 0., 0.,
          0., 0., 0., 0., 0., 0., 0., 0., 0., 0., 0., 0., 0., 0., 0., 0.,
          0., 0., 0., 0., 0., 0., 0., 0., 0., 0., 0., 0., 0., 0., 0., 0.,
          0., 0., 0., 0., 0., 0., 1.91616770e-002, 0., 0.,
          9.10179690e-002, 0., 0., 0., 0., 0., 0., 0., 0., 0., 0., 0.,
          0., 0., 0., 0., 0., 0., 0., 0., 0., 0., 0., 0., 0., 0., 0., 0.,
          0., 0., 0., 0., 0., 0., 0., 0., 0., 0., 0., 0., 0., 0., 0.,
          1.19760481e-003, 0., 0., 0., 0., 0., 0., 0., 0., 0., 0., 0.,
          0., 0., 0., 0., 0., 0., 1.19760481e-003, 0., 0., 0., 0., 0.,
          0., 0., 0., 0., 0., 0., 0., 0., 0., 0., 0., 0., 0., 0., 0., 0.,
          0., 0., 0., 0., 0., 0., 0., 0., 0., 0., 0., 2.39520962e-003,
          0., 0., 0., 0., 0., 0., 0., 0., 0., 0., 0., 0., 0., 0., 0., 0.,
          0., 0., 1.19760481e-003, 0., 0., 0., 0., 0., 0., 0., 0., 0.,
          0., 0., 0., 0., 0., 0., 0., 0., 0., 0., 0., 0., 0., 0., 0., 0.,
          0., 0., 0., 0., 0. ]
      - [ 0., 0., 0., 0., 2.53164559e-003, 0., 0., 0., 0., 0., 0., 0.,
          0., 0., 0., 0., 0., 0., 1.06329113e-001, 0., 0., 0., 0.,
          7.59493653e-003, 0., 0., 0., 0., 0., 0., 0., 0., 0., 0., 0.,
          0., 0., 0., 0., 0., 0., 0., 0., 0., 0., 0., 0.,
          7.59493653e-003, 0., 0., 0., 0., 0., 0., 0., 0., 0., 0., 0.,
          0., 0., 3.29113938e-002, 0., 0., 0., 0., 0., 0., 0., 0., 0.,
          0., 0., 0., 0., 0., 0., 0., 0., 0., 0., 0., 0., 0., 0.,
          7.08860755e-002, 0., 0., 0., 0., 0., 2.53164559e-003, 0., 0.,
          0., 0., 0., 0., 0., 7.59493709e-002, 0., 0., 0., 0., 0., 0.,
          0., 0., 0., 0., 0., 0., 4.55696210e-002, 0., 0., 0., 0., 0.,
          0., 0., 0., 0., 0., 0., 0., 0., 0., 0., 0., 0., 0., 0., 0., 0.,
          0., 0., 0., 0., 0., 0., 0., 0., 0., 0., 0., 0., 0., 0., 0.,
          1.26582282e-002, 0., 0., 0., 0., 0., 0., 0., 0., 0., 0., 0.,
          0., 0., 0., 0., 2.78481022e-002, 0., 0., 0., 0., 0., 0., 0.,
          0., 0., 0., 0., 0., 0., 0., 0., 0., 0., 0., 0., 0., 0., 0., 0.,
          0., 0., 0., 0., 0., 0., 0., 0., 0., 0., 0., 0., 0., 0., 0., 0.,
          0., 0., 0., 0., 0., 3.03797461e-002, 0., 0., 0., 0., 0., 0.,
          0., 0., 5.82278483e-002, 0., 0., 0., 0., 0., 0., 0., 0., 0.,
          0., 0., 0., 0., 0., 0., 0., 5.06329117e-003, 0., 0., 0., 0.,
          0., 0., 0., 0., 3.03797461e-002, 0., 0., 0., 0., 0., 0., 0.,
          0., 0., 0., 0., 0., 0., 0., 0., 0., 0., 0., 0., 0., 0., 0., 0.,
          0., 0., 0., 0., 0., 0., 1.51898731e-002, 0., 0., 0., 0., 0.,
          0., 0., 0., 0., 0., 0., 0., 0., 0., 0., 0., 0., 0., 0., 0., 0.,
          0., 0., 0., 0., 0., 0., 0., 0., 0., 0., 7.59493653e-003, 0.,
          0., 0., 0., 0., 0., 0., 0., 0., 0., 0., 0., 0., 0., 0., 0., 0.,
          1.77215189e-002, 0., 0., 0., 0., 0., 0., 0., 0., 0., 0., 0.,
          1.51898731e-002, 0., 0., 0., 0., 0., 1.01265823e-002, 0.,
          1.26582282e-002, 6.83544278e-002, 0., 0., 0., 1.26582282e-002,
          0., 0., 0., 0., 0., 0., 0., 0., 0., 0., 0., 0., 0., 0., 0., 0.,
          0., 0., 0., 0., 0., 0., 0., 0., 0., 0., 0., 0., 0., 0., 0., 0.,
          0., 0., 0., 0., 0., 0., 0., 0., 0., 0., 0., 0., 0., 0., 0., 0.,
          0., 0., 0., 0., 0., 0., 0., 0., 0., 0., 0., 0., 0., 0., 0., 0.,
          0., 0., 0., 0., 0., 0., 0., 0., 0., 0., 0., 0., 0., 0., 0., 0.,
          0., 0., 0., 0., 0., 0., 0., 0., 0., 0., 0., 0., 0., 0., 0., 0.,
          0., 0., 0., 0., 2.02531647e-002, 0., 1.59493670e-001, 0., 0.,
          5.82278483e-002, 0., 0., 0., 0., 0., 0., 0., 2.78481022e-002,
          0., 0., 0., 0., 0., 0., 0., 0., 0., 0., 0., 0., 0., 0., 0., 0.,
          0., 0., 0., 0., 0., 0., 0., 0., 0., 0., 0., 0., 0., 0., 0., 0.,
          0., 0., 5.06329117e-003, 0., 0., 0., 0., 0., 0., 0., 0., 0.,
          0., 0., 0., 0., 0., 0., 1.51898731e-002, 0., 1.01265823e-002,
          0., 0., 0., 0., 0., 0., 0., 0., 0., 0., 0., 0., 0., 0., 0., 0.,
          0., 0., 0., 0., 0., 0., 0., 0., 0., 0., 0., 0., 0., 0., 0., 0.,
          7.59493653e-003, 0., 0., 0., 0., 0., 0., 0., 0., 0., 0., 0.,
          0., 0., 0., 0., 0., 0., 0., 2.02531647e-002, 0., 0., 0., 0.,
          0., 0., 0., 0., 0., 0., 0., 0., 0., 0., 0., 0., 0., 0., 0., 0.,
          0., 0., 0., 0., 0., 0., 0., 0., 0., 0. ]
      - [ 4.44938801e-003, 0., 0., 1.11234700e-003, 0., 1.11234700e-003,
          4.44938801e-003, 0., 1.11234700e-003, 1.11234700e-003, 0., 0.,
          0., 1.11234700e-003, 0., 0., 1.11234700e-003, 0., 0.,
          3.33704101e-003, 2.22469401e-003, 1.22358166e-002, 0., 0.,
          1.11234700e-003, 4.44938801e-003, 0., 0., 1.11234700e-003,
          2.22469401e-003, 1.11234700e-003, 3.33704101e-003,
          1.11234700e-003, 5.56173502e-003, 3.33704101e-003, 0., 0.,
          1.11234700e-003, 0., 0., 1.11234700e-003, 0., 0., 0., 0., 0.,
          0., 0., 1.11234700e-003, 0., 5.56173502e-003, 2.22469401e-003,
          3.33704101e-003, 0., 0., 3.33704101e-003, 1.66852046e-002,
          2.22469401e-003, 0., 4.44938801e-003, 2.22469401e-003, 0., 0.,
          2.22469401e-003, 1.11234700e-003, 1.11234700e-003, 0., 0.,
          3.33704101e-003, 1.11234700e-003, 0., 0., 0., 0.,
          4.44938801e-003, 4.44938801e-003, 0., 0., 1.11234700e-003,
          1.11234700e-003, 0., 6.67408202e-003, 0., 1.11234700e-003, 0.,
          0., 5.56173502e-003, 0., 0., 0., 1.11234700e-003, 0., 0., 0.,
          5.56173502e-003, 1.11234700e-003, 1.11234700e-003, 0.,
          1.11234700e-003, 0., 0., 0., 0., 0., 0., 0., 6.67408202e-003,
          0., 0., 2.22469401e-003, 8.89877602e-003, 0., 0., 0., 0.,
          3.33704101e-003, 7.78642902e-003, 2.22469401e-003, 0., 0.,
          4.44938801e-003, 0., 0., 0., 3.33704101e-003, 0., 0.,
          1.11234700e-003, 1.11234700e-003, 1.11234700e-003,
          1.11234700e-003, 1.11234700e-003, 2.22469401e-003,
          4.44938801e-003, 0., 0., 2.22469401e-003, 0., 1.11234700e-003,
          0., 0., 2.22469401e-003, 0., 0., 0., 7.78642902e-003, 0.,
          5.56173502e-003, 1.11234700e-003, 0., 1.11234700e-003, 0., 0.,
          6.67408202e-003, 2.22469401e-003, 0., 1.11234700e-003, 0., 0.,
          3.33704101e-003, 0., 0., 2.22469401e-003, 0., 2.22469401e-003,
          0., 1.11234700e-003, 0., 1.11234700e-003, 1.11234700e-003, 0.,
          3.33704101e-003, 0., 1.11234700e-003, 3.33704101e-003, 0., 0.,
          1.22358166e-002, 1.11234700e-003, 1.11234700e-003, 0., 0., 0.,
          0., 7.78642902e-003, 1.11234700e-003, 1.11234700e-003,
          3.33704101e-003, 2.22469401e-003, 1.11234700e-003,
          5.56173502e-003, 2.22469401e-003, 2.66963281e-002,
          2.22469401e-003, 0., 0., 1.11234700e-003, 4.44938801e-003,
          2.22469401e-003, 1.11234700e-003, 3.33704101e-003, 0., 0., 0.,
          0., 2.22469401e-003, 0., 1.11234700e-003, 0., 3.33704101e-003,
          0., 0., 0., 2.22469401e-003, 0., 0., 0., 0., 4.44938801e-003,
          0., 0., 1.33481640e-002, 3.22580636e-002, 0., 0.,
          1.11234700e-003, 1.11234700e-003, 0., 0., 6.67408202e-003,
          7.78642902e-003, 0., 1.11234700e-003, 4.44938801e-003, 0., 0.,
          0., 0., 0., 0., 2.22469401e-003, 6.67408202e-003,
          1.11234700e-003, 1.11234700e-003, 1.11234700e-003, 0.,
          1.11234700e-003, 0., 0., 1.11234700e-003, 1.89098995e-002,
          1.11234700e-003, 1.11234700e-003, 0., 0., 0., 1.11234700e-003,
          1.11234700e-003, 0., 4.44938801e-003, 0., 0., 0.,
          3.33704101e-003, 0., 3.33704101e-003, 0., 0., 0.,
          2.22469401e-003, 4.44938801e-003, 1.77975520e-002,
          1.11234700e-003, 0., 0., 0., 0., 7.78642902e-003,
          1.11234700e-003, 1.11234700e-003, 0., 1.11234700e-003, 0., 0.,
          0., 4.44938801e-003, 1.11234700e-003, 1.11234700e-003,
          1.11234700e-003, 0., 0., 1.11234700e-003, 0., 0., 0.,
          3.33704101e-003, 2.22469401e-003, 3.33704101e-003,
          1.11234700e-003, 1.11234700e-003, 0., 2.22469401e-003,
          1.11234700e-003, 0., 1.11234700e-003, 3.33704101e-003, 0., 0.,
          0., 0., 1.11234700e-003, 0., 0., 0., 0., 0., 1.11234700e-003,
          3.33704101e-003, 4.44938801e-003, 0., 8.89877602e-003,
          1.11234700e-003, 0., 0., 3.33704101e-003, 0., 0., 0., 0., 0.,
          3.33704101e-003, 1.11234700e-003, 1.11234700e-003,
          5.56173502e-003, 3.33704101e-003, 2.22469401e-003, 0., 0., 0.,
          0., 1.11234700e-002, 0., 0., 0., 0., 0., 0., 1.11234700e-002,
          0., 0., 0., 0., 0., 0., 0., 2.22469401e-003, 0., 0.,
          8.89877602e-003, 3.33704101e-003, 1.11234700e-003, 0.,
          2.22469401e-003, 0., 0., 0., 1.11234700e-003, 1.11234700e-003,
          1.11234700e-003, 4.44938801e-003, 0., 2.22469401e-003, 0.,
          5.56173502e-003, 0., 1.11234700e-003, 0., 6.67408202e-003,
          1.11234700e-003, 0., 0., 0., 0., 0., 4.44938801e-003,
          1.11234700e-003, 0., 0., 0., 0., 2.22469401e-003, 0., 0., 0.,
          0., 0., 2.22469401e-003, 0., 0., 1.11234700e-003,
          1.11234700e-003, 0., 1.11234700e-003, 2.22469401e-003, 0.,
          1.11234700e-003, 0., 0., 6.67408202e-003, 0., 0., 0.,
          3.33704101e-003, 3.33704101e-003, 1.11234700e-003, 0., 0., 0.,
          3.33704101e-003, 4.44938801e-003, 1.11234700e-003, 0., 0., 0.,
          0., 3.33704092e-002, 0., 0., 3.33704101e-003, 0., 0.,
          5.56173502e-003, 0., 0., 6.67408202e-003, 1.11234700e-003,
          6.67408202e-003, 3.33704101e-003, 1.11234700e-003, 0., 0., 0.,
          3.33704101e-003, 0., 0., 0., 0., 3.33704101e-003,
          2.22469401e-003, 0., 2.22469401e-003, 0., 0., 0.,
          1.11234700e-003, 1.11234700e-003, 0., 0., 0., 0.,
          1.11234700e-003, 0., 0., 5.56173502e-003, 0., 0.,
          1.11234700e-003, 1.11234700e-003, 0., 1.11234700e-003, 0., 0.,
          2.22469401e-003, 0., 4.44938801e-003, 0., 1.11234700e-003, 0.,
          0., 0., 1.11234700e-003, 0., 4.44938801e-003, 0., 0.,
          2.22469401e-003, 0., 3.33704101e-003, 1.11234700e-003,
          1.11234700e-003, 0., 1.11234700e-003, 0., 3.33704101e-003,
          2.22469401e-003, 1.11234700e-003, 1.11234700e-003, 0.,
          4.44938801e-003, 0., 0., 0., 5.56173502e-003, 0., 0.,
          1.11234700e-003, 1.11234700e-003, 0., 0., 0., 0.,
          1.11234700e-003, 0., 5.56173502e-003, 0., 0., 1.11234700e-002,
          0., 0., 0., 1.66852046e-002, 0., 4.44938801e-003,
          1.11234700e-003, 0., 0., 1.11234700e-003, 0., 0.,
          1.11234700e-003, 1.11234700e-003, 0., 2.66963281e-002, 0.,
          4.44938801e-003, 0., 1.11234700e-003, 5.56173502e-003, 0., 0.,
          5.56173502e-003, 1.11234700e-003, 0., 2.22469401e-003,
          1.66852046e-002, 0., 0., 0., 1.11234700e-003, 0., 0.,
          3.33704101e-003, 2.22469401e-003, 0., 1.33481640e-002, 0.,
          3.33704101e-003, 0., 0., 0., 2.22469401e-003, 2.22469401e-003,
          0., 0., 1.11234700e-003, 1.00111235e-002, 1.89098995e-002,
          6.67408202e-003, 0., 0., 3.33704101e-003, 2.22469401e-003,
          1.11234700e-003, 2.22469401e-003, 0., 2.22469401e-003, 0., 0.,
          0., 0., 1.11234700e-003, 0., 0., 7.78642902e-003, 0., 0.,
          4.44938801e-003, 0., 1.11234700e-003, 0., 0., 0.,
          3.33704101e-003, 1.11234700e-003, 2.22469401e-003, 0.,
          4.44938801e-003, 0., 1.11234700e-003, 0. ]
      - [ 6.43974217e-003, 0., 1.83992635e-003, 0., 0., 0., 0., 0., 0.,
          1.83992635e-003, 0., 0., 0., 0., 0., 0., 9.19963175e-004,
          1.83992635e-003, 0., 1.83992635e-003, 0., 9.19963175e-004,
          3.67985270e-003, 0., 9.19963175e-004, 0., 0., 1.47194108e-002,
          3.67985270e-003, 2.75988947e-003, 8.27966817e-003,
          9.19963175e-004, 0., 0., 9.19963175e-004, 1.83992635e-003,
          1.83992635e-003, 1.83992635e-003, 1.83992635e-003, 0.,
          9.19963175e-004, 9.19963175e-004, 0., 7.35970540e-003,
          1.83992635e-003, 3.67985270e-003, 9.19963140e-003, 0.,
          9.19963175e-004, 8.27966817e-003, 0., 1.37994476e-002, 0.,
          5.51977893e-003, 0., 5.51977893e-003, 9.19963175e-004,
          9.19963175e-004, 0., 1.01195946e-002, 0., 0., 0.,
          1.83992635e-003, 0., 0., 0., 3.67985270e-003, 1.83992635e-003,
          0., 2.75988947e-003, 0., 7.35970540e-003, 1.83992635e-003, 0.,
          0., 9.19963175e-004, 0., 0., 2.75988947e-003, 1.83992635e-003,
          9.19963175e-004, 9.19963175e-004, 9.19963175e-004,
          1.83992635e-003, 0., 0., 0., 3.67985270e-003, 0., 0., 0., 0.,
          1.83992635e-003, 9.19963175e-004, 0., 9.19963175e-004,
          1.83992635e-003, 9.19963175e-004, 0., 9.19963175e-004, 0.,
          9.19963175e-004, 9.19963175e-004, 5.51977893e-003,
          1.47194108e-002, 2.75988947e-003, 0., 9.19963175e-004, 0.,
          3.67985270e-003, 1.37994476e-002, 0., 3.67985270e-003, 0.,
          2.75988947e-003, 9.19963175e-004, 0., 0., 9.19963175e-004,
          1.01195946e-002, 0., 9.19963175e-004, 0., 0., 0.,
          1.83992635e-003, 0., 0., 9.19963175e-004, 0., 0.,
          9.19963175e-004, 0., 9.19963175e-004, 3.67985270e-003,
          9.19963140e-003, 9.19963175e-004, 0., 9.19963175e-004,
          9.19963175e-004, 6.43974217e-003, 9.19963175e-004,
          1.83992635e-003, 0., 2.75988947e-003, 0., 0., 0., 0.,
          3.67985270e-003, 0., 9.19963175e-004, 3.67985270e-003, 0.,
          1.74793005e-002, 9.19963175e-004, 9.19963175e-004, 0., 0., 0.,
          9.19963175e-004, 0., 0., 0., 0., 9.19963175e-004,
          9.19963175e-004, 9.19963175e-004, 2.75988947e-003,
          9.19963140e-003, 1.83992635e-003, 9.19963175e-004,
          2.75988947e-003, 0., 1.83992635e-003, 9.19963175e-004,
          3.67985270e-003, 1.83992635e-003, 9.19963175e-004, 0., 0., 0.,
          9.19963175e-004, 9.19963175e-004, 0., 9.19963175e-004,
          9.19963175e-004, 9.19963175e-004, 0., 2.75988947e-003,
          1.83992635e-003, 4.59981570e-003, 0., 0., 3.67985270e-003,
          6.43974217e-003, 9.19963175e-004, 9.19963175e-004, 0.,
          1.83992635e-003, 2.75988947e-003, 0., 0., 1.83992635e-003,
          7.35970540e-003, 9.19963175e-004, 1.83992635e-003,
          1.83992635e-003, 7.35970540e-003, 0., 9.19963175e-004,
          9.19963175e-004, 9.19963175e-004, 0., 9.19963175e-004,
          2.75988947e-003, 2.75988947e-003, 0., 0., 9.19963175e-004,
          9.19963175e-004, 0., 0., 9.19963140e-003, 0., 9.19963175e-004,
          9.19963175e-004, 1.19595211e-002, 9.19963175e-004,
          9.19963175e-004, 9.19963175e-004, 3.67985270e-003, 0.,
          9.19963175e-004, 0., 0., 0., 9.19963175e-004, 0., 0., 0.,
          9.19963175e-004, 0., 7.35970540e-003, 0., 0., 0.,
          9.19963175e-004, 9.19963140e-003, 0., 1.10395579e-002, 0., 0.,
          0., 0., 1.19595211e-002, 4.59981570e-003, 6.43974217e-003, 0.,
          9.19963175e-004, 0., 0., 9.19963175e-004, 9.19963175e-004,
          9.19963175e-004, 9.19963175e-004, 3.67985270e-003,
          9.19963175e-004, 0., 3.67985270e-003, 3.40386368e-002,
          1.83992635e-003, 2.75988947e-003, 0., 0., 1.83992635e-003, 0.,
          3.67985270e-003, 3.67985270e-003, 0., 0., 2.75988947e-003, 0.,
          0., 1.83992635e-003, 9.19963175e-004, 0., 5.51977893e-003,
          9.19963175e-004, 0., 0., 6.43974217e-003, 2.75988947e-003, 0.,
          0., 1.10395579e-002, 0., 9.19963175e-004, 1.83992635e-003, 0.,
          2.75988947e-003, 4.59981570e-003, 1.83992635e-003,
          9.19963175e-004, 2.75988947e-003, 2.75988947e-003, 0., 0.,
          1.83992635e-003, 9.19963175e-004, 0., 2.75988947e-003, 0., 0.,
          9.19963175e-004, 2.75988947e-003, 1.83992635e-003,
          1.83992635e-003, 2.75988947e-003, 9.19963175e-004,
          9.19963175e-004, 1.83992635e-003, 0., 9.19963175e-004, 0., 0.,
          0., 0., 0., 0., 9.19963175e-004, 9.19963175e-004,
          9.19963175e-004, 3.67985270e-003, 5.51977893e-003,
          9.19963175e-004, 0., 9.19963175e-004, 0., 1.83992635e-003,
          9.19963175e-004, 0., 0., 0., 0., 0., 0., 4.59981570e-003, 0.,
          0., 0., 0., 1.83992635e-003, 6.43974217e-003, 9.19963175e-004,
          9.19963175e-004, 5.51977893e-003, 1.83992635e-003,
          9.19963175e-004, 6.43974217e-003, 3.67985270e-003,
          2.75988947e-003, 0., 0., 0., 9.19963175e-004, 0.,
          8.27966817e-003, 0., 1.10395579e-002, 0., 2.75988947e-003,
          2.75988947e-003, 0., 1.83992635e-003, 9.19963175e-004,
          9.19963175e-004, 1.83992635e-003, 0., 9.19963175e-004, 0.,
          9.19963175e-004, 0., 9.19963175e-004, 8.27966817e-003,
          9.19963175e-004, 0., 3.67985270e-003, 2.75988947e-003, 0.,
          9.19963175e-004, 0., 0., 2.75988947e-003, 0., 0., 0.,
          5.51977893e-003, 1.83992635e-003, 0., 0., 9.19963175e-004, 0.,
          0., 2.75988947e-003, 9.19963175e-004, 1.10395579e-002,
          2.75988947e-003, 0., 7.35970540e-003, 0., 1.83992635e-003,
          2.75988947e-003, 0., 1.83992635e-003, 0., 2.75988947e-003,
          4.59981570e-003, 0., 2.75988947e-003, 0., 0., 9.19963175e-004,
          9.19963175e-004, 0., 9.19963175e-004, 5.51977893e-003,
          9.19963175e-004, 0., 9.19963175e-004, 9.19963175e-004,
          4.59981570e-003, 0., 4.59981570e-003, 9.19963175e-004,
          1.83992635e-003, 1.83992635e-003, 3.67985270e-003, 0., 0.,
          1.83992635e-003, 3.67985270e-003, 9.19963175e-004, 0.,
          1.83992635e-003, 0., 4.59981570e-003, 2.75988947e-003, 0.,
          2.75988947e-003, 0., 0., 0., 9.19963175e-004, 0., 0.,
          3.67985270e-003, 1.83992635e-003, 0., 9.19963175e-004, 0.,
          2.75988947e-003, 0., 0., 0., 0., 9.19963175e-004, 0.,
          3.67985270e-003, 5.51977893e-003, 5.51977893e-003,
          9.19963175e-004, 9.19963175e-004, 0., 0., 0., 2.75988947e-003,
          9.19963175e-004, 0., 9.19963175e-004, 9.19963175e-004,
          1.83992635e-003, 1.83992635e-003, 3.67985270e-003,
          9.19963175e-004, 0., 9.19963175e-004, 9.19963175e-004,
          5.51977893e-003, 2.75988947e-003, 0., 0., 9.19963175e-004,
          9.19963175e-004, 0., 1.83992635e-003, 1.83992635e-003,
          1.83992635e-003, 0., 0., 9.19963175e-004, 9.19963175e-004, 0.,
          9.19963175e-004, 2.75988947e-003, 3.67985270e-003,
          1.83992635e-003, 0., 0., 8.27966817e-003, 4.59981570e-003, 0.,
          5.51977893e-003, 3.67985270e-003, 0., 0., 0., 9.19963175e-004,
          1.83992635e-003, 9.19963175e-004, 0., 0., 9.19963175e-004,
          9.19963175e-004, 0., 0., 2.75988947e-003, 0., 0., 0., 0.,
          6.43974217e-003, 9.19963175e-004, 3.67985270e-003, 0.,
          9.19963175e-004, 0., 1.83992635e-003, 0., 9.19963175e-004,
          9.19963175e-004, 0., 9.19963175e-004, 9.19963175e-004,
          1.01195946e-002, 2.75988947e-003, 0., 0., 2.75988947e-003, 0.,
          1.83992635e-003, 1.83992635e-003, 3.67985270e-003, 0., 0., 0.,
          2.75988947e-003, 1.83992635e-003, 0., 0., 0., 9.19963175e-004,
          1.10395579e-002, 9.19963175e-004, 9.19963175e-004, 0.,
          9.19963175e-004, 0., 0., 0., 1.83992635e-003, 2.75988947e-003,
          9.19963175e-004, 9.19963175e-004, 9.19963175e-004, 0.,
          1.83992635e-003, 0., 0., 0., 0., 2.75988947e-003,
          1.83992635e-003, 4.59981570e-003, 0., 1.83992635e-003,
          1.83992635e-003, 9.19963175e-004, 0., 2.75988947e-003, 0.,
          3.67985270e-003, 0., 0., 8.27966817e-003, 0., 0., 0., 0. ]
      - [ 1.29701686e-003, 0., 6.48508430e-004, 1.94552529e-003, 0.,
          1.29701686e-003, 0., 0., 0., 7.13359285e-003, 1.29701686e-003,
          0., 0., 0., 0., 0., 6.48508407e-003, 1.94552529e-003, 0.,
          1.29701686e-003, 1.94552529e-003, 4.53955913e-003,
          2.59403372e-003, 0., 6.48508407e-003, 0., 1.29701686e-003,
          6.48508430e-004, 6.48508430e-004, 2.59403372e-003,
          1.94552529e-003, 3.24254204e-003, 6.48508430e-004,
          4.53955913e-003, 6.48508430e-004, 1.94552529e-003,
          5.18806744e-003, 5.83657576e-003, 3.24254204e-003,
          3.24254204e-003, 6.48508430e-004, 0., 6.48508430e-004,
          3.89105058e-003, 1.94552529e-003, 0., 1.94552529e-003, 0., 0.,
          3.89105058e-003, 6.48508430e-004, 3.89105058e-003, 0.,
          6.48508430e-004, 6.48508430e-004, 7.13359285e-003, 0.,
          4.53955913e-003, 6.48508430e-004, 1.94552529e-003, 0., 0., 0.,
          0., 1.29701686e-003, 0., 1.29701686e-003, 5.83657576e-003,
          6.48508430e-004, 1.94552529e-003, 0., 0., 6.48508430e-004,
          1.94552529e-003, 7.13359285e-003, 2.59403372e-003,
          2.59403372e-003, 0., 2.59403372e-003, 1.29701686e-003,
          6.48508430e-004, 3.24254204e-003, 0., 1.29701686e-003, 0., 0.,
          6.48508430e-004, 3.24254204e-003, 3.89105058e-003, 0.,
          3.89105058e-003, 0., 0., 3.24254204e-003, 3.24254204e-003,
          1.94552529e-003, 6.48508430e-004, 1.94552529e-003,
          5.18806744e-003, 0., 2.59403372e-003, 0., 5.18806744e-003,
          6.48508430e-004, 6.48508430e-004, 1.94552529e-003,
          1.94552529e-003, 1.29701686e-003, 6.48508430e-004,
          3.89105058e-003, 1.49156936e-002, 6.48508430e-004, 0.,
          4.53955913e-003, 0., 2.59403372e-003, 2.59403372e-003,
          5.18806744e-003, 2.59403372e-003, 0., 7.78210117e-003, 0., 0.,
          0., 1.94552529e-003, 3.24254204e-003, 0., 0., 6.48508430e-004,
          1.29701686e-003, 1.94552529e-003, 1.29701686e-003,
          1.29701686e-003, 1.29701686e-003, 0., 6.48508430e-004,
          3.24254204e-003, 1.29701686e-003, 3.89105058e-003, 0.,
          1.29701686e-003, 4.53955913e-003, 3.24254204e-003, 0.,
          1.94552529e-003, 3.89105058e-003, 0., 0., 0., 0.,
          6.48508430e-004, 1.94552529e-003, 6.48508430e-004,
          1.10246437e-002, 1.94552529e-003, 0., 6.48508430e-004,
          6.48508430e-004, 1.29701686e-003, 6.48508430e-004, 0.,
          1.94552529e-003, 1.29701686e-003, 0., 2.59403372e-003, 0.,
          1.29701686e-003, 0., 0., 2.59403372e-003, 1.94552529e-003, 0.,
          6.48508430e-004, 6.48508430e-004, 6.48508430e-004, 0.,
          1.29701686e-003, 7.13359285e-003, 2.59403372e-003,
          6.48508430e-004, 1.94552529e-003, 1.29701686e-003,
          6.48508430e-004, 6.48508430e-004, 0., 6.48508430e-004,
          6.48508430e-004, 6.48508430e-004, 1.29701686e-003,
          3.24254204e-003, 2.59403372e-003, 0., 5.83657576e-003,
          6.48508430e-004, 3.89105058e-003, 1.29701686e-003,
          1.55642023e-002, 4.53955913e-003, 1.94552529e-003,
          1.94552529e-003, 3.89105058e-003, 0., 0., 2.59403372e-003,
          1.29701686e-003, 5.18806744e-003, 7.13359285e-003, 0., 0.,
          5.18806744e-003, 0., 6.48508430e-004, 6.48508407e-003,
          2.59403372e-003, 0., 6.48508430e-004, 2.59403372e-003, 0.,
          1.94552529e-003, 0., 1.29701686e-003, 0., 0., 6.48508430e-004,
          1.94552529e-003, 0., 1.29701686e-003, 1.94552529e-003, 0.,
          6.48508430e-004, 1.29701686e-003, 3.89105058e-003,
          1.29701686e-003, 2.59403372e-003, 6.48508430e-004, 0., 0., 0.,
          3.24254204e-003, 1.29701686e-003, 2.59403372e-003,
          3.24254204e-003, 1.94552529e-003, 1.94552529e-003,
          4.53955913e-003, 0., 3.24254204e-003, 0., 0., 0.,
          1.29701686e-003, 7.13359285e-003, 3.24254204e-003, 0., 0., 0.,
          5.83657576e-003, 1.29701686e-003, 6.48508430e-004,
          5.18806744e-003, 1.29701686e-003, 0., 0., 1.29701686e-003, 0.,
          1.29701686e-003, 0., 3.24254204e-003, 1.94552529e-003,
          1.94552529e-003, 6.48508430e-004, 4.53955913e-003, 0., 0., 0.,
          0., 6.48508430e-004, 0., 0., 3.89105058e-003, 0.,
          1.94552529e-003, 3.24254204e-003, 2.59403372e-003, 0., 0., 0.,
          0., 7.13359285e-003, 1.16731515e-002, 0., 6.48508430e-004,
          2.59403372e-003, 6.48508430e-004, 0., 2.59403372e-003,
          5.83657576e-003, 3.89105058e-003, 0., 3.24254204e-003, 0.,
          3.24254204e-003, 0., 6.48508430e-004, 6.48508430e-004,
          7.13359285e-003, 2.59403372e-003, 0., 0., 5.18806744e-003,
          1.29701686e-003, 1.29701686e-003, 6.48508430e-004, 0., 0., 0.,
          6.48508430e-004, 7.13359285e-003, 3.89105058e-003,
          1.94552529e-003, 6.48508430e-004, 1.94552529e-003, 0.,
          2.59403372e-003, 7.78210117e-003, 0., 0., 0., 0.,
          1.29701686e-003, 1.94552529e-003, 6.48508407e-003,
          4.53955913e-003, 5.18806744e-003, 0., 2.59403372e-003, 0., 0.,
          0., 2.59403372e-003, 6.48508430e-004, 1.29701686e-003, 0., 0.,
          2.59403372e-003, 0., 0., 0., 6.48508430e-004, 2.59403372e-003,
          0., 0., 0., 6.48508430e-004, 1.29701686e-003, 1.29701686e-003,
          6.48508430e-004, 7.13359285e-003, 1.29701686e-003,
          7.78210117e-003, 6.48508430e-004, 8.43060948e-003,
          5.18806744e-003, 3.24254204e-003, 1.29701686e-003,
          1.94552529e-003, 3.89105058e-003, 0., 6.48508430e-004,
          5.18806744e-003, 0., 0., 6.48508430e-004, 0., 1.29701686e-003,
          1.29701686e-003, 6.48508430e-004, 8.43060948e-003,
          3.24254204e-003, 0., 1.94552529e-003, 1.94552529e-003, 0.,
          6.48508430e-004, 3.89105058e-003, 5.83657576e-003, 0., 0., 0.,
          0., 7.78210117e-003, 0., 0., 1.29701686e-003, 1.29701686e-003,
          1.29701686e-003, 0., 0., 0., 7.78210117e-003, 1.29701686e-003,
          0., 1.94552529e-003, 7.13359285e-003, 0., 7.13359285e-003, 0.,
          6.48508430e-004, 0., 6.48508430e-004, 6.48508430e-004, 0.,
          1.94552529e-003, 1.29701686e-003, 6.48508430e-004, 0.,
          1.29701686e-003, 3.24254204e-003, 2.59403372e-003,
          1.29701686e-003, 1.94552529e-003, 1.29701686e-003, 0.,
          1.29701686e-003, 0., 0., 6.48508430e-004, 6.48508430e-004,
          5.18806744e-003, 0., 6.48508430e-004, 1.94552529e-003,
          2.59403372e-003, 0., 8.43060948e-003, 1.29701686e-003,
          1.29701686e-003, 9.07911826e-003, 1.29701686e-003,
          6.48508430e-004, 0., 0., 0., 0., 0., 1.29701686e-003, 0.,
          4.53955913e-003, 7.78210117e-003, 0., 2.59403372e-003, 0.,
          6.48508430e-004, 0., 7.13359285e-003, 6.48508430e-004, 0., 0.,
          6.48508430e-004, 3.89105058e-003, 3.24254204e-003, 0.,
          1.94552529e-003, 4.53955913e-003, 0., 3.24254204e-003, 0., 0.,
          0., 3.24254204e-003, 6.48508430e-004, 0., 1.29701686e-003, 0.,
          0., 0., 0., 0., 0., 2.59403372e-003, 2.59403372e-003, 0.,
          1.10246437e-002, 0., 1.29701686e-003, 6.48508430e-004,
          6.48508430e-004, 1.42671857e-002, 3.24254204e-003,
          3.24254204e-003, 0., 0., 0., 6.48508430e-004, 6.48508430e-004,
          2.59403372e-003, 6.48508430e-004, 1.29701686e-003,
          6.48508430e-004, 0., 6.48508430e-004, 1.29701686e-003,
          6.48508430e-004, 0., 0., 1.29701686e-003, 1.94552529e-003, 0.,
          0., 0., 4.53955913e-003, 6.48508430e-004, 1.94552529e-003,
          1.94552529e-003, 6.48508430e-004, 0., 0., 0., 0.,
          6.48508430e-004, 3.89105058e-003, 0., 1.94552529e-003,
          3.24254204e-003, 1.29701686e-003, 0., 1.29701686e-003,
          6.48508430e-004, 0., 4.53955913e-003, 6.48508430e-004, 0.,
          1.94552529e-003, 0., 1.29701686e-003, 1.94552529e-003,
          6.48508430e-004, 6.48508430e-004, 0., 1.29701686e-003,
          4.53955913e-003, 1.29701686e-003, 2.59403372e-003, 0.,
          5.83657576e-003, 6.48508430e-004, 6.48508430e-004, 0., 0.,
          6.48508430e-004, 0., 6.48508430e-004, 0., 1.94552529e-003,
          1.29701686e-003, 6.48508430e-004, 2.59403372e-003,
          7.13359285e-003, 1.29701686e-003, 0., 6.48508430e-004,
          6.48508430e-004, 0., 1.29701686e-003, 6.48508430e-004,
          6.48508430e-004, 3.89105058e-003, 3.24254204e-003, 0., 0.,
          2.59403372e-003, 6.48508407e-003, 3.24254204e-003,
          6.48508430e-004, 0., 1.29701686e-003, 0., 6.48508430e-004,
          6.48508430e-004, 0., 1.29701686e-003, 0., 1.29701686e-003,
          2.59403372e-003, 6.48508430e-004, 0., 1.94552529e-003,
          6.48508430e-004, 2.59403372e-003, 6.48508430e-004,
          6.48508430e-004, 5.83657576e-003, 2.59403372e-003, 0.,
          1.29701686e-003, 0., 6.48508430e-004, 0., 0., 0. ]
      - [ 0., 0., 3.27011105e-003, 6.54022209e-004, 0., 3.92413326e-003,
          1.96206663e-003, 0., 1.30804442e-003, 0., 0., 0.,
          6.54022209e-004, 5.88619988e-003, 0., 0., 0., 3.27011105e-003,
          0., 6.54022209e-003, 4.57815547e-003, 5.88619988e-003,
          1.30804442e-003, 0., 1.30804442e-003, 0., 0., 0.,
          5.88619988e-003, 8.50228872e-003, 5.88619988e-003,
          3.92413326e-003, 1.96206663e-003, 1.96206663e-003,
          2.61608884e-003, 1.96206663e-003, 0., 3.92413326e-003,
          1.96206663e-003, 3.92413326e-003, 2.61608884e-003,
          6.54022209e-004, 0., 6.54022209e-004, 1.30804442e-003,
          6.54022209e-004, 7.19424430e-003, 0., 3.92413326e-003,
          1.30804442e-003, 0., 2.61608884e-003, 1.50425108e-002, 0.,
          2.61608884e-003, 1.30804442e-003, 0., 6.54022209e-003, 0.,
          2.61608884e-003, 0., 0., 0., 7.19424430e-003, 3.27011105e-003,
          6.54022209e-004, 3.27011105e-003, 5.88619988e-003,
          3.27011105e-003, 0., 6.54022209e-004, 0., 6.54022209e-004,
          1.30804442e-003, 1.30804442e-003, 0., 1.96206663e-003, 0.,
          6.54022209e-004, 6.54022209e-004, 0., 5.88619988e-003,
          6.54022209e-004, 0., 6.54022209e-004, 0., 5.23217767e-003,
          6.54022209e-004, 0., 1.96206663e-003, 3.92413326e-003, 0., 0.,
          2.61608884e-003, 1.30804442e-003, 1.96206663e-003, 0.,
          1.96206663e-003, 1.96206663e-003, 0., 0., 0., 1.96206663e-003,
          1.96206663e-003, 0., 1.30804442e-003, 4.57815547e-003,
          6.54022209e-004, 6.54022209e-003, 0., 0., 0., 0.,
          6.54022209e-004, 0., 0., 6.54022209e-004, 1.96206663e-003,
          1.96206663e-003, 0., 2.61608884e-003, 1.30804442e-003,
          1.30804442e-003, 5.23217767e-003, 2.61608884e-003,
          1.30804442e-003, 7.84826651e-003, 6.54022209e-004,
          1.96206663e-003, 0., 0., 6.54022209e-004, 0., 1.30804442e-003,
          2.61608884e-003, 6.54022209e-004, 2.61608884e-003,
          6.54022209e-004, 0., 0., 3.27011105e-003, 5.88619988e-003,
          3.92413326e-003, 0., 0., 2.61608884e-003, 0., 4.57815547e-003,
          0., 0., 6.54022209e-004, 1.76585987e-002, 6.54022209e-004, 0.,
          2.61608884e-003, 0., 2.61608884e-003, 0., 3.92413326e-003,
          9.81033314e-003, 0., 1.96206663e-003, 1.96206663e-003, 0., 0.,
          0., 5.23217767e-003, 6.54022209e-004, 0., 0., 0.,
          6.54022209e-004, 0., 6.54022209e-004, 2.61608884e-003,
          6.54022209e-004, 7.84826651e-003, 1.96206663e-003,
          1.30804442e-003, 1.30804442e-003, 6.54022209e-004, 0.,
          3.27011105e-003, 9.81033314e-003, 3.27011105e-003, 0.,
          6.54022209e-004, 6.54022209e-004, 1.30804442e-003, 0.,
          6.54022209e-003, 6.54022209e-004, 3.92413326e-003,
          1.96206663e-003, 0., 1.30804442e-003, 6.54022209e-004, 0.,
          1.30804442e-003, 0., 7.19424430e-003, 1.96206663e-003,
          3.27011105e-003, 0., 6.54022209e-004, 0., 1.96206663e-003, 0.,
          0., 3.27011105e-003, 0., 0., 0., 1.30804442e-003,
          1.96206663e-003, 2.61608884e-003, 1.96206663e-003, 0.,
          1.30804442e-003, 0., 6.54022209e-004, 0., 4.57815547e-003, 0.,
          1.30804442e-003, 1.30804442e-003, 1.30804442e-003, 0.,
          6.54022209e-004, 1.30804442e-003, 7.84826651e-003, 0., 0., 0.,
          3.92413326e-003, 0., 0., 5.23217767e-003, 2.61608884e-003,
          3.27011105e-003, 6.54022209e-004, 1.30804442e-003, 0., 0.,
          1.30804442e-003, 0., 0., 0., 0., 0., 6.54022209e-003, 0.,
          1.96206663e-003, 3.27011105e-003, 3.27011105e-003, 0.,
          1.96206663e-003, 1.30804442e-003, 3.27011105e-003,
          1.96206663e-003, 2.61608884e-003, 0., 0., 3.27011105e-003,
          6.54022209e-004, 8.50228872e-003, 2.61608884e-003,
          3.27011105e-003, 6.54022209e-004, 3.92413326e-003, 0.,
          1.30804442e-003, 1.30804442e-003, 2.61608884e-003,
          1.96206663e-003, 0., 1.96206663e-003, 1.96206663e-003, 0., 0.,
          1.96206663e-003, 3.27011105e-003, 3.27011105e-003,
          6.54022209e-004, 6.54022209e-004, 6.54022209e-004,
          6.54022209e-004, 0., 6.54022209e-004, 6.54022209e-004, 0.,
          1.96206663e-003, 9.81033314e-003, 4.57815547e-003, 0.,
          6.54022209e-004, 6.54022209e-004, 0., 1.30804442e-003,
          5.88619988e-003, 0., 3.27011105e-003, 6.54022209e-004,
          6.54022209e-004, 1.96206663e-003, 3.27011105e-003,
          6.54022209e-004, 0., 0., 2.61608884e-003, 5.23217767e-003,
          6.54022209e-004, 1.96206663e-003, 0., 0., 6.54022209e-004,
          3.27011105e-003, 0., 3.27011105e-003, 2.61608884e-003,
          6.54022209e-004, 2.61608884e-003, 1.30804442e-003,
          1.30804442e-003, 1.96206663e-003, 0., 6.54022209e-004, 0., 0.,
          6.54022209e-004, 6.54022209e-004, 6.54022209e-004,
          1.30804442e-003, 2.61608884e-003, 0., 1.96206663e-003,
          1.56965330e-002, 0., 0., 0., 3.27011105e-003, 0., 0., 0.,
          6.54022209e-004, 0., 0., 9.81033314e-003, 1.30804442e-003,
          1.96206663e-003, 0., 0., 0., 1.30804442e-003, 1.30804442e-003,
          1.30804442e-003, 1.30804442e-003, 0., 4.57815547e-003,
          1.96206663e-003, 1.30804442e-003, 6.54022209e-004, 0.,
          1.30804442e-003, 6.54022209e-004, 0., 7.19424430e-003, 0., 0.,
          0., 1.30804442e-003, 1.30804442e-003, 0., 3.27011105e-003,
          6.54022209e-004, 2.61608884e-003, 0., 3.27011105e-003,
          4.57815547e-003, 1.96206663e-003, 6.54022209e-004,
          1.96206663e-003, 3.92413326e-003, 6.54022209e-004,
          1.96206663e-003, 0., 0., 0., 0., 2.61608884e-003,
          3.92413326e-003, 1.30804442e-003, 0., 0., 3.92413326e-003, 0.,
          0., 0., 0., 1.96206663e-003, 6.54022209e-004, 0.,
          2.61608884e-003, 3.27011105e-003, 6.54022209e-004,
          1.30804442e-003, 0., 0., 3.92413326e-003, 0., 0.,
          1.30804442e-003, 0., 3.92413326e-003, 3.92413326e-003,
          2.61608884e-003, 6.54022209e-004, 3.27011105e-003, 0., 0., 0.,
          1.96206663e-003, 0., 4.57815547e-003, 6.54022209e-004, 0., 0.,
          6.54022209e-004, 0., 0., 3.27011105e-003, 1.30804442e-003,
          1.96206663e-003, 1.30804442e-003, 1.96206663e-003,
          2.61608884e-003, 0., 1.96206663e-003, 6.54022209e-004,
          6.54022209e-004, 0., 6.54022209e-004, 3.92413326e-003, 0.,
          1.30804442e-003, 0., 3.27011105e-003, 6.54022209e-004,
          6.54022209e-004, 0., 6.54022209e-004, 0., 2.61608884e-003, 0.,
          1.30804442e-003, 2.61608884e-003, 0., 1.30804442e-003,
          2.61608884e-003, 1.30804442e-003, 1.30804442e-003, 0.,
          6.54022209e-004, 1.30804442e-003, 0., 0., 0., 6.54022209e-004,
          6.54022209e-004, 6.54022209e-004, 6.54022209e-004,
          6.54022209e-004, 6.54022209e-004, 0., 3.92413326e-003, 0., 0.,
          0., 0., 2.61608884e-003, 6.54022209e-004, 1.96206663e-003,
          1.96206663e-003, 1.30804442e-003, 0., 0., 0., 0.,
          2.61608884e-003, 0., 6.54022209e-004, 0., 6.54022209e-004, 0.,
          1.30804442e-003, 5.23217767e-003, 5.88619988e-003,
          1.96206663e-003, 0., 0., 3.27011105e-003, 3.27011105e-003, 0.,
          1.96206663e-003, 1.30804442e-003, 1.96206663e-003, 0.,
          6.54022209e-004, 0., 1.04643553e-002, 2.61608884e-003,
          5.23217767e-003, 6.54022209e-004, 3.27011105e-003, 0., 0.,
          7.19424430e-003, 0., 0., 0., 3.27011105e-003, 0.,
          1.30804442e-003, 0., 1.30804442e-003, 0., 3.27011105e-003, 0.,
          2.61608884e-003, 2.61608884e-003, 0., 6.54022209e-004,
          6.54022209e-003, 3.92413326e-003, 1.96206663e-003,
          1.30804442e-003, 0., 1.96206663e-003, 0., 1.96206663e-003,
          1.04643553e-002, 6.54022209e-004, 0., 1.96206663e-003,
          1.30804442e-003, 6.54022209e-004, 1.30804442e-003, 0., 0.,
          3.92413326e-003, 0., 6.54022209e-004, 2.61608884e-003,
          1.30804442e-003, 3.27011105e-003, 0., 7.19424430e-003,
          5.23217767e-003, 0., 0., 6.54022209e-004, 1.30804442e-003,
          6.54022209e-004, 6.54022209e-004, 6.54022209e-004,
          6.54022209e-004, 1.30804442e-003, 5.23217767e-003,
          1.30804442e-002, 0., 1.30804442e-003, 0., 1.96206663e-003,
          5.88619988e-003, 1.70045774e-002, 1.30804442e-003, 0.,
          1.30804442e-003, 0., 0., 7.19424430e-003, 0., 3.27011105e-003,
          6.54022209e-004, 1.96206663e-003, 0., 1.43884886e-002,
          1.30804442e-003, 6.54022209e-004, 0., 6.54022209e-004, 0.,
          3.92413326e-003, 5.88619988e-003, 1.30804442e-003,
          6.54022209e-004, 1.30804442e-003, 6.54022209e-004,
          6.54022209e-004, 0. ]
      - [ 1.66944903e-003, 0., 5.00834733e-003, 0., 0., 3.33889807e-003,
          0., 0., 0., 1.66944903e-003, 3.33889807e-003, 0.,
          1.66944903e-003, 1.66944903e-003, 0., 0., 1.66944903e-003, 0.,
          0., 3.33889807e-003, 3.33889807e-003, 0., 3.33889807e-003, 0.,
          0., 0., 0., 1.66944903e-003, 3.33889807e-003, 1.66944903e-003,
          1.66944903e-003, 0., 1.66944903e-003, 5.00834733e-003,
          5.00834733e-003, 0., 0., 0., 5.00834733e-003, 0., 0.,
          6.67779613e-003, 8.34724493e-003, 1.66944899e-002,
          6.67779613e-003, 0., 0., 0., 1.66944903e-003, 0.,
          5.00834733e-003, 0., 0., 0., 0., 6.67779613e-003, 0., 0., 0.,
          1.66944903e-003, 0., 0., 0., 0., 3.33889807e-003,
          3.33889807e-003, 0., 0., 5.00834733e-003, 3.33889807e-003,
          5.00834733e-003, 0., 0., 0., 0., 3.33889807e-003, 0., 0.,
          1.66944903e-003, 3.33889807e-003, 5.00834733e-003, 0.,
          1.66944903e-003, 5.00834733e-003, 0., 0., 0., 0., 0., 0., 0.,
          0., 0., 0., 1.66944903e-003, 0., 1.66944903e-003,
          5.00834733e-003, 8.34724493e-003, 0., 1.66944903e-003, 0., 0.,
          3.33889807e-003, 0., 3.33889807e-003, 0., 0., 0.,
          8.34724493e-003, 0., 3.33889807e-003, 0., 0., 3.33889807e-003,
          0., 0., 3.33889807e-003, 0., 0., 0., 0., 1.66944903e-003, 0.,
          0., 0., 6.67779613e-003, 0., 0., 1.66944903e-003,
          3.33889807e-003, 0., 0., 8.34724493e-003, 3.33889807e-003, 0.,
          1.16861435e-002, 0., 3.33889807e-003, 8.34724493e-003, 0.,
          3.33889807e-003, 0., 0., 3.33889807e-003, 0., 0., 0., 0., 0.,
          1.66944903e-003, 3.33889807e-003, 1.66944903e-003, 0., 0.,
          8.34724493e-003, 0., 0., 0., 0., 0., 0., 6.67779613e-003, 0.,
          6.67779613e-003, 0., 0., 0., 0., 3.33889807e-003,
          1.00166947e-002, 1.66944903e-003, 0., 0., 0., 0., 0., 0.,
          3.33889807e-003, 0., 0., 5.00834733e-003, 6.67779613e-003,
          1.66944903e-003, 0., 3.33889807e-003, 0., 6.67779613e-003,
          1.66944903e-003, 0., 0., 0., 1.66944903e-003, 1.66944903e-003,
          1.66944903e-003, 3.33889807e-003, 1.66944903e-003,
          1.66944903e-003, 0., 0., 0., 3.33889807e-003, 0.,
          1.16861435e-002, 3.33889807e-003, 0., 5.00834733e-003,
          3.33889807e-003, 1.66944903e-003, 0., 0., 3.33889807e-003,
          3.33889807e-003, 0., 0., 1.66944903e-003, 0., 0., 0., 0., 0.,
          1.66944903e-003, 3.33889807e-003, 0., 6.67779613e-003, 0.,
          1.66944903e-003, 1.66944903e-003, 1.16861435e-002,
          6.67779613e-003, 0., 0., 3.33889807e-003, 5.00834733e-003,
          1.66944903e-003, 0., 0., 0., 0., 0., 0., 0., 0.,
          1.66944903e-003, 3.33889807e-003, 0., 1.66944903e-003, 0.,
          3.33889807e-003, 0., 0., 1.66944903e-003, 1.66944903e-003,
          1.66944903e-003, 1.66944903e-003, 0., 1.66944903e-003,
          1.66944903e-003, 5.00834733e-003, 1.66944903e-003,
          1.66944903e-003, 0., 0., 3.33889807e-003, 1.66944903e-003, 0.,
          0., 8.34724493e-003, 1.66944903e-003, 1.66944903e-003, 0.,
          1.66944903e-003, 3.33889807e-003, 1.66944903e-003,
          6.67779613e-003, 0., 1.66944899e-002, 0., 0., 1.66944903e-003,
          6.67779613e-003, 3.33889807e-003, 5.00834733e-003,
          3.33889807e-003, 3.33889807e-003, 0., 1.66944903e-003, 0.,
          1.66944903e-003, 0., 1.66944903e-003, 0., 0., 0.,
          1.66944903e-003, 3.33889807e-003, 0., 3.33889807e-003,
          3.33889807e-003, 0., 1.66944903e-003, 6.67779613e-003, 0.,
          1.66944903e-003, 1.66944903e-003, 0., 3.33889807e-003, 0., 0.,
          0., 5.00834733e-003, 0., 5.00834733e-003, 0., 0., 0.,
          1.33555923e-002, 0., 1.66944903e-003, 3.33889807e-003, 0.,
          5.00834733e-003, 0., 0., 3.33889807e-003, 0., 0., 0., 0., 0.,
          5.00834733e-003, 1.66944903e-003, 8.34724493e-003, 0.,
          1.66944903e-003, 0., 0., 0., 0., 1.00166947e-002,
          3.33889807e-003, 3.33889807e-003, 0., 0., 1.66944903e-003, 0.,
          0., 0., 6.67779613e-003, 1.66944899e-002, 0., 0., 0.,
          1.66944903e-003, 0., 1.66944903e-003, 0., 1.66944903e-003, 0.,
          3.33889807e-003, 1.66944903e-003, 1.50250411e-002, 0., 0., 0.,
          0., 0., 0., 1.00166947e-002, 0., 0., 0., 0., 1.66944903e-003,
          1.66944903e-003, 0., 1.66944903e-003, 3.33889807e-003, 0.,
          8.34724493e-003, 3.33889807e-003, 0., 0., 0., 0., 0., 0., 0.,
          0., 0., 0., 0., 0., 0., 1.66944903e-003, 0., 0., 0., 0., 0.,
          0., 0., 0., 1.66944903e-003, 8.34724493e-003, 0.,
          3.33889807e-003, 6.67779613e-003, 0., 3.33889807e-003, 0., 0.,
          0., 0., 0., 1.66944903e-003, 0., 0., 0., 0., 1.66944903e-003,
          1.33555923e-002, 0., 0., 1.66944903e-003, 3.33889807e-003, 0.,
          0., 0., 0., 0., 0., 5.00834733e-003, 0., 3.33889807e-003,
          1.66944903e-003, 5.00834733e-003, 0., 0., 1.66944903e-003, 0.,
          0., 0., 1.66944903e-003, 0., 3.33889807e-003, 0., 0., 0., 0.,
          0., 0., 5.00834733e-003, 0., 1.66944903e-003, 0., 0., 0., 0.,
          3.33889807e-003, 1.66944903e-003, 0., 3.33889807e-003, 0., 0.,
          1.66944903e-003, 1.66944903e-003, 5.00834733e-003, 0.,
          1.00166947e-002, 6.67779613e-003, 1.66944903e-003,
          5.00834733e-003, 0., 3.33889807e-003, 0., 0., 3.33889807e-003,
          1.66944903e-003, 0., 3.33889807e-003, 5.00834733e-003,
          1.66944903e-003, 0., 0., 1.66944903e-003, 1.66944903e-003,
          1.66944903e-003, 0., 0., 0., 1.66944903e-003, 0., 0.,
          1.66944903e-003, 5.00834733e-003, 0., 0., 0., 0., 0., 0., 0.,
          0., 3.33889807e-003, 0., 0., 1.66944903e-003, 0.,
          6.67779613e-003, 1.66944903e-003, 1.16861435e-002, 0.,
          3.33889807e-003, 1.66944903e-003, 0., 5.00834733e-003, 0.,
          3.33889807e-003, 5.00834733e-003, 3.33889807e-003,
          1.66944903e-003, 5.00834733e-003, 0., 3.33889807e-003, 0., 0.,
          0., 0., 0., 3.33889807e-003, 0., 1.66944903e-003,
          3.33889807e-003, 1.66944903e-003, 0., 3.33889807e-003,
          1.66944903e-003, 0., 1.66944903e-003, 1.66944903e-003,
          1.66944903e-003, 1.66944899e-002, 0., 0., 1.66944903e-003, 0.,
          0., 3.33889807e-003, 5.00834733e-003, 0., 0., 0.,
          6.67779613e-003, 0., 0., 0., 0., 1.66944903e-003, 0., 0., 0.,
          0., 0., 1.66944903e-003, 1.66944903e-003, 1.66944903e-003,
          5.00834733e-003, 0., 0., 0., 0., 3.33889807e-003,
          1.66944903e-003, 1.66944903e-003, 1.66944903e-003, 0., 0., 0.,
          1.66944903e-003, 0., 0., 1.66944903e-003, 1.66944903e-003, 0.,
          0., 0., 5.00834733e-003, 5.00834733e-003, 0., 6.67779613e-003,
          0., 3.33889807e-003, 1.66944903e-003, 3.33889807e-003, 0., 0.,
          0., 1.66944903e-003, 0. ]
      - [ 0., 0., 0., 4.06504050e-003, 0., 1.62601622e-003,
          1.62601622e-003, 8.13008111e-004, 0., 1.62601622e-003,
          8.13008111e-004, 8.13008111e-004, 8.13008111e-004,
          8.13008111e-004, 0., 0., 1.62601622e-003, 8.13008111e-004, 0.,
          1.62601622e-003, 7.31707318e-003, 4.06504050e-003,
          4.87804879e-003, 0., 5.69105661e-003, 0., 8.13008111e-004, 0.,
          2.43902439e-003, 5.69105661e-003, 1.62601622e-003,
          4.87804879e-003, 8.13008111e-004, 1.62601622e-003,
          1.62601622e-003, 1.62601622e-003, 0., 1.62601622e-003, 0.,
          4.87804879e-003, 8.13008111e-004, 0., 0., 8.13008111e-004,
          8.13008111e-004, 8.13008111e-004, 4.06504050e-003, 0.,
          1.62601622e-003, 8.13008111e-004, 0., 8.13008100e-003,
          1.78861786e-002, 4.06504050e-003, 0., 2.43902439e-003,
          8.13008111e-004, 4.06504050e-003, 0., 8.13008111e-004,
          1.62601622e-003, 0., 0., 8.13008111e-004, 8.13008111e-004,
          2.43902439e-003, 5.69105661e-003, 1.62601622e-003,
          3.25203245e-003, 0., 8.13008111e-004, 0., 8.13008111e-004,
          1.62601622e-003, 1.62601622e-003, 4.87804879e-003, 0., 0.,
          4.06504050e-003, 0., 0., 7.31707318e-003, 0., 8.13008111e-004,
          0., 0., 1.62601622e-003, 0., 1.62601622e-003, 4.06504050e-003,
          3.25203245e-003, 0., 0., 2.43902439e-003, 1.62601622e-003,
          3.25203245e-003, 8.13008111e-004, 2.43902439e-003, 0., 0.,
          4.06504050e-003, 0., 8.13008111e-004, 8.13008111e-004, 0.,
          9.75609757e-003, 9.75609757e-003, 0., 3.25203245e-003, 0.,
          1.62601622e-003, 0., 0., 1.62601622e-003, 0., 0.,
          2.43902439e-003, 1.62601622e-003, 4.06504050e-003, 0.,
          5.69105661e-003, 0., 8.13008111e-004, 0., 3.25203245e-003,
          2.43902439e-003, 0., 8.13008111e-004, 8.13008111e-004,
          8.13008111e-004, 0., 6.50406489e-003, 0., 4.87804879e-003, 0.,
          3.25203245e-003, 8.13008111e-004, 1.62601622e-003,
          1.62601622e-003, 8.13008111e-004, 3.25203245e-003,
          2.43902439e-003, 4.06504050e-003, 0., 8.13008111e-004,
          4.87804879e-003, 0., 4.87804879e-003, 2.43902439e-003, 0.,
          1.62601622e-003, 3.25203245e-003, 8.13008111e-004,
          2.43902439e-003, 7.31707318e-003, 0., 5.69105661e-003, 0.,
          4.87804879e-003, 8.13008111e-004, 0., 1.62601622e-003,
          8.13008111e-004, 0., 8.13008111e-004, 0., 2.43902439e-003,
          1.62601622e-003, 0., 8.13008111e-004, 8.13008111e-004,
          1.62601622e-003, 0., 4.06504050e-003, 8.13008111e-004,
          8.13008111e-004, 8.13008111e-004, 1.62601622e-003,
          1.62601622e-003, 0., 0., 8.13008111e-004, 0., 0.,
          4.87804879e-003, 8.13008111e-004, 8.13008111e-004, 0., 0., 0.,
          2.43902439e-003, 8.13008111e-004, 4.87804879e-003,
          2.43902439e-003, 0., 0., 2.43902439e-003, 0., 3.25203245e-003,
          4.06504050e-003, 5.69105661e-003, 8.13008111e-004,
          2.43902439e-003, 8.13008111e-004, 2.43902439e-003,
          8.13008111e-004, 8.13008111e-004, 0., 1.62601622e-003,
          3.25203245e-003, 0., 0., 0., 1.62601622e-003, 0.,
          8.13008111e-004, 0., 0., 4.87804879e-003, 0., 8.13008111e-004,
          0., 0., 0., 0., 8.13008111e-004, 1.62601622e-003,
          3.25203245e-003, 0., 0., 4.06504050e-003, 2.43902439e-003,
          8.13008111e-004, 8.13008111e-004, 0., 0., 0., 1.62601622e-003,
          4.06504050e-003, 1.62601622e-003, 8.13008111e-004,
          5.69105661e-003, 2.43902439e-003, 2.43902439e-003,
          8.13008111e-004, 0., 0., 8.13008111e-004, 1.62601622e-003,
          5.69105661e-003, 9.75609757e-003, 0., 1.62601622e-003, 0., 0.,
          0., 7.31707318e-003, 4.06504050e-003, 0., 8.13008111e-004,
          3.25203245e-003, 0., 0., 8.94308928e-003, 0., 4.06504050e-003,
          5.69105661e-003, 6.50406489e-003, 0., 4.06504050e-003,
          8.13008111e-004, 8.13008111e-004, 0., 0., 8.13008111e-004, 0.,
          0., 4.06504050e-003, 2.43902439e-003, 0., 0., 4.06504050e-003,
          2.43902439e-003, 0., 0., 0., 8.13008111e-004, 0., 0.,
          1.62601622e-003, 1.62601622e-003, 2.43902439e-003,
          8.13008100e-003, 8.13008111e-004, 0., 1.62601622e-003, 0., 0.,
          2.43902439e-003, 5.69105661e-003, 0., 3.25203245e-003,
          1.62601622e-003, 0., 4.06504050e-003, 3.25203245e-003,
          1.62601622e-003, 0., 0., 2.43902439e-003, 4.06504050e-003,
          8.13008111e-004, 1.62601622e-003, 0., 0., 8.13008111e-004,
          5.69105661e-003, 0., 4.06504050e-003, 0., 4.87804879e-003,
          3.25203245e-003, 0., 1.62601622e-003, 0., 0., 0.,
          8.13008111e-004, 0., 7.31707318e-003, 8.13008111e-004, 0., 0.,
          0., 0., 0., 1.62601622e-003, 0., 0., 8.13008111e-004,
          5.69105661e-003, 0., 0., 0., 0., 0., 0., 4.06504050e-003,
          1.62601622e-003, 0., 0., 1.62601622e-003, 0., 8.13008111e-004,
          2.43902439e-003, 1.62601620e-002, 0., 0., 7.31707318e-003,
          1.62601622e-003, 8.13008111e-004, 8.13008111e-004,
          8.13008111e-004, 4.87804879e-003, 2.43902439e-003, 0.,
          4.06504050e-003, 0., 8.13008111e-004, 8.13008111e-004,
          2.43902439e-003, 1.62601622e-003, 0., 3.25203245e-003,
          4.87804879e-003, 3.25203245e-003, 0., 4.87804879e-003,
          3.25203245e-003, 0., 5.69105661e-003, 3.25203245e-003,
          1.62601622e-003, 8.13008111e-004, 0., 0., 0., 2.43902439e-003,
          0., 8.13008111e-004, 1.62601622e-003, 1.62601622e-003, 0.,
          2.43902439e-003, 4.87804879e-003, 1.62601622e-003, 0., 0., 0.,
          2.43902439e-003, 0., 0., 2.43902439e-003, 7.31707318e-003,
          2.43902439e-003, 8.13008111e-004, 0., 0., 1.62601622e-003,
          1.62601622e-003, 0., 8.13008111e-004, 0., 4.06504050e-003,
          3.25203245e-003, 1.62601622e-003, 8.13008111e-004,
          6.50406489e-003, 4.87804879e-003, 0., 4.06504050e-003, 0., 0.,
          1.62601622e-003, 0., 0., 3.25203245e-003, 0., 2.43902439e-003,
          0., 5.69105661e-003, 1.62601622e-003, 1.62601622e-003,
          1.62601622e-003, 1.62601622e-003, 4.06504050e-003, 0.,
          4.87804879e-003, 0., 0., 0., 0., 0., 4.87804879e-003,
          8.13008111e-004, 0., 1.21951215e-002, 4.87804879e-003,
          1.62601622e-003, 0., 0., 0., 3.25203245e-003, 0.,
          8.13008111e-004, 8.13008111e-004, 0., 8.13008111e-004,
          1.62601622e-003, 1.62601622e-003, 4.87804879e-003, 0.,
          8.13008111e-004, 8.13008111e-004, 0., 0., 8.13008111e-004,
          4.06504050e-003, 0., 0., 8.13008111e-004, 8.13008111e-004,
          2.43902439e-003, 0., 3.25203245e-003, 8.13008111e-004, 0.,
          8.13008111e-004, 8.13008111e-004, 4.87804879e-003, 0.,
          8.13008111e-004, 1.62601622e-003, 5.69105661e-003,
          2.43902439e-003, 8.13008111e-004, 8.13008111e-004,
          8.13008111e-004, 8.13008111e-004, 8.13008111e-004, 0., 0., 0.,
          0., 5.69105661e-003, 2.43902439e-003, 6.50406489e-003,
          1.62601622e-003, 1.62601622e-003, 0., 8.13008100e-003,
          2.43902439e-003, 2.43902439e-003, 1.62601622e-003,
          8.13008111e-004, 0., 0., 3.25203245e-003, 0., 2.43902439e-003,
          0., 2.43902439e-003, 1.62601622e-003, 8.13008111e-004,
          4.06504050e-003, 0., 0., 0., 0., 0., 2.43902439e-003,
          8.13008111e-004, 2.43902439e-003, 0., 8.13008111e-004, 0.,
          5.69105661e-003, 0., 4.06504050e-003, 4.06504050e-003,
          8.13008111e-004, 8.13008111e-004, 2.43902439e-003, 0., 0., 0.,
          8.13008111e-004, 0., 0., 4.06504050e-003, 3.25203245e-003, 0.,
          0., 8.13008111e-004, 4.06504050e-003, 8.13008111e-004,
          2.43902439e-003, 0., 0., 8.13008111e-004, 0., 2.43902439e-003,
          0., 0., 4.06504050e-003, 8.13008111e-004, 0., 3.25203245e-003,
          0., 0., 0., 1.62601622e-003, 0., 6.50406489e-003,
          3.25203245e-003, 8.13008111e-004, 1.62601622e-003,
          3.25203245e-003, 0., 0., 4.06504050e-003, 8.94308928e-003, 0.,
          2.43902439e-003, 8.13008111e-004, 1.62601622e-003, 0., 0.,
          2.43902439e-003, 8.13008111e-004, 4.06504050e-003, 0.,
          8.13008111e-004, 5.69105661e-003, 0., 0., 5.69105661e-003,
          8.13008111e-004, 4.87804879e-003, 0., 0., 8.13008111e-004,
          1.62601622e-003, 3.25203245e-003, 3.25203245e-003,
          1.62601622e-003, 0., 1.62601622e-003, 5.69105661e-003,
          2.43902439e-003 ]
      - [ 8.66551127e-004, 0., 0., 2.59965332e-003, 0., 6.06585806e-003,
          2.59965332e-003, 0., 2.59965332e-003, 0., 8.66551127e-004, 0.,
          0., 1.73310225e-003, 0., 0., 8.66551127e-004, 1.73310225e-003,
          0., 2.59965332e-003, 1.73310225e-003, 3.46620451e-003,
          2.59965332e-003, 0., 3.46620451e-003, 0., 8.66551127e-004,
          1.29982671e-002, 2.59965332e-003, 3.46620451e-003, 0.,
          2.59965332e-003, 0., 1.73310225e-003, 1.73310225e-003, 0.,
          8.66551127e-004, 2.59965332e-003, 2.59965332e-003,
          1.73310225e-003, 2.59965332e-003, 5.19930664e-003, 0.,
          8.66551127e-004, 3.46620451e-003, 4.33275569e-003, 0., 0.,
          2.59965332e-003, 8.66551127e-004, 0., 6.06585806e-003,
          3.46620451e-003, 8.66551127e-004, 8.66551127e-004,
          8.66551127e-004, 8.66551127e-004, 0., 0., 1.73310225e-003,
          2.59965332e-003, 0., 0., 0., 2.59965332e-003, 8.66551127e-004,
          2.59965332e-003, 3.46620451e-003, 2.59965332e-003, 0.,
          8.66551127e-004, 0., 0., 8.66551127e-004, 0., 1.73310225e-003,
          6.06585806e-003, 0., 3.46620451e-003, 8.66551127e-004,
          3.46620451e-003, 2.59965332e-003, 8.66551127e-004, 0., 0., 0.,
          1.73310225e-003, 1.73310225e-003, 8.66551127e-004,
          2.59965332e-003, 6.06585806e-003, 0., 0., 5.19930664e-003, 0.,
          0., 2.59965332e-003, 1.73310225e-003, 5.19930664e-003, 0.,
          8.66551127e-004, 0., 8.66551127e-004, 3.46620451e-003, 0.,
          4.33275569e-003, 5.19930664e-003, 0., 1.73310225e-003,
          2.59965332e-003, 0., 0., 0., 1.73310225e-003, 0.,
          8.66551127e-004, 4.33275569e-003, 1.73310225e-003,
          1.73310225e-003, 0., 2.59965332e-003, 1.73310225e-003,
          8.66551127e-004, 2.59965332e-003, 0., 2.59965332e-003,
          2.59965332e-003, 2.59965332e-003, 0., 8.66551127e-004,
          8.66551127e-004, 8.66551127e-004, 8.66551127e-004,
          1.73310225e-003, 0., 0., 0., 2.59965332e-003, 0.,
          8.66551127e-004, 8.66551127e-004, 1.73310225e-003,
          1.73310225e-003, 1.73310225e-003, 8.66551127e-004,
          5.19930664e-003, 0., 5.19930664e-003, 0., 0., 0.,
          2.59965332e-003, 3.46620451e-003, 1.73310225e-003,
          3.46620451e-003, 1.64644718e-002, 8.66551127e-004,
          8.66551127e-004, 1.73310225e-003, 8.66551127e-004, 0., 0., 0.,
          0., 2.59965332e-003, 0., 8.66551127e-004, 0., 8.66551127e-004,
          0., 6.06585806e-003, 1.73310225e-003, 0., 2.59965332e-003, 0.,
          4.33275569e-003, 1.73310225e-003, 6.06585806e-003,
          1.73310225e-003, 3.46620451e-003, 8.66551127e-004,
          5.19930664e-003, 8.66551127e-004, 8.66551127e-004, 0., 0.,
          2.59965332e-003, 0., 0., 8.66551127e-004, 1.73310225e-003, 0.,
          1.73310225e-003, 4.33275569e-003, 0., 0., 1.73310225e-003, 0.,
          3.46620451e-003, 8.66551127e-004, 8.66551127e-004,
          2.59965332e-003, 8.66551127e-004, 6.93240901e-003,
          1.73310225e-003, 0., 1.73310225e-003, 0., 1.73310225e-003,
          1.73310225e-003, 0., 9.53206234e-003, 8.66551127e-004,
          4.33275569e-003, 1.73310225e-003, 8.66551127e-004, 0., 0., 0.,
          0., 3.46620451e-003, 0., 0., 0., 3.46620451e-003, 0.,
          8.66551127e-004, 4.33275569e-003, 1.12651642e-002,
          1.73310225e-003, 5.19930664e-003, 8.66551127e-004,
          3.46620451e-003, 0., 8.66551127e-004, 0., 0., 2.59965332e-003,
          3.46620451e-003, 3.46620451e-003, 0., 2.59965332e-003, 0.,
          8.66551127e-004, 0., 0., 5.19930664e-003, 0., 0.,
          2.59965332e-003, 1.73310225e-003, 1.73310225e-003,
          1.73310225e-003, 8.66551138e-003, 2.59965332e-003, 0.,
          8.66551127e-004, 0., 0., 4.33275569e-003, 3.46620451e-003, 0.,
          0., 1.73310225e-003, 0., 2.59965332e-003, 8.66551127e-004,
          2.59965332e-003, 0., 1.73310225e-003, 8.66551127e-004,
          8.66551127e-004, 0., 1.73310225e-003, 1.73310225e-003, 0.,
          5.19930664e-003, 4.33275569e-003, 1.73310225e-003,
          8.66551127e-004, 0., 8.66551127e-004, 1.73310225e-003, 0.,
          1.73310225e-003, 0., 0., 0., 0., 4.33275569e-003,
          8.66551127e-004, 5.19930664e-003, 8.66551138e-003,
          2.59965332e-003, 8.66551127e-004, 8.66551127e-004,
          7.79895997e-003, 0., 8.66551127e-004, 8.66551127e-004, 0.,
          1.73310225e-003, 3.46620451e-003, 0., 1.73310225e-003,
          1.73310225e-003, 4.33275569e-003, 0., 1.73310225e-003,
          1.73310225e-003, 0., 2.59965332e-003, 4.33275569e-003, 0.,
          6.06585806e-003, 8.66551127e-004, 6.93240901e-003,
          8.66551127e-004, 4.33275569e-003, 0., 3.46620451e-003,
          1.73310225e-003, 2.59965332e-003, 8.66551127e-004,
          2.59965332e-003, 0., 0., 0., 8.66551127e-004, 1.73310225e-003,
          2.59965332e-003, 1.73310225e-003, 4.33275569e-003,
          8.66551127e-004, 1.73310225e-003, 8.66551127e-004, 0., 0., 0.,
          4.33275569e-003, 1.73310225e-003, 8.66551127e-004, 0., 0., 0.,
          0., 0., 8.66551127e-004, 2.59965332e-003, 1.73310225e-003, 0.,
          1.73310225e-003, 0., 0., 1.73310225e-003, 3.46620451e-003,
          8.66551127e-004, 8.66551127e-004, 2.59965332e-003,
          1.73310225e-003, 8.66551127e-004, 8.66551127e-004,
          8.66551127e-004, 8.66551127e-004, 4.33275569e-003, 0.,
          6.06585806e-003, 1.73310225e-003, 4.33275569e-003, 0.,
          8.66551127e-004, 0., 0., 1.73310225e-003, 1.73310225e-003,
          2.59965332e-003, 0., 1.73310225e-003, 5.19930664e-003, 0.,
          1.73310225e-003, 8.66551127e-004, 2.59965332e-003,
          2.59965332e-003, 7.79895997e-003, 8.66551127e-004, 0., 0., 0.,
          5.19930664e-003, 0., 1.73310225e-003, 0., 0., 0.,
          4.33275569e-003, 0., 0., 0., 8.66551127e-004, 0., 0.,
          1.73310225e-003, 8.66551127e-004, 2.59965332e-003,
          4.33275569e-003, 8.66551127e-004, 8.66551127e-004,
          1.73310225e-003, 8.66551127e-004, 0., 2.59965332e-003,
          1.73310225e-003, 1.73310225e-003, 2.59965332e-003,
          1.73310225e-003, 1.73310225e-003, 8.66551127e-004,
          8.66551127e-004, 0., 2.59965332e-003, 2.59965332e-003, 0.,
          8.66551127e-004, 1.73310225e-003, 0., 1.73310225e-003,
          6.93240901e-003, 4.33275569e-003, 0., 2.59965332e-003,
          2.59965332e-003, 1.73310225e-003, 2.59965332e-003,
          8.66551127e-004, 1.73310225e-003, 0., 6.06585806e-003,
          1.73310225e-003, 2.59965332e-003, 0., 0., 8.66551127e-004,
          8.66551127e-004, 8.66551127e-004, 1.73310225e-003,
          5.19930664e-003, 4.33275569e-003, 8.66551127e-004, 0., 0., 0.,
          1.73310225e-003, 0., 8.66551127e-004, 2.59965332e-003, 0.,
          2.59965332e-003, 2.59965332e-003, 1.73310225e-003,
          1.73310225e-003, 0., 2.59965332e-003, 4.33275569e-003, 0.,
          1.73310225e-003, 8.66551127e-004, 0., 8.66551127e-004,
          1.73310225e-003, 4.33275569e-003, 0., 0., 8.66551127e-004,
          8.66551127e-004, 8.66551127e-004, 0., 8.66551127e-004,
          8.66551127e-004, 2.59965332e-003, 1.73310225e-003,
          8.66551127e-004, 0., 8.66551127e-004, 8.66551127e-004,
          1.73310225e-003, 2.59965332e-003, 1.73310225e-003,
          8.66551127e-004, 4.33275569e-003, 8.66551127e-004, 0.,
          8.66551127e-004, 1.73310225e-003, 1.73310225e-003,
          8.66551127e-004, 8.66551127e-004, 2.59965332e-003,
          2.59965332e-003, 0., 0., 8.66551127e-004, 3.46620451e-003,
          3.46620451e-003, 1.73310225e-003, 0., 4.33275569e-003,
          1.73310225e-003, 0., 1.73310225e-003, 8.66551127e-004,
          2.59965332e-003, 1.73310225e-003, 2.59965332e-003,
          8.66551127e-004, 0., 8.66551127e-004, 0., 8.66551127e-004,
          1.73310225e-003, 8.66551127e-004, 3.46620451e-003,
          8.66551127e-004, 0., 8.66551127e-004, 0., 1.73310225e-003,
          6.06585806e-003, 0., 2.59965332e-003, 1.73310225e-003, 0.,
          5.19930664e-003, 5.19930664e-003, 8.66551127e-004,
          2.59965332e-003, 0., 2.59965332e-003, 0., 8.66551127e-004,
          4.33275569e-003, 0., 8.66551138e-003, 8.66551127e-004,
          2.59965332e-003, 3.46620451e-003, 1.73310225e-003, 0.,
          8.66551127e-004, 4.33275569e-003, 0., 0., 1.73310225e-003,
          8.66551127e-004, 4.33275569e-003, 5.19930664e-003,
          8.66551127e-004, 3.46620451e-003, 8.66551127e-004, 0.,
          8.66551127e-004, 0., 0., 3.46620451e-003, 4.33275569e-003,
          2.59965332e-003, 2.59965332e-003, 8.66551127e-004,
          8.66551127e-004, 0., 8.66551127e-004, 6.93240901e-003,
          2.59965332e-003, 3.46620451e-003, 1.73310225e-003,
          1.73310225e-003, 0., 5.19930664e-003, 2.59965332e-003,
          1.73310225e-003, 6.06585806e-003, 3.46620451e-003,
          8.66551127e-004, 3.46620451e-003, 3.46620451e-003, 0.,
          8.66551127e-004, 8.66551127e-004, 2.59965332e-003,
          1.73310225e-003, 1.73310225e-003, 0., 3.46620451e-003, 0., 0.,
          2.59965332e-003, 1.73310225e-003, 8.66551127e-004,
          8.66551127e-004, 0. ]
      - [ 2.36034626e-003, 0., 0., 1.57356414e-003, 0., 4.72069252e-003,
          0., 0., 3.14712827e-003, 1.57356414e-003, 1.57356414e-003, 0.,
          0., 0., 0., 0., 7.86782068e-004, 0., 0., 1.57356414e-003,
          7.86782068e-004, 0., 3.14712827e-003, 0., 2.36034626e-003, 0.,
          7.86782068e-004, 1.57356414e-003, 3.14712827e-003,
          7.86782068e-004, 2.36034626e-003, 3.93391028e-003, 0.,
          7.86782068e-004, 3.93391028e-003, 1.57356414e-003,
          2.36034626e-003, 3.14712827e-003, 2.36034626e-003,
          1.57356414e-003, 7.86782068e-004, 7.08103878e-003, 0.,
          1.57356414e-003, 7.86782068e-004, 2.36034626e-003,
          7.86782068e-004, 0., 1.57356414e-003, 0., 0., 1.57356414e-003,
          1.57356414e-003, 3.93391028e-003, 3.14712827e-003,
          1.57356414e-003, 3.14712827e-003, 7.86782068e-004,
          1.57356414e-003, 0., 7.86782068e-004, 0., 0., 1.57356414e-003,
          5.50747430e-003, 3.93391028e-003, 2.36034626e-003,
          2.36034626e-003, 2.36034626e-003, 7.86782068e-004,
          4.72069252e-003, 0., 1.57356414e-003, 7.86782068e-004,
          1.57356414e-003, 2.36034626e-003, 2.36034626e-003, 0.,
          4.72069252e-003, 3.14712827e-003, 3.93391028e-003,
          1.57356414e-003, 0., 1.57356414e-003, 0., 0., 2.36034626e-003,
          0., 0., 1.57356414e-003, 3.14712827e-003, 0., 0.,
          2.36034626e-003, 1.57356414e-003, 5.50747430e-003,
          1.57356414e-003, 3.93391028e-003, 7.08103878e-003, 0., 0., 0.,
          2.36034626e-003, 2.36034626e-003, 1.57356414e-003,
          6.29425654e-003, 7.86782068e-004, 0., 1.57356414e-003,
          3.14712827e-003, 7.86782068e-004, 0., 0., 7.86782068e-004, 0.,
          5.50747430e-003, 2.36034626e-003, 2.36034626e-003,
          7.86782068e-004, 0., 1.57356414e-003, 0., 2.36034626e-003,
          1.57356414e-003, 1.57356414e-003, 7.86782068e-004,
          3.14712827e-003, 7.86782068e-004, 0., 1.57356414e-003, 0.,
          1.25885131e-002, 2.36034626e-003, 7.08103878e-003,
          1.57356414e-003, 2.36034626e-003, 3.14712827e-003,
          7.86782068e-004, 7.86782068e-004, 7.86782068e-004,
          7.86782068e-004, 7.86782068e-004, 1.57356414e-003, 0., 0.,
          3.14712827e-003, 2.36034626e-003, 1.57356414e-003, 0., 0., 0.,
          3.14712827e-003, 3.14712827e-003, 7.86782068e-004, 0., 0.,
          7.86782068e-004, 2.36034626e-003, 3.14712827e-003,
          2.36034626e-003, 0., 2.36034626e-003, 3.14712827e-003, 0.,
          7.08103878e-003, 0., 5.50747430e-003, 5.50747430e-003, 0.,
          3.93391028e-003, 0., 1.57356414e-003, 7.86782068e-004,
          1.57356414e-003, 2.36034626e-003, 3.93391028e-003,
          2.36034626e-003, 3.14712827e-003, 7.86782068e-004,
          3.93391028e-003, 0., 7.86782068e-004, 3.14712827e-003,
          3.14712827e-003, 7.86782068e-004, 7.86782068e-004,
          1.57356414e-003, 7.86782068e-004, 7.86782068e-004,
          7.86782068e-004, 3.93391028e-003, 7.86782068e-004,
          4.72069252e-003, 1.57356414e-003, 0., 3.14712827e-003,
          1.57356414e-003, 1.57356414e-003, 0., 6.29425654e-003,
          7.86782068e-004, 7.86782068e-004, 7.08103878e-003,
          3.93391028e-003, 3.93391028e-003, 1.57356414e-003,
          4.72069252e-003, 0., 1.57356414e-003, 7.86782068e-004, 0.,
          7.86782068e-004, 7.86782056e-003, 2.36034626e-003, 0., 0.,
          3.93391028e-003, 7.86782068e-004, 1.57356414e-003, 0.,
          2.36034626e-003, 0., 0., 0., 1.57356414e-003, 1.57356414e-003,
          1.57356414e-003, 7.86782068e-004, 7.86782068e-004,
          2.36034626e-003, 7.86782068e-004, 7.86782068e-004,
          1.57356414e-003, 7.86782068e-004, 1.57356414e-003, 0., 0.,
          1.57356414e-003, 7.86782068e-004, 3.93391028e-003,
          7.86782068e-004, 3.14712827e-003, 3.14712827e-003,
          4.72069252e-003, 2.36034626e-003, 0., 4.72069252e-003,
          7.86782068e-004, 1.57356414e-003, 2.36034626e-003,
          7.86782068e-004, 3.14712827e-003, 0., 2.36034626e-003,
          1.57356414e-003, 0., 1.57356414e-003, 1.57356414e-003,
          7.86782068e-004, 3.93391028e-003, 3.93391028e-003, 0., 0.,
          3.93391028e-003, 0., 3.14712827e-003, 3.14712827e-003,
          7.86782068e-004, 1.57356414e-003, 4.72069252e-003, 0.,
          7.86782068e-004, 0., 0., 7.86782068e-004, 0., 5.50747430e-003,
          1.57356414e-003, 0., 7.86782068e-004, 0., 2.36034626e-003,
          3.93391028e-003, 0., 0., 0., 1.57356414e-003, 7.86782068e-004,
          0., 5.50747430e-003, 0., 0., 2.36034626e-003, 7.86782068e-004,
          0., 6.29425654e-003, 3.93391028e-003, 3.14712827e-003,
          7.86782068e-004, 7.86782068e-004, 0., 0., 3.93391028e-003,
          3.93391028e-003, 1.57356414e-003, 1.57356414e-003,
          3.93391028e-003, 0., 0., 1.57356414e-003, 2.36034626e-003,
          3.14712827e-003, 0., 0., 7.86782068e-004, 1.57356414e-003,
          3.93391028e-003, 2.36034626e-003, 1.57356414e-003,
          7.86782068e-004, 3.93391028e-003, 1.57356414e-003, 0., 0.,
          7.86782068e-004, 0., 0., 0., 1.57356414e-003, 2.36034626e-003,
          7.86782068e-004, 0., 1.57356414e-003, 0., 7.86782068e-004,
          1.57356414e-003, 0., 0., 0., 2.36034626e-003, 4.72069252e-003,
          0., 0., 0., 3.14712827e-003, 0., 0., 7.86782068e-004,
          3.14712827e-003, 3.14712827e-003, 0., 0., 0., 3.14712827e-003,
          7.86782068e-004, 7.86782068e-004, 0., 1.57356414e-003,
          7.86782068e-004, 0., 1.57356414e-003, 1.57356414e-003, 0.,
          1.57356414e-003, 2.36034626e-003, 0., 1.57356414e-003, 0.,
          2.36034626e-003, 7.86782068e-004, 0., 0., 7.86782068e-004,
          2.36034626e-003, 3.14712827e-003, 0., 1.57356414e-003,
          3.14712827e-003, 3.93391028e-003, 7.86782068e-004,
          3.93391028e-003, 7.86782068e-004, 0., 1.57356414e-003,
          7.86782068e-004, 4.72069252e-003, 0., 7.86782068e-004, 0.,
          1.57356414e-003, 1.57356414e-003, 5.50747430e-003, 0.,
          1.57356414e-003, 7.86782056e-003, 0., 0., 0., 7.86782068e-004,
          0., 0., 0., 7.86782068e-004, 6.29425654e-003, 6.29425654e-003,
          1.57356414e-003, 1.57356414e-003, 1.57356414e-003,
          7.86782068e-004, 0., 0., 0., 1.57356414e-003, 2.36034626e-003,
          3.93391028e-003, 7.86782068e-004, 0., 1.57356414e-003,
          2.36034626e-003, 7.86782068e-004, 2.36034626e-003, 0., 0.,
          3.14712827e-003, 2.36034626e-003, 0., 3.14712827e-003,
          1.57356414e-003, 0., 0., 3.14712827e-003, 3.93391028e-003, 0.,
          0., 7.86782068e-004, 0., 0., 1.57356414e-003, 1.57356414e-003,
          0., 0., 0., 0., 3.14712827e-003, 7.86782068e-004, 0.,
          7.86782068e-004, 3.14712827e-003, 1.57356414e-003, 0., 0., 0.,
          7.08103878e-003, 0., 7.86782068e-004, 0., 0., 7.86782068e-004,
          0., 5.50747430e-003, 1.57356414e-003, 0., 1.57356414e-003,
          1.57356414e-003, 0., 7.86782068e-004, 7.86782068e-004,
          6.29425654e-003, 7.86782068e-004, 7.86782068e-004,
          1.57356414e-003, 0., 3.93391028e-003, 2.36034626e-003,
          2.36034626e-003, 7.86782068e-004, 0., 1.57356414e-003,
          7.86782068e-004, 1.57356414e-003, 3.14712827e-003,
          1.57356414e-003, 7.86782068e-004, 2.36034626e-003, 0.,
          1.57356414e-003, 2.36034626e-003, 1.57356414e-003, 0.,
          7.86782068e-004, 0., 0., 0., 3.14712827e-003, 2.36034626e-003,
          1.57356414e-003, 1.57356414e-003, 1.57356414e-003,
          1.57356414e-003, 0., 3.14712827e-003, 2.36034626e-003,
          2.36034626e-003, 1.57356414e-003, 3.93391028e-003,
          1.57356414e-003, 3.93391028e-003, 4.72069252e-003, 0.,
          2.36034626e-003, 3.14712827e-003, 1.57356414e-003,
          3.93391028e-003, 3.93391028e-003, 7.86782068e-004, 0.,
          4.72069252e-003, 0., 7.86782068e-004, 2.36034626e-003,
          1.57356414e-003, 5.50747430e-003, 7.86782068e-004,
          7.86782068e-004, 3.14712827e-003, 0., 0., 1.57356414e-003,
          1.57356414e-003, 3.14712827e-003, 4.72069252e-003, 0.,
          2.36034626e-003, 3.14712827e-003, 1.57356414e-003,
          1.57356414e-003, 3.14712827e-003, 7.86782068e-004, 0.,
          3.93391028e-003, 5.50747430e-003, 3.14712827e-003,
          2.36034626e-003, 1.57356414e-003, 0., 5.50747430e-003,
          4.72069252e-003, 0., 0., 3.93391028e-003, 0., 4.72069252e-003,
          0., 7.86782068e-004, 5.50747430e-003, 7.86782068e-004,
          1.57356414e-003, 3.14712827e-003, 7.86782068e-004, 0.,
          1.57356414e-003, 1.57356414e-003, 3.93391028e-003,
          6.29425654e-003, 2.36034626e-003, 7.86782068e-004,
          3.14712827e-003, 3.93391028e-003, 0., 0., 1.57356414e-003,
          4.72069252e-003, 3.14712827e-003, 3.14712827e-003,
          1.57356414e-003, 3.14712827e-003, 0., 1.57356414e-003, 0., 0.,
          3.14712827e-003, 7.86782068e-004, 2.36034626e-003,
          5.50747430e-003, 2.36034626e-003, 0., 7.86782068e-004,
          1.57356414e-003, 2.36034626e-003, 1.57356414e-003,
          3.14712827e-003, 0., 4.72069252e-003, 8.65460280e-003,
          3.14712827e-003, 7.86782068e-004, 3.93391028e-003,
          7.86782068e-004, 7.86782068e-004, 0. ]
      - [ 6.84931525e-004, 0., 0., 6.84931525e-004, 0., 6.84931525e-004,
          2.05479469e-003, 0., 6.84931525e-004, 0., 0., 6.84931525e-004,
          0., 2.05479469e-003, 0., 1.36986305e-003, 0., 2.73972610e-003,
          0., 4.10958938e-003, 1.36986305e-003, 2.05479469e-003,
          3.42465751e-003, 0., 6.84931525e-004, 0., 0., 0.,
          1.36986305e-003, 6.16438361e-003, 2.05479469e-003,
          9.58904158e-003, 6.84931525e-004, 6.84931525e-004, 0., 0.,
          2.05479469e-003, 1.36986305e-003, 6.84931525e-004,
          3.42465751e-003, 4.79452079e-003, 2.05479469e-003,
          6.84931525e-004, 6.84931502e-003, 1.36986305e-003,
          4.79452079e-003, 1.36986305e-003, 0., 3.42465751e-003,
          3.42465751e-003, 6.84931525e-004, 0., 5.47945220e-003,
          3.42465751e-003, 4.10958938e-003, 3.42465751e-003, 0.,
          6.84931525e-004, 0., 1.36986305e-003, 0., 0., 0.,
          4.10958938e-003, 1.36986305e-003, 6.84931525e-004,
          4.79452079e-003, 3.42465751e-003, 6.84931525e-004, 0., 0., 0.,
          8.21917877e-003, 6.16438361e-003, 2.73972610e-003,
          2.05479469e-003, 1.36986305e-003, 0., 6.84931525e-004,
          1.36986305e-003, 2.05479469e-003, 3.42465751e-003,
          6.84931525e-004, 2.73972610e-003, 2.05479469e-003, 0.,
          2.05479469e-003, 6.84931525e-004, 6.84931502e-003,
          6.84931525e-004, 5.47945220e-003, 0., 0., 3.42465751e-003,
          4.79452079e-003, 0., 1.36986305e-003, 2.73972610e-003, 0., 0.,
          6.84931525e-004, 0., 1.36986305e-003, 0., 0., 2.05479469e-003,
          4.10958938e-003, 1.36986305e-003, 2.05479469e-003,
          2.05479469e-003, 2.73972610e-003, 0., 0., 1.36986305e-003, 0.,
          2.73972610e-003, 4.10958938e-003, 1.36986305e-003,
          2.05479469e-003, 2.05479469e-003, 2.73972610e-003,
          6.84931525e-004, 0., 2.05479469e-003, 3.42465751e-003, 0., 0.,
          2.05479469e-003, 0., 2.05479469e-003, 9.58904158e-003,
          7.53424689e-003, 4.10958938e-003, 1.36986305e-003,
          1.36986305e-003, 6.84931525e-004, 2.73972610e-003,
          3.42465751e-003, 1.36986305e-003, 0., 1.36986305e-003,
          6.84931525e-004, 1.36986305e-003, 0., 2.05479469e-003,
          7.53424689e-003, 0., 9.58904158e-003, 1.36986305e-003, 0.,
          1.36986305e-003, 5.47945220e-003, 0., 2.05479469e-003,
          2.05479469e-003, 0., 6.84931525e-004, 2.05479469e-003,
          4.10958938e-003, 2.73972610e-003, 0., 6.84931525e-004, 0., 0.,
          4.10958938e-003, 0., 1.36986305e-003, 6.84931525e-004, 0.,
          1.36986305e-003, 1.36986305e-003, 0., 0., 4.10958938e-003,
          2.05479469e-003, 6.84931525e-004, 1.36986305e-003,
          4.10958938e-003, 6.16438361e-003, 0., 0., 6.84931525e-004, 0.,
          4.10958938e-003, 6.84931525e-004, 0., 1.36986305e-003,
          6.84931525e-004, 6.84931525e-004, 0., 0., 6.84931525e-004,
          4.10958938e-003, 2.05479469e-003, 4.79452079e-003, 0.,
          2.05479469e-003, 2.05479469e-003, 4.79452079e-003,
          4.10958938e-003, 0., 1.36986305e-003, 2.05479469e-003, 0., 0.,
          6.84931525e-004, 1.36986305e-003, 6.84931525e-004,
          6.84931525e-004, 2.05479469e-003, 0., 0., 2.73972610e-003,
          2.05479469e-003, 6.84931525e-004, 6.84931525e-004,
          4.10958938e-003, 0., 6.84931525e-004, 0., 0., 0.,
          6.84931525e-004, 0., 6.84931525e-004, 6.84931525e-004,
          1.36986305e-003, 6.16438361e-003, 0., 1.36986305e-003,
          1.36986305e-003, 2.05479469e-003, 0., 1.36986305e-003,
          4.10958938e-003, 0., 0., 1.36986305e-003, 6.84931525e-004,
          2.73972610e-003, 4.10958938e-003, 2.73972610e-003,
          6.84931525e-004, 1.36986305e-003, 2.05479469e-003, 0., 0., 0.,
          6.84931525e-004, 2.05479469e-003, 9.58904158e-003,
          2.05479469e-003, 4.10958938e-003, 2.05479469e-003,
          3.42465751e-003, 0., 6.84931525e-004, 1.36986305e-003,
          6.16438361e-003, 0., 8.21917877e-003, 2.73972610e-003,
          1.36986305e-003, 6.84931525e-004, 0., 2.05479469e-003,
          2.05479469e-003, 1.36986305e-003, 2.05479469e-003,
          3.42465751e-003, 3.42465751e-003, 2.73972610e-003,
          1.36986305e-003, 0., 0., 0., 6.84931525e-004, 4.10958938e-003,
          6.84931525e-004, 0., 4.79452079e-003, 2.05479469e-003,
          1.36986305e-003, 5.47945220e-003, 0., 6.84931502e-003,
          2.05479469e-003, 0., 6.84931525e-004, 1.36986305e-003, 0.,
          2.05479469e-003, 2.73972610e-003, 6.84931525e-004,
          1.36986305e-003, 2.05479469e-003, 4.79452079e-003, 0.,
          1.36986305e-003, 8.90410971e-003, 0., 6.84931525e-004,
          2.73972610e-003, 0., 6.84931525e-004, 2.73972610e-003,
          6.84931525e-004, 0., 0., 4.10958938e-003, 0., 6.84931525e-004,
          0., 0., 0., 0., 1.36986305e-003, 1.36986305e-003,
          1.36986305e-003, 0., 6.84931525e-004, 7.53424689e-003,
          2.73972610e-003, 2.05479469e-003, 6.84931525e-004, 0., 0.,
          1.36986305e-003, 6.84931525e-004, 1.36986305e-003,
          6.84931525e-004, 3.42465751e-003, 1.36986305e-003,
          4.79452079e-003, 1.36986305e-003, 0., 1.36986305e-003, 0., 0.,
          0., 5.47945220e-003, 6.84931525e-004, 0., 0., 6.84931525e-004,
          0., 0., 2.05479469e-003, 6.84931525e-004, 0., 0.,
          6.84931525e-004, 0., 2.73972610e-003, 4.10958938e-003,
          6.16438361e-003, 0., 4.10958938e-003, 4.79452079e-003,
          2.05479469e-003, 6.84931525e-004, 0., 1.36986305e-003,
          6.84931525e-004, 6.84931525e-004, 2.05479469e-003,
          4.10958938e-003, 1.36986305e-003, 6.16438361e-003, 0., 0.,
          2.05479469e-003, 0., 2.73972610e-003, 6.84931525e-004,
          2.05479469e-003, 0., 2.05479469e-003, 3.42465751e-003,
          2.05479469e-003, 1.36986305e-003, 1.36986305e-003,
          1.36986305e-003, 2.05479469e-003, 2.05479469e-003,
          3.42465751e-003, 0., 6.84931525e-004, 0., 6.84931525e-004,
          3.42465751e-003, 3.42465751e-003, 0., 2.05479469e-003,
          1.36986305e-003, 1.36986305e-003, 0., 0., 6.84931525e-004, 0.,
          0., 6.84931525e-004, 1.36986305e-003, 6.16438361e-003,
          6.84931525e-004, 2.73972610e-003, 6.84931525e-004, 0.,
          2.73972610e-003, 1.36986305e-003, 0., 6.84931525e-004, 0.,
          1.36986305e-003, 8.21917877e-003, 2.05479469e-003,
          2.05479469e-003, 4.79452079e-003, 6.84931525e-004,
          1.36986305e-003, 1.36986305e-003, 0., 0., 3.42465751e-003,
          6.84931525e-004, 0., 4.10958938e-003, 0., 2.05479469e-003, 0.,
          5.47945220e-003, 4.10958938e-003, 3.42465751e-003,
          6.84931525e-004, 2.73972610e-003, 2.05479469e-003, 0.,
          2.73972610e-003, 1.36986305e-003, 6.84931525e-004, 0.,
          2.05479469e-003, 6.84931525e-004, 3.42465751e-003, 0., 0.,
          5.47945220e-003, 1.36986305e-003, 1.36986305e-003, 0.,
          1.36986305e-003, 0., 6.84931525e-004, 0., 2.73972610e-003,
          1.36986305e-003, 0., 2.05479469e-003, 1.36986305e-003,
          1.36986305e-003, 2.05479469e-003, 0., 6.84931525e-004,
          6.84931525e-004, 0., 4.10958938e-003, 1.36986305e-003,
          6.84931525e-004, 0., 1.36986305e-003, 4.79452079e-003,
          1.36986305e-003, 2.05479469e-003, 0., 6.84931525e-004,
          2.05479469e-003, 1.36986305e-003, 0., 0., 6.84931502e-003, 0.,
          4.10958938e-003, 6.84931525e-004, 2.05479469e-003,
          6.84931525e-004, 2.05479469e-003, 2.73972610e-003, 0.,
          1.36986305e-003, 2.05479469e-003, 2.05479469e-003, 0.,
          1.36986305e-003, 2.73972610e-003, 6.84931525e-004,
          1.36986305e-003, 5.47945220e-003, 4.10958938e-003,
          2.05479469e-003, 0., 4.10958938e-003, 3.42465751e-003,
          4.10958938e-003, 2.05479469e-003, 6.84931525e-004,
          6.84931525e-004, 1.36986305e-003, 1.36986305e-003, 0.,
          6.84931525e-004, 0., 6.84931525e-004, 0., 2.73972610e-003, 0.,
          0., 2.05479469e-003, 0., 0., 6.84931525e-004, 4.79452079e-003,
          6.84931525e-004, 1.36986305e-003, 2.05479469e-003,
          2.05479469e-003, 0., 1.36986305e-003, 0., 4.79452079e-003,
          4.79452079e-003, 3.42465751e-003, 0., 8.21917877e-003, 0.,
          2.73972610e-003, 0., 6.84931525e-004, 2.73972610e-003,
          6.84931525e-004, 1.36986305e-003, 6.84931502e-003,
          2.73972610e-003, 0., 6.84931525e-004, 6.84931525e-004,
