%YAML:1.0
my_svm: !!opencv-ml-svm
   svm_type: C_SVC
   kernel: { type:RBF, gamma:1. }
   C: 1.
   term_criteria: { epsilon:1.1920928955078125e-007, iterations:1000 }
   var_all: 600
   var_count: 600
   class_count: 2
   class_labels: !!opencv-matrix
      rows: 1
      cols: 2
      dt: i
      data: [ 0, 1 ]
   sv_total: 46
   support_vectors:
      - [ 0., 0., 0., 0., 0., 0., 0., 0., 0., 0., 0., 0., 0., 0., 0., 0.,
          0., 0., 7.24054733e-003, 0., 0., 0., 0., 8.04505218e-003, 0.,
          0., 0., 0., 0., 0., 0., 0., 0., 0., 0., 0., 0., 0., 0., 0., 0.,
          0., 0., 0., 0., 0., 0., 6.67739362e-002, 0., 0., 0., 0., 0.,
          0., 0., 0., 0., 0., 0., 0., 0., 9.65406280e-003, 0., 0., 0.,
          0., 0., 0., 0., 0., 0., 7.64279962e-002, 0., 0., 0., 0., 0.,
          0., 0., 0., 0., 0., 0., 0., 0., 3.94207574e-002, 0., 0., 0.,
          0., 0., 3.21802101e-003, 0., 0., 0., 0., 0., 0., 0.,
          2.09171362e-002, 0., 0., 0., 0., 0., 0., 0., 0., 0., 0., 0.,
          0., 1.85036212e-002, 0., 0., 0., 0., 0., 0., 0., 0., 0., 0.,
          0., 0., 0., 0., 0., 0., 0., 0., 0., 0., 0., 0., 0., 0., 0., 0.,
          0., 0., 0., 0., 0., 0., 0., 0., 0., 0., 6.19469061e-002, 0.,
          0., 0., 0., 0., 0., 0., 0., 0., 0., 0., 0., 0., 0., 0.,
          1.68946106e-002, 0., 0., 0., 0., 0., 0., 0., 0., 0., 0., 0.,
          0., 0., 0., 0., 0., 0., 0., 0., 0., 0., 0., 0., 0., 0., 0., 0.,
          0., 0., 0., 0., 0., 0., 0., 0., 0., 0., 0., 0., 0., 0., 0., 0.,
          0., 8.04505253e-004, 0., 0., 0., 0., 0., 0., 0., 0.,
          1.44810947e-002, 0., 0., 0., 0., 0., 0., 0., 0., 0., 0., 0.,
          0., 0., 0., 0., 0., 8.84955749e-003, 0., 0., 0., 0., 0., 0.,
          0., 0., 5.47063574e-002, 0., 0., 0., 0., 0., 0., 0., 0., 0.,
          0., 0., 0., 0., 0., 0., 0., 0., 0., 0., 0., 0., 0., 0., 0., 0.,
          0., 0., 0., 0., 7.24054733e-003, 0., 0., 0., 0., 0., 0., 0.,
          0., 0., 0., 0., 0., 0., 0., 0., 0., 0., 0., 0., 0., 0., 0., 0.,
          0., 0., 0., 0., 0., 0., 0., 0., 1.28720840e-002, 0., 0., 0.,
          0., 0., 0., 0., 0., 0., 0., 0., 0., 0., 0., 0., 0., 0.,
          9.65406280e-003, 0., 0., 0., 0., 0., 0., 0., 0., 0., 0., 0.,
          3.05712000e-002, 0., 0., 0., 0., 0., 4.42477874e-002, 0.,
          7.24054733e-003, 0., 0., 0., 0., 9.17135999e-002, 0., 0., 0.,
          0., 0., 0., 0., 0., 0., 0., 0., 0., 0., 0., 0., 0., 0., 0., 0.,
          0., 0., 0., 0., 0., 0., 0., 0., 0., 0., 0., 0., 0., 0., 0., 0.,
          0., 0., 0., 0., 0., 0., 0., 0., 0., 0., 0., 0., 0., 0., 0., 0.,
          0., 0., 0., 0., 0., 0., 0., 0., 0., 0., 0., 0., 0., 0., 0., 0.,
          0., 0., 0., 0., 7.96460211e-002, 0., 0., 0., 0., 0., 0., 0.,
          0., 0., 0., 0., 0., 0., 0., 0., 0., 0., 0., 0., 0., 0., 0., 0.,
          0., 0., 0., 0., 0., 7.48189911e-002, 0., 1.60901051e-003, 0.,
          0., 4.82703140e-003, 0., 0., 0., 0., 3.29847150e-002, 0., 0.,
          1.76991150e-002, 0., 0., 0., 0., 0., 0., 0., 0., 0., 0., 0.,
          0., 0., 0., 0., 0., 0., 0., 0., 0., 0., 0., 0., 0., 0., 0., 0.,
          0., 0., 0., 0., 0., 0., 0., 6.67739362e-002, 0., 0., 0., 0.,
          0., 0., 0., 0., 0., 0., 0., 0., 0., 0., 0., 2.41351570e-003,
          0., 4.50522937e-002, 0., 0., 0., 0., 0., 0., 0., 0., 0., 0.,
          0., 0., 0., 0., 0., 0., 0., 0., 0., 0., 0., 0., 0., 0., 0., 0.,
          0., 0., 0., 0., 0., 0., 1.20675787e-002, 0., 0., 0., 0., 0.,
          0., 0., 0., 0., 0., 0., 0., 0., 0., 0., 0., 0., 0.,
          5.06838299e-002, 0., 0., 0., 0., 0., 0., 0., 0., 0., 0., 0.,
          0., 0., 0., 0., 0., 0., 0., 0., 0., 0., 0., 0., 0., 0., 0., 0.,
          0., 0., 0. ]
      - [ 0., 0., 8.90471973e-004, 0., 0., 0., 8.90471973e-004,
          8.90471973e-004, 0., 1.78094395e-003, 2.67141592e-003,
          2.31522713e-002, 0., 8.90471973e-004, 1.78094395e-003,
          1.78094395e-003, 1.78094395e-003, 0., 0., 0., 0., 0.,
          1.78094395e-003, 2.67141592e-003, 0., 3.56188789e-003, 0., 0.,
          0., 1.78094395e-003, 0., 0., 0., 0., 0., 0., 8.90471973e-004,
          0., 0., 0., 0., 8.90471973e-004, 8.90471973e-004,
          8.90471973e-004, 0., 1.78094395e-003, 0., 1.60284955e-002,
          1.78094395e-003, 8.90471973e-004, 0., 0., 8.90471973e-004, 0.,
          0., 8.90471973e-004, 0., 8.90471973e-004, 0., 0., 0.,
          1.15761356e-002, 0., 0., 8.90471973e-004, 0., 0., 0., 0., 0.,
          0., 4.45235986e-003, 0., 8.90471973e-004, 0., 0.,
          8.90471973e-004, 6.23330381e-003, 8.90471973e-004,
          8.90471973e-004, 0., 0., 0., 2.04808563e-002, 1.78094395e-003,
          7.12377578e-003, 8.90471973e-004, 0., 0., 8.90471973e-004, 0.,
          8.01424775e-003, 3.56188789e-003, 1.78094395e-003,
          8.90471973e-004, 0., 0., 0., 1.78094395e-003, 8.90471973e-003,
          8.90471973e-004, 1.06856637e-002, 0., 8.90471973e-004, 0., 0.,
          0., 8.90471973e-004, 8.90471973e-004, 0., 0., 0.,
          9.79519170e-003, 0., 1.78094395e-003, 0., 0., 0., 0.,
          1.78094395e-003, 0., 0., 8.90471973e-004, 0., 8.90471973e-004,
          0., 0., 8.01424775e-003, 0., 8.90471973e-004, 8.90471973e-004,
          0., 0., 0., 0., 8.90471973e-004, 8.90471973e-004, 0., 0., 0.,
          0., 0., 7.12377578e-003, 1.15761356e-002, 0., 0., 0., 0.,
          8.90471973e-004, 6.23330381e-003, 0., 0., 2.67141592e-003, 0.,
          8.90471973e-004, 0., 8.90471973e-004, 7.12377578e-003, 0.,
          8.90471973e-004, 1.95903834e-002, 0., 0., 2.67141592e-003, 0.,
          0., 0., 8.90471973e-004, 0., 0., 0., 0., 0., 1.78094395e-003,
          0., 0., 6.23330381e-003, 0., 0., 0., 0., 0., 0., 0., 0.,
          8.90471973e-004, 0., 0., 0., 0., 1.78094395e-003,
          1.78094395e-003, 0., 0., 6.23330381e-003, 8.90471973e-004, 0.,
          0., 0., 1.78094395e-003, 0., 1.78094395e-003, 8.90471973e-004,
          1.78094395e-003, 0., 0., 0., 0., 0., 0., 0., 2.67141592e-003,
          0., 1.78094395e-003, 0., 0., 0., 0., 2.67141592e-003,
          5.34283184e-003, 2.67141592e-003, 8.90471973e-004,
          2.84951031e-002, 0., 0., 1.78094395e-003, 0., 1.78094395e-003,
          0., 0., 0., 0., 8.90471973e-004, 0., 0., 4.45235986e-003,
          3.56188789e-003, 0., 1.78094395e-003, 0., 0., 0., 0.,
          8.90471973e-004, 8.90471973e-004, 1.78094395e-002, 0.,
          3.56188789e-003, 0., 0., 0., 0., 0., 8.90471973e-004,
          8.90471973e-004, 8.90471973e-004, 0., 1.78094395e-003, 0., 0.,
          0., 0., 2.67141592e-002, 0., 0., 0., 0., 0., 0.,
          8.90471973e-004, 0., 0., 0., 0., 0., 8.90471973e-003, 0., 0.,
          0., 0., 0., 0., 2.67141592e-003, 0., 8.90471973e-004,
          6.23330381e-003, 0., 3.56188789e-003, 8.90471973e-004, 0.,
          2.67141592e-003, 0., 0., 0., 4.45235986e-003, 0., 0., 0., 0.,
          0., 3.56188789e-003, 0., 8.90471973e-004, 0., 0., 0., 0.,
          8.90471973e-003, 2.67141592e-003, 0., 0., 0., 0.,
          3.56188789e-003, 0., 8.90471973e-004, 0., 0., 0., 0.,
          1.06856637e-002, 8.90471973e-004, 2.67141592e-003, 0., 0.,
          1.69189684e-002, 8.90471973e-004, 0., 9.79519170e-003, 0.,
          8.90471973e-004, 0., 0., 0., 8.90471973e-004, 0.,
          8.90471973e-004, 8.90471973e-003, 1.06856637e-002, 0., 0., 0.,
          1.24666076e-002, 3.29474621e-002, 2.67141592e-003,
          8.01424775e-003, 0., 0., 0., 8.90471973e-004, 7.12377578e-003,
          5.34283184e-003, 7.12377578e-003, 8.90471973e-004,
          8.90471973e-004, 2.31522713e-002, 0., 0., 0., 0., 0.,
          8.90471973e-004, 0., 2.67141592e-003, 8.90471973e-004,
          8.90471973e-004, 0., 0., 0., 0., 1.06856637e-002,
          8.90471973e-004, 0., 0., 3.56188789e-003, 0., 0., 0., 0., 0.,
          0., 0., 8.90471973e-004, 4.45235986e-003, 0., 0.,
          8.90471973e-004, 0., 0., 0., 2.67141592e-003, 0.,
          1.15761356e-002, 8.90471973e-004, 0., 4.45235986e-003, 0.,
          8.90471973e-004, 0., 0., 0., 7.12377578e-003, 0., 0., 0.,
          8.90471973e-004, 3.56188789e-003, 0., 0., 0., 0., 0., 0., 0.,
          0., 8.90471973e-004, 5.34283184e-003, 0., 0., 0.,
          1.78094395e-003, 8.90471973e-004, 0., 0., 4.45235986e-003, 0.,
          0., 0., 0., 8.90471973e-004, 0., 0., 0., 0., 0.,
          8.90471973e-004, 8.90471973e-004, 1.78094395e-003,
          1.78094395e-003, 0., 5.34283184e-003, 0., 0., 8.90471973e-004,
          5.34283184e-003, 8.90471973e-004, 1.51380235e-002,
          8.90471973e-004, 0., 1.33570796e-002, 0., 3.56188789e-003, 0.,
          8.90471973e-004, 0., 0., 3.56188789e-003, 1.78094395e-003, 0.,
          0., 0., 1.06856637e-002, 0., 0., 6.23330381e-003,
          8.90471973e-004, 0., 8.90471973e-004, 0., 0., 0.,
          8.90471973e-004, 0., 0., 0., 0., 7.12377578e-003, 0.,
          3.56188789e-003, 0., 1.78094395e-003, 1.78094395e-003, 0., 0.,
          0., 8.90471973e-004, 6.23330381e-003, 0., 0., 0., 0.,
          8.90471973e-004, 0., 0., 0., 0., 6.23330381e-003, 0.,
          8.90471973e-004, 2.13713273e-002, 0., 0., 0., 1.86999105e-002,
          8.90471973e-003, 0., 0., 0., 8.90471973e-004, 0., 0., 0., 0.,
          1.78094395e-003, 0., 0., 0., 8.01424775e-003, 8.90471973e-004,
          8.90471973e-003, 0., 1.78094395e-003, 0., 0., 0.,
          1.78094395e-003, 9.79519170e-003, 0., 0., 2.67141592e-003, 0.,
          1.15761356e-002, 0., 0., 0., 0., 8.90471973e-004,
          8.90471973e-004, 3.56188789e-003, 0., 0., 0., 8.90471973e-004,
          0., 0., 8.90471973e-004, 0., 6.23330381e-003, 8.01424775e-003,
          0., 1.42475516e-002, 8.90471973e-004, 0., 8.90471973e-004, 0.,
          0., 0., 8.90471973e-004, 1.78094395e-003, 0., 0., 0., 0., 0.,
          0., 8.90471973e-004, 0., 0., 0., 1.51380235e-002, 0., 0., 0.,
          0., 8.90471973e-004, 0., 2.04808563e-002, 8.90471973e-004, 0.,
          8.90471973e-003, 0., 1.78094395e-003, 8.90471973e-004, 0., 0.,
          4.45235986e-003, 0., 0., 8.90471973e-004, 0., 8.90471973e-004,
          0., 0., 8.90471973e-004, 0., 8.01424775e-003, 1.78094395e-003,
          0., 0., 2.67141592e-003 ]
      - [ 4.09836043e-003, 0., 8.19672132e-004, 5.73770516e-003, 0.,
          4.09836043e-003, 0., 0., 1.63934426e-003, 3.27868853e-003,
          1.63934426e-003, 0., 0., 8.19672132e-004, 0., 0.,
          9.01639368e-003, 4.91803279e-003, 0., 1.63934426e-003,
          4.91803279e-003, 1.63934426e-003, 3.27868853e-003, 0.,
          3.27868853e-003, 0., 0., 0., 0., 0., 1.55737707e-002,
          4.09836043e-003, 0., 0., 1.63934426e-003, 0., 2.45901640e-003,
          6.55737706e-003, 0., 0., 0., 8.19672132e-004, 0.,
          8.19672132e-004, 0., 0., 0., 0., 2.45901640e-003, 0., 0.,
          1.63934426e-003, 0., 0., 8.19672132e-004, 4.09836043e-003, 0.,
          2.45901640e-003, 4.91803279e-003, 0., 0., 0., 1.63934426e-003,
          0., 0., 1.63934426e-003, 0., 5.73770516e-003, 8.19672132e-004,
          2.45901640e-003, 8.19672132e-004, 0., 3.27868853e-003, 0.,
          1.63934426e-003, 8.19672132e-004, 0., 0., 8.19672132e-004,
          1.63934426e-003, 0., 0., 2.45901640e-003, 8.19672132e-004, 0.,
          0., 0., 4.91803279e-003, 8.19672132e-004, 8.19672132e-004, 0.,
          0., 0., 1.63934426e-003, 8.19672132e-004, 1.63934426e-003, 0.,
          3.27868853e-003, 3.27868853e-003, 0., 3.27868853e-003, 0.,
          1.63934426e-003, 1.63934426e-003, 8.19672132e-004,
          4.09836043e-003, 0., 0., 1.63934426e-003, 2.45901640e-003,
          9.83606558e-003, 0., 0., 1.63934426e-003, 1.63934426e-003,
          2.45901640e-003, 3.27868853e-003, 0., 1.63934426e-003, 0.,
          1.63934426e-003, 8.19672132e-004, 1.63934426e-003, 0.,
          8.19672132e-004, 0., 0., 0., 2.45901640e-003, 5.73770516e-003,
          1.63934426e-003, 0., 1.63934426e-003, 0., 1.63934426e-003,
          3.27868853e-003, 1.88524593e-002, 8.19672132e-004,
          8.19672132e-004, 0., 3.27868853e-003, 3.27868853e-003,
          8.19672132e-004, 0., 8.19672132e-004, 0., 1.63934426e-003, 0.,
          0., 0., 0., 0., 7.37704895e-003, 9.83606558e-003, 0.,
          4.91803279e-003, 1.63934426e-003, 0., 0., 8.19672132e-004, 0.,
          9.01639368e-003, 0., 0., 5.73770516e-003, 0., 8.19672132e-004,
          8.19672132e-004, 0., 8.19672132e-004, 1.63934426e-003,
          4.09836043e-003, 2.45901640e-003, 3.27868853e-003,
          4.91803279e-003, 8.19672132e-004, 8.19672132e-004,
          2.45901640e-003, 3.27868853e-003, 0., 0., 1.63934426e-003, 0.,
          2.45901640e-003, 0., 8.19672132e-004, 8.19672132e-004,
          1.63934426e-003, 0., 0., 2.45901640e-003, 0., 1.63934426e-003,
          1.63934426e-003, 0., 0., 8.19672132e-004, 8.19672132e-004,
          3.27868853e-003, 3.27868853e-003, 0., 8.19672132e-004,
          1.72131155e-002, 2.45901640e-003, 0., 1.39344260e-002,
          5.73770516e-003, 0., 0., 0., 0., 0., 8.19672132e-004,
          4.91803279e-003, 0., 1.63934426e-003, 1.63934426e-003,
          8.19672132e-004, 8.19672132e-004, 0., 1.63934426e-003, 0., 0.,
          2.45901640e-003, 0., 0., 0., 0., 0., 8.19672132e-004,
          8.19672132e-004, 2.45901640e-003, 0., 4.91803279e-003,
          8.19672132e-004, 0., 0., 0., 2.45901640e-003, 2.45901640e-003,
          1.63934426e-003, 0., 0., 0., 0., 0., 7.37704895e-003, 0.,
          4.09836043e-003, 1.63934426e-003, 0., 2.45901640e-003,
          2.45901640e-003, 2.45901640e-003, 0., 0., 1.63934426e-003,
          9.83606558e-003, 8.19672132e-004, 1.63934426e-003,
          1.63934426e-003, 0., 0., 2.45901640e-003, 8.19672132e-004,
          1.63934426e-003, 0., 5.73770516e-003, 2.45901640e-003,
          1.63934426e-003, 0., 5.16393445e-002, 1.22950822e-002,
          8.19672132e-004, 1.63934426e-003, 0., 2.45901640e-003, 0.,
          2.45901640e-003, 2.45901640e-003, 1.63934426e-003,
          1.63934426e-003, 4.09836043e-003, 3.27868853e-003,
          8.19672132e-004, 0., 0., 8.19672132e-004, 6.55737706e-003,
          6.55737706e-003, 0., 8.19672132e-004, 8.19672132e-004, 0., 0.,
          3.27868853e-003, 8.19672085e-003, 1.63934426e-003,
          8.19672132e-004, 0., 0., 8.19672132e-004, 8.19672132e-004,
          2.45901640e-003, 0., 2.45901640e-003, 2.45901640e-003, 0., 0.,
          0., 0., 8.19672132e-004, 8.19672132e-004, 0., 0., 0.,
          3.27868853e-003, 2.45901640e-003, 8.19672132e-004,
          6.55737706e-003, 0., 7.37704895e-003, 8.19672132e-004, 0., 0.,
          0., 0., 8.19672132e-004, 0., 0., 1.63934426e-003,
          6.55737706e-003, 1.63934426e-003, 0., 8.19672132e-004,
          1.63934426e-003, 0., 0., 0., 8.19672132e-004, 0.,
          2.45901640e-003, 0., 0., 1.63934426e-003, 0., 0., 0.,
          6.55737706e-003, 8.19672132e-004, 0., 0., 0., 0.,
          2.45901640e-003, 8.19672132e-004, 0., 0., 0., 1.63934426e-003,
          1.63934426e-003, 4.91803279e-003, 3.27868853e-003,
          2.45901640e-003, 8.19672132e-004, 1.63934426e-003,
          1.63934426e-003, 0., 0., 8.19672132e-004, 0., 2.45901640e-003,
          0., 0., 5.73770516e-003, 2.45901640e-003, 0., 8.19672132e-004,
          0., 0., 1.22950822e-002, 0., 3.27868853e-003, 2.45901640e-003,
          1.63934426e-003, 4.09836043e-003, 0., 0., 1.63934426e-003,
          2.45901640e-003, 1.63934426e-003, 4.09836043e-003, 0.,
          8.19672132e-004, 8.19672132e-004, 0., 0., 0., 4.09836043e-003,
          2.45901640e-003, 0., 0., 1.63934426e-003, 8.19672132e-004, 0.,
          1.63934426e-003, 3.27868853e-003, 1.63934426e-003,
          8.19672132e-004, 3.27868853e-003, 4.09836043e-003,
          8.19672132e-004, 0., 2.45901640e-003, 0., 3.27868853e-003, 0.,
          3.27868853e-003, 7.37704895e-003, 1.63934426e-003,
          3.27868853e-003, 1.63934426e-003, 0., 0., 2.45901640e-003, 0.,
          4.09836043e-003, 0., 3.27868853e-003, 0., 8.19672132e-004,
          1.63934426e-003, 1.14754103e-002, 8.19672132e-004,
          4.91803279e-003, 0., 0., 8.19672085e-003, 3.27868853e-003, 0.,
          0., 1.63934426e-003, 0., 0., 0., 0., 0., 4.09836043e-003,
          4.91803279e-003, 0., 1.14754103e-002, 0., 1.63934426e-003, 0.,
          2.45901640e-003, 3.27868853e-003, 0., 0., 8.19672132e-004,
          3.27868853e-003, 8.19672132e-004, 0., 8.19672132e-004, 0., 0.,
          8.19672132e-004, 8.19672132e-004, 3.27868853e-003, 0.,
          8.19672132e-004, 8.19672132e-004, 2.45901640e-003,
          8.19672132e-004, 0., 3.27868853e-003, 0., 0., 1.63934426e-003,
          0., 8.19672132e-004, 2.45901640e-003, 2.45901640e-003,
          7.37704895e-003, 0., 8.19672132e-004, 5.73770516e-003,
          1.63934426e-003, 8.19672132e-004, 0., 2.45901640e-003,
          4.09836043e-003, 8.19672132e-004, 1.63934426e-003,
          2.45901640e-003, 0., 1.63934426e-003, 0., 8.19672132e-004,
          8.19672132e-004, 0., 8.19672132e-004, 3.27868853e-003,
          8.19672132e-004, 0., 2.45901640e-003, 0., 1.63934426e-003,
          1.63934426e-003, 0., 0., 0., 8.19672132e-004, 3.27868853e-003,
          1.22950822e-002, 3.27868853e-003, 0., 0., 0., 1.63934426e-003,
          3.27868853e-003, 3.27868853e-003, 1.63934426e-003, 0., 0.,
          3.27868853e-003, 0., 0., 4.09836043e-003, 0., 2.45901640e-003,
          0., 0., 0., 3.27868853e-003, 8.19672132e-004, 0., 0., 0., 0.,
          0., 1.63934426e-003, 4.09836043e-003, 0., 0., 0.,
          8.19672132e-004, 9.83606558e-003, 0., 0., 8.19672132e-004, 0.,
          4.91803279e-003, 0., 8.19672132e-004, 3.27868853e-003,
          1.63934426e-003, 0., 0., 1.63934426e-003, 0., 0., 0., 0.,
          6.55737706e-003, 0., 8.19672132e-004, 8.19672132e-004, 0., 0.,
          0., 8.19672132e-004, 9.83606558e-003, 2.45901640e-003, 0., 0.,
          8.19672132e-004, 0., 0., 3.27868853e-003, 0., 0., 0.,
          3.27868853e-003, 8.19672132e-004, 5.73770516e-003, 0.,
          1.63934426e-003, 0., 0., 1.63934426e-003, 4.91803279e-003, 0.,
          1.63934426e-003, 0., 2.45901640e-003, 0., 0., 1.06557375e-002,
          1.63934426e-003, 2.45901640e-003 ]
      - [ 0., 0., 0., 0., 2.35294108e-003, 0., 0., 0., 0., 0., 0., 0.,
          0., 0., 0., 0., 0., 0., 0., 0., 0., 0., 0., 3.52941155e-002,
          0., 0., 0., 0., 0., 0., 0., 0., 0., 0., 0., 0., 0., 0., 0., 0.,
          0., 0., 0., 0., 0., 0., 0., 1.88235287e-002, 0., 0., 0., 0.,
          0., 0., 0., 0., 0., 0., 0., 0., 0., 1.64705869e-002, 0., 0.,
          0., 0., 0., 0., 0., 0., 0., 4.70588217e-003, 0., 0., 0., 0.,
          0., 0., 0., 0., 0., 0., 0., 0., 0., 7.05882348e-003, 0., 0.,
          0., 0., 0., 1.62352934e-001, 0., 0., 0., 0., 0., 0., 0.,
          6.35294095e-002, 0., 0., 0., 0., 0., 0., 0., 0., 0., 0., 0.,
          0., 2.11764704e-002, 0., 0., 0., 0., 0., 0., 0., 0., 0., 0.,
          0., 0., 0., 0., 0., 0., 0., 0., 0., 0., 0., 0., 0., 0., 0., 0.,
          0., 0., 0., 0., 0., 0., 0., 0., 0., 0., 2.11764704e-002, 0.,
          0., 0., 0., 0., 0., 0., 0., 0., 0., 0., 0., 0., 0., 0.,
          2.35294108e-003, 0., 0., 0., 0., 0., 0., 0., 0., 0., 0., 0.,
          0., 0., 0., 0., 0., 0., 0., 0., 0., 0., 0., 0., 0., 0., 0., 0.,
          0., 0., 0., 0., 0., 0., 0., 0., 0., 0., 0., 0., 0., 0., 0., 0.,
          0., 2.35294108e-003, 0., 0., 0., 0., 0., 0., 0., 0.,
          7.05882348e-003, 0., 0., 0., 0., 0., 0., 0., 0., 0., 0., 0.,
          0., 0., 0., 0., 0., 1.64705869e-002, 0., 0., 0., 0., 0., 0.,
          0., 0., 3.29411738e-002, 0., 0., 0., 0., 0., 0., 0., 0., 0.,
          0., 0., 0., 0., 0., 0., 0., 0., 0., 0., 0., 0., 0., 0., 0., 0.,
          0., 0., 0., 0., 5.41176461e-002, 0., 0., 0., 0., 0., 0., 0.,
          0., 0., 0., 0., 0., 0., 0., 0., 0., 0., 0., 0., 0., 0., 0., 0.,
          0., 0., 0., 0., 0., 0., 0., 0., 1.64705869e-002, 0., 0., 0.,
          0., 0., 0., 0., 0., 0., 0., 0., 0., 0., 0., 0., 0., 0.,
          2.11764704e-002, 0., 0., 0., 0., 0., 0., 0., 0., 0., 0., 0.,
          2.35294108e-003, 0., 0., 0., 0., 0., 1.05882347e-001, 0.,
          2.58823521e-002, 7.05882348e-003, 0., 0., 0., 9.41176433e-003,
          0., 0., 0., 0., 0., 0., 0., 0., 0., 0., 0., 0., 0., 0., 0., 0.,
          0., 0., 0., 0., 0., 0., 0., 0., 0., 0., 0., 0., 0., 0., 0., 0.,
          0., 0., 0., 0., 0., 0., 0., 0., 0., 0., 0., 0., 0., 0., 0., 0.,
          0., 0., 0., 0., 0., 0., 0., 0., 0., 0., 0., 0., 0., 0., 0., 0.,
          0., 0., 0., 0., 0., 0., 0., 4.70588217e-003, 0., 0., 0., 0.,
          0., 0., 0., 0., 0., 0., 0., 0., 0., 0., 0., 0., 0., 0., 0., 0.,
          0., 0., 0., 0., 0., 0., 0., 0., 1.17647052e-002, 0.,
          4.70588217e-003, 0., 0., 1.38823524e-001, 0., 0., 0., 0.,
          3.76470573e-002, 0., 0., 1.41176470e-002, 0., 0., 0., 0., 0.,
          0., 0., 0., 0., 0., 0., 0., 0., 0., 0., 0., 0., 0., 0., 0., 0.,
          0., 0., 0., 0., 0., 0., 0., 0., 0., 0., 0., 0., 0.,
          2.82352939e-002, 0., 0., 0., 0., 0., 0., 0., 0., 0., 0., 0.,
          0., 0., 0., 0., 1.41176470e-002, 0., 2.58823521e-002, 0., 0.,
          0., 0., 0., 0., 0., 0., 0., 0., 0., 0., 0., 0., 0., 0., 0., 0.,
          0., 0., 0., 0., 0., 0., 0., 0., 0., 0., 0., 0., 0., 0.,
          3.29411738e-002, 0., 0., 0., 0., 0., 0., 0., 0., 0., 0., 0.,
          0., 0., 0., 0., 0., 0., 0., 3.05882338e-002, 0., 0., 0., 0.,
          0., 0., 0., 0., 0., 0., 0., 0., 0., 0., 0., 0., 0., 0., 0., 0.,
          0., 0., 0., 0., 0., 0., 0., 0., 0., 0. ]
      - [ 0., 0., 0., 0., 5.13176173e-002, 0., 0., 0., 0., 0., 0., 0.,
          0., 0., 0., 0., 0., 0., 0., 0., 0., 0., 0., 1.38696260e-003,
          0., 0., 0., 0., 0., 0., 0., 0., 0., 0., 0., 0., 0., 0., 0., 0.,
          0., 0., 0., 0., 0., 0., 0., 5.54785039e-003, 0., 0., 0., 0.,
          0., 0., 0., 0., 0., 0., 0., 0., 0., 2.49653272e-002, 0., 0.,
          0., 0., 0., 0., 0., 0., 0., 2.49653272e-002, 0., 0., 0., 0.,
          0., 0., 0., 0., 0., 0., 0., 0., 0., 3.46740633e-002, 0., 0.,
          0., 0., 0., 0., 0., 0., 0., 0., 0., 0., 0., 1.10957008e-002,
          0., 0., 0., 0., 0., 0., 0., 0., 0., 0., 0., 0.,
          5.68654649e-002, 0., 0., 0., 0., 0., 0., 0., 0., 0., 0., 0.,
          0., 0., 0., 0., 0., 0., 0., 0., 0., 0., 0., 0., 0., 0., 0., 0.,
          0., 0., 0., 0., 0., 0., 0., 0., 0., 2.08044387e-002, 0., 0.,
          0., 0., 0., 0., 0., 0., 0., 0., 0., 0., 0., 0., 0.,
          9.57004204e-002, 0., 0., 0., 0., 0., 0., 0., 0., 0., 0., 0.,
          0., 0., 0., 0., 0., 0., 0., 0., 0., 0., 0., 0., 0., 0., 0., 0.,
          0., 0., 0., 0., 0., 0., 0., 0., 0., 0., 0., 0., 0., 0., 0., 0.,
          0., 5.13176173e-002, 0., 0., 0., 0., 0., 0., 0., 0.,
          5.68654649e-002, 0., 0., 0., 0., 0., 0., 0., 0., 0., 0., 0.,
          0., 0., 0., 0., 0., 2.91262139e-002, 0., 0., 0., 0., 0., 0.,
          0., 0., 5.54785058e-002, 0., 0., 0., 0., 0., 0., 0., 0., 0.,
          0., 0., 0., 0., 0., 0., 0., 0., 0., 0., 0., 0., 0., 0., 0., 0.,
          0., 0., 0., 0., 2.21914016e-002, 0., 0., 0., 0., 0., 0., 0.,
          0., 0., 0., 0., 0., 0., 0., 0., 0., 0., 0., 0., 0., 0., 0., 0.,
          0., 0., 0., 0., 0., 0., 0., 0., 3.74479890e-002, 0., 0., 0.,
          0., 0., 0., 0., 0., 0., 0., 0., 0., 0., 0., 0., 0., 0.,
          3.05131767e-002, 0., 0., 0., 0., 0., 0., 0., 0., 0., 0., 0.,
          1.24826636e-002, 0., 0., 0., 0., 0., 5.54785039e-003, 0.,
          1.10957008e-002, 1.12343967e-001, 0., 0., 0., 1.10957008e-002,
          0., 0., 0., 0., 0., 0., 0., 0., 0., 0., 0., 0., 0., 0., 0., 0.,
          0., 0., 0., 0., 0., 0., 0., 0., 0., 0., 0., 0., 0., 0., 0., 0.,
          0., 0., 0., 0., 0., 0., 0., 0., 0., 0., 0., 0., 0., 0., 0., 0.,
          0., 0., 0., 0., 0., 0., 0., 0., 0., 0., 0., 0., 0., 0., 0., 0.,
          0., 0., 0., 0., 0., 0., 0., 0., 0., 0., 0., 0., 0., 0., 0., 0.,
          0., 0., 0., 0., 0., 0., 0., 0., 0., 0., 0., 0., 0., 0., 0., 0.,
          0., 0., 0., 0., 0., 0., 2.35783644e-002, 0., 0.,
          7.21220523e-002, 0., 0., 0., 0., 2.77392520e-003, 0., 0.,
          3.05131767e-002, 0., 0., 0., 0., 0., 0., 0., 0., 0., 0., 0.,
          0., 0., 0., 0., 0., 0., 0., 0., 0., 0., 0., 0., 0., 0., 0., 0.,
          0., 0., 0., 0., 0., 0., 0., 1.24826636e-002, 0., 0., 0., 0.,
          0., 0., 0., 0., 0., 0., 0., 0., 0., 0., 0., 4.57697660e-002,
          0., 2.63522901e-002, 0., 0., 0., 0., 0., 0., 0., 0., 0., 0.,
          0., 0., 0., 0., 0., 0., 0., 0., 0., 0., 0., 0., 0., 0., 0., 0.,
          0., 0., 0., 0., 0., 0., 1.38696264e-002, 0., 0., 0., 0., 0.,
          0., 0., 0., 0., 0., 0., 0., 0., 0., 0., 0., 0., 0.,
          9.70873795e-003, 0., 0., 0., 0., 0., 0., 0., 0., 0., 0., 0.,
          0., 0., 0., 0., 0., 0., 0., 0., 0., 0., 0., 0., 0., 0., 0., 0.,
          0., 0., 0. ]
      - [ 0., 0., 0., 0., 2.53164559e-003, 0., 0., 0., 0., 0., 0., 0.,
          0., 0., 0., 0., 0., 0., 1.06329113e-001, 0., 0., 0., 0.,
          7.59493653e-003, 0., 0., 0., 0., 0., 0., 0., 0., 0., 0., 0.,
          0., 0., 0., 0., 0., 0., 0., 0., 0., 0., 0., 0.,
          7.59493653e-003, 0., 0., 0., 0., 0., 0., 0., 0., 0., 0., 0.,
          0., 0., 3.29113938e-002, 0., 0., 0., 0., 0., 0., 0., 0., 0.,
          0., 0., 0., 0., 0., 0., 0., 0., 0., 0., 0., 0., 0., 0.,
          7.08860755e-002, 0., 0., 0., 0., 0., 2.53164559e-003, 0., 0.,
          0., 0., 0., 0., 0., 7.59493709e-002, 0., 0., 0., 0., 0., 0.,
          0., 0., 0., 0., 0., 0., 4.55696210e-002, 0., 0., 0., 0., 0.,
          0., 0., 0., 0., 0., 0., 0., 0., 0., 0., 0., 0., 0., 0., 0., 0.,
          0., 0., 0., 0., 0., 0., 0., 0., 0., 0., 0., 0., 0., 0., 0.,
          1.26582282e-002, 0., 0., 0., 0., 0., 0., 0., 0., 0., 0., 0.,
          0., 0., 0., 0., 2.78481022e-002, 0., 0., 0., 0., 0., 0., 0.,
          0., 0., 0., 0., 0., 0., 0., 0., 0., 0., 0., 0., 0., 0., 0., 0.,
          0., 0., 0., 0., 0., 0., 0., 0., 0., 0., 0., 0., 0., 0., 0., 0.,
          0., 0., 0., 0., 0., 3.03797461e-002, 0., 0., 0., 0., 0., 0.,
          0., 0., 5.82278483e-002, 0., 0., 0., 0., 0., 0., 0., 0., 0.,
          0., 0., 0., 0., 0., 0., 0., 5.06329117e-003, 0., 0., 0., 0.,
          0., 0., 0., 0., 3.03797461e-002, 0., 0., 0., 0., 0., 0., 0.,
          0., 0., 0., 0., 0., 0., 0., 0., 0., 0., 0., 0., 0., 0., 0., 0.,
          0., 0., 0., 0., 0., 0., 1.51898731e-002, 0., 0., 0., 0., 0.,
          0., 0., 0., 0., 0., 0., 0., 0., 0., 0., 0., 0., 0., 0., 0., 0.,
          0., 0., 0., 0., 0., 0., 0., 0., 0., 0., 7.59493653e-003, 0.,
          0., 0., 0., 0., 0., 0., 0., 0., 0., 0., 0., 0., 0., 0., 0., 0.,
          1.77215189e-002, 0., 0., 0., 0., 0., 0., 0., 0., 0., 0., 0.,
          1.51898731e-002, 0., 0., 0., 0., 0., 1.01265823e-002, 0.,
          1.26582282e-002, 6.83544278e-002, 0., 0., 0., 1.26582282e-002,
          0., 0., 0., 0., 0., 0., 0., 0., 0., 0., 0., 0., 0., 0., 0., 0.,
          0., 0., 0., 0., 0., 0., 0., 0., 0., 0., 0., 0., 0., 0., 0., 0.,
          0., 0., 0., 0., 0., 0., 0., 0., 0., 0., 0., 0., 0., 0., 0., 0.,
          0., 0., 0., 0., 0., 0., 0., 0., 0., 0., 0., 0., 0., 0., 0., 0.,
          0., 0., 0., 0., 0., 0., 0., 0., 0., 0., 0., 0., 0., 0., 0., 0.,
          0., 0., 0., 0., 0., 0., 0., 0., 0., 0., 0., 0., 0., 0., 0., 0.,
          0., 0., 0., 0., 2.02531647e-002, 0., 1.59493670e-001, 0., 0.,
          5.82278483e-002, 0., 0., 0., 0., 0., 0., 0., 2.78481022e-002,
          0., 0., 0., 0., 0., 0., 0., 0., 0., 0., 0., 0., 0., 0., 0., 0.,
          0., 0., 0., 0., 0., 0., 0., 0., 0., 0., 0., 0., 0., 0., 0., 0.,
          0., 0., 5.06329117e-003, 0., 0., 0., 0., 0., 0., 0., 0., 0.,
          0., 0., 0., 0., 0., 0., 1.51898731e-002, 0., 1.01265823e-002,
          0., 0., 0., 0., 0., 0., 0., 0., 0., 0., 0., 0., 0., 0., 0., 0.,
          0., 0., 0., 0., 0., 0., 0., 0., 0., 0., 0., 0., 0., 0., 0., 0.,
          7.59493653e-003, 0., 0., 0., 0., 0., 0., 0., 0., 0., 0., 0.,
          0., 0., 0., 0., 0., 0., 0., 2.02531647e-002, 0., 0., 0., 0.,
          0., 0., 0., 0., 0., 0., 0., 0., 0., 0., 0., 0., 0., 0., 0., 0.,
          0., 0., 0., 0., 0., 0., 0., 0., 0., 0. ]
      - [ 2.73597823e-003, 0., 0., 1.36798911e-003, 0., 1.36798911e-003,
          0., 0., 1.36798911e-003, 1.36798911e-003, 0., 0., 0.,
          1.36798911e-003, 0., 1.36798911e-003, 0., 1.23119019e-002, 0.,
          0., 6.83994545e-003, 0., 4.10396745e-003, 0., 0.,
          1.36798911e-003, 1.36798911e-003, 0., 1.36798911e-003, 0., 0.,
          0., 8.20793491e-003, 0., 2.73597823e-003, 0., 1.36798911e-003,
          1.36798911e-003, 0., 1.36798911e-003, 4.10396745e-003,
          1.36798911e-003, 9.57592390e-003, 1.36798911e-003,
          1.36798911e-003, 0., 2.73597823e-003, 0., 0., 0.,
          1.36798911e-003, 1.36798911e-003, 0., 0., 0., 2.73597823e-003,
          8.20793491e-003, 2.73597823e-003, 1.36798911e-003,
          5.47195645e-003, 0., 0., 1.36798911e-003, 0., 0.,
          4.10396745e-003, 0., 0., 0., 0., 0., 0., 4.10396745e-003, 0.,
          0., 0., 1.36798911e-003, 0., 4.10396745e-003, 5.47195645e-003,
          0., 0., 0., 1.36798911e-003, 2.73597823e-003, 0.,
          2.73597823e-003, 1.36798909e-002, 0., 0., 0., 0., 0., 0.,
          5.47195645e-003, 0., 2.73597823e-003, 1.36798911e-003, 0., 0.,
          4.10396745e-003, 0., 5.47195645e-003, 1.36798911e-003,
          5.47195645e-003, 0., 1.36798911e-003, 0., 0., 1.36798911e-003,
          1.36798911e-003, 0., 0., 0., 1.36798911e-003, 2.73597823e-003,
          1.36798911e-003, 0., 0., 5.47195645e-003, 1.36798911e-003, 0.,
          1.36798911e-003, 2.73597823e-003, 1.36798911e-003, 0., 0.,
          4.10396745e-003, 0., 0., 1.36798911e-003, 0., 1.36798911e-003,
          0., 6.83994545e-003, 0., 8.20793491e-003, 5.47195645e-003, 0.,
          0., 4.10396745e-003, 0., 0., 2.73597823e-003, 0.,
          5.47195645e-003, 0., 2.73597823e-003, 0., 0., 0., 0.,
          1.36798909e-002, 0., 0., 0., 1.36798911e-003, 1.36798911e-003,
          0., 4.10396745e-003, 0., 6.83994545e-003, 1.64158698e-002, 0.,
          1.36798911e-003, 0., 2.73597823e-003, 1.36798911e-003,
          5.47195645e-003, 0., 0., 0., 0., 2.73597823e-003,
          2.73597823e-003, 1.36798911e-003, 1.36798911e-003,
          2.73597823e-003, 0., 0., 0., 1.36798911e-003, 0.,
          3.00957598e-002, 0., 4.10396745e-003, 0., 0., 2.73597823e-003,
          1.36798911e-003, 1.36798911e-003, 1.36798911e-003, 0.,
          1.36798911e-003, 1.36798911e-003, 1.09439129e-002,
          1.36798911e-003, 1.36798911e-003, 0., 1.36798911e-003, 0.,
          2.73597823e-003, 2.73597823e-003, 1.36798911e-003,
          4.10396745e-003, 0., 4.10396745e-003, 0., 2.73597823e-003, 0.,
          0., 0., 0., 2.73597823e-003, 4.10396745e-003, 1.36798911e-003,
          1.36798911e-003, 0., 2.73597823e-003, 0., 0., 9.57592390e-003,
          6.83994545e-003, 1.36798911e-003, 0., 0., 0., 0., 0.,
          1.36798911e-003, 1.36798911e-003, 0., 0., 0., 1.36798911e-003,
          0., 0., 0., 2.73597823e-003, 1.36798911e-003, 1.36798911e-003,
          0., 0., 1.36798911e-003, 1.36798911e-003, 0., 1.23119019e-002,
          0., 1.36798911e-003, 4.10396745e-003, 0., 0., 0.,
          5.47195645e-003, 1.50478799e-002, 0., 0., 1.36798911e-003,
          5.47195645e-003, 0., 4.10396745e-003, 0., 0., 0.,
          8.20793491e-003, 2.73597823e-003, 0., 1.50478799e-002,
          2.73597823e-003, 0., 2.73597823e-003, 4.10396745e-003,
          4.10396745e-003, 2.73597823e-003, 5.47195645e-003, 0., 0.,
          4.10396745e-003, 0., 0., 1.36798911e-003, 8.20793491e-003,
          1.36798911e-003, 9.57592390e-003, 0., 0., 2.73597823e-003,
          1.36798911e-003, 1.36798911e-003, 0., 1.36798911e-003, 0., 0.,
          4.10396745e-003, 5.47195645e-003, 0., 2.73597823e-003,
          1.36798911e-003, 2.73597823e-003, 0., 2.73597823e-003, 0.,
          2.73597823e-003, 0., 1.36798911e-003, 0., 1.36798911e-003, 0.,
          0., 0., 0., 0., 1.36798911e-003, 0., 0., 0., 0., 0.,
          1.36798911e-003, 0., 1.36798911e-003, 0., 0., 0., 0., 0., 0.,
          0., 0., 1.36798911e-003, 2.73597823e-003, 2.73597823e-003,
          1.36798911e-003, 0., 1.36798911e-003, 4.10396745e-003,
          1.36798911e-003, 0., 0., 0., 1.36798911e-003, 0., 0., 0., 0.,
          0., 0., 1.36798911e-003, 2.73597823e-003, 1.36798911e-003, 0.,
          1.36798911e-003, 0., 1.36798911e-003, 0., 0., 0.,
          1.36798911e-003, 0., 1.36798911e-003, 0., 1.36798911e-003,
          5.47195645e-003, 1.36798911e-003, 4.10396745e-003,
          1.36798911e-003, 0., 2.73597823e-003, 0., 0., 1.36798911e-003,
          1.36798911e-003, 1.36798911e-003, 0., 0., 0., 0.,
          2.73597823e-003, 5.47195645e-003, 1.36798911e-003, 0., 0., 0.,
          1.36798911e-003, 0., 0., 0., 0., 4.10396745e-003, 0.,
          2.73597823e-003, 0., 0., 0., 1.36798911e-003, 4.10396745e-003,
          5.47195645e-003, 0., 2.73597823e-003, 0., 0., 0., 0.,
          2.73597823e-003, 0., 0., 4.10396745e-003, 0., 6.83994545e-003,
          0., 5.47195645e-003, 0., 0., 0., 2.73597823e-003,
          1.36798911e-003, 0., 0., 1.36798911e-003, 1.36798911e-003,
          4.10396745e-003, 0., 0., 0., 1.36798911e-003, 1.36798911e-003,
          1.36798911e-003, 0., 4.10396745e-003, 0., 1.36798911e-003, 0.,
          2.73597823e-003, 0., 4.10396745e-003, 0., 1.50478799e-002,
          1.36798911e-003, 1.36798911e-003, 1.09439129e-002, 0.,
          2.73597823e-003, 2.73597823e-003, 1.36798911e-003,
          4.10396745e-003, 0., 4.10396745e-003, 0., 0., 0.,
          4.10396745e-003, 0., 0., 0., 1.36798911e-003, 4.10396745e-003,
          0., 1.36798911e-003, 9.57592390e-003, 1.36798911e-003, 0., 0.,
          0., 0., 0., 0., 0., 4.10396745e-003, 0., 1.36798911e-003,
          2.73597823e-003, 0., 1.36798911e-003, 0., 0., 4.10396745e-003,
          4.10396745e-003, 1.36798911e-003, 0., 1.36798911e-003,
          5.47195645e-003, 4.10396745e-003, 2.73597823e-003,
          2.73597823e-003, 1.36798911e-003, 5.47195645e-003,
          9.57592390e-003, 0., 1.36798911e-003, 0., 1.36798911e-003,
          1.36798911e-003, 5.47195645e-003, 0., 1.36798911e-003,
          1.36798911e-003, 0., 0., 4.10396745e-003, 0., 0.,
          2.73597823e-003, 0., 4.10396745e-003, 1.36798911e-003, 0., 0.,
          1.36798911e-003, 0., 1.36798911e-003, 1.36798911e-003, 0., 0.,
          5.47195645e-003, 0., 0., 0., 0., 1.36798911e-003,
          8.20793491e-003, 0., 1.36798911e-003, 4.10396745e-003,
          1.36798911e-003, 0., 1.36798911e-003, 1.36798911e-003,
          4.10396745e-003, 0., 1.36798911e-003, 2.73597823e-003, 0.,
          2.73597823e-003, 1.36798911e-003, 2.73597823e-003, 0., 0.,
          5.47195645e-003, 1.36798911e-003, 2.73597823e-003, 0.,
          6.83994545e-003, 0., 0., 0., 1.36798911e-003, 9.57592390e-003,
          0., 5.47195645e-003, 4.10396745e-003, 0., 1.36798909e-002,
          1.36798911e-003, 0., 1.36798911e-003, 0., 0., 0.,
          2.73597823e-003, 0., 0., 0., 0., 0., 1.36798911e-003,
          5.47195645e-003, 1.36798911e-003, 2.73597823e-003, 0., 0.,
          1.36798911e-003, 4.10396745e-003, 1.36798911e-003,
          2.73597823e-003, 0., 1.36798911e-003, 0., 1.36798911e-003,
          1.36798911e-003, 2.73597823e-003, 0., 0., 1.36798911e-003,
          2.73597823e-003, 0., 1.36798911e-003, 0., 1.36798911e-003, 0.,
          0., 5.47195645e-003, 2.73597823e-003, 1.36798911e-003,
          4.10396745e-003, 0., 0., 1.36798911e-003, 4.10396745e-003, 0.,
          6.83994545e-003 ]
      - [ 1.16686116e-003, 0., 1.16686116e-003, 0., 0., 0., 0., 0.,
          7.00116716e-003, 0., 0., 0., 0., 1.16686116e-003, 0., 0.,
          1.16686116e-003, 3.50058358e-003, 0., 0., 0., 1.16686116e-003,
          5.83430566e-003, 0., 0., 0., 0., 7.00116716e-003,
          1.16686116e-003, 0., 2.91715283e-002, 0., 0., 4.66744462e-003,
          0., 0., 2.33372231e-003, 0., 1.16686116e-003, 0., 0.,
          1.16686116e-003, 0., 1.16686116e-003, 1.16686116e-003, 0., 0.,
          0., 0., 0., 0., 1.16686116e-003, 0., 1.40023343e-002, 0., 0.,
          2.10035015e-002, 0., 2.33372231e-003, 0., 0., 0., 0., 0.,
          3.50058358e-003, 0., 0., 0., 0., 1.05017507e-002, 0., 0.,
          1.16686116e-003, 0., 1.16686116e-003, 0., 2.33372231e-003, 0.,
          0., 1.28354728e-002, 1.16686116e-003, 0., 0., 0., 0., 0., 0.,
          1.05017507e-002, 0., 0., 0., 0., 0., 4.66744462e-003, 0., 0.,
          0., 1.16686116e-003, 0., 0., 1.16686116e-003, 0., 0., 0.,
          4.66744462e-003, 2.33372231e-003, 1.16686116e-003, 0., 0., 0.,
          7.00116716e-003, 0., 0., 0., 3.50058358e-003, 0.,
          1.16686116e-003, 0., 1.16686116e-003, 0., 1.16686116e-003, 0.,
          3.50058358e-003, 3.50058358e-003, 1.16686116e-003, 0.,
          1.05017507e-002, 0., 0., 1.16686116e-003, 1.16686116e-003,
          1.16686116e-003, 0., 1.16686116e-003, 3.50058358e-003,
          3.50058358e-003, 1.86697785e-002, 0., 4.66744462e-003, 0., 0.,
          3.50058358e-003, 0., 0., 0., 0., 1.16686116e-003, 0., 0., 0.,
          2.33372231e-003, 0., 4.66744462e-003, 1.16686116e-003, 0., 0.,
          0., 0., 0., 0., 0., 5.83430566e-003, 0., 0., 2.33372231e-003,
          0., 0., 0., 4.66744462e-003, 1.16686116e-003, 2.33372231e-003,
          0., 2.33372231e-003, 4.66744462e-003, 3.50058358e-003, 0., 0.,
          0., 0., 0., 0., 0., 1.16686116e-003, 9.33488924e-003, 0., 0.,
          0., 3.73395570e-002, 0., 0., 2.33372231e-003, 0., 0.,
          3.50058358e-003, 0., 1.16686116e-003, 0., 3.03383898e-002, 0.,
          1.16686116e-003, 0., 0., 1.16686116e-003, 0., 1.16686116e-003,
          0., 0., 1.16686116e-003, 8.16802774e-003, 0., 0.,
          1.16686116e-003, 1.16686116e-003, 1.16686116e-003, 0., 0.,
          1.16686116e-003, 4.66744462e-003, 0., 0., 0., 7.00116716e-003,
          4.66744462e-003, 1.16686116e-003, 2.33372231e-003, 0.,
          1.16686116e-003, 0., 1.05017507e-002, 0., 0., 0.,
          1.16686116e-003, 2.33372231e-003, 0., 0., 0., 2.33372231e-003,
          0., 0., 1.16686116e-003, 0., 0., 0., 8.16802774e-003, 0., 0.,
          2.33372231e-003, 7.00116716e-003, 1.16686116e-003, 0., 0., 0.,
          3.50058358e-003, 4.66744462e-003, 0., 3.50058358e-003,
          5.83430566e-003, 0., 4.66744462e-003, 0., 0., 0., 0.,
          7.00116716e-003, 0., 0., 1.16686116e-003, 0., 0.,
          1.16686116e-003, 1.52858809e-001, 2.33372231e-003,
          4.66744462e-003, 0., 0., 0., 1.16686116e-003, 0., 0.,
          2.33372231e-003, 2.33372231e-003, 0., 5.83430566e-003,
          1.16686116e-003, 0., 2.33372231e-003, 5.83430566e-003,
          1.16686116e-003, 0., 1.16686116e-003, 0., 0., 1.16686116e-003,
          0., 0., 2.33372231e-003, 0., 2.33372231e-003, 0., 0.,
          1.16686116e-003, 0., 2.33372231e-003, 1.16686116e-003, 0., 0.,
          0., 0., 0., 1.16686116e-003, 0., 0., 0., 0., 0.,
          1.28354728e-002, 0., 0., 5.83430566e-003, 0., 0., 0., 0., 0.,
          0., 0., 1.16686116e-003, 0., 0., 0., 0., 0., 0.,
          2.33372231e-003, 0., 2.33372231e-003, 0., 0., 1.16686116e-003,
          0., 2.33372231e-003, 0., 0., 0., 0., 0., 1.16686116e-003, 0.,
          0., 0., 0., 0., 2.33372231e-003, 0., 0., 1.16686116e-003,
          5.83430566e-003, 0., 2.33372231e-003, 0., 2.33372231e-003, 0.,
          0., 0., 0., 0., 0., 3.50058358e-003, 5.83430566e-003, 0.,
          2.33372231e-003, 0., 0., 1.16686116e-003, 0., 1.16686116e-003,
          0., 0., 0., 5.83430566e-003, 0., 0., 0., 4.66744462e-003,
          1.51691949e-002, 1.16686116e-003, 0., 0., 0., 0., 0., 0., 0.,
          0., 0., 0., 0., 1.28354728e-002, 1.16686116e-003, 0., 0., 0.,
          1.16686116e-003, 1.16686116e-003, 0., 0., 0., 0.,
          1.16686116e-003, 4.66744462e-003, 1.16686116e-003, 0., 0., 0.,
          2.33372231e-003, 0., 0., 2.33372231e-003, 0., 0.,
          1.16686116e-003, 0., 0., 1.16686116e-003, 3.50058358e-003,
          1.16686116e-003, 1.16686116e-003, 1.16686116e-003, 0., 0., 0.,
          2.33372231e-003, 0., 0., 0., 1.05017507e-002, 0., 0., 0., 0.,
          0., 1.16686116e-003, 0., 0., 2.33372231e-003, 0.,
          2.33372231e-003, 1.16686116e-003, 0., 0., 0., 0., 0.,
          4.66744462e-003, 1.16686116e-003, 0., 0., 2.33372231e-003,
          1.16686116e-003, 0., 0., 0., 0., 0., 1.16686116e-003,
          4.66744462e-003, 2.33372231e-003, 0., 9.33488924e-003,
          3.50058358e-003, 0., 0., 1.16686116e-003, 0., 1.16686116e-003,
          1.16686116e-003, 0., 0., 0., 4.66744462e-003, 3.50058358e-003,
          1.16686116e-003, 0., 2.33372231e-003, 0., 1.63360555e-002, 0.,
          1.16686116e-003, 0., 3.50058358e-003, 0., 0., 1.16686116e-003,
          0., 1.16686116e-003, 0., 0., 1.16686116e-003, 0.,
          1.16686116e-003, 1.16686116e-003, 0., 2.33372231e-003, 0., 0.,
          1.16686116e-003, 0., 0., 1.16686116e-003, 0., 3.50058358e-003,
          4.66744462e-003, 1.16686116e-003, 0., 0., 0., 0.,
          5.83430566e-003, 3.50058358e-003, 0., 0., 0., 3.50058358e-003,
          0., 0., 0., 2.33372231e-003, 0., 0., 2.33372231e-003, 0., 0.,
          9.33488924e-003, 7.00116716e-003, 1.16686116e-003, 0., 0., 0.,
          8.16802774e-003, 1.16686116e-003, 0., 1.16686116e-003, 0., 0.,
          0., 4.66744462e-003, 0., 1.28354728e-002, 0., 0.,
          2.33372231e-003, 0., 3.50058358e-003, 3.50058358e-003, 0., 0.,
          1.16686116e-003, 0., 0., 1.16686116e-003, 2.33372231e-003, 0.,
          0., 0., 0., 0., 1.16686116e-003, 0., 0., 1.16686116e-003,
          2.33372231e-003, 0., 0., 3.50058358e-003, 1.16686116e-003, 0.,
          1.16686116e-003, 1.16686116e-003, 0., 0., 0., 3.50058358e-003,
          0., 0., 0., 1.16686116e-003, 0., 0., 0., 4.66744462e-003, 0.,
          2.33372231e-003, 0., 4.66744462e-003, 0., 0., 2.33372231e-003,
          2.33372231e-003, 1.16686116e-003 ]
      - [ 1.29701686e-003, 0., 6.48508430e-004, 1.94552529e-003, 0.,
          1.29701686e-003, 0., 0., 0., 7.13359285e-003, 1.29701686e-003,
          0., 0., 0., 0., 0., 6.48508407e-003, 1.94552529e-003, 0.,
          1.29701686e-003, 1.94552529e-003, 4.53955913e-003,
          2.59403372e-003, 0., 6.48508407e-003, 0., 1.29701686e-003,
          6.48508430e-004, 6.48508430e-004, 2.59403372e-003,
          1.94552529e-003, 3.24254204e-003, 6.48508430e-004,
          4.53955913e-003, 6.48508430e-004, 1.94552529e-003,
          5.18806744e-003, 5.83657576e-003, 3.24254204e-003,
          3.24254204e-003, 6.48508430e-004, 0., 6.48508430e-004,
          3.89105058e-003, 1.94552529e-003, 0., 1.94552529e-003, 0., 0.,
          3.89105058e-003, 6.48508430e-004, 3.89105058e-003, 0.,
          6.48508430e-004, 6.48508430e-004, 7.13359285e-003, 0.,
          4.53955913e-003, 6.48508430e-004, 1.94552529e-003, 0., 0., 0.,
          0., 1.29701686e-003, 0., 1.29701686e-003, 5.83657576e-003,
          6.48508430e-004, 1.94552529e-003, 0., 0., 6.48508430e-004,
          1.94552529e-003, 7.13359285e-003, 2.59403372e-003,
          2.59403372e-003, 0., 2.59403372e-003, 1.29701686e-003,
          6.48508430e-004, 3.24254204e-003, 0., 1.29701686e-003, 0., 0.,
          6.48508430e-004, 3.24254204e-003, 3.89105058e-003, 0.,
          3.89105058e-003, 0., 0., 3.24254204e-003, 3.24254204e-003,
          1.94552529e-003, 6.48508430e-004, 1.94552529e-003,
          5.18806744e-003, 0., 2.59403372e-003, 0., 5.18806744e-003,
          6.48508430e-004, 6.48508430e-004, 1.94552529e-003,
          1.94552529e-003, 1.29701686e-003, 6.48508430e-004,
          3.89105058e-003, 1.49156936e-002, 6.48508430e-004, 0.,
          4.53955913e-003, 0., 2.59403372e-003, 2.59403372e-003,
          5.18806744e-003, 2.59403372e-003, 0., 7.78210117e-003, 0., 0.,
          0., 1.94552529e-003, 3.24254204e-003, 0., 0., 6.48508430e-004,
          1.29701686e-003, 1.94552529e-003, 1.29701686e-003,
          1.29701686e-003, 1.29701686e-003, 0., 6.48508430e-004,
          3.24254204e-003, 1.29701686e-003, 3.89105058e-003, 0.,
          1.29701686e-003, 4.53955913e-003, 3.24254204e-003, 0.,
          1.94552529e-003, 3.89105058e-003, 0., 0., 0., 0.,
          6.48508430e-004, 1.94552529e-003, 6.48508430e-004,
          1.10246437e-002, 1.94552529e-003, 0., 6.48508430e-004,
          6.48508430e-004, 1.29701686e-003, 6.48508430e-004, 0.,
          1.94552529e-003, 1.29701686e-003, 0., 2.59403372e-003, 0.,
          1.29701686e-003, 0., 0., 2.59403372e-003, 1.94552529e-003, 0.,
          6.48508430e-004, 6.48508430e-004, 6.48508430e-004, 0.,
          1.29701686e-003, 7.13359285e-003, 2.59403372e-003,
          6.48508430e-004, 1.94552529e-003, 1.29701686e-003,
          6.48508430e-004, 6.48508430e-004, 0., 6.48508430e-004,
          6.48508430e-004, 6.48508430e-004, 1.29701686e-003,
          3.24254204e-003, 2.59403372e-003, 0., 5.83657576e-003,
          6.48508430e-004, 3.89105058e-003, 1.29701686e-003,
          1.55642023e-002, 4.53955913e-003, 1.94552529e-003,
          1.94552529e-003, 3.89105058e-003, 0., 0., 2.59403372e-003,
          1.29701686e-003, 5.18806744e-003, 7.13359285e-003, 0., 0.,
          5.18806744e-003, 0., 6.48508430e-004, 6.48508407e-003,
          2.59403372e-003, 0., 6.48508430e-004, 2.59403372e-003, 0.,
          1.94552529e-003, 0., 1.29701686e-003, 0., 0., 6.48508430e-004,
          1.94552529e-003, 0., 1.29701686e-003, 1.94552529e-003, 0.,
          6.48508430e-004, 1.29701686e-003, 3.89105058e-003,
          1.29701686e-003, 2.59403372e-003, 6.48508430e-004, 0., 0., 0.,
          3.24254204e-003, 1.29701686e-003, 2.59403372e-003,
          3.24254204e-003, 1.94552529e-003, 1.94552529e-003,
          4.53955913e-003, 0., 3.24254204e-003, 0., 0., 0.,
          1.29701686e-003, 7.13359285e-003, 3.24254204e-003, 0., 0., 0.,
          5.83657576e-003, 1.29701686e-003, 6.48508430e-004,
          5.18806744e-003, 1.29701686e-003, 0., 0., 1.29701686e-003, 0.,
          1.29701686e-003, 0., 3.24254204e-003, 1.94552529e-003,
          1.94552529e-003, 6.48508430e-004, 4.53955913e-003, 0., 0., 0.,
          0., 6.48508430e-004, 0., 0., 3.89105058e-003, 0.,
          1.94552529e-003, 3.24254204e-003, 2.59403372e-003, 0., 0., 0.,
          0., 7.13359285e-003, 1.16731515e-002, 0., 6.48508430e-004,
          2.59403372e-003, 6.48508430e-004, 0., 2.59403372e-003,
          5.83657576e-003, 3.89105058e-003, 0., 3.24254204e-003, 0.,
          3.24254204e-003, 0., 6.48508430e-004, 6.48508430e-004,
          7.13359285e-003, 2.59403372e-003, 0., 0., 5.18806744e-003,
          1.29701686e-003, 1.29701686e-003, 6.48508430e-004, 0., 0., 0.,
          6.48508430e-004, 7.13359285e-003, 3.89105058e-003,
          1.94552529e-003, 6.48508430e-004, 1.94552529e-003, 0.,
          2.59403372e-003, 7.78210117e-003, 0., 0., 0., 0.,
          1.29701686e-003, 1.94552529e-003, 6.48508407e-003,
          4.53955913e-003, 5.18806744e-003, 0., 2.59403372e-003, 0., 0.,
          0., 2.59403372e-003, 6.48508430e-004, 1.29701686e-003, 0., 0.,
          2.59403372e-003, 0., 0., 0., 6.48508430e-004, 2.59403372e-003,
          0., 0., 0., 6.48508430e-004, 1.29701686e-003, 1.29701686e-003,
          6.48508430e-004, 7.13359285e-003, 1.29701686e-003,
          7.78210117e-003, 6.48508430e-004, 8.43060948e-003,
          5.18806744e-003, 3.24254204e-003, 1.29701686e-003,
          1.94552529e-003, 3.89105058e-003, 0., 6.48508430e-004,
          5.18806744e-003, 0., 0., 6.48508430e-004, 0., 1.29701686e-003,
          1.29701686e-003, 6.48508430e-004, 8.43060948e-003,
          3.24254204e-003, 0., 1.94552529e-003, 1.94552529e-003, 0.,
          6.48508430e-004, 3.89105058e-003, 5.83657576e-003, 0., 0., 0.,
          0., 7.78210117e-003, 0., 0., 1.29701686e-003, 1.29701686e-003,
          1.29701686e-003, 0., 0., 0., 7.78210117e-003, 1.29701686e-003,
          0., 1.94552529e-003, 7.13359285e-003, 0., 7.13359285e-003, 0.,
          6.48508430e-004, 0., 6.48508430e-004, 6.48508430e-004, 0.,
          1.94552529e-003, 1.29701686e-003, 6.48508430e-004, 0.,
          1.29701686e-003, 3.24254204e-003, 2.59403372e-003,
          1.29701686e-003, 1.94552529e-003, 1.29701686e-003, 0.,
          1.29701686e-003, 0., 0., 6.48508430e-004, 6.48508430e-004,
          5.18806744e-003, 0., 6.48508430e-004, 1.94552529e-003,
          2.59403372e-003, 0., 8.43060948e-003, 1.29701686e-003,
          1.29701686e-003, 9.07911826e-003, 1.29701686e-003,
          6.48508430e-004, 0., 0., 0., 0., 0., 1.29701686e-003, 0.,
          4.53955913e-003, 7.78210117e-003, 0., 2.59403372e-003, 0.,
          6.48508430e-004, 0., 7.13359285e-003, 6.48508430e-004, 0., 0.,
          6.48508430e-004, 3.89105058e-003, 3.24254204e-003, 0.,
          1.94552529e-003, 4.53955913e-003, 0., 3.24254204e-003, 0., 0.,
          0., 3.24254204e-003, 6.48508430e-004, 0., 1.29701686e-003, 0.,
          0., 0., 0., 0., 0., 2.59403372e-003, 2.59403372e-003, 0.,
          1.10246437e-002, 0., 1.29701686e-003, 6.48508430e-004,
          6.48508430e-004, 1.42671857e-002, 3.24254204e-003,
          3.24254204e-003, 0., 0., 0., 6.48508430e-004, 6.48508430e-004,
          2.59403372e-003, 6.48508430e-004, 1.29701686e-003,
          6.48508430e-004, 0., 6.48508430e-004, 1.29701686e-003,
          6.48508430e-004, 0., 0., 1.29701686e-003, 1.94552529e-003, 0.,
          0., 0., 4.53955913e-003, 6.48508430e-004, 1.94552529e-003,
          1.94552529e-003, 6.48508430e-004, 0., 0., 0., 0.,
          6.48508430e-004, 3.89105058e-003, 0., 1.94552529e-003,
          3.24254204e-003, 1.29701686e-003, 0., 1.29701686e-003,
          6.48508430e-004, 0., 4.53955913e-003, 6.48508430e-004, 0.,
          1.94552529e-003, 0., 1.29701686e-003, 1.94552529e-003,
          6.48508430e-004, 6.48508430e-004, 0., 1.29701686e-003,
          4.53955913e-003, 1.29701686e-003, 2.59403372e-003, 0.,
          5.83657576e-003, 6.48508430e-004, 6.48508430e-004, 0., 0.,
          6.48508430e-004, 0., 6.48508430e-004, 0., 1.94552529e-003,
          1.29701686e-003, 6.48508430e-004, 2.59403372e-003,
          7.13359285e-003, 1.29701686e-003, 0., 6.48508430e-004,
          6.48508430e-004, 0., 1.29701686e-003, 6.48508430e-004,
          6.48508430e-004, 3.89105058e-003, 3.24254204e-003, 0., 0.,
          2.59403372e-003, 6.48508407e-003, 3.24254204e-003,
          6.48508430e-004, 0., 1.29701686e-003, 0., 6.48508430e-004,
          6.48508430e-004, 0., 1.29701686e-003, 0., 1.29701686e-003,
          2.59403372e-003, 6.48508430e-004, 0., 1.94552529e-003,
          6.48508430e-004, 2.59403372e-003, 6.48508430e-004,
          6.48508430e-004, 5.83657576e-003, 2.59403372e-003, 0.,
          1.29701686e-003, 0., 6.48508430e-004, 0., 0., 0. ]
      - [ 0., 0., 0., 0., 0., 0., 4.75435844e-003, 0., 3.16957221e-003,
          0., 3.16957221e-003, 6.33914443e-003, 0., 0., 0., 0., 0.,
          4.75435844e-003, 0., 0., 1.58478611e-003, 0., 9.50871687e-003,
          0., 0., 1.58478618e-002, 0., 3.16957221e-003, 9.50871687e-003,
          0., 6.33914443e-003, 1.58478611e-003, 0., 0., 0., 0., 0., 0.,
          0., 0., 6.33914443e-003, 0., 3.16957221e-003, 0., 0.,
          2.21870057e-002, 0., 0., 1.58478611e-003, 1.58478611e-003,
          1.58478611e-003, 0., 1.58478611e-003, 0., 3.16957221e-003, 0.,
          1.58478611e-003, 0., 0., 0., 6.33914443e-003, 0.,
          3.16957221e-003, 1.58478611e-003, 1.58478611e-003,
          1.58478611e-003, 1.58478611e-003, 0., 1.58478611e-003, 0.,
          4.75435844e-003, 0., 7.92393088e-003, 0., 3.16957221e-003, 0.,
          1.58478611e-003, 0., 0., 9.50871687e-003, 0., 1.58478611e-003,
          0., 0., 1.58478611e-003, 0., 0., 0., 0., 0., 0., 0., 0.,
          3.16957221e-003, 1.58478611e-003, 0., 0., 0., 0., 0., 0., 0.,
          1.58478611e-003, 0., 3.16957221e-003, 3.16957221e-003,
          3.16957221e-003, 0., 0., 4.75435844e-003, 0., 0., 0.,
          3.16957221e-003, 6.33914443e-003, 0., 0., 0., 0.,
          3.16957221e-003, 0., 0., 0., 9.50871687e-003, 3.16957221e-003,
          0., 1.58478611e-003, 1.58478611e-003, 0., 0., 0., 0.,
          1.58478611e-003, 0., 3.16957221e-003, 9.50871687e-003,
          7.92393088e-003, 6.33914443e-003, 0., 3.16957221e-003,
          1.58478611e-003, 0., 4.75435844e-003, 3.16957221e-003, 0., 0.,
          0., 1.58478611e-003, 6.33914443e-003, 0., 1.58478611e-003,
          1.58478611e-003, 0., 1.58478611e-003, 0., 0., 1.58478611e-003,
          6.33914443e-003, 0., 7.92393088e-003, 1.58478611e-003, 0., 0.,
          0., 1.58478611e-003, 0., 0., 6.33914443e-003, 1.58478611e-003,
          0., 1.58478611e-003, 0., 0., 1.58478611e-003, 3.16957221e-003,
          0., 0., 1.58478611e-003, 0., 0., 0., 1.58478611e-003, 0.,
          9.50871687e-003, 0., 0., 0., 4.75435844e-003, 0., 0.,
          1.58478611e-003, 1.58478611e-003, 0., 1.58478611e-003, 0.,
          1.10935029e-002, 0., 3.16957221e-003, 1.58478611e-003, 0.,
          3.16957221e-003, 1.58478611e-003, 7.92393088e-003,
          7.92393088e-003, 3.16957221e-003, 0., 3.16957221e-003,
          4.75435844e-003, 1.58478611e-003, 0., 0., 4.75435844e-003, 0.,
          0., 0., 0., 0., 0., 0., 0., 1.58478611e-003, 3.16957221e-003,
          0., 1.58478611e-003, 9.50871687e-003, 0., 0., 1.58478611e-003,
          1.58478611e-003, 1.58478611e-003, 0., 0., 1.58478611e-003, 0.,
          0., 0., 0., 0., 1.58478611e-003, 3.16957221e-003, 0., 0., 0.,
          7.92393088e-003, 1.58478611e-003, 0., 1.58478611e-003,
          4.75435844e-003, 3.16957221e-003, 3.16957221e-003,
          1.58478611e-003, 1.58478611e-003, 0., 6.33914443e-003,
          4.75435844e-003, 0., 6.33914443e-003, 3.16957221e-003,
          3.16957221e-003, 0., 0., 3.16957221e-003, 0., 0.,
          3.16957221e-003, 1.58478611e-003, 1.58478611e-003,
          4.75435844e-003, 0., 0., 6.33914443e-003, 2.53565777e-002, 0.,
          4.75435844e-003, 3.16957221e-003, 0., 1.58478611e-003, 0.,
          1.58478611e-003, 1.58478611e-003, 0., 1.58478611e-003,
          1.58478611e-003, 4.75435844e-003, 0., 1.58478611e-003, 0.,
          3.16957221e-003, 0., 0., 0., 0., 0., 1.58478611e-003, 0., 0.,
          0., 0., 1.58478611e-003, 6.33914443e-003, 1.58478611e-003, 0.,
          0., 0., 0., 1.58478611e-003, 1.58478611e-003, 0., 0., 0.,
          4.75435844e-003, 0., 1.58478611e-003, 0., 3.16957221e-003,
          1.58478611e-003, 3.16957221e-003, 3.16957221e-003, 0., 0., 0.,
          1.58478611e-003, 0., 0., 1.58478611e-003, 3.16957221e-003,
          3.16957221e-003, 0., 1.58478611e-003, 0., 3.16957221e-003,
          1.58478611e-003, 1.58478611e-003, 0., 0., 4.75435844e-003,
          9.50871687e-003, 0., 3.16957221e-003, 0., 0., 0., 0., 0., 0.,
          0., 0., 4.75435844e-003, 0., 1.58478611e-003, 0., 0., 0., 0.,
          1.26782889e-002, 0., 0., 1.58478611e-003, 0., 0., 0.,
          1.58478611e-003, 0., 1.58478611e-003, 0., 0., 0., 0.,
          3.16957221e-003, 4.75435844e-003, 4.75435844e-003,
          3.16957221e-003, 0., 1.58478611e-003, 0., 0., 0., 0.,
          1.58478611e-003, 1.58478611e-003, 0., 1.58478611e-003,
          1.58478611e-003, 3.16957221e-003, 3.16957221e-003,
          3.16957221e-003, 4.75435844e-003, 7.92393088e-003, 0.,
          4.75435844e-003, 0., 1.58478611e-003, 0., 1.58478611e-003,
          1.58478611e-003, 0., 3.16957221e-003, 3.16957221e-003,
          1.58478611e-003, 0., 0., 1.58478611e-003, 1.58478611e-003,
          1.58478611e-003, 1.58478611e-003, 0., 3.16957221e-003, 0.,
          3.16957221e-003, 0., 7.92393088e-003, 4.75435844e-003, 0., 0.,
          1.58478611e-003, 1.58478611e-003, 0., 0., 0., 0.,
          1.58478611e-003, 0., 0., 0., 0., 4.75435844e-003, 0.,
          1.58478611e-003, 0., 0., 0., 0., 3.16957221e-003, 0., 0.,
          1.58478611e-003, 3.16957221e-003, 1.58478611e-003, 0.,
          3.16957221e-003, 0., 0., 1.58478611e-003, 0., 0.,
          1.58478611e-003, 0., 0., 1.58478611e-003, 1.58478611e-003,
          3.16957221e-003, 0., 1.58478611e-003, 1.58478611e-003, 0.,
          1.58478611e-003, 0., 7.92393088e-003, 0., 0., 0., 0.,
          1.58478611e-003, 1.58478611e-003, 0., 0., 1.58478611e-003,
          4.75435844e-003, 0., 0., 0., 4.75435844e-003, 0., 0., 0., 0.,
          1.58478611e-003, 1.58478611e-003, 1.58478611e-003,
          1.58478611e-003, 4.75435844e-003, 4.75435844e-003, 0.,
          4.75435844e-003, 7.92393088e-003, 4.75435844e-003,
          1.10935029e-002, 1.58478611e-003, 4.75435844e-003, 0.,
          3.16957221e-003, 1.58478611e-003, 0., 0., 0., 1.26782889e-002,
          0., 1.58478611e-003, 0., 0., 1.58478611e-003, 0., 0., 0.,
          4.75435844e-003, 3.16957221e-003, 0., 3.16957221e-003, 0.,
          1.58478611e-003, 0., 0., 0., 3.16957221e-003, 3.16957221e-003,
          0., 0., 0., 1.58478611e-003, 1.10935029e-002, 0., 0.,
          1.58478611e-003, 0., 0., 0., 0., 0., 0., 0., 1.58478611e-003,
          3.16957221e-003, 0., 3.16957221e-003, 0., 1.58478611e-003, 0.,
          4.75435844e-003, 6.33914443e-003, 0., 0., 0., 0., 0., 0.,
          3.16957221e-003, 1.58478611e-003, 0., 6.33914443e-003,
          4.75435844e-003, 0., 0., 3.16957221e-003, 0., 3.16957221e-003,
          0., 1.58478611e-003, 0., 0., 0., 0., 1.58478611e-003, 0.,
          1.58478611e-003, 1.58478611e-003, 1.58478611e-003, 0.,
          4.75435844e-003, 0., 0., 0., 1.58478611e-003, 3.16957221e-003,
          1.58478611e-003, 4.75435844e-003, 4.75435844e-003,
          1.58478611e-003, 1.58478611e-003, 0., 3.16957221e-003,
          3.16957221e-003, 0., 0., 0., 1.58478611e-003, 0., 0.,
          6.33914443e-003, 0., 0., 1.26782889e-002, 3.16957221e-003,
          1.58478611e-003, 0., 4.75435844e-003, 6.33914443e-003, 0.,
          9.50871687e-003, 3.16957221e-003, 6.33914443e-003 ]
      - [ 0., 0., 1.08459871e-003, 2.16919743e-003, 0., 1.08459871e-003,
          1.08459871e-003, 0., 6.50759228e-003, 1.08459871e-003, 0.,
          2.16919743e-003, 0., 3.25379614e-003, 0., 3.25379614e-003, 0.,
          6.50759228e-003, 0., 0., 5.42299356e-003, 0., 3.25379614e-003,
          0., 0., 3.25379614e-003, 1.08459871e-003, 1.08459871e-003, 0.,
          3.25379614e-003, 1.08459871e-003, 1.08459871e-003, 0.,
          2.16919743e-003, 3.25379614e-003, 0., 0., 0., 2.16919743e-003,
          1.08459871e-003, 8.67678970e-003, 3.25379614e-003, 0., 0., 0.,
          1.08459871e-003, 0., 0., 2.16919743e-003, 0., 1.08459871e-003,
          0., 6.50759228e-003, 0., 6.50759228e-003, 0., 2.16919743e-003,
          0., 1.08459871e-003, 2.16919743e-003, 0., 0., 0.,
          1.08459871e-003, 0., 2.16919743e-003, 5.42299356e-003, 0.,
          4.33839485e-003, 0., 6.50759228e-003, 0., 0., 2.16919743e-003,
          0., 0., 1.08459871e-003, 3.25379614e-003, 0., 6.50759228e-003,
          0., 1.08459871e-003, 0., 5.42299356e-003, 4.33839485e-003, 0.,
          2.16919743e-003, 6.50759228e-003, 2.16919743e-003,
          2.16919743e-003, 1.08459871e-003, 0., 0., 1.08459871e-003,
          2.16919743e-003, 1.08459871e-003, 0., 1.08459871e-003,
          1.08459871e-003, 1.08459871e-003, 2.16919743e-003, 0.,
          1.08459871e-003, 0., 0., 2.16919743e-003, 4.33839485e-003, 0.,
          1.08459871e-003, 0., 0., 0., 0., 0., 1.08459871e-003, 0.,
          1.08459871e-003, 2.16919743e-003, 6.50759228e-003,
          1.08459871e-003, 1.08459871e-003, 2.16919743e-003,
          2.16919743e-003, 2.16919743e-003, 0., 0., 8.67678970e-003,
          4.33839485e-003, 1.08459871e-003, 0., 4.33839485e-003, 0.,
          1.08459871e-003, 5.42299356e-003, 1.08459871e-003,
          3.25379614e-003, 1.08459871e-003, 2.16919743e-003,
          1.08459871e-003, 2.16919743e-003, 1.08459871e-003,
          2.16919743e-003, 3.25379614e-003, 1.08459871e-003,
          2.16919743e-003, 2.16919743e-003, 0., 1.08459871e-003,
          1.08459871e-003, 0., 4.33839485e-003, 5.42299356e-003, 0., 0.,
          1.08459871e-003, 0., 0., 4.33839485e-003, 0., 2.16919743e-003,
          2.16919743e-003, 2.16919743e-003, 3.25379614e-003, 0., 0., 0.,
          4.33839485e-003, 0., 0., 0., 1.08459871e-003, 0., 0.,
          2.16919743e-003, 2.16919743e-003, 4.33839485e-003,
          8.67678970e-003, 1.08459871e-003, 1.08459871e-003,
          1.08459871e-003, 2.16919743e-003, 3.25379614e-003,
          5.42299356e-003, 6.50759228e-003, 7.59219099e-003,
          2.16919743e-003, 0., 1.08459871e-003, 2.16919743e-003, 0., 0.,
          5.42299356e-003, 0., 1.08459871e-003, 1.30151846e-002,
          2.16919743e-003, 7.59219099e-003, 3.25379614e-003,
          1.08459871e-003, 1.08459871e-003, 0., 0., 0., 1.08459871e-003,
          1.08459871e-003, 1.08459871e-003, 0., 1.08459871e-003,
          2.16919743e-003, 1.08459871e-003, 0., 3.25379614e-003, 0., 0.,
          1.08459871e-003, 1.08459871e-003, 0., 0., 4.33839485e-003,
          1.08459871e-003, 1.08459871e-003, 6.50759228e-003,
          2.71149687e-002, 2.16919743e-003, 1.08459871e-003,
          5.42299356e-003, 3.25379614e-003, 0., 1.08459871e-003, 0., 0.,
          1.08459871e-003, 1.08459871e-003, 2.16919743e-003, 0., 0., 0.,
          1.08459871e-003, 2.16919743e-003, 4.33839485e-003, 0.,
          2.16919743e-003, 1.08459871e-003, 3.25379614e-003, 0., 0.,
          4.33839485e-003, 1.08459871e-003, 2.16919743e-003,
          1.08459871e-003, 0., 0., 2.16919743e-003, 4.33839485e-003,
          5.42299356e-003, 0., 2.16919743e-003, 2.16919743e-003, 0., 0.,
          3.25379614e-003, 4.33839485e-003, 0., 1.08459871e-003,
          3.25379614e-003, 1.08459871e-003, 0., 0., 0., 1.08459871e-003,
          3.25379614e-003, 2.16919743e-003, 3.25379614e-003,
          1.08459871e-003, 0., 0., 3.25379614e-003, 1.08459871e-003,
          4.33839485e-003, 0., 0., 0., 2.16919743e-003, 2.16919743e-003,
          4.33839485e-003, 1.62689798e-002, 0., 2.16919743e-003,
          1.08459871e-003, 0., 0., 0., 3.25379614e-003, 0., 0., 0.,
          2.16919743e-003, 0., 0., 0., 1.08459871e-003, 0.,
          2.16919743e-003, 1.08459871e-003, 1.08459871e-003,
          1.08459871e-003, 2.16919743e-003, 1.08459871e-003,
          2.16919743e-003, 1.08459871e-003, 3.25379614e-003,
          1.08459871e-003, 0., 0., 2.16919743e-003, 1.08459871e-003,
          5.42299356e-003, 0., 0., 0., 7.59219099e-003, 0.,
          5.42299356e-003, 2.16919743e-003, 0., 1.08459871e-003,
          3.25379614e-003, 0., 1.08459871e-003, 3.25379614e-003, 0.,
          4.33839485e-003, 2.16919743e-003, 1.08459871e-003,
          3.25379614e-003, 0., 0., 0., 0., 4.33839485e-003,
          7.59219099e-003, 0., 0., 0., 5.42299356e-003, 1.08459871e-003,
          0., 6.50759228e-003, 0., 1.08459871e-003, 1.08459871e-003, 0.,
          0., 1.08459871e-003, 1.08459871e-003, 6.50759228e-003, 0.,
          1.08459871e-003, 1.08459871e-003, 0., 0., 0., 0.,
          1.08459871e-003, 0., 0., 0., 0., 0., 2.16919743e-003,
          1.08459871e-003, 2.16919743e-003, 1.08459871e-003, 0.,
          3.25379614e-003, 0., 4.33839485e-003, 4.33839485e-003, 0.,
          3.25379614e-003, 4.33839485e-003, 1.08459871e-003,
          1.08459871e-003, 1.08459871e-003, 0., 1.08459871e-003,
          4.33839485e-003, 4.33839485e-003, 0., 0., 1.08459871e-003, 0.,
          0., 0., 1.08459871e-003, 7.59219099e-003, 2.16919743e-003,
          2.16919743e-003, 2.16919743e-003, 1.08459871e-003, 0., 0.,
          3.25379614e-003, 2.16919743e-003, 0., 0., 2.16919743e-003, 0.,
          3.25379614e-003, 0., 0., 4.33839485e-003, 0., 0.,
          4.33839485e-003, 0., 1.08459871e-003, 0., 0., 0.,
          2.16919743e-003, 1.08459871e-003, 0., 4.33839485e-003,
          6.50759228e-003, 3.25379614e-003, 0., 2.16919743e-003, 0., 0.,
          1.08459871e-003, 0., 0., 4.33839485e-003, 0., 2.16919743e-003,
          4.33839485e-003, 0., 1.08459871e-003, 5.42299356e-003, 0., 0.,
          5.42299356e-003, 2.16919743e-003, 1.08459871e-003, 0.,
          2.16919743e-002, 3.25379614e-003, 2.16919743e-003, 0., 0., 0.,
          3.25379614e-003, 0., 1.08459871e-003, 1.08459871e-003, 0.,
          3.25379614e-003, 0., 0., 0., 0., 2.16919743e-003, 0., 0.,
          5.42299356e-003, 4.33839485e-003, 0., 0., 0., 0.,
          1.08459871e-003, 0., 1.08459871e-003, 7.59219099e-003, 0.,
          3.25379614e-003, 0., 1.08459871e-003, 0., 1.08459871e-003,
          3.25379614e-003, 0., 0., 0., 0., 5.42299356e-003, 0., 0.,
          1.08459871e-003, 4.33839485e-003, 0., 1.08459871e-003, 0.,
          3.25379614e-003, 0., 1.40997833e-002, 0., 0., 0.,
          1.08459871e-002, 5.42299356e-003, 1.08459871e-003, 0.,
          4.33839485e-003, 2.16919743e-003, 1.08459871e-003, 0., 0., 0.,
          2.16919743e-003, 2.16919743e-003, 0., 0., 1.08459871e-003, 0.,
          1.08459871e-003, 0., 3.25379614e-003, 2.16919743e-003,
          1.08459871e-003, 1.08459871e-003, 0., 0., 0., 1.08459871e-003,
          2.38611717e-002, 0., 0., 2.16919743e-003, 1.08459871e-003,
          4.33839485e-003, 2.16919743e-003, 2.16919743e-003,
          2.16919743e-003, 0., 0., 3.25379614e-003, 0., 0.,
          2.16919743e-003, 2.16919743e-003, 1.08459871e-003,
          1.08459871e-003, 0., 0., 3.25379614e-003, 0., 2.16919743e-003,
          0., 0., 0., 4.33839485e-003, 0., 0., 1.08459871e-003, 0., 0.,
          0., 0., 2.16919743e-003, 1.08459871e-003, 1.08459871e-003, 0.,
          0., 0., 0., 2.16919743e-003, 4.33839485e-003, 0., 0., 0., 0.,
          3.25379614e-003, 1.08459871e-003, 1.08459871e-003, 0.,
          4.33839485e-003, 1.08459871e-003, 3.25379614e-003,
          2.16919743e-003, 3.25379614e-003, 0., 0., 0., 3.25379614e-003,
          1.08459871e-003, 1.08459871e-003, 0., 3.25379614e-003,
          2.16919743e-003, 0., 1.08459871e-003, 1.08459871e-003,
          1.08459871e-003, 2.16919743e-003, 0., 3.25379614e-003,
          2.16919743e-003, 2.16919743e-003 ]
      - [ 1.24688284e-003, 0., 0., 0., 0., 2.49376567e-003,
          1.24688284e-003, 0., 1.24688284e-003, 1.24688284e-003,
          1.24688284e-003, 0., 0., 0., 0., 0., 1.24688284e-003,
          1.37157114e-002, 0., 4.98753134e-003, 0., 0., 1.37157114e-002,
          0., 1.24688284e-003, 0., 0., 0., 2.49376567e-003,
          1.24688284e-003, 1.24688279e-002, 1.37157114e-002,
          1.24688284e-003, 0., 0., 0., 0., 0., 0., 1.24688284e-003, 0.,
          2.11970080e-002, 0., 0., 1.24688284e-003, 1.24688284e-003, 0.,
          0., 0., 3.74064851e-003, 0., 0., 0., 0., 7.48129701e-003, 0.,
          4.98753134e-003, 0., 1.24688284e-003, 0., 1.24688284e-003, 0.,
          0., 4.98753134e-003, 3.74064851e-003, 1.24688284e-003,
          1.24688284e-003, 2.49376567e-003, 0., 0., 0., 0.,
          1.24688284e-003, 0., 0., 1.24688284e-003, 0., 0.,
          2.49376567e-003, 1.24688284e-003, 0., 0., 1.24688284e-003, 0.,
          0., 0., 1.24688284e-003, 2.49376567e-003, 2.49376567e-003,
          1.24688284e-003, 2.49376567e-003, 0., 0., 1.24688284e-003,
          1.24688284e-003, 0., 0., 1.24688284e-003, 2.49376567e-003, 0.,
          0., 0., 3.74064851e-003, 6.23441394e-003, 2.49376567e-003,
          8.72818008e-003, 3.74064851e-003, 0., 0., 1.24688284e-003, 0.,
          0., 0., 0., 0., 0., 1.24688284e-003, 6.23441394e-003, 0., 0.,
          1.24688284e-003, 1.24688284e-003, 4.98753134e-003,
          3.74064851e-003, 0., 2.49376567e-003, 0., 0., 0.,
          1.24688284e-003, 0., 2.49376567e-003, 0., 3.74064851e-003,
          2.49376567e-003, 0., 2.99251880e-002, 1.24688284e-003, 0., 0.,
          2.49376567e-003, 1.87032428e-002, 0., 0., 4.98753134e-003, 0.,
          0., 1.24688284e-003, 1.24688284e-003, 0., 0., 3.74064851e-003,
          2.49376567e-003, 1.24688284e-003, 0., 1.24688284e-003,
          1.24688284e-003, 0., 3.74064851e-003, 1.24688284e-003, 0.,
          9.97506268e-003, 0., 0., 1.24688284e-003, 0., 1.12219453e-002,
          1.12219453e-002, 2.49376567e-003, 0., 2.49376567e-003,
          2.49376567e-003, 1.24688284e-003, 1.12219453e-002, 0.,
          4.98753134e-003, 1.24688284e-003, 0., 0., 2.49376567e-003, 0.,
          2.49376567e-003, 0., 6.23441394e-003, 2.49376567e-003, 0.,
          4.98753134e-003, 0., 1.24688284e-003, 1.24688284e-003,
          1.24688284e-003, 0., 2.49376567e-003, 0., 0., 1.24688284e-003,
          0., 1.12219453e-002, 0., 1.24688279e-002, 0., 3.74064851e-003,
          2.49376567e-003, 2.49376567e-003, 1.24688284e-003,
          3.74064851e-003, 1.24688284e-003, 0., 1.24688284e-003,
          2.49376567e-003, 0., 0., 1.24688284e-003, 0., 0., 0., 0., 0.,
          0., 0., 0., 0., 0., 0., 1.24688284e-003, 0., 0., 0., 0.,
          2.49376567e-003, 0., 4.98753134e-003, 2.49376567e-003, 0.,
          2.49376567e-003, 0., 0., 0., 2.49376567e-003, 1.24688284e-003,
          0., 0., 7.48129701e-003, 2.49376567e-003, 1.24688284e-003, 0.,
          7.48129701e-003, 1.24688284e-003, 7.48129701e-003,
          1.24688284e-003, 0., 1.24688284e-003, 0., 2.49376567e-003, 0.,
          0., 1.37157114e-002, 9.97506268e-003, 0., 0., 0., 0., 0.,
          2.49376567e-003, 0., 1.24688284e-003, 4.98753134e-003,
          2.49376567e-003, 0., 0., 0., 4.98753134e-003, 2.49376567e-003,
          0., 1.24688284e-003, 0., 6.23441394e-003, 2.49376567e-003,
          3.74064851e-003, 1.24688284e-003, 1.24688284e-003, 0.,
          1.12219453e-002, 0., 1.24688284e-003, 1.24688284e-003, 0.,
          2.49376567e-003, 1.24688284e-003, 0., 2.49376567e-003, 0., 0.,
          0., 0., 3.74064851e-003, 1.24688284e-003, 0., 4.98753134e-003,
          0., 0., 0., 9.97506268e-003, 0., 4.98753134e-003, 0.,
          1.24688284e-003, 0., 0., 0., 2.49376567e-003, 3.74064851e-003,
          2.49376567e-003, 0., 3.74064851e-003, 0., 3.74064851e-003, 0.,
          1.24688284e-003, 0., 1.24688284e-003, 3.74064851e-003, 0.,
          2.49376567e-003, 0., 0., 0., 0., 1.24688284e-003,
          3.74064851e-003, 1.12219453e-002, 1.24688284e-003,
          1.24688284e-003, 0., 0., 0., 0., 0., 0., 0., 3.74064851e-003,
          2.49376567e-003, 0., 0., 0., 0., 0., 0., 1.24688284e-003,
          1.24688284e-003, 0., 0., 0., 1.24688284e-003, 0.,
          1.24688284e-003, 0., 0., 0., 1.24688284e-003, 1.24688284e-003,
          0., 0., 2.49376567e-003, 0., 1.24688284e-003, 3.74064851e-003,
          0., 3.74064851e-003, 3.74064851e-003, 0., 3.74064851e-003, 0.,
          6.23441394e-003, 3.74064851e-003, 0., 1.24688284e-003, 0., 0.,
          0., 6.23441394e-003, 1.24688284e-003, 0., 3.74064851e-003,
          2.49376567e-003, 2.49376567e-003, 0., 0., 1.24688284e-003,
          2.49376567e-003, 0., 6.23441394e-003, 0., 1.24688284e-003, 0.,
          0., 0., 0., 4.98753134e-003, 1.24688284e-003, 0., 0.,
          1.24688284e-003, 0., 2.49376567e-003, 3.74064851e-003,
          1.24688284e-003, 0., 0., 3.74064851e-003, 1.24688284e-003, 0.,
          0., 0., 1.24688284e-003, 0., 0., 0., 3.74064851e-003, 0.,
          1.24688284e-003, 2.49376567e-003, 0., 2.49376567e-003, 0.,
          3.74064851e-003, 3.74064851e-003, 0., 0., 0., 0.,
          8.72818008e-003, 1.24688284e-003, 1.37157114e-002,
          1.24688284e-003, 1.24688284e-003, 0., 6.23441394e-003,
          1.24688284e-003, 2.49376567e-003, 0., 0., 0., 2.49376567e-003,
          0., 0., 0., 1.24688284e-003, 0., 0., 0., 0., 3.74064851e-003,
          0., 0., 1.24688284e-003, 0., 1.24688284e-003, 1.24688284e-003,
          0., 2.49376567e-003, 0., 0., 0., 0., 4.98753134e-003,
          2.49376567e-003, 7.48129701e-003, 1.24688284e-003, 0.,
          1.24688284e-003, 0., 1.24688284e-003, 4.98753134e-003, 0., 0.,
          0., 1.24688284e-003, 2.49376567e-003, 1.24688284e-003,
          4.98753134e-003, 0., 0., 2.49376567e-003, 0., 6.23441394e-003,
          3.74064851e-003, 0., 3.74064851e-003, 1.24688284e-003,
          8.72818008e-003, 0., 1.24688284e-003, 2.49376567e-003,
          1.24688284e-003, 2.49376567e-003, 0., 0., 1.24688284e-003, 0.,
          3.74064851e-003, 1.24688284e-003, 0., 1.24688284e-003, 0.,
          1.24688284e-003, 0., 6.23441394e-003, 0., 2.49376567e-003, 0.,
          7.48129701e-003, 0., 1.24688284e-003, 8.72818008e-003, 0.,
          1.24688284e-003, 0., 2.49376567e-003, 0., 2.49376567e-003, 0.,
          2.49376567e-003, 1.24688284e-003, 2.49376567e-003, 0., 0.,
          2.49376567e-003, 0., 3.74064851e-003, 4.98753134e-003, 0., 0.,
          6.23441394e-003, 1.24688284e-003, 0., 0., 0., 0.,
          2.49376567e-003, 0., 6.23441394e-003, 3.74064851e-003, 0., 0.,
          0., 3.74064851e-003, 0., 2.49376567e-003, 0., 0.,
          2.49376567e-003, 0., 0., 2.49376567e-003, 1.24688284e-003, 0.,
          0., 0., 0., 1.24688284e-003, 0., 0., 3.74064851e-003, 0.,
          2.49376567e-003, 0., 3.74064851e-003, 0., 0., 1.24688284e-003,
          3.74064851e-003, 0., 0., 1.24688284e-003, 2.49376567e-003, 0.,
          2.49376567e-003, 7.48129701e-003, 0., 2.49376567e-003, 0.,
          2.49376567e-003, 1.24688284e-003, 0., 0., 1.24688284e-003,
          1.24688284e-003, 0., 3.74064851e-003, 8.72818008e-003, 0., 0.,
          1.24688284e-003, 1.24688284e-003, 0., 1.24688284e-003,
          6.23441394e-003, 2.49376567e-003, 2.49376567e-003 ]
      - [ 0., 0., 0., 4.06504050e-003, 0., 1.62601622e-003,
          1.62601622e-003, 8.13008111e-004, 0., 1.62601622e-003,
          8.13008111e-004, 8.13008111e-004, 8.13008111e-004,
          8.13008111e-004, 0., 0., 1.62601622e-003, 8.13008111e-004, 0.,
          1.62601622e-003, 7.31707318e-003, 4.06504050e-003,
          4.87804879e-003, 0., 5.69105661e-003, 0., 8.13008111e-004, 0.,
          2.43902439e-003, 5.69105661e-003, 1.62601622e-003,
          4.87804879e-003, 8.13008111e-004, 1.62601622e-003,
          1.62601622e-003, 1.62601622e-003, 0., 1.62601622e-003, 0.,
          4.87804879e-003, 8.13008111e-004, 0., 0., 8.13008111e-004,
          8.13008111e-004, 8.13008111e-004, 4.06504050e-003, 0.,
          1.62601622e-003, 8.13008111e-004, 0., 8.13008100e-003,
          1.78861786e-002, 4.06504050e-003, 0., 2.43902439e-003,
          8.13008111e-004, 4.06504050e-003, 0., 8.13008111e-004,
          1.62601622e-003, 0., 0., 8.13008111e-004, 8.13008111e-004,
          2.43902439e-003, 5.69105661e-003, 1.62601622e-003,
          3.25203245e-003, 0., 8.13008111e-004, 0., 8.13008111e-004,
          1.62601622e-003, 1.62601622e-003, 4.87804879e-003, 0., 0.,
          4.06504050e-003, 0., 0., 7.31707318e-003, 0., 8.13008111e-004,
          0., 0., 1.62601622e-003, 0., 1.62601622e-003, 4.06504050e-003,
          3.25203245e-003, 0., 0., 2.43902439e-003, 1.62601622e-003,
          3.25203245e-003, 8.13008111e-004, 2.43902439e-003, 0., 0.,
          4.06504050e-003, 0., 8.13008111e-004, 8.13008111e-004, 0.,
          9.75609757e-003, 9.75609757e-003, 0., 3.25203245e-003, 0.,
          1.62601622e-003, 0., 0., 1.62601622e-003, 0., 0.,
          2.43902439e-003, 1.62601622e-003, 4.06504050e-003, 0.,
          5.69105661e-003, 0., 8.13008111e-004, 0., 3.25203245e-003,
          2.43902439e-003, 0., 8.13008111e-004, 8.13008111e-004,
          8.13008111e-004, 0., 6.50406489e-003, 0., 4.87804879e-003, 0.,
          3.25203245e-003, 8.13008111e-004, 1.62601622e-003,
          1.62601622e-003, 8.13008111e-004, 3.25203245e-003,
          2.43902439e-003, 4.06504050e-003, 0., 8.13008111e-004,
          4.87804879e-003, 0., 4.87804879e-003, 2.43902439e-003, 0.,
          1.62601622e-003, 3.25203245e-003, 8.13008111e-004,
          2.43902439e-003, 7.31707318e-003, 0., 5.69105661e-003, 0.,
          4.87804879e-003, 8.13008111e-004, 0., 1.62601622e-003,
          8.13008111e-004, 0., 8.13008111e-004, 0., 2.43902439e-003,
          1.62601622e-003, 0., 8.13008111e-004, 8.13008111e-004,
          1.62601622e-003, 0., 4.06504050e-003, 8.13008111e-004,
          8.13008111e-004, 8.13008111e-004, 1.62601622e-003,
          1.62601622e-003, 0., 0., 8.13008111e-004, 0., 0.,
          4.87804879e-003, 8.13008111e-004, 8.13008111e-004, 0., 0., 0.,
          2.43902439e-003, 8.13008111e-004, 4.87804879e-003,
          2.43902439e-003, 0., 0., 2.43902439e-003, 0., 3.25203245e-003,
          4.06504050e-003, 5.69105661e-003, 8.13008111e-004,
          2.43902439e-003, 8.13008111e-004, 2.43902439e-003,
          8.13008111e-004, 8.13008111e-004, 0., 1.62601622e-003,
          3.25203245e-003, 0., 0., 0., 1.62601622e-003, 0.,
          8.13008111e-004, 0., 0., 4.87804879e-003, 0., 8.13008111e-004,
          0., 0., 0., 0., 8.13008111e-004, 1.62601622e-003,
          3.25203245e-003, 0., 0., 4.06504050e-003, 2.43902439e-003,
          8.13008111e-004, 8.13008111e-004, 0., 0., 0., 1.62601622e-003,
          4.06504050e-003, 1.62601622e-003, 8.13008111e-004,
          5.69105661e-003, 2.43902439e-003, 2.43902439e-003,
          8.13008111e-004, 0., 0., 8.13008111e-004, 1.62601622e-003,
          5.69105661e-003, 9.75609757e-003, 0., 1.62601622e-003, 0., 0.,
          0., 7.31707318e-003, 4.06504050e-003, 0., 8.13008111e-004,
          3.25203245e-003, 0., 0., 8.94308928e-003, 0., 4.06504050e-003,
          5.69105661e-003, 6.50406489e-003, 0., 4.06504050e-003,
          8.13008111e-004, 8.13008111e-004, 0., 0., 8.13008111e-004, 0.,
          0., 4.06504050e-003, 2.43902439e-003, 0., 0., 4.06504050e-003,
          2.43902439e-003, 0., 0., 0., 8.13008111e-004, 0., 0.,
          1.62601622e-003, 1.62601622e-003, 2.43902439e-003,
          8.13008100e-003, 8.13008111e-004, 0., 1.62601622e-003, 0., 0.,
          2.43902439e-003, 5.69105661e-003, 0., 3.25203245e-003,
          1.62601622e-003, 0., 4.06504050e-003, 3.25203245e-003,
          1.62601622e-003, 0., 0., 2.43902439e-003, 4.06504050e-003,
          8.13008111e-004, 1.62601622e-003, 0., 0., 8.13008111e-004,
          5.69105661e-003, 0., 4.06504050e-003, 0., 4.87804879e-003,
          3.25203245e-003, 0., 1.62601622e-003, 0., 0., 0.,
          8.13008111e-004, 0., 7.31707318e-003, 8.13008111e-004, 0., 0.,
          0., 0., 0., 1.62601622e-003, 0., 0., 8.13008111e-004,
          5.69105661e-003, 0., 0., 0., 0., 0., 0., 4.06504050e-003,
          1.62601622e-003, 0., 0., 1.62601622e-003, 0., 8.13008111e-004,
          2.43902439e-003, 1.62601620e-002, 0., 0., 7.31707318e-003,
          1.62601622e-003, 8.13008111e-004, 8.13008111e-004,
          8.13008111e-004, 4.87804879e-003, 2.43902439e-003, 0.,
          4.06504050e-003, 0., 8.13008111e-004, 8.13008111e-004,
          2.43902439e-003, 1.62601622e-003, 0., 3.25203245e-003,
          4.87804879e-003, 3.25203245e-003, 0., 4.87804879e-003,
          3.25203245e-003, 0., 5.69105661e-003, 3.25203245e-003,
          1.62601622e-003, 8.13008111e-004, 0., 0., 0., 2.43902439e-003,
          0., 8.13008111e-004, 1.62601622e-003, 1.62601622e-003, 0.,
          2.43902439e-003, 4.87804879e-003, 1.62601622e-003, 0., 0., 0.,
          2.43902439e-003, 0., 0., 2.43902439e-003, 7.31707318e-003,
          2.43902439e-003, 8.13008111e-004, 0., 0., 1.62601622e-003,
          1.62601622e-003, 0., 8.13008111e-004, 0., 4.06504050e-003,
          3.25203245e-003, 1.62601622e-003, 8.13008111e-004,
          6.50406489e-003, 4.87804879e-003, 0., 4.06504050e-003, 0., 0.,
          1.62601622e-003, 0., 0., 3.25203245e-003, 0., 2.43902439e-003,
          0., 5.69105661e-003, 1.62601622e-003, 1.62601622e-003,
          1.62601622e-003, 1.62601622e-003, 4.06504050e-003, 0.,
          4.87804879e-003, 0., 0., 0., 0., 0., 4.87804879e-003,
          8.13008111e-004, 0., 1.21951215e-002, 4.87804879e-003,
          1.62601622e-003, 0., 0., 0., 3.25203245e-003, 0.,
          8.13008111e-004, 8.13008111e-004, 0., 8.13008111e-004,
          1.62601622e-003, 1.62601622e-003, 4.87804879e-003, 0.,
          8.13008111e-004, 8.13008111e-004, 0., 0., 8.13008111e-004,
          4.06504050e-003, 0., 0., 8.13008111e-004, 8.13008111e-004,
          2.43902439e-003, 0., 3.25203245e-003, 8.13008111e-004, 0.,
          8.13008111e-004, 8.13008111e-004, 4.87804879e-003, 0.,
          8.13008111e-004, 1.62601622e-003, 5.69105661e-003,
          2.43902439e-003, 8.13008111e-004, 8.13008111e-004,
          8.13008111e-004, 8.13008111e-004, 8.13008111e-004, 0., 0., 0.,
          0., 5.69105661e-003, 2.43902439e-003, 6.50406489e-003,
          1.62601622e-003, 1.62601622e-003, 0., 8.13008100e-003,
          2.43902439e-003, 2.43902439e-003, 1.62601622e-003,
          8.13008111e-004, 0., 0., 3.25203245e-003, 0., 2.43902439e-003,
          0., 2.43902439e-003, 1.62601622e-003, 8.13008111e-004,
          4.06504050e-003, 0., 0., 0., 0., 0., 2.43902439e-003,
          8.13008111e-004, 2.43902439e-003, 0., 8.13008111e-004, 0.,
          5.69105661e-003, 0., 4.06504050e-003, 4.06504050e-003,
          8.13008111e-004, 8.13008111e-004, 2.43902439e-003, 0., 0., 0.,
          8.13008111e-004, 0., 0., 4.06504050e-003, 3.25203245e-003, 0.,
          0., 8.13008111e-004, 4.06504050e-003, 8.13008111e-004,
          2.43902439e-003, 0., 0., 8.13008111e-004, 0., 2.43902439e-003,
          0., 0., 4.06504050e-003, 8.13008111e-004, 0., 3.25203245e-003,
          0., 0., 0., 1.62601622e-003, 0., 6.50406489e-003,
          3.25203245e-003, 8.13008111e-004, 1.62601622e-003,
          3.25203245e-003, 0., 0., 4.06504050e-003, 8.94308928e-003, 0.,
          2.43902439e-003, 8.13008111e-004, 1.62601622e-003, 0., 0.,
          2.43902439e-003, 8.13008111e-004, 4.06504050e-003, 0.,
          8.13008111e-004, 5.69105661e-003, 0., 0., 5.69105661e-003,
          8.13008111e-004, 4.87804879e-003, 0., 0., 8.13008111e-004,
          1.62601622e-003, 3.25203245e-003, 3.25203245e-003,
          1.62601622e-003, 0., 1.62601622e-003, 5.69105661e-003,
          2.43902439e-003 ]
      - [ 1.61030598e-003, 0., 0., 1.61030598e-003, 0., 0., 0., 0., 0.,
          0., 0., 4.83091781e-003, 0., 0., 0., 4.83091781e-003, 0.,
          1.61030598e-003, 0., 0., 1.61030598e-003, 1.61030598e-003,
          1.77133661e-002, 0., 4.83091781e-003, 3.22061195e-003,
          6.44122390e-003, 3.22061195e-003, 0., 0., 1.77133661e-002,
          1.61030598e-003, 0., 0., 3.22061195e-003, 0., 0., 0., 0., 0.,
          0., 9.66183562e-003, 0., 3.22061195e-003, 0., 4.83091781e-003,
          0., 1.61030598e-003, 8.05152953e-003, 0., 0., 0.,
          1.61030598e-003, 0., 3.22061195e-003, 1.61030598e-003, 0.,
          1.61030598e-003, 0., 0., 0., 0., 0., 1.61030598e-003,
          1.61030598e-003, 3.22061195e-003, 1.61030598e-003, 0.,
          1.61030598e-003, 1.61030598e-003, 0., 0., 3.22061195e-003, 0.,
          4.83091781e-003, 1.61030598e-003, 1.61030598e-003,
          1.61030598e-003, 1.61030598e-003, 1.61030598e-003,
          3.22061195e-003, 0., 0., 0., 3.22061195e-003, 0., 0.,
          1.61030598e-003, 0., 1.61030598e-003, 1.61030598e-003, 0., 0.,
          0., 3.22061195e-003, 0., 0., 0., 1.61030598e-003, 0.,
          1.61030598e-003, 1.61030598e-003, 1.61030598e-003,
          1.61030598e-003, 1.61030598e-003, 0., 1.61030598e-003, 0.,
          1.61030598e-003, 0., 0., 0., 0., 0., 6.44122390e-003,
          1.61030598e-003, 0., 1.61030598e-003, 0., 4.83091781e-003, 0.,
          0., 0., 1.61030598e-003, 3.22061195e-003, 4.83091781e-003,
          1.61030598e-003, 3.22061195e-003, 0., 0., 0., 0.,
          8.05152953e-003, 9.66183562e-003, 0., 0., 1.61030591e-002,
          1.61030598e-003, 0., 0., 0., 2.09339783e-002, 0., 0., 0., 0.,
          0., 0., 0., 0., 0., 3.22061195e-003, 1.61030598e-003, 0.,
          3.22061195e-003, 4.83091781e-003, 1.61030598e-003, 0.,
          1.61030598e-003, 0., 0., 3.22061195e-003, 0., 0., 0., 0.,
          1.61030598e-003, 0., 0., 0., 8.05152953e-003, 0., 0., 0.,
          3.22061195e-003, 0., 0., 0., 0., 4.83091781e-003, 0.,
          4.83091781e-003, 4.83091781e-003, 1.93236712e-002, 0., 0.,
          1.61030598e-003, 4.83091781e-003, 8.05152953e-003, 0., 0., 0.,
          1.61030598e-003, 0., 0., 3.22061195e-003, 1.61030598e-003,
          3.22061195e-003, 0., 6.44122390e-003, 1.61030598e-003, 0.,
          4.83091781e-003, 1.61030598e-003, 1.61030598e-003, 0.,
          1.61030598e-003, 0., 3.22061195e-003, 3.22061195e-003, 0.,
          1.61030598e-003, 0., 0., 0., 0., 0., 0., 0., 0.,
          1.61030598e-003, 1.61030598e-003, 0., 1.61030598e-003,
          1.61030598e-003, 0., 0., 0., 9.66183562e-003, 0., 0., 0.,
          1.61030598e-003, 0., 0., 0., 0., 0., 0., 1.61030598e-003,
          1.61030598e-003, 1.61030598e-003, 0., 0., 0., 0.,
          3.22061181e-002, 0., 3.22061195e-003, 0., 3.22061195e-003,
          1.61030598e-003, 1.61030598e-003, 0., 1.61030598e-003, 0.,
          2.89855078e-002, 0., 0., 1.61030598e-003, 0., 1.61030598e-003,
          0., 1.61030598e-003, 0., 0., 0., 0., 3.22061195e-003, 0., 0.,
          1.93236712e-002, 1.61030598e-003, 1.61030598e-003,
          1.61030598e-003, 0., 1.61030598e-003, 0., 0., 1.61030598e-003,
          0., 0., 3.22061195e-003, 0., 1.61030598e-003, 0.,
          1.61030598e-003, 0., 0., 0., 0., 1.61030598e-003, 0., 0.,
          3.22061195e-003, 0., 0., 0., 3.22061195e-003, 1.61030598e-003,
          0., 1.61030598e-003, 3.22061195e-003, 3.22061195e-003,
          1.61030598e-003, 0., 4.83091781e-003, 0., 0., 0., 0.,
          9.66183562e-003, 0., 0., 1.61030598e-003, 4.83091781e-003,
          1.44927539e-002, 0., 0., 0., 4.83091781e-003, 0.,
          3.22061195e-003, 0., 8.05152953e-003, 0., 0., 0.,
          3.22061195e-003, 1.61030598e-003, 0., 0., 1.61030598e-003, 0.,
          0., 0., 0., 0., 0., 0., 0., 1.61030598e-003, 0., 0., 0., 0.,
          0., 0., 1.61030598e-003, 1.61030598e-003, 0., 8.05152953e-003,
          0., 0., 3.22061195e-003, 6.44122390e-003, 0., 0.,
          1.61030598e-003, 1.61030598e-003, 4.83091781e-003, 0., 0., 0.,
          0., 0., 1.61030598e-003, 6.44122390e-003, 1.61030598e-003, 0.,
          8.05152953e-003, 1.61030598e-003, 0., 0., 0., 1.61030598e-003,
          3.22061195e-003, 1.61030598e-003, 1.61030598e-003, 0., 0.,
          1.61030598e-003, 0., 0., 0., 0., 0., 0., 0., 3.22061195e-003,
          3.22061195e-003, 0., 1.61030598e-003, 0., 0., 1.61030598e-003,
          0., 0., 6.44122390e-003, 0., 0., 0., 1.61030598e-003,
          3.22061195e-003, 1.61030598e-003, 0., 0., 0., 1.61030598e-003,
          1.61030598e-003, 3.22061195e-003, 0., 0., 1.61030598e-003,
          4.83091781e-003, 0., 6.44122390e-003, 3.22061195e-003, 0., 0.,
          0., 1.61030598e-003, 0., 0., 0., 0., 0., 6.44122390e-003, 0.,
          0., 0., 1.61030598e-003, 0., 1.61030598e-003, 0.,
          1.61030598e-003, 0., 0., 0., 0., 0., 0., 0., 0., 0., 0.,
          3.22061195e-003, 0., 0., 0., 0., 0., 0., 0., 1.61030598e-003,
          4.83091781e-003, 0., 8.05152953e-003, 0., 3.22061195e-003, 0.,
          0., 0., 0., 0., 8.05152953e-003, 8.05152953e-003,
          9.66183562e-003, 4.83091781e-003, 4.83091781e-003,
          4.83091781e-003, 3.22061195e-003, 3.22061195e-003,
          1.61030598e-003, 1.61030598e-003, 0., 4.83091781e-003, 0.,
          3.22061195e-003, 0., 1.61030591e-002, 0., 0., 3.22061195e-003,
          0., 4.83091781e-003, 1.12721417e-002, 0., 0., 1.61030598e-003,
          0., 0., 0., 1.61030598e-003, 6.44122390e-003, 0.,
          1.61030598e-003, 0., 0., 0., 3.22061195e-003, 0., 0., 0.,
          3.22061195e-003, 0., 1.61030598e-003, 0., 0., 0.,
          4.83091781e-003, 1.12721417e-002, 1.61030598e-003,
          1.61030598e-003, 0., 0., 0., 0., 0., 3.22061195e-003, 0., 0.,
          1.61030598e-003, 0., 1.61030598e-003, 0., 8.05152953e-003,
          3.22061195e-003, 0., 0., 1.12721417e-002, 3.22061195e-003,
          1.61030598e-003, 9.66183562e-003, 1.61030598e-003,
          1.61030598e-003, 0., 0., 3.22061195e-003, 0., 1.61030598e-003,
          1.61030598e-003, 8.05152953e-003, 0., 1.61030598e-003,
          3.22061195e-003, 3.22061195e-003, 0., 6.44122390e-003,
          1.61030598e-003, 0., 0., 1.61030598e-003, 0., 1.61030598e-003,
          0., 0., 0., 8.05152953e-003, 0., 3.22061195e-003, 0., 0., 0.,
          0., 1.61030598e-003, 0., 0., 0., 0., 0., 0., 0., 0., 0.,
          1.61030598e-003, 0., 1.61030598e-003, 0., 1.61030598e-003, 0.,
          3.22061195e-003, 3.22061195e-003, 0., 1.61030598e-003,
          1.61030598e-003, 1.61030598e-003, 3.22061195e-003,
          1.61030598e-003, 0., 3.22061195e-003, 0., 0., 0.,
          4.83091781e-003, 0., 2.09339783e-002, 0., 4.83091781e-003, 0. ]
      - [ 2.36034626e-003, 0., 0., 1.57356414e-003, 0., 4.72069252e-003,
          0., 0., 3.14712827e-003, 1.57356414e-003, 1.57356414e-003, 0.,
          0., 0., 0., 0., 7.86782068e-004, 0., 0., 1.57356414e-003,
          7.86782068e-004, 0., 3.14712827e-003, 0., 2.36034626e-003, 0.,
          7.86782068e-004, 1.57356414e-003, 3.14712827e-003,
          7.86782068e-004, 2.36034626e-003, 3.93391028e-003, 0.,
          7.86782068e-004, 3.93391028e-003, 1.57356414e-003,
          2.36034626e-003, 3.14712827e-003, 2.36034626e-003,
          1.57356414e-003, 7.86782068e-004, 7.08103878e-003, 0.,
          1.57356414e-003, 7.86782068e-004, 2.36034626e-003,
          7.86782068e-004, 0., 1.57356414e-003, 0., 0., 1.57356414e-003,
          1.57356414e-003, 3.93391028e-003, 3.14712827e-003,
          1.57356414e-003, 3.14712827e-003, 7.86782068e-004,
          1.57356414e-003, 0., 7.86782068e-004, 0., 0., 1.57356414e-003,
          5.50747430e-003, 3.93391028e-003, 2.36034626e-003,
          2.36034626e-003, 2.36034626e-003, 7.86782068e-004,
          4.72069252e-003, 0., 1.57356414e-003, 7.86782068e-004,
          1.57356414e-003, 2.36034626e-003, 2.36034626e-003, 0.,
          4.72069252e-003, 3.14712827e-003, 3.93391028e-003,
          1.57356414e-003, 0., 1.57356414e-003, 0., 0., 2.36034626e-003,
          0., 0., 1.57356414e-003, 3.14712827e-003, 0., 0.,
          2.36034626e-003, 1.57356414e-003, 5.50747430e-003,
          1.57356414e-003, 3.93391028e-003, 7.08103878e-003, 0., 0., 0.,
          2.36034626e-003, 2.36034626e-003, 1.57356414e-003,
          6.29425654e-003, 7.86782068e-004, 0., 1.57356414e-003,
          3.14712827e-003, 7.86782068e-004, 0., 0., 7.86782068e-004, 0.,
          5.50747430e-003, 2.36034626e-003, 2.36034626e-003,
          7.86782068e-004, 0., 1.57356414e-003, 0., 2.36034626e-003,
          1.57356414e-003, 1.57356414e-003, 7.86782068e-004,
          3.14712827e-003, 7.86782068e-004, 0., 1.57356414e-003, 0.,
          1.25885131e-002, 2.36034626e-003, 7.08103878e-003,
          1.57356414e-003, 2.36034626e-003, 3.14712827e-003,
          7.86782068e-004, 7.86782068e-004, 7.86782068e-004,
          7.86782068e-004, 7.86782068e-004, 1.57356414e-003, 0., 0.,
          3.14712827e-003, 2.36034626e-003, 1.57356414e-003, 0., 0., 0.,
          3.14712827e-003, 3.14712827e-003, 7.86782068e-004, 0., 0.,
          7.86782068e-004, 2.36034626e-003, 3.14712827e-003,
          2.36034626e-003, 0., 2.36034626e-003, 3.14712827e-003, 0.,
          7.08103878e-003, 0., 5.50747430e-003, 5.50747430e-003, 0.,
          3.93391028e-003, 0., 1.57356414e-003, 7.86782068e-004,
          1.57356414e-003, 2.36034626e-003, 3.93391028e-003,
          2.36034626e-003, 3.14712827e-003, 7.86782068e-004,
          3.93391028e-003, 0., 7.86782068e-004, 3.14712827e-003,
          3.14712827e-003, 7.86782068e-004, 7.86782068e-004,
          1.57356414e-003, 7.86782068e-004, 7.86782068e-004,
          7.86782068e-004, 3.93391028e-003, 7.86782068e-004,
          4.72069252e-003, 1.57356414e-003, 0., 3.14712827e-003,
          1.57356414e-003, 1.57356414e-003, 0., 6.29425654e-003,
          7.86782068e-004, 7.86782068e-004, 7.08103878e-003,
          3.93391028e-003, 3.93391028e-003, 1.57356414e-003,
          4.72069252e-003, 0., 1.57356414e-003, 7.86782068e-004, 0.,
          7.86782068e-004, 7.86782056e-003, 2.36034626e-003, 0., 0.,
          3.93391028e-003, 7.86782068e-004, 1.57356414e-003, 0.,
          2.36034626e-003, 0., 0., 0., 1.57356414e-003, 1.57356414e-003,
          1.57356414e-003, 7.86782068e-004, 7.86782068e-004,
          2.36034626e-003, 7.86782068e-004, 7.86782068e-004,
          1.57356414e-003, 7.86782068e-004, 1.57356414e-003, 0., 0.,
          1.57356414e-003, 7.86782068e-004, 3.93391028e-003,
          7.86782068e-004, 3.14712827e-003, 3.14712827e-003,
          4.72069252e-003, 2.36034626e-003, 0., 4.72069252e-003,
          7.86782068e-004, 1.57356414e-003, 2.36034626e-003,
          7.86782068e-004, 3.14712827e-003, 0., 2.36034626e-003,
          1.57356414e-003, 0., 1.57356414e-003, 1.57356414e-003,
          7.86782068e-004, 3.93391028e-003, 3.93391028e-003, 0., 0.,
          3.93391028e-003, 0., 3.14712827e-003, 3.14712827e-003,
          7.86782068e-004, 1.57356414e-003, 4.72069252e-003, 0.,
          7.86782068e-004, 0., 0., 7.86782068e-004, 0., 5.50747430e-003,
          1.57356414e-003, 0., 7.86782068e-004, 0., 2.36034626e-003,
          3.93391028e-003, 0., 0., 0., 1.57356414e-003, 7.86782068e-004,
          0., 5.50747430e-003, 0., 0., 2.36034626e-003, 7.86782068e-004,
          0., 6.29425654e-003, 3.93391028e-003, 3.14712827e-003,
          7.86782068e-004, 7.86782068e-004, 0., 0., 3.93391028e-003,
          3.93391028e-003, 1.57356414e-003, 1.57356414e-003,
          3.93391028e-003, 0., 0., 1.57356414e-003, 2.36034626e-003,
          3.14712827e-003, 0., 0., 7.86782068e-004, 1.57356414e-003,
          3.93391028e-003, 2.36034626e-003, 1.57356414e-003,
          7.86782068e-004, 3.93391028e-003, 1.57356414e-003, 0., 0.,
          7.86782068e-004, 0., 0., 0., 1.57356414e-003, 2.36034626e-003,
          7.86782068e-004, 0., 1.57356414e-003, 0., 7.86782068e-004,
          1.57356414e-003, 0., 0., 0., 2.36034626e-003, 4.72069252e-003,
          0., 0., 0., 3.14712827e-003, 0., 0., 7.86782068e-004,
          3.14712827e-003, 3.14712827e-003, 0., 0., 0., 3.14712827e-003,
          7.86782068e-004, 7.86782068e-004, 0., 1.57356414e-003,
          7.86782068e-004, 0., 1.57356414e-003, 1.57356414e-003, 0.,
          1.57356414e-003, 2.36034626e-003, 0., 1.57356414e-003, 0.,
          2.36034626e-003, 7.86782068e-004, 0., 0., 7.86782068e-004,
          2.36034626e-003, 3.14712827e-003, 0., 1.57356414e-003,
          3.14712827e-003, 3.93391028e-003, 7.86782068e-004,
          3.93391028e-003, 7.86782068e-004, 0., 1.57356414e-003,
          7.86782068e-004, 4.72069252e-003, 0., 7.86782068e-004, 0.,
          1.57356414e-003, 1.57356414e-003, 5.50747430e-003, 0.,
          1.57356414e-003, 7.86782056e-003, 0., 0., 0., 7.86782068e-004,
          0., 0., 0., 7.86782068e-004, 6.29425654e-003, 6.29425654e-003,
          1.57356414e-003, 1.57356414e-003, 1.57356414e-003,
          7.86782068e-004, 0., 0., 0., 1.57356414e-003, 2.36034626e-003,
          3.93391028e-003, 7.86782068e-004, 0., 1.57356414e-003,
          2.36034626e-003, 7.86782068e-004, 2.36034626e-003, 0., 0.,
          3.14712827e-003, 2.36034626e-003, 0., 3.14712827e-003,
          1.57356414e-003, 0., 0., 3.14712827e-003, 3.93391028e-003, 0.,
          0., 7.86782068e-004, 0., 0., 1.57356414e-003, 1.57356414e-003,
          0., 0., 0., 0., 3.14712827e-003, 7.86782068e-004, 0.,
          7.86782068e-004, 3.14712827e-003, 1.57356414e-003, 0., 0., 0.,
          7.08103878e-003, 0., 7.86782068e-004, 0., 0., 7.86782068e-004,
          0., 5.50747430e-003, 1.57356414e-003, 0., 1.57356414e-003,
          1.57356414e-003, 0., 7.86782068e-004, 7.86782068e-004,
          6.29425654e-003, 7.86782068e-004, 7.86782068e-004,
          1.57356414e-003, 0., 3.93391028e-003, 2.36034626e-003,
          2.36034626e-003, 7.86782068e-004, 0., 1.57356414e-003,
          7.86782068e-004, 1.57356414e-003, 3.14712827e-003,
          1.57356414e-003, 7.86782068e-004, 2.36034626e-003, 0.,
          1.57356414e-003, 2.36034626e-003, 1.57356414e-003, 0.,
          7.86782068e-004, 0., 0., 0., 3.14712827e-003, 2.36034626e-003,
          1.57356414e-003, 1.57356414e-003, 1.57356414e-003,
          1.57356414e-003, 0., 3.14712827e-003, 2.36034626e-003,
          2.36034626e-003, 1.57356414e-003, 3.93391028e-003,
          1.57356414e-003, 3.93391028e-003, 4.72069252e-003, 0.,
          2.36034626e-003, 3.14712827e-003, 1.57356414e-003,
          3.93391028e-003, 3.93391028e-003, 7.86782068e-004, 0.,
          4.72069252e-003, 0., 7.86782068e-004, 2.36034626e-003,
          1.57356414e-003, 5.50747430e-003, 7.86782068e-004,
          7.86782068e-004, 3.14712827e-003, 0., 0., 1.57356414e-003,
          1.57356414e-003, 3.14712827e-003, 4.72069252e-003, 0.,
          2.36034626e-003, 3.14712827e-003, 1.57356414e-003,
          1.57356414e-003, 3.14712827e-003, 7.86782068e-004, 0.,
          3.93391028e-003, 5.50747430e-003, 3.14712827e-003,
          2.36034626e-003, 1.57356414e-003, 0., 5.50747430e-003,
          4.72069252e-003, 0., 0., 3.93391028e-003, 0., 4.72069252e-003,
          0., 7.86782068e-004, 5.50747430e-003, 7.86782068e-004,
          1.57356414e-003, 3.14712827e-003, 7.86782068e-004, 0.,
          1.57356414e-003, 1.57356414e-003, 3.93391028e-003,
          6.29425654e-003, 2.36034626e-003, 7.86782068e-004,
          3.14712827e-003, 3.93391028e-003, 0., 0., 1.57356414e-003,
          4.72069252e-003, 3.14712827e-003, 3.14712827e-003,
          1.57356414e-003, 3.14712827e-003, 0., 1.57356414e-003, 0., 0.,
          3.14712827e-003, 7.86782068e-004, 2.36034626e-003,
          5.50747430e-003, 2.36034626e-003, 0., 7.86782068e-004,
          1.57356414e-003, 2.36034626e-003, 1.57356414e-003,
          3.14712827e-003, 0., 4.72069252e-003, 8.65460280e-003,
          3.14712827e-003, 7.86782068e-004, 3.93391028e-003,
          7.86782068e-004, 7.86782068e-004, 0. ]
      - [ 6.84931525e-004, 0., 0., 6.84931525e-004, 0., 6.84931525e-004,
          2.05479469e-003, 0., 6.84931525e-004, 0., 0., 6.84931525e-004,
          0., 2.05479469e-003, 0., 1.36986305e-003, 0., 2.73972610e-003,
          0., 4.10958938e-003, 1.36986305e-003, 2.05479469e-003,
          3.42465751e-003, 0., 6.84931525e-004, 0., 0., 0.,
          1.36986305e-003, 6.16438361e-003, 2.05479469e-003,
          9.58904158e-003, 6.84931525e-004, 6.84931525e-004, 0., 0.,
          2.05479469e-003, 1.36986305e-003, 6.84931525e-004,
          3.42465751e-003, 4.79452079e-003, 2.05479469e-003,
          6.84931525e-004, 6.84931502e-003, 1.36986305e-003,
          4.79452079e-003, 1.36986305e-003, 0., 3.42465751e-003,
          3.42465751e-003, 6.84931525e-004, 0., 5.47945220e-003,
          3.42465751e-003, 4.10958938e-003, 3.42465751e-003, 0.,
          6.84931525e-004, 0., 1.36986305e-003, 0., 0., 0.,
          4.10958938e-003, 1.36986305e-003, 6.84931525e-004,
          4.79452079e-003, 3.42465751e-003, 6.84931525e-004, 0., 0., 0.,
          8.21917877e-003, 6.16438361e-003, 2.73972610e-003,
          2.05479469e-003, 1.36986305e-003, 0., 6.84931525e-004,
          1.36986305e-003, 2.05479469e-003, 3.42465751e-003,
          6.84931525e-004, 2.73972610e-003, 2.05479469e-003, 0.,
          2.05479469e-003, 6.84931525e-004, 6.84931502e-003,
          6.84931525e-004, 5.47945220e-003, 0., 0., 3.42465751e-003,
          4.79452079e-003, 0., 1.36986305e-003, 2.73972610e-003, 0., 0.,
          6.84931525e-004, 0., 1.36986305e-003, 0., 0., 2.05479469e-003,
          4.10958938e-003, 1.36986305e-003, 2.05479469e-003,
          2.05479469e-003, 2.73972610e-003, 0., 0., 1.36986305e-003, 0.,
          2.73972610e-003, 4.10958938e-003, 1.36986305e-003,
          2.05479469e-003, 2.05479469e-003, 2.73972610e-003,
          6.84931525e-004, 0., 2.05479469e-003, 3.42465751e-003, 0., 0.,
          2.05479469e-003, 0., 2.05479469e-003, 9.58904158e-003,
          7.53424689e-003, 4.10958938e-003, 1.36986305e-003,
          1.36986305e-003, 6.84931525e-004, 2.73972610e-003,
          3.42465751e-003, 1.36986305e-003, 0., 1.36986305e-003,
          6.84931525e-004, 1.36986305e-003, 0., 2.05479469e-003,
          7.53424689e-003, 0., 9.58904158e-003, 1.36986305e-003, 0.,
          1.36986305e-003, 5.47945220e-003, 0., 2.05479469e-003,
          2.05479469e-003, 0., 6.84931525e-004, 2.05479469e-003,
          4.10958938e-003, 2.73972610e-003, 0., 6.84931525e-004, 0., 0.,
          4.10958938e-003, 0., 1.36986305e-003, 6.84931525e-004, 0.,
          1.36986305e-003, 1.36986305e-003, 0., 0., 4.10958938e-003,
          2.05479469e-003, 6.84931525e-004, 1.36986305e-003,
          4.10958938e-003, 6.16438361e-003, 0., 0., 6.84931525e-004, 0.,
          4.10958938e-003, 6.84931525e-004, 0., 1.36986305e-003,
          6.84931525e-004, 6.84931525e-004, 0., 0., 6.84931525e-004,
          4.10958938e-003, 2.05479469e-003, 4.79452079e-003, 0.,
          2.05479469e-003, 2.05479469e-003, 4.79452079e-003,
          4.10958938e-003, 0., 1.36986305e-003, 2.05479469e-003, 0., 0.,
